{
    "svm": {
        "weights": [
            -1.0
        ],
        "bias": 0.37316372832959555,
        "supportVectors": [
            "{1.3859765022061765E-4, -3.4488324308767915E-4, -7.032871944829822E-4, 2.0782259525731206E-4, -6.22842984739691E-4, -0.001189143629744649, 6.233734311535954E-4, -0.001605602097697556, 8.126089232973754E-4, 0.001754494966007769, -4.2880995897576213E-4, -0.0020343067590147257, -0.001064553507603705, 7.966134580783546E-4, 3.7352152867242694E-4, 5.70410571526736E-4, 1.5127840742934495E-4, -0.0016150876181200147, -4.916457692161202E-4, -0.0010190721368417144, 0.001217513345181942, 1.3693048094864935E-4, 0.00221048085950315, 4.8751255962997675E-4, 9.339622338302433E-4, 7.618920062668622E-4, -4.247458418831229E-4, 9.280333324568346E-5, 2.1347029542084783E-4, -7.430289988406003E-4, -6.474794936366379E-4, 3.9203345659188926E-4, -5.797113408334553E-4, 1.8340420501772314E-4, -9.966316865757108E-4, 9.109488019021228E-5, -6.543705967487767E-5, 0.001287544146180153, 4.35962196206674E-4, 3.2975772046484053E-4, -0.0010429820977151394, -8.909094613045454E-4, -1.9615756173152477E-4, -5.954525549896061E-4, 0.0015338172670453787, 0.001020540832541883, 0.0010728681227192283, -3.419202985242009E-4, -7.044891826808453E-4, -6.884579779580235E-4, -4.607017617672682E-4, -8.215095149353147E-4, 9.009338828036562E-5, 5.344841629266739E-4, 3.546709776856005E-4, -2.039176324615255E-4, 3.5541364923119545E-5, 3.1060416949912906E-4, 7.494435412809253E-4, -2.270483528263867E-4, 0.0013181064277887344, 1.6502571816090494E-4, 7.520390208810568E-4, 3.4907786175608635E-4, 6.248668069019914E-4, 3.7507963133975863E-4, 5.987421027384698E-4, -1.7253555415663868E-4, 5.869321175850928E-4, -3.7198173231445253E-4, 1.2738097575493157E-4, -0.001869398052804172, -7.920520729385316E-4, 6.618344923481345E-4, 2.2306109894998372E-4, -0.001196888624690473, 5.808277637697756E-4, 2.4979058071039617E-4, -0.0010983918327838182, -1.4246892533265054E-4, 5.958122783340514E-4, 0.0010731345973908901, -1.5944814367685467E-4, -0.0011430716840550303, -1.5046152111608535E-4, 4.1107163997367024E-4, 4.90145233925432E-4, -1.2357710511423647E-4, 3.728407609742135E-4, 2.5464603095315397E-4, 2.344305394217372E-4, -7.985761621966958E-4, 1.9210407117498107E-5, -7.062367512844503E-4, -0.0017283689230680466, 1.7657475837040693E-4, -0.001081495196558535, 9.190618293359876E-4, 3.8803217466920614E-4, -4.802675102837384E-4, 5.403970135375857E-4, 6.214027525857091E-4, -8.996513788588345E-4, -1.6078997578006238E-4, -3.8833945291116834E-4, -2.6649804203771055E-4, 0.0011560386046767235, -0.0011904624989256263, -0.0014778933255001903, -6.966679939068854E-4, -8.329785778187215E-4, -1.9918815814889967E-4, 9.153052233159542E-4, 4.683405568357557E-4, 7.952989544719458E-4, -6.42233993858099E-4, 8.683481719344854E-4, 0.0010628344025462866, 5.583202000707388E-4, 0.0012732702307403088, 0.0013135592453181744, 7.710186764597893E-4, 2.547679468989372E-4, -0.0011617380660027266, 0.0015847784234210849, 0.002203569281846285, 9.289834997616708E-4, 6.891575758345425E-4, 9.181658388115466E-4, 8.356865728273988E-4, 1.97736153495498E-4, -0.0012359700631350279, -6.921488675288856E-4, -1.9057966710533947E-4, -3.569551045075059E-4, -2.146985352737829E-4, 0.0012967945076525211, 0.0013759516878053546, 5.875573842786252E-4, -8.648065704619512E-5, 2.05937321879901E-4, 6.48964662104845E-4, -8.75345547683537E-4, -5.738221225328743E-4, 0.0012447158806025982, 8.253846317529678E-4, 9.109689854085445E-4, -7.269192137755454E-4, 5.992843580315821E-5, 3.1216663774102926E-4, -7.380280876532197E-4, -3.2903984538279474E-4, -7.286725303856656E-5, -0.0014230284141376615, -9.509841038379818E-5, -8.324339287355542E-4, -4.217697132844478E-4, -1.9656229414977133E-4, 1.5561855980195105E-4, 5.443052577902563E-5, -2.497952664270997E-4, -3.768224560189992E-4, -0.0011141697177663445, -0.0015840724809095263, 5.9383422922110185E-5, 1.494379248470068E-4, -6.174287409521639E-4, -2.2132019512355328E-4, -0.0021060206927359104, -0.0026197838596999645, 9.455361869186163E-4, 3.597613249439746E-4, 6.766010774299502E-4, -3.0525936745107174E-4, -2.4756291531957686E-4, -6.88227082719095E-5, 6.113130366429687E-4, 2.7258755289949477E-4, 4.4855475425720215E-4, 0.002093264600262046, 3.287381259724498E-4, -9.764067362993956E-4, -7.421054760925472E-5, 7.881699129939079E-4, 7.48701742850244E-4, -0.0010123566025868058, -5.445107817649841E-4, -0.001383921247906983, 2.800369111355394E-4, 0.0011407927377149463, 5.777663318440318E-4, -9.623803780414164E-4, 9.386881138198078E-4, -4.4542827527038753E-4, 5.673106643371284E-4, 6.113192066550255E-4, 7.328102365136147E-4, 3.554890863597393E-4, -6.548678502440453E-4, -0.0010464590741321445, 7.030904525890946E-4, -4.27884777309373E-4, -3.620241768658161E-4, -7.915502465039026E-6, -2.898747625295073E-4, -7.155985222198069E-4, -5.358736962080002E-4, 6.763351266272366E-4, 1.4091108459979296E-4, -4.819948662770912E-5, 2.7937578852288425E-4, 1.2405883171595633E-4, 7.46693869587034E-4, 3.18181118927896E-4, -0.001033575157634914, 8.80131556186825E-4, 7.358290604315698E-4, 8.398081408813596E-4, 8.478990639559925E-4, -2.0081037291674875E-5, -7.796686259098351E-4, 5.8064597396878526E-5, 4.5688432874158025E-4, 3.459184426901629E-6, 0.0010812177788466215, 1.1438266665209085E-4, 7.609418826177716E-4, -3.4286058507859707E-4, -4.945262335240841E-4, -8.853928302414715E-4, -5.756095633842051E-4, 0.0013526674592867494, 4.8286307719536126E-4, 6.094812415540218E-4, 7.920443313196301E-4, 2.1173838467802852E-4, 4.765991761814803E-4, -1.1833658209070563E-4, -5.774282035417855E-4, -1.2333506310824305E-4, -0.0010983723914250731, 2.128842315869406E-4, 9.543159394524992E-4, -7.150043966248631E-4, -4.53601251138025E-6, -3.849945787806064E-4, -6.904680631123483E-4, 2.1411533816717565E-4, 6.658132770098746E-4, -0.0010114137548953295, -6.681816885247827E-4, -4.762921016663313E-4, -1.3372660032473505E-4, -0.0012773388298228383, -9.080229574465193E-6, 0.0011280894977971911, 3.946621436625719E-4, -1.384512142976746E-4, -4.7565474233124405E-5, 7.272599032148719E-4, 5.380351794883609E-4, 6.457174895331264E-4, 6.857008556835353E-4, 3.497037396300584E-4, 3.831076173810288E-5, -8.609903161413968E-4, -7.970245787873864E-4, 1.293912937399E-4, -6.383256986737251E-4, -7.610021275468171E-4, -0.001626842888072133, -4.2908723116852343E-4, 1.505908148828894E-4, -0.0012726271525025368, 7.107744022505358E-5, 8.819278446026146E-4, 2.2003856429364532E-4, -6.316683138720691E-4, 5.20469737239182E-4, 0.0015479068970307708, 0.0011539353290572762, -6.519544986076653E-4, 7.41289186407812E-5, -1.828631866374053E-5, -3.7095489096827805E-4, 5.438016378320754E-4, 4.186974838376045E-4, -3.766910595004447E-5, -0.0018448976334184408, -0.001401151530444622, -0.001521312166005373, 1.6512078582309186E-4, 3.932914405595511E-4, 0.0014644600450992584, 6.001663277857006E-4, 6.9145840825513E-4, 8.71755401021801E-5, 1.09252636320889E-4, 7.169693126343191E-4, 0.0011180245783179998, 6.950644892640412E-4, 2.3664072796236724E-4, 5.423692055046558E-4, 0.0012702307431027293, 0.0010083981323987246, 2.826448471751064E-4, 1.6257958122878335E-5, 1.1052973422920331E-4, -0.0014814931200817227, -1.1704971984727308E-4, -3.681626112665981E-4, 3.440016589593142E-4, 6.46678963676095E-4, 9.228743147104979E-4, -2.979247074108571E-4, -0.0013822769979014993, 6.086390931159258E-4, 0.0011104987934231758, 0.0010036962339654565, 3.800797858275473E-4, 0.0010088555281981826, -8.538032125215977E-5, 0.0010661722626537085, 1.865710219135508E-4, 4.5385790144791827E-5, 4.203865537419915E-4, 1.9500876078382134E-4, -8.473535417579114E-4, -7.077421760186553E-4, -2.2354518296197057E-4, -6.253705214476213E-5, -2.995161048602313E-4, -3.32004448864609E-4, -5.116442334838212E-4, 3.702550893649459E-4, 7.680871058255434E-4, 0.0019640731625258923, 0.001325901597738266, -3.305262653157115E-4, 1.8715733313001692E-4, 9.126925142481923E-4, 8.351047872565687E-4, 4.7137041110545397E-4, 0.0010549550643190742, 5.253657582215965E-4, 9.703635005280375E-4, -4.351366951595992E-4, -9.056298295035958E-4, 1.0375515557825565E-4, 6.497816648334265E-4, 1.5145812358241528E-4, -5.310935666784644E-4, -4.6577808097936213E-4, -1.2117709411541E-4, 9.99502808554098E-5, -3.7336398963816464E-4, 3.612818836700171E-4, -1.4761088823433965E-4, -4.0758869727142155E-4, 2.5044140056706965E-4, 3.085735079366714E-4, 0.0015872168587520719, 0.0017091302433982491, -4.690618661697954E-4, -0.0011218844447284937, -9.815836092457175E-4, -6.226240075193346E-4, 8.10993486084044E-4, -9.605973173165694E-5, 0.0014406710397452116, 0.001129709999077022, 6.127370870672166E-4, 1.2760038953274488E-4, -6.925557681825012E-5, 4.8460718244314194E-4, 2.1417572861537337E-4, 0.0012463333550840616, 8.409306174144149E-4, 6.648775306530297E-4, 3.483978216536343E-4, 0.0012788925087079406, 2.1356838260544464E-5, -3.059161244891584E-4, -0.0015719911316409707, -2.770399732980877E-4, 5.22537506185472E-4, 7.724052993580699E-4, 2.601029882498551E-5, 7.142744725570083E-4, -6.480669253505766E-4, -0.0013296544784680009, 5.440602544695139E-4, 9.254110627807677E-4, 1.243823644472286E-4, 9.281915845349431E-4, -1.301995653193444E-4, -3.259416844230145E-4, 4.1959070949815214E-4, 9.675818728283048E-4, 0.0016118065686896443, 3.691210295073688E-4, 2.461287658661604E-4, -0.0013736968394368887, 1.0151072638109326E-4, -1.0575560008874163E-4, 6.997226737439632E-4, -5.214379052631557E-4, -0.0010065312962979078, -4.7797145089134574E-4, 7.762168534100056E-4, -7.567938882857561E-4, -3.6436630762182176E-4, 4.247369652148336E-4, 0.0011111254571005702, 7.367453654296696E-4, 5.124196759425104E-4, 8.85210873093456E-4, -9.888859931379557E-4, -3.956632863264531E-4, -3.463408793322742E-4, -1.2664652604144067E-4, 5.347293335944414E-4, 2.084229199681431E-4, 0.0017685000784695148, 5.09091536514461E-4, -6.634286546614021E-5, -0.0011251926189288497, 2.9061725945211947E-4, -1.25828169984743E-4, 4.850303230341524E-4, 4.981241072528064E-4, -0.0012423088774085045, -2.845546987373382E-4, 2.541727189964149E-5, -3.3582549076527357E-4, -5.253542913123965E-4, -3.0664322548545897E-4, 9.275631164200604E-4, -7.988627767190337E-4, -6.764990394003689E-4, -4.663421423174441E-4, -1.461987994844094E-4, 6.255267653614283E-4, 9.213218436343595E-5, -7.283694576472044E-4, -7.676479290239513E-4, -0.0012445610482245684, -6.202889489941299E-4, -8.376938640139997E-4, -0.0011432049795985222, -6.391014321707189E-4, -8.635028498247266E-4, -2.3317738668993115E-4, 4.285481118131429E-4, 9.527979418635368E-4, 2.8905083308927715E-4, -8.874671766534448E-4, -5.372206214815378E-4, 6.195051828399301E-4, 7.279068231582642E-4, -2.30767487664707E-4, 5.376921617425978E-4, 5.711478879675269E-4, 4.029654373880476E-4, -9.202530491165817E-4, 4.169544263277203E-4, 2.3653787502553314E-4, 3.2811789424158633E-4, 6.272603641264141E-4, -6.767726154066622E-4, -4.770235682372004E-4, -0.001042234362103045, -0.00149042927660048, -2.2213440388441086E-4, -6.916230195201933E-4, -3.1546535319648683E-4, 7.526878034695983E-4, 0.0014999039703980088, 9.840792044997215E-4, -0.0012709753355011344, -8.018881781026721E-4, -0.001588430954143405, 8.228562073782086E-4, -4.2077829129993916E-4, -4.811715625692159E-4, 4.671638598665595E-4, 0.0010523363016545773, -2.312035794602707E-4, -5.420076777227223E-4, -4.478050395846367E-4, -2.826732234098017E-4, 0.001754310796968639, 0.001201555016450584, -0.001178273232653737, 7.354518747888505E-4, -6.706674466840923E-4, -1.8599476607050747E-4, 4.914699238725007E-4, -1.8223945517092943E-5, -8.354004239663482E-5, 2.279880573041737E-4, 4.025018715765327E-4, 1.0290396312484518E-4, 4.278222331777215E-4, -4.923265660181642E-4, -5.990946083329618E-4, -7.363079348579049E-4, -0.0010507924016565084, -0.0013692803913727403, -0.001226896420121193, -4.3143320363014936E-4, -6.357064703479409E-4, -4.1348248487338424E-4, 3.054787157452665E-5, 9.955187560990453E-4, 0.001297326642088592, 6.078931037336588E-4, 0.0010040092747658491, 0.0013572981115430593, -2.9797613387927413E-4, 9.848888730630279E-4, 8.636976417619735E-5, -5.545367603190243E-4, -5.277593736536801E-4, -4.081629158463329E-4, -8.570101927034557E-4, -0.0014153083320707083, -6.071229654480703E-5, 8.511916385032237E-4, -3.1546855461783707E-4, -0.0012965606292709708, -4.620762774720788E-4, -1.2667261762544513E-4, 4.5985079486854374E-4, 0.0014181735459715128, -7.069709245115519E-4, 1.4010544691700488E-4, 7.998723303899169E-4, 2.517049142625183E-4, 2.1350565657485276E-4, -0.0013474285369738936, 6.517978617921472E-4, 0.0013321698643267155, -3.0358912772499025E-4, -4.147846993873827E-5, -8.573109516873956E-4, -5.211287643760443E-4, -6.220736540853977E-4, -1.0077249316964298E-4, -1.1587668996071443E-4, 4.265275492798537E-4, 0.0014050473691895604, 6.587688694708049E-4, -6.979206227697432E-4, -0.0012248053681105375, 5.241853068582714E-4, 0.0013592152390629053, 6.694408366456628E-4, 7.345915219048038E-5, -8.562075672671199E-4, -0.0011361651122570038, 3.740254323929548E-4, 5.383640746003948E-5, -1.0623181879054755E-4, -0.0014962193090468645, 0.0017806640826165676, -1.5677498595323414E-4, 9.853321826085448E-4, 0.001113474485464394, 4.534828185569495E-4, -3.6564681795425713E-4, -0.0017491575563326478, -0.0013389840023592114, -7.695223321206868E-4, -6.633298653468955E-6, 0.0011572132352739573}"
        ],
        "K": {
            "type": "com.azbyn.chess_solver.svm.Kernel.Linear"
        }
    }
}