{
    "svm": {
        "weights": [
            -1.0
        ],
        "bias": -0.0529365092079478,
        "supportVectors": [
            "{5.701646441593766E-4, 1.5939514560159296E-4, 4.008861433248967E-4, -3.958523739129305E-4, -7.218955433927476E-4, -3.2034979085437953E-4, -5.484148859977722E-4, 5.506857996806502E-4, 5.418712389655411E-4, -2.7864109142683446E-4, -4.2903644498437643E-4, -2.733829023782164E-4, 2.7130075613968074E-4, 6.522773037431762E-5, 7.68112440709956E-5, -3.2470861333422363E-4, 8.840490481816232E-4, 4.4206430902704597E-4, -6.363469874486327E-4, 0.0010072921868413687, 4.433576250448823E-4, -3.495075216051191E-4, 0.0012001976137980819, -4.6497207949869335E-4, -3.740485408343375E-4, -1.5426924801431596E-4, -4.356634453870356E-4, 8.875356870703399E-4, 0.0011128130136057734, -1.5245616668835282E-4, -8.071201154962182E-4, -4.407759406603873E-4, 7.659634138690308E-5, 7.600921526318416E-5, 2.4127760843839496E-4, 1.6192137263715267E-4, 0.0010375544661656022, 4.2365904664620757E-4, 6.87392195686698E-4, 3.83538514142856E-4, 8.252451661974192E-4, -0.0010801744647324085, -0.0010389424860477448, 2.508972829673439E-4, 4.959109355695546E-4, 9.22702020034194E-4, -8.294604485854506E-4, -3.296929571661167E-5, -1.965990668395534E-5, 2.2271208581514657E-4, -9.00525541510433E-4, -3.9275549352169037E-4, 1.9920579507015646E-4, -8.082631975412369E-4, -0.001023888704366982, -3.4522946225479245E-4, -4.1106835124082863E-4, -4.935562610626221E-4, -0.001262672827579081, -3.327001759316772E-4, -9.511895041214302E-5, -1.9169739971403033E-5, 1.6316495020873845E-4, 3.7771696224808693E-4, 3.578075848054141E-4, 7.907472900114954E-5, -4.6432713861577213E-4, 1.6470761329401284E-4, 9.123053314397112E-5, 3.687714342959225E-4, 0.0013580545783042908, 1.2194253213237971E-4, 1.4921245747245848E-4, -0.0013576834462583065, 4.2599751031957567E-4, 7.461757631972432E-4, 9.902132442221045E-4, -7.624899444635957E-5, 4.2068748734891415E-4, 6.779684335924685E-4, 8.935449877753854E-4, 0.0012606959789991379, -9.7007459771703E-6, -2.1708340500481427E-4, 7.772326353006065E-5, -3.8547927397303283E-4, 3.795171869569458E-5, 7.940034993225709E-5, 6.758719246136025E-5, 6.433465168811381E-4, -7.84844160079956E-5, -4.6733199269510806E-4, 3.4262301051057875E-4, -7.690649945288897E-4, -3.146063245367259E-4, 1.3190272147767246E-4, 4.1812167182797566E-5, -6.689130677841604E-4, -3.0143308686092496E-4, -6.105412467150018E-5, -1.4375986938830465E-4, -4.7120320959948003E-4, -3.0926187173463404E-4, -4.895365564152598E-4, 3.5598574322648346E-4, -4.22982731834054E-4, -9.267376735806465E-4, -4.4724115286953747E-4, -4.6608157572336495E-4, -4.8355525359511375E-4, 8.035236387513578E-4, 0.0014568830374628305, 0.0013522151857614517, 8.181080338545144E-4, 2.568885392975062E-4, 9.295036434195936E-4, 4.6957744052633643E-4, 2.748275001067668E-4, -2.8358298004604876E-4, 8.635930716991425E-4, 6.173035944812E-4, -2.6555763906799257E-4, -5.761823849752545E-4, 5.094017251394689E-4, 9.192773140966892E-4, -7.923612138256431E-4, -8.526252931915224E-4, -2.7393977507017553E-4, -0.0011453924234956503, -3.7464621709659696E-4, -2.0228905486874282E-4, -3.570594999473542E-4, 1.358192675979808E-4, 6.648590788245201E-4, -2.7861035778187215E-4, 5.261788464849815E-5, 7.793367331032641E-6, -1.9534614693839103E-4, -7.251165225170553E-4, 7.703942246735096E-4, -1.5410939522553235E-4, -2.340698119951412E-4, -3.6765183904208243E-4, -9.463962051086128E-4, -1.667869946686551E-4, 3.461980086285621E-4, 5.206039641052485E-4, 2.4222528736572713E-4, 0.0010560775408521295, 6.955418502911925E-4, -2.7310382574796677E-4, 9.782092092791572E-5, -3.6042570718564093E-4, -1.670374331297353E-4, -5.970144411548972E-4, 6.43635808955878E-4, 0.0013225702568888664, 0.0011709613027051091, -7.052592263789847E-5, -4.6407530317083E-4, 6.604465888813138E-4, -3.8272139499895275E-4, -0.001055808155797422, 8.105102460831404E-4, -1.9515526946634054E-4, 1.7916561046149582E-4, 3.043758333660662E-4, 6.888022180646658E-4, 1.593743363628164E-4, 9.718725777929649E-5, -5.140185239724815E-4, -3.0929120839573443E-4, 2.2450978576671332E-4, 5.225683562457561E-4, -1.313968386966735E-4, 3.83309816243127E-4, 2.6375404559075832E-5, -1.531046291347593E-4, -0.0010314652463421226, 5.86619193200022E-4, 2.3505729041062295E-4, 2.4262933584395796E-4, 1.566374849062413E-4, -3.0186393996700644E-4, -5.833680625073612E-4, -2.1949029178358614E-4, -1.0574523912509903E-4, 0.0010024163639172912, -0.0011709401151165366, -3.6540464498102665E-4, -2.3595179663971066E-4, -0.0010286177275702357, -7.175062637543306E-5, -1.3512936129700392E-4, -5.172076635062695E-4, -6.837068940512836E-4, 6.311149336397648E-4, -2.344646054552868E-4, -5.076982197351754E-4, 0.0011085545411333442, 7.16156791895628E-5, 7.413598359562457E-4, -4.997874202672392E-5, 2.2515199816552922E-5, 8.843887917464599E-5, -3.575773152988404E-4, 1.2495242117438465E-4, -3.4670051718421746E-6, -6.109740934334695E-4, 1.4367995026987046E-4, -5.286056534714589E-7, 4.3920637108385563E-4, -0.0010609178571030498, 7.69853126257658E-4, 1.3606164429802448E-5, -3.5469474823912606E-6, 2.700537152122706E-4, 7.105533732101321E-4, -6.335950456559658E-5, -0.0010846111690625548, -8.534900262020528E-4, -2.328723930986598E-4, 4.0290781180374324E-4, 3.665562253445387E-4, 1.1037267540814355E-4, 7.544875843450427E-4, 6.565247313119471E-4, -1.6966019757092E-4, 2.8396048583090305E-4, -3.415081009734422E-4, 2.660301106516272E-4, -3.425092145334929E-4, -6.541073671542108E-4, 1.0603679402265698E-4, -2.942706923931837E-4, 2.309463598066941E-4, 3.318941526231356E-5, 9.89807303994894E-4, 3.1095847953110933E-4, -0.0013832882978022099, -0.001098543289117515, -7.642999989911914E-4, -5.860495730303228E-4, -6.118775927461684E-4, -1.341533788945526E-4, 2.834774204529822E-4, 0.0010251906933262944, -1.1562586587388068E-4, -3.0848223832435906E-4, -2.631096285767853E-4, 3.908458456862718E-4, 7.290709618246183E-5, -0.0012800181284546852, -4.754277179017663E-4, 3.239939105696976E-4, -4.6801585995126516E-5, 2.858505758922547E-4, 5.661739851348102E-4, -5.030325264669955E-4, 3.338674723636359E-4, -2.6089878519997E-4, 5.455141072161496E-4, -3.0036302632652223E-4, 9.219014900736511E-4, -0.0010262674186378717, -8.229587692767382E-4, -7.553980685770512E-4, -6.84708240441978E-4, -7.345561753027141E-4, -5.910759791731834E-4, 1.546680141473189E-4, -3.490085873636417E-7, 2.603286993689835E-4, -3.686055788421072E-5, -3.325967991258949E-4, 4.81686758575961E-4, -3.230453294236213E-4, -4.898893621430034E-6, 4.442553108674474E-5, 6.933628465048969E-4, 3.7542456993833184E-4, 8.285038347821683E-5, 4.7929614083841443E-4, 6.535822176374495E-4, -5.384337855502963E-4, -0.0010695504024624825, -3.5703741014003754E-4, -4.873410798609257E-4, -0.001098716165870428, -2.7770866290666163E-4, -1.8694593745749444E-4, -3.047308709938079E-4, -7.628393359482288E-4, -3.834625822491944E-4, -1.261483266716823E-4, 5.877054645679891E-4, 3.370150807313621E-4, 2.998940763063729E-4, 4.4770006206817925E-4, 8.519720868207514E-4, 4.89328580442816E-4, -5.225829590926878E-5, -8.170522633008659E-4, 8.142468141159043E-5, 7.426146767102182E-4, 9.813743963604793E-5, -2.785587275866419E-4, 7.404550560750067E-4, -3.815132367890328E-5, 5.778845516033471E-4, 1.857077149907127E-4, -4.386969667393714E-4, -0.001348178251646459, 4.69102495117113E-4, 1.626142329769209E-4, 0.0010333805112168193, 6.322341505438089E-4, -4.593724952428602E-6, -4.912283620797098E-4, 1.4963134890422225E-4, -5.7888308219844475E-5, 0.0013751123333349824, 0.0010335444239899516, 0.0011414614273235202, 2.4074057000689209E-4, 0.0012178581673651934, 9.435893152840436E-4, 3.4546692040748894E-4, 0.0024070534855127335, 0.001305480138398707, -1.805895153665915E-4, 9.36061202082783E-4, -9.992849081754684E-4, -8.409404108533636E-5, -7.206998416222632E-4, -4.018254185211845E-5, -0.002341266954317689, -8.396224584430456E-4, -7.38461734727025E-4, -1.0230374027742073E-4, 6.412286311388016E-4, 3.4274300560355186E-4, -4.838945751544088E-4, 2.580634318292141E-4, 1.3746092918154318E-5, 3.7012784741818905E-4, 2.9026094125583768E-5, 4.0208266000263393E-4, -6.619197847612668E-6, -6.974218413233757E-4, -2.6611657813191414E-4, -7.627859304193407E-5, 1.719548599794507E-4, -3.777222882490605E-4, -0.001042175805196166, 2.380213263677433E-4, -2.4252307412098162E-5, -1.0724302228481974E-5, -3.7126956158317626E-4, -3.7842054734937847E-4, 2.458181115798652E-4, 4.889105912297964E-4, 2.4092842068057507E-4, 2.861283137463033E-4, 4.4610153418034315E-4, 0.0010663921711966395, -7.606659783050418E-4, 1.965816190931946E-4, 1.2497113493736833E-4, -7.567208958789706E-4, 3.5617026151157916E-4, 3.889745275955647E-4, -1.870836567832157E-4, 4.31283115176484E-5, -1.0789183579618111E-4, -1.838703901739791E-4, 8.880848181433976E-4, 8.480478427372873E-4, -5.046420847065747E-4, 2.1300154912751168E-4, 7.17143586371094E-4, 4.906479734927416E-4, 6.237596971914172E-4, -4.145415914535988E-6, 0.0011947264429181814, 0.0014082107227295637, 0.0012608121614903212, 3.8831698475405574E-4, 2.4406950979027897E-4, 2.2181282110977918E-4, -5.218934384174645E-4, -2.9528842424042523E-4, 3.0453529325313866E-4, -5.434007034637034E-4, 3.9679816109128296E-4, 3.826127795036882E-4, 4.491361032705754E-4, -5.52684417925775E-4, -1.0537227353779599E-4, -4.882206267211586E-4, 5.90672018006444E-4, -5.07082040712703E-5, -5.757014150731266E-4, 8.110380149446428E-4, 7.294490933418274E-4, -8.32616351544857E-5, -1.3171377941034734E-4, 1.3760064030066133E-4, -3.8599115214310586E-4, -1.73178079421632E-4, 3.064902557525784E-4, -5.818002391606569E-4, -1.6147471615113318E-4, 0.0011123912408947945, -2.0007109560538083E-4, -2.39390748902224E-4, 6.564466166310012E-4, -5.88402253924869E-5, 0.0010022750357165933, 0.0018020684365183115, -2.2596772760152817E-4, -1.426363451173529E-5, -1.7411292355973274E-4, -5.594916874542832E-4, 7.280208228621632E-5, -2.80589192698244E-5, -0.001145044225268066, 9.120531030930579E-4, 5.925408331677318E-4, -2.703439968172461E-4, -8.358052000403404E-4, 0.0011992523213848472, 7.367406506091356E-4, 1.3579575170297176E-4, 9.983700001612306E-4, -2.8337136609479785E-4, 7.029101834632456E-4, 7.364050252363086E-4, -4.7119593364186585E-4, -1.0529872270126361E-5, -2.1099214791320264E-5, 7.764583278913051E-5, 2.6985490694642067E-4, -8.18819971755147E-4, -5.161791341379285E-4, -2.941877755802125E-4, -6.954804412089288E-4, -3.8307596696540713E-4, 1.6193142801057547E-4, -7.023376529105008E-4, -4.560968081932515E-4, 1.8180879123974591E-4, 2.4880387354642153E-4, -5.180040025152266E-4, -0.0010128476424142718, 6.83973848936148E-5, -4.0934604476206005E-4, -3.808294713962823E-4, 1.1469839228084311E-4, -8.214861736632884E-4, -0.0016647172160446644, 1.245334860868752E-4, -1.9432047338341363E-5, 2.3054986377246678E-4, -3.516387369018048E-4, 8.819233626127243E-4, 4.096446209587157E-4, 7.04347767168656E-5, -5.758842453360558E-4, -4.7806298243813217E-4, -2.5942130014300346E-4, 1.455581368645653E-4, -1.8869366613216698E-4, -8.697707089595497E-4, -0.0012562171323224902, 6.657732301391661E-4, 9.330115426564589E-5, -5.563722806982696E-4, 3.0627904925495386E-4, 5.950232152827084E-4, 6.853598461020738E-5, -8.990940405055881E-4, -2.0332705753389746E-4, -0.0011712731793522835, 1.765498163877055E-4, 9.425680218555499E-6, -4.2667327215895057E-4, 6.495337001979351E-4, -3.538446326274425E-4, 2.547347394283861E-4, -2.810453006532043E-4, 8.062354172579944E-4, -7.36247529857792E-5, 1.4222465688362718E-4, 0.0012093032710254192, -1.7614112948649563E-5, 4.4630892807617784E-4, 1.185807486763224E-4, -3.6503287265077233E-4, 0.00108050717972219, 7.068454287946224E-4, 1.7495006613899022E-4, -7.787684444338083E-5, -3.514146083034575E-4, 7.078090566210449E-4, 1.419769396306947E-4, 2.996044931933284E-4, -1.8159818137064576E-4, 0.0021580911707133055, 8.689486421644688E-4, -8.330024429596961E-4, -6.953103002160788E-4, -6.805516895838082E-4, 9.707427234388888E-4, 4.338781218393706E-5, -2.87619506707415E-4, -1.5089710359461606E-4, 4.936144105158746E-4, -2.3673131363466382E-4, 6.056501879356802E-4, -1.3979511277284473E-4, 4.465373349376023E-4, -7.954863249324262E-4, -7.003991631790996E-4, -5.613256362266839E-4, 0.001081395661458373, 3.343945718370378E-4, -1.0494332855159882E-5, 7.288894266821444E-4, -0.0010237123351544142, -0.0011561044957488775, -0.001341899624094367, 0.0011378341587260365, 2.020174142671749E-4, -0.0014310881961137056, -4.6838459093123674E-4, -1.7089421453420073E-4, -2.0834177848882973E-4, -7.877019816078246E-4, -4.5328494161367416E-4, -5.928567261435091E-4, 6.194809684529901E-4, -5.005268612876534E-4, 5.0062622904079035E-5, 7.232496136566624E-5, -9.763702109921724E-5, 1.7973592548514716E-5, 3.682574606500566E-4, -7.782537722960114E-4, 0.0011726492084562778, 0.001097167725674808, -4.2440599645487964E-4, 0.0010698492405936122, 4.94687061291188E-4, -8.969431510195136E-4, 1.4336069580167532E-4, 9.106918150791898E-5, -6.826948265370447E-6, -3.529381356202066E-4, -1.2437875739124138E-5, -4.0923128835856915E-4, 2.971641661133617E-4, -8.27619107440114E-4, 2.449056482873857E-4, -6.092982366681099E-4, 2.5329040363430977E-4, -5.455595091916621E-4, 1.5408657782245427E-4, -5.029183230362833E-4, 1.5465466276509687E-5, -5.584589671343565E-4, -5.370986764319241E-4, -1.7485220450907946E-4, -4.817081935470924E-5, 3.1133086304180324E-4, 2.44299037149176E-4}"
        ],
        "K": {
            "type": "com.azbyn.chess_solver.svm.Kernel.Linear"
        }
    }
}