{
    "svm": {
        "weights": [
            -1.0
        ],
        "bias": 0.28014910771939144,
        "supportVectors": [
            "{-1.430875709047541E-4, 5.663009360432625E-4, -1.436519669368863E-4, 7.742456364212558E-5, -4.047402471769601E-4, -4.3248440488241613E-4, -4.1642095311544836E-4, -4.328320501372218E-4, -3.9759912760928273E-4, 4.406943917274475E-4, 3.7691261240979657E-5, 1.0108613787451759E-4, 1.6028374375309795E-4, 1.1502317647682503E-5, -2.6751557015813887E-4, -2.540797577239573E-4, 7.677532266825438E-4, 3.292686596978456E-4, 1.0263811418553814E-4, -2.6201665605185553E-5, 5.1124501624144614E-5, 8.468881424050778E-5, -5.543984298128635E-5, 2.2234197240322828E-4, -1.4811786240898073E-4, 1.1047615407733247E-4, -6.609593401663005E-5, 6.535156280733645E-4, 2.6081118267029524E-4, 5.784672102890909E-4, -4.3183768866583705E-4, -8.071197953540832E-5, -3.3448600333940703E-6, -1.2409166083671153E-4, 8.184451871784404E-6, 8.587187621742487E-4, 1.1316153540974483E-4, 4.340701852925122E-4, 2.943748841062188E-4, 5.111205973662436E-4, -3.803849176620133E-5, 6.805711891502142E-4, 8.109734335448593E-5, -2.940604172181338E-4, -3.797196550294757E-4, -2.466531004756689E-4, -6.936239078640938E-4, -9.505830821581185E-4, 6.579905311809853E-5, 1.209898036904633E-4, -4.1918273200280964E-4, -7.795273559167981E-4, 6.359945837175474E-5, 3.039326111320406E-4, -1.7586793546797708E-5, -2.8828205540776253E-4, -2.2019882453605533E-4, 1.6980858345050365E-4, 1.282932935282588E-4, -1.0583046241663396E-4, -2.1749967709183693E-4, 6.158374599181116E-4, -1.7093594942707568E-4, -2.8554638265632093E-4, -1.1286220251349732E-4, 3.959433233831078E-4, -2.695606672205031E-4, 3.3377602812834084E-4, 9.406114986632019E-5, -2.5078592443605885E-5, -3.6706647370010614E-4, -2.972576767206192E-4, -1.5608419198542833E-4, 3.1989897252060473E-4, -1.349245576420799E-4, -2.9914721380919218E-5, 2.25889976718463E-4, 1.428252726327628E-4, -1.7456169007346034E-4, -3.587100945878774E-4, 0.0011051454348489642, 6.886828341521323E-4, 4.543422164715594E-6, 1.3101089280098677E-4, 3.2023576204665005E-4, 8.431748137809336E-4, 1.622840209165588E-4, -5.037820665165782E-4, -4.893679288215935E-4, 9.040766599355265E-5, 4.014870137325488E-5, -4.6058782027103007E-4, -4.679207631852478E-4, 6.537504959851503E-4, -4.037719336338341E-4, -2.8758244297932833E-5, 2.1189400285948068E-4, 2.595923433545977E-4, -2.5806089979596436E-4, 2.878453815355897E-4, -1.6429141396656632E-4, -3.6363789695315063E-4, -4.219390102662146E-4, -1.3744823809247464E-4, 4.533805986284278E-5, 1.3660648255608976E-4, 2.57209158007754E-5, -1.9449469982646406E-4, 3.743788693100214E-4, -1.6466909073642455E-5, -2.3285692441277206E-4, -2.608652284834534E-4, -1.4846546400804073E-4, -2.3656625126022846E-4, -1.9122118828818202E-4, -8.446269202977419E-5, -1.5742042160127312E-4, 3.3874603104777634E-4, 1.5833605721127242E-4, -1.5720794908702374E-4, -2.7720097568817437E-4, 2.524159208405763E-4, -5.490486728376709E-5, -2.536454703658819E-4, -9.885384497465566E-5, 8.177710114978254E-4, -5.6766798479657155E-6, 8.333747973665595E-5, -2.2076144523452967E-4, -4.5292783761397004E-4, -1.5079317381605506E-4, 3.608283295761794E-4, -2.9519773670472205E-4, 2.833459584508091E-4, 4.5239977771416306E-4, 4.688395347329788E-5, 3.963095659855753E-4, 1.1473346967250109E-4, -2.3230699298437685E-5, 4.201724659651518E-4, 5.338425980880857E-4, 9.384324657730758E-4, 2.1107368229422718E-4, 1.3036758173257113E-4, 3.9546185871586204E-4, 1.409927208442241E-4, 1.5617976032444858E-6, -1.2511061504483223E-4, -5.169781506992877E-4, -5.598561838269234E-4, 1.0764707258203998E-4, 2.325169916730374E-4, -5.891076580155641E-5, 2.795049222186208E-4, -2.2809677466284484E-4, -3.3864565193653107E-4, -7.064195233397186E-4, -2.69330688752234E-4, -0.0012489696964621544, 3.4567488910397515E-5, -2.525220043025911E-4, -2.342997759114951E-4, -6.124219507910311E-4, -4.5539590064436197E-4, -4.821957554668188E-4, 1.4612203813157976E-4, -1.5609557158313692E-4, -1.595978537807241E-4, -3.166312235407531E-4, -4.954093019478023E-4, -4.818178713321686E-4, -4.873929137829691E-4, -3.6517545231617987E-4, -4.287872288841754E-4, 1.4450689377554227E-5, 2.314322191523388E-4, -2.9170580091886222E-5, -5.15432475367561E-5, 1.545234554214403E-4, -5.845241958013503E-6, -1.6573032189626247E-4, 3.129306132905185E-4, 8.713307324796915E-4, 2.5819643633440137E-4, 3.654870961327106E-4, 7.961458759382367E-4, 8.512703352607787E-4, 6.863793823868036E-4, 6.474515976151451E-5, 6.554255378432572E-4, -6.937480065971613E-4, 2.5324770831502974E-4, -3.778254031203687E-4, 3.1894876156002283E-4, -1.0415950237074867E-4, 1.4914775965735316E-4, 2.1883880253881216E-4, 1.395691215293482E-4, 1.4948815987736452E-5, 1.2078567669959739E-4, 3.460751904640347E-4, -1.0584435221971944E-4, -1.416939776390791E-4, -5.672355182468891E-4, -1.8868473125621676E-4, 2.794550091493875E-4, 1.3132827916706447E-5, 4.6954060962889344E-5, 3.081955073866993E-4, 3.7256296491250396E-4, 3.3034136868081987E-4, -1.8998027371708304E-4, -5.998806445859373E-4, -2.1993632253725082E-4, 2.570237556938082E-4, 3.6180237657390535E-4, -5.499010057974374E-6, 1.3034239236731082E-4, -4.066609253641218E-4, -3.114861101494171E-5, -9.544600616209209E-4, 8.240809984272346E-5, -8.564996533095837E-4, 1.6187680012080818E-4, -4.561769019346684E-4, -2.6028731372207403E-4, -3.415920364204794E-4, -5.637123249471188E-4, 1.4588969861506484E-5, 1.9838525622617453E-4, -2.4475911050103605E-4, -6.176881142891943E-4, 8.93641437869519E-4, -2.520640555303544E-4, -4.8204316408373415E-4, -5.350101855583489E-4, 2.9176121461205184E-4, 9.08371657715179E-5, 1.8390908371657133E-4, -3.3707194961607456E-4, -4.4661945139523596E-5, 2.627819776535034E-4, 4.7610444016754627E-4, 4.771288367919624E-4, -5.507559981197119E-4, -4.030470154248178E-4, 7.152148755267262E-4, 2.8746091993525624E-4, -2.144528116332367E-5, 3.8230253267101943E-4, -2.939925470855087E-4, 1.2242517550475895E-4, -1.3603414117824286E-4, 3.092432743869722E-4, 7.974525215104222E-5, -8.417182834818959E-5, 9.29851594264619E-5, 2.6481281383894384E-4, 5.995802930556238E-4, 4.1082262760028243E-4, 4.920518840663135E-4, 2.6999085093848407E-4, 2.7550867525860667E-4, -7.271768936334411E-6, 0.0012012897059321404, -1.2722521205432713E-4, 1.62639727932401E-4, -2.8197740903124213E-4, 6.622130058531184E-6, -1.7739170289132744E-4, -2.9736803844571114E-4, 2.2843395709060133E-4, 4.024845256935805E-4, 7.579969678772613E-5, 2.736262104008347E-4, 1.0692909563658759E-4, 5.788593989564106E-5, 1.7108405882027E-4, 2.2290153719950467E-4, 3.2416655449196696E-4, 3.071600804105401E-4, 4.3499981984496117E-4, 4.7403558710357174E-5, 2.533698861952871E-4, -3.283412297605537E-5, 7.00467498973012E-4, 1.6292903455905616E-4, 3.3184257335960865E-4, -2.1182274213060737E-4, 4.970984882675111E-4, 4.5105998287908733E-4, -3.534239367581904E-4, -8.070551120908931E-5, 1.1712458945112303E-4, 2.3375627642963082E-4, -4.443384241312742E-4, -1.9634616910479963E-4, -2.723158395383507E-4, 9.290609887102619E-5, 5.925814621150494E-4, 3.3808848820626736E-4, 2.713504363782704E-5, -7.44678527553333E-6, 5.203344044275582E-4, 5.00124238897115E-4, 3.2945445855148137E-4, 1.9222046830691397E-4, 1.0787328938022256E-4, -9.77223098743707E-5, 1.131289973272942E-4, -1.5217569307424128E-4, -3.58930672518909E-4, -1.1804993118857965E-4, 4.8721482744440436E-4, -1.6104635506053455E-5, -1.9549754506442696E-4, -7.736469269730151E-4, -7.75662629166618E-5, -7.373131666099653E-6, 8.318279469676781E-6, -3.631784056778997E-4, 2.2362894378602505E-4, 6.913462857482955E-5, -1.92784980754368E-4, -3.332749110995792E-5, 1.8561822071205825E-4, -2.2659638489130884E-4, -4.0814082603901625E-4, -7.769593503326178E-4, 3.337084854138084E-5, -1.5903623716440052E-4, 4.78913243568968E-5, 4.725733306258917E-4, -1.7293417477048934E-4, -5.398208159022033E-4, 3.3814507332863286E-5, 5.390308797359467E-4, 2.970978384837508E-4, 1.8791477486956865E-5, 1.7628031855565496E-5, -1.3260891137178987E-4, -3.6024392466060817E-4, -4.791705869138241E-4, -1.2462447921279818E-4, -5.317851901054382E-4, 5.12074853759259E-4, 2.6647993945516646E-4, -1.7283989291172475E-4, 3.085913340328261E-5, 3.7460624753293814E-6, 6.889976793900132E-5, -5.917071248404682E-4, -4.690637288149446E-4, -2.610923256725073E-4, -2.478372771292925E-4, 3.346622906974517E-5, 3.7878311559325084E-5, 1.622576965019107E-4, -4.039293562527746E-4, 2.0711266188300215E-5, -0.0012267859419807792, 2.216501598013565E-4, -4.7044543316587806E-4, 1.7930075409822166E-4, 1.1278619786025956E-4, 2.7914289967156947E-4, 1.7613476666156203E-4, -3.080710594076663E-4, 8.755458111409098E-5, 4.4612435158342123E-4, 4.369562375359237E-4, -2.549326163716614E-4, -4.58976486697793E-4, -6.29276764811948E-5, -2.3793629952706397E-4, -4.802596231456846E-5, -2.1025241585448384E-4, -4.5221272739581764E-4, 2.2883254860062152E-4, -2.430881722830236E-4, 2.512845385354012E-4, -3.137330641038716E-4, -1.9238665117882192E-5, -4.7498857020400465E-4, -1.374247804051265E-4, 5.643886106554419E-5, -2.155111542379018E-5, -1.9999117648694664E-4, 9.847485489444807E-5, 1.6133465396706015E-4, -6.727727595716715E-4, 3.7278057425282896E-4, 0.0010170075111091137, -1.4142110012471676E-4, 7.051674765534699E-5, -2.460047253407538E-4, -2.177230198867619E-4, 5.729967961087823E-5, 3.5023788223043084E-4, 9.131809929385781E-5, -3.705545168486424E-5, -2.90112744551152E-4, -7.554588228231296E-5, -3.091580292675644E-4, -2.108987100655213E-4, 1.544482947792858E-4, 6.25493476036354E-6, 4.09549284086097E-6, -1.7425479018129408E-4, -1.0805653437273577E-4, 7.57971138227731E-5, 2.2749774871044792E-5, 1.0199807729804888E-4, -2.0265862985979766E-4, 7.657898095203564E-5, -2.4769094306975603E-4, -4.6755981747992337E-4, -5.612856475636363E-4, 1.6880748444236815E-4, -5.584118771366775E-4, -1.1692191037582234E-4, -9.815979865379632E-6, -5.977746332064271E-4, 1.832176058087498E-4, 8.398454519920051E-4, 9.777660307008773E-5, -1.6023599891923368E-4, -1.412135607097298E-4, 6.469062645919621E-5, 3.8115042116260156E-5, 5.217765574343503E-4, 3.7113038706593215E-4, 1.2991529365535825E-4, -1.27280451124534E-4, -1.3840154861100018E-4, -3.00346378935501E-4, -4.2322016088292E-4, 1.4003126125317067E-5, 4.416471638251096E-4, 2.012979966821149E-4, 8.855695341480896E-5, -2.5543782976455986E-4, -4.587003495544195E-4, 1.1686824291246012E-4, 4.892986544291489E-5, -6.513697007903829E-5, 8.964356675278395E-5, -2.3183472512755543E-4, 2.7298301574774086E-4, -2.717179886531085E-4, 3.094054409302771E-4, -4.397022712510079E-4, 2.0232104361639358E-5, -2.9299895686563104E-5, -4.584959242492914E-4, 3.452767268754542E-4, 3.723098780028522E-4, 3.440630389377475E-4, 1.0790993110276759E-4, -1.366253272863105E-4, 2.8904078135383315E-5, -1.3731929357163608E-4, 3.3515042741782963E-4, 3.4205755218863487E-4, 2.5663082487881184E-4, 2.535934036131948E-4, 4.374092968646437E-4, 4.784521006513387E-4, 2.5064381770789623E-4, 1.6562767996219918E-5, 3.63471161108464E-4, 7.679308182559907E-4, 3.3904865267686546E-4, -2.0856754417764023E-5, -2.2578025527764112E-4, 1.6846666403580457E-4, 2.9022665694355965E-4, 2.3516906367149204E-4, 4.1720188164617866E-5, 7.339909643633291E-5, 2.192401880165562E-4, -6.356653466355056E-5, -5.303244688548148E-4, -0.0010298892157152295, 4.935524775646627E-4, 1.6542211233172566E-4, -2.5475406437180936E-4, 2.0949810277670622E-4, 1.221895799972117E-4, -1.0777359420899302E-4, -9.164542279904708E-5, -4.110095032956451E-4, -5.241389735601842E-4, -3.7205181433819234E-4, 1.260754361283034E-4, -5.7871184253599495E-5, 2.8525804737000726E-5, 2.804038522299379E-4, 5.735322483815253E-4, 4.6813004883006215E-4, 1.6321711882483214E-4, -2.543260343372822E-4, 1.5153335880313534E-5, 2.2038565657567233E-4, 5.671727703884244E-4, 2.258413878735155E-4, -4.4338637962937355E-4, -3.127382951788604E-4, -1.7125824524555355E-4, -1.5184243966359645E-4, -2.9113137861713767E-4, 1.3296866382006556E-4, -1.4553462096955627E-4, 1.0221156117040664E-4, -2.0531276823021472E-4, 2.6921145035885274E-4, 7.542130770161748E-4, -1.3082390069030225E-4, -5.717205349355936E-4, 1.1483565322123468E-4, 1.4235447451937944E-4, 3.769921022467315E-5, 3.025179321411997E-4, -1.5744168194942176E-4, -2.1156213188078254E-4, -1.9176281057298183E-4, 8.980747224995866E-6, 2.12531303986907E-4, -2.5972551156883128E-5, 1.4224353071767837E-4, 1.6571754531469196E-4, 7.080129580572248E-5, 1.2765270366799086E-4, 8.587563934270293E-5, -1.5320087550207973E-4, -1.876216847449541E-4, 1.9438211165834218E-4, 8.255238062702119E-4, 1.24340906040743E-4, -3.2016850309446454E-4, 7.529164431616664E-4, 2.2953920051804744E-5, -6.212911830516532E-5, 1.6001878975657746E-5, -5.818581848870963E-5, -1.2672336015384644E-4, 3.747294540517032E-4, 3.3391889883205295E-4, 4.2887337622232735E-4, -3.39102880388964E-5, -2.589990326669067E-4, -2.7368354494683444E-4, 2.2668179008178413E-4, 2.627093927003443E-4, 4.847459786105901E-4, 4.2565425974316895E-4, 3.117743763141334E-4, 9.414724445377942E-6, 5.717837484553456E-5, 1.6717839753255248E-4, -1.77403271663934E-4, 2.685205836314708E-4, 1.9770445942413062E-4, 6.631783617194742E-5, -8.403451647609472E-5, 5.905707948841155E-4, 3.5299125011079013E-4, 1.2501671153586358E-4, -3.5573498462326825E-4, 4.0209945291280746E-4, -2.450438914820552E-4, -7.457240135408938E-4, 3.515870193950832E-4, -2.2759860439691693E-4, 3.7592915759887546E-5, 1.8428730254527181E-4, 2.408878062851727E-4, 1.430959819117561E-4, -2.5949973496608436E-4, -1.8299730436410755E-4, 4.658795369323343E-4, 6.172547000460327E-5, -6.12859585089609E-5, -1.5306052227970213E-4, -4.852793790632859E-5, 1.1201597226317972E-4, 5.799915525130928E-4, 4.1095467167906463E-4, 4.357222351245582E-4, 1.0913241567322984E-4, 1.852803397923708E-4, -8.286382217193022E-5, -3.5275035770609975E-5, 4.0227524004876614E-4, 2.12893370189704E-4, 2.539879351388663E-4, 6.726047558913706E-6, 4.0852880920283496E-4, 0.001022973912768066, 0.0010341644519940019, -7.788129732944071E-5, 1.407757808919996E-4, -1.93711748579517E-5, -3.3583174808882177E-4, 1.3413884153123945E-4, -2.3623074230272323E-4, 1.9497299217619002E-4, -3.8745644269511104E-4, 1.7469224985688925E-4, 1.5966333739925176E-4, -6.159297190606594E-4, 1.0972837480949238E-4, 5.298719042912126E-4, -1.2551891268230975E-4, -2.9515023925341666E-4, -3.3352134050801396E-4, -4.907620023004711E-4, -3.695949271786958E-4, 2.2055044246371835E-4, 2.506054879631847E-4, 1.9057236204389483E-4, 1.252157089766115E-4, 2.075898664770648E-4, 1.9498089386615902E-4, 1.5612442803103477E-4, 5.190234514884651E-4, 7.920338248368353E-6, -1.4295127766672522E-4, 1.2029045319650322E-4, 6.76549316267483E-5, 1.2341432739049196E-4, 1.2409104783728253E-5, -6.592196878045797E-4, -2.830713929142803E-4, -4.159824748057872E-4, -2.0828680135309696E-4, -3.64846782758832E-5, -2.6804543449543417E-4, 3.2037548953667283E-4, -2.030849427683279E-4, 0.001323364325799048, 2.3592158686369658E-4, 8.430887828581035E-5, 2.554832899477333E-4, 5.518748657777905E-4, -3.0329380024340935E-5, -4.287292540539056E-5, -7.681602437514812E-5, -3.3871745108626783E-4, -8.889348828233778E-5, 1.235563395312056E-4, 6.383458821801469E-5, 1.659568806644529E-4, 2.3161595163401216E-4, 2.583794412203133E-4, -2.3101260012481362E-4, -3.161727508995682E-4, 5.949322439846583E-5, 2.0232949464116246E-4, 3.5499539808370173E-4, 2.8908505919389427E-4, -1.230647467309609E-4, 3.508367226459086E-4, 6.230093422345817E-4, 1.984018017537892E-4, 1.1749532131943852E-4, 1.4573713997378945E-4, 1.8840258917407482E-6, 2.6990051264874637E-4, -4.96784457936883E-4, -6.156478048069403E-5, -3.484945045784116E-4, 8.552629151381552E-4, 3.2140983967110515E-4, 3.7225784035399556E-4, 5.315919679560466E-6, 3.1484628561884165E-4, -4.142226534895599E-4, 4.7837969759711996E-5, 2.6034764596261084E-4, -1.4735276636201888E-4, -3.783283773373114E-6, -1.7617509001865983E-5, -1.5701200754847378E-4, -1.8272086163051426E-4, -1.8094872939400375E-4, -3.227486158721149E-4, 1.6840174794197083E-4, 2.4001205747481436E-4, 2.379272918915376E-4, 3.8208914338611066E-4, 2.259012035210617E-5, 1.6059345216490328E-4, 3.518525918480009E-4, 3.935743006877601E-5, -1.70672225067392E-4, -4.254927043803036E-4, -1.7685118655208498E-4, -1.0930190001090523E-5, 2.4532407405786216E-4, 3.514569252729416E-4, -7.243001164169982E-5, 1.259572891285643E-4, -3.4478039015084505E-4, 2.606612688396126E-4, -2.453938650432974E-4, -4.2165498598478734E-5, -1.0054040467366576E-4, -4.610522591974586E-4, -4.37155511463061E-4, 5.716644935205295E-8, 1.278077543247491E-4, -3.0305530526675284E-4, 8.679010352352634E-5, 1.054527674568817E-4, -1.0986183770000935E-4, -7.50830295146443E-5, -4.0015685954131186E-4, 1.1533404904184863E-4, 9.083646727958694E-5, -3.8465372199425474E-5, -3.782095736823976E-4, -2.1639795158989727E-4, 4.193164568278007E-5, -1.0897801985265687E-4, 9.450472862226889E-5, 3.8647803012281656E-4, 3.206505498383194E-4, -1.58767681568861E-4, -4.147963772993535E-4, -2.443201665300876E-4, 1.8933502724394202E-4, -6.995055446168408E-5, -1.0310718062100932E-4, 2.913657226599753E-4, -2.4293831666000187E-4, -5.179056897759438E-4, -3.178162151016295E-4, -4.171309119556099E-4, -7.31303880456835E-5, -2.369921130593866E-4, 1.0388957889517769E-4, -9.838694677455351E-5, 4.3984391959384084E-4, 5.81893436901737E-5, -1.1118622205685824E-4, 1.1960172741964925E-5, -1.5799760876689106E-4, -3.5882924566976726E-4, -1.8055828695651144E-4, 3.071579849347472E-4, 5.251724505797029E-4, 8.534578955732286E-5, -1.662595459492877E-4, 6.109015521360561E-5, 5.637400317937136E-4, 1.4459820522461087E-4, 5.932466592639685E-5, -1.404492068104446E-4, -6.624397938139737E-4, -6.020737928338349E-4, -5.870389868505299E-4, -2.9294140404090285E-4, 3.263189282733947E-4, 1.07725260022562E-4, -3.229098510928452E-4, 4.776472342200577E-4, 5.37141713721212E-5, 6.775655201636255E-4, 3.784960717894137E-4, -2.991616493090987E-4, 5.120501737110317E-5, -4.7548161091981456E-5, 3.8821392809040844E-4, 4.7601090045645833E-4, 2.331412397325039E-4, 2.383789251325652E-5, 4.8506405437365174E-4, 4.295592661947012E-4, -6.952373223612085E-5, -5.153915844857693E-4, 1.6269383195322007E-4, 2.8906972147524357E-4, 5.455322097986937E-4, 2.455298963468522E-4, -7.08713851054199E-5, 7.51230982132256E-5, -3.1569943530485034E-4, -3.3426613663323224E-4, -3.064378397539258E-4, 3.315192225272767E-5, -8.321422501467168E-5, -3.569231485016644E-4, -4.68649435788393E-4, 2.2973614977672696E-4, 2.0923055126331747E-4, -6.896894046803936E-5, -3.6425358848646283E-4, 1.3192107144277543E-4, -1.8846186867449433E-4, 2.5366240879520774E-4, 4.400297475513071E-4, -2.8639822266995907E-4, 4.268987104296684E-4, 2.5527444086037576E-4, 3.7712461198680103E-4, 8.228690130636096E-4, 4.8768322449177504E-4, 4.570712917484343E-4, 1.9875558791682124E-4, 1.181621973955771E-5, 3.7607477861456573E-4, 8.073412027442828E-5, 3.2164985896088183E-4, 1.442233769921586E-5, 1.9472462008707225E-4, 9.645411046221852E-5, 2.021739346673712E-4, 9.363915160065517E-5, -3.7398573476821184E-4, -2.849060401786119E-4, -1.4003374963067472E-4, 1.4424831897486E-4, 6.082187974243425E-5, -2.1985139755997807E-4, -3.829405177384615E-4, 6.350234616547823E-4, 1.3013429997954518E-4, -4.972199894837104E-5, -2.682738995645195E-4, -3.865803955704905E-5, -1.0243134966003709E-5, -7.997214561328292E-4, -5.070920451544225E-4, -2.3276710635400377E-5, 2.603713655844331E-4, -4.31194668635726E-4, -3.1593971652910113E-4, 5.698642416973598E-5, 1.094838444259949E-4, -1.4890714737703092E-5, -3.24610504321754E-4, 7.17738885214203E-6, 5.115680323797278E-6, 3.314725763630122E-4, -2.6626267936080694E-4, -2.2075409651733935E-4, 1.712149678496644E-4, 1.4875999477226287E-4, 1.2718902144115418E-4, -1.6465719090774655E-4, -1.6519856580998749E-4, 3.5663077142089605E-5, 1.8762810213956982E-4, 5.560615682043135E-4, 4.696523246821016E-4, -3.560548648238182E-4, -2.726777456700802E-4, 3.6931521026417613E-4, 4.5241499901749194E-4, -4.0371439536102116E-4, -5.420858506113291E-4, -1.9925083324778825E-4, -4.265717579983175E-4, -2.5435094721615314E-4, 1.4637925778515637E-4, 5.253409035503864E-4, 4.086665576323867E-4, -3.802846185863018E-4, -6.181389326229692E-4, -1.786348148016259E-4, 2.5688459572847933E-5, 2.577241393737495E-4, -7.426750380545855E-5, -9.576892625773326E-5, 1.504148676758632E-4, 2.3339275503531098E-4, -2.3392938601318747E-4, -1.4073312922846526E-4, 1.8797432130668312E-4, -2.8818434657296166E-5, -1.4816133443673607E-5, 1.2033896200591698E-4, 2.15019506867975E-4, -1.7621061124373227E-4, -9.376410162076354E-6, 3.657798806671053E-4, -3.3233166323043406E-4, -6.164722726680338E-4, -3.9563458994962275E-4, 1.190281254821457E-4, 8.8036636589095E-4, -2.4605938233435154E-4, -2.9469712171703577E-4, -4.3013511458411813E-4, -1.6064631927292794E-4, -8.973171497927979E-5, -2.9941555112600327E-4, 5.45805785804987E-4, 1.0939264757325873E-4, -3.1599574140273035E-4, 1.9424040510784835E-4, 8.279463509097695E-4, 3.4251183387823403E-4, 4.7936863848008215E-4, -4.206690573482774E-5, 4.745925252791494E-4, -2.5246571749448776E-4, -4.075560427736491E-4, -4.7663834993727505E-4, -1.8003811419475824E-4, 1.2802329729311168E-4, 2.2594323672819883E-4, -3.307003225927474E-6, 2.393911127001047E-4, 1.3498471525963396E-4, -4.043260996695608E-4, 7.197255763458088E-5, 0.0010547885904088616, 3.2261895830743015E-4, -7.029830012470484E-4, -3.395811072550714E-4, -2.807393502735067E-5, -2.4642350035719573E-4, -1.3482289796229452E-4, 5.147905903868377E-4, -3.0511850127368234E-5, 4.07664487056536E-7, 2.3530179169028997E-4, 1.9200893802917562E-5, 2.3347738897427917E-4, 3.67515574907884E-4, -8.831400773487985E-4, -1.6532557492610067E-4, 4.877280443906784E-4, 7.472412544302642E-4, 7.628465536981821E-4, -2.0665713236667216E-4, 9.835181117523462E-5, -3.2313200063072145E-4, -1.3681271229870617E-4, -7.298446143977344E-4, -2.1268326963763684E-4, 4.781218740390614E-5, -4.2732594010885805E-5, 1.580047537572682E-4, 4.8147724010050297E-4, -4.7947149141691625E-5, -2.8605948318727314E-4, 4.243248258717358E-4, 5.373978056013584E-4, -2.77685874607414E-4, -3.448667412158102E-4, -2.1420876146294177E-4, 3.870115033350885E-4, -3.264659899286926E-4, -9.547874797135592E-4, 3.3284188248217106E-4, -3.453365934547037E-4, 3.8622634019702673E-4, -3.3278402406722307E-4, -2.1649089467246085E-4, 4.565215785987675E-4, 1.8009935956797563E-5, -1.9968785636592656E-4, 9.587607200955972E-5, 1.6396635328419507E-4, 3.513395495247096E-4, 3.768164606299251E-5, -6.0884329286636785E-5, 2.0370454876683652E-4, -4.5982914161868393E-4, -5.192916723899543E-4, -4.966523847542703E-4, -3.5087362630292773E-4, -3.2202701549977064E-4, -3.6435749279917218E-6, -1.1085738151450641E-5, 4.4744813931174576E-4, 1.4487009320873767E-4, -1.734099496388808E-4, -5.419598310254514E-4, -8.074709330685437E-4, 1.0353711695643142E-4, -2.673251728992909E-4, 5.9203768614679575E-5, 3.9204797940328717E-4, 4.444576916284859E-4, 3.2890323200263083E-4, 7.641465053893626E-4, 4.494895983953029E-4, 3.4210504963994026E-4, 4.339228034950793E-4, 1.9943939696531743E-4, -4.224260919727385E-5, -4.6499830204993486E-4, 4.425777297001332E-4, 3.231199807487428E-4, -1.4412900782190263E-4, -2.0789647533092648E-4, -1.9443873316049576E-4, -2.1180868498049676E-4, -1.3945336104370654E-4, -1.5901480219326913E-4, -3.149771873722784E-5, -1.9386381609365344E-5, 3.385572344996035E-4, 2.2358338173944503E-4, 2.3126250016503036E-4, 2.915484037657734E-5, -4.138157528359443E-4, -3.846086037810892E-4, -2.1591009863186628E-4, -5.177148268558085E-4, -3.628542763181031E-4, -1.8444815941620618E-4, -2.592121199995745E-5, 2.6388754486106336E-4, 3.3454870572313666E-4, 4.4342147884890437E-4, -3.165296511724591E-4, -3.1492699054069817E-4, -2.0627814228646457E-4, 2.1899663261137903E-4}"
        ],
        "K": {
            "type": "com.azbyn.chess_solver.svm.Kernel.Linear"
        }
    }
}