%YAML:1.0
---
opencv_ml_svm:
   format: 3
   svmType: C_SVC
   kernel:
      type: LINEAR
   C: 1.0000000000000001e-01
   term_criteria: { iterations:1000 }
   var_count: 1024
   class_count: 13
   class_labels: !!opencv-matrix
      rows: 13
      cols: 1
      dt: i
      data: [ 0, 1, 2, 3, 4, 5, 6, 8, 9, 10, 11, 12, 13 ]
   sv_total: 78
   support_vectors:
      - [ -1.24933489e-04, -1.42183184e-04, -1.17333489e-04,
          -1.00572935e-04, 3.60853306e-07, 1.31754923e-05,
          8.96345664e-05, 2.30686084e-04, 8.23379742e-05,
          -3.19846658e-05, -2.36549040e-05, 8.50881333e-05,
          1.05639287e-04, 1.03135819e-04, 1.00970450e-04, 6.97861906e-05,
          5.96312020e-05, 4.53283610e-05, 5.50879849e-05, 5.13542545e-05,
          1.02469348e-04, 7.19060190e-05, 7.51744010e-05, 3.91353788e-05,
          9.65938671e-05, 1.08907065e-04, 4.05509963e-05,
          -4.72650463e-05, -7.04304257e-05, -1.06151325e-04,
          -7.54047069e-05, 9.98668402e-05, -1.34123111e-04,
          -1.22041311e-04, -1.33488837e-04, -6.87926804e-05,
          -3.66041677e-05, 2.23473871e-05, 9.76014780e-05,
          1.99599366e-04, 1.02648126e-04, -2.96225244e-06,
          -2.80136519e-05, 6.21054642e-05, 8.70682925e-05,
          1.38231480e-04, 1.40634409e-04, 1.43487021e-04, 1.18973228e-04,
          1.24111291e-04, 1.18820375e-04, 5.24844800e-05, 6.48161295e-05,
          6.75030387e-05, 7.90030463e-05, 7.89318365e-05, 3.07641494e-05,
          1.37205207e-04, 5.27386874e-05, -4.19941534e-05,
          -5.76153070e-05, -5.08802514e-05, -5.88189178e-05,
          -2.15554951e-06, -1.01247671e-04, -8.98700164e-05,
          -4.78467446e-05, -3.93968548e-05, -2.16435110e-05,
          1.00702673e-05, -9.57727389e-06, 3.26560948e-05,
          9.52012851e-05, -1.26456152e-05, -1.53058591e-05,
          1.57958166e-05, 7.97700850e-05, 1.37677518e-04, 1.60808399e-04,
          1.41940603e-04, 1.64245837e-04, 1.26889543e-04, 1.00682606e-04,
          3.91746689e-05, 3.69428417e-05, 7.50232066e-05, 3.47043788e-05,
          -5.35426295e-07, -3.84817349e-06, 1.51164451e-04,
          7.24528945e-05, -3.52750831e-05, -4.81181560e-05,
          -6.66042251e-05, -5.50343175e-05, -5.18456327e-05,
          -8.68262432e-05, -6.86643252e-05, -5.67622919e-05,
          -6.97841533e-05, -1.17096442e-06, 1.92528823e-05,
          -3.86621177e-05, 5.67846764e-05, 1.09406123e-04,
          2.17754659e-05, 7.89298974e-06, -1.66654354e-05,
          6.76689378e-05, 8.76490958e-05, 1.47852144e-04, 1.60595853e-04,
          1.63497360e-04, 1.57531409e-04, 1.42776087e-04, 7.35477151e-05,
          1.93712476e-05, 5.94856574e-05, 3.07839437e-05, 1.40219418e-05,
          2.27889109e-06, 1.53857080e-04, 4.14995229e-05,
          -5.89717165e-05, -6.01457323e-05, -5.67366405e-05,
          -4.51769192e-05, -4.86133904e-05, -1.00246572e-04,
          -1.38572388e-04, -1.02962302e-04, -2.48724991e-05,
          -5.10335667e-06, 5.24841271e-05, 2.46779609e-06,
          5.77562168e-05, 6.79765508e-05, 6.63250830e-05, 2.08978308e-05,
          2.02627798e-05, 4.21090517e-05, 1.25504230e-04, 1.46864433e-04,
          1.60032403e-04, 1.78536036e-04, 1.97881571e-04, 1.86128163e-04,
          1.33858295e-04, 5.98913248e-05, 6.40110957e-05, 1.91394429e-05,
          1.45839167e-05, 9.30679889e-05, 1.58874274e-04,
          -1.64824849e-06, -7.45760190e-05, -3.65127489e-05,
          -5.21832299e-05, -2.13473813e-05, -3.54817348e-05,
          -1.28740474e-04, -8.29233031e-05, -3.46382549e-05,
          2.83044301e-05, 1.07098116e-04, 1.33722860e-04,
          -5.22898017e-06, 1.34388130e-04, 2.13751060e-04,
          1.40795688e-04, 5.58503343e-05, 7.48892198e-05, 6.31017610e-05,
          7.56171139e-05, 1.05409163e-04, 1.52932393e-04, 1.47685540e-04,
          1.58686773e-04, 1.44636433e-04, 1.42143399e-04, 1.26487488e-04,
          1.24741986e-04, 8.34103994e-05, 6.60263831e-05, 1.20316581e-04,
          1.46305538e-04, 3.25586079e-05, -8.13305887e-05,
          -6.39021673e-05, -7.75039516e-05, -3.96192518e-05,
          -8.48955169e-05, -2.01743431e-04, -1.18189033e-04,
          1.06547723e-05, 5.55780207e-05, 1.12113812e-04, 9.75964940e-05,
          6.89417211e-05, 1.84238321e-04, 1.96611334e-04, 1.76818241e-04,
          1.61297212e-04, 1.30916509e-04, 1.02168728e-04, 8.77845305e-05,
          1.31028792e-04, 1.61357180e-04, 1.81739350e-04, 1.80310934e-04,
          1.84690580e-04, 1.52944776e-04, 9.84448852e-05, 7.82351126e-05,
          1.09770510e-04, 1.28429179e-04, 1.05591032e-04, 6.99246666e-05,
          1.88458989e-06, -9.81628618e-05, -6.77889911e-05,
          -9.48052184e-05, -8.28361663e-05, -1.07750457e-04,
          -1.13672642e-04, -7.39111274e-05, 3.26788831e-05,
          7.57733796e-05, 3.28825809e-05, 1.78308110e-05, 5.75709964e-05,
          1.19383105e-04, 1.50820881e-04, 2.53481121e-04, 2.98625615e-04,
          2.59932771e-04, 1.80817238e-04, 1.59065705e-04, 2.17404653e-04,
          2.27290497e-04, 2.44319119e-04, 2.07492107e-04, 2.31582526e-04,
          2.19932539e-04, 2.15610940e-04, 1.96851615e-04, 2.04284952e-04,
          1.62055221e-04, 1.27790714e-04, 5.31154983e-05,
          -6.85267223e-05, -1.19943645e-04, -1.48439212e-04,
          -1.70313288e-04, -1.21611614e-04, -1.68056780e-04,
          -7.94613588e-05, -1.26044819e-04, -1.41936427e-04,
          -1.62505996e-04, -5.80826490e-05, -5.48783719e-05,
          2.50570265e-05, 7.95974629e-05, 4.63337856e-05, 4.83938602e-05,
          1.57699804e-04, 7.98139081e-05, 4.21733566e-05, 4.67871769e-06,
          4.53401808e-05, 6.06292851e-05, 1.09461209e-04, 1.15363575e-04,
          1.23482838e-04, 1.49293250e-04, 1.49993561e-04, 1.51330576e-04,
          1.54200621e-04, 1.53114946e-04, 1.60060168e-04, 6.78488650e-05,
          -9.30844908e-05, -1.44810998e-04, -1.30534536e-04,
          -1.44186924e-04, -1.30300919e-04, -1.70742045e-04,
          7.77906753e-05, 3.67818720e-05, 2.29887755e-05,
          -2.64864029e-05, -1.42225572e-05, -5.42582347e-05,
          2.37998156e-05, 8.98257640e-05, 1.56405600e-04, 1.38668611e-05,
          -9.47192689e-07, -4.48863939e-05, -6.68138528e-05,
          -1.53161673e-04, -1.08529617e-04, -7.62300479e-05,
          -7.70717015e-05, -6.64160470e-05, -6.80555677e-05,
          -2.23113493e-05, 8.23941737e-05, 6.20757710e-05,
          1.13489878e-04, 7.86302844e-05, 1.04668456e-04, 2.01330513e-05,
          -4.16223020e-06, -2.66049119e-05, 1.00881971e-05,
          1.17955660e-05, 2.20767706e-05, 1.97352438e-06, 8.37006010e-05,
          7.68551981e-05, 4.29199208e-05, 2.57426182e-05, 2.66853876e-05,
          1.88342983e-05, 6.52557037e-06, 3.34443721e-05,
          -3.80906931e-05, -8.19907655e-05, -3.71971328e-05,
          -1.10188892e-04, -2.03039366e-04, -2.00622235e-04,
          -2.03319199e-04, -2.23802534e-04, -2.63381226e-04,
          -2.65880342e-04, -2.51711259e-04, -2.10815968e-04,
          -1.59133473e-04, -9.17544094e-05, -2.19256017e-05,
          -5.10572272e-06, 1.48472936e-05, -3.81341233e-05,
          -1.62841989e-05, -1.35898972e-05, 2.51900092e-05,
          4.74213193e-05, 8.01949063e-05, 8.64326430e-05, 8.09188423e-05,
          4.71074891e-05, 2.19656577e-05, 3.21014304e-05,
          -1.16057936e-05, 2.14868451e-05, 2.57727734e-05,
          3.80375022e-05, -4.56772032e-05, -2.06134515e-04,
          -1.70037485e-04, -1.88673803e-04, -2.18313944e-04,
          -2.28554491e-04, -2.34462714e-04, -2.68009608e-04,
          -3.08905059e-04, -3.17783561e-04, -2.93172605e-04,
          -2.87898583e-04, -2.46136042e-04, -7.31624968e-05,
          -5.03416886e-05, -5.13589766e-05, 1.74538909e-05,
          4.45656087e-06, 1.36794133e-05, 4.32248926e-05, 2.13764215e-05,
          5.68167161e-05, 6.80290032e-05, 7.83640862e-05, 3.70347152e-05,
          -3.04851960e-06, -3.07941227e-05, 3.40639199e-05,
          3.73133702e-07, 5.61956913e-05, 5.70918346e-05, 6.46388944e-05,
          -8.09112389e-05, -2.09186823e-04, -1.95682092e-04,
          -1.96963840e-04, -2.00319468e-04, -2.29215948e-04,
          -2.94059108e-04, -3.53136711e-04, -2.97929830e-04,
          -2.81755580e-04, -3.20305437e-04, -3.26142093e-04,
          -2.75763770e-04, -1.19665812e-04, -8.90644660e-05,
          -1.11227811e-04, -1.35246210e-05, 3.05019739e-07,
          3.50678056e-05, 3.99420278e-05, 4.14424430e-05, 6.74380426e-05,
          5.15068605e-05, 7.37057635e-05, 3.64588641e-06,
          -2.97172810e-05, -4.60711635e-05, -1.21020175e-05,
          -2.46834048e-07, 6.07376569e-05, 4.97057990e-05,
          2.30153564e-05, -5.34492028e-05, -1.53593865e-04,
          -1.86783698e-04, -1.76620510e-04, -1.77350841e-04,
          -2.51980673e-04, -3.13875935e-04, -3.69681686e-04,
          -3.03302979e-04, -2.85583228e-04, -3.30619718e-04,
          -3.46178625e-04, -2.80003558e-04, -1.13280606e-04,
          -1.05642939e-04, -1.29093445e-04, -6.89030712e-05,
          7.94310745e-06, 4.53896282e-05, 4.62496064e-05, 2.25398508e-05,
          6.28525595e-05, 4.30531181e-05, 4.63858414e-05,
          -2.40075242e-05, -7.02156103e-05, -9.30725655e-05,
          -9.20053717e-05, -7.62145719e-05, -6.41787551e-07,
          3.06303227e-05, 3.23178392e-05, -9.42082770e-05,
          -1.15879797e-04, -1.68119790e-04, -1.80707255e-04,
          -1.95011686e-04, -2.60668283e-04, -3.24955618e-04,
          -3.27769434e-04, -3.15712008e-04, -3.11774347e-04,
          -3.39668710e-04, -3.31230287e-04, -2.27316676e-04,
          -1.29371765e-04, -1.17117248e-04, -1.42727673e-04,
          -9.48629822e-05, -2.29809430e-05, 5.17532280e-05,
          4.46021149e-05, 4.62404278e-05, 7.02991310e-05, 3.50939408e-05,
          8.40736975e-05, -6.30010763e-05, -1.56548791e-04,
          -1.71174324e-04, -1.31368462e-04, -1.04149738e-04,
          -7.86622477e-05, -3.39324033e-05, -7.38168956e-06,
          -3.53620599e-05, -5.06306424e-05, -1.51837157e-04,
          -1.54983383e-04, -1.72818065e-04, -2.43652743e-04,
          -3.16819467e-04, -2.97002262e-04, -3.18372564e-04,
          -3.29091825e-04, -3.60472273e-04, -2.74355320e-04,
          -1.54199355e-04, -1.22029807e-04, -1.22778700e-04,
          -1.66313737e-04, -1.20931298e-04, -5.39008543e-05,
          2.52467125e-05, 4.70826781e-05, 6.29600036e-05, 5.20696776e-05,
          4.37408344e-05, 1.37059687e-04, -1.78023532e-04,
          -1.70521846e-04, -1.66609054e-04, -1.45394370e-04,
          -1.03961283e-04, -9.33171614e-05, -5.05614189e-05,
          -6.42314408e-05, -1.43630619e-04, -6.07029469e-05,
          -4.17862320e-05, -1.60338110e-04, -1.76777583e-04,
          -2.30333360e-04, -2.92785815e-04, -3.02723871e-04,
          -3.07599286e-04, -3.21346219e-04, -3.55806638e-04,
          -1.98816997e-04, -1.10162699e-04, -1.16870848e-04,
          -1.01528487e-04, -1.20265402e-04, -8.33728191e-05,
          -5.66217714e-05, 7.67519668e-05, 1.18334472e-04,
          6.27913250e-05, 7.12307592e-05, 7.53615313e-05, 2.14838306e-04,
          -1.88180828e-04, -1.88908918e-04, -1.73007458e-04,
          -1.71849213e-04, -1.22816084e-04, -8.04003357e-05,
          -7.29350504e-05, -8.09818885e-05, -1.82027827e-04,
          -8.73789322e-05, -7.85043176e-06, -6.55148324e-05,
          -1.14957700e-04, -1.59837829e-04, -2.40889931e-04,
          -2.73336220e-04, -2.94055440e-04, -2.79368047e-04,
          -2.36086067e-04, -1.04381528e-04, -9.68580789e-05,
          -5.79926418e-05, -9.04177577e-05, -1.20194476e-04,
          -8.25625248e-05, -4.28853855e-05, 6.32087103e-05,
          8.94051627e-05, 6.87338616e-05, 5.83803921e-05, 6.28980924e-05,
          1.91387837e-04, -1.79021867e-04, -1.92694788e-04,
          -1.88550170e-04, -1.81664858e-04, -1.27147345e-04,
          -9.02740576e-05, -7.96726454e-05, -7.43900091e-05,
          -1.90714578e-04, -1.10309615e-04, 2.91689885e-05,
          -4.18695618e-06, -1.56358419e-05, -7.65727091e-05,
          -1.55936374e-04, -2.16408313e-04, -2.24544565e-04,
          -1.42288685e-04, -1.27569729e-04, -8.97960999e-05,
          -6.43235398e-05, -6.00281892e-05, -1.27231106e-04,
          -1.70015555e-04, -1.30885339e-04, -3.27753805e-05,
          3.36735975e-05, 6.64810723e-05, 9.35314602e-05, 7.63765493e-05,
          6.22367879e-05, 2.09898921e-04, -1.57500894e-04,
          -1.68410857e-04, -1.73459659e-04, -1.61715609e-04,
          -1.40883843e-04, -1.08540386e-04, -7.16292343e-05,
          -5.98425904e-05, -1.91617655e-04, -1.48155581e-04,
          2.45978499e-05, 4.55827103e-05, 3.37686251e-05, 3.70839007e-05,
          6.41248516e-06, -2.68108306e-05, -1.11268113e-04,
          -1.19072160e-04, -1.27164138e-04, -6.35648612e-05,
          -4.54105939e-05, -7.66018493e-05, -7.79003385e-05,
          -1.12797832e-04, -1.20930512e-04, -6.54929390e-05,
          2.14016218e-05, 5.80289379e-05, 7.72169369e-05, 6.05212699e-05,
          6.27324771e-05, 1.04171348e-04, -1.36977367e-04,
          -1.42368008e-04, -1.36884875e-04, -1.42255842e-04,
          -1.28498141e-04, -1.05648483e-04, -7.08753942e-05,
          -7.32691115e-05, -1.75640656e-04, -1.64331796e-04,
          -1.73627996e-05, 2.85076731e-05, 4.23425881e-05,
          7.13345944e-05, 5.82573266e-05, 4.52272179e-05,
          -1.41885184e-05, -6.17008627e-05, -8.40752909e-05,
          -3.95169918e-05, -2.97548140e-05, -5.39216453e-05,
          -6.28084381e-05, -4.47662678e-05, -6.14871606e-05,
          -1.01161560e-04, 8.11125483e-06, 7.71954074e-05,
          4.05938845e-05, 2.70352484e-05, 5.33998173e-05, 3.59559963e-05,
          -1.40138261e-04, -1.43837577e-04, -1.43637299e-04,
          -1.34293936e-04, -1.18271040e-04, -9.94269576e-05,
          -8.07369215e-05, -4.71818566e-05, -1.80095609e-04,
          -1.49003798e-04, -6.94562186e-06, 3.29433788e-05,
          3.91937792e-05, 5.30050856e-05, 6.51381924e-05, 6.55750482e-05,
          7.29183448e-05, 2.95715090e-05, 1.90065002e-05,
          -3.66949644e-05, -4.50019979e-05, -7.11517059e-05,
          -9.80889963e-05, -7.55612782e-05, -9.93226131e-05,
          -8.43934249e-05, 3.09922980e-05, 8.07835168e-05,
          7.14328489e-05, 3.31326337e-05, 4.13236558e-05, 5.33964776e-05,
          -1.26414365e-04, -1.16861673e-04, -1.17823685e-04,
          -1.34266418e-04, -1.12274764e-04, -1.09948189e-04,
          -7.83178839e-05, -3.41524465e-05, -1.61756645e-04,
          -1.52654771e-04, -3.82969592e-05, -8.31363195e-06,
          2.40062673e-05, 1.72491866e-06, 4.18590971e-05, 4.49922009e-05,
          4.73668224e-05, 3.00057327e-05, 4.20787364e-05,
          -3.06065522e-06, -3.00975898e-05, -5.99227351e-05,
          -8.82826716e-05, -4.44007055e-05, -7.47261947e-05,
          -5.71771016e-05, 4.69497645e-05, 6.12879958e-05,
          8.09949051e-05, 5.16362379e-05, 3.31225310e-05, 6.20773062e-05,
          3.60457998e-05, 2.32458278e-05, 2.55206269e-05, 9.23544030e-06,
          2.06042132e-05, 2.32307702e-05, 4.02197984e-05, 5.05704047e-05,
          -6.09304007e-05, -5.07960322e-05, 4.16177363e-06,
          1.05094614e-05, 4.55785157e-05, 3.83798942e-05, 9.02124739e-05,
          6.23886663e-05, 4.94587694e-05, 7.15179049e-05, 6.30119393e-05,
          3.05091198e-05, -2.66439338e-06, -5.01553732e-05,
          -3.93698792e-05, -3.54963704e-05, 1.49689185e-07,
          -4.36670562e-05, 2.67719315e-05, 1.42895924e-05,
          1.49724710e-05, 1.44029227e-05, 7.04718259e-05, 4.05463434e-05,
          1.74368208e-04, 1.34141868e-04, 1.34671282e-04, 1.34207730e-04,
          1.94176740e-04, 1.99978749e-04, 2.43042814e-04, 2.05679564e-04,
          1.97657442e-04, 6.79302611e-05, 6.19535640e-05, 7.97546891e-05,
          9.64516730e-05, 9.93072026e-05, 1.21592726e-04, 1.65863836e-04,
          1.47679748e-04, 1.60283074e-04, 1.30757428e-04, 1.24595143e-04,
          1.11286819e-04, 1.29878181e-05, -1.31320376e-05,
          -5.39036046e-06, 2.03715717e-05, 5.09843194e-05,
          1.49727683e-04, 1.47661733e-04, 1.10768320e-04, 1.08408196e-04,
          1.36558650e-04, 1.24211743e-04, 1.17443182e-04,
          -5.12801716e-06, -2.92064069e-05, -7.31772570e-06,
          2.75738312e-05, 9.71977934e-05, 1.33608526e-04, 1.67394857e-04,
          9.91232446e-05, -1.93891010e-05, -6.21668369e-05,
          -9.83698483e-05, -5.78389991e-05, -3.39513717e-05,
          1.01539932e-04, 8.71824013e-05, 8.59944048e-05, 7.68297396e-05,
          8.00721100e-05, 6.84577826e-05, 5.81137465e-05, 1.43122161e-05,
          -6.49784124e-05, -6.16421676e-05, 1.47951705e-05,
          7.39317111e-05, 1.00320984e-04, 6.25092216e-05, 6.58521094e-05,
          6.57118362e-05, 3.54943513e-05, 4.12012450e-05, 1.11069443e-04,
          1.15481147e-04, -5.72048921e-05, -9.58111123e-05,
          -6.15523386e-05, -1.18900634e-05, 2.24506402e-05,
          1.66266909e-04, 8.39321656e-05, -1.15142984e-05,
          -1.59302508e-05, -2.86224149e-05, -1.11550366e-06,
          -8.08821733e-06, 7.60840994e-05, 1.22571233e-04,
          1.24750222e-04, 8.99066363e-05, 1.01706726e-04, 1.10090077e-04,
          8.05838572e-05, 7.69495673e-05, 7.99085956e-06,
          -8.27455369e-06, -2.83915892e-06, 4.00329736e-05,
          9.99189360e-05, 7.07820654e-05, 7.73606516e-05, 5.44998547e-05,
          2.80165896e-05, -3.33863568e-06, 9.99345139e-05,
          6.27878035e-05, 4.56801572e-05, -9.08872680e-05,
          -1.36333372e-04, -1.57160350e-04, -3.56498676e-05,
          5.24222887e-05, 8.90977099e-05, -2.03281834e-05,
          -3.23573613e-06, 1.44874602e-05, 1.67231228e-05,
          3.11023427e-06, -1.45226568e-05, 1.27218867e-04,
          1.29580527e-04, 1.06075968e-04, 5.18687302e-05, 9.72265480e-05,
          8.48315394e-05, 7.51302941e-05, 8.79016879e-05, 3.11375807e-05,
          -9.99895710e-05, 1.91872077e-05, 5.35991639e-05,
          3.66671011e-05, -4.10236789e-05, -5.45728763e-05,
          -7.44670833e-05, -6.75214033e-05, 9.02500396e-05,
          3.96774631e-05, 4.24250466e-05, 4.38630450e-05,
          -5.84845338e-06, -1.27301464e-04, -9.04122135e-05,
          4.53815665e-05, 8.98724393e-05, -5.07663663e-06,
          8.77388970e-08, 1.04579212e-05, 1.49264652e-05,
          -1.38594633e-05, -5.82477624e-05, 1.16884337e-04,
          5.59035034e-05, 2.85210608e-05, -1.56265082e-06,
          3.68326801e-05, 3.37995043e-05, 3.85139319e-05, 7.69421968e-05,
          9.28970439e-06, -5.64467555e-05, -2.21915634e-05,
          6.18331396e-05, -5.34165847e-05, -7.96270324e-05,
          -9.23018961e-05, -1.01605168e-04, -9.42475308e-05,
          -2.38966113e-05, -3.55088268e-05, -9.10516101e-05,
          -2.33700375e-05, 5.21382135e-05, -8.86492344e-05,
          -1.04984720e-04, 5.93390032e-05, 6.49501017e-05,
          -1.38061823e-05, 2.37906306e-06, 3.57453137e-05,
          2.21772134e-05, -2.38604389e-05, -3.36727790e-05,
          6.91655878e-05, -3.41419072e-05, -1.90022820e-05,
          -2.95382815e-05, -4.01473371e-05, 4.11025394e-05,
          9.57696830e-05, 8.94585464e-05, 6.59855214e-05,
          -4.00628642e-06, -1.31204588e-05, 2.87133989e-05,
          -8.19629931e-05, -1.77180336e-04, -1.22352663e-04,
          -1.42814373e-04, -2.59297231e-04, 1.99396236e-05,
          3.09894713e-05, 2.23487859e-05, -1.05905208e-04,
          1.71706852e-05, -4.18480113e-07, -5.59889377e-05,
          5.65282426e-05, 7.85027951e-05, -2.03576601e-05,
          -3.55007796e-05, 9.62656213e-06, 2.36153101e-05,
          -1.14410636e-06, -2.41785347e-05, 5.94878984e-05,
          -5.17273038e-05, 3.66932109e-05, 4.63816032e-05,
          5.33621424e-05, 5.38317436e-05, 7.82734642e-05, 6.39875216e-05,
          8.51027798e-05, 6.40295229e-06, 2.46655745e-05,
          -4.47487655e-05, -1.55449743e-04, -1.69101957e-04,
          -1.73333625e-04, -1.80711344e-04, -7.74028231e-05,
          -6.86826825e-05, -1.05182269e-04, -1.14960007e-04,
          -1.76841364e-04, -7.33938168e-06, 3.28228707e-05,
          3.30878283e-05, 1.05393890e-04, 9.87845633e-05, 1.31634499e-06,
          -4.62105054e-05, -1.26360874e-05, 1.34998554e-05,
          1.28311249e-05, -5.30532816e-05, 4.64123113e-05,
          -1.13463597e-04, -4.99679772e-05, -7.32916451e-05,
          -3.45933258e-05, 8.68439020e-05, 6.71186644e-05,
          6.86644562e-05, 9.75389266e-05, 8.24315212e-05, 3.17470040e-05,
          -9.55007636e-05, -1.63552861e-04, -1.70506726e-04,
          -2.03754491e-04, -1.71180858e-04, -1.97944573e-05 ]
      - [ 1.21788917e-05, 1.29208993e-05, 1.43488705e-05, 2.12307132e-05,
          1.83377124e-05, 2.34756790e-05, 2.12083833e-05, 3.78801560e-05,
          8.26136238e-06, 2.06432787e-06, 4.03748345e-06, 5.66862718e-06,
          7.29170370e-06, 3.10818746e-06, -6.53958568e-06,
          -8.59010652e-06, -3.40619124e-07, 2.27454984e-05,
          2.01534494e-05, 7.72829117e-06, 1.03000193e-05, 1.48311756e-05,
          1.23372829e-05, 9.07112462e-06, -1.52418161e-05,
          -3.12813063e-05, 1.02313049e-06, 1.83446082e-05,
          4.51420383e-05, 4.39847827e-05, 4.17275514e-05, 4.27245941e-05,
          3.51864765e-06, 1.15280736e-05, 1.99566184e-05, 1.94024178e-05,
          2.33275787e-05, 2.11260558e-05, 1.96158398e-05, 4.86104254e-05,
          2.35319640e-05, 1.32283576e-05, 8.39597396e-06, 1.01581627e-05,
          -1.88812101e-06, -7.10767563e-06, -3.30774355e-06,
          -1.36522676e-05, -1.18323005e-05, 4.38056020e-07,
          1.48811341e-05, 4.28561407e-06, 1.22835008e-05, 6.20482069e-06,
          2.51849610e-06, 5.35242108e-08, -2.11897041e-05,
          -2.98520608e-05, 3.90212472e-06, -7.39460665e-06,
          4.09270942e-05, 3.42087260e-05, 3.29765280e-05, 2.79882679e-05,
          4.47357706e-06, 2.01095208e-05, 2.26772663e-05, 2.07326502e-05,
          2.39477940e-05, 2.03662985e-05, 1.91495983e-05, 4.38438074e-05,
          2.42747701e-05, 1.17765358e-05, 6.18801005e-06, 8.56194220e-06,
          9.90316130e-06, 6.52643485e-06, 8.33074682e-06, 1.51450431e-05,
          1.48538302e-05, 1.00371972e-05, 8.97308018e-06, 7.95250162e-06,
          1.32941068e-06, 1.90453670e-06, -5.46626870e-06,
          -6.27987583e-06, -2.71872032e-05, -3.07617665e-05,
          2.18527543e-06, 2.55245300e-06, 3.54832409e-05, 3.60972117e-05,
          4.05415158e-05, 3.30037656e-05, 1.89267757e-05, 2.04827702e-05,
          1.90839692e-05, 2.11117967e-05, 2.29391535e-05, 2.23886636e-05,
          2.16712870e-05, 5.37220112e-05, 2.31741906e-05, 9.46124783e-06,
          9.79459219e-06, 9.72174257e-06, 9.29566158e-06, 1.01960532e-05,
          1.17282352e-05, 1.09598823e-05, 1.52656939e-05, 1.03811981e-05,
          1.07972428e-05, 9.33401316e-06, 3.26391591e-06,
          -6.40691724e-07, -1.11816471e-05, -1.28557140e-05,
          -3.83224506e-05, -3.14787758e-05, -1.38507971e-06,
          1.22597758e-05, 5.41538211e-05, 5.13223385e-05, 4.44955731e-05,
          4.84384545e-05, 2.22033104e-05, 1.77429793e-05, 1.76903450e-05,
          2.28592417e-05, 2.13664371e-05, 1.84937908e-05, 1.78174141e-05,
          4.06513354e-05, 2.27510354e-05, 6.40219696e-06, 8.11132395e-06,
          6.08241726e-06, 7.15761098e-06, 1.06139296e-05, 6.60359137e-06,
          8.86965154e-06, 1.33624872e-05, 1.22645542e-05, 1.21847597e-05,
          3.75060426e-06, 2.02073875e-06, -2.70748410e-06,
          -1.59136198e-05, -1.32904752e-05, -3.14444806e-05,
          -2.50729208e-05, 4.94201572e-07, 1.38514424e-05,
          5.31630831e-05, 5.19157111e-05, 5.12842525e-05, 5.13810301e-05,
          1.35091450e-05, 1.69283576e-05, 1.60595991e-05, 1.75499899e-05,
          1.73893804e-05, 1.42126182e-05, 1.33084222e-05, 3.32030868e-05,
          2.36099822e-05, 1.25041415e-05, 1.32928235e-05, 1.70088824e-05,
          1.74055058e-05, 1.60230829e-05, 2.00209774e-06, 7.35082313e-06,
          1.95218345e-05, 1.48118088e-05, 3.91593449e-06,
          -4.30614193e-07, 2.81783059e-06, 4.93951165e-06,
          -5.93443565e-06, -4.66609481e-06, -2.39403125e-05,
          -4.26217557e-05, -2.62268204e-05, 9.89488672e-06,
          2.46197869e-05, 2.62266785e-05, 3.27372836e-05, 2.97702991e-05,
          -2.70449709e-05, -2.42038914e-05, -2.38189004e-05,
          -2.46428990e-05, -1.91814670e-05, -2.36571250e-05,
          -2.59783537e-05, -7.04795912e-06, -1.52841239e-05,
          3.90778814e-06, 1.73027056e-05, 2.10573653e-05, 2.60332909e-05,
          1.43578218e-05, 1.29992786e-05, 1.12960288e-05, 1.68328370e-05,
          1.86439283e-05, 7.82668394e-06, 1.57222007e-06, 2.99043563e-06,
          5.75514559e-06, 4.78759603e-06, 1.15698731e-05,
          -2.45400879e-05, -8.06576281e-05, -2.68176500e-05,
          8.40750999e-06, 2.39037217e-05, 1.30430608e-05, 1.08588556e-05,
          6.37380117e-06, -3.75174459e-05, -3.82010112e-05,
          -3.87845539e-05, -3.79812518e-05, -3.63959698e-05,
          -4.30957480e-05, -3.51435992e-05, -6.82343380e-05,
          -1.54145455e-05, 4.99517082e-05, 4.67210994e-05,
          4.83859549e-05, 1.70891853e-05, 6.30940394e-06, 6.07165885e-06,
          1.70060991e-06, 2.75443711e-07, 5.06507558e-06, 1.13385895e-05,
          -3.21926427e-06, -8.95528592e-06, -1.25604502e-05,
          -1.43357065e-05, 5.08155645e-05, -2.93723897e-05,
          -6.22403531e-05, -2.00659852e-05, -9.77666787e-06,
          -2.09029822e-05, -2.17234865e-05, -8.50264223e-06,
          -2.00815030e-05, -2.20065376e-05, -2.33411083e-05,
          -3.12361954e-05, -2.89705622e-05, -2.07807334e-05,
          -2.95670216e-05, -2.85203532e-05, -6.11050564e-05,
          -4.07030748e-05, -1.31492925e-05, -3.02140270e-05,
          -2.85807473e-05, -7.53212444e-05, -9.19538797e-05,
          -1.00521014e-04, -9.49851747e-05, -8.60525834e-05,
          -6.83888939e-05, -6.56364573e-05, -6.28492271e-05,
          -8.02923169e-05, -8.37008120e-05, -8.50859506e-05,
          -4.45311052e-05, -4.43369936e-05, -4.30605578e-05,
          -4.24669852e-05, -4.48545688e-05, -4.30333057e-05,
          -5.40413239e-05, -5.38524473e-05, -5.60228582e-05,
          -8.84323799e-06, -1.18061571e-05, -9.67428696e-06,
          -6.85284249e-06, -3.97809663e-06, -4.09956192e-06,
          -7.74255227e-07, -1.16978590e-05, -2.99746735e-05,
          -3.86670436e-05, -5.65866649e-05, -6.03223161e-05,
          -1.12881105e-04, -1.38052346e-04, -1.34010625e-04,
          -1.35584094e-04, -1.28956308e-04, -1.30768429e-04,
          -8.76811246e-05, -3.23271124e-05, -4.23113161e-05,
          -4.28718995e-05, -4.61254931e-05, -8.38058895e-06,
          3.16459627e-05, 1.21629637e-06, -3.79520202e-06,
          -1.09824086e-05, -1.68003808e-05, -1.43557918e-05,
          -1.74087127e-05, -1.60391883e-05, -1.45144049e-05,
          -1.17915015e-05, -1.09446046e-05, -7.63997286e-06,
          -8.72105829e-06, -6.35456081e-06, -1.89173329e-06,
          -9.64963510e-06, -5.07640761e-05, -5.93866753e-05,
          -6.37002158e-05, -7.46083970e-05, -1.42214922e-04,
          -1.51272892e-04, -1.50528256e-04, -1.52641398e-04,
          -1.60708296e-04, -1.60972690e-04, -1.51117711e-04,
          -1.42719524e-04, -5.48668359e-05, -6.56783741e-05,
          -6.60470323e-05, -1.29707287e-05, 2.33970550e-05,
          4.54708669e-07, -5.84661711e-06, -1.37529896e-05,
          -1.77438124e-05, -1.61221342e-05, -1.46273860e-05,
          -1.87246933e-05, -1.40988504e-05, -1.08839095e-05,
          -1.01188425e-05, -9.32226885e-06, -6.60175647e-06,
          -1.91718732e-06, 4.08013693e-06, -3.76153912e-06,
          -3.29878094e-05, -6.20443898e-05, -6.68834327e-05,
          -9.81906924e-05, -1.42265140e-04, -1.56388880e-04,
          -1.48835097e-04, -1.46358390e-04, -1.53552712e-04,
          -1.38142059e-04, -1.38666321e-04, -1.49537183e-04,
          -1.29686989e-04, -5.18980305e-05, -6.67635395e-05,
          -3.16215107e-07, 2.83485078e-05, 4.66635765e-06,
          -7.23058110e-06, -1.61316111e-05, -1.67524940e-05,
          -1.90499359e-05, -1.83304346e-05, -1.67052658e-05,
          -1.57555005e-05, -1.18840371e-05, -2.27939836e-06,
          -2.46134437e-06, -5.78594097e-07, 1.29384068e-06,
          -4.35436249e-07, -1.75169237e-06, -3.15290308e-05,
          -5.83689289e-05, -6.70160443e-05, -9.44594067e-05,
          -1.24266997e-04, -1.51411470e-04, -1.56848750e-04,
          -1.57727147e-04, -1.49764324e-04, -1.42218632e-04,
          -1.50308988e-04, -1.51932807e-04, -1.57535964e-04,
          -9.95951923e-05, -7.20092794e-05, -1.28077090e-06,
          2.60523284e-05, 1.81600115e-06, -7.29474641e-06,
          -1.23218006e-05, -1.68775296e-05, -1.72471682e-05,
          -1.96685924e-05, -1.75855803e-05, -1.61026619e-05,
          -9.26146004e-06, -5.59330329e-06, -4.12277859e-06,
          -3.88383069e-06, -3.95003696e-07, -2.57160025e-07,
          -1.42299382e-06, -3.85781132e-05, -3.96583891e-05,
          -6.22451626e-05, -8.78746941e-05, -1.12792237e-04,
          -1.31753230e-04, -1.49877946e-04, -1.57001195e-04,
          -1.55027941e-04, -1.53835310e-04, -1.52521025e-04,
          -1.58047362e-04, -1.57271948e-04, -1.60407071e-04,
          -7.50312538e-05, 3.52599818e-06, 2.71192512e-05,
          3.36689277e-06, -8.71289740e-06, -1.62256893e-05,
          -2.18885252e-05, -2.26024349e-05, -1.96938527e-05,
          -1.76243848e-05, -1.95733228e-05, -1.26534414e-05,
          -1.11478403e-05, -4.96813345e-06, -5.80615779e-06,
          -6.85396458e-07, -2.43604495e-06, -6.02062028e-06,
          -3.28854767e-05, -5.42156158e-05, -6.20632636e-05,
          -7.33194829e-05, -1.29295033e-04, -1.32348097e-04,
          -1.33799957e-04, -1.41305718e-04, -1.51913133e-04,
          -1.51661690e-04, -1.54956229e-04, -1.58586103e-04,
          -1.62988828e-04, -1.67750710e-04, -9.71302215e-05,
          2.19637677e-05, 2.79894102e-05, 6.13709699e-06,
          -5.47297986e-06, -1.44722371e-05, -1.54813570e-05,
          -1.25503184e-05, -1.59446881e-05, -1.54203808e-05,
          -1.24426324e-05, -1.21568319e-05, -9.74110117e-06,
          -4.29244255e-06, -8.62889465e-06, -6.44698730e-06,
          -1.20647737e-05, -9.97373809e-06, -3.09207826e-05,
          -1.07413962e-05, -4.77691501e-05, -5.61485722e-05,
          -9.36546858e-05, -1.19013930e-04, -1.13359332e-04,
          -1.09193585e-04, -1.39433483e-04, -1.38745905e-04,
          -1.52833978e-04, -1.60968586e-04, -1.65828867e-04,
          -1.54612630e-04, -7.62116106e-05, 2.29180096e-05,
          2.02175397e-05, 7.78667618e-06, -8.19543584e-06,
          -1.26163877e-05, -2.24504201e-05, -2.19377325e-05,
          -2.03611962e-05, -1.89402326e-05, -1.97581649e-05,
          -8.23350638e-06, -1.10362253e-05, -9.32760122e-06,
          -7.34331661e-06, -9.77341460e-06, -8.91732634e-06,
          -1.11813379e-05, -2.27560158e-05, -6.74061721e-06,
          -4.41076882e-05, -4.31026492e-05, -5.92515025e-05,
          -1.00965692e-04, -1.28331289e-04, -1.33846872e-04,
          -1.33900161e-04, -1.32649424e-04, -1.46613602e-04,
          -1.43953934e-04, -1.48004037e-04, -1.29492750e-04,
          -4.90166749e-05, 2.27902929e-05, 2.01987787e-05,
          7.21475999e-06, -7.94829248e-06, -1.73437602e-05,
          -2.15094988e-05, -2.21006139e-05, -2.15086220e-05,
          -1.98644611e-05, -2.04536100e-05, -1.37956849e-05,
          -1.66477403e-05, -1.55278849e-05, -9.37997902e-06,
          -5.57919293e-06, -9.51719721e-06, -1.33448166e-05,
          -2.97840106e-05, 1.16281772e-05, -1.94024997e-05,
          -3.69147165e-05, -4.57378774e-05, -6.13538359e-05,
          -9.05791749e-05, -1.13650683e-04, -1.24173559e-04,
          -1.24409838e-04, -1.31371111e-04, -1.22746220e-04,
          -1.10549263e-04, -8.21158101e-05, -2.50778012e-05,
          3.37408419e-05, 1.47797746e-05, 6.64396384e-06,
          -9.21609080e-06, -1.26318600e-05, -1.67299368e-05,
          -1.42013596e-05, -1.59185311e-05, -1.75104378e-05,
          -2.39240962e-05, -2.18296118e-05, -2.03786967e-05,
          -2.06901368e-05, -1.14088698e-05, -7.70146835e-06,
          -8.61196258e-06, -1.14986588e-05, -3.37122256e-05,
          1.29033933e-05, 1.96116143e-05, -2.75160164e-05,
          -3.21210064e-05, -4.62312964e-05, -5.26564618e-05,
          -7.67874662e-05, -9.27431829e-05, -9.64458668e-05,
          -9.52405389e-05, -8.05557720e-05, -6.18857594e-05,
          -4.23026104e-05, 1.81169094e-06, 3.16297701e-05,
          1.99388542e-05, 1.29266537e-05, -3.59614364e-06,
          -1.29414111e-05, -1.65194033e-05, -1.45323202e-05,
          -1.90983101e-05, -1.87352143e-05, -2.12518971e-05,
          -1.97161226e-05, -2.19376034e-05, -2.01944349e-05,
          -1.87136848e-05, -1.38238256e-05, -1.24571307e-05,
          -1.38933119e-05, -3.37345882e-05, 9.69448411e-06,
          1.99880451e-05, 2.44649182e-05, -2.49089735e-05,
          -2.81953035e-05, -4.05175015e-05, -6.73450850e-05,
          -7.86000528e-05, -8.28280172e-05, -7.11961402e-05,
          -4.24000427e-05, -3.34369761e-05, -2.09433474e-05,
          3.18785824e-05, 3.48300418e-05, 1.89430393e-05, 1.03334369e-05,
          -4.16334251e-06, -1.09545090e-05, -1.36217595e-05,
          -1.91472100e-05, -1.76388330e-05, -1.79454000e-05,
          -1.94845270e-05, -2.28616063e-05, -2.62213798e-05,
          -2.67578398e-05, -2.01430721e-05, -1.48115396e-05,
          -1.38014593e-05, -2.17055676e-05, -3.29746399e-05,
          7.74356249e-06, 2.08259735e-05, 2.53298967e-05, 2.76958435e-05,
          -3.51718904e-06, -2.90309617e-05, -2.89964737e-05,
          -4.67963837e-05, -4.17320407e-05, -3.10903524e-05,
          -2.57165029e-05, -1.30433937e-05, 3.32234813e-05,
          3.97710537e-05, 5.00093847e-05, 2.31273734e-05, 1.10785322e-05,
          -2.89500633e-07, -6.21717300e-06, -1.55360976e-05,
          -1.53557030e-05, -1.97582194e-05, -1.90271730e-05,
          -1.83474112e-05, -2.05725755e-05, -2.37909990e-05,
          -2.29961479e-05, -2.16100452e-05, -1.56104707e-05,
          -1.27869362e-05, -1.06548978e-05, -4.18055788e-05,
          2.23696006e-05, 2.24958621e-05, 2.81870907e-05, 2.94582351e-05,
          2.96053240e-05, 3.21851185e-05, 3.12739917e-06,
          -2.23035804e-05, -1.67618055e-05, 1.80934921e-06,
          2.33779556e-05, 4.25236285e-05, 3.98895863e-05, 3.72023969e-05,
          4.35129732e-05, 2.34072959e-05, 1.30024055e-05, 1.65647896e-06,
          -6.55265239e-06, -1.05043509e-05, -1.21623243e-05,
          -1.59771589e-05, -7.23928906e-06, 2.02168758e-05,
          1.91639210e-05, 2.11845072e-05, 2.07677713e-05, 2.11987590e-05,
          2.01138737e-05, 3.19944957e-05, 3.82048966e-05, 4.55335476e-06,
          2.32240054e-05, 2.93797711e-05, 2.56162893e-05, 2.77717645e-05,
          1.84869732e-05, 2.64668925e-05, 2.74431895e-05, 3.00111114e-05,
          2.48777997e-05, 2.60614706e-05, 3.04178684e-05, 3.43469255e-05,
          3.23873428e-05, 3.36259036e-05, 5.17642693e-05, 3.89839734e-05,
          5.89693591e-05, 4.51103369e-05, 4.09821150e-05, 2.79104970e-05,
          2.91290489e-05, 2.86073337e-05, 3.25141409e-05, 3.35170698e-05,
          3.13042001e-05, 3.24870889e-05, 3.81043938e-05, 3.90092027e-05,
          3.55588745e-05, 4.25377984e-05, 3.28042697e-05, 1.61828393e-05,
          5.42817797e-05, 5.11915350e-05, 5.20074100e-05, 5.49501419e-05,
          4.96486937e-05, 4.97610672e-05, 4.66216406e-05, 5.11259022e-05,
          5.28462442e-05, 4.86772151e-05, 5.16388500e-05, 4.71601088e-05,
          5.38589265e-05, 4.69379193e-05, 6.12248987e-05, 6.70934533e-05,
          6.47822962e-05, 4.84435950e-05, 3.93777773e-05, 3.38775571e-05,
          3.64587213e-05, 3.49237052e-05, 3.35385084e-05, 3.56165801e-05,
          3.28072347e-05, 3.16865226e-05, 2.99420226e-05, 3.24441899e-05,
          3.28153110e-05, 3.59667538e-05, 1.91629788e-05, 7.02809848e-06,
          4.07752304e-05, 5.46823394e-05, 5.33380735e-05, 5.41317568e-05,
          5.24054449e-05, 5.23055751e-05, 5.43306705e-05, 5.98608131e-05,
          6.24319437e-05, 6.07059155e-05, 5.91746975e-05, 6.44325482e-05,
          6.60593068e-05, 6.78512297e-05, 7.24148995e-05, 7.37641312e-05,
          5.97001781e-05, 4.70154155e-05, 4.41893499e-05, 3.71385322e-05,
          3.59179758e-05, 3.07071932e-05, 3.66383501e-05, 8.19471097e-06,
          2.65852873e-06, 2.98574582e-06, 1.41645216e-06, 8.77405057e-07,
          6.36970935e-06, 1.28700128e-06, -7.89409626e-07,
          -3.23708337e-05, -2.55665400e-05, -3.18428029e-05,
          -3.28969109e-05, -2.26072880e-05, -2.55569412e-05,
          -1.76392041e-05, -1.60124146e-05, -9.47299941e-06,
          -1.19917568e-05, -1.00513817e-05, -6.09822837e-06,
          -7.45944362e-06, -3.23796621e-06, -4.66007896e-06,
          -6.55914073e-06, 1.00596144e-05, 3.28107162e-05,
          5.05876233e-06, 4.29405100e-06, 1.95985513e-06,
          -7.38878452e-06, 5.15173542e-06, 1.32386094e-05,
          5.33727871e-05, 5.44250179e-05, 5.28435557e-05, 5.17870794e-05,
          4.86042300e-05, 4.50677871e-05, 4.66626843e-05, 4.90318234e-05,
          1.10100636e-05, -2.22560993e-06, -6.05439345e-06,
          -1.04325900e-05, -8.98317103e-06, -1.15344583e-05,
          -4.82109817e-06, 6.30816942e-07, 1.32949901e-06,
          1.00225876e-07, 5.18557772e-06, 5.34029505e-06, 6.20800665e-06,
          6.63453784e-06, 4.58541308e-06, 2.97372640e-06,
          -9.56272561e-06, 4.23064484e-05, 5.88636540e-05,
          6.13980228e-05, 5.86310380e-05, 6.10551579e-05, 6.33969321e-05,
          6.44797037e-05, 4.51493288e-05, 4.24497121e-05, 4.37562994e-05,
          4.07141597e-05, 3.39791295e-05, 3.41344457e-05, 3.79906414e-05,
          4.70045197e-05, 1.19364222e-05, -1.02520253e-05,
          -8.41791280e-06, -1.04042947e-05, -8.81506821e-06,
          -5.69409121e-06, -8.86404450e-06, -7.10949143e-06,
          -8.01787246e-06, -5.72806039e-06, -4.85288274e-06,
          2.81706889e-06, 3.02800026e-06, 3.18595266e-06, 4.84081829e-06,
          -2.86939837e-07, -6.34973958e-07, 3.93513437e-05,
          6.01843167e-05, 5.89051342e-05, 5.70103402e-05, 6.15943500e-05,
          5.87329487e-05, 6.78625292e-05, 4.00051831e-05, 3.65617307e-05,
          4.51831656e-05, 4.24437094e-05, 3.68302935e-05, 3.65423875e-05,
          3.22076048e-05, 4.33679561e-05, 1.26646710e-05,
          -4.47573939e-06, -1.32223731e-05, -1.53516539e-05,
          -9.90664284e-06, -9.40179962e-06, -1.33228868e-05,
          -1.01397609e-05, -1.22108704e-05, -7.68919199e-06,
          -6.11570658e-06, -1.29212560e-06, -2.41643852e-06,
          -1.03375146e-06, 2.37470999e-06, 2.90441250e-07,
          -7.98410747e-06, 3.32774725e-05, 5.45755756e-05,
          5.93122677e-05, 6.72433307e-05, 6.11615396e-05, 5.68899522e-05,
          5.86834831e-05, 1.29787604e-05, 1.56728129e-05, 9.81032713e-07,
          2.89463096e-05, 3.85041531e-05, 3.27716807e-05, 3.23421191e-05,
          3.87663895e-05, 2.34215477e-05, -3.06435595e-07,
          -1.20115346e-05, -7.18531373e-06, -1.16828878e-05,
          -1.17195750e-05, -5.58739475e-06, -1.26745545e-05,
          -5.35753497e-05, -2.81063003e-05, -3.00130123e-05,
          -3.48551985e-05, -8.98415419e-06, -1.65311985e-06,
          -1.21101471e-06, -2.65079802e-06, -8.92568823e-06,
          3.25531582e-05, 5.93670084e-05, 5.74933838e-05, 5.31832411e-05,
          5.67918905e-05, 5.64310249e-05, 3.57137469e-05, 3.14261306e-05,
          4.14857459e-05, 4.36215923e-05, -2.60687762e-06,
          3.46310771e-05, 3.67873436e-05, 3.56860655e-05, 4.70497471e-05,
          1.23784021e-05, -4.97367637e-06, -1.60684740e-05,
          -1.18060925e-05, -1.09585089e-05, -1.37516672e-05,
          -1.22859556e-05, -1.37152765e-05, -6.39415812e-05,
          -8.77649563e-06, -1.15126804e-05, -7.98150450e-06,
          -7.09188680e-06, -3.80912184e-06, -2.46718514e-06,
          -3.43952775e-06, -1.64637968e-05, 3.78437762e-05,
          5.77686587e-05, 5.66086746e-05, 6.24817767e-05, 5.91500575e-05,
          5.58100146e-05, 4.90891398e-05, 3.53119285e-05, 4.16020630e-05,
          4.29845641e-05, 6.24846416e-06, 4.11562578e-05, 3.57206700e-05,
          3.39040089e-05, 3.97427611e-05, 9.76738102e-06,
          -9.76338924e-06, -1.36633744e-05, -1.22899773e-05,
          -9.62777722e-06, -1.18732569e-05, -1.22846359e-05,
          -1.48867875e-05, -6.58139543e-05, -4.20497017e-05,
          -5.02858129e-05, -4.85462187e-05, -3.07973869e-06,
          -5.31648493e-06, -2.99522821e-06, -2.10755161e-06,
          -1.66660830e-05, 3.60334125e-05, 5.72136996e-05,
          5.69943695e-05, 6.21136278e-05, 6.09967974e-05, 5.98574115e-05,
          6.13238517e-05 ]
      - [ -1.43998303e-04, -4.83619842e-05, -5.05972821e-05,
          -1.43542100e-04, -1.61786564e-04, -1.09966582e-04,
          -1.17397060e-04, -9.13211552e-05, 2.26884622e-05,
          7.88822508e-05, 6.80011217e-05, 9.57215816e-05, 9.90990447e-05,
          1.22088619e-04, 1.74199668e-04, 1.21524121e-04, 1.28484025e-04,
          1.52452558e-04, 1.72837419e-04, 9.34763011e-05, 9.92875284e-05,
          3.61392267e-05, 4.25952530e-05, 7.66333505e-06, 4.33738169e-05,
          -2.45629890e-05, -4.93544358e-05, -1.17680596e-04,
          -1.09288609e-04, -4.40269396e-05, -1.00111189e-04,
          -2.20654465e-06, -1.60049283e-04, -5.01049690e-05,
          -5.46273186e-05, -1.22474754e-04, -1.19021504e-04,
          -8.96755882e-05, -1.07356092e-04, -8.30928766e-05,
          5.67518728e-05, 7.95256783e-05, 4.74017506e-05, 5.70771990e-05,
          6.66906853e-05, 1.01800346e-04, 1.71992055e-04, 1.13895687e-04,
          8.17624968e-05, 1.55096568e-04, 1.77135662e-04, 9.75186849e-05,
          1.23798338e-04, 6.40092985e-05, 6.25886751e-05,
          -4.14490660e-06, 1.93438427e-05, -4.56927546e-06,
          -3.31125520e-05, -1.37756535e-04, -1.12837035e-04,
          -5.81505556e-05, -4.51251763e-05, -7.05390848e-05,
          -7.29799940e-05, -6.04652523e-05, -7.43527198e-05,
          -6.30989016e-05, -1.10952438e-04, -1.01996695e-04,
          -1.11263696e-04, -7.35385256e-05, 8.70490912e-05,
          5.32690719e-05, 3.77135366e-05, 4.78882757e-05, 8.85240588e-05,
          1.09324486e-04, 1.51172964e-04, 1.81024821e-04, 1.43013691e-04,
          1.46808787e-04, 1.13618924e-04, 7.48707316e-05, 7.59597242e-05,
          4.56221605e-05, 5.33001912e-05, 2.57033753e-06, 4.19862299e-05,
          -3.63892832e-06, -3.49895454e-05, -8.78572027e-05,
          -1.09355176e-04, -1.05551764e-04, -1.98927046e-05,
          2.16248191e-05, -7.57703237e-05, 3.28119531e-05,
          -2.80681688e-05, -2.05638262e-05, -7.85667289e-05,
          -9.15024793e-05, -1.04925872e-04, -4.05939718e-05,
          7.14564958e-05, 4.89162339e-05, 5.06279539e-05, 4.88857113e-05,
          8.57717096e-05, 1.05097082e-04, 1.41922326e-04, 1.54503694e-04,
          1.47899802e-04, 1.51226821e-04, 1.07682536e-04, 1.09035798e-04,
          -3.36036214e-06, 1.70048806e-05, 3.20030340e-05,
          2.76801693e-05, 6.39195923e-06, 5.38348968e-06,
          -1.55665275e-05, -5.57094099e-05, -8.81875385e-05,
          -6.27884874e-05, -6.11909854e-05, -1.65361271e-05,
          -3.11593649e-05, -2.85809710e-05, -4.00776880e-05,
          -2.56694493e-05, -4.68523394e-05, -8.38819687e-05,
          -1.06229607e-04, -4.89521008e-05, 6.01749634e-05,
          5.52827660e-05, 6.15614190e-05, 3.82950275e-05, 7.15209026e-05,
          1.56930197e-04, 1.73754030e-04, 1.52019566e-04, 1.53643094e-04,
          1.25467530e-04, 1.13137859e-04, 1.04630191e-04, 8.82994791e-05,
          6.73366158e-05, 5.58874053e-05, 4.27503073e-05, 6.81775055e-05,
          4.23202546e-05, -4.06205654e-05, -8.28462144e-05,
          -8.12722137e-05, -7.70493207e-05, -8.24163799e-05,
          -5.25697469e-05, -6.09181297e-05, -1.79065191e-05,
          -1.68213719e-05, -1.60624131e-05, -4.17997180e-05,
          -8.46992116e-05, -8.27566691e-05, -2.76451065e-05,
          1.05179606e-04, 7.66772791e-05, 2.87638031e-05, 1.01600388e-04,
          1.02042148e-04, 1.18302669e-04, 1.36087794e-04, 1.55784088e-04,
          1.28053478e-04, 1.68043625e-04, 1.16662733e-04, 7.55072033e-05,
          7.40996547e-05, 9.21715327e-05, 5.35140243e-05, 5.63639296e-05,
          9.07644790e-05, 2.58658984e-05, -4.14567185e-05,
          -7.54280481e-05, -8.14993764e-05, -7.94748921e-05,
          -8.20094865e-05, -7.80212431e-05, -6.29220667e-05,
          -2.95679329e-05, -7.30139163e-06, 9.21179071e-06,
          -3.52922361e-05, -6.25954417e-05, -6.93657348e-05,
          4.46510312e-05, 9.53823983e-05, 8.51099612e-05, 7.19650852e-05,
          1.26898100e-04, 1.10314235e-04, 1.07044943e-04, 1.54966619e-04,
          1.59689647e-04, 1.47024111e-04, 1.56935959e-04, 1.41284007e-04,
          1.28693122e-04, 1.05425686e-04, 1.05502724e-04, 9.92990390e-05,
          6.64638428e-05, 6.69035508e-05, -1.35024875e-05,
          -3.23365384e-05, -7.02672114e-05, -2.78300613e-05,
          -5.69497970e-05, -7.45212310e-05, -8.25057577e-05,
          -5.06334291e-05, -2.69953689e-05, 2.49201894e-05,
          8.46902985e-05, 4.49068575e-05, 3.03284614e-05, 4.86993958e-05,
          7.80216360e-05, 1.04931445e-04, 1.12882728e-04, 9.66452862e-05,
          1.29337437e-04, 7.97982357e-05, 1.14198818e-04, 1.40281671e-04,
          1.68246363e-04, 1.78672868e-04, 1.62057579e-04, 1.31712033e-04,
          1.24222759e-04, 1.09484798e-04, 1.07759770e-04, 1.24050232e-04,
          6.24240274e-05, 6.54711257e-05, 5.00702954e-05,
          -1.46188165e-06, -1.69718151e-05, -3.42590429e-05,
          -1.41916089e-05, 1.37807538e-05, -2.30559344e-05,
          1.54381614e-05, 6.64533491e-06, 5.17761473e-05, 7.65298391e-05,
          1.08222775e-04, 6.88141008e-05, 8.37483167e-05, 5.16554610e-05,
          3.17685517e-05, -2.89657819e-05, 1.12952666e-05,
          2.19755639e-05, 6.01634601e-05, 6.66517517e-05, 8.31599900e-05,
          1.13697090e-04, 1.39136842e-04, 1.48360443e-04, 1.25017716e-04,
          5.66229064e-05, 4.29198953e-05, 7.85222583e-05, 5.43322894e-05,
          1.07381709e-06, 8.56938568e-05, 6.56694174e-05, 3.32373093e-05,
          -4.68351175e-07, 1.18366834e-05, 3.19535211e-05,
          2.09666487e-05, -2.76986293e-06, 8.88758150e-05,
          1.05873609e-04, 1.27383391e-04, 1.09718647e-04, 1.31789056e-04,
          9.07516442e-05, 8.92066964e-05, 2.30017922e-05, 2.18306741e-05,
          -9.02324900e-05, -5.17510525e-05, 1.67829730e-05,
          5.94176709e-05, 1.77705333e-05, 6.27200352e-05, 1.21463519e-04,
          1.47155079e-04, 1.21064084e-04, 6.35301039e-05, 3.27858834e-05,
          4.61589807e-05, 2.94950842e-05, 3.40885163e-05,
          -4.41928023e-05, 2.88975698e-05, 6.08628170e-06,
          -2.38233370e-05, 6.68347093e-06, 2.00851428e-05,
          3.79429730e-05, 5.06824363e-05, -3.58486136e-06,
          1.02931408e-04, 1.21452191e-04, 1.25458493e-04, 1.22588259e-04,
          1.16087176e-04, 1.41588738e-04, 1.15724361e-04, 1.51214754e-05,
          -3.27749476e-05, -6.38110578e-05, -1.48345009e-06,
          6.86705753e-05, 2.97529696e-05, 2.73250316e-05, 7.54806097e-05,
          8.64584581e-05, 8.21497306e-05, 3.75472700e-05, 2.31431877e-05,
          3.76008138e-05, 5.56306513e-05, 6.01511165e-05, 2.48916913e-05,
          -8.99286024e-05, 1.18797998e-05, -3.78879668e-05,
          -4.58058275e-05, -1.42117979e-05, 3.78789991e-06,
          1.19676188e-05, 1.90601077e-05, -4.12278041e-06,
          1.19357144e-04, 1.21824080e-04, 1.30808097e-04, 1.32626184e-04,
          1.05026986e-04, 1.10024201e-04, 9.78416501e-05, 1.94892873e-05,
          -1.25480810e-05, -1.08021522e-04, -5.50101322e-05,
          5.13237355e-05, 3.62255414e-05, 3.50195187e-05, 6.76025666e-05,
          8.42354930e-05, 3.36692792e-05, 2.41134621e-05, 4.07314510e-05,
          3.86122811e-05, 4.39821852e-05, 1.00796147e-04, 4.53589528e-05,
          -8.41763103e-05, 3.09347815e-05, -3.67766988e-05,
          -4.28881067e-05, -5.82339599e-05, -5.01030081e-05,
          -2.98076993e-05, -8.31268244e-06, 1.70759777e-05,
          9.90464978e-05, 9.16818026e-05, 8.65909315e-05, 9.24422202e-05,
          1.15282266e-04, 1.12908143e-04, 1.11894413e-04, 5.21161783e-05,
          -2.64990576e-05, -1.21489371e-04, -4.40312833e-05,
          1.87042479e-05, 3.90188461e-06, 1.96644487e-06, 8.25777988e-06,
          -8.47054980e-06, 4.06460686e-06, 2.60627949e-05,
          7.82882307e-06, 3.84704763e-05, 4.54700639e-05, 4.27022023e-05,
          5.00462484e-05, -8.89760850e-05, -6.14632700e-06,
          -4.71982858e-05, -3.12760567e-05, -2.12010418e-05,
          -2.86297491e-05, -2.50395697e-05, 6.45319096e-06,
          2.43518371e-05, 1.03325496e-04, 9.87684034e-05, 7.61224946e-05,
          5.13984087e-05, 7.95681481e-05, 1.15063682e-04, 8.98399740e-05,
          1.40170750e-05, -7.52305205e-05, -1.43924510e-04,
          -9.77718519e-05, -3.03796041e-05, -9.70563178e-06,
          -2.80710337e-05, -1.41432101e-05, -6.48051355e-05,
          -8.78290884e-05, -7.25765494e-05, -4.94827555e-06,
          4.23708843e-05, 5.07221521e-05, 6.75786505e-05, 4.47533603e-05,
          -7.84276490e-05, 8.71384054e-06, -2.07502144e-05,
          -4.11911351e-05, -4.22907688e-05, -3.08449053e-05,
          6.80854555e-08, 2.47477437e-05, 7.14339330e-05, 9.56144795e-05,
          7.29707390e-05, 1.44024461e-05, -4.83309414e-05,
          2.75371372e-06, 7.90829927e-06, 5.84265326e-05, 3.72227551e-05,
          -9.58489545e-05, -8.95714111e-05, -1.25046527e-05,
          -1.52791472e-05, -4.06786276e-05, -2.93703943e-05,
          -3.46754750e-05, -8.95560879e-05, -1.18451622e-04,
          -1.09787783e-04, -1.06934342e-04, -1.71782758e-05,
          -2.13755684e-05, 5.32087734e-06, 4.31241679e-05,
          -8.73694298e-05, 1.28901484e-05, -1.09731172e-05,
          -1.21150670e-05, -8.54572863e-06, 1.67869039e-05,
          8.68971183e-05, 8.03557268e-05, 9.76200026e-05, 7.55627916e-05,
          -4.47661023e-07, -2.19940703e-05, 3.17148033e-06,
          -1.25865290e-05, -8.10796046e-05, -1.47834144e-05,
          2.29065336e-05, -8.53137099e-05, -4.37249982e-05,
          -3.77031247e-05, -3.70865382e-05, -6.05398327e-06,
          -3.87289983e-05, -2.73579317e-05, -6.93688780e-05,
          -1.65046076e-04, -1.39529293e-04, -1.23231250e-04,
          -9.97090028e-05, -1.01729587e-04, -4.15582290e-05,
          -2.47114149e-05, -9.45798238e-05, -1.13538381e-05,
          -4.41955272e-05, -1.20130435e-05, 3.82236931e-06,
          1.65897854e-05, 1.24097669e-05, 3.81788122e-05, 6.55105396e-05,
          1.12756403e-04, 8.65941820e-06, -4.66911706e-06,
          -2.84122075e-06, -4.20169235e-05, -4.28090534e-05,
          -1.60203017e-05, -1.11723657e-05, -6.54067408e-05,
          -3.72395698e-05, -1.82252661e-05, -3.75488198e-05,
          -3.95592397e-05, -2.13210551e-05, -4.66607235e-05,
          -1.44454301e-04, -1.90845007e-04, -1.74780769e-04,
          -1.65300618e-04, -1.26462284e-04, -6.72259994e-05,
          -7.60939292e-05, -7.26396902e-05, -1.94347289e-04,
          -9.68322638e-06, -5.50624791e-05, -2.99528938e-06,
          1.42887684e-05, 2.88331412e-05, 3.11923286e-05, 4.21612785e-05,
          1.25214152e-04, 2.91904435e-05, -4.25257167e-05,
          -4.22259563e-06, -4.57500646e-05, -5.10105201e-05,
          -6.75632691e-05, -2.38631455e-05, 6.87863121e-06,
          -9.38305311e-05, -4.55795052e-05, -3.53965661e-05,
          -3.61831299e-05, -5.02721850e-05, -3.79135636e-05,
          -4.48703613e-05, -1.71423060e-04, -1.97497939e-04,
          -1.55695874e-04, -1.75147012e-04, -1.50209715e-04,
          -4.70016130e-05, -7.42078773e-05, -8.85906702e-05,
          -2.05795324e-04, -1.01274949e-04, -3.09956231e-05,
          -1.39240956e-05, 1.68025817e-05, 1.74555225e-05,
          8.33871673e-05, 7.41859913e-05, 1.53538858e-04, 5.36653242e-05,
          3.69131999e-06, -6.13683733e-05, -9.65750660e-05,
          -4.90916864e-05, -7.41516706e-05, -5.62933019e-05,
          -4.16824696e-05, -8.50206852e-05, -7.33481429e-05,
          -3.36768644e-05, -4.67851605e-05, -7.51062471e-05,
          -5.33541679e-05, -7.47699305e-05, -1.92611056e-04,
          -1.64617973e-04, -1.70315456e-04, -1.40888907e-04,
          -1.22733603e-04, -5.95937745e-05, -9.40490718e-05,
          -9.34106720e-05, -1.99659451e-04, -6.01682914e-05,
          -4.92451727e-05, 7.18334832e-06, 1.17008412e-05,
          2.80159493e-05, 7.31379696e-05, 8.85417612e-05, 9.49710520e-05,
          3.87866494e-05, -1.03676293e-05, -1.83492157e-04,
          -1.31944471e-04, -1.03997780e-04, -9.84841754e-05,
          -8.51867226e-05, -5.05952812e-05, -9.62433187e-05,
          -6.62116217e-05, -2.76477276e-05, -4.38033603e-05,
          -5.75658778e-05, -5.40338260e-05, -8.96203346e-05,
          -1.08160930e-04, -1.42794146e-04, -1.29363107e-04,
          -1.08260923e-04, -8.46572948e-05, -1.85221888e-05,
          -2.88870906e-05, -7.71400664e-06, -7.44992212e-05,
          -2.42018414e-05, -8.13827937e-05, -1.89140301e-05,
          2.54873230e-05, 1.63994355e-05, 4.15138265e-06, 2.17674387e-05,
          5.24856041e-05, 1.56594870e-05, -2.97876177e-05,
          -1.52217588e-04, -1.33137655e-04, -9.74962459e-05,
          -8.09686098e-05, -7.68557147e-05, -8.47194387e-05,
          -1.17996002e-04, -8.33999220e-05, -7.34151981e-05,
          -5.55859442e-05, -7.10106397e-05, -5.80519954e-05,
          -6.79350924e-05, -1.06515778e-04, -1.35985305e-04,
          -1.05588580e-04, -6.16575635e-05, 5.21962538e-05,
          8.30801946e-05, 8.36800755e-05, 7.15581991e-05,
          -3.97554359e-05, -2.03021627e-05, -8.36519757e-05,
          -5.40418332e-05, -8.87732949e-06, 1.69744217e-05,
          -6.06458627e-07, 1.31173674e-05, 6.66881897e-05,
          -1.39970089e-05, 1.30977760e-05, -7.33457637e-05,
          -9.74210561e-05, -7.23175399e-05, -6.16590623e-05,
          -7.14447815e-05, -6.12652220e-05, -1.33650727e-04,
          -8.88451468e-05, -6.63654646e-05, -4.35089496e-05,
          -7.06578940e-05, -4.66096353e-05, -5.98015176e-05,
          -8.56073093e-05, -7.23245612e-05, -7.22224868e-05,
          -3.89401521e-06, 7.30714310e-05, 7.87991157e-05,
          7.26774961e-05, 5.82281864e-05, -5.43599526e-05,
          -3.63386680e-05, -9.38746161e-05, -4.40459589e-05,
          -2.55979085e-05, 2.71808494e-05, 1.69865707e-05,
          1.22202509e-05, 1.85022964e-05, -1.25065089e-05,
          -2.56973617e-05, -5.76913044e-05, -1.02627884e-04,
          -7.76999368e-05, -8.17870896e-05, -4.07354637e-05,
          -2.33404517e-05, -1.07801883e-04, -7.40637552e-05,
          -4.34758258e-05, -4.52670974e-05, -2.64311602e-05,
          -5.67629213e-05, -2.87382518e-05, -2.37061449e-05,
          -2.13478379e-05, -1.27652020e-05, 1.65343117e-05,
          7.00850069e-05, 7.09671804e-05, 5.08338999e-05, 3.60874765e-05,
          -2.56462718e-05, -1.72642285e-05, -8.82290406e-05,
          -4.71462699e-05, -1.04858709e-05, -2.00241029e-05,
          -4.91154060e-06, 1.76576577e-06, 4.02296901e-05,
          -1.97085337e-05, -3.56832752e-05, -5.36479747e-05,
          -7.89540063e-05, -5.17501248e-05, -7.57253292e-05,
          -1.08932953e-04, -1.39953350e-04, -1.78957998e-05,
          1.32459518e-05, 1.58583941e-06, 3.46268971e-05, 6.96334682e-05,
          7.15584538e-05, 1.09502027e-04, 9.13034382e-05, 9.83219361e-05,
          6.59768557e-05, 7.78955073e-05, 8.88761206e-05, 6.04540473e-05,
          3.34446449e-05, 4.38378947e-06, -9.46370274e-05,
          -1.69799532e-05, -8.52365629e-05, -6.08075061e-05,
          -6.55428667e-05, -5.09524980e-05, -3.96687647e-05,
          2.77171421e-06, 5.28350256e-06, -4.20453434e-05,
          -7.38460512e-05, -7.30042448e-05, -7.30645188e-05,
          -3.20627696e-05, -4.94070264e-05, 1.68296228e-05,
          -6.42030282e-05, -1.73622684e-05, -3.49703005e-05,
          -1.87310889e-05, -3.73118019e-06, 2.95927421e-05,
          4.44541984e-05, 6.17285332e-05, 5.82469183e-05, 5.35538711e-05,
          6.40541621e-05, 8.50543438e-05, 7.73994107e-05, 8.97936043e-05,
          5.50228178e-05, 6.55805561e-05, 9.07291360e-06,
          -1.31541747e-05, -6.36980039e-05, -4.03852609e-05,
          -3.05841459e-05, -6.14367455e-05, -4.04923085e-05,
          -2.48904907e-05, -8.01823353e-06, -8.38925334e-05,
          -1.57667775e-04, -1.63850040e-04, -1.58975119e-04,
          -1.24942933e-04, -1.07711821e-04, -6.54443938e-05,
          -4.05910832e-05, -1.71939173e-05, -5.66391645e-05,
          -3.50754162e-05, -2.92283476e-05, 7.94718198e-06,
          4.65266248e-06, 6.74955154e-05, 6.91707828e-05, 8.06676107e-05,
          9.92596106e-05, 1.20252400e-04, 1.26481158e-04, 1.29693741e-04,
          1.20586876e-04, 7.75588633e-05, 2.03474392e-05, 4.40683507e-05,
          -4.07609441e-05, -2.49115255e-05, -3.32153941e-05,
          -7.45487778e-05, -7.11932007e-05, -6.47462293e-05,
          -5.44605136e-05, -1.08349494e-04, -1.16262214e-04,
          -1.91578278e-04, -2.07247009e-04, -1.99992603e-04,
          -1.70355517e-04, -1.41203142e-04, -6.25729954e-05,
          -3.87631662e-05, -7.96134191e-05, -5.87573850e-05,
          -4.38837451e-05, -2.73886981e-05, -6.78955121e-06,
          5.04821073e-05, 7.11061875e-05, 8.25365714e-05, 8.00500420e-05,
          1.04895349e-04, 1.03405473e-04, 7.26218932e-05, 5.31226142e-05,
          2.07726480e-05, -3.30322996e-06, -2.60323723e-05,
          -2.69468092e-05, -3.77698452e-05, -1.26307468e-05,
          -5.60939152e-05, -6.29308634e-05, -5.20788017e-05,
          -3.05973736e-05, -1.45880025e-04, -1.72159664e-04,
          -1.83664029e-04, -2.51396705e-04, -2.55815161e-04,
          -2.46513257e-04, -1.75996713e-04, -7.15943315e-05,
          -5.56431442e-05, -7.48126040e-05, -6.45809851e-05,
          -4.08802807e-05, -1.97416048e-05, 1.04635128e-05,
          1.61938624e-05, 7.86842356e-05, 6.75479459e-05, 7.82844145e-05,
          8.03283983e-05, 8.57591294e-05, 6.30987270e-05, 1.18248163e-05,
          -1.47856736e-05, -6.83132967e-05, -6.85985578e-05,
          -4.81918942e-05, -4.73452055e-05, -4.31613335e-05,
          -4.82685900e-05, -2.87174826e-05, -3.06962502e-05,
          -2.03769941e-05, -1.69395469e-04, -1.69330509e-04,
          -1.81546537e-04, -2.04745418e-04, -2.71979836e-04,
          -2.52938684e-04, -1.58876908e-04, -8.76599806e-05,
          -3.27725575e-05, -7.28952655e-05, -4.21343611e-05,
          -3.94987183e-05, -1.10410438e-05, 8.10869551e-06,
          -9.21890296e-06, 6.94599366e-05, 3.63687723e-05,
          5.16223627e-05, 7.02615289e-05, 5.83686924e-05, 3.24512002e-05,
          -1.56612095e-05, -5.13194100e-05, -1.24692539e-04,
          -8.38348278e-05, -6.85255873e-05, -5.18628149e-05,
          -4.26874431e-05, -2.62368103e-05, -2.72037087e-05,
          -3.38856880e-05, -3.64093685e-05, -2.51271442e-04,
          -2.52392230e-04, -3.26453504e-04, -2.38548790e-04,
          -2.07048506e-04, -2.30528647e-04, -1.13437454e-04,
          -7.05516650e-05, -4.05827122e-05, -7.34640125e-05,
          -4.48282372e-05, -2.08552065e-05, 1.49932284e-05,
          8.78369701e-06, -9.34769832e-06, 4.22709199e-05,
          -5.79767802e-05, 1.28892862e-05, 8.96998074e-07,
          -3.15426878e-05, -2.22716926e-06, -4.53762696e-05,
          -3.15810612e-05, -1.14693918e-04, -8.44685856e-05,
          -7.09792657e-05, -7.30331085e-05, -3.90507194e-05,
          -4.07211628e-05, -4.63939577e-05, -2.94914244e-05,
          -9.44594067e-05, -1.84959936e-04, -2.00001843e-04,
          -1.93806438e-04, -2.94740166e-04, -1.84838995e-04,
          -5.30447396e-05, -4.32164161e-05, -3.49319998e-05,
          -2.96260259e-05, -4.73111722e-05, -4.16452822e-05,
          -3.90402465e-06, 2.65061753e-05, 4.27069108e-06,
          -1.25653223e-05, 3.84914674e-05, -7.44969584e-05,
          4.75859160e-05, 2.37497479e-05, 2.11653496e-05,
          -2.18005771e-05, -5.21158399e-05, -7.50952968e-05,
          -1.43161495e-04, -1.13097478e-04, -7.84357180e-05,
          -6.96439020e-05, -4.73153777e-05, -3.63416802e-05,
          -3.57131576e-05, -4.71070853e-05, -4.76335917e-05,
          -2.28615303e-04, -1.83268494e-04, -2.13392545e-04,
          -2.94488011e-04, -3.78888617e-05, 3.65510750e-05,
          2.27634227e-05, 6.02867885e-07, -4.35207876e-05,
          -4.43230965e-05, -4.06414656e-05, -4.15231034e-06,
          3.05092908e-05, -2.20698148e-05, -4.49004583e-05,
          2.78047210e-05, -1.20350400e-04, -7.36452566e-05,
          -1.25305640e-04, -1.39430456e-04, -4.52150307e-05,
          -5.86818678e-05, -7.12495894e-05, -1.08584805e-04,
          -8.21209105e-05, -7.57070957e-05, -6.47277702e-05,
          -5.15052307e-05, -3.48755893e-05, -3.09336065e-05,
          -2.41884409e-05, -4.07387270e-05 ]
      - [ -6.33987929e-06, -1.34709726e-05, -1.68053502e-05,
          1.35288492e-05, 1.53463916e-05, 1.67054714e-05, 6.81025358e-06,
          1.20032244e-04, 2.45052564e-04, 1.31513923e-04, 3.77342913e-05,
          9.85316583e-05, 8.15152234e-05, 7.39956013e-05, 9.43712948e-05,
          6.44806787e-05, 8.64658505e-05, 7.30527026e-05, 7.62780837e-05,
          9.29425587e-05, 1.08011867e-04, 1.01935075e-04, 1.07794927e-04,
          1.09017004e-04, 8.19351553e-05, 1.05278807e-04, 1.79626892e-04,
          1.08952117e-04, 8.16330939e-05, 1.00437523e-04, 1.39996511e-04,
          1.74742992e-04, -8.71840166e-06, -1.97069712e-05,
          -1.14703998e-05, 2.19657722e-05, 1.83233460e-05,
          -1.09076345e-05, 4.79594346e-05, 1.52796420e-04,
          2.57442327e-04, 1.18070777e-04, 1.60705476e-05, 8.58424683e-05,
          8.29199198e-05, 8.23773371e-05, 8.78512219e-05, 1.09193490e-04,
          1.22849873e-04, 1.23616963e-04, 1.12045658e-04, 1.01713616e-04,
          1.49249638e-04, 1.11845271e-04, 1.16355499e-04, 1.40774297e-04,
          1.00627789e-04, 1.25430131e-04, 2.07087491e-04, 1.33257199e-04,
          1.22397789e-04, 1.16555384e-04, 1.31107765e-04, 1.30230270e-04,
          -5.82521807e-06, 8.20795685e-06, -7.49173580e-07,
          -3.47843616e-06, -2.88255687e-05, -1.61032185e-05,
          3.71436035e-05, 1.36375398e-04, 2.60620262e-04, 9.93877038e-05,
          5.29447152e-06, 3.85018757e-05, 8.27443073e-05, 8.26490941e-05,
          8.96415659e-05, 1.17171454e-04, 9.74892682e-05, 9.45597203e-05,
          1.23500242e-04, 1.15896000e-04, 1.26963525e-04, 1.23167658e-04,
          1.22081154e-04, 1.78483417e-04, 1.01188787e-04, 1.19851808e-04,
          1.88986902e-04, 1.33487367e-04, 1.60672411e-04, 1.37583280e-04,
          1.38655756e-04, 1.42797726e-04, -8.26954511e-06,
          2.55154173e-05, 9.93306458e-06, 1.76608341e-06,
          -9.74513205e-06, -1.89340590e-05, 1.21344247e-05,
          1.30333632e-04, 2.86197348e-04, 1.07420121e-04, 1.74461293e-05,
          3.35811419e-05, 7.84626100e-05, 5.61302186e-05, 6.34131720e-05,
          9.37732257e-05, 8.62293309e-05, 1.02152117e-04, 1.39303826e-04,
          1.71735999e-04, 9.89925102e-05, 1.30609988e-04, 1.41143057e-04,
          2.06095327e-04, 5.07777149e-05, 7.58796814e-05, 1.61784177e-04,
          1.36028379e-04, 1.46315564e-04, 1.50566222e-04, 1.58836527e-04,
          1.64437239e-04, -1.51790673e-05, 3.37724032e-06,
          -1.00974275e-05, -3.84393815e-07, 7.86122928e-06,
          -5.02481862e-06, 3.79624107e-05, 1.80524483e-04,
          2.72793608e-04, 1.70117128e-04, 3.27623893e-05, 1.59684550e-05,
          2.30040696e-05, 6.41082224e-05, 6.41596198e-05, 9.13018739e-05,
          8.97183490e-05, 1.40094606e-04, 1.19334691e-04, 9.75650182e-05,
          4.26507213e-05, 7.39170064e-05, 1.09097658e-04, 1.34939051e-04,
          3.54851436e-05, 3.81657264e-05, 1.08233027e-04, 9.83779755e-05,
          1.20922639e-04, 1.38302828e-04, 1.51111322e-04, 1.83291399e-04,
          -6.93028851e-05, -1.00791221e-05, 1.13244196e-05,
          1.86905152e-06, 1.34729307e-05, -8.10910115e-06,
          4.70827545e-05, 1.97766611e-04, 3.49853799e-04, 2.04291908e-04,
          6.49963476e-05, 4.45079240e-05, 3.29043614e-05, 2.16998542e-05,
          5.27087795e-05, 9.45789070e-05, 8.28517077e-05, 1.13749345e-04,
          9.16616336e-05, 4.28832063e-05, 5.22316077e-05, 5.63172362e-05,
          9.15669734e-05, 1.10657551e-04, 2.58056898e-05, 5.60994431e-06,
          9.58566889e-05, 2.58217151e-05, 2.72936086e-05, 4.23286838e-05,
          4.34271678e-05, 2.23278366e-05, -1.14200528e-04,
          -4.93056505e-05, 1.95850589e-05, 1.46922121e-05,
          7.84347412e-06, -1.32107180e-05, 5.35079234e-05,
          2.11260165e-04, 3.60795791e-04, 2.27516168e-04, 1.18889984e-04,
          7.41545737e-05, 7.13412155e-05, 3.09684074e-05, 7.94762527e-05,
          8.66815753e-05, 8.48717682e-05, 9.40542013e-05, 7.45060461e-05,
          5.88679941e-05, 6.46584303e-05, 6.93882394e-05, 1.16225594e-04,
          1.60196432e-04, 6.92527974e-05, -1.49505877e-05,
          8.91450327e-05, 3.23628374e-05, 3.17014164e-05, 2.16707704e-05,
          1.16837737e-05, 2.81206030e-05, -1.16709627e-04,
          -1.00398924e-04, -1.59119154e-05, 3.30820112e-05,
          2.94724705e-05, 9.26618395e-06, 1.08811990e-04, 2.49002042e-04,
          3.31014831e-04, 2.49513367e-04, 1.54496505e-04, 9.29611124e-05,
          7.35271751e-05, 4.37303861e-05, 8.73620374e-05, 7.87204553e-05,
          1.09502267e-04, 6.85743144e-05, 3.75580421e-05, 7.72756102e-05,
          7.94973676e-05, 1.16159201e-04, 1.20259145e-04, 1.60702039e-04,
          1.02429025e-04, 2.36874239e-05, 1.13351671e-04, 4.63345168e-05,
          1.77506990e-05, 5.34098654e-05, 4.53220855e-05, 3.16440019e-05,
          -2.11502731e-04, -2.05851058e-04, -1.47450875e-04,
          -1.19140212e-04, -3.75654454e-05, -2.58281816e-05,
          4.20065662e-05, 1.69281004e-04, 2.17203051e-04, 1.28610351e-04,
          1.12302485e-04, 7.68940663e-05, 1.80289881e-05, 6.92001704e-05,
          6.39538921e-05, 6.12940785e-05, 8.50780125e-05, 5.12852748e-05,
          7.28797895e-05, 7.95774322e-05, 7.89483238e-05, 1.02198857e-04,
          1.45529411e-04, 1.55120404e-04, 1.68486600e-04, 1.66841317e-04,
          1.67565304e-04, 1.14273782e-04, 1.06173342e-04, 6.93948678e-05,
          5.61999877e-05, 5.75366139e-05, -7.18025476e-05,
          -1.01346966e-04, -7.61429183e-05, -9.12684845e-05,
          -8.41537621e-05, -8.00624039e-05, 1.60450827e-06,
          9.84510989e-05, 1.32688612e-04, 1.53338315e-05, 1.16983058e-04,
          1.63623554e-04, 9.55168289e-05, 6.00326021e-05, 6.15405661e-05,
          8.61673179e-05, 5.30146717e-05, 5.24420429e-05, 2.69340744e-05,
          5.54851249e-06, 2.34960717e-05, 3.62306650e-06, 1.45739523e-05,
          1.15061346e-04, 2.05380566e-04, 1.32697271e-04, 1.35580151e-04,
          1.07440617e-04, 1.34782793e-04, 1.16550866e-04, 9.57800949e-05,
          8.48848940e-05, -5.99317173e-05, -9.42995466e-05,
          -5.47833442e-05, -4.69364168e-05, -2.79916185e-05,
          8.47818410e-06, -1.88320337e-05, -3.22064298e-05,
          -9.26141947e-05, -1.01863334e-04, 7.32570115e-05,
          5.72378049e-05, -1.97173249e-05, -4.89672966e-05,
          -7.47035519e-05, -9.73926872e-05, -6.61531303e-05,
          -4.85905839e-05, -4.64157638e-05, -8.46312469e-05,
          -6.08700429e-05, -5.73477118e-05, -5.85206799e-05,
          1.71189495e-05, 1.29642998e-04, 7.55113069e-05, 6.61330851e-05,
          7.16429131e-05, 9.41248072e-05, 9.57231969e-05, 1.32320623e-04,
          9.98969190e-05, 1.19955928e-07, -4.07879270e-05,
          -1.95089815e-05, -1.89674138e-05, -3.11556178e-05,
          3.12811171e-05, 3.39107719e-05, 2.37389613e-05,
          -1.40854463e-04, -2.33686835e-04, -9.39330275e-05,
          -5.16778018e-05, -8.12618746e-05, -1.02775244e-04,
          -8.50674260e-05, -7.11677931e-05, -9.40750979e-05,
          -9.93723734e-05, -5.56144296e-05, -3.77346696e-05,
          -4.17442316e-05, -1.08497070e-05, -5.75452796e-05,
          -4.16481998e-05, 1.42294812e-04, 6.52459421e-05,
          5.96168647e-05, 7.76740126e-05, 7.06601131e-05, 5.59025793e-05,
          8.09543708e-05, 9.65078871e-05, -4.36006412e-05,
          -7.01886020e-05, -6.07377042e-05, -3.25852307e-05,
          -4.93023181e-05, -4.78289030e-06, 1.21355142e-05,
          3.28999995e-05, -1.49150146e-04, -2.51876743e-04,
          -9.26852736e-05, -5.82499160e-05, -9.29390735e-05,
          -1.11465328e-04, -6.00703279e-05, -5.88911644e-05,
          -5.41368863e-05, -7.93840518e-05, -3.98792727e-05,
          -4.39417308e-05, -4.89311569e-05, -6.39698264e-05,
          -8.65968032e-05, -4.88898222e-05, 1.31077468e-04,
          4.98336849e-05, 2.98606956e-05, 7.81428462e-05, 6.61033919e-05,
          3.32999807e-05, 1.38315072e-05, 4.70655395e-05,
          -9.84329381e-05, -9.55323994e-05, -9.08238289e-05,
          -7.09364540e-05, -5.01030918e-05, 3.11942017e-06,
          1.86712145e-06, 9.45831289e-06, -1.40841948e-04,
          -1.88676917e-04, -1.00426099e-04, -1.17850665e-04,
          -1.34848407e-04, -1.43837795e-04, -9.98940959e-05,
          -1.11880232e-04, -1.05343897e-04, -1.15601979e-04,
          -1.60212890e-04, -1.68812141e-04, -1.21483958e-04,
          -1.39979515e-04, -1.94798660e-04, -1.21558092e-04,
          6.67851200e-05, 7.77431196e-05, 4.17191368e-05, 5.98916340e-05,
          5.72049867e-05, 3.40550287e-05, 1.99175065e-05, 2.30743517e-05,
          -7.21511824e-05, -8.63818859e-05, -1.01380509e-04,
          -1.38361705e-04, -1.23264414e-04, -6.64687323e-05,
          -3.48177309e-05, 3.05776157e-05, -2.09669350e-04,
          -2.12052328e-04, -7.50190884e-05, -9.16918143e-05,
          -1.24855374e-04, -1.50704305e-04, -1.24010839e-04,
          -1.23579739e-04, -1.19929071e-04, -1.73195323e-04,
          -1.99799470e-04, -1.74381377e-04, -1.08192617e-04,
          -1.23810125e-04, -1.88136604e-04, -1.58612049e-04,
          1.05812578e-05, 6.65299594e-05, 6.96843417e-05, 5.03766933e-05,
          3.82705002e-05, 3.80349338e-05, 6.23654978e-06, 2.66939387e-05,
          -9.39287565e-05, -1.35415161e-04, -1.50331194e-04,
          -1.20870682e-04, -8.10750716e-05, -1.06346080e-04,
          -8.59395732e-05, 1.80993320e-05, -1.67378559e-04,
          -2.19157810e-04, -1.11288384e-04, -1.04879386e-04,
          -1.33725276e-04, -1.39906668e-04, -1.08378859e-04,
          -1.25896506e-04, -2.60233268e-04, -2.28569130e-04,
          -1.93842614e-04, -1.29703360e-04, -1.33351452e-04,
          -1.50272666e-04, -1.91939413e-04, -1.95621469e-04,
          -5.17201879e-05, 3.36205921e-05, 4.20451288e-05,
          2.44597722e-05, 1.53036017e-05, 3.19068786e-05, 2.04728599e-06,
          -2.48725719e-05, -1.27516891e-04, -1.14301765e-04,
          -1.21952377e-04, -1.10673478e-04, -1.27398540e-04,
          -1.34198752e-04, -1.19489923e-04, -1.01152771e-04,
          -2.52620579e-04, -2.29948768e-04, -1.29212553e-04,
          -8.47928750e-05, -1.07518230e-04, -1.32368150e-04,
          -1.38927920e-04, -1.23943173e-04, -2.13531035e-04,
          -2.25307595e-04, -2.04534197e-04, -1.84905410e-04,
          -1.44368954e-04, -1.47158833e-04, -1.70695290e-04,
          -1.53390763e-04, -2.64709834e-05, 1.82160111e-05,
          9.53990093e-05, 2.51087986e-05, 2.37045642e-05, 3.29807626e-05,
          6.59800062e-05, 5.53979116e-05, -1.48056744e-04,
          -1.39230193e-04, -1.51213448e-04, -1.41560959e-04,
          -1.40030010e-04, -1.11920643e-04, -7.77129608e-05,
          -1.18954929e-04, -2.75404193e-04, -2.73676706e-04,
          -1.32083340e-04, -9.76022275e-05, -1.01231344e-04,
          -9.39051533e-05, -1.03514023e-04, -1.24651138e-04,
          -2.24012838e-04, -1.97342088e-04, -2.13834835e-04,
          -1.90302206e-04, -1.22695084e-04, -1.03888102e-04,
          -1.77379930e-04, -1.49214335e-04, -4.80613708e-05,
          3.52105599e-05, 9.20830644e-05, 4.15987197e-05, 5.30175821e-05,
          4.63842007e-05, 1.04440289e-04, 6.03761691e-05,
          -1.46502120e-04, -1.45553553e-04, -1.47820479e-04,
          -1.40179764e-04, -1.14973809e-04, -8.97856007e-05,
          -7.92413557e-05, -1.17779426e-04, -2.68674048e-04,
          -2.88248586e-04, -1.12957750e-04, -9.96510644e-05,
          -9.99206168e-05, -1.03071114e-04, -1.26831073e-04,
          -1.38496122e-04, -2.66666291e-04, -2.45436619e-04,
          -2.37025713e-04, -1.95518325e-04, -1.11150373e-04,
          -8.70038057e-05, -1.81933385e-04, -9.96776434e-05,
          -2.17455204e-06, 6.85136547e-05, 1.40535820e-04,
          1.08119086e-04, 4.01859834e-05, 6.78576471e-05, 9.67945016e-05,
          1.32008208e-04, -1.32835528e-04, -1.55244823e-04,
          -1.12323658e-04, -8.10511774e-05, -8.41084548e-05,
          -7.89575861e-05, -7.36480724e-05, -9.51946568e-05,
          -2.47380987e-04, -2.89370859e-04, -1.14789684e-04,
          -1.02768798e-04, -1.02114442e-04, -9.82997080e-05,
          -1.13095666e-04, -1.14867384e-04, -2.75390834e-04,
          -2.57531472e-04, -2.29286365e-04, -1.78569680e-04,
          -1.05039966e-04, -8.06098906e-05, -1.49646890e-04,
          -6.02215623e-05, -6.66926499e-05, 4.82384239e-05,
          1.32890229e-04, 1.46470571e-04, 3.60374761e-05, 8.26382675e-05,
          1.25315302e-04, 1.38023810e-04, -1.11658272e-04,
          -1.10115892e-04, -9.70352194e-05, -6.19752827e-05,
          -4.73331420e-05, -3.29476570e-05, -2.72818179e-05,
          -5.62760542e-05, -2.23022871e-04, -2.44291034e-04,
          -1.15820534e-04, -9.33493720e-05, -1.20729492e-04,
          -1.12993082e-04, -1.08015993e-04, -1.28162414e-04,
          -2.62752204e-04, -2.48000550e-04, -2.33736078e-04,
          -1.87840618e-04, -1.35093549e-04, -9.00869345e-05,
          -1.48866791e-04, -7.81726631e-05, -4.44964753e-05,
          -5.12198094e-05, 1.07472486e-04, 1.86941659e-04,
          1.24960672e-04, 3.35568729e-05, 8.90617375e-05, 1.24252445e-04,
          -1.07369058e-04, -1.03906408e-04, -8.23303126e-05,
          -8.39508939e-05, -5.90789714e-05, -2.95278242e-05,
          -5.76241428e-06, -5.00437200e-05, -1.99566042e-04,
          -2.19333917e-04, -1.12149792e-04, -6.21876607e-05,
          -9.15173659e-05, -1.03038095e-04, -8.76278282e-05,
          -1.00402991e-04, -1.74339177e-04, -2.70159362e-04,
          -2.83630972e-04, -1.93185071e-04, -1.71846943e-04,
          -1.28482294e-04, -1.78321017e-04, -1.14295108e-04,
          -1.08224740e-04, -9.22338077e-05, 5.94518133e-05,
          1.24990765e-04, 1.47053419e-04, 1.26780782e-04, 1.48251464e-04,
          1.03542050e-04, -1.14868832e-04, -9.56693693e-05,
          -7.23189223e-05, -8.15265812e-05, -5.55830338e-05,
          -5.49646866e-05, -1.98301677e-05, -6.88809741e-05,
          -2.32770224e-04, -2.46519892e-04, -1.18635529e-04,
          -8.80674634e-05, -8.16626489e-05, -9.15467390e-05,
          -7.26976141e-05, -1.08290093e-04, -1.10518326e-04,
          -2.30833612e-04, -2.50662153e-04, -2.37330256e-04,
          -2.04971773e-04, -1.45112281e-04, -2.33018582e-04,
          -1.41507015e-04, -6.93344628e-05, -8.36497202e-05,
          8.92087428e-06, 8.98163344e-05, 1.41552126e-04, 1.76221482e-04,
          7.59237882e-05, 5.57581334e-05, -1.06642721e-04,
          -1.28965592e-04, -1.00914673e-04, -7.84804070e-05,
          -3.93351693e-05, -6.06622343e-05, -4.54751171e-05,
          -8.57250852e-05, -2.27910830e-04, -2.81449000e-04,
          -1.16669478e-04, -9.37504883e-05, -8.54945538e-05,
          -8.94088589e-05, -8.38246051e-05, -9.15661221e-05,
          -6.78800425e-05, -3.03846227e-05, -1.53553658e-04,
          -2.29518060e-04, -2.32780585e-04, -1.02464044e-04,
          -2.34998879e-04, -1.93200947e-04, -9.99549375e-05,
          -1.05160725e-04, -1.88546837e-05, -2.39451595e-07,
          1.27791020e-04, 1.41666664e-04, 9.48445522e-05, 7.96179302e-05,
          -2.12620973e-04, -2.40409558e-04, -2.10990620e-04,
          -2.09034435e-04, -1.97409157e-04, -1.86251622e-04,
          -1.60992582e-04, -2.09975595e-04, -3.12541437e-04,
          -3.18167469e-04, -2.10689046e-04, -1.63863544e-04,
          -1.08468652e-04, -1.10575413e-04, -8.41753936e-05,
          -4.61770178e-05, -1.65801393e-05, 7.24577603e-07,
          9.66352900e-08, -3.22382803e-05, -1.37327093e-04,
          -1.58607319e-04, -2.42705573e-04, -2.44274852e-04,
          -2.98522093e-04, -2.30800200e-04, -1.39427299e-04,
          -1.16050658e-04, -8.28141128e-05, -1.16983128e-05,
          -3.84737759e-05, -7.81475974e-05, -3.25310102e-05,
          -1.20929195e-04, -9.33208648e-05, -9.19014565e-05,
          -1.00830570e-04, -5.74982987e-05, -6.97197393e-05,
          -6.49712310e-05, -8.55496255e-05, -1.51289540e-04,
          -2.10332946e-04, -2.27105906e-04, -2.12214465e-04,
          -2.20032598e-04, -7.90769191e-05, -9.43822888e-05,
          -9.88375104e-05, -6.48371133e-05, -4.07645020e-05,
          -1.85895515e-05, -2.95207010e-05, 2.05885513e-07,
          -9.58172968e-05, -1.24311933e-04, -2.32757186e-04,
          -2.23522657e-04, -1.37325551e-04, -7.88585385e-05,
          6.21125173e-06, 4.85443998e-05, 3.52481948e-05, 1.66095979e-05,
          1.44718040e-04, 1.41685276e-04, 2.49285749e-05, 2.41763992e-05,
          3.36559169e-05, 4.14162278e-05, 3.04290370e-05, 6.28754715e-05,
          1.07958243e-04, 5.85001289e-05, -7.71481718e-05,
          -8.61370208e-05, -1.02668841e-04, -1.36477887e-04,
          -2.13068088e-05, 4.18887757e-05, 4.57458809e-05,
          5.31387923e-05, 5.57380154e-05, 6.34045136e-05, 3.16163787e-05,
          3.11045733e-05, 5.11382277e-05, 8.79696672e-05,
          -2.48959022e-05, -1.41480952e-04, -9.50424073e-05,
          -3.75350064e-05, 1.40024931e-04, 2.00649476e-04,
          1.88745689e-04, 1.47626939e-04, 5.92226643e-05, 2.84921643e-05,
          8.14481064e-06, -8.73106910e-05, -7.70756451e-05,
          -8.80315129e-05, -7.17051371e-05, 4.22383455e-05,
          1.55065471e-04, 1.02225167e-04, -4.38431962e-05,
          -1.43696925e-05, -4.04845523e-05, -3.88620356e-05,
          -3.31229239e-05, 9.18028381e-05, 8.35730025e-05,
          1.07273161e-04, 6.79108780e-05, 7.39134848e-05, 7.89345868e-05,
          5.13993364e-05, 9.55622163e-05, 1.11529771e-04,
          -9.30803344e-06, -6.39790669e-05, 6.13661541e-05,
          6.22629086e-05, 8.30817735e-05, 4.06073741e-05, 4.28426720e-05,
          3.70587950e-05, 3.75010059e-05, 4.95475470e-05, 6.38148849e-05,
          3.98775846e-05, -1.19443512e-05, -1.08636006e-04,
          -8.73456229e-05, 6.91861351e-05, 1.64543584e-04,
          1.46769118e-04, -1.33789663e-05, -2.97197403e-05,
          -4.38132047e-05, -1.28088623e-05, -3.42033345e-05,
          1.26434781e-04, 1.25560822e-04, 1.60081734e-04, 1.44218400e-04,
          9.72793205e-05, 9.58039600e-05, 6.67728018e-05, 8.12202925e-05,
          3.30940711e-05, -6.08542314e-06, -3.31662850e-05,
          6.69751098e-05, 5.96979335e-05, 3.05412541e-05, 1.67193211e-05,
          7.50945219e-06, -3.50605319e-06, -1.11085565e-05,
          1.31741544e-05, 5.80664960e-07, 1.19352871e-05, 2.52224108e-05,
          -9.88939282e-05, -1.04343882e-04, 7.36533766e-05,
          1.49510102e-04, 1.60881216e-04, 1.60129512e-05, 2.25768345e-05,
          5.48860157e-07, 5.35475147e-06, 3.22552987e-05, 1.36873627e-04,
          1.45106067e-04, 1.92640786e-04, 2.02388634e-04, 1.52404216e-04,
          1.32279718e-04, 9.33802876e-05, 9.05196721e-05, 7.33238121e-05,
          -2.98626055e-05, -1.61340195e-05, 4.46050726e-05,
          4.73912078e-05, 3.07514383e-05, 2.82860201e-05,
          -2.74420927e-05, -2.09443097e-05, 4.23804959e-05,
          3.12367665e-05, 2.83030149e-05, 1.16034334e-05, 2.24429932e-05,
          -9.44235580e-06, -5.55112238e-05, 5.76861348e-05,
          1.45425904e-04, 1.69000807e-04, 1.67566886e-05, 2.40542886e-05,
          3.83267397e-05, 5.19078712e-05, 5.67700226e-05, 1.66282363e-04,
          2.11232662e-04, 2.73845537e-04, 2.91364209e-04, 2.91802979e-04,
          2.50792480e-04, 1.77562426e-04, 1.16461189e-04, 9.66699008e-05,
          -3.46259512e-05, -3.61118582e-05, 1.49541711e-05,
          4.76035711e-05, 3.63011641e-05, 4.61430536e-05,
          -8.39567019e-06, -1.65299989e-05, -1.82779622e-05,
          -4.62626958e-05, -4.95104905e-05, -7.04876948e-05,
          -2.22870513e-05, -4.28602470e-06, 5.08936637e-06,
          7.84133590e-05, 1.58479743e-04, 1.76670685e-04, 3.38911632e-05,
          3.27708258e-05, 5.72317294e-05, 9.83596983e-05, 6.53053139e-05,
          2.22441522e-04, 2.38841676e-04, 3.39206541e-04, 3.56058998e-04,
          3.61860584e-04, 3.32016294e-04, 3.01972002e-04, 2.59711669e-04,
          2.02534735e-04, 1.38456687e-06, -4.91230057e-05,
          1.37716588e-05, 5.72245153e-05, 1.63753339e-05, 1.70224234e-06,
          1.83242846e-05, -9.93012873e-06 ]
      - [ -3.97908479e-05, -2.19361232e-06, -1.33137664e-05,
          -5.81797976e-05, -7.61158517e-05, -2.22004801e-05,
          3.16573860e-05, 3.02181888e-05, 1.11432077e-04, 1.06367952e-04,
          1.15114643e-04, 1.10560512e-04, 1.14690345e-04, 1.09824337e-04,
          7.99052141e-05, 3.72582981e-05, 1.79030962e-04, 2.08502795e-04,
          2.94817321e-04, 1.96006848e-04, 1.93834872e-04, 1.37186653e-04,
          1.51077067e-04, 2.24228846e-04, 2.72978301e-04, 7.87726894e-05,
          -2.31886697e-05, -1.69623076e-04, -1.07956403e-04,
          -9.77078162e-05, -7.30818147e-06, 3.85135245e-05,
          -1.37878713e-04, -6.31381117e-05, 2.08183374e-05,
          -8.15012972e-05, -5.38028253e-05, -6.22765074e-05,
          -1.45716986e-05, -4.28975426e-07, 6.32393640e-05,
          1.05172156e-04, 8.29576020e-05, 6.16644320e-05, 2.92359200e-05,
          5.03567462e-05, 5.96437239e-05, 4.06406361e-05, 5.14816420e-05,
          6.79730801e-05, 1.96765322e-04, 1.81249241e-04, 1.70343774e-04,
          1.27441439e-04, 1.07758206e-04, 2.30053614e-04, 2.55999214e-04,
          1.20598415e-04, -1.68565002e-05, -1.78389499e-04,
          -1.42868957e-04, -9.80905315e-05, 3.73903822e-06,
          1.76536250e-05, -7.72243220e-05, 1.58296825e-05,
          6.50779330e-05, -3.29079012e-05, -3.26564041e-05,
          -3.31392330e-05, 6.11035211e-05, 2.12911141e-06,
          3.89593733e-05, 4.29515494e-05, 4.18660748e-05, 3.34050055e-05,
          6.49162102e-05, 6.00891981e-05, 9.49210153e-05, 2.13436564e-04,
          2.05979610e-04, 1.80256466e-04, 1.99308430e-04, 1.68774684e-04,
          1.15763141e-04, 1.07724401e-04, 9.69182292e-05, 2.02606883e-04,
          2.46717274e-04, 8.87367278e-05, -1.11783747e-05,
          -1.42086777e-04, -1.84247867e-04, -1.05191117e-04,
          2.30246733e-05, -4.51084015e-05, -2.69029933e-05,
          -4.63129027e-06, -9.05458637e-06, -2.94328493e-05,
          -2.32254552e-05, 6.07120819e-06, 6.24229870e-05,
          6.13946613e-05, 9.87302556e-05, 3.88787303e-05, 5.12461665e-05,
          8.79923300e-06, 4.99265370e-05, 5.49238357e-05, 1.25648148e-04,
          1.35936571e-04, 1.69679552e-04, 1.66911283e-04, 1.49144049e-04,
          1.09576613e-04, 1.14012910e-04, 1.04419116e-04, 8.96273850e-05,
          2.19256690e-04, 1.95783956e-04, 3.26966256e-05,
          -1.71205102e-05, -1.21793302e-04, -1.36036266e-04,
          -1.22780999e-04, -3.11016265e-05, -5.46965884e-06,
          2.89898016e-05, -2.52171208e-06, 1.17920827e-05,
          2.73513087e-05, 4.89293197e-05, 4.33186142e-05, 4.68419676e-05,
          4.09937929e-05, 5.89256488e-05, 6.69650253e-05, 4.60784140e-05,
          -5.14274006e-06, 5.62281784e-05, 1.52049630e-04,
          1.51124099e-04, 1.25235179e-04, 1.36726943e-04, 1.70606785e-04,
          1.42170189e-04, 1.30342523e-04, 1.01720085e-04, 8.06991666e-05,
          9.41062317e-05, 1.83468859e-04, 1.32213361e-04, 4.32091001e-05,
          -5.81493168e-06, -1.02886319e-04, -1.23511913e-04,
          -1.37742347e-04, -6.54101023e-05, -2.92260029e-05,
          -1.21275898e-05, 5.01645191e-05, 8.10307611e-05,
          1.22229176e-04, 7.12178589e-05, 1.42578310e-05, 6.74543335e-05,
          6.47200504e-05, 1.03968167e-04, 1.61862030e-04, 1.58083159e-04,
          1.37826864e-04, 1.21001962e-04, 1.51126034e-04, 1.59267860e-04,
          1.81305877e-04, 1.39179814e-04, 1.37485040e-04, 1.03636405e-04,
          9.42184779e-05, 5.72767167e-05, 7.38259114e-05, 6.58002973e-05,
          6.51860246e-05, 1.21312005e-04, 1.54889531e-05,
          -1.10939573e-05, -1.05448737e-04, -1.22917845e-04,
          -1.41433760e-04, -1.07184649e-04, -1.11628971e-04,
          -5.76952443e-05, -3.35945115e-05, 5.40382061e-05,
          7.95729065e-05, 2.60801971e-05, -3.84939922e-05,
          4.12218978e-05, 1.35994487e-04, 1.25665334e-04, 2.14943560e-04,
          2.58883723e-04, 2.49200239e-04, 2.09551799e-04, 2.12437735e-04,
          2.15756154e-04, 2.41969930e-04, 2.04070864e-04, 1.45257596e-04,
          7.58923270e-05, 2.55011273e-05, 1.98437683e-05, 1.60597665e-05,
          3.12027005e-05, 1.08256085e-04, 1.57813789e-04, 3.05776703e-05,
          2.80449858e-05, -7.45330981e-05, -2.30049172e-05,
          -7.99684130e-05, -9.70869150e-05, -1.14343056e-04,
          4.65980665e-05, 2.61118112e-05, 1.26383675e-04, 1.53191722e-04,
          9.60437537e-05, 1.76966587e-05, 8.81490414e-05, 1.44030084e-04,
          1.19981669e-04, 2.75705097e-04, 2.93370773e-04, 3.28422990e-04,
          2.79230735e-04, 2.51036719e-04, 2.59250926e-04, 2.44109950e-04,
          2.40565350e-04, 1.37059193e-04, 7.59608156e-05, 4.50600601e-05,
          4.50824991e-05, 3.83259612e-05, 9.55825890e-05, 1.61662800e-04,
          2.42703289e-04, 1.95496308e-04, 9.06036366e-05, 2.21514965e-05,
          -2.82116798e-05, -3.00258944e-05, 2.63350958e-05,
          -3.90478235e-05, 1.51603774e-04, 1.77482318e-04,
          1.50316730e-04, 1.46005768e-04, 1.72556756e-04, 5.96344871e-05,
          1.01186641e-04, 9.55055439e-05, 5.81467539e-05, 3.07220325e-05,
          8.34148595e-05, 1.05968284e-04, 1.03036939e-04, 6.99847587e-05,
          4.69601582e-05, 2.89183008e-05, 1.57933137e-05,
          -2.35107818e-05, -5.91281969e-05, -5.28364581e-05,
          -6.58279750e-05, -4.55868394e-05, -3.84847190e-05,
          1.85099083e-07, 2.76842882e-04, 2.61004170e-04, 1.64963552e-04,
          4.76705609e-05, 7.02055331e-05, 4.49685649e-05, 4.68060935e-05,
          4.56436719e-05, 1.12978996e-04, 5.97514554e-05, 5.05119642e-05,
          1.17162417e-05, -1.30723256e-05, -2.91684919e-05,
          1.96181994e-04, 6.42582891e-05, 1.17073781e-04, 1.75705209e-05,
          6.79939985e-05, 7.56503869e-05, 7.17337971e-05,
          -4.14386232e-05, -4.21678960e-05, -4.46859849e-05,
          -6.84664701e-05, -7.39644165e-05, -9.67604356e-05,
          -9.79372999e-05, -7.91671919e-05, -7.84243675e-05,
          -6.10498464e-05, -1.66882983e-05, 7.47633239e-05,
          9.57012962e-05, 5.17671288e-05, 1.98956859e-05, 2.83488298e-05,
          1.59187621e-05, 5.99031773e-05, 3.95669631e-05, 1.44510966e-04,
          1.03577724e-04, 4.04346720e-05, 2.36177566e-05,
          -8.32833030e-06, -5.88522744e-06, 1.63581499e-04,
          1.31678375e-04, 3.19095670e-05, 5.30831603e-05, 1.19095021e-04,
          9.97470925e-05, -2.80628337e-05, -5.00897149e-05,
          -1.11515066e-04, -1.25994367e-04, -6.93804104e-05,
          -2.28865556e-05, -1.95757548e-05, -5.78883628e-05,
          -4.98340924e-05, -2.56295280e-05, -1.78008322e-05,
          -8.83264292e-05, -4.55392728e-05, -4.23776473e-05,
          -1.95198190e-05, -8.57609666e-06, 1.26747764e-05,
          3.18177008e-05, 4.51904561e-05, 4.82560827e-05, 1.27816515e-04,
          1.38042742e-04, 6.15262252e-05, 2.38533103e-05, 4.55694571e-05,
          -4.69902989e-06, 1.72880551e-04, 1.20365919e-04,
          3.08281160e-05, -5.98945117e-05, -4.29279571e-05,
          -4.89718805e-05, -1.02262842e-04, -1.24241211e-04,
          -1.36935982e-04, -1.33723763e-04, -9.99814656e-05,
          -6.12375006e-05, 3.71879764e-06, -6.88552318e-05,
          -8.28624834e-05, 1.40589382e-05, -5.62079767e-05,
          -9.15965647e-05, -2.88611373e-05, -3.92278052e-05,
          -3.11054318e-05, -6.54029327e-06, 1.34418024e-05,
          1.52328066e-05, 4.00992831e-05, 5.14719031e-05, 9.74824652e-05,
          8.44958849e-05, 7.30394022e-05, 5.26988297e-05, 3.65436208e-05,
          2.33314804e-05, 1.79260955e-04, 1.43551370e-04, 6.82689788e-05,
          -1.31044988e-04, -8.82912063e-05, -1.16112089e-04,
          -1.40437231e-04, -1.35978742e-04, -1.54975060e-04,
          -1.24159778e-04, -8.16760003e-05, -8.23325536e-05,
          -9.06732166e-05, -7.39687457e-05, -7.78489630e-05,
          -9.02378015e-05, -6.82723985e-05, -8.95065386e-05,
          -4.31595108e-05, -5.81138447e-05, -2.71810150e-05,
          -2.94215097e-05, -7.83568066e-06, 2.09851041e-05,
          1.93253200e-05, 4.35281909e-05, 1.77683232e-05, 7.87493082e-06,
          3.61707534e-05, 6.12820368e-05, 3.81640857e-05, 2.24620308e-05,
          1.61818010e-04, 1.03393017e-04, 4.15186951e-05,
          -6.37439298e-05, -1.16593495e-04, -1.36413160e-04,
          -1.50611042e-04, -2.03787553e-04, -1.64543613e-04,
          -1.08078821e-04, -9.86109007e-05, -8.63244786e-05,
          -1.06243846e-04, -8.90305819e-05, -7.19204254e-05,
          -3.83687293e-05, -3.53487376e-05, -1.04473205e-04,
          -6.30197756e-05, -4.83489821e-05, -1.55884900e-05,
          -3.92853945e-05, -1.05950603e-05, 3.01194614e-05,
          1.29967093e-05, 3.24226603e-05, -1.10367204e-04,
          -1.01319514e-04, 1.00685620e-05, 6.98701706e-06,
          -1.51536633e-05, -1.56147107e-05, 1.00725258e-04,
          9.30543829e-05, 1.01912988e-07, -1.36534509e-04,
          -5.75417944e-05, -9.77089658e-05, -1.89582730e-04,
          -2.30304431e-04, -1.57807954e-04, -1.19876480e-04,
          -1.36467279e-04, -6.26123438e-05, -1.01566868e-04,
          -9.20803068e-05, -6.94332266e-05, -9.22381241e-06,
          7.29667081e-05, -1.22246289e-04, -7.61798583e-05,
          -4.14325295e-05, -1.56600418e-05, -2.99438525e-05,
          -4.38568031e-06, 3.89266897e-05, 2.36231767e-06,
          3.25530600e-05, -1.24407859e-04, -1.18507385e-04,
          -7.66507437e-05, 1.90276860e-05, -1.92032462e-06,
          -7.65216973e-05, 5.62246023e-05, 6.66146370e-05,
          -1.26388713e-05, -1.20408651e-04, -1.00536912e-04,
          -8.25568204e-05, -1.05696454e-04, -2.25750671e-04,
          -2.10941958e-04, -7.10427048e-05, -1.13147114e-04,
          -5.02549628e-05, -8.69177456e-05, -9.61093465e-05,
          -8.16474130e-05, 3.95493316e-06, 1.00907208e-04,
          -8.81510277e-05, -1.25763268e-04, -5.97563121e-05,
          -1.41322698e-05, 3.79572180e-06, -8.79818742e-07,
          4.01975740e-05, 3.05434587e-05, 4.97422516e-05,
          -6.57601777e-05, -9.31579707e-05, -8.15669337e-05,
          -1.72113996e-05, 2.44083949e-05, -4.18814998e-05,
          6.79353689e-05, 2.13606927e-05, -5.54236358e-05,
          -1.89773331e-04, -1.12676120e-04, -1.25797393e-04,
          -1.10152556e-04, -1.82271411e-04, -2.64862290e-04,
          -1.63033008e-04, -1.43219964e-04, -8.91915115e-05,
          -1.03995109e-04, -1.00684025e-04, -1.28797343e-04,
          -1.56889328e-05, 6.48594651e-05, -7.51101397e-05,
          -1.23517340e-04, -6.12003569e-05, -2.31929116e-05,
          -9.60020316e-07, 2.58242399e-05, 7.29765961e-05,
          2.81089124e-05, 1.11539775e-04, -6.78284414e-05,
          -9.27010769e-05, -1.61909134e-04, -5.25805553e-05,
          -8.67191193e-06, -3.46195120e-05, 7.53747008e-05,
          -3.87187938e-05, -1.81451964e-04, -2.88488547e-04,
          -2.04112148e-04, -1.97234156e-04, -2.35631567e-04,
          -2.61496956e-04, -1.92919440e-04, -2.40182431e-04,
          -1.98414593e-04, -9.55253272e-05, -1.00510093e-04,
          -1.18269680e-04, -1.34055328e-04, 1.87678561e-05,
          5.58064021e-05, -6.96055795e-05, -1.17442534e-04,
          -5.80463784e-05, -2.18650239e-05, -1.59857282e-05,
          1.67897815e-05, 6.87284701e-05, 1.10375964e-04, 1.05587773e-04,
          -8.03121584e-05, -1.06494852e-04, -1.37929834e-04,
          -8.31065627e-05, -3.21170410e-05, -4.71505955e-05,
          -3.86023275e-05, -3.59092483e-05, -2.14671512e-04,
          -3.06143280e-04, -2.63042835e-04, -1.92128879e-04,
          -2.29038618e-04, -2.19825917e-04, -2.27837227e-04,
          -2.81557033e-04, -2.35075102e-04, -1.81431271e-04,
          -1.30804634e-04, -1.59294548e-04, -8.06097160e-05,
          -1.21988069e-05, 5.39659413e-05, -1.16824704e-04,
          -1.34424758e-04, -7.56451700e-05, -2.33423034e-05,
          -2.72946454e-05, 9.67690357e-06, 8.28975462e-05,
          1.47965853e-04, 9.94881193e-05, -9.54740681e-05,
          -8.05225936e-05, -9.24217238e-05, -5.81490604e-05,
          -6.68561261e-05, -5.48010139e-05, -3.99712153e-05,
          3.11195436e-07, -2.15259788e-04, -2.94271449e-04,
          -1.91575804e-04, -2.06075536e-04, -1.71017717e-04,
          -1.33796406e-04, -1.85279641e-04, -2.57944572e-04,
          -2.14704953e-04, -2.32015052e-04, -1.67411898e-04,
          -7.25842765e-05, -2.61675341e-05, -2.30304377e-05,
          8.62268353e-05, -1.32676389e-04, -1.33172216e-04,
          -6.50568982e-05, -2.54908155e-05, -2.43125742e-05,
          -2.07689277e-06, 5.56275554e-05, 1.77202935e-04,
          7.92210267e-05, 6.28854514e-06, 1.11215113e-05,
          -6.77759454e-05, -4.42369019e-05, -8.33623853e-05,
          -5.64543225e-05, -2.30517890e-05, -4.43448589e-05,
          -1.92455846e-04, -2.48732744e-04, -1.16082432e-04,
          -7.54179491e-05, -1.67511229e-04, -1.00406192e-04,
          -1.59797783e-04, -2.23322422e-04, -2.24196803e-04,
          -2.46646028e-04, -1.02434773e-04, -6.18760214e-06,
          -3.39582439e-05, 3.34647411e-05, 5.86305323e-05,
          -8.88797804e-05, -1.57209026e-04, -6.03386034e-05,
          -3.17445629e-05, -4.03753256e-05, -2.88303636e-05,
          -1.64260400e-05, 8.65882175e-05, 8.44171518e-05,
          1.41980918e-05, -1.18046692e-05, -4.30302352e-05,
          -1.56938822e-05, -2.33266237e-05, -3.42725471e-05,
          -9.18697624e-05, -4.31643684e-06, -1.93026266e-04,
          -1.29390697e-04, -6.19405255e-05, -2.52193568e-05,
          -1.12429872e-04, -1.01592232e-04, -1.13074449e-04,
          -1.33170295e-04, -1.12914764e-04, -6.69358778e-05,
          -4.61444433e-05, -3.58787693e-05, -9.24403503e-05,
          5.01944050e-05, 1.33528229e-05, -1.49317057e-04,
          -1.52226974e-04, -7.83459254e-05, -4.66270067e-05,
          -3.16164769e-05, -2.35009338e-05, -1.64282064e-05,
          2.11263650e-05, 7.56059890e-05, 2.77475228e-05,
          -1.33443800e-05, 3.70014968e-05, 7.19588024e-06,
          -3.17810445e-05, -6.16601756e-05, -9.24059641e-05,
          3.98693228e-05, -1.28853295e-04, -8.62847228e-05,
          -2.76548258e-06, -1.61549997e-05, -7.60632611e-05,
          -1.24341212e-04, -8.92845346e-05, -4.25732323e-05,
          5.03224437e-05, -2.56449785e-05, -8.13073420e-05,
          -8.01606584e-05, -3.40709121e-05, 3.41977684e-05,
          -2.44980292e-05, -9.78799508e-05, -1.06513187e-04,
          -6.66724300e-05, -3.34776705e-05, -2.71528934e-05,
          -2.40290246e-05, -3.33999196e-05, -2.12314972e-05,
          1.09373104e-05, -9.26535995e-06, -1.27854828e-05,
          5.67268080e-06, 1.96783312e-05, 7.66188236e-07,
          -5.59987129e-05, -2.07523481e-05, 1.66000484e-06,
          2.68999702e-05, 8.86822891e-05, 1.67584425e-04, 1.62949131e-04,
          1.33010661e-04, 6.89849403e-05, 5.91707321e-05, 1.39930607e-05,
          1.23390550e-04, 9.67098022e-05, 4.84799202e-05,
          -2.26833890e-06, 9.37281584e-05, 1.28757674e-04,
          8.05788877e-05, -2.90960925e-05, -6.14785531e-05,
          -1.38380259e-04, -7.47376471e-05, -9.58992969e-05,
          -1.00473961e-04, -9.56503791e-05, -3.78454934e-05,
          -5.39686953e-05, 8.16866159e-05, 1.28484380e-05,
          -1.16370993e-05, 2.22830604e-05, 2.91883862e-05,
          -5.61251045e-06, 5.19309688e-05, 9.96879771e-06,
          3.76960525e-05, 1.50290361e-05, 4.29792544e-06,
          -9.00176383e-06, -3.50976661e-05, -7.00763485e-05,
          -9.10775343e-05, -9.86679734e-05, -2.31533613e-05,
          -4.66840538e-05, -8.76832273e-05, -9.90213539e-06,
          7.41068288e-05, 5.61001580e-05, 3.29965587e-05,
          -7.11589382e-05, -1.34231173e-04, -1.39718148e-04,
          -6.85471969e-05, -3.46497145e-05, -5.63545545e-05,
          -5.11825056e-05, -6.03641565e-05, -5.35729669e-05,
          -1.59634583e-05, -1.27081788e-04, -1.50133419e-04,
          -2.23588504e-05, 4.41671145e-05, 4.36869341e-05,
          3.61313469e-05, 8.32308215e-05, 8.73610043e-05,
          -3.55285511e-06, -5.51492922e-05, -8.97633436e-05,
          -7.84022777e-05, -1.08086846e-04, 5.48046728e-06,
          -2.49191762e-05, -9.29541930e-05, -1.49538406e-04,
          -1.84899196e-04, -5.98590086e-05, -7.82441275e-05,
          -4.94669948e-05, -8.13684601e-05, -4.86470162e-05,
          -7.84285585e-05, -1.27569598e-04, -5.58615357e-05,
          -6.72153037e-05, -1.23968231e-04, -1.45402402e-04,
          -1.59141229e-04, -1.62026467e-04, -5.46819647e-05,
          -5.64707843e-05, -1.79682480e-04, -1.99258153e-04,
          -4.99739144e-05, -5.84352892e-05, 1.19109918e-05,
          5.63265276e-05, 1.08171967e-04, -4.86004792e-05,
          -6.30256691e-05, -6.47291745e-05, -7.51569314e-05,
          -8.32033547e-05, 4.24616010e-05, 5.76599814e-05,
          3.18754137e-05, 9.89883665e-06, -2.98809628e-05,
          -4.37051203e-05, -5.02275725e-05, -3.19265164e-05,
          -1.60116870e-05, -3.94169874e-05, 8.38935230e-05,
          6.21430372e-05, 8.54760365e-05, 4.74277404e-05,
          -3.02502553e-06, 5.05459366e-06, 2.63771126e-05,
          1.86645339e-05, -1.02499929e-04, -1.22096535e-04,
          -1.02093160e-04, -1.97010711e-04, -1.47443687e-04,
          -1.32169080e-04, -8.53940801e-05, -5.11590188e-05,
          4.25881044e-05, -4.37105227e-05, -5.87254799e-05,
          -4.50006919e-05, -4.86000426e-05, -2.35468033e-05,
          -2.19879021e-05, 9.20983730e-05, 4.46526792e-05,
          3.77312426e-05, -3.79416488e-05, -5.07036020e-05,
          -1.00046957e-04, -1.16462012e-04, -7.05984421e-05,
          -9.32429975e-05, 6.40464859e-05, 3.78615841e-05,
          5.90623313e-05, 6.85497582e-07, -8.18037461e-06,
          -7.70231600e-06, -1.95007815e-05, -8.76302784e-06,
          -1.72070446e-04, -1.23041595e-04, -8.90315423e-05,
          -1.40554374e-04, -1.33991678e-04, -1.86588732e-04,
          -1.85538011e-04, -1.34451038e-04, -3.95418574e-05,
          -1.57118866e-05, -2.01903022e-05, -2.18357818e-05,
          -4.87752777e-06, -1.44414867e-06, -3.27822418e-05,
          8.72569653e-05, 4.72634092e-05, 2.85708084e-05, 1.54691461e-05,
          -3.85574895e-05, -1.11394547e-04, -1.19714532e-04,
          -8.55540784e-05, -1.22677273e-04, 8.28609991e-05,
          -1.09591329e-05, 4.66577476e-05, -3.47567561e-06,
          5.52049369e-06, -2.10606941e-05, -2.20354341e-05,
          -6.40119106e-05, -2.92737968e-04, -2.34827196e-04,
          -3.09849856e-04, -2.07171150e-04, -1.24184677e-04,
          -1.65085541e-04, -2.17272885e-04, -1.59125018e-04,
          -4.46405793e-05, -1.49818322e-06, -8.06064008e-07,
          1.45305803e-05, 2.48338329e-05, -2.97268907e-05,
          -6.36253026e-05, -4.65838275e-05, -8.87251445e-05,
          -6.05318419e-05, -7.24499696e-05, -1.13403861e-04,
          -5.64234106e-05, -8.88256400e-05, -1.02946433e-04,
          -9.29472008e-05, 3.78230798e-05, 9.55217365e-06,
          2.80173645e-05, -7.03773094e-06, -1.81125106e-05,
          -4.74572371e-05, -5.34432074e-05, -1.89398124e-04,
          -2.12819650e-04, -1.35215872e-04, -1.76941641e-04,
          -3.62312217e-04, -1.39801268e-04, -7.17389412e-05,
          3.95775423e-05, -1.67275430e-04, -5.80901906e-05,
          1.54904646e-05, -3.30806433e-05, -2.36981869e-05,
          -2.10648486e-05, -3.10317846e-05, -6.89001099e-05,
          1.84719084e-07, -1.31049906e-04, 9.25515778e-05,
          3.03166998e-05, 2.77556701e-05, -1.45463537e-05,
          -6.58801873e-05, -1.15380550e-04, -1.13160000e-04,
          1.98878661e-05, 2.10106677e-07, 1.59719293e-05,
