%YAML:1.0
---
opencv_ml_svm:
   format: 3
   svmType: C_SVC
   kernel:
      type: LINEAR
   C: 1.0000000000000001e-01
   term_criteria: { iterations:1000 }
   var_count: 1024
   class_count: 13
   class_labels: !!opencv-matrix
      rows: 13
      cols: 1
      dt: i
      data: [ 0, 1, 2, 3, 4, 5, 6, 8, 9, 10, 11, 12, 13 ]
   sv_total: 78
   support_vectors:
      - [ 2.63893889e-04, 1.08918401e-04, 4.96366774e-05, 1.08731256e-04,
          1.14058945e-04, 1.13430549e-04, 1.16729570e-04, 1.01767720e-04,
          1.12518625e-04, 1.17624775e-04, 1.21785946e-04, 1.11314686e-04,
          1.01997466e-04, 9.51622787e-05, 8.03941803e-05, 7.40353571e-05,
          6.77511780e-05, 6.28169655e-05, 6.40640064e-05, 7.00082091e-05,
          6.39654099e-05, 6.55111435e-05, 8.39007771e-05, 9.14433258e-05,
          9.86124942e-05, 1.04155217e-04, 1.00374855e-04, 1.07691871e-04,
          1.10876055e-04, 1.06827851e-04, 9.16977879e-05, 1.60841984e-04,
          2.44183902e-04, 1.01520054e-04, 3.09283460e-05, 8.20717178e-05,
          7.38387898e-05, 8.38466221e-05, 8.24056915e-05, 8.36913459e-05,
          7.29444291e-05, 7.33751876e-05, 7.15263304e-05, 6.45976252e-05,
          6.52337330e-05, 6.57973287e-05, 5.02709772e-05, 3.82454891e-05,
          4.02669284e-05, 3.82022736e-05, 2.88674728e-05, 2.63142974e-05,
          1.99569859e-05, 2.25667718e-05, 2.89601721e-05, 2.54641982e-05,
          3.27594717e-05, 5.02563380e-05, 5.42637572e-05, 5.88253824e-05,
          6.65030602e-05, 7.52156193e-05, 7.16489885e-05, 1.40679826e-04,
          2.21049995e-04, 5.58283500e-05, -9.49649620e-06,
          2.74044924e-05, 2.38774828e-05, 2.42300594e-05, 2.25940221e-05,
          2.37364784e-05, 3.34274082e-05, 3.87156324e-05, 4.02097467e-05,
          2.79257511e-05, 2.22044673e-05, 1.84353321e-05, 8.92200933e-06,
          7.94083553e-06, 1.40082793e-05, 1.71309803e-05, 8.58436943e-06,
          -2.28445265e-06, -7.83776068e-06, -6.42660598e-06,
          -1.82935298e-06, 3.73342210e-08, -1.13095348e-06,
          1.20338318e-05, 2.00217419e-05, 2.24806281e-05, 2.61652858e-05,
          4.67164464e-05, 4.29268293e-05, 1.03030492e-04, 1.91504325e-04,
          6.05086962e-06, -5.48202734e-05, -2.06027526e-05,
          -2.33661303e-05, -2.25984713e-05, -1.70104558e-05,
          -1.48429690e-05, -1.55099842e-05, -5.71717783e-06,
          -1.96141900e-06, -1.64200919e-05, -1.96962628e-05,
          -2.24239466e-05, -2.13031835e-05, -1.39050799e-05,
          -1.57070626e-05, -1.88208178e-05, -2.72478592e-05,
          -3.63436156e-05, -5.44624163e-05, -5.78827494e-05,
          -5.07923214e-05, -4.56418420e-05, -3.89642846e-05,
          -3.42266940e-05, -3.02061908e-05, -1.96817382e-05,
          -1.12148737e-05, -8.45968543e-07, -8.18995613e-06,
          7.09374217e-05, 1.78012633e-04, 1.93895430e-05,
          -5.56487321e-05, -2.85653296e-05, -2.00575996e-05,
          -1.90398605e-05, -2.00704944e-05, -1.67082217e-05,
          -1.66021473e-05, -1.61838580e-05, -1.43628504e-05,
          -2.19760732e-05, -1.49510261e-05, -1.15924449e-05,
          -1.21280500e-05, -1.04440696e-05, -3.84217019e-05,
          -4.18440468e-05, -5.24690840e-05, -6.36415134e-05,
          -8.17376349e-05, -8.89435396e-05, -8.81402520e-05,
          -9.03410182e-05, -6.88491637e-05, -6.69932488e-05,
          -5.81064123e-05, -4.12747722e-05, -3.18218008e-05,
          -2.16917069e-05, -2.55430023e-05, 5.53374884e-05,
          1.73475419e-04, 2.93774519e-05, -7.39065945e-05,
          -3.92143629e-05, -2.14101456e-05, -2.60467768e-05,
          -2.67568321e-05, -2.09439531e-05, -2.01486528e-05,
          -2.18442838e-05, -1.79450235e-05, -1.85967128e-05,
          -1.84927103e-05, -2.01901894e-05, -3.23784079e-05,
          -2.84149974e-05, -4.16721123e-05, -4.98109403e-05,
          -5.83535220e-05, -6.31927178e-05, -7.40756368e-05,
          -7.68321333e-05, -6.90102606e-05, -7.58990791e-05,
          -7.20089884e-05, -6.57885976e-05, -6.27197660e-05,
          -4.63751021e-05, -3.69106529e-05, -1.47855853e-05,
          -2.02010160e-05, 5.74541409e-05, 1.86857200e-04,
          3.05476387e-05, -6.57821874e-05, -2.96057897e-05,
          -1.31898241e-05, -2.75514012e-05, -2.26587035e-05,
          -3.15079997e-05, -2.10281978e-05, -1.77772799e-05,
          -1.41971441e-05, -1.44600572e-05, -1.89675611e-05,
          -2.61539753e-05, -4.89826962e-05, -4.56685921e-05,
          -5.10170503e-05, -5.35743129e-05, -5.82103203e-05,
          -5.82620705e-05, -6.59534126e-05, -6.51408482e-05,
          -5.75878039e-05, -5.68662945e-05, -6.93977345e-05,
          -6.69648289e-05, -5.94660305e-05, -5.13754167e-05,
          -4.74876870e-05, -2.60469606e-05, -3.25555302e-05,
          3.43512984e-05, 1.75141729e-04, 1.91524741e-05,
          -5.43709866e-05, -2.88588744e-05, -2.24703545e-05,
          -2.35904954e-05, -2.33464998e-05, -2.56653675e-05,
          -2.44570601e-05, -2.57777574e-05, -2.34674008e-05,
          -3.08878916e-05, -3.21718326e-05, -4.38682036e-05,
          -8.37078769e-05, -8.66322225e-05, -5.37307387e-05,
          -6.26660621e-05, -6.49019930e-05, -7.04498234e-05,
          -7.27244769e-05, -7.62200580e-05, -7.18600277e-05,
          -8.13329680e-05, -7.11161338e-05, -6.69765577e-05,
          -5.94720004e-05, -6.12014555e-05, -7.30215470e-05,
          -6.44017200e-05, -6.68642679e-05, -8.79931486e-06,
          1.84385266e-04, -5.01401473e-07, -6.06790163e-05,
          -2.08229503e-05, -1.69979339e-05, -1.73318404e-05,
          -2.11597217e-05, -3.04719506e-05, -2.13061230e-05,
          -2.61799505e-05, -2.77602885e-05, -3.84730447e-05,
          -5.39179491e-05, -7.40298710e-05, -1.01459984e-04,
          -8.08451732e-05, -7.00823221e-05, -7.57986490e-05,
          -7.45269645e-05, -6.00278545e-05, -7.95582091e-05,
          -9.28765949e-05, -9.17355937e-05, -8.54255486e-05,
          -8.70045260e-05, -8.56385232e-05, -8.86632843e-05,
          -8.47046467e-05, -7.98880501e-05, -8.79357394e-05,
          -1.00777885e-04, -4.11940855e-05, 1.85634126e-04,
          6.46054559e-06, -4.63569268e-05, -1.44575051e-05,
          -1.68429306e-05, -1.79576455e-05, -2.53212602e-05,
          -2.99339099e-05, -2.65034741e-05, -2.88150914e-05,
          -2.89075579e-05, -4.23142410e-05, -6.69883448e-05,
          -9.43798004e-05, -1.09345805e-04, -9.28767695e-05,
          -6.76336858e-05, -7.90853519e-05, -8.91591117e-05,
          -8.99847582e-05, -1.12908849e-04, -1.22857600e-04,
          -1.15806346e-04, -1.00814184e-04, -1.10410547e-04,
          -9.93029316e-05, -8.93577017e-05, -8.83206376e-05,
          -9.01478343e-05, -9.56995573e-05, -9.88488464e-05,
          -3.07915361e-05, 1.77002337e-04, 1.29336677e-05,
          -4.59193980e-05, -1.59949359e-05, -1.78795090e-05,
          -1.61560038e-05, -1.45662934e-05, -2.41847683e-05,
          -2.74987851e-05, -2.35914995e-05, -2.69195134e-05,
          -5.13495324e-05, -8.04149167e-05, -9.89357068e-05,
          -1.00183483e-04, -8.58745261e-05, -7.43130149e-05,
          -8.45498071e-05, -9.49994719e-05, -1.07243453e-04,
          -1.35046197e-04, -1.44451202e-04, -1.36675153e-04,
          -1.31503344e-04, -1.32620611e-04, -1.14588023e-04,
          -1.08612774e-04, -1.04368730e-04, -1.10211702e-04,
          -1.11187117e-04, -1.06924155e-04, -3.72287504e-05,
          1.67883220e-04, 7.38089739e-06, -4.87181496e-05,
          -2.26197808e-05, -1.89916445e-05, -1.75440728e-05,
          -1.27024559e-05, -2.94648362e-05, -3.12437551e-05,
          -2.37868935e-05, -3.64855259e-05, -6.65054904e-05,
          -8.85560366e-05, -9.56336225e-05, -8.90248921e-05,
          -8.19877823e-05, -8.27551339e-05, -9.32282055e-05,
          -1.01683843e-04, -1.13084003e-04, -1.36146278e-04,
          -1.45237078e-04, -1.44022473e-04, -1.49376618e-04,
          -1.50244217e-04, -1.34573682e-04, -1.28350875e-04,
          -1.19802055e-04, -1.17387492e-04, -1.11473651e-04,
          -1.22916259e-04, -6.35173055e-05, 1.68535160e-04,
          -1.60426885e-06, -5.77796091e-05, -2.92430850e-05,
          -1.31392708e-05, -1.26766645e-05, -1.92887474e-05,
          -5.13544837e-05, -3.92072507e-05, -2.83389036e-05,
          -4.70061022e-05, -8.64648973e-05, -1.05961946e-04,
          -1.04300671e-04, -9.93573121e-05, -1.06358297e-04,
          -9.77909804e-05, -1.05373903e-04, -1.14803646e-04,
          -1.31545487e-04, -1.55069181e-04, -1.63196833e-04,
          -1.51668122e-04, -1.56168899e-04, -1.54691530e-04,
          -1.40251213e-04, -1.34943373e-04, -1.32022396e-04,
          -1.29299180e-04, -1.24957631e-04, -1.34323709e-04,
          -7.87468234e-05, 1.74849338e-04, -3.77681022e-06,
          -6.27690388e-05, -3.14610115e-05, -1.87602091e-05,
          -1.21942803e-05, -1.68111219e-05, -3.49485090e-05,
          -3.74879492e-05, -3.43802676e-05, -5.81094500e-05,
          -1.03527273e-04, -1.19164659e-04, -1.11971232e-04,
          -1.06238644e-04, -1.14989001e-04, -9.45959982e-05,
          -1.07344036e-04, -1.18977870e-04, -1.46982085e-04,
          -1.68256840e-04, -1.71572916e-04, -1.60593016e-04,
          -1.58792958e-04, -1.36761591e-04, -1.33340887e-04,
          -1.41585959e-04, -1.56222362e-04, -1.71273408e-04,
          -1.56763563e-04, -1.44838588e-04, -6.37024496e-05,
          1.67523089e-04, -6.95895460e-06, -6.57336786e-05,
          -3.15539146e-05, -1.95956927e-05, -1.58748662e-05,
          -1.32053474e-05, -2.02408137e-05, -2.33273568e-05,
          -2.73572314e-05, -5.88068906e-05, -1.06415937e-04,
          -1.23579797e-04, -1.09885128e-04, -1.03648417e-04,
          -1.08078370e-04, -1.07770407e-04, -1.21439385e-04,
          -1.32784029e-04, -1.54047346e-04, -1.68693063e-04,
          -1.67048318e-04, -1.50599837e-04, -1.45612052e-04,
          -1.25855106e-04, -1.35441413e-04, -1.50595675e-04,
          -1.77238660e-04, -1.87032361e-04, -1.74039116e-04,
          -1.53845947e-04, -4.76322493e-05, 1.44714024e-04,
          -1.63648692e-05, -5.75725790e-05, -2.21225910e-05,
          -2.46845666e-05, -2.03959189e-05, -1.54905520e-05,
          -1.88350023e-05, -2.57136544e-05, -2.93887442e-05,
          -5.85243724e-05, -1.04815350e-04, -1.21350618e-04,
          -1.08905006e-04, -1.06599568e-04, -1.17785217e-04,
          -1.31006105e-04, -1.40947101e-04, -1.45007041e-04,
          -1.64777201e-04, -1.72980202e-04, -1.63699282e-04,
          -1.35070921e-04, -1.31050256e-04, -1.30168439e-04,
          -1.39366806e-04, -1.48830339e-04, -1.63068384e-04,
          -1.66478538e-04, -1.54930283e-04, -1.50427746e-04,
          -5.67042662e-05, 1.29218577e-04, -1.97661302e-05,
          -7.38254384e-05, -4.93089428e-05, -1.86602119e-05,
          -2.39523324e-05, -2.54477836e-05, -1.84605851e-05,
          -3.06759794e-05, -4.22518024e-05, -6.04823363e-05,
          -8.35094688e-05, -1.14766706e-04, -1.09584536e-04,
          -1.06285654e-04, -1.10631103e-04, -1.18525262e-04,
          -1.47637387e-04, -1.59227406e-04, -1.72290354e-04,
          -1.85176337e-04, -1.69095205e-04, -1.41982920e-04,
          -1.22591009e-04, -1.34120797e-04, -1.37387571e-04,
          -1.32601825e-04, -1.56473019e-04, -1.65351172e-04,
          -1.48099483e-04, -1.40431453e-04, -4.00857862e-05,
          1.18334588e-04, -3.35669356e-05, -8.36744293e-05,
          -5.46641895e-05, -2.12166615e-05, -3.34386204e-05,
          -2.16909175e-05, -1.69247651e-05, -3.23895656e-05,
          -2.97408460e-05, -4.27761952e-05, -7.57898379e-05,
          -1.03662969e-04, -1.09118846e-04, -1.07775231e-04,
          -1.12626636e-04, -1.29007167e-04, -1.65447898e-04,
          -1.74139815e-04, -1.77552734e-04, -1.77714479e-04,
          -1.56764247e-04, -1.53372850e-04, -1.30446118e-04,
          -1.39744181e-04, -1.46444581e-04, -1.34003916e-04,
          -1.52277978e-04, -1.67817838e-04, -1.40256365e-04,
          -1.20091427e-04, -1.40219399e-05, 1.09547356e-04,
          -2.73288606e-05, -7.54359571e-05, -4.28668209e-05,
          -1.52096018e-05, -4.34464018e-05, -2.81737193e-05,
          -1.30896206e-05, -2.35984407e-05, -1.16724323e-05,
          -2.77348754e-05, -6.39269492e-05, -9.00262385e-05,
          -9.91795750e-05, -1.05791762e-04, -1.07065636e-04,
          -1.19228273e-04, -1.57132687e-04, -1.65300284e-04,
          -1.85922123e-04, -1.93361062e-04, -1.69708044e-04,
          -1.55567541e-04, -1.44733538e-04, -1.32065485e-04,
          -1.17669420e-04, -1.07347420e-04, 9.42579027e-06,
          5.93826044e-05, -4.44501238e-05, -4.47795974e-05,
          2.27538603e-05, 1.08735308e-04, -2.27945566e-05,
          -6.77962526e-05, -3.83925180e-05, -8.51300774e-06,
          -2.76706032e-05, -2.03968902e-05, -1.29432265e-05,
          -1.81496489e-05, -1.81992455e-05, -2.56806597e-05,
          -5.41734480e-05, -7.39770621e-05, -9.41315157e-05,
          -1.03750710e-04, -1.04736791e-04, -1.34114540e-04,
          -1.57390474e-04, -1.61878357e-04, -1.90175517e-04,
          -1.84713121e-04, -1.61830103e-04, -1.36752962e-04,
          -1.37944851e-04, -1.03325474e-04, -3.32031195e-05,
          2.34724808e-04, 2.79172411e-04, 1.90476276e-04, 2.57488064e-05,
          3.87902173e-06, 4.23775637e-05, 1.03576400e-04,
          -2.73177156e-05, -7.09388551e-05, -3.48043322e-05,
          -1.28842321e-05, -1.64753892e-05, 2.24863106e-06,
          -3.24758571e-06, -2.05178021e-05, -2.28573863e-05,
          -2.44752391e-05, -4.25496655e-05, -5.76832972e-05,
          -8.51438890e-05, -1.05220854e-04, -1.02804057e-04,
          -1.23387508e-04, -1.51547618e-04, -1.79325463e-04,
          -2.05755627e-04, -1.86489415e-04, -1.64170502e-04,
          -1.56698152e-04, -1.09634690e-04, 8.68991265e-05,
          1.05055697e-04, 1.96892332e-04, 2.14893822e-04, 8.80002190e-05,
          -4.60574811e-05, -6.86115600e-05, 1.22758311e-05,
          1.02939790e-04, -3.63053623e-05, -7.34059868e-05,
          -4.16186522e-05, -7.81778908e-06, 5.38687289e-07,
          1.62856722e-05, 9.86482974e-06, -1.12595280e-05,
          -2.06812074e-05, -2.76767514e-05, -3.41739214e-05,
          -4.95703280e-05, -7.37481678e-05, -9.44123312e-05,
          -1.01550781e-04, -1.33276335e-04, -1.43359663e-04,
          -1.64992409e-04, -1.90227860e-04, -1.91345680e-04,
          -1.73839333e-04, -1.58046663e-04, -1.92197658e-05,
          1.75590918e-04, 1.29224223e-04, 1.03852224e-04, 5.16617984e-05,
          -3.46387569e-05, -8.68557909e-05, -1.01648096e-04,
          -2.19809899e-05, 1.06102671e-04, -3.91618014e-05,
          -7.75658118e-05, -3.96746473e-05, -1.23922136e-05,
          7.90663034e-06, 1.91212275e-05, 1.34463717e-05, 1.72804380e-06,
          -1.29346145e-05, -2.31018985e-05, -2.48782544e-05,
          -3.28380193e-05, -4.37702183e-05, -6.96282368e-05,
          -9.33440824e-05, -1.24222948e-04, -1.41097713e-04,
          -1.65060570e-04, -1.83183176e-04, -1.81686075e-04,
          -1.69868203e-04, -1.52849694e-04, -5.08727790e-05,
          6.31305375e-05, 1.12092719e-04, 2.79695832e-05,
          -5.32754420e-05, -9.98736359e-05, -1.21413083e-04,
          -1.33531154e-04, -2.31031681e-05, 1.01208534e-04,
          -4.34088943e-05, -7.66883604e-05, -4.02301193e-05,
          -2.66044799e-06, 1.16772380e-05, 2.02262618e-05,
          1.94464556e-05, 1.03027423e-05, -5.87854265e-06,
          -1.80317329e-05, -1.21759249e-05, -1.49606494e-05,
          -1.54433637e-05, -4.78468646e-05, -8.48417694e-05,
          -1.08250373e-04, -1.24468177e-04, -1.47939601e-04,
          -1.74205459e-04, -1.73938985e-04, -1.68619896e-04,
          -1.23480349e-04, -1.05777224e-04, -9.01566309e-05,
          -6.99560114e-05, -9.66779480e-05, -9.82461715e-05,
          -1.46951221e-04, -1.65035104e-04, -1.40595483e-04,
          -5.13911036e-05, 1.01049758e-04, -3.79504672e-05,
          -7.73658830e-05, -3.56600030e-05, 1.03024888e-06,
          2.03408890e-05, 2.56756957e-05, 2.16984990e-05, 1.81753985e-05,
          8.22555592e-07, -1.52206385e-05, -1.69086034e-05,
          -7.11401663e-06, -1.72523175e-06, -2.84783437e-05,
          -5.38174609e-05, -7.06272476e-05, -9.21647152e-05,
          -1.14274153e-04, -1.30834131e-04, -1.49872285e-04,
          -1.51339627e-04, -1.42390141e-04, -1.35156108e-04,
          -1.27736406e-04, -1.43167970e-04, -1.48714753e-04,
          -1.44477963e-04, -1.62707482e-04, -1.79078779e-04,
          -1.63949633e-04, -6.90741581e-05, 1.43291458e-04,
          -1.02419135e-05, -7.78923495e-05, -3.56550954e-05,
          -1.45779532e-05, 1.18236985e-05, 2.34391518e-05,
          1.76921512e-05, 1.38665555e-05, 1.09657140e-05,
          -1.80182724e-05, -1.30663020e-05, -1.37505349e-05,
          -1.37968045e-05, -4.37097879e-06, -1.55685502e-05,
          -3.02945064e-05, -4.77967260e-05, -6.82563041e-05,
          -5.79451189e-05, -1.25107457e-04, -1.43167330e-04,
          -1.55206872e-04, -1.50570006e-04, -1.43186408e-04,
          -1.66415135e-04, -1.71893407e-04, -1.81351556e-04,
          -1.87906830e-04, -2.02397612e-04, -1.94812979e-04,
          -8.89453804e-05, 1.28828702e-04, -2.13090952e-05,
          -6.01553547e-05, -4.64950026e-05, -1.56339865e-05,
          2.40299664e-06, 2.35577972e-05, 1.82190997e-05, 1.97720856e-05,
          2.34008749e-05, -6.51109576e-06, -9.67123196e-06,
          -1.37943280e-05, -1.61933422e-05, -3.75489935e-06,
          -1.48923100e-05, 7.53027734e-06, -9.40074460e-06,
          -1.57622308e-05, -4.62133758e-05, -1.42986522e-04,
          -1.57942806e-04, -1.56006296e-04, -1.58809329e-04,
          -1.57712188e-04, -1.92584397e-04, -1.79791095e-04,
          -1.94931490e-04, -2.09391437e-04, -1.88750812e-04,
          -2.12236686e-04, -1.25806939e-04, 1.24009734e-04,
          -3.01658038e-05, -5.26554977e-05, -3.50491937e-05,
          -1.49152147e-05, 7.16960130e-06, 1.38347568e-05,
          1.52592329e-05, 2.69087977e-05, 1.59784959e-05,
          -6.53651682e-07, -1.32285631e-05, -2.58251166e-05,
          -1.62386023e-05, -1.60693908e-05, -1.69160558e-05,
          -4.00840781e-06, 2.50581234e-05, 3.24382336e-06,
          -5.04063100e-05, -1.23783801e-04, -1.55121335e-04,
          -1.59394869e-04, -1.54285503e-04, -1.55763701e-04,
          -1.82564196e-04, -1.73837019e-04, -1.82046948e-04,
          -1.92905558e-04, -1.95409171e-04, -1.74767323e-04,
          -8.38099149e-05, 1.44700316e-04, -2.28784338e-05,
          -7.51907864e-05, -5.61438465e-05, -2.21909213e-05,
          5.07179330e-08, 9.20232196e-06, 5.05779371e-06, 1.25637371e-05,
          2.10955068e-06, -1.10546016e-05, -2.04969929e-05,
          -3.65527121e-05, -3.54455005e-05, -3.59646765e-05,
          -4.21046025e-05, -2.93901248e-05, -1.88534232e-05,
          -4.11379988e-05, -7.51184925e-05, -8.08101831e-05,
          -1.12912741e-04, -1.36591814e-04, -1.54768655e-04,
          -1.73837674e-04, -1.55539034e-04, -1.74915491e-04,
          -1.88206483e-04, -2.00441587e-04, -2.12130646e-04,
          -1.74444867e-04, -4.98680638e-05, 1.36259434e-04,
          -2.99571930e-05, -7.90525955e-05, -5.23955387e-05,
          -1.09322627e-05, -6.93031279e-06, -6.42883862e-08,
          -1.71479132e-06, -4.79170978e-07, -3.04643117e-06,
          -5.68327869e-06, -1.39392989e-06, -1.19028546e-05,
          -1.85515019e-05, -1.37941397e-05, -3.60796512e-05,
          -3.33693133e-05, -2.37398599e-05, -4.45469850e-05,
          -3.96233590e-05, -5.18815832e-05, -5.69202894e-05,
          -7.12653928e-05, -9.37923760e-05, -1.08856781e-04,
          -8.27531621e-05, -8.19106499e-05, -6.82319805e-05,
          -8.33122249e-05, -8.04441661e-05, -2.13088661e-05,
          2.30510650e-05, 1.84692602e-04, 9.52332703e-05, 8.46071925e-05,
          9.27579604e-05, 1.06958862e-04, 1.31938999e-04, 1.33801004e-04,
          1.39890079e-04, 1.35162991e-04, 1.34187008e-04, 1.27460706e-04,
          1.19574521e-04, 9.21856408e-05, 8.30580102e-05, 7.76965098e-05,
          6.66962369e-05, 7.48146995e-05, 8.21929207e-05, 7.36511720e-05,
          5.60135632e-05, 5.26270778e-05, 3.98521406e-05, 2.15535238e-05,
          2.10295930e-05, 3.19416868e-05, 3.96974865e-05, 1.33219028e-05,
          1.06935395e-05, 7.10724407e-06, -9.39521578e-06,
          -1.86598609e-05, 4.27406521e-05, 3.08428891e-04,
          1.92619045e-04, 1.19709410e-04, 1.13147857e-04, 1.72095301e-04,
          2.25346550e-04, 2.36673135e-04, 2.27579032e-04, 2.19105917e-04,
          2.19277761e-04, 2.26467673e-04, 1.74954344e-04, 1.09525587e-04,
          1.07677231e-04, 9.90201806e-05, 1.03579267e-04, 1.08067921e-04,
          9.10328890e-05, 8.55377220e-05, 7.83252108e-05, 8.00046837e-05,
          6.63324245e-05, 5.30155630e-05, 5.48272619e-05, 5.89429328e-05,
          5.51647936e-05, 5.36296611e-05, 4.84883567e-05, 4.31569460e-05,
          2.54591032e-05, -2.57270804e-05, 1.45003905e-05 ]
      - [ -1.41119835e-06, -9.87243857e-06, 1.37087445e-05,
          1.40078673e-05, 1.29857726e-05, 1.03036000e-05, 1.54401096e-05,
          -6.27320060e-06, -9.65439631e-06, -6.66507412e-06,
          -7.24910524e-06, -1.23412501e-05, -1.21483345e-05,
          -1.07128926e-05, -1.05114013e-05, -8.79796062e-06,
          -8.04355386e-06, -6.39368591e-06, -9.63326693e-06,
          -1.35453720e-05, -2.05481465e-05, -1.71697047e-05,
          -1.42526260e-05, -1.78387090e-05, -1.75621790e-05,
          -1.89897673e-05, -2.16225235e-05, -2.09657519e-05,
          -1.84724504e-05, -2.04120624e-05, 9.10148719e-06,
          1.05712570e-05, -2.29580621e-07, -6.40103235e-06,
          1.43398338e-05, 1.43051557e-05, 1.19647520e-05, 1.32400855e-05,
          1.67001326e-05, -8.68861480e-06, -8.50324341e-06,
          -7.07083291e-06, -6.63800665e-06, -9.69643770e-06,
          -1.28174697e-05, -1.31695078e-05, -1.19175829e-05,
          -1.04258806e-05, -1.13401775e-05, -1.01405922e-05,
          -7.29145404e-06, -7.26597818e-06, -2.00473587e-05,
          -1.46082730e-05, -1.32678624e-05, -1.64059857e-05,
          -1.74181023e-05, -1.88902668e-05, -2.01621606e-05,
          -1.90650626e-05, -1.81362539e-05, -1.90098181e-05,
          9.27028668e-06, 1.33235244e-05, 1.38944017e-06,
          -8.75430032e-06, 1.32947007e-05, 1.29651726e-05,
          9.13516942e-06, 8.64874164e-06, 1.17935188e-05,
          -1.70348412e-05, -1.29916616e-05, -9.34830950e-06,
          -8.25317693e-06, -9.02649390e-06, -1.28142665e-05,
          -1.50976193e-05, -1.56343358e-05, -1.46566272e-05,
          -1.41780638e-05, -1.30747949e-05, -1.39224439e-05,
          -9.88369175e-06, -1.00150737e-05, -1.05751260e-05,
          -1.05974750e-05, -1.34268921e-05, -1.59118190e-05,
          -1.63490931e-05, -1.62858851e-05, -1.65984311e-05,
          -1.57066443e-05, -1.54929185e-05, 9.45096053e-06,
          1.83304692e-05, -8.16893419e-07, -1.83532557e-05,
          1.78366861e-06, -1.76271624e-06, -5.27806060e-06,
          -7.61942056e-06, -3.87593218e-06, -3.15012876e-05,
          -3.06998299e-05, -2.73258211e-05, -2.24048435e-05,
          -1.68100614e-05, -1.64991725e-05, -2.06184814e-05,
          -2.33408773e-05, -2.46604850e-05, -2.43271370e-05,
          -2.38273424e-05, -2.42188435e-05, -2.49677232e-05,
          -2.51128131e-05, -2.04460976e-05, -1.91873078e-05,
          -2.13904495e-05, -2.10282742e-05, -2.13523235e-05,
          -2.31288905e-05, -2.41770085e-05, -2.36819014e-05,
          -2.40858644e-05, 1.32068621e-07, 1.37696015e-05,
          -1.63939478e-06, -1.86776015e-05, -5.19514651e-06,
          -1.05884710e-05, -1.26339664e-05, -1.35598093e-05,
          -1.56816513e-05, -4.08220840e-05, -4.24907739e-05,
          -4.08543747e-05, -4.22701960e-05, -3.96863179e-05,
          -3.31282026e-05, -3.08983217e-05, -3.27504131e-05,
          -3.55655866e-05, -3.51304116e-05, -3.43155334e-05,
          -3.52525822e-05, -3.45480730e-05, -3.75720301e-05,
          -3.78071563e-05, -3.42476596e-05, -2.93024841e-05,
          -3.17832455e-05, -3.23728636e-05, -3.39777107e-05,
          -3.45935478e-05, -3.31828996e-05, -3.42244639e-05,
          -2.31751483e-06, 9.70382825e-06, -9.71150598e-07,
          -1.92866773e-05, -1.15123376e-05, -1.54579720e-05,
          -1.75391233e-05, -1.74731322e-05, -2.34232193e-05,
          -4.07133048e-05, -4.51644300e-05, -4.54974470e-05,
          -4.42802375e-05, -4.43521167e-05, -4.48941137e-05,
          -4.17049050e-05, -3.84811174e-05, -4.10202374e-05,
          -4.51156011e-05, -4.50267071e-05, -4.25372782e-05,
          -4.16721086e-05, -3.74151059e-05, -3.88543449e-05,
          -4.05066239e-05, -3.93340852e-05, -3.28647329e-05,
          -3.48630019e-05, -3.67017783e-05, -3.73044168e-05,
          -3.74782358e-05, -3.80929196e-05, -1.83311397e-06,
          2.98530676e-06, -1.03003390e-06, -1.96474666e-05,
          -7.84440726e-06, -1.32487967e-05, -1.63962177e-05,
          -1.78665268e-05, -2.62913472e-05, -3.95063580e-05,
          -4.47823331e-05, -4.67373138e-05, -4.53335560e-05,
          -4.51013730e-05, -4.68610560e-05, -4.49099534e-05,
          -4.21412769e-05, -4.21002333e-05, -4.33081113e-05,
          -4.51939668e-05, -4.63108918e-05, -4.77615540e-05,
          -4.55036716e-05, -4.13773159e-05, -3.84367049e-05,
          -4.14584320e-05, -3.97978001e-05, -3.61005877e-05,
          -3.67934044e-05, -3.69735462e-05, -3.76209609e-05,
          -3.06008733e-05, 5.33101115e-07, 1.65460960e-06,
          -2.43539898e-06, -2.11184779e-05, -5.33662160e-06,
          -1.45652066e-05, -1.61260032e-05, -1.57422000e-05,
          -2.63685779e-05, -4.04559978e-05, -4.32247944e-05,
          -4.69298575e-05, -4.78591501e-05, -4.73720611e-05,
          -4.76965142e-05, -4.69393381e-05, -4.68287071e-05,
          -4.52957647e-05, -4.48810752e-05, -4.62816570e-05,
          -4.62880453e-05, -4.81892675e-05, -5.02596049e-05,
          -5.16636537e-05, -4.74734770e-05, -4.31875851e-05,
          -4.20036740e-05, -4.15023751e-05, -3.64989937e-05,
          -3.80453275e-05, -3.87343680e-05, -2.22780291e-05,
          8.13788233e-07, 3.29793329e-06, -1.53430744e-06,
          -2.26632801e-05, -6.96223287e-06, -1.19978731e-05,
          -1.57943796e-05, -1.55060661e-05, -2.42944225e-05,
          -3.84512059e-05, -3.70066591e-05, -4.68065919e-05,
          -4.81224743e-05, -4.83713011e-05, -4.81133393e-05,
          -4.85297751e-05, -4.68881444e-05, -4.76093592e-05,
          -4.80008202e-05, -4.81361094e-05, -4.86126519e-05,
          -4.94461528e-05, -5.04729796e-05, -5.11723447e-05,
          -5.27586271e-05, -5.34189458e-05, -4.72609790e-05,
          -4.26328261e-05, -4.01495163e-05, -3.78708901e-05,
          -3.67515677e-05, -1.82398508e-05, -8.94846437e-07,
          4.03734612e-06, -3.13553915e-06, -2.21201808e-05,
          -8.07006654e-06, -1.30619419e-05, -1.53556575e-05,
          -1.46905322e-05, -2.43907234e-05, -3.96775758e-05,
          -3.88195622e-05, -4.05174105e-05, -4.69843217e-05,
          -4.85182281e-05, -4.83793519e-05, -4.74981789e-05,
          -4.84158336e-05, -4.92861764e-05, -5.10640275e-05,
          -5.05463831e-05, -5.00521237e-05, -4.98953341e-05,
          -5.08203957e-05, -5.15585016e-05, -5.23895396e-05,
          -5.22849878e-05, -5.38688291e-05, -4.68979561e-05,
          -4.33725836e-05, -4.00050267e-05, -3.82655307e-05,
          -1.32393179e-05, 1.48482980e-06, 5.84629106e-06,
          -4.29728198e-06, -2.07003322e-05, -7.47246531e-06,
          -1.58424100e-05, -1.74060333e-05, -1.48516410e-05,
          -2.11460374e-05, -4.08510568e-05, -3.89523229e-05,
          -3.62647479e-05, -4.24602622e-05, -4.74842200e-05,
          -4.84483062e-05, -4.90210768e-05, -4.85995261e-05,
          -4.88370242e-05, -5.15098145e-05, -5.12049555e-05,
          -5.10293285e-05, -5.08798548e-05, -5.17993612e-05,
          -5.27030898e-05, -5.39706562e-05, -5.38672284e-05,
          -5.41720692e-05, -5.42549969e-05, -4.78805232e-05,
          -4.18861164e-05, -3.95226198e-05, -3.64003699e-06,
          6.61349247e-07, 5.14852582e-06, -6.87926786e-06,
          -2.30691403e-05, -7.17463627e-06, -1.71102638e-05,
          -1.81183623e-05, -1.54489862e-05, -1.50369688e-05,
          -3.60852464e-05, -3.96238429e-05, -4.18696945e-05,
          -3.82052567e-05, -4.15136710e-05, -4.63623546e-05,
          -4.79863374e-05, -4.90457205e-05, -5.02920047e-05,
          -5.03720330e-05, -5.14636522e-05, -5.20189642e-05,
          -5.27212687e-05, -5.31780352e-05, -5.37721171e-05,
          -5.47444797e-05, -5.48449716e-05, -5.47015989e-05,
          -5.48808275e-05, -5.51987869e-05, -4.50896405e-05,
          -3.80691090e-05, 1.33182914e-06, -1.08712754e-06,
          4.99351609e-06, -6.20600531e-06, -2.35267125e-05,
          -6.75015099e-06, -1.54032296e-05, -1.66122209e-05,
          -1.69729137e-05, -1.32714731e-05, -2.89016280e-05,
          -4.05567480e-05, -4.22251105e-05, -4.30110413e-05,
          -3.97289878e-05, -4.02976002e-05, -4.56139423e-05,
          -4.76874120e-05, -4.92814725e-05, -4.96639914e-05,
          -5.07249351e-05, -5.19756541e-05, -5.27849697e-05,
          -5.29400313e-05, -5.27328666e-05, -5.30026482e-05,
          -5.31113074e-05, -5.36721927e-05, -5.35387881e-05,
          -5.73248144e-05, -5.29446334e-05, -3.22297055e-05,
          -5.40959491e-07, -3.10624978e-06, 7.21401057e-06,
          -4.22463745e-06, -2.04690205e-05, -6.10814959e-06,
          -1.39143604e-05, -1.53289711e-05, -1.70457188e-05,
          -1.49151911e-05, -2.24238975e-05, -3.35799014e-05,
          -4.34798021e-05, -4.35625989e-05, -4.39914875e-05,
          -4.32710003e-05, -4.37289928e-05, -4.54297260e-05,
          -4.53898319e-05, -4.66225247e-05, -4.80714953e-05,
          -4.97563487e-05, -5.16423061e-05, -5.17938315e-05,
          -5.15063148e-05, -5.19045279e-05, -5.28572200e-05,
          -5.29089702e-05, -5.50085133e-05, -5.63976864e-05,
          -5.14258209e-05, -2.14965094e-05, -1.22381198e-06,
          -2.00649356e-06, 8.54700193e-06, -3.32020954e-06,
          -1.97608915e-05, -5.70596330e-06, -1.35019854e-05,
          -1.50533670e-05, -1.55606122e-05, -1.33551466e-05,
          -1.61356147e-05, -2.69029861e-05, -3.75843847e-05,
          -4.05329010e-05, -4.50580701e-05, -4.52187414e-05,
          -4.63644501e-05, -4.59186813e-05, -4.59712646e-05,
          -4.57783608e-05, -4.70512641e-05, -4.86956960e-05,
          -5.13857703e-05, -5.17857443e-05, -5.19732566e-05,
          -5.25362448e-05, -5.39343346e-05, -5.34589999e-05,
          -5.30255675e-05, -5.31475271e-05, -4.08278684e-05,
          -1.38639571e-05, -2.72670377e-06, -1.92427433e-06,
          7.80343908e-06, -8.31494049e-07, -1.97023655e-05,
          -4.03623699e-06, -1.22370093e-05, -1.43056277e-05,
          -1.59984629e-05, -1.28181237e-05, -1.36805920e-05,
          -2.03787240e-05, -2.97400893e-05, -3.70107118e-05,
          -4.05689898e-05, -4.56496600e-05, -4.72860447e-05,
          -4.69613879e-05, -4.78769689e-05, -4.90986495e-05,
          -4.91318169e-05, -4.98587615e-05, -5.22229384e-05,
          -5.26357908e-05, -5.23217604e-05, -5.23380113e-05,
          -5.29700228e-05, -5.28755627e-05, -5.01821632e-05,
          -4.86192985e-05, -2.97043152e-05, -1.22395204e-05,
          -3.73809098e-06, -2.08753750e-06, 1.02684098e-05,
          2.71095871e-07, -1.78430746e-05, -3.98434395e-06,
          -1.02538379e-05, -1.36005719e-05, -1.44191072e-05,
          -1.19310052e-05, -1.12702110e-05, -1.34126212e-05,
          -2.39842066e-05, -3.07186820e-05, -3.49659967e-05,
          -3.96538017e-05, -4.38057723e-05, -4.50601947e-05,
          -4.79582195e-05, -4.88750047e-05, -4.91868232e-05,
          -4.87781799e-05, -4.98289846e-05, -5.00636124e-05,
          -5.04247037e-05, -5.00996866e-05, -4.95929307e-05,
          -4.83160438e-05, -4.87965917e-05, -3.50064001e-05,
          -1.94884415e-05, -1.45442446e-05, -5.12768611e-06,
          -2.27902979e-06, 9.15288547e-06, -5.64453622e-08,
          -1.72622131e-05, -7.68981977e-07, -9.19144804e-06,
          -1.28135380e-05, -1.37273228e-05, -1.12093412e-05,
          -1.15760304e-05, -1.25130491e-05, -1.44857768e-05,
          -2.54777060e-05, -2.98306932e-05, -3.33494500e-05,
          -3.70797025e-05, -3.96147043e-05, -4.29436186e-05,
          -4.31819790e-05, -4.50590851e-05, -4.51095766e-05,
          -4.59653093e-05, -4.75782581e-05, -4.70867235e-05,
          -4.59902840e-05, -4.52787426e-05, -4.26381193e-05,
          -3.44182154e-05, -2.20242746e-05, -1.76656267e-05,
          -1.53273868e-05, -4.05028004e-06, -1.81703933e-06,
          9.07689537e-06, -1.11397071e-06, -1.84342698e-05,
          -3.63793419e-07, -3.56877285e-06, -9.74216528e-06,
          -1.24932858e-05, -1.12730304e-05, -1.21046614e-05,
          -1.15110188e-05, -1.41210876e-05, -1.48688778e-05,
          -2.07275407e-05, -2.89890559e-05, -3.09642455e-05,
          -3.45665940e-05, -3.64529878e-05, -3.71075912e-05,
          -4.00391509e-05, -4.27732484e-05, -4.44120960e-05,
          -4.14635651e-05, -4.29832035e-05, -4.03206432e-05,
          -3.42649873e-05, -2.89067775e-05, -2.08738802e-05,
          -1.86257330e-05, -1.78081682e-05, -1.33085132e-05,
          -4.59121020e-06, -3.35853684e-07, 7.89821388e-06,
          -1.55537964e-06, -1.74519682e-05, -2.54784084e-07,
          -3.31205001e-06, -6.40999315e-06, -1.20346767e-05,
          -1.06965881e-05, -1.02111662e-05, -1.09957900e-05,
          -1.10487799e-05, -1.24428443e-05, -1.35748833e-05,
          -1.68460683e-05, -2.35955904e-05, -2.50751964e-05,
          -2.93694193e-05, -3.32883610e-05, -3.37689744e-05,
          -3.55705743e-05, -4.28540225e-05, -3.42217427e-05,
          -3.57632707e-05, -3.02665430e-05, -2.53751441e-05,
          -1.80958232e-05, -1.72431337e-05, -1.87293663e-05,
          -1.74954694e-05, -1.02252498e-05, -3.14233012e-06,
          5.17762430e-07, 1.20586283e-05, -2.54775432e-06,
          -1.70244439e-05, -4.79209859e-07, -3.51157701e-06,
          -6.50034917e-06, -9.95791288e-06, -1.04954324e-05,
          -9.71935424e-06, -8.78021729e-06, -8.23779646e-06,
          -9.83681457e-06, -1.16956162e-05, -1.10806614e-05,
          -1.29492792e-05, -1.63899276e-05, -1.82861404e-05,
          -2.12827654e-05, -2.33803894e-05, -2.48043925e-05,
          -2.59585631e-05, -2.56084295e-05, -2.21701121e-05,
          -1.82184485e-05, -1.53349301e-05, -1.60171385e-05,
          -1.70315852e-05, -1.68808565e-05, -1.44970027e-05,
          -8.43718590e-06, -2.32024513e-06, 1.71958948e-06,
          1.19066644e-05, -2.92196000e-06, -1.74307715e-05,
          -1.43517457e-06, -3.46811157e-06, -5.52433539e-06,
          -7.96806580e-06, -6.15172121e-06, -9.87891417e-06,
          -8.79543131e-06, -8.48555101e-06, -7.82584448e-06,
          -8.76875765e-06, -1.15437178e-05, -1.04941028e-05,
          -1.13797614e-05, -1.26414507e-05, -1.48194385e-05,
          -1.51017912e-05, -1.88915856e-05, -1.74559482e-05,
          -2.44656039e-05, -1.48463751e-05, -1.41157634e-05,
          -1.43999850e-05, -1.52376933e-05, -1.44138558e-05,
          -1.55223843e-05, -1.16037936e-05, -4.08643336e-06,
          -9.73261081e-07, 1.36067058e-06, 9.85471161e-06,
          -1.93546498e-06, -1.74518937e-05, -4.15783916e-06,
          -4.03549666e-06, -6.79375262e-06, -7.01467206e-06,
          -5.55792531e-06, -4.07844118e-06, -8.34974981e-06,
          -9.23962216e-06, -9.16185854e-06, -9.39409165e-06,
          -9.59274894e-06, -1.01961059e-05, -1.24804083e-05,
          -1.28418169e-05, -1.16447382e-05, -1.39939866e-05,
          -1.65871534e-05, -1.73412554e-05, -1.89030598e-05,
          -1.62199303e-05, -1.53382825e-05, -1.44311580e-05,
          -1.31751731e-05, -1.42720219e-05, -1.17313766e-05,
          -7.74734417e-06, -1.32537252e-06, 1.06407583e-06,
          -6.80691585e-07, 1.12559565e-05, 6.32964941e-07,
          -1.70317981e-05, -6.65129483e-06, -4.95378117e-06,
          -8.23988648e-06, -6.39797736e-06, -5.38757740e-06,
          -3.65984306e-06, -3.43909846e-06, -7.72177191e-06,
          -1.06368789e-05, -1.07895075e-05, -1.01025216e-05,
          -1.00056141e-05, -1.03977800e-05, -9.94144921e-06,
          -1.06470461e-05, -1.17786240e-05, -1.30046856e-05,
          -1.34336415e-05, -1.16894671e-05, -1.16179981e-05,
          -1.27329540e-05, -1.18771541e-05, -1.22491765e-05,
          -1.17537993e-05, -8.09299854e-06, -1.96378733e-06,
          4.83719418e-07, 1.34909016e-07, 5.72898500e-07, 1.23321570e-05,
          -1.00055672e-06, -1.66052978e-05, -4.27252296e-08,
          -3.23159088e-06, -6.13261454e-06, -6.50300763e-06,
          -5.04802119e-06, -4.12637655e-06, -3.50801042e-06,
          -2.88745264e-06, -5.73219450e-06, -8.38928554e-06,
          -8.08269215e-06, -7.78050162e-06, -8.82881614e-06,
          -8.50427750e-06, -9.27881501e-06, -8.52483026e-06,
          -8.94199729e-06, -9.99941949e-06, -1.17414047e-05,
          -1.12968555e-05, -1.09168141e-05, -1.03467337e-05,
          -1.09924085e-05, -6.61523882e-06, -2.28019735e-06,
          2.12377108e-06, 9.58389592e-07, 1.24998144e-06, 1.44120293e-06,
          1.22579204e-05, 7.65054381e-07, -1.54828267e-05,
          2.79723940e-06, 5.79378820e-06, 1.18885521e-06, 1.48063066e-06,
          7.54956091e-07, -2.55379859e-06, -1.28573970e-06,
          -1.66404982e-06, -1.65757876e-06, -1.58418959e-06,
          -3.03561887e-06, -5.65895152e-06, -6.75146930e-06,
          -6.41305269e-06, -8.33294325e-06, -7.25123573e-06,
          -8.62165052e-06, -9.82230176e-06, -1.02372705e-05,
          -9.39887559e-06, -9.16214321e-06, -7.74656110e-06,
          -4.86516956e-06, -1.75284640e-07, 2.55575787e-06,
          2.36742062e-06, 2.45081583e-06, 1.68962231e-06, 2.67261441e-07,
          1.32320292e-05, -6.26228370e-07, -1.55566249e-05,
          5.81164977e-06, 4.63844253e-06, 1.24275834e-06, 1.86296472e-06,
          3.03499974e-06, 2.80563745e-06, 2.77838717e-06,
          -1.94566474e-06, -2.65556287e-06, -6.70754957e-07,
          -1.92181733e-06, -2.38387406e-06, -1.98602561e-06,
          -4.96908751e-06, -5.56289842e-06, -7.68119207e-06,
          -7.09217238e-06, -7.43202054e-06, -7.26592407e-06,
          -7.14513271e-06, -4.68501958e-06, -1.89669288e-06,
          1.17548302e-06, 2.16928174e-06, 4.75146453e-06, 2.70221472e-06,
          9.63589969e-07, 2.36583492e-06, 1.10172709e-06, 1.43618990e-05,
          4.87544503e-06, -1.60212239e-05, 6.08230175e-06,
          3.70649968e-06, -6.65776042e-07, -9.45301508e-07,
          -5.28477756e-07, -5.11327869e-07, 1.46555499e-06,
          1.56644342e-06, -1.59778850e-07, -2.73858677e-06,
          -4.41113252e-06, -5.10460404e-06, -5.01421164e-06,
          -6.22555581e-06, -7.24116398e-06, -5.15283182e-06,
          -5.91107391e-06, -4.47396769e-06, -4.05786022e-06,
          -3.11976760e-06, -1.17060267e-06, 7.70330814e-07,
          1.96322526e-06, -6.65307880e-08, 1.53415999e-06,
          3.47247123e-07, 6.32236038e-07, 4.40780070e-07, 2.04971661e-06,
          9.46585442e-06, 2.30106107e-05, -8.25832740e-06,
          5.53683594e-06, 5.48723847e-06, 1.44657918e-06, 9.02027892e-08,
          3.92501903e-07, 1.97445488e-07, 8.69122005e-07, 9.34937532e-07,
          3.47875471e-07, 8.05330387e-07, 1.53224642e-06, 1.31979925e-06,
          1.34449408e-06, -1.17642389e-06, -1.10428334e-06,
          -8.25699999e-07, -8.58640590e-07, -8.23945925e-08,
          2.11358974e-06, 2.13054227e-06, 1.61276444e-06, 2.10882695e-06,
          1.00058412e-06, 2.86038676e-06, 2.14351303e-06, 1.22087579e-06,
          3.02473813e-06, 1.54724103e-06, 2.24546693e-06, 1.28531992e-05,
          2.80377753e-05, 1.05972531e-05, 1.26430132e-05, 9.19473405e-06,
          1.13254091e-05, 8.20280638e-06, 7.83047744e-06, 7.80865412e-06,
          7.45543957e-06, 7.45338775e-06, 7.95131291e-06, 8.82300628e-06,
          8.72520013e-06, 8.80435891e-06, 1.00106054e-05, 9.08933362e-06,
          9.67900360e-06, 1.20872237e-05, 1.03744333e-05, 1.14976565e-05,
          9.98726955e-06, 1.09624079e-05, 1.20455179e-05, 1.17443578e-05,
          1.18638272e-05, 1.42015870e-05, 1.75105106e-05, 1.86914785e-05,
          1.85011468e-05, 1.94827699e-05, 2.36625328e-05, 2.18884634e-05,
          1.46059128e-05, 8.75381920e-06, 1.65892870e-05, 1.31426514e-05,
          8.76916238e-06, 7.05342882e-06, 9.10158360e-06, 9.78008939e-06,
          1.05575118e-05, 1.10386682e-05, 9.86591749e-06, 8.53642632e-06,
          7.71621762e-06, 7.30362945e-06, 7.07304707e-06, 7.27964380e-06,
          9.83234168e-06, 1.08491040e-05, 9.56697841e-06, 7.80876508e-06,
          9.05862180e-06, 9.81309586e-06, 8.88470277e-06, 9.47942681e-06,
          1.04185265e-05, 8.75207206e-06, 8.45309478e-06, 8.82436507e-06,
          6.48443574e-06, 7.08616381e-06, 8.40106168e-06, 6.65437437e-06,
          6.07326501e-06, 1.93735517e-07, -3.21694444e-07,
          -1.00010157e-05, -7.34331707e-06, -8.16171450e-06,
          -1.04826304e-05, -9.38637277e-06, -1.08857739e-05,
          -9.41896997e-06, -9.82626170e-06, -9.63522962e-06,
          -8.40556731e-06, -8.66213759e-06, -1.03029042e-05,
          -9.50842696e-06, -7.65118875e-06, -8.49885964e-06,
          -9.54860570e-06, -1.08143859e-05, -1.01294891e-05,
          -9.40614518e-06, -1.06700991e-05, -1.06196658e-05,
          -1.16180445e-05, -1.15292223e-05, -1.07806654e-05,
          -1.03649663e-05, -1.11928939e-05, -1.04325045e-05,
          -9.98313590e-06, -9.56934400e-06 ]
      - [ 2.82661669e-04, 9.78337339e-05, 1.08839977e-05, 1.01817786e-05,
          6.43294015e-06, -6.66084316e-06, 8.87510760e-06,
          7.48983439e-05, 9.37529403e-05, 1.00426485e-04, 1.17153235e-04,
          1.19473429e-04, 1.16924231e-04, 1.02542377e-04, 1.17310330e-04,
          1.39156371e-04, 1.15752999e-04, 7.09865635e-05, 7.04327031e-05,
          8.74397738e-05, 6.92509202e-05, 4.85483506e-05, 1.69913619e-05,
          1.35625505e-05, 3.34377146e-05, 1.83497650e-05, 3.90440437e-05,
          1.99511906e-05, 1.11828786e-05, 7.25171503e-06,
          -1.33133508e-05, 5.80242668e-05, 2.50622805e-04,
          6.47515990e-05, -7.05367929e-05, -6.36979894e-05,
          -5.66707313e-05, -1.38254072e-05, 3.24953544e-05,
          1.37273964e-04, 1.21318219e-04, 1.19674442e-04, 1.25506136e-04,
          1.23796170e-04, 1.36770817e-04, 1.45211787e-04, 1.72647618e-04,
          1.57170070e-04, 1.25697348e-04, 1.01268990e-04, 9.54265633e-05,
          9.28565496e-05, 5.00116694e-05, 1.23252139e-05,
          -4.01200577e-06, -5.45547027e-06, 2.67930482e-05,
          3.28208189e-05, 2.22170311e-05, 1.28135789e-05, 4.14424649e-05,
          4.34736976e-05, -2.84118723e-05, 7.28178129e-05,
          2.09024482e-04, -1.25180695e-05, -1.39212832e-04,
          -1.31512410e-04, -1.15109055e-04, -3.79503908e-05,
          1.81332125e-05, 8.26877440e-05, 8.68114003e-05, 9.11947718e-05,
          8.90069787e-05, 8.09523917e-05, 8.83903922e-05, 1.18800817e-04,
          1.26525891e-04, 1.18380958e-04, 1.04247549e-04, 9.24510241e-05,
          5.74698934e-05, 3.12538214e-05, -1.36707367e-05,
          -4.32379093e-05, -3.02350927e-05, -2.45468400e-05,
          -1.41780856e-05, -9.12009182e-06, -2.45539522e-05,
          -2.10421949e-05, 6.27661075e-06, -8.97110203e-06,
          -1.02960119e-04, 2.53989274e-05, 1.74736051e-04,
          -7.17184594e-05, -1.75932539e-04, -1.72672037e-04,
          -1.55799367e-04, -6.29918504e-05, 1.57474759e-07,
          2.94860929e-05, 4.01067045e-05, 4.14122514e-05, 3.56569726e-05,
          3.59071928e-05, 6.81711681e-05, 8.83392495e-05, 8.96862766e-05,
          9.06130517e-05, 8.26143805e-05, 5.30877951e-05,
          -1.14066415e-05, -3.91017602e-05, -6.41752194e-05,
          -7.76606030e-05, -6.06143731e-05, -5.99727173e-05,
          -6.13549491e-05, -7.06713981e-05, -6.98960648e-05,
          -5.42123744e-05, -5.71913588e-05, -8.96575657e-05,
          -1.68884653e-04, -2.06383083e-05, 1.87056692e-04,
          -4.14790120e-05, -1.80367366e-04, -1.70130123e-04,
          -1.42013145e-04, -5.45303301e-05, -5.30294938e-06,
          2.22257822e-05, 1.38983032e-05, 1.23917835e-05, 1.09745979e-05,
          3.25515102e-05, 6.20904175e-05, 7.09114465e-05, 7.01823956e-05,
          7.09672531e-05, 4.78758157e-05, -6.40215740e-06,
          -5.15685388e-05, -6.80787343e-05, -7.20405660e-05,
          -8.10921265e-05, -8.50411743e-05, -8.79543659e-05,
          -7.12255860e-05, -8.36541658e-05, -6.97844080e-05,
          -7.12262481e-05, -1.01815742e-04, -1.41360593e-04,
          -1.90294406e-04, -3.84404484e-05, 2.06002456e-04,
          -6.10770803e-06, -1.76172689e-04, -1.79204755e-04,
          -1.41092838e-04, -5.74032420e-05, 1.18271864e-05,
          3.53255782e-05, 2.95841437e-05, 3.19562387e-05, 3.89065717e-05,
          5.12365186e-05, 5.18704692e-05, 5.09426973e-05, 4.20398683e-05,
          4.14428469e-05, -1.00809666e-06, -4.08300111e-05,
          -5.62247915e-05, -7.16372379e-05, -8.19256893e-05,
          -9.33190531e-05, -8.85390909e-05, -8.05509771e-05,
          -7.39378011e-05, -7.54122157e-05, -6.66730193e-05,
          -7.95360684e-05, -1.14422306e-04, -1.50602631e-04,
          -1.98913796e-04, -5.63147842e-05, 2.28838107e-04,
          8.79085837e-06, -1.56536873e-04, -1.74045112e-04,
          -1.13300164e-04, -2.01300900e-05, 5.60794069e-05,
          5.04019517e-05, 5.25155556e-05, 5.40501023e-05, 6.24897511e-05,
          4.25859216e-05, 4.35066322e-05, 3.77515244e-05, 1.59784395e-05,
          4.40985923e-06, -2.48404522e-05, -5.33571074e-05,
          -6.21761283e-05, -8.63728055e-05, -1.02145139e-04,
          -1.07363499e-04, -8.31720536e-05, -7.60242401e-05,
          -9.68078384e-05, -8.40647554e-05, -8.86978232e-05,
          -9.03325708e-05, -1.00573416e-04, -1.23136488e-04,
          -1.97087604e-04, -6.65065454e-05, 1.91305109e-04,
          -2.58349792e-05, -1.50189706e-04, -1.61594522e-04,
          -9.15542405e-05, 6.38075380e-06, 5.19337154e-05,
          4.43317040e-05, 4.34716312e-05, 4.03882077e-05, 3.28403185e-05,
          2.20416059e-05, 2.32725724e-05, 1.85433291e-05,
          -1.25206725e-05, -3.59316582e-05, -4.68430335e-05,
          -7.82123170e-05, -9.20902094e-05, -1.06611478e-04,
          -1.10436915e-04, -1.02898237e-04, -7.31263499e-05,
          -9.34161872e-05, -8.13622610e-05, -6.10496645e-05,
          -8.37547195e-05, -9.53130802e-05, -1.07518739e-04,
          -1.31128443e-04, -2.23686657e-04, -8.59129213e-05,
          1.39549054e-04, -6.43957537e-05, -1.88032558e-04,
          -1.64467827e-04, -6.73768518e-05, 8.75510796e-06,
          3.94370436e-05, 3.41659870e-05, 3.92126458e-05, 3.15788493e-05,
          2.02204374e-05, 1.52268758e-05, 1.95401681e-05, 1.33358317e-05,
          -2.25333315e-05, -5.81639324e-05, -7.50726686e-05,
          -9.25497734e-05, -9.75245130e-05, -1.03989922e-04,
          -1.06473490e-04, -1.18258045e-04, -9.88865140e-05,
          -7.97841640e-05, -7.76270826e-05, -8.16653410e-05,
          -8.34365710e-05, -9.11248208e-05, -8.14825689e-05,
          -1.39485011e-04, -2.15625347e-04, -7.48092352e-05,
          1.08492146e-04, -5.32773811e-05, -1.64701007e-04,
          -1.52510809e-04, -6.79769000e-05, 2.16105709e-05,
          3.39781800e-05, 2.02146548e-05, 2.03936161e-05, 2.03474083e-05,
          1.72148175e-05, 1.41398514e-05, 1.04677492e-05,
          -7.84586609e-06, -4.67311838e-05, -7.34414061e-05,
          -8.50719880e-05, -1.00677440e-04, -1.16830328e-04,
          -1.11451256e-04, -1.26897692e-04, -1.25030361e-04,
          -1.17509408e-04, -9.08463262e-05, -8.30088902e-05,
          -7.20097014e-05, -7.90494159e-05, -8.50441138e-05,
          -8.26125834e-05, -1.26690080e-04, -2.28083823e-04,
          -7.43736018e-05, 1.31467546e-04, -4.30559085e-05,
          -1.75792666e-04, -1.53617584e-04, -6.95714480e-05,
          2.53235739e-05, 2.65283179e-05, 1.45814438e-05, 1.36614644e-05,
          1.07612314e-05, 6.80452104e-06, 3.02762783e-06,
          -4.99094813e-06, -2.90606185e-05, -6.72250753e-05,
          -8.79057625e-05, -1.10874469e-04, -1.17068281e-04,
          -1.25283623e-04, -1.22615180e-04, -1.33285415e-04,
          -1.27750929e-04, -1.16832955e-04, -1.00816309e-04,
          -9.67629603e-05, -7.34717105e-05, -8.34278835e-05,
          -7.77511887e-05, -8.45851391e-05, -9.87645108e-05,
          -1.97370813e-04, -6.53341995e-05, 1.56453563e-04,
          -5.71324745e-05, -1.71156149e-04, -1.01140919e-04,
          -8.55900453e-06, 3.14624049e-05, 2.25541189e-05,
          1.10070714e-05, 1.89255061e-05, 1.29844257e-05, 4.11247072e-07,
          -2.62464846e-06, -9.26488065e-06, -4.25395629e-05,
          -8.60923610e-05, -1.06125706e-04, -1.30466040e-04,
          -1.34867267e-04, -1.42188481e-04, -1.51664251e-04,
          -1.45812679e-04, -1.43963785e-04, -1.29000284e-04,
          -1.26071056e-04, -1.10941546e-04, -8.72853416e-05,
          -8.98938088e-05, -7.89266342e-05, -8.65084949e-05,
          -1.03000442e-04, -1.90660561e-04, -5.81486529e-05,
          1.78833958e-04, -2.50352041e-05, -8.90101946e-05,
          -1.71048068e-05, 3.51640738e-05, 2.90807002e-05,
          1.96952606e-05, 5.23861127e-06, 1.36983181e-05, 1.20343866e-05,
          1.00890918e-06, -1.73864385e-06, -5.92897914e-06,
          -5.70099910e-05, -1.06850115e-04, -1.30244312e-04,
          -1.29004242e-04, -1.39063486e-04, -1.51846369e-04,
          -1.62094904e-04, -1.55155707e-04, -1.55037167e-04,
          -1.43387559e-04, -1.46545819e-04, -1.22540077e-04,
          -1.08385117e-04, -9.24418928e-05, -8.41962174e-05,
          -8.77826242e-05, -1.08832683e-04, -2.05301651e-04,
          -5.02624534e-05, 1.88110149e-04, 2.86195700e-05,
          -2.10833277e-05, 8.20094465e-06, 1.32051737e-05,
          7.62407262e-06, 1.58380535e-05, 1.22280271e-05, 1.31470406e-05,
          1.53429355e-05, 7.71191117e-06, 3.75053673e-06,
          -8.59304419e-06, -5.94868798e-05, -1.09304652e-04,
          -1.33587091e-04, -1.42028890e-04, -1.47752347e-04,
          -1.59718358e-04, -1.55531496e-04, -1.57438888e-04,
          -1.57064162e-04, -1.58851675e-04, -1.54196896e-04,
          -1.44180915e-04, -1.38892647e-04, -1.07234868e-04,
          -9.24935157e-05, -8.46871626e-05, -1.07665153e-04,
          -2.15682187e-04, -3.29746363e-05, 1.84199045e-04,
          5.21720685e-05, -5.39590974e-06, -2.79395113e-06,
          -1.96580368e-05, -2.00763443e-05, -7.27288443e-06,
          -5.34259516e-06, 3.73424655e-06, 1.79582366e-05,
          1.95556040e-05, 9.32279909e-06, -5.67118150e-06,
          -5.12726074e-05, -9.66705848e-05, -1.25373874e-04,
          -1.61056130e-04, -1.67157443e-04, -1.70228217e-04,
          -1.63671750e-04, -1.54893787e-04, -1.53682908e-04,
          -1.61686054e-04, -1.57348506e-04, -1.64614306e-04,
          -1.59899675e-04, -1.22908459e-04, -9.77747040e-05,
          -1.01647987e-04, -1.15339149e-04, -2.07710706e-04,
          -3.11267213e-05, 1.89292856e-04, 6.44357715e-05,
          -4.57665556e-06, -5.31817977e-06, -2.16775661e-05,
          -3.45170047e-05, -2.91955021e-05, -1.80987427e-05,
          -1.47505643e-05, 4.56385260e-06, 1.65316014e-05,
          1.26343057e-05, -3.21560265e-07, -4.77083522e-05,
          -9.76607844e-05, -1.32035377e-04, -1.45989543e-04,
          -1.64723664e-04, -1.65216756e-04, -1.73779015e-04,
          -1.39649230e-04, -1.41328681e-04, -1.36844625e-04,
          -1.49228887e-04, -1.64727157e-04, -1.61879449e-04,
          -1.23284524e-04, -1.00702535e-04, -1.24505154e-04,
          -1.41956043e-04, -2.33851315e-04, -5.06116958e-05,
          1.84268079e-04, 6.57117853e-05, -4.14813741e-07,
          -6.54794940e-06, -2.16104781e-05, -3.80251440e-05,
          -2.61492150e-05, -2.21443388e-05, -2.63958573e-05,
          -2.53661638e-05, -1.36186381e-05, 8.93448305e-06,
          5.94438006e-06, -4.46984923e-05, -1.03532970e-04,
          -1.26276078e-04, -1.40374250e-04, -1.50663182e-04,
          -1.60580588e-04, -1.54726789e-04, -1.50362408e-04,
          -1.46446051e-04, -1.54828595e-04, -1.63454461e-04,
          -1.72672764e-04, -1.72597604e-04, -1.50874563e-04,
          -1.26814717e-04, -1.30060565e-04, -1.43914498e-04,
          -2.47975287e-04, -5.92905380e-05, 1.73821623e-04,
          5.26979020e-05, -1.47601850e-05, -2.70858163e-05,
          -3.91115718e-05, -4.56365342e-05, -3.68433757e-05,
          -3.49554975e-05, -2.51256843e-05, -2.78910011e-05,
          -9.23126936e-06, 1.07035266e-05, 1.19313127e-05,
          -2.94730780e-05, -8.66543487e-05, -1.19087243e-04,
          -1.38175470e-04, -1.37730298e-04, -1.34710004e-04,
          -1.41497279e-04, -1.52399647e-04, -1.52723544e-04,
          -1.79864495e-04, -1.86768244e-04, -1.90257852e-04,
          -1.78009563e-04, -1.62696830e-04, -1.56769252e-04,
          -1.62083306e-04, -1.45343874e-04, -2.41861999e-04,
          -9.03321052e-05, 1.50167354e-04, 2.02499541e-05,
          -4.32031957e-05, -3.68580768e-05, -4.12251684e-05,
          -4.83493495e-05, -4.42578275e-05, -3.49595575e-05,
          -3.75036179e-05, -3.11427211e-05, -2.87514158e-05,
          -1.63763616e-05, -8.76275317e-06, -2.80573367e-05,
          -7.57950038e-05, -8.98450526e-05, -1.15157425e-04,
          -1.37242881e-04, -1.35921655e-04, -1.54706417e-04,
          -1.64615951e-04, -1.63820732e-04, -1.71972439e-04,
          -1.74167420e-04, -1.75604931e-04, -1.77833717e-04,
          -1.70266212e-04, -3.55757984e-05, 1.20477889e-05,
          -8.85473492e-05, -1.86351172e-04, -4.46348022e-05,
          1.35852431e-04, 2.32451544e-06, -6.97673677e-05,
          -5.10072205e-05, -4.41970587e-05, -5.42665621e-05,
          -5.02942603e-05, -4.48579121e-05, -4.69470178e-05,
          -3.72216491e-05, -4.79172522e-05, -4.41605152e-05,
          -2.36732703e-05, -5.87210852e-05, -7.73106294e-05,
          -6.44699248e-05, -9.08957445e-05, -1.16702453e-04,
          -1.14019094e-04, -1.14481678e-04, -1.13621652e-04,
          -1.34131085e-04, -1.40130258e-04, -1.54426933e-04,
          -1.54598209e-04, -1.34256246e-04, 4.59355288e-05,
          1.30896500e-04, 1.16702351e-04, -2.84371181e-05,
          -1.38168092e-04, -2.74943941e-05, 1.47246727e-04,
          9.53952804e-06, -8.28101329e-05, -6.96228090e-05,
          -6.35182587e-05, -6.60142687e-05, -5.44240829e-05,
          -5.97671678e-05, -5.46389056e-05, -5.57254680e-05,
          -5.22345326e-05, -4.66885831e-05, -3.10632386e-05,
          -1.24365295e-04, -1.08400738e-04, -5.57324638e-05,
          -6.48838832e-05, -8.85901900e-05, -9.87298699e-05,
          -9.76693918e-05, -9.43358609e-05, -1.21643599e-04,
          -1.41293058e-04, -1.27411913e-04, -1.10706151e-05,
          -1.43097577e-05, 2.09385125e-05, 6.35846591e-05,
          3.88811859e-05, -8.12984581e-05, -1.67319013e-04,
          2.20520960e-05, 1.49326777e-04, 1.84355554e-06,
          -9.59230019e-05, -9.04792323e-05, -8.01144779e-05,
          -7.02004181e-05, -5.56727537e-05, -5.84251356e-05,
          -5.99688792e-05, -6.54630421e-05, -5.93334989e-05,
          -5.53331920e-05, -3.39280741e-05, -9.66681837e-05,
          -6.86879575e-05, -4.78372531e-05, -6.44765241e-05,
          -6.33060554e-05, -7.72575586e-05, -8.83221801e-05,
          -1.04118408e-04, -1.20698329e-04, -1.21879253e-04,
          -4.39696996e-05, 6.46992485e-05, 1.39130962e-05,
          -1.36126282e-05, -2.97349143e-05, -5.52707024e-05,
          -8.38369233e-05, -9.36035067e-05, 8.45700051e-05,
          1.40942808e-04, -1.41185346e-05, -1.10511312e-04,
          -1.09249471e-04, -9.73341521e-05, -6.94269620e-05,
          -6.13969751e-05, -5.98659826e-05, -5.87759569e-05,
          -6.49069043e-05, -6.41970692e-05, -6.00891690e-05,
          -4.62097341e-05, -6.00365420e-05, -5.66561284e-05,
          -7.19757882e-05, -8.10985584e-05, -8.42542358e-05,
          -8.52937665e-05, -7.52234846e-05, -9.03711334e-05,
          -1.09317472e-04, -1.20128097e-04, -8.23676601e-05,
          1.03325401e-05, 5.21164657e-05, -8.94221557e-06,
          -5.24898060e-05, -3.74002702e-05, 2.54830084e-05,
          -5.25217320e-06, 1.22532729e-04, 1.46170380e-04,
          -7.57877160e-06, -9.85783045e-05, -1.23249993e-04,
          -1.08953733e-04, -6.20251885e-05, -6.41549195e-05,
          -7.15082642e-05, -7.90970735e-05, -8.39397471e-05,
          -7.41987533e-05, -6.05535715e-05, -5.05159769e-05,
          -5.23651215e-05, -7.43078926e-05, -1.06709442e-04,
          -1.16786403e-04, -1.04237319e-04, -7.52079941e-05,
          -5.39296780e-05, -6.38978017e-05, -7.93866493e-05,
          -5.58835854e-05, -6.87598658e-05, -4.27458217e-05,
          -6.59371381e-07, -2.65766739e-05, 3.17135518e-09,
          1.55628895e-05, 4.43435674e-05, -1.32891164e-05,
          1.11088033e-04, 1.28823740e-04, -1.82816857e-05,
          -1.12451729e-04, -1.28437692e-04, -1.07748834e-04,
          -5.30626639e-05, -4.95664826e-05, -8.39031272e-05,
          -8.36650797e-05, -9.28027584e-05, -8.59335560e-05,
          -6.84541228e-05, -4.95709792e-05, -6.26641267e-05,
          -1.13813687e-04, -1.37546056e-04, -1.33109497e-04,
          -9.18794540e-05, -5.88637886e-05, -5.43710812e-05,
          -6.99138400e-05, -6.23603046e-05, -5.92027973e-05,
          -6.08682021e-05, -3.99774362e-05, -1.38125615e-05,
          -1.83042339e-05, -3.88923036e-06, -9.90759077e-07,
          9.40998859e-07, -3.80136735e-05, 9.63170096e-05,
          1.51095781e-04, -9.17305078e-06, -1.33441441e-04,
          -1.26092258e-04, -1.14000177e-04, -4.86184508e-05,
          -3.63151412e-05, -7.18327719e-05, -9.21798928e-05,
          -8.96496931e-05, -7.83673386e-05, -6.98470394e-05,
          -6.85598352e-05, -9.86587984e-05, -1.32252957e-04,
          -1.31437831e-04, -9.91986017e-05, -5.18576016e-05,
          -3.45823973e-05, -1.36277849e-05, -6.83357357e-05,
          -7.89788755e-05, -8.33461600e-05, -7.12902693e-05,
          -5.23649105e-05, -4.54459114e-05, -5.32462254e-05,
          -3.73964103e-05, -2.37306085e-05, -3.35752484e-05,
          -8.27645854e-05, 7.55101719e-05, 1.22559766e-04,
          -4.15128197e-05, -1.11989561e-04, -1.30685206e-04,
          -1.21337478e-04, -5.68179603e-05, -2.68515050e-05,
          -8.02543582e-05, -9.03101245e-05, -8.16276588e-05,
          -7.64050856e-05, -6.31065777e-05, -6.53185707e-05,
          -9.75035146e-05, -1.10320325e-04, -1.00792538e-04,
          -4.70183004e-05, -5.25518044e-05, -2.91550059e-05,
          -3.59124970e-05, -8.66940682e-05, -7.46429068e-05,
          -6.21263389e-05, -6.64089312e-05, -6.34049356e-05,
          -6.03072804e-05, -6.44038373e-05, -6.12192453e-05,
          -5.28586424e-05, -2.25728718e-06, -5.39940702e-05,
          8.59193970e-05, 1.22058424e-04, -4.74563858e-05,
          -1.12109679e-04, -1.33475085e-04, -1.36575240e-04,
          -7.28347877e-05, -3.17387421e-05, -5.80637607e-05,
          -8.28888296e-05, -9.21466490e-05, -9.21603496e-05,
          -8.96996062e-05, -9.69095854e-05, -9.31251925e-05,
          -7.94765292e-05, -6.95306808e-05, -5.58157772e-05,
          -2.84596172e-05, -5.90468953e-05, -7.57682792e-05,
          -9.06698187e-05, -7.22260738e-05, -5.85744310e-05,
          -5.67149036e-05, -5.57956555e-05, -6.99939701e-05,
          -6.35115430e-05, -6.01071370e-05, -3.72006798e-05,
          -6.60858348e-07, -2.94916281e-05, 8.01183414e-05,
          1.07970285e-04, -5.64822767e-05, -1.39189258e-04,
          -1.45438578e-04, -1.24539423e-04, -8.67580238e-05,
          -3.23953755e-05, -3.23562344e-05, -5.39977300e-05,
          -9.13535041e-05, -1.05631414e-04, -9.42715778e-05,
          -8.91273303e-05, -6.04775087e-05, -5.60466469e-05,
          -7.52709311e-05, -5.30708494e-05, -5.20122157e-05,
          -8.59784122e-05, -1.13120099e-04, -7.74803921e-05,
          -6.39538266e-05, -6.63913524e-05, -7.12255787e-05,
          -6.69956644e-05, -6.26179899e-05, -6.60849619e-05,
          -7.96403838e-05, -7.02657999e-05, -3.87930486e-05,
          -6.49172871e-05, 1.08466593e-04, 9.38219891e-05,
          -8.32419246e-05, -1.52154171e-04, -1.33955720e-04,
          -8.75992482e-05, -8.93289325e-05, -4.09528948e-05,
          -6.45342880e-06, -3.15998368e-05, -7.09375163e-05,
          -7.99678819e-05, -2.02705196e-05, -5.47405261e-06,
          -1.22387091e-05, -1.34777156e-05, -2.74424656e-05,
          -1.54946192e-05, -1.40519455e-06, -3.80262718e-05,
          -1.58672538e-05, -2.38972043e-05, -1.12911594e-05,
          4.87556235e-06, 1.05035963e-06, 1.54783029e-05, 9.47827721e-06,
          4.87392244e-05, 4.70698033e-05, 4.86283243e-05, 8.22540896e-05,
          6.43895983e-05, 4.97270848e-05, 9.23151238e-05, 1.08969498e-05,
          -2.15427135e-05, -7.14726457e-06, -2.21319146e-06,
          3.30282019e-05, 6.73039613e-05, 1.05153638e-04, 1.08573804e-04,
          7.86295859e-05, 7.86429155e-05, 1.04399878e-04, 8.38587075e-05,
          7.42315024e-05, 9.56969598e-05, 8.49912176e-05, 9.73297938e-05,
          1.06346575e-04, 8.64392641e-05, 7.21601755e-05, 7.54948196e-05,
          6.69865985e-05, 5.50627410e-05, 6.27948466e-05, 8.01516435e-05,
          4.49134095e-05, 3.99509154e-05, 3.31047409e-06,
          -2.48566394e-05, -2.27590936e-05, -4.00402605e-05,
          1.66964201e-05, 1.53276051e-04, 4.32260640e-05,
          -3.56227574e-05, -3.65415940e-06, 5.10744030e-05,
          8.32358783e-05, 1.01412676e-04, 1.11041867e-04, 1.33589056e-04,
          1.30836081e-04, 1.39031021e-04, 9.58470773e-05, 3.51179769e-05,
          2.45101855e-05, 1.98122871e-05, 3.20818435e-05, 2.56630337e-05,
          1.63756849e-05, 1.81190517e-05, 1.62542674e-05, 2.17058860e-05,
          1.65430592e-05, 1.11101454e-05, 3.27880662e-05, 3.48069225e-05,
          2.83753634e-05, 1.79001599e-05, -2.50697831e-05,
          -2.40428813e-06, 5.99498453e-05, 6.47871493e-05,
          5.23104827e-05 ]
      - [ 4.85666940e-04, 1.26407860e-04, 5.04126692e-05, 1.93484047e-05,
          8.64290723e-06, 6.42168161e-05, 2.85517235e-05, 4.82813666e-05,
          5.77210267e-05, 6.17414771e-05, 6.73633840e-05, 5.93483237e-05,
          5.36761763e-05, 4.31291992e-05, 2.48244451e-05, 2.13240437e-05,
          -2.36473061e-05, 3.29667841e-06, 3.02479093e-05,
          5.77015744e-05, 7.57466696e-05, 8.16691536e-05, 9.70637411e-05,
          7.81248091e-05, 9.44058629e-05, 1.31886613e-04, 1.07947060e-04,
          9.90414701e-05, 8.86438283e-05, 7.17021612e-05, 9.64988722e-05,
          1.62543380e-04, 3.43429216e-04, 1.09488610e-04, 7.10301538e-05,
          6.98523654e-05, 2.84847720e-05, 5.55609113e-05, 5.34473002e-05,
          7.28104278e-05, 4.70533851e-05, 4.05297324e-05, 4.20212309e-05,
          4.92283798e-05, 5.91049393e-05, 7.29639360e-05, 6.17893820e-05,
          5.57611493e-05, 5.54964608e-05, 5.16357541e-05, 4.57308197e-05,
          4.75260094e-05, 5.75745689e-05, 9.40417303e-05, 1.16124225e-04,
          1.14981412e-04, 9.97425450e-05, 1.12840229e-04, 8.14337327e-05,
          8.06154931e-05, 1.08342152e-04, 1.19587588e-04, 1.07894928e-04,
          1.56708353e-04, 2.62421963e-04, 3.90723762e-05, 2.13335043e-05,
          8.92696917e-05, 6.75843912e-05, 6.95387935e-05, 6.79774894e-05,
          3.75074997e-05, 3.66780696e-05, 2.40920690e-05, 1.88914491e-05,
          1.28314869e-05, 1.02761278e-05, 1.64751364e-05, 7.97386519e-07,
          -2.96102343e-08, 1.41718747e-05, 1.47330311e-05,
          2.05904234e-05, 9.68119275e-06, 6.69176552e-06, 3.46286397e-05,
          6.98826334e-05, 9.80432960e-05, 9.22418476e-05, 1.10642002e-04,
          9.27262736e-05, 8.78577339e-05, 9.84658909e-05, 1.15178744e-04,
          1.06980980e-04, 1.61861390e-04, 2.24353847e-04,
          -2.68830499e-05, -9.34340187e-06, 9.14656921e-05,
          7.66502999e-05, 4.64212135e-05, 6.67416534e-05, 7.57673988e-05,
          9.32614712e-05, 7.66324083e-05, 6.74721159e-05, 5.55370789e-05,
          4.02338483e-05, 3.54869044e-05, 1.68705137e-05, 2.53151447e-05,
          3.54373219e-06, 1.27160856e-05, 3.18753155e-05, 4.48623359e-05,
          3.91749309e-05, 4.11524125e-05, 5.83839937e-05, 5.83798828e-05,
          6.50701986e-05, 1.04492945e-04, 1.00364676e-04, 7.82957504e-05,
          7.75638255e-05, 9.07238427e-05, 9.97076786e-05, 1.84118486e-04,
          1.67530729e-04, -5.73518446e-05, -3.00189804e-05,
          4.43305325e-05, 2.99228686e-05, 2.68859112e-05, 3.19989012e-05,
          4.78602124e-05, 5.27749944e-05, 3.06058500e-05, 1.68103215e-05,
          -5.91897515e-06, -1.62448796e-05, -1.97905301e-05,
          -3.30426665e-05, -2.49265449e-05, -2.24281139e-05,
          -2.69432148e-05, -3.07218725e-05, -1.67019480e-05,
          -1.14235600e-05, -3.40354177e-06, 1.19729584e-05,
          2.32073421e-06, 9.19182548e-06, 2.81016655e-05, 4.13572016e-05,
          4.10223620e-05, 4.60286647e-05, 6.29471979e-05, 8.30010322e-05,
          1.58990544e-04, 1.69094754e-04, -6.64420586e-05,
          -5.66951167e-05, -1.19085325e-05, 3.64360017e-06,
          3.44175169e-05, 2.06479526e-05, 1.26958666e-05, 1.91523905e-05,
          -2.52943437e-06, -1.44139613e-05, -4.29815736e-05,
          -5.37054148e-05, -6.18386621e-05, -6.63234314e-05,
          -5.68097348e-05, -4.43505996e-05, -4.84446064e-05,
          -4.89586673e-05, -5.39518478e-05, -5.06549695e-05,
          -3.12775264e-05, -1.25248362e-05, -1.95647954e-05,
          3.49847869e-06, 2.17828165e-05, 2.84801863e-05, 3.68398250e-05,
          4.10722569e-05, 3.77853903e-05, 4.31224398e-05, 1.29833890e-04,
          1.51617962e-04, -6.01455613e-05, -2.83276822e-05,
          -2.56046462e-07, -1.24951694e-05, 2.91243668e-06,
          1.37979059e-05, 2.42696115e-05, 8.68114148e-06,
          -2.01696116e-06, -1.62379529e-05, -2.96935486e-05,
          -4.44878278e-05, -6.50327274e-05, -6.60592195e-05,
          -5.46735173e-05, -6.86242129e-05, -5.67063289e-05,
          -5.68559517e-05, -6.28406924e-05, -6.97832293e-05,
          -3.83905208e-05, -1.41684477e-05, -2.02439969e-05,
          -2.32299408e-05, -2.06114328e-05, 3.62478499e-06,
          2.25912099e-05, 2.28115896e-05, 2.49310015e-05, 4.04754537e-05,
          1.38754869e-04, 1.31121589e-04, -9.16112404e-05,
          -6.40172511e-05, -2.06901514e-05, -1.96135334e-05,
          -1.54869231e-05, 5.41905774e-06, 1.33396943e-05,
          -1.42202516e-05, -1.86959769e-05, -3.21772022e-05,
          -3.89389425e-05, -5.16588298e-05, -6.44336542e-05,
          -7.74255677e-05, -7.95011074e-05, -6.87224092e-05,
          -8.51387449e-05, -1.06780768e-04, -7.87333338e-05,
          -7.42311531e-05, -4.47841703e-05, -1.31275692e-05,
          -2.06265031e-05, 6.21817480e-06, -1.40895336e-05,
          -4.17184012e-08, 1.79449835e-05, 1.95764169e-05,
          2.05720389e-05, 2.33722476e-05, 1.17054406e-04, 1.40583390e-04,
          -9.20305392e-05, -6.65105181e-05, -2.23279767e-05,
          -2.33888477e-05, 1.99117778e-07, -1.59605661e-05,
          -3.51870294e-05, -1.63899458e-05, -2.83054360e-05,
          -3.35963268e-05, -3.40454717e-05, -3.90850291e-05,
          -5.97690123e-05, -7.31443215e-05, -8.46538533e-05,
          -7.07643194e-05, -7.47169543e-05, -7.85231387e-05,
          -5.13975901e-05, -3.94265444e-05, -3.54779841e-05,
          -6.96043426e-05, -3.38107602e-05, -2.14106767e-05,
          -3.12106895e-05, -8.57098712e-06, -5.98797533e-06,
          7.22912273e-06, 2.18285186e-05, 1.49211883e-05, 1.05708335e-04,
          1.81737225e-04, -5.40170513e-05, -4.12583286e-05,
          -2.29661582e-05, -3.80055608e-05, -1.69040468e-05,
          -2.99713392e-05, -4.99519410e-05, -5.38753666e-05,
          -3.77035176e-05, -3.37470919e-05, -3.14016543e-05,
          -2.79202741e-05, -5.60058070e-05, -7.99404297e-05,
          -7.03515107e-05, -8.33380182e-05, -6.23289379e-05,
          -5.35391991e-05, -7.10429013e-05, -1.27550142e-04,
          -1.25006191e-04, -1.64267229e-04, -1.18057076e-04,
          -1.20747267e-04, -1.21017169e-04, -9.29913876e-05,
          -5.86826536e-05, -9.75879084e-06, 2.23829247e-05,
          1.97882746e-05, 1.19457240e-04, 1.61464413e-04,
          -4.02465630e-05, -3.86220272e-05, -4.53482789e-06,
          -2.07287158e-05, -4.09441100e-07, -1.05468655e-06,
          -3.47879613e-05, -6.27534246e-05, -4.43795070e-05,
          -5.85521339e-05, -5.52862875e-05, -2.89596719e-05,
          -4.49470172e-05, -7.95648666e-05, -6.14791861e-05,
          -9.43080449e-05, -9.47258959e-05, -1.13005226e-04,
          -1.54802517e-04, -1.79952985e-04, -1.67549952e-04,
          -1.81770389e-04, -1.46793696e-04, -1.61635893e-04,
          -1.55439891e-04, -1.65006248e-04, -1.43360608e-04,
          -1.09811393e-04, -7.07987419e-05, -2.93494686e-05,
          1.26940678e-04, 1.61063144e-04, -4.26934312e-05,
          -4.76925889e-05, 1.92621269e-06, -1.08439308e-05,
          -1.39650483e-05, -1.53165493e-05, -5.61349516e-05,
          -4.33708810e-05, -5.29903591e-05, -9.07737849e-05,
          -8.35650135e-05, -3.36522135e-05, -2.78415409e-05,
          -6.54006290e-05, -6.15331519e-05, -9.43525447e-05,
          -1.46263963e-04, -1.94252018e-04, -2.12727944e-04,
          -1.89576109e-04, -1.72727130e-04, -1.82302800e-04,
          -1.53495203e-04, -1.69488427e-04, -1.44902879e-04,
          -1.48948646e-04, -1.43119047e-04, -1.20271128e-04,
          -1.10644345e-04, -8.30471254e-05, 6.62398088e-05,
          1.70496045e-04, -6.22075167e-05, -7.20137687e-05,
          -1.04627270e-05, -8.98975941e-06, -3.64786138e-05,
          -3.27889975e-05, -6.40128128e-05, -4.25449980e-05,
          -7.10822715e-05, -8.52756857e-05, -7.16676950e-05,
          -3.83709448e-05, -2.35191183e-05, -5.37036321e-05,
          -9.88702013e-05, -1.60574273e-04, -1.93648579e-04,
          -2.16897693e-04, -2.16691129e-04, -1.89795363e-04,
          -1.83078751e-04, -1.96179128e-04, -1.59129588e-04,
          -1.53519402e-04, -1.28931788e-04, -1.37196068e-04,
          -1.23311023e-04, -1.16830000e-04, -1.29976979e-04,
          -1.43825571e-04, -3.11423682e-05, 1.79373528e-04,
          -6.62574967e-05, -6.35054239e-05, -2.01414878e-06,
          4.56353428e-06, -2.61471141e-05, -3.79034936e-05,
          -5.49953002e-05, -4.69362276e-05, -7.87910758e-05,
          -6.87119464e-05, -6.89284352e-05, -6.28480702e-05,
          -3.27508242e-05, -6.10385032e-05, -1.44765276e-04,
          -1.94667737e-04, -2.02820127e-04, -2.07113917e-04,
          -2.18606889e-04, -1.82489035e-04, -1.62893513e-04,
          -1.79964089e-04, -1.49735235e-04, -1.13961942e-04,
          -1.02293423e-04, -1.14845403e-04, -1.17046882e-04,
          -1.18350326e-04, -1.24421800e-04, -1.04053004e-04,
          2.17379438e-05, 1.81887706e-04, -5.07668556e-05,
          -3.71799179e-05, 4.64289360e-06, -2.64164578e-06,
          -2.41325724e-05, -5.36112093e-05, -7.83610012e-05,
          -6.10663919e-05, -6.86970743e-05, -6.13884549e-05,
          -7.31492619e-05, -8.44555689e-05, -3.90946770e-05,
          -9.34923228e-05, -1.81742580e-04, -1.74577304e-04,
          -1.98174428e-04, -2.16937697e-04, -2.19258174e-04,
          -1.59129020e-04, -1.41906406e-04, -1.59350675e-04,
          -1.37180512e-04, -1.40052929e-04, -1.15746363e-04,
          -1.25683451e-04, -1.18146025e-04, -1.29014807e-04,
          -1.27811640e-04, -9.42460829e-05, 2.35113021e-05,
          1.42960242e-04, -7.15652568e-05, -3.69775335e-05,
          -2.51397614e-05, -3.80202800e-05, -2.51751990e-05,
          -4.04857783e-05, -5.57220628e-05, -7.19077143e-05,
          -5.90174932e-05, -6.71320449e-05, -7.19613236e-05,
          -7.87320896e-05, -4.65654848e-05, -1.21620091e-04,
          -1.92186722e-04, -2.13331194e-04, -2.34326508e-04,
          -2.57470965e-04, -2.07802936e-04, -1.41524069e-04,
          -1.35274808e-04, -1.42418838e-04, -1.07620428e-04,
          -9.38992307e-05, -9.64965438e-05, -1.24606900e-04,
          -1.19215096e-04, -1.42843841e-04, -1.48939173e-04,
          -1.21675876e-04, -1.32078258e-05, 1.41703757e-04,
          -8.87966453e-05, -4.65901066e-05, -4.65478297e-06,
          -3.27472881e-05, -3.03252891e-05, -3.02014159e-05,
          -4.82349024e-05, -7.21105826e-05, -7.18709780e-05,
          -7.77631940e-05, -7.05933999e-05, -8.92838361e-05,
          -9.33918054e-05, -1.77183654e-04, -1.98430876e-04,
          -2.07866819e-04, -2.02249343e-04, -2.47512566e-04,
          -1.63794699e-04, -1.56297974e-04, -1.42371078e-04,
          -1.01158024e-04, -8.36207983e-05, -1.16800467e-04,
          -1.17641968e-04, -1.39186363e-04, -1.43811165e-04,
          -1.49826199e-04, -1.95142362e-04, -2.11644117e-04,
          -4.78246729e-05, 1.34642352e-04, -1.08475033e-04,
          -6.45574255e-05, -2.27632245e-05, -4.81168936e-05,
          -4.37429808e-05, -3.66775348e-05, -4.18006821e-05,
          -7.14226553e-05, -6.87552601e-05, -7.59625545e-05,
          -7.25966092e-05, -7.87658064e-05, -1.21022924e-04,
          -1.94654698e-04, -1.98001842e-04, -2.05733610e-04,
          -2.12431434e-04, -2.05953445e-04, -1.26665123e-04,
          -1.21910081e-04, -1.00716446e-04, -1.01191530e-04,
          -9.14532066e-05, -1.20705561e-04, -1.28096653e-04,
          -1.60720068e-04, -1.94867287e-04, -2.10986997e-04,
          -2.15357606e-04, -2.49973469e-04, -1.11134759e-04,
          1.34603339e-04, -1.09015076e-04, -6.81630336e-05,
          -1.77532565e-05, -4.21338191e-05, -3.66566273e-05,
          -3.17776721e-05, -2.73320111e-05, -5.72981262e-05,
          -5.89428200e-05, -7.10897220e-05, -7.26141297e-05,
          -8.41995497e-05, -1.18273674e-04, -2.06642842e-04,
          -1.97557689e-04, -1.94204898e-04, -1.91583473e-04,
          -1.58288734e-04, -1.21502351e-04, -1.20385019e-04,
          -9.97026218e-05, -9.19636368e-05, -1.06043466e-04,
          -1.21077290e-04, -1.15740884e-04, -1.48564694e-04,
          -6.45107821e-06, 6.78677679e-05, -8.51714067e-05,
          -1.62275479e-04, -5.96424870e-05, 1.06478648e-04,
          -1.14776209e-04, -9.33751799e-05, -4.54116598e-05,
          -5.49150463e-05, -5.23060153e-05, -6.01629545e-05,
          -6.19413113e-05, -3.89000088e-05, -5.54295366e-05,
          -7.93824584e-05, -7.95445885e-05, -7.97974717e-05,
          -1.34232178e-04, -2.03844349e-04, -2.01664283e-04,
          -2.03117597e-04, -1.59240779e-04, -1.22740734e-04,
          -1.19212433e-04, -1.13962305e-04, -9.51320690e-05,
          -8.80073130e-05, -1.21630663e-04, -9.29395537e-05,
          -3.89095949e-05, 2.92370649e-04, 3.51142080e-04,
          2.49677279e-04, -6.95479002e-07, -1.12603870e-04,
          6.14584735e-07, 1.06369873e-04, -9.10504968e-05,
          -7.98108013e-05, -2.79013675e-05, -4.41399352e-05,
          -5.67928946e-05, -5.89746269e-05, -6.46398112e-05,
          -6.49432041e-05, -6.87096472e-05, -8.23283117e-05,
          -7.50660256e-05, -7.93177969e-05, -1.41412325e-04,
          -2.06745375e-04, -1.96251538e-04, -1.65380814e-04,
          -1.33637557e-04, -1.42418867e-04, -1.35726543e-04,
          -1.17250267e-04, -9.23512634e-05, -1.13565264e-04,
          -8.96235942e-05, 1.34750415e-04, 1.21589786e-04,
          2.20769347e-04, 2.57918815e-04, 1.00343794e-04,
          -1.14835741e-04, -1.98952461e-04, -3.39440194e-05,
          1.00657810e-04, -9.46338623e-05, -8.08060577e-05,
          -2.23664738e-05, -3.64170992e-05, -5.81515596e-05,
          -5.32874801e-05, -5.79883890e-05, -7.15133938e-05,
          -8.46230905e-05, -7.26885628e-05, -5.36895786e-05,
          -7.50698528e-05, -1.35264359e-04, -1.85307450e-04,
          -1.57293049e-04, -1.66967118e-04, -1.45960526e-04,
          -1.39844662e-04, -1.38251853e-04, -1.35130322e-04,
          -9.24718552e-05, -9.93825524e-05, 4.24137943e-05,
          2.26752978e-04, 1.55490357e-04, 9.83321224e-05, 2.16103745e-05,
          -8.28507691e-05, -1.81370240e-04, -2.17315202e-04,
          -9.16601275e-05, 1.05445033e-04, -9.34412674e-05,
          -9.23986299e-05, -1.97575682e-05, -3.51406597e-05,
          -6.27288464e-05, -6.24898385e-05, -5.12766746e-05,
          -6.55837648e-05, -7.45860161e-05, -6.10252901e-05,
          -4.20151373e-05, -6.07491966e-05, -1.07669599e-04,
          -1.26057857e-04, -1.40855976e-04, -1.52882960e-04,
          -1.64275203e-04, -1.60586555e-04, -1.40752207e-04,
          -1.24610524e-04, -7.45132493e-05, -8.81963715e-05,
          -1.33818567e-05, 6.07940092e-05, 1.28669461e-04,
          -2.04067528e-05, -1.38324220e-04, -1.91848187e-04,
          -2.51614081e-04, -2.68740550e-04, -1.27239648e-04,
          9.35795979e-05, -9.47181106e-05, -9.33766350e-05,
          -3.51281960e-05, -4.82286887e-05, -9.55711657e-05,
          -9.88128377e-05, -5.89983028e-05, -5.86173082e-05,
          -8.32820078e-05, -8.24824820e-05, -5.03033989e-05,
          -3.37252786e-05, -4.33317146e-05, -1.02183782e-04,
          -1.56499722e-04, -1.46658524e-04, -1.59798918e-04,
          -1.55239235e-04, -1.37255352e-04, -1.20771641e-04,
          -7.22172044e-05, -3.12296579e-05, -7.18404553e-05,
          -7.91101484e-05, -7.51375337e-05, -1.66469647e-04,
          -1.76093934e-04, -2.44660536e-04, -3.18819017e-04,
          -2.93502962e-04, -1.78449307e-04, 8.23561131e-05,
          -1.16523981e-04, -8.57710547e-05, -2.67983087e-05,
          -5.06667675e-05, -6.60978621e-05, -5.97254802e-05,
          -5.46828596e-05, -5.82449211e-05, -8.89095827e-05,
          -5.45705552e-05, 8.57773648e-06, 1.91956951e-05,
          7.70854058e-06, -9.26057255e-05, -1.48061270e-04,
          -1.17430522e-04, -1.34778733e-04, -1.38080912e-04,
          -1.12894566e-04, -1.12737449e-04, -8.58712883e-05,
          -5.88214680e-05, -9.08951697e-05, -1.12135320e-04,
          -1.63698380e-04, -1.80695395e-04, -2.04549928e-04,
          -2.97764287e-04, -3.21631145e-04, -3.39497259e-04,
          -2.12357598e-04, 8.98433136e-05, -1.22377649e-04,
          -1.14036076e-04, -4.10029679e-05, -5.09594720e-05,
          -5.86018214e-05, -6.84567785e-05, -9.02514003e-05,
          -8.75299011e-05, -5.28703458e-05, -1.24870357e-05,
          1.89099574e-05, 2.77680647e-05, 1.94633431e-05,
          -3.57021563e-05, -9.56478470e-05, -1.25517865e-04,
          -1.27042033e-04, -9.83498321e-05, -4.33465284e-05,
          -1.24585044e-04, -1.20415316e-04, -9.80673940e-05,
          -1.17457719e-04, -1.24379294e-04, -1.58400173e-04,
          -2.10685146e-04, -3.35512043e-04, -4.51285334e-04,
          -4.22326877e-04, -3.55742639e-04, -1.94026972e-04,
          1.12763038e-04, -1.09709828e-04, -9.81436242e-05,
          -2.94359143e-05, -4.37194685e-05, -5.97624130e-05,
          -6.19917409e-05, -7.74254295e-05, -4.38507850e-05,
          8.24439485e-06, -3.99730743e-06, 1.94088152e-05,
          2.33929022e-05, 2.07884041e-05, -9.07341837e-06,
          -8.00537746e-05, -1.27582112e-04, -1.25455612e-04,
          -9.08195289e-05, -6.89864028e-05, -1.58854862e-04,
          -1.35977010e-04, -1.00724166e-04, -1.28051921e-04,
          -1.40476666e-04, -1.84209828e-04, -2.44514667e-04,
          -3.40651604e-04, -4.26887098e-04, -4.19868535e-04,
          -3.91142268e-04, -2.34402658e-04, 1.16458934e-04,
          -1.24362909e-04, -9.96159724e-05, -3.12601769e-05,
          -5.13736995e-05, -6.02260916e-05, -2.92002715e-05,
          -1.56926035e-05, -9.18858586e-06, 4.91143783e-06,
          -6.76030913e-06, 1.13883589e-05, 2.90007665e-05,
          4.02320366e-05, 2.84031394e-05, -1.62040596e-05,
          -7.27299339e-05, -6.73254908e-05, -9.29217131e-05,
          -1.10000197e-04, -1.47202139e-04, -1.46332444e-04,
          -1.19789329e-04, -1.27343912e-04, -1.56615977e-04,
          -1.74951099e-04, -2.32016915e-04, -2.91016680e-04,
          -3.16571008e-04, -2.90736236e-04, -2.65273789e-04,
          -1.63250297e-04, 1.11697998e-04, -1.29279564e-04,
          -1.26882529e-04, -3.78472323e-05, -1.10656038e-05,
          -7.99903410e-06, 7.61893352e-06, -1.61152263e-06,
          1.19813540e-05, 4.74388207e-06, -7.97806297e-06,
          1.68254410e-05, 2.33763258e-05, 2.79344404e-05, 3.23977292e-05,
          1.93238193e-05, 2.54027100e-06, -3.52498319e-05,
          -9.07436697e-05, -1.23473757e-04, -1.19754404e-04,
          -1.43932688e-04, -1.26351471e-04, -1.18875454e-04,
          -1.51774715e-04, -1.66426107e-04, -2.03246324e-04,
          -2.43747621e-04, -2.81371234e-04, -2.86904658e-04,
          -2.55980500e-04, -1.23518563e-04, 4.89337763e-05,
          -1.50471984e-04, -1.12231195e-04, -5.56892292e-06,
          1.77986767e-05, 6.23877440e-06, 8.67377821e-06, 5.81511722e-06,
          1.55998368e-05, 2.92916593e-06, -8.54021982e-06,
          1.79856470e-05, 1.87800015e-05, 2.58041691e-05, 4.55974259e-05,
          3.69317131e-05, 5.44353643e-05, 3.17981685e-05,
          -2.91636261e-05, -2.70705059e-05, -5.76492275e-05,
          -8.30274876e-05, -8.01236456e-05, -7.74663422e-05,
          -7.58672395e-05, -1.20797311e-04, -1.04294362e-04,
          -9.96823801e-05, -1.38095726e-04, -1.86554083e-04,
          -1.41567682e-04, -8.08764235e-05, 2.94629590e-05,
          -6.83743710e-05, 2.08383153e-05, 1.01280057e-04,
          9.58033052e-05, 1.18696233e-04, 1.20976205e-04, 1.16368894e-04,
          1.37854819e-04, 1.23575432e-04, 1.33356050e-04, 1.28640619e-04,
          1.20988683e-04, 1.35079827e-04, 1.49369676e-04, 1.55255591e-04,
          1.63778677e-04, 1.75984198e-04, 1.41416545e-04, 1.22059624e-04,
          9.88213578e-05, 6.64559193e-05, 3.41719242e-05, 2.35509378e-05,
          -5.04689581e-07, -3.05273097e-05, -4.07601001e-05,
          -5.71582823e-05, -4.52776439e-05, -2.96452945e-05,
          1.22781230e-05, 1.62312263e-05, 2.20278642e-04, 1.18043812e-04,
          7.94535808e-05, 1.33969108e-04, 2.09124031e-04, 2.85588700e-04,
          2.93218211e-04, 2.63956375e-04, 2.85665097e-04, 2.81001296e-04,
          2.98559666e-04, 2.23803378e-04, 1.35827475e-04, 1.64483456e-04,
          1.35412425e-04, 1.55122922e-04, 1.55645073e-04, 1.78068643e-04,
          1.72004933e-04, 1.63410179e-04, 1.73546548e-04, 1.64518307e-04,
          1.62825963e-04, 1.62207551e-04, 1.24176688e-04, 7.54159119e-05,
          7.31418113e-05, 7.06192368e-05, 9.16758217e-05, 1.13138471e-04,
          1.47519400e-04, 1.10583554e-04 ]
      - [ 1.28567306e-04, 1.47923711e-05, -5.29945373e-06,
          1.51118629e-05, 2.53779635e-05, 3.17983067e-05, 3.62564460e-05,
          3.29786999e-05, 4.90738712e-05, 4.63728866e-05, 4.96048960e-05,
          5.35817708e-05, 3.80582387e-05, 3.00975207e-05, 2.13513795e-05,
          2.56175535e-05, 1.61113767e-05, 1.53816745e-05, 1.80977549e-05,
          1.34928487e-05, 1.64665980e-05, 2.32346283e-05, 2.18083824e-05,
          1.63258192e-05, 2.01852290e-05, 1.41821774e-05, 1.05303070e-05,
          1.61062871e-05, 1.42640929e-05, 1.92993739e-05, 3.70414236e-05,
          1.29883600e-04, 1.08594395e-04, 4.08111628e-05,
          -7.92146693e-06, 2.70563996e-05, 4.03617305e-05,
          5.73210818e-05, 5.14457897e-05, 5.41897534e-05, 5.05729768e-05,
          4.75245397e-05, 4.49053841e-05, 3.83356892e-05, 3.19661485e-05,
          3.43543943e-05, 3.09944699e-05, 2.66334700e-05, 2.41379148e-05,
          1.55025209e-05, 4.41976681e-06, 1.34136337e-06, 7.19662057e-06,
          1.23106392e-05, 1.10996725e-05, 5.70813427e-06, 4.83622625e-06,
          8.12139933e-06, 5.25887799e-06, 6.01119382e-06, 7.87290628e-06,
          2.74092163e-05, 2.29930702e-05, 8.88788636e-05, 9.31961258e-05,
          1.33345941e-06, -1.57885952e-05, 1.75768691e-05,
          2.50674511e-05, 4.40072763e-05, 4.27870036e-05, 3.75345153e-05,
          4.02295664e-05, 4.22152043e-05, 3.94806921e-05, 2.61887326e-05,
          2.28025401e-05, 2.23739644e-05, 1.57892518e-05, 4.47610091e-06,
          1.81724283e-06, -6.22502012e-06, -1.38512696e-05,
          -1.66068476e-05, -2.28531062e-05, -1.42580811e-05,
          1.07096511e-07, 9.78672506e-06, -3.69648978e-06,
          1.00254692e-05, 1.97265945e-05, 2.24085306e-05, 2.59711596e-05,
          3.78645491e-05, 4.31960107e-05, 8.54287719e-05, 1.05104431e-04,
          -2.20997881e-05, -2.53160924e-05, 3.12261045e-06,
          1.63115947e-05, 2.54607130e-05, 3.44403998e-05, 3.53024261e-05,
          3.02202479e-05, 3.12759948e-05, 3.16460173e-05, 2.09073696e-05,
          1.36771496e-05, 3.98078282e-06, -8.97791415e-06,
          -1.85020544e-05, -2.77050640e-05, -2.71056506e-05,
          -1.50399155e-05, -9.79073229e-06, -1.34502325e-05,
          -2.42793376e-05, -9.70554629e-06, 3.22260553e-06,
          8.22509719e-06, 3.07965965e-05, 2.45102401e-05, 1.82902768e-05,
          1.62801734e-05, -1.89571456e-05, -1.56292954e-05,
          3.87509936e-05, 1.13815709e-04, 1.17299196e-05,
          -1.69316445e-05, 8.35367064e-06, 2.23863608e-05,
          3.29398426e-05, 2.72618163e-05, 2.90043390e-05, 2.48111610e-05,
          1.90709397e-05, 1.44770720e-05, 2.14195779e-06,
          -1.33842123e-05, -2.23212537e-05, -3.21359657e-05,
          -3.73782386e-05, -3.36790872e-05, -2.77463769e-05,
          -2.44497023e-05, -2.26966094e-05, -2.88047031e-05,
          -3.17742051e-05, -2.85093774e-05, -3.18300044e-05,
          -1.61970966e-05, 1.54585155e-06, 2.66833922e-06,
          8.43488397e-06, -1.58702017e-06, -4.75867746e-05,
          -4.69995175e-05, 2.01854291e-05, 1.07957720e-04,
          7.43341252e-06, -3.94284943e-05, -1.00282450e-05,
          6.18595277e-06, 1.13675824e-05, 7.94513926e-06, 1.55276666e-05,
          1.42277013e-05, 9.66690732e-06, -5.70147392e-07,
          -2.01466046e-05, -4.21194163e-05, -4.87202160e-05,
          -5.43708484e-05, -4.89083359e-05, -3.81309037e-05,
          -2.90001426e-05, -2.44165003e-05, -3.08179733e-05,
          -3.88785047e-05, -4.48178398e-05, -4.87929901e-05,
          -5.71791024e-05, -4.66321399e-05, -3.80021957e-05,
          -2.83542104e-05, -2.04373246e-05, -2.25005679e-05,
          -6.58511563e-05, -6.77697244e-05, 1.70995372e-05,
          1.09088789e-04, 9.22615982e-07, -3.73715520e-05,
          -1.15223165e-05, 6.53558800e-06, 7.61492447e-06,
          8.99879069e-06, 7.53923905e-06, 2.93135372e-06, 1.29113607e-06,
          -1.02109234e-05, -2.83526115e-05, -4.56062917e-05,
          -5.20748399e-05, -5.23586532e-05, -3.85151943e-05,
          -3.78027144e-05, -3.89244451e-05, -3.64910920e-05,
          -3.58506040e-05, -4.44226425e-05, -4.60212068e-05,
          -5.36210900e-05, -6.25631437e-05, -6.41868028e-05,
          -7.12828187e-05, -5.70522607e-05, -3.97923686e-05,
          -4.35892034e-05, -7.91218336e-05, -6.61490703e-05,
          1.07703972e-05, 1.02986050e-04, -1.00009574e-05,
          -3.50003866e-05, -1.98103207e-05, -8.72638702e-06,
          9.20290131e-06, 7.73028933e-06, 6.97363521e-06, 2.69123052e-06,
          -8.23711252e-06, -2.21437513e-05, -3.91010799e-05,
          -5.08570483e-05, -6.08201917e-05, -5.59833097e-05,
          -3.92264774e-05, -3.97851873e-05, -4.63764045e-05,
          -4.44603647e-05, -4.53451357e-05, -4.23319398e-05,
          -4.22181365e-05, -4.75182678e-05, -5.90199779e-05,
          -6.39171049e-05, -7.13604386e-05, -7.38656963e-05,
          -6.32264710e-05, -6.40767248e-05, -9.35238786e-05,
          -7.76345842e-05, 1.91434106e-06, 9.53975541e-05,
          -1.99026144e-05, -6.75164338e-05, -3.24811190e-05,
          -5.52767187e-06, 9.83890095e-06, 6.46222043e-06,
          2.61872606e-06, -1.36011090e-06, -1.35345099e-05,
          -3.04955774e-05, -4.40798649e-05, -4.93843363e-05,
          -5.19089735e-05, -5.00007045e-05, -4.28807725e-05,
          -4.66066194e-05, -4.58107243e-05, -5.18616253e-05,
          -4.55300687e-05, -4.79729679e-05, -4.44408761e-05,
          -5.07618533e-05, -4.89865815e-05, -6.02689142e-05,
          -6.84435508e-05, -7.39008974e-05, -7.54968860e-05,
          -6.33492673e-05, -1.08685403e-04, -9.79620163e-05,
          -1.42743165e-05, 9.10027011e-05, -2.40180289e-05,
          -7.41361073e-05, -5.01511167e-05, -1.27571275e-05,
          7.70260704e-06, 2.33110336e-06, -3.43215652e-06,
          -1.12501839e-05, -2.73915593e-05, -3.86526335e-05,
          -4.57201932e-05, -5.22693044e-05, -4.65746853e-05,
          -4.77252943e-05, -4.08252163e-05, -4.84446900e-05,
          -4.90104430e-05, -5.42003145e-05, -5.10593018e-05,
          -5.79642474e-05, -5.82071043e-05, -5.44026188e-05,
          -4.38339412e-05, -5.54743492e-05, -6.22845182e-05,
          -6.89335357e-05, -8.01916249e-05, -7.07711370e-05,
          -1.07133528e-04, -1.09052206e-04, -2.30888818e-05,
          9.90164044e-05, -1.30338558e-05, -7.87062672e-05,
          -6.93276888e-05, -1.22887150e-05, 1.27154462e-05,
          7.13504460e-06, -2.83912027e-06, -1.87077712e-05,
          -3.59885307e-05, -4.88814694e-05, -5.21270813e-05,
          -5.62509704e-05, -4.14699862e-05, -4.17086594e-05,
          -4.07242878e-05, -4.66111633e-05, -5.14738167e-05,
          -5.38961467e-05, -5.06572214e-05, -5.04056843e-05,
          -5.65689261e-05, -5.74003825e-05, -5.61581728e-05,
          -6.07371512e-05, -6.20751598e-05, -6.37107150e-05,
          -7.49780666e-05, -7.33396519e-05, -1.12634552e-04,
          -1.20640638e-04, -2.09976224e-05, 9.70855835e-05,
          -1.48623767e-05, -9.16426434e-05, -8.79898507e-05,
          -1.20137083e-05, 1.45927288e-05, 4.30922228e-06,
          -4.68667531e-06, -1.80332754e-05, -4.45452315e-05,
          -5.62835703e-05, -5.79774533e-05, -5.37274718e-05,
          -4.23499550e-05, -4.74544722e-05, -5.49262222e-05,
          -6.17926926e-05, -6.16896941e-05, -5.73978432e-05,
          -5.55924271e-05, -5.10509635e-05, -5.63618414e-05,
          -5.69082586e-05, -6.10949282e-05, -5.82429093e-05,
          -5.54464859e-05, -5.53689533e-05, -6.10221941e-05,
          -7.31148684e-05, -1.18332675e-04, -1.31210050e-04,
          -3.87529617e-05, 9.89593827e-05, -1.67965172e-05,
          -9.69416215e-05, -9.65821164e-05, -1.02411796e-05,
          1.47009487e-05, 4.34443200e-06, -6.33444688e-06,
          -2.00823779e-05, -4.83055883e-05, -6.06310059e-05,
          -5.59096698e-05, -5.41579393e-05, -6.72244278e-05,
          -8.01559145e-05, -7.67421370e-05, -7.53757995e-05,
          -6.62563834e-05, -5.52017445e-05, -5.67518873e-05,
          -5.57878848e-05, -6.17376209e-05, -6.02405016e-05,
          -6.19650891e-05, -5.40567380e-05, -4.61050658e-05,
          -4.25471990e-05, -4.03117483e-05, -6.52343588e-05,
          -1.20637895e-04, -1.28432905e-04, -5.25816940e-05,
          1.16184703e-04, -8.06048592e-06, -9.04262342e-05,
          -8.99932638e-05, -5.31551268e-06, 1.57903833e-05,
          5.53686959e-06, -5.71075407e-06, -2.65562430e-05,
          -4.52802233e-05, -5.48260286e-05, -6.03960834e-05,
          -9.25112472e-05, -8.46534167e-05, -8.46120893e-05,
          -8.94727418e-05, -8.41358778e-05, -7.63416319e-05,
          -6.95193230e-05, -7.48684397e-05, -7.29142412e-05,
          -7.24957426e-05, -6.84820552e-05, -6.72192327e-05,
          -6.27382833e-05, -5.69229087e-05, -5.04457603e-05,
          -3.70898015e-05, -6.04409543e-05, -1.20210389e-04,
          -1.04090534e-04, -3.35650911e-05, 1.12280832e-04,
          -1.48264862e-05, -9.32662006e-05, -8.83725297e-05,
          -8.65576203e-06, 1.29480768e-05, 3.54224130e-06,
          -8.06620301e-06, -2.07996745e-05, -3.84582927e-05,
          -5.49514079e-05, -1.02401886e-04, -1.08099237e-04,
          -1.01276746e-04, -9.43678242e-05, -8.93131801e-05,
          -8.76273407e-05, -8.02006834e-05, -7.64236756e-05,
          -8.17865657e-05, -8.36835970e-05, -8.19245906e-05,
          -8.11578502e-05, -7.74995278e-05, -7.60642724e-05,
          -7.01372410e-05, -5.67854295e-05, -4.27513551e-05,
          -5.22560040e-05, -1.07108383e-04, -9.66870357e-05,
          -2.59194385e-05, 1.00908597e-04, -2.20861330e-05,
          -9.57305674e-05, -8.90330048e-05, -1.00123425e-05,
          1.37829866e-05, 8.85176178e-06, -1.05952083e-08,
          -1.03415778e-05, -3.44574946e-05, -8.88211362e-05,
          -1.09977867e-04, -1.17780088e-04, -1.05206986e-04,
          -9.90170447e-05, -9.22824911e-05, -9.06275527e-05,
          -8.08981495e-05, -7.57713278e-05, -7.76103916e-05,
          -8.20403075e-05, -8.30467907e-05, -8.75232581e-05,
          -8.46695984e-05, -9.09899463e-05, -8.22636212e-05,
          -6.13593220e-05, -5.34173560e-05, -5.47769450e-05,
          -8.62603192e-05, -9.53364215e-05, -1.75814457e-05,
          1.08216998e-04, -2.47872231e-05, -1.03695420e-04,
          -1.05930121e-04, -2.30918577e-05, -9.28289592e-06,
          -1.44093501e-05, -2.02620286e-05, -2.09077934e-05,
          -6.01539723e-05, -1.05755549e-04, -1.22808313e-04,
          -1.33852416e-04, -1.16577350e-04, -9.89862383e-05,
          -1.01094629e-04, -9.12482501e-05, -8.22384973e-05,
          -7.88071047e-05, -7.55335714e-05, -7.13991394e-05,
          -7.24040801e-05, -8.20029090e-05, -8.63566092e-05,
          -9.06258501e-05, -8.21473368e-05, -7.53310596e-05,
          -6.91106688e-05, -5.45132643e-05, -8.02262948e-05,
          -9.36380748e-05, -2.07768371e-05, 9.29189482e-05,
          -4.44611069e-05, -1.20579622e-04, -1.19438060e-04,
          -4.87065663e-05, -3.23774293e-05, -3.01050350e-05,
          -3.09756288e-05, -3.59669539e-05, -9.15200217e-05,
          -1.25342543e-04, -1.26251296e-04, -1.23373829e-04,
          -1.22905840e-04, -1.16246694e-04, -1.11479523e-04,
          -1.01816127e-04, -9.89868349e-05, -9.03069522e-05,
          -8.28091288e-05, -8.18705157e-05, -8.96336496e-05,
          -9.70306210e-05, -8.80584048e-05, -8.91624004e-05,
          -8.92920434e-05, -8.53217571e-05, -8.14788509e-05,
          -6.44984393e-05, -8.71555822e-05, -9.49805471e-05,
          -2.46325835e-05, 7.59322938e-05, -4.67278041e-05,
          -1.21924480e-04, -1.21928169e-04, -6.00356179e-05,
          -3.72164250e-05, -3.59298101e-05, -3.86393112e-05,
          -7.20282987e-05, -1.13724818e-04, -1.26755956e-04,
          -1.37807103e-04, -1.26193918e-04, -1.22618134e-04,
          -1.23811085e-04, -1.04533850e-04, -1.01214588e-04,
          -9.49168680e-05, -8.70050499e-05, -8.52374287e-05,
          -8.49266435e-05, -8.83715038e-05, -1.01599071e-04,
          -1.14334653e-04, -1.02815720e-04, -9.15644268e-05,
          -8.85131230e-05, -4.76984314e-05, -6.96529514e-06,
          -6.52836097e-05, -7.17947551e-05, -8.94305504e-06,
          6.92311078e-05, -5.25944852e-05, -1.30930595e-04,
          -1.26463507e-04, -6.70308000e-05, -2.98287814e-05,
          -2.66828283e-05, -3.73035691e-05, -8.55965991e-05,
          -1.27248320e-04, -1.31342604e-04, -1.38111980e-04,
          -1.33571491e-04, -1.30936853e-04, -1.17879405e-04,
          -1.04643172e-04, -9.64080027e-05, -9.04366898e-05,
          -8.40339417e-05, -8.15552849e-05, -8.29470300e-05,
          -9.13853728e-05, -1.01345475e-04, -1.12874412e-04,
          -1.00133439e-04, -7.17391376e-05, 1.18332846e-05,
          3.73083203e-05, 3.67618522e-05, -5.08608682e-05,
          -6.05521564e-05, -9.50618812e-07, 6.93541442e-05,
          -4.85825258e-05, -1.35044640e-04, -1.30648346e-04,
          -7.71101040e-05, -3.55607117e-05, -2.72753841e-05,
          -3.66614440e-05, -8.47714327e-05, -1.10123416e-04,
          -1.14516944e-04, -1.31174238e-04, -1.37419411e-04,
          -1.47893938e-04, -1.27973908e-04, -1.02334750e-04,
          -9.16700883e-05, -9.08981456e-05, -8.89017901e-05,
          -8.76683698e-05, -8.74487814e-05, -9.68090535e-05,
          -1.07249791e-04, -1.01465834e-04, -4.62632925e-05,
          -3.65685482e-05, -1.73818603e-06, 2.39292203e-05,
          3.38951759e-06, -8.48257114e-05, -8.44537935e-05,
          -1.75689024e-06, 7.07282088e-05, -5.11264516e-05,
          -1.33327718e-04, -1.27625884e-04, -7.89790065e-05,
          -4.68829385e-05, -3.94042181e-05, -4.11733126e-05,
          -7.58206006e-05, -9.30869064e-05, -8.35640749e-05,
          -9.62975391e-05, -1.31945344e-04, -1.48216277e-04,
          -1.37277064e-04, -1.04785206e-04, -9.21315077e-05,
          -9.10337985e-05, -9.03532200e-05, -8.97204227e-05,
          -9.06180940e-05, -9.71150585e-05, -1.01303929e-04,
          -7.12890469e-05, -2.47590815e-05, -2.32403891e-05,
          -2.33283117e-05, -2.24077558e-05, -3.92298061e-05,
          -1.11723057e-04, -1.00655860e-04, -4.92175877e-06,
          8.61060907e-05, -4.74518820e-05, -1.23315374e-04,
          -1.18471064e-04, -7.36024303e-05, -3.61881212e-05,
          -3.25669389e-05, -4.73924229e-05, -7.15026617e-05,
          -7.70408660e-05, -7.35035137e-05, -9.64545397e-05,
          -1.04763960e-04, -1.27054518e-04, -1.32975605e-04,
          -1.08370674e-04, -8.76678605e-05, -8.76958002e-05,
          -8.86756607e-05, -8.46794646e-05, -8.74875695e-05,
          -9.38415615e-05, -9.82513884e-05, -8.27258336e-05,
          -4.71469284e-05, -1.52583443e-05, -3.63079707e-05,
          -4.80219460e-05, -5.99142804e-05, -1.29803841e-04,
          -1.25630482e-04, -2.10791150e-05, 9.73984206e-05,
          -4.27549203e-05, -1.14361574e-04, -1.15314833e-04,
          -6.42462837e-05, -2.75147213e-05, -3.01968812e-05,
          -4.41314187e-05, -7.47378435e-05, -6.60268561e-05,
          -6.70866139e-05, -8.79377258e-05, -8.23226728e-05,
          -1.08094107e-04, -1.34271380e-04, -1.14611546e-04,
          -8.86435446e-05, -8.94735495e-05, -8.77677157e-05,
          -8.73289609e-05, -8.30343124e-05, -8.65883558e-05,
          -7.87631216e-05, -8.69573123e-05, -7.76666566e-05,
          -6.80410012e-05, -7.09787346e-05, -5.27732736e-05,
          -6.93152178e-05, -1.37410607e-04, -1.25043793e-04,
          -3.15289071e-05, 1.05248822e-04, -3.70845300e-05,
          -1.07357147e-04, -9.84336148e-05, -4.68794169e-05,
          -1.24253575e-05, -6.60904743e-06, -3.67106004e-05,
          -7.11685279e-05, -6.66481646e-05, -7.25683713e-05,
          -8.55972758e-05, -7.95044398e-05, -7.75040389e-05,
          -7.80868650e-05, -7.19579039e-05, -5.26791300e-05,
          -6.37302801e-05, -7.26206417e-05, -7.09271262e-05,
          -7.89958431e-05, -7.45907309e-05, -7.65551158e-05,
          -9.09916998e-05, -8.38261112e-05, -8.24650197e-05,
          -7.22952464e-05, -6.14337041e-05, -7.61897463e-05,
          -1.48837862e-04, -1.32741552e-04, -3.36595222e-05,
          1.23052159e-04, 3.81054157e-08, -8.16994871e-05,
          -7.49665924e-05, -4.73411310e-05, -8.43197358e-06,
          -5.69503891e-06, -5.06073193e-05, -7.88063189e-05,
          -8.14606537e-05, -7.79150869e-05, -6.15167519e-05,
          -5.38621025e-05, -5.32330341e-05, -6.24169406e-05,
          -5.38867753e-05, -5.56892483e-05, -5.62573405e-05,
          -5.67053285e-05, -4.53034845e-05, -7.26967410e-05,
          -8.59241845e-05, -9.18300066e-05, -9.70238762e-05,
          -1.05827836e-04, -8.85062036e-05, -6.08180271e-05,
          -6.52237504e-05, -8.90182928e-05, -1.61287011e-04,
          -1.43391153e-04, -4.02015758e-05, 1.15707095e-04,
          4.52678796e-06, -3.99419587e-05, -5.00294482e-05,
          -3.57578101e-05, -1.96497858e-05, -1.80360366e-05,
          -6.45480541e-05, -7.91756829e-05, -8.09107732e-05,
          -7.53615896e-05, -4.68599574e-05, -6.61667000e-05,
          -6.94002010e-05, -6.24666936e-05, -4.84283628e-05,
          -3.83259030e-05, -5.39882640e-05, -4.77694048e-05,
          -5.95165729e-05, -9.16395220e-05, -9.77423770e-05,
          -9.11864263e-05, -1.02682017e-04, -1.10053414e-04,
          -9.13625190e-05, -6.22695225e-05, -8.61964800e-05,
          -1.16944510e-04, -1.64243378e-04, -1.56977607e-04,
          -4.05404717e-05, 1.16392803e-04, -1.24976314e-05,
          -3.46738489e-05, -3.79952980e-05, -3.30601215e-05,
          -1.56484948e-05, -2.41134676e-05, -6.08466908e-05,
          -8.85793415e-05, -9.47483568e-05, -7.76071756e-05,
          -8.56632832e-05, -8.97308564e-05, -7.89964324e-05,
          -7.36479851e-05, -6.25881294e-05, -4.14065726e-05,
          -2.63093079e-05, -5.27174925e-05, -7.14500857e-05,
          -9.74826471e-05, -9.94336006e-05, -8.95808771e-05,
          -9.69950779e-05, -1.04233761e-04, -7.67427337e-05,
          -6.22960288e-05, -8.60116343e-05, -1.14297116e-04,
          -1.83657365e-04, -1.34103015e-04, -2.66084426e-05,
