%YAML:1.0
---
opencv_ml_svm:
   format: 3
   svmType: C_SVC
   kernel:
      type: LINEAR
   C: 1.0000000000000001e-01
   term_criteria: { iterations:1000 }
   var_count: 576
   class_count: 6
   class_labels: !!opencv-matrix
      rows: 6
      cols: 1
      dt: i
      data: [ 0, 2, 3, 4, 5, 8 ]
   sv_total: 15
   support_vectors:
      - [ -3.46140514e-05, -2.72987763e-05, 1.60180070e-06,
          5.07849181e-05, 5.95694328e-05, 4.29768443e-05, 3.88783119e-05,
          -1.72974990e-06, 7.25902009e-06, 3.91497952e-06,
          -1.61913033e-06, -1.08631602e-05, -1.04340052e-05,
          -7.23021049e-06, -1.06877678e-05, -1.96932215e-05,
          -2.85258684e-05, -2.83347690e-05, -3.54210461e-05,
          -3.16420956e-05, -3.59479272e-05, -3.13852215e-05,
          -3.27940506e-05, 1.07325077e-05, -4.51173910e-05,
          -4.85854471e-05, -1.13722681e-05, 3.54908989e-05,
          4.06218387e-05, 3.09127936e-05, 3.18097518e-05,
          -9.40487098e-06, -2.28063641e-06, 2.94025995e-06,
          -1.54290376e-06, -5.37819187e-06, -2.02866577e-05,
          -2.60144170e-05, -2.61782916e-05, -2.44760322e-05,
          -3.56586534e-05, -3.91629655e-05, -4.28280109e-05,
          -4.42987875e-05, -4.98863519e-05, -4.90916718e-05,
          -5.02148105e-05, -1.75979658e-05, 4.15210452e-05,
          1.02378153e-05, 3.23620006e-05, 4.60976007e-05, 4.79233531e-05,
          3.41679442e-05, 4.49970321e-05, 2.83697791e-05, 2.40200607e-05,
          2.87619350e-05, 3.13002165e-05, 2.12229279e-05, 1.32825116e-05,
          -2.43302736e-07, -5.00405395e-06, -9.94332095e-06,
          -3.68310839e-06, -4.49389381e-06, -1.17588197e-05,
          -1.99618680e-05, 1.36593599e-07, -9.04874651e-06,
          1.03973271e-05, 1.36319140e-05, 2.76194769e-05,
          -4.35122138e-06, 4.33263949e-06, -1.96265091e-06,
          5.44273189e-06, -2.29509587e-05, -4.87723992e-05,
          -6.72949682e-05, -4.45588885e-05, -4.83075892e-05,
          -7.04187478e-05, -5.42834896e-05, -4.57993629e-05,
          -5.19011774e-05, -6.30908180e-05, -7.11294706e-05,
          -7.48300808e-05, -6.09433228e-05, -5.09359197e-05,
          -5.95641613e-05, -5.92941578e-05, -2.17892248e-05,
          2.37695458e-05, 1.28740885e-05, 3.94774288e-05, 1.24444205e-05,
          1.04950095e-05, -2.50140806e-06, -4.47187012e-05,
          -7.57496964e-05, -9.06387140e-05, -1.20047393e-04,
          -1.38676231e-04, -1.66175945e-04, -1.59196861e-04,
          -1.61721080e-04, -1.51224100e-04, -1.27432999e-04,
          -1.10349712e-04, -1.18122771e-04, -1.19253207e-04,
          -1.30703673e-04, -1.18568532e-04, -1.12518057e-04,
          -1.24499566e-04, -1.33456226e-04, -4.07948392e-05,
          -6.19362909e-05, 4.82696705e-05, 1.05671288e-05,
          6.07120455e-06, -5.52577376e-06, -5.18723828e-05,
          -6.53488023e-05, -7.92315113e-05, -1.10771747e-04,
          -1.42679681e-04, -1.65955702e-04, -1.52619541e-04,
          -1.56748254e-04, -1.56499227e-04, -1.60621057e-04,
          -1.60215917e-04, -1.33231923e-04, -1.13263166e-04,
          -1.18487907e-04, -1.27668754e-04, -1.17180753e-04,
          -1.08022075e-04, -1.11717811e-04, -7.23761259e-05,
          -4.19075586e-05, 4.85778291e-05, 1.11080490e-05,
          -4.84384282e-06, -3.07396863e-06, -5.31792357e-05,
          -6.61139857e-05, -7.72802305e-05, -1.01994170e-04,
          -1.52324996e-04, -1.59417701e-04, -1.64021782e-04,
          -1.58545299e-04, -1.55234316e-04, -1.56913942e-04,
          -1.76006477e-04, -1.76664907e-04, -1.71935317e-04,
          -1.22460275e-04, -1.27019332e-04, -1.30517117e-04,
          -1.07342705e-04, -1.11808586e-04, -6.30597715e-05,
          -4.48120190e-05, 3.80518759e-05, 5.19231264e-07,
          -1.56110109e-05, -2.52629634e-05, -5.91512544e-05,
          -6.33260133e-05, -6.84523620e-05, -1.22788348e-04,
          -1.49318541e-04, -1.47125233e-04, -1.60751544e-04,
          -1.60344745e-04, -1.56795984e-04, -1.67386883e-04,
          -1.78560527e-04, -1.79668525e-04, -1.78371643e-04,
          -1.75177469e-04, -1.24241633e-04, -1.31742403e-04,
          -1.25896797e-04, -1.09531684e-04, -6.44325264e-05,
          -5.75669437e-05, 3.30070325e-05, -4.77790991e-06,
          -9.09058417e-06, -2.87842122e-05, -5.51793419e-05,
          -5.26188887e-05, -7.01259269e-05, -9.86185914e-05,
          -1.03333397e-04, -7.73474458e-05, -7.50785039e-05,
          -9.99698532e-05, -1.47169136e-04, -1.65508827e-04,
          -1.68465427e-04, -1.74921573e-04, -1.85841927e-04,
          -1.76356189e-04, -1.63632722e-04, -1.25828476e-04,
          -1.32099769e-04, -1.15271774e-04, -6.17830810e-05,
          -3.70152593e-05, 3.66250606e-05, 1.85244204e-07,
          -1.56122114e-05, -3.46888519e-05, -6.03927365e-05,
          -5.01409486e-05, -4.65608136e-05, -7.11340326e-05,
          -7.45672514e-05, -8.73437893e-05, -7.93865256e-05,
          -7.57502567e-05, -8.25418247e-05, -1.30278597e-04,
          -1.66319864e-04, -1.71886641e-04, -1.84386212e-04,
          -1.85674173e-04, -1.79302428e-04, -1.43065161e-04,
          -1.25882842e-04, -1.04913604e-04, -4.72322427e-05,
          -4.58102913e-05, 3.78442310e-05, 1.08770223e-06,
          -1.08322884e-05, -3.17740996e-05, -6.32837400e-05,
          -5.26143303e-05, -4.12935769e-05, -5.20738540e-05,
          -6.05026034e-05, -7.74639702e-05, -8.90716692e-05,
          -8.81313536e-05, -8.68519128e-05, -9.45877546e-05,
          -1.28629923e-04, -1.51968881e-04, -1.43314115e-04,
          -1.21871992e-04, -1.17297801e-04, -1.00790123e-04,
          -4.36149567e-05, -2.99644453e-05, 1.80175612e-05,
          -3.43585452e-05, 3.87435539e-05, 4.40619169e-06,
          -4.01692341e-06, -2.91514534e-05, -5.72702447e-05,
          -4.89343329e-05, -4.99486159e-05, -4.94935630e-05,
          -3.62349783e-05, -6.30694267e-05, -6.99667362e-05,
          -7.61116171e-05, -7.93773870e-05, -9.33370466e-05,
          -1.00728052e-04, -9.48056768e-05, -1.01865793e-04,
          -1.02995858e-04, -1.00808393e-04, -8.90941083e-05,
          -2.49623172e-05, -6.03106764e-06, 2.08684760e-05,
          1.19172837e-05, 5.08520534e-05, 1.47218716e-05, 9.74974682e-07,
          -6.45136788e-06, -5.19143505e-05, -4.00882309e-05,
          -4.17435695e-05, -4.22182275e-05, -3.00284028e-05,
          -3.71497190e-05, -5.57558524e-05, -6.93992915e-05,
          -7.84173026e-05, -8.40304128e-05, -8.60060900e-05,
          -8.99987208e-05, -9.53123308e-05, -8.68786592e-05,
          -7.89569458e-05, -5.47225573e-05, -2.71908948e-06,
          1.01683981e-05, 1.44152746e-05, 1.66866921e-05, 5.30613252e-05,
          1.87619407e-05, 5.87935619e-06, -9.18724538e-07,
          -4.63905781e-05, -3.56772798e-05, -3.80213933e-05,
          -3.17242448e-05, 1.48622235e-06, -2.01976327e-05,
          -4.28973290e-05, -4.36326736e-05, -4.75676461e-05,
          -6.58451681e-05, -7.23501580e-05, -6.52650124e-05,
          -7.75217777e-05, -5.77896863e-05, -4.55537083e-05,
          -2.73173191e-05, 5.20354070e-06, 1.55736325e-05,
          2.15150012e-05, 1.77329184e-05, 4.73635628e-05, 1.55867619e-05,
          -2.53485814e-06, -9.65743038e-06, -4.04177626e-05,
          -3.67646862e-05, -3.06712973e-05, -2.90762764e-05,
          5.23833296e-06, -4.93283005e-06, -1.47439587e-05,
          -2.42005244e-05, -2.72228554e-05, -3.20800609e-05,
          -3.77268989e-05, -4.15296126e-05, -2.71941099e-05,
          -2.67302730e-05, -3.20787221e-05, -1.87201422e-05,
          1.03158864e-05, 1.26725508e-05, 2.33585288e-05, 1.81178857e-05,
          4.26131410e-05, 1.26938639e-05, -8.11339851e-06,
          -1.07582810e-05, -2.25129043e-05, -3.47169953e-05,
          -2.73650876e-05, -2.33831470e-05, 2.09249833e-06,
          1.23822283e-05, -3.07814412e-06, -1.31679371e-05,
          -2.46300260e-05, -3.08315903e-05, -3.92256225e-05,
          -4.51320775e-05, -5.10623395e-05, -4.49684630e-05,
          -4.48449864e-05, -1.80565039e-05, 9.76682168e-06,
          1.50800888e-05, 3.11496260e-05, 2.69403954e-05, 4.06991312e-05,
          1.17791042e-05, 7.20426101e-08, -1.11716909e-05,
          -2.44075964e-05, -1.10528790e-05, -2.77091167e-05,
          -2.59749468e-05, -4.32899324e-05, 1.13857891e-06,
          -6.23754840e-06, -2.11013012e-05, -2.74562790e-05,
          -2.83417739e-05, -3.36031553e-05, -3.54056465e-05,
          -3.57771205e-05, -3.66429049e-05, -2.68678614e-05,
          -2.33007131e-06, 2.06178720e-05, 2.48940469e-05,
          4.50865809e-05, 3.67292523e-05, 3.58717953e-05, 4.81039706e-06,
          -3.17971012e-06, -1.34903175e-05, -2.19338017e-05,
          -1.27494568e-05, -1.56504957e-05, -2.60737907e-05,
          -3.91911126e-05, -5.99740197e-05, -2.22854160e-05,
          -5.16917999e-06, -7.84362419e-06, -1.47909841e-05,
          -1.62133456e-05, -1.47366427e-05, -2.15646232e-05,
          -1.71868869e-05, -6.14892770e-06, 1.97644804e-05,
          3.06421935e-05, 3.93752343e-05, 5.70556294e-05, 6.45100081e-05,
          6.46987028e-05, 1.27801140e-05, -2.00581690e-06,
          -1.21000403e-05, -2.51120018e-05, -1.49148273e-05,
          -7.43982991e-06, -1.14583027e-05, -2.09349218e-05,
          -4.47148232e-05, -5.06846554e-05, -2.54193492e-05,
          -3.53195469e-06, -1.08614468e-05, -1.37787802e-05,
          -1.37710140e-05, -1.20217237e-05, -6.61410013e-06,
          1.29603786e-05, 2.88778901e-05, 3.37981837e-05, 4.52354834e-05,
          9.37283548e-05, 7.86025266e-05, 9.89730106e-05, 7.62600903e-05,
          3.51414601e-05, 1.84105065e-05, -8.87994247e-06,
          -1.38468085e-05, -8.39558470e-06, -8.03953571e-06,
          -1.57691957e-05, -2.36914002e-05, -3.90446476e-05,
          -2.91110773e-05, -1.40207419e-06, -8.21438698e-06,
          -1.54443860e-05, -1.90076844e-05, -3.84192299e-06,
          1.23275722e-05, 2.54030547e-05, 2.92861678e-05, 3.68378824e-05,
          7.29621097e-05, 1.06585809e-04, 6.83530743e-05, 1.59130534e-04,
          1.27146952e-04, 6.64444378e-05, 2.81838747e-05, 2.21060182e-05,
          3.53324758e-05, 1.66043737e-05, 8.88868271e-06,
          -4.20321339e-06, -4.41561178e-06, -1.36225881e-05,
          7.22085178e-06, 1.83263510e-05, 1.21376424e-05, 2.02532210e-05,
          2.52778900e-05, 3.25580077e-05, 3.94696144e-05, 4.59967086e-05,
          6.06955909e-05, 9.79250690e-05, 1.14985494e-04, 1.17968186e-04,
          8.67690324e-05, 1.37703959e-04, 1.12902126e-04, 3.43226129e-05,
          1.84639816e-06, -7.24613483e-06, -3.17249771e-07,
          -3.76112610e-07, 6.26179462e-06, 7.88108719e-06,
          9.63976277e-07, -1.07804581e-05, 5.71946157e-06,
          3.80338970e-05, 4.84946759e-05, 4.70518244e-05, 4.23337733e-05,
          3.86063184e-05, 4.58742652e-05, 6.08119153e-05, 7.22960904e-05,
          7.64896904e-05, 9.25834393e-05, 1.00206627e-04, 4.90057937e-05,
          1.26347528e-04, 1.02863974e-04, -1.13832730e-05,
          -5.11810867e-05, -6.72932365e-05, -5.47142408e-05,
          -5.77753526e-05, -5.08870180e-05, -4.61847631e-05,
          -5.13604682e-05, -4.41443044e-05, -5.09422789e-05,
          -1.87080095e-05, 1.02476288e-05, 1.82768545e-05,
          1.66626796e-05, 1.96720866e-05, 2.60285888e-05, 2.25059757e-05,
          2.26029097e-05, 2.37881904e-05, 2.19095746e-05, 2.89874479e-05,
          -3.56922851e-06, 1.21741497e-04, 1.03289654e-04,
          2.48670603e-05, 6.45988439e-06, -7.73870670e-06,
          4.78790980e-07, 9.24541894e-07, -1.29751959e-06,
          3.68362521e-06, 1.23287430e-06, 2.05103061e-06, 9.69512530e-06,
          7.25718155e-06, 3.68114206e-06, 4.30647469e-06, 1.14366185e-05,
          1.11667778e-05, 1.46006678e-05, 1.44102678e-05, 1.55179605e-05,
          1.47246574e-05, 1.30123353e-05, 1.86892739e-05,
          -7.56394684e-06 ]
      - [ 5.71927230e-04, 2.45459523e-04, 1.37152441e-04, 1.15200935e-04,
          2.95422331e-04, 4.80611809e-04, 4.60590090e-04, 3.31180112e-04,
          3.21467611e-04, 1.72418964e-04, 1.37886644e-04, 1.19966840e-04,
          2.30197504e-04, 2.31020036e-04, 1.95879693e-04, 6.44800893e-05,
          -3.54341246e-05, 9.54634525e-05, 1.73440552e-04,
          1.92519947e-04, 3.02971806e-04, 2.99299893e-04, 3.53345415e-04,
          3.27571979e-05, 6.21611835e-05, -4.62456170e-04,
          -4.72609710e-04, -4.72952001e-04, -1.26328610e-04,
          5.75178419e-05, 8.35190003e-05, 1.39664582e-04, 7.62865529e-05,
          4.21795703e-05, -6.57426353e-05, -1.13104848e-04,
          -6.23288433e-05, -1.11418878e-04, -1.86664693e-04,
          -1.81626267e-04, -1.78312985e-04, -1.91992527e-04,
          -1.88821723e-04, -2.28456614e-04, -1.62226817e-04,
          -2.12621962e-04, -1.32753848e-04, -3.27269692e-04,
          7.26577768e-04, -4.59788243e-05, -2.81016401e-04,
          -3.88739398e-04, -1.02846330e-04, 6.79070799e-05,
          2.90627067e-04, 4.71980340e-04, 4.23083402e-04, 3.63298517e-04,
          1.85659548e-04, 1.31723107e-04, 1.24566286e-04, 5.37163723e-05,
          -3.89160814e-05, 1.13370777e-06, 2.41021571e-05,
          -2.41562029e-05, -1.02477999e-04, -1.12108748e-04,
          -4.81712996e-05, 4.29990760e-05, 1.60503347e-04,
          1.46212651e-05, 6.48229558e-04, -7.73130741e-05,
          -2.76499341e-04, -4.27985389e-04, -1.85511279e-04,
          2.39958699e-05, 2.25344455e-04, 4.00456192e-04, 4.81615018e-04,
          4.57034010e-04, 3.71923059e-04, 1.42973091e-04, 6.59768557e-05,
          -3.10884534e-05, -5.50192635e-05, -1.37219162e-04,
          -2.70628778e-04, -2.33021681e-04, -2.66549177e-04,
          -2.01404328e-04, -1.32666653e-04, -3.56808341e-05,
          1.22746438e-04, -1.51708764e-05, 6.66173350e-04,
          -6.29566712e-05, -3.42025334e-04, -3.44880013e-04,
          -2.00792449e-04, 3.06177644e-05, 2.17312729e-04,
          3.22565786e-04, 3.62472056e-04, 3.98688280e-04, 3.58601537e-04,
          1.89216458e-04, 1.81666146e-05, -1.16047369e-04,
          -2.00369657e-04, -3.65329004e-04, -3.87457316e-04,
          -3.74934898e-04, -2.87239527e-04, -2.36402251e-04,
          -2.10981831e-04, -7.60061957e-05, -7.17889561e-05,
          -3.38263926e-04, 5.67562529e-04, 5.97057697e-05,
          -1.86642530e-04, -2.13993248e-04, -2.02869021e-04,
          4.28547173e-05, 3.08899587e-04, 3.59733443e-04, 3.15897545e-04,
          3.88365006e-04, 3.49022390e-04, 2.26127566e-04, 1.78236223e-04,
          4.79416303e-05, -2.00898663e-04, -4.16192110e-04,
          -4.17176925e-04, -3.73512623e-04, -3.06278234e-04,
          -2.87325442e-04, -2.36695429e-04, -1.00946767e-04,
          -9.76125157e-05, -2.29952057e-04, 5.93002595e-04,
          1.67739767e-04, -1.58697600e-04, -2.42076538e-04,
          -2.34036022e-04, 7.41561526e-05, 2.22340226e-04,
          2.66255549e-04, 2.69089156e-04, 2.72757519e-04, 2.71383818e-04,
          2.03511314e-04, 1.27306557e-04, 3.90332389e-05,
          -8.94425975e-05, -1.14831440e-04, -2.34487074e-04,
          -2.50445271e-04, -2.26314558e-04, -3.01633409e-04,
          -2.71892321e-04, -1.79290422e-04, -7.93957006e-05,
          -1.23773119e-04, 5.46826457e-04, 3.93685559e-06,
          -2.25562151e-04, -3.22350737e-04, -2.88844923e-04,
          5.62803179e-05, 2.02503245e-04, 1.63349716e-04, 1.86970909e-04,
          1.78896269e-04, 1.11800255e-04, 1.02505823e-04, 1.96168203e-05,
          -6.26576366e-05, -1.28115091e-04, -1.58853873e-04,
          -1.87526966e-04, -2.16287299e-04, -1.49411033e-04,
          -3.13612603e-04, -2.35842788e-04, -1.66407743e-04,
          -1.06838525e-04, -1.68166080e-04, 3.37183097e-04,
          -1.52581808e-04, -1.56782393e-04, -3.21226398e-04,
          -2.99762643e-04, 7.27511942e-05, 1.22237601e-04,
          3.53924173e-04, 4.66058642e-04, 6.20411651e-04, 5.86886425e-04,
          3.62510997e-04, -1.61007774e-04, -1.98922266e-04,
          -1.42458011e-04, -2.11569626e-04, -2.22635907e-04,
          -2.30640697e-04, -2.54931278e-04, -2.76479957e-04,
          -3.06339207e-04, -1.88776758e-04, -1.22140715e-04,
          -7.65447985e-05, 2.74063612e-04, 1.96109959e-05,
          -1.90683480e-04, -3.72690760e-04, -2.45604082e-04,
          6.60611404e-05, 1.05811421e-04, 2.47480843e-04, 5.33373095e-04,
          5.23375813e-04, 5.25117561e-04, 4.91711311e-04, 1.61944641e-04,
          -3.24631954e-04, -4.65512276e-04, -3.96215299e-04,
          -3.90279427e-04, -4.11727466e-04, -4.25488426e-04,
          -3.57057521e-04, -3.82904254e-04, -2.32536549e-04,
          -1.82953750e-04, -7.25505088e-05, 5.42320311e-04,
          2.70880555e-04, -2.05708420e-04, -2.28428456e-04,
          -3.11187687e-05, -7.66083540e-05, -1.19816119e-04,
          1.85910583e-04, 3.64687992e-04, 3.85893160e-04, 4.15987044e-04,
          3.19928688e-04, -2.95135101e-06, -2.30140649e-04,
          -5.65063558e-04, -5.53066435e-04, -3.54574440e-04,
          -1.33972877e-04, -4.06066065e-05, -2.28997942e-05,
          4.53009125e-05, 1.33425114e-04, 1.96753463e-04,
          -3.69359841e-05, 5.75385056e-04, 3.33449658e-04,
          -9.55700743e-05, 8.64227986e-05, -6.87237480e-05,
          -2.13420557e-04, -1.90091494e-04, 1.70864092e-04,
          3.12120450e-04, 3.53224343e-04, 3.43281630e-04, 1.28028129e-04,
          -1.44816673e-04, -3.93243565e-04, -5.02958137e-04,
          -4.79383481e-04, -4.66334779e-04, -4.53688612e-04,
          -3.52749688e-04, -1.73475753e-04, -1.41444427e-04,
          -8.17183100e-05, 1.46507271e-04, 3.38940095e-04,
          6.40744518e-04, 3.53057141e-04, -1.11505178e-05,
          1.24421145e-04, -2.66952295e-04, -1.17861760e-04,
          -2.09790611e-04, 1.90633978e-06, 1.64159355e-04,
          1.66464568e-04, 8.39338391e-05, -6.74198673e-05,
          -4.02148842e-04, -5.62814646e-04, -5.90695767e-04,
          -6.55547890e-04, -7.14421156e-04, -5.36971143e-04,
          -4.00911842e-04, -4.84041549e-04, -3.88694229e-04,
          -1.14412833e-04, 1.92989864e-05, 2.60401430e-04,
          6.27425499e-04, 3.83968290e-04, 1.55358182e-04,
          -7.76381057e-05, -1.20773759e-04, -1.53113797e-04,
          -2.67583498e-04, 2.17973084e-05, 2.08520942e-04,
          -1.24010667e-05, -1.92756110e-04, -1.52488530e-04,
          -3.95816605e-04, -6.30365219e-04, -7.07368425e-04,
          -6.76124066e-04, -5.34100924e-04, -4.66469268e-04,
          -4.32665081e-04, -4.79631184e-04, -5.52801648e-04,
          -2.84828129e-04, -5.00517817e-05, 8.66440896e-05,
          6.50185684e-04, 4.23208578e-04, 1.66878584e-04,
          -1.61545511e-04, -2.46950076e-04, -2.86386290e-04,
          -3.21006461e-04, -9.91691340e-05, 1.27583655e-04,
          2.58963028e-05, -5.35906038e-05, -2.23755618e-04,
          -3.74245457e-04, -4.85801545e-04, -6.25432644e-04,
          -5.63981826e-04, -3.81294318e-04, -4.09698259e-04,
          -4.70429630e-04, -4.66563622e-04, -6.49517751e-04,
          -4.85772616e-04, -1.78200658e-04, 1.92348089e-04,
          4.86735487e-04, 4.76329646e-04, -2.17568915e-04,
          -2.14985412e-04, -4.18489770e-04, -3.35825316e-04,
          -3.19357030e-04, -2.99815787e-04, 4.71915655e-06,
          4.80565504e-05, -8.20974601e-05, -1.47108251e-04,
          -3.18643637e-04, -4.08287422e-04, -4.39398456e-04,
          -4.45833721e-04, -4.52468201e-04, -5.38655964e-04,
          -5.24403295e-04, -4.99827671e-04, -5.04084048e-04,
          -3.71228612e-04, -5.88413168e-05, 3.57848447e-04,
          4.69560357e-04, 3.51614988e-04, -2.97121529e-04,
          -2.75868486e-04, -3.31463467e-04, -2.49990553e-04,
          -1.87215497e-04, -3.25308938e-04, -3.46201472e-04,
          -7.83250143e-05, -1.75134977e-04, -2.45839095e-04,
          -2.02814132e-04, -2.10091603e-04, -2.12339670e-04,
          -1.93541069e-04, -2.06808269e-04, -2.76856677e-04,
          -3.09419818e-04, -3.94917879e-04, -3.09221010e-04,
          -2.94272118e-04, -2.25988988e-05, 2.87075585e-04,
          4.39683994e-04, 1.70026993e-04, -2.65469222e-04,
          -2.78243009e-04, -2.88812473e-04, -2.30783815e-04,
          -2.38845285e-04, -3.81827063e-04, -5.54868660e-04,
          -5.79858024e-04, -2.91217933e-04, -7.85520242e-05,
          -6.38452329e-05, -2.53774215e-05, -3.91752656e-05,
          4.38756761e-05, -7.92561259e-05, -1.68012077e-04,
          -2.84331851e-04, -3.72547918e-04, -3.09489376e-04,
          -1.75501482e-04, 9.64870487e-05, 3.44523054e-04,
          1.22930534e-04, 1.44207042e-05, -4.58792987e-04,
          -2.59197841e-04, -2.85950926e-04, -2.01985211e-04,
          -2.07738311e-04, -3.65529762e-04, -4.57544549e-04,
          -4.75794106e-04, -3.74131982e-04, -1.31761888e-04,
          1.83832046e-04, 1.14531958e-05, 4.49999534e-05, 4.60166775e-05,
          -2.60503793e-06, -1.50464126e-04, -1.78244081e-04,
          -1.35056107e-04, -1.13998860e-04, -2.74498598e-05,
          3.01955064e-04, 5.66580275e-04, 3.34323762e-04, 1.17605341e-04,
          -4.68713697e-04, -2.99400679e-04, -2.60921137e-04,
          -2.26775315e-04, -1.56977534e-04, -2.39791290e-04,
          -2.75908358e-04, -2.96196784e-04, -3.20602063e-04,
          -2.73569513e-05, 1.01741789e-04, -5.03368847e-06,
          2.77867766e-05, 4.89113627e-05, 3.02024218e-05, 5.30608922e-05,
          3.61552475e-06, 1.35150331e-04, 2.18737550e-04, 3.04954214e-04,
          5.23997005e-04, 6.43876847e-04, 3.39053542e-04, 1.86017205e-04,
          -3.33624223e-04, -1.93293381e-04, -1.28801199e-04,
          -1.31519409e-04, -9.13125114e-05, -1.54574649e-04,
          -2.31489452e-04, -2.76980543e-04, -2.19822192e-04,
          -7.49942701e-05, 8.70405802e-06, 1.67107908e-04,
          1.85729892e-04, 1.71085645e-04, 1.37147086e-04, 2.32119128e-04,
          2.86830444e-04, 2.83968548e-04, 2.97769380e-04, 3.83673556e-04,
          6.08411036e-04, 6.24801789e-04, 2.39725297e-04, 1.55777579e-05,
          -4.87397861e-04, -3.74522730e-04, -3.48003494e-04,
          -2.98817380e-04, -3.07733164e-04, -3.12221469e-04,
          -3.22544278e-04, -3.26066423e-04, -4.30299755e-04,
          -3.30472452e-04, -4.57934511e-05, 6.29671922e-05,
          8.24361996e-05, 8.36357576e-05, 3.17885169e-05, 1.48512681e-05,
          1.49729487e-04, 9.34991695e-05, 1.04339793e-04, 2.22463263e-04,
          3.82985891e-04, 2.49178673e-04, 3.21852945e-04,
          -3.78162235e-06, -4.56220267e-04, -4.59837640e-04,
          -4.77567490e-04, -4.06263658e-04, -4.42322897e-04,
          -4.01857804e-04, -4.33870882e-04, -3.67607689e-04,
          -3.62827530e-04, -4.43752302e-04, -3.50170361e-04,
          1.29788805e-05, 7.05075145e-05, 2.91279393e-05, 7.70852712e-05,
          1.97413276e-04, 2.55892723e-04, 2.62030517e-04, 9.42280240e-05,
          1.75325069e-04, 3.41163250e-04, 2.52065307e-04, 1.74021901e-04,
          -1.44232064e-04, -4.68703103e-04, -2.79110973e-04,
          -1.99954768e-04, -1.46169521e-04, -1.72409389e-04,
          -6.53656680e-05, -3.32211712e-05, 7.61211631e-05,
          1.88656340e-04, 7.73349893e-05, -1.72958498e-05,
          3.28562455e-05, 7.58008246e-05, 9.34118434e-05, 9.52199698e-05,
          1.64290643e-04, 4.95774802e-05, 1.67464867e-04, 2.49857170e-04,
          3.20747145e-04, 2.79111759e-04, 4.16412309e-04 ]
      - [ 9.75879200e-04, 3.63191823e-04, -3.08667426e-04,
          -9.07431750e-05, 2.95001199e-04, 3.64872190e-04,
          3.22479405e-04, -1.10362445e-04, -3.04962632e-05,
          -1.52386725e-04, 6.93271431e-05, 1.85329009e-05,
          8.12268190e-05, -2.68319418e-04, 8.92364915e-05,
          1.69045699e-04, 5.95924270e-04, 1.51569271e-04, 9.12320102e-04,
          1.60759257e-03, 1.46981177e-03, 1.43936602e-03, 1.50766876e-03,
          1.78585120e-03, 1.28619827e-03, 2.42676979e-05,
          -9.21845785e-04, -9.72373353e-04, -8.18217115e-04,
          -4.06484178e-04, -4.37489420e-04, -3.10685398e-04,
          -7.46098813e-04, -7.91250204e-04, -6.97364914e-04,
          -5.18070185e-04, -6.40302605e-04, -7.12256529e-04,
          -1.79286566e-04, 1.19296448e-04, -6.76842246e-05,
          -7.55625369e-04, -1.62666227e-04, 6.52133895e-04,
          9.44164407e-04, 7.62722979e-04, 8.02082825e-04, 1.03038922e-03,
          1.78236410e-03, -1.41454031e-04, -9.62742255e-04,
          -1.04044331e-03, -9.58302873e-04, -3.57180310e-04,
          -5.39477624e-04, -3.75380041e-04, -6.79281133e-04,
          -1.04095356e-03, -1.08424702e-03, -3.93192429e-04,
          1.13800070e-05, 3.55997647e-04, 3.67816450e-04, 2.73233018e-04,
          5.12417791e-05, -4.27382416e-04, -1.38241667e-04,
          3.12700373e-04, 6.77399861e-04, 4.09082189e-04, 7.09472108e-04,
          1.11449405e-03, 1.36178511e-03, -4.25780425e-04,
          -4.83373820e-04, -6.97298165e-05, -1.05831008e-04,
          2.81610352e-04, -9.02450483e-05, -1.55480520e-04,
          -2.64020055e-04, -4.07043786e-04, -4.48966399e-04,
          -1.02830541e-04, 2.17350360e-04, 2.76756182e-04,
          7.65012010e-05, -2.99578358e-04, -4.55614732e-04,
          -4.30980872e-04, -3.88417597e-04, 8.62187808e-05,
          7.25899357e-04, 4.63407632e-04, 4.72516607e-04, 1.71565707e-03,
          1.32243568e-03, -1.88425591e-04, -2.18514790e-04,
          4.01694924e-05, -6.59557525e-04, -7.03934347e-04,
          -5.04979282e-04, -5.19311230e-04, -5.98111830e-04,
          -6.39778445e-04, -4.66671510e-04, -5.95828926e-04,
          -3.82174476e-04, -5.83663990e-04, -5.65060182e-04,
          -8.16013606e-04, -7.97676796e-04, -9.06621397e-04,
          -7.60131050e-04, -4.16936033e-04, 1.46252685e-04,
          -1.62797660e-04, -6.00374478e-04, 8.09971942e-04,
          1.32213393e-03, 1.06133848e-04, 9.48376619e-05, 6.47017805e-05,
          -8.57347914e-04, -4.51467204e-04, -1.48280218e-04,
          -3.65017040e-04, -3.65213200e-04, -3.97381140e-04,
          -1.47368381e-04, -1.21066609e-04, 1.73030916e-04,
          -2.14344080e-04, -1.55712623e-04, -3.56431818e-04,
          -4.93447646e-04, -5.35955362e-04, -5.76986058e-04,
          -2.74619670e-04, 1.30899934e-04, 1.48487146e-04,
          -4.89240163e-04, 8.21676105e-04, 1.13048300e-03,
          1.04431754e-04, 1.82683551e-04, 1.26097075e-04,
          -8.40935623e-04, -2.71038618e-04, -1.80718518e-04,
          -3.71362315e-04, -1.82826989e-05, -4.14219830e-05,
          5.18848501e-05, 1.29069202e-04, 3.80384008e-04, 1.38396397e-04,
          -9.90533954e-05, -4.30306070e-04, -4.28479543e-04,
          -4.88708611e-04, -4.22408048e-04, -1.63128992e-04,
          1.78728893e-04, 1.73741006e-04, -1.20299555e-04,
          1.33368652e-03, 1.33637793e-03, -7.30688555e-07,
          2.48581113e-04, 4.07790998e-04, -7.38131523e-04,
          -4.54480381e-04, -4.90290753e-04, -5.15304040e-04,
          -2.70507619e-04, -6.75164629e-05, -1.33933558e-04,
          5.29508179e-05, 5.36184962e-05, 1.36817136e-04,
          -5.35704967e-05, -2.02574214e-04, -2.11538470e-04,
          -3.87498207e-04, -1.19630015e-04, 3.42018102e-05,
          1.81051335e-04, 1.50424748e-04, -9.46918954e-05,
          1.16527721e-03, 1.56581169e-03, 2.79352302e-04, 3.82669328e-04,
          1.83517666e-04, -7.04358914e-04, -5.11928985e-04,
          -7.23173667e-04, -2.95217731e-04, 9.11535462e-05,
          5.19788184e-04, 5.50589175e-04, 3.28210881e-04,
          -8.20876157e-05, -5.15456886e-05, -1.15918934e-04,
          -3.54225631e-04, -4.26933373e-04, -4.81888972e-04,
          -6.40440790e-04, -4.75305598e-04, -2.64505390e-04,
          -1.25505801e-04, -2.63696857e-04, 9.42203857e-04,
          1.41510461e-03, 8.44771348e-05, -7.54452703e-05,
          1.72566852e-05, -8.10040452e-04, -8.00938287e-04,
          -6.17579441e-04, -1.28108295e-04, 3.39320512e-04,
          4.26336104e-04, 3.49406677e-04, 2.59798369e-04, 3.42776359e-04,
          -9.26513312e-05, -5.26280841e-04, -8.12004961e-04,
          -9.19544022e-04, -1.03011308e-03, -8.26169329e-04,
          -8.90992407e-04, -8.53172096e-04, -7.25973106e-04,
          -9.64796229e-04, 5.77868195e-04, 1.12611055e-03,
          2.66081071e-04, -2.70974633e-05, -7.82080097e-05,
          -9.33892210e-04, -1.06931408e-03, -8.05553806e-04,
          -3.90809146e-04, 2.87719275e-04, 3.97557538e-04,
          2.32787308e-04, 2.37143089e-04, 3.24999768e-04, 4.49161780e-05,
          -6.23608823e-04, -9.33893374e-04, -9.42335289e-04,
          -5.07638324e-04, 2.34153413e-05, -1.62462020e-04,
          -2.66840827e-04, -2.04784286e-04, -9.17677593e-04,
          2.51478486e-05, 1.26192311e-03, 1.60091571e-04,
          -5.60457236e-04, -3.39200167e-04, -9.83183621e-04,
          -1.14479719e-03, -9.27112182e-04, -5.04439638e-04,
          1.15981755e-04, 3.93651571e-04, 4.85571218e-04, 3.21369997e-04,
          2.30691745e-04, -2.25887663e-04, -5.20841160e-04,
          -5.09771344e-04, -2.10784216e-04, -8.77167040e-05,
          9.65326471e-05, -2.58378277e-04, -4.74428234e-04,
          -3.84261191e-04, -9.01301450e-04, 3.03507870e-04,
          1.31988351e-03, 2.70190707e-04, -5.56198123e-04,
          -6.42303276e-05, -7.66261190e-04, -9.32568277e-04,
          -8.03178060e-04, -7.04964215e-04, -2.71861820e-04,
          -4.91799028e-06, 2.03126663e-04, 2.73951064e-05,
          -1.56553491e-04, -5.47971518e-04, -3.75176140e-04,
          -7.80993942e-05, 2.40984336e-05, 5.73616053e-05,
          -1.19870863e-04, -2.39343382e-04, -5.49491611e-04,
          -6.03389926e-04, -8.33091210e-04, 3.39758175e-04,
          1.33800984e-03, 4.12914407e-04, -5.05854143e-04,
          2.30438327e-05, -6.89452456e-04, -6.51694951e-04,
          -4.74575849e-04, -1.59356685e-04, -7.51164553e-05,
          -4.54490546e-05, 9.81985340e-06, -1.35551978e-04,
          -1.31974084e-04, -3.14322417e-04, -2.23312236e-04,
          -5.54241997e-05, -2.99728912e-04, -3.50790913e-04,
          -3.94625531e-04, -1.20066266e-04, -6.55507683e-05,
          -5.71689525e-05, -5.86379669e-04, 3.45676992e-04,
          1.37770548e-03, 4.41153330e-04, -7.38525996e-04,
          -8.77348284e-05, -7.37609807e-04, -6.66179287e-04,
          -4.61575604e-04, 3.00266638e-05, 2.39419984e-04,
          2.65292940e-04, 3.20822466e-04, 2.62798858e-04, 8.63115929e-05,
          -1.20174227e-05, -1.58625044e-04, -3.23592860e-04,
          -4.85232827e-04, -3.15289246e-04, -2.20929811e-04,
          -1.51702016e-05, 2.71452136e-05, -5.18586239e-05,
          -4.07072512e-04, 6.76707772e-04, 1.00833201e-03,
          3.84794548e-04, -6.18521764e-04, -1.54023131e-04,
          -8.64514499e-04, -6.43491803e-04, -7.04982900e-04,
          -4.65343946e-05, 3.57948418e-04, 5.45105548e-04,
          2.88516720e-04, 8.98898215e-05, -3.76350305e-04,
          -1.75786074e-04, -1.96508932e-04, -4.21531382e-04,
          -6.49264141e-04, -4.81288705e-04, -1.90913415e-04,
          -8.41026849e-05, 3.41714349e-06, 8.97841310e-05,
          -3.24365858e-04, 9.36056254e-04, 8.02623690e-04,
          2.41814661e-04, -7.94816064e-04, -9.66467196e-05,
          -8.37558007e-04, -5.78297244e-04, -5.23883558e-04,
          -3.14101890e-05, -1.16024778e-04, 2.69734097e-04,
          1.39735290e-04, -3.25267698e-04, -3.63331201e-04,
          -4.00892808e-04, -3.78961442e-04, -4.06531268e-04,
          -3.19967890e-04, -4.69315797e-04, -1.26159372e-04,
          1.19655015e-04, 2.40635360e-04, 3.14143515e-04, 1.31781053e-04,
          8.51087971e-04, 8.54915066e-04, 1.46840248e-05,
          -1.21921790e-03, -4.51060565e-04, -7.28184939e-04,
          -6.95440860e-04, -6.24928449e-04, 3.66825370e-05,
          -2.43654285e-04, -3.69519257e-04, -8.74528705e-05,
          -2.54016020e-04, -5.37180516e-04, -4.20704717e-04,
          -5.99683379e-04, -4.49872256e-04, -3.75767122e-04,
          -2.92833924e-04, 8.42252412e-05, 2.06653131e-04,
          2.23468393e-04, 1.22650017e-04, -2.97170027e-06,
          1.12667121e-03, 6.53378316e-04, -8.78964056e-05,
          -1.51482038e-03, -8.33614962e-04, -7.22479541e-04,
          -4.21937817e-04, -3.94924544e-04, -1.46135513e-04,
          -1.84926510e-04, -4.55848553e-04, -3.58724647e-04,
          -5.02518378e-04, -6.94841612e-04, -5.30475925e-04,
          -7.71081948e-04, -6.99841068e-04, -4.47895844e-04,
          -3.24141176e-04, -2.93372359e-05, 1.12766604e-04,
          2.49876059e-04, 3.31078249e-04, 1.64293670e-04, 1.18760741e-03,
          7.85723329e-04, 1.53425601e-04, -1.56595453e-03,
          -9.01677296e-04, -1.01692695e-03, -6.70425885e-04,
          -5.02631068e-04, -5.17527697e-05, -3.64512176e-04,
          -3.89590801e-04, -3.23644606e-04, -3.85997002e-04,
          -6.64079387e-04, -3.52914882e-04, -5.64738177e-04,
          -7.54399458e-04, -6.31445495e-04, -5.28204662e-04,
          -1.88729697e-04, 1.66851270e-04, 5.39260218e-04,
          5.22207818e-04, 1.77806542e-05, 7.68098456e-04, 5.45414630e-04,
          1.68777246e-04, -1.63727161e-03, -1.13763299e-03,
          -1.26235804e-03, -7.49061757e-04, -3.54236370e-04,
          -1.00605903e-04, -5.98049141e-04, -5.20015601e-04,
          -4.10074135e-04, -4.82411502e-04, -6.07241585e-04,
          -5.72682475e-04, -4.90546692e-04, -6.52441173e-04,
          -6.11127645e-04, -4.17975156e-04, -2.33093437e-04,
          8.74608668e-05, 3.21012398e-04, 3.81819584e-04,
          -2.63515714e-04, 6.56933407e-04, 7.46191712e-04,
          5.06382086e-04, -1.09228154e-03, -7.45897123e-04,
          -1.02207938e-03, -7.32694170e-04, -4.99754678e-04,
          -4.84553340e-04, -4.90741339e-04, -5.14509622e-04,
          -3.29586066e-04, -3.13432829e-04, -2.47602933e-04,
          -5.17083274e-04, -5.26642136e-04, -5.85577101e-04,
          -6.29027083e-04, -4.17251606e-04, 1.58286985e-05,
          4.63557604e-04, 4.53648652e-04, 6.16282283e-04,
          -3.45737033e-04, 2.71841593e-04, 9.12530988e-04,
          7.89407757e-04, -5.16851491e-04, -3.06092144e-04,
          -9.73073766e-04, -6.11777359e-04, -5.49598131e-04,
          -3.60968173e-04, -4.41685290e-04, -3.21739761e-04,
          -4.67110396e-04, -1.27354448e-04, -2.89486561e-05,
          -7.10686872e-05, -4.63926961e-04, -6.82506303e-04,
          -6.60695951e-04, -4.13378875e-04, -1.06561529e-04,
          3.16145743e-04, 7.48104358e-05, -4.33912210e-05,
          -8.67878844e-04, -2.31181530e-05, 1.26390602e-03,
          1.30041910e-03, -2.33707004e-04, 8.35761748e-05,
          -2.58618849e-04, 1.87393380e-04, 7.70711558e-05,
          2.38540830e-04, 5.89570496e-04, 7.29271502e-04, 6.78889919e-04,
          9.46540851e-04, 1.04834139e-03, 4.96319903e-04,
          -4.25286096e-04, -5.95303311e-04, -6.10502844e-04,
          -3.51307594e-04, -1.93940592e-04, 1.92721258e-04,
          3.00358690e-04, -9.20944585e-05, -8.86074617e-04,
          1.28843865e-04 ]
      - [ 4.20660217e-04, 2.85735616e-04, 8.70145377e-05, 1.60251046e-04,
          2.49634439e-04, 2.64612259e-04, 2.76813604e-04, 1.67906488e-04,
          5.77698520e-05, -3.12976090e-06, -1.39407928e-06,
          2.15794553e-05, 3.36986850e-05, 4.68040744e-05, 1.01451638e-04,
          9.79905453e-05, 2.61325313e-05, -8.98028134e-07,
          -4.13313792e-05, -2.58253403e-05, -3.39776816e-05,
          1.50020118e-04, 1.18603530e-04, 1.42760822e-04, 2.25000666e-04,
          6.37737612e-05, -1.48661667e-04, -1.75671503e-05,
          1.10217465e-04, 1.06405634e-04, 1.05913838e-04, 1.00660247e-04,
          6.22268853e-05, 2.35430471e-05, -1.03603365e-04,
          -1.56250651e-04, -1.14470480e-04, -1.04677209e-04,
          -1.02853024e-04, -1.29942418e-04, -1.01017198e-04,
          -1.04155850e-04, -1.09232969e-04, -1.15636336e-04,
          -1.19695273e-04, -1.17823460e-04, -1.14043265e-04,
          1.30532862e-04, 3.41591483e-04, 8.37130065e-05,
          -6.50348520e-05, -4.50506050e-05, 8.70213335e-05,
          1.54072157e-04, 1.38389034e-04, 1.31877809e-04, 1.08743872e-04,
          4.33873138e-05, 1.10572555e-05, -1.00443895e-05,
          -1.80019069e-05, -6.12012664e-05, -1.03188060e-04,
          -1.34052534e-04, -1.66909871e-04, -1.67037273e-04,
          -8.56679326e-05, -2.82745914e-05, 4.95094764e-06,
          1.13966598e-05, 1.50388632e-05, 3.69863883e-05, 2.51572492e-04,
          1.48383642e-05, -1.81508469e-04, -3.41953819e-05,
          7.01447498e-05, 6.60133446e-05, 1.01474594e-04, 7.97401299e-05,
          5.60672161e-05, -4.71325302e-06, -2.69122684e-05,
          -7.42710981e-05, -1.00697704e-04, -1.30683824e-04,
          -1.67103281e-04, -1.84950390e-04, -2.42959257e-04,
          -2.11447070e-04, -1.74580913e-04, -1.58933472e-04,
          -1.82065211e-04, -6.83382750e-05, -1.62907563e-05,
          1.09630819e-04, 2.31429629e-04, 5.09849669e-05,
          -1.72263055e-04, -4.06113531e-06, 8.35902174e-05,
          8.67728231e-05, 8.34499297e-05, 1.05596671e-04, 6.31591029e-05,
          6.26485325e-06, -3.47506793e-05, -9.00092200e-05,
          -1.24711732e-04, -1.56736482e-04, -1.70210231e-04,
          -1.91396248e-04, -1.51088476e-04, -1.81022115e-04,
          -1.93684347e-04, -1.71469626e-04, -1.73586464e-04,
          -1.86032819e-04, -1.52419685e-04, 7.53585409e-05,
          2.47789198e-04, 7.91508064e-05, -1.26497587e-04,
          -2.78585558e-05, 6.35258257e-05, 8.61198569e-05,
          8.52569938e-05, 7.50587933e-05, -6.69724113e-06,
          -3.08148083e-05, -5.00087444e-05, -9.45004576e-05,
          -1.32048299e-04, -1.50477965e-04, -1.67846345e-04,
          -1.56546652e-04, -1.50418738e-04, -1.57030372e-04,
          -1.85110053e-04, -1.98136127e-04, -1.69359308e-04,
          -1.57517934e-04, -1.62933080e-04, -8.97956761e-06,
          2.24647069e-04, 6.85452032e-05, -9.69657340e-05,
          -3.06816182e-05, 3.96518881e-05, 6.29613423e-05,
          4.95825334e-05, 3.94960080e-05, -5.20459253e-05,
          -9.79044416e-05, -9.93405338e-05, -1.16254116e-04,
          -1.27282663e-04, -1.48962587e-04, -1.36447066e-04,
          -1.45250131e-04, -1.67142658e-04, -1.68665720e-04,
          -1.89346101e-04, -2.14286585e-04, -1.78703485e-04,
          -1.62095050e-04, -1.76609668e-04, -5.50361619e-06,
          2.72477686e-04, 1.03216611e-04, -1.03132144e-04,
          -5.78473810e-05, 2.64095106e-05, 4.40366675e-05,
          5.57938292e-05, -1.90200694e-06, -8.27242329e-05,
          -1.29658816e-04, -1.59107847e-04, -1.36154020e-04,
          -1.13280963e-04, -1.30297281e-04, -1.19289361e-04,
          -1.33251131e-04, -1.36735864e-04, -1.66559548e-04,
          -1.98561655e-04, -2.30228397e-04, -1.50843654e-04,
          -1.88425489e-04, -1.88788734e-04, -1.98133475e-05,
          2.18335263e-04, 7.73082502e-05, -9.57871162e-05,
          -7.07397048e-05, 2.09359337e-06, 3.81639438e-05,
          2.34179333e-05, 2.69259344e-05, -3.18130856e-06,
          3.94041354e-06, -3.46524212e-05, -5.62830173e-05,
          -1.25625840e-04, -1.19618438e-04, -1.09258399e-04,
          -9.49510868e-05, -1.04949853e-04, -1.68305181e-04,
          -2.24198826e-04, -2.16703105e-04, -1.69039340e-04,
          -1.89356826e-04, -1.66613550e-04, -8.44047008e-06,
          2.33573432e-04, 1.00524710e-04, -1.33862166e-04,
          -8.34435050e-05, 1.50178118e-06, 3.40252373e-05,
          6.13205120e-05, 6.31883158e-05, 2.27667406e-05,
          -2.89778632e-06, -3.73692237e-05, -2.40429454e-05,
          5.04634045e-07, -7.06267383e-05, -1.11089590e-04,
          -8.96255224e-05, -1.25897655e-04, -1.70974425e-04,
          -1.94052816e-04, -1.98781505e-04, -1.69855295e-04,
          -1.70326166e-04, -1.87835787e-04, -1.08281583e-05,
          2.41150556e-04, 1.34492555e-04, -1.19604389e-04,
          -8.44647948e-05, -1.79984127e-05, 1.00263696e-05,
          4.12781446e-05, 7.18154915e-05, 7.66878475e-06,
          -2.05086690e-05, -6.08050177e-05, -9.08608417e-05,
          -9.09725495e-05, -1.02041202e-04, -1.37256720e-04,
          -1.35241877e-04, -9.42932238e-05, -8.66868504e-05,
          -8.44130700e-05, -7.26367507e-05, -3.15403449e-05,
          -6.31935545e-05, -9.63231214e-05, 1.48099218e-06,
          2.17501176e-04, 1.21872756e-04, -1.12305104e-04,
          -8.20952337e-05, -2.57553711e-05, 2.05157285e-05,
          2.82720976e-05, 8.64377216e-05, 2.94472866e-05,
          -5.35969812e-05, -1.02782258e-04, -2.28532124e-04,
          -2.26633390e-04, -1.81229610e-04, -1.41660828e-04,
          -9.56481308e-05, -9.46308865e-05, -8.00141424e-05,
          -7.35985886e-05, -4.64557706e-05, -4.92506570e-06,
          -8.10657002e-05, -8.54711470e-05, 1.01763500e-04,
          2.80948851e-04, 1.27910738e-04, -1.00845456e-04,
          -6.93869224e-05, -3.56168166e-05, 1.88159520e-05,
          1.94416243e-05, 4.99596390e-05, -1.25226334e-05,
          -1.06802516e-04, -2.68901058e-04, -3.09169991e-04,
          -3.04884830e-04, -2.53615552e-04, -1.74196830e-04,
          -1.58541530e-04, -1.44746882e-04, -1.14965827e-04,
          -8.62636953e-05, -5.83006149e-05, -2.62806880e-05,
          -4.79444134e-05, -5.70179873e-05, 1.08284810e-04,
          2.70627614e-04, 1.21991790e-04, -9.02630054e-05,
          -6.94218616e-05, -9.93858612e-06, 2.84632151e-05,
          2.29280431e-05, 3.65434425e-05, 2.75568277e-06,
          -2.22606235e-04, -3.53575742e-04, -3.59558064e-04,
          -3.27073096e-04, -2.60525965e-04, -1.48167004e-04,
          -1.17983735e-04, -7.04972772e-05, -1.08648594e-04,
          -1.02756952e-04, -6.20487335e-05, -4.23438505e-05,
          -3.55919328e-05, -3.62767969e-05, 1.41126133e-04,
          2.75492202e-04, 1.40741133e-04, -6.53229072e-05,
          -7.47941594e-05, -1.74414272e-05, 1.50485939e-05,
          -2.15491600e-05, -4.02300248e-05, -1.00051766e-04,
          -2.39921952e-04, -2.71432102e-04, -2.89306947e-04,
          -3.20124032e-04, -3.00392945e-04, -2.11048202e-04,
          -1.93189568e-04, -1.29616135e-04, -9.04100234e-05,
          -2.87728690e-05, -2.72096968e-05, -5.12471925e-05,
          -4.39472642e-05, -6.51116943e-06, 1.51518427e-04,
          2.68940785e-04, 1.30662986e-04, -7.73735446e-05,
          -9.03442124e-05, -2.72298093e-05, 2.02745377e-05,
          -3.98453885e-05, -8.58388012e-05, -1.83441167e-04,
          -1.87582409e-04, -2.05578952e-04, -2.20223417e-04,
          -2.72305886e-04, -2.58650049e-04, -1.96764304e-04,
          -1.80881994e-04, -1.60195283e-04, -1.47640589e-04,
          -1.18095231e-04, -9.49584137e-05, 5.26957274e-06,
          -3.10118412e-05, -1.77489176e-06, 1.93628410e-04,
          2.85119953e-04, 1.17328098e-04, -7.90190243e-05,
          -8.52743397e-05, -5.16452310e-05, 3.01488035e-05,
          -6.57653873e-05, -1.32133937e-04, -2.67172029e-04,
          -1.96307534e-04, -2.29132827e-04, -2.46121257e-04,
          -2.30940583e-04, -1.39902157e-04, -9.28583177e-05,
          -8.28137054e-05, -7.61609335e-05, -7.21088654e-05,
          -5.28218407e-05, 2.77151912e-06, 2.79195337e-05,
          8.06784556e-06, 6.36976911e-05, 1.79686220e-04, 2.62686168e-04,
          1.47671090e-04, -8.93162505e-05, -8.37261396e-05,
          -4.31308181e-05, 1.19608412e-05, -7.50919717e-05,
          -2.25610231e-04, -2.89335527e-04, -2.92481564e-04,
          -2.33919593e-04, -2.25861906e-04, -1.88932958e-04,
          -1.00764366e-04, -5.68085889e-05, -1.00936495e-05,
          -1.40816828e-05, 2.14257670e-05, 2.24594660e-05,
          5.03826050e-05, 9.23818661e-05, 9.35432981e-05, 1.57827366e-04,
          3.18364269e-04, 2.44127819e-04, 1.38662508e-04,
          -1.31407360e-04, -9.84506260e-05, -4.47540042e-05,
          3.42484640e-07, -5.96171521e-05, -2.53970269e-04,
          -3.30109178e-04, -3.08567629e-04, -3.07760900e-04,
          -2.07068850e-04, -9.26603316e-05, -6.63645405e-05,
          -5.47039926e-05, -2.14508673e-05, 8.48750005e-06,
          4.01506695e-05, 5.75582089e-05, 7.28060113e-05, 9.03857799e-05,
          8.30317804e-05, 1.62904340e-04, 3.48174217e-04, 2.52611935e-04,
          1.60368727e-04, -1.27860592e-04, -8.90843003e-05,
          -5.85202615e-05, -1.15583748e-06, -8.54622049e-05,
          -2.55355379e-04, -3.25988542e-04, -3.47429566e-04,
          -3.43613152e-04, -1.71115666e-04, -6.09200179e-05,
          5.57783051e-06, 2.53922990e-05, 4.54810179e-05, 7.89003607e-05,
          1.05932930e-04, 1.06045489e-04, 1.32670815e-04, 1.27798354e-04,
          1.41587981e-04, 2.05826538e-04, 3.50566144e-04, 2.64585484e-04,
          1.78574919e-04, -1.43099445e-04, -8.81103260e-05,
          -6.87481661e-05, 6.19388356e-06, -8.60593645e-05,
          -2.37575005e-04, -2.99166219e-04, -3.05361609e-04,
          -2.08636353e-04, -2.29700636e-05, 3.69884765e-05,
          6.66215201e-05, 9.63799394e-05, 9.04418630e-05, 1.15162038e-04,
          1.47653758e-04, 1.18091528e-04, 1.54439142e-04, 2.01029252e-04,
          1.96092427e-04, 2.48287019e-04, 3.86798085e-04, 3.78677592e-04,
          2.71396129e-04, -1.38631367e-04, -7.03410769e-05,
          -7.40794931e-05, -3.67179382e-05, -9.66989028e-05,
          -2.98995670e-04, -2.37741886e-04, -1.98586466e-04,
          -1.65464910e-04, -1.35573937e-04, -4.23218116e-05,
          2.57163792e-05, 5.19665191e-05, 5.78184990e-05, 8.34263701e-05,
          9.37612785e-05, 9.71025220e-05, 1.14192808e-04, 1.23012229e-04,
          1.48462816e-04, 2.23013689e-04, 2.66809715e-04, 3.67512141e-04,
          3.04947782e-04, -7.51404586e-05, 2.28683366e-05,
          -2.26000229e-05, 1.68824226e-05, -7.30321626e-05,
          -2.66387855e-04, -3.05287074e-04, -2.19574358e-04,
          -2.36747044e-04, -2.24581629e-04, -1.66835744e-04,
          -6.87678621e-05, -2.76532210e-05, -1.64194773e-06,
          4.11052788e-05, 3.84804734e-05, 1.68269489e-05, 1.82212334e-05,
          -2.75978800e-06, 1.22741494e-05, 1.19428929e-04,
          2.28497651e-04, 3.27878108e-04, 3.07583774e-04,
          -6.19278653e-05, 1.03569422e-04, 6.79447985e-05,
          1.20665049e-04, 2.10011312e-05, -1.65261459e-04,
          -1.42288336e-04, -1.93925909e-04, -1.49331056e-04,
          -1.29455133e-04, -7.17560106e-05, -2.26482680e-05,
          1.39960457e-05, 9.61051119e-05, 9.37351360e-05, 1.19832323e-04,
          9.97322059e-05, 9.54858697e-05, 9.96323506e-05, 9.71018089e-05,
          1.56120106e-04, 3.08743125e-04 ]
      - [ -1.67701603e-03, 3.64513689e-04, -2.75321724e-03,
          -1.20539765e-03, 5.81537199e-04, -2.35614221e-04,
          -8.48061754e-04, 1.04928156e-03, 8.18864151e-04,
          1.15948822e-03, 2.04593828e-03, 3.50035424e-03, 2.40737735e-03,
          1.93973596e-04, 9.80639132e-04, 8.41169269e-04,
          -9.79237258e-04, -1.37670862e-03, 1.18964643e-04,
          -4.80831251e-04, 4.97789530e-04, 1.12848589e-03,
          6.28559559e-04, 1.15310810e-04, -8.27269803e-04,
          2.81255040e-03, -1.19996851e-03, -3.11786542e-03,
          -4.85042074e-05, -7.01404933e-04, -8.48958211e-04,
          -5.90212294e-04, 4.24215570e-04, 7.78946967e-04,
          -2.85194372e-04, -4.25902472e-05, -9.54482181e-04,
          -1.61443232e-03, -6.71212503e-04, 6.23473199e-04,
          6.64398831e-04, 7.50129984e-04, 5.21852169e-04, 2.73074111e-04,
          4.64405515e-04, 1.50185439e-03, 7.17899762e-04,
          -9.53291892e-04, -1.21879624e-03, 2.73852871e-04,
          3.29886097e-04, -1.32636706e-04, 9.02752799e-04,
          9.18259786e-04, 2.96481685e-05, 1.08987174e-03, 7.77633046e-04,
          1.40837627e-03, 1.32342358e-03, 1.79404730e-03, 1.10994023e-03,
          5.33469254e-04, 4.86129255e-04, 6.44383777e-04, 3.03525128e-04,
          4.37069626e-04, 1.44102814e-04, -7.73166306e-04,
          -8.23539565e-04, 1.07723090e-03, -4.25135891e-04,
          -2.44449079e-03, 3.53643583e-04, 1.50752580e-03,
          -1.05173641e-03, -4.31162398e-03, -3.26363998e-03,
          -2.66003213e-03, -3.83468322e-03, -7.46851845e-04,
          3.13784229e-04, 5.42046910e-04, 1.47961697e-03, 5.52632206e-04,
          -2.18357868e-03, -8.04985175e-04, -3.26063979e-04,
          -2.44057053e-04, -8.25063558e-04, 1.16065581e-04,
          3.79308476e-04, 1.58103372e-04, -5.43584138e-05,
          1.14978722e-03, -3.08361632e-04, -2.67284107e-03,
          -4.96123976e-04, 1.90087059e-03, 3.49517423e-03,
          1.80848383e-05, -3.58305522e-04, -8.45150847e-04,
          -2.17913697e-03, 3.26981753e-05, 6.13266369e-04,
          9.71536443e-04, 1.03878975e-03, 1.06815202e-03, 8.35866784e-04,
          9.11964627e-04, 1.15523173e-04, -6.68652181e-04,
          -3.49515874e-04, 1.65290228e-04, 8.30135250e-04,
          4.69898107e-04, 2.00090930e-04, 1.90824794e-03, 1.74146204e-03,
          3.50866583e-04, -7.87989411e-04, 4.97676265e-05,
          2.16656760e-03, -2.95073725e-04, -1.73279096e-03,
          -1.26347528e-03, -1.44223880e-03, -5.41688059e-04,
          1.83921278e-04, 3.11889773e-04, 6.26477267e-05,
          -1.07627909e-03, -6.72429393e-04, -6.49325433e-04,
          -6.36173412e-04, -1.12801697e-03, -5.88744180e-04,
          -1.50300679e-03, -5.49745047e-04, 3.83102670e-05,
          -4.96332184e-04, 1.67969512e-04, 2.52705038e-04,
          -1.43707395e-04, 1.26653071e-03, -1.74372527e-03,
          1.24372519e-03, -4.61848074e-04, -1.36920565e-03,
          -2.79823464e-04, -1.30768858e-05, 4.22156649e-04,
          3.14909150e-04, -5.90649550e-04, -6.88891974e-04,
          -5.70250908e-04, -1.25550071e-03, -2.11078138e-03,
          -1.13587524e-03, -5.16060682e-04, -1.40276819e-03,
          -1.06534502e-03, -1.46208113e-04, 3.99345445e-04,
          -2.54022249e-04, -3.21242696e-04, -1.28124363e-03,
          -1.51843962e-03, 2.59970967e-03, -2.98613231e-05,
          1.91281969e-03, -2.28075049e-04, -7.18816300e-04,
          -4.60332434e-04, -6.12975464e-06, 2.05991208e-04,
          4.91242565e-04, 2.00799215e-04, -6.52190298e-04,
          -1.32354640e-03, -1.26459682e-03, -9.00523097e-04,
          -1.18365057e-03, -1.19246286e-03, -1.31822668e-03,
          8.16948363e-04, 1.74882787e-03, 1.46031997e-03, 2.21553631e-03,
          2.14757002e-03, 1.55064149e-03, 5.12853125e-03, 1.37020019e-03,
          -1.22135552e-03, 2.10619951e-03, -7.57385336e-04,
          -8.83019762e-04, -1.93211730e-04, -4.19264135e-04,
          -2.98882747e-04, 4.23556048e-04, 3.09321855e-04,
          -5.80542139e-04, -1.81021809e-03, -1.72562210e-03,
          1.42335848e-04, -8.92163225e-05, 5.21850889e-04,
          1.24796666e-03, 2.20632181e-03, 2.91494001e-03, 3.35851707e-03,
          2.80807540e-03, 1.01325614e-03, 1.39315752e-03, 3.19966325e-03,
          1.70248712e-03, -1.22198381e-03, 1.54002511e-03,
          -7.31806096e-04, -1.03411789e-03, -6.47346140e-04,
          -2.54581595e-04, 5.53714170e-04, 6.22658408e-04,
          -2.36763401e-04, -1.12561812e-03, -1.17542432e-03,
          -2.19178339e-03, -3.00020282e-03, -1.16493306e-04,
          3.11536540e-04, -1.02450745e-03, 6.42713683e-04,
          1.12434500e-04, 2.18442734e-03, 2.01814482e-03,
          -3.10081086e-04, 1.37755560e-04, 3.85354098e-04,
          1.24503626e-03, -1.18858425e-03, 1.25632028e-03,
          2.84106121e-04, -2.92748533e-04, -8.49053322e-05,
          3.41610110e-04, 6.84376108e-04, 3.70378693e-05, 9.15300858e-04,
          6.39452948e-04, 2.75234110e-04, -4.94649343e-04,
          2.77987419e-04, -1.37588591e-04, -1.59610680e-03,
          -1.01851497e-03, 1.14411314e-03, 6.81241218e-05,
          1.52512884e-03, 2.64798268e-03, 4.98947666e-05,
          -8.43483780e-04, -1.88757654e-03, 7.69709877e-04,
          -1.12250238e-03, 5.65219554e-04, -3.12554534e-04,
          -5.26987074e-04, 2.39671613e-06, 6.09047129e-04,
          1.23052811e-03, 6.10701565e-04, 1.37810584e-03, 1.65698945e-03,
          1.80187670e-03, 2.38653738e-03, 1.71105994e-03,
          -8.28075630e-04, -1.64096849e-03, 1.22626650e-03,
          1.92116247e-04, 7.66575977e-04, 1.72167970e-03, 2.21991283e-03,
          1.16681762e-03, -1.90817707e-04, 3.29279632e-04,
          -1.14224222e-03, -1.72375177e-03, -8.84996087e-04,
          4.28493280e-04, -7.09583866e-04, 6.17040496e-04,
          1.54652016e-03, 1.88468560e-03, 1.98952667e-03, 2.26428173e-03,
          9.09848837e-04, 6.35027362e-04, 3.44925723e-03, 2.29948922e-03,
          6.54573669e-04, -5.16815518e-04, 6.97209092e-04,
          1.41295634e-04, -2.87089002e-04, -1.34624366e-03,
          1.80898147e-04, 2.98103812e-04, -3.88271088e-04,
          -7.88069272e-04, 2.92780955e-04, -1.51939725e-03,
          -3.21431668e-03, -8.13871913e-04, -1.22730609e-03,
          6.33944990e-04, 1.84253883e-03, 2.35791155e-03, 2.70839152e-03,
          2.59992760e-03, 6.18390099e-04, -1.77203724e-03,
          1.99381309e-03, 8.10136611e-04, -1.61702244e-03,
          -4.17996943e-03, -1.88024645e-03, -6.22530933e-04,
          7.26699887e-04, -1.13994046e-03, 7.97525165e-04,
          1.00428716e-03, -3.82667087e-04, -1.30334427e-03,
          1.48917176e-03, -5.34633524e-04, -2.54240446e-03,
          -3.94999050e-03, -3.34175071e-03, -1.15570461e-03,
          1.86666753e-03, 2.57571810e-03, 2.94534001e-03, 2.80671217e-03,
          1.20665052e-03, -1.80877047e-03, 1.95918372e-03,
          -7.32682587e-04, 3.94498202e-04, -1.17843342e-03,
          -9.62678401e-04, -1.38894899e-03, 7.14390888e-04,
          7.17875257e-04, 1.54712994e-03, 8.29744560e-04, 3.47673253e-04,
          8.65168637e-04, -3.18109815e-05, -3.47616663e-03,
          -2.28381180e-03, -1.02281594e-03, -2.38494179e-03,
          -1.98757416e-03, 1.81495899e-03, 2.18808628e-03,
          3.02936463e-03, 2.69573415e-03, 2.17447104e-03, 1.36008719e-03,
          1.34453189e-03, -2.12961459e-03, 2.64066301e-04,
          1.21420899e-05, -1.55992596e-03, -5.47725242e-04,
          -4.75714449e-04, 4.16368945e-04, 5.52165729e-04,
          9.63513856e-04, -2.46718992e-04, -7.71208259e-04,
          2.17021257e-03, -4.39129799e-04, -3.75390216e-03,
          1.02323589e-04, -9.31150571e-05, -2.72913603e-04,
          1.18336058e-03, 9.61871585e-04, 1.34189334e-03, 2.11389200e-03,
          2.72613764e-03, 2.82651791e-03, 1.94346439e-03,
          -1.03889045e-03, -1.20730849e-03, 5.80253836e-04,
          8.58658459e-04, 2.68100086e-03, 2.97757820e-03, 8.30490899e-04,
          7.15759234e-04, 1.25072245e-03, -7.29715335e-04,
          4.95661690e-04, 5.97806007e-04, 2.29256158e-03, 1.11355257e-04,
          -3.75212228e-04, -4.95850458e-04, 7.11592962e-04,
          1.75999932e-03, 1.95592456e-03, -1.01898902e-03,
          1.74620345e-05, 1.12314126e-03, 2.45062634e-03, 1.57300092e-03,
          -1.51838161e-04, -3.54623073e-04, -2.61202309e-04,
          2.15344341e-03, 1.33600645e-03, 7.00179487e-04, 6.91761306e-05,
          1.19684741e-03, 1.04997703e-03, -2.98723680e-05,
          -1.15951768e-03, -9.00301384e-04, 2.84327124e-03,
          -1.06758554e-03, 8.45536939e-04, -5.77031926e-04,
          6.35988079e-04, 1.50929787e-03, 1.71584019e-03, 1.35553442e-03,
          -1.46014139e-03, -2.09112950e-05, 1.62807526e-03,
          5.83086920e-04, 4.91745421e-04, 1.20541263e-04,
          -8.09933466e-04, 1.18589355e-03, 1.86613516e-03,
          1.49456423e-03, -1.15236799e-04, 7.83812255e-04,
          6.62573671e-04, -4.44575184e-04, -1.19863497e-03,
          -1.95655343e-03, 2.93088867e-03, 8.51518780e-06,
          -1.50384585e-04, -5.45156130e-04, 5.89350529e-04,
          1.07092469e-03, -2.48813420e-04, 5.69867370e-05,
          1.30822032e-03, 2.80473148e-04, 5.38198277e-04,
          -1.03593420e-03, 3.36254379e-05, -1.33667525e-03,
          -4.45797690e-04, -7.82973249e-04, 3.82736151e-04,
          -3.21325788e-04, 7.36804359e-05, -1.87820406e-04,
          1.24331520e-04, -1.40864879e-03, -1.40944927e-03,
          -1.50967867e-03, 1.17749500e-03, -1.43578975e-03,
          -1.18507072e-03, -1.07867178e-03, -1.13176159e-03,
          -3.20919091e-04, -8.12541926e-04, -1.87755458e-03,
          1.39792159e-04, -7.67444726e-04, -4.27893159e-04,
          -1.30108895e-03, -2.20234878e-03, -2.27843737e-03,
          -1.22370303e-03, -1.06963958e-03, -1.05893833e-03,
          -1.56420365e-03, -2.60943035e-03, -1.95389963e-03,
          -2.96852551e-04, -3.67705507e-04, -1.42508862e-03,
          -3.56019824e-03, 6.44290994e-04, 8.68172559e-04,
          1.36739656e-03, -9.45705979e-04, -1.52861082e-03,
          9.47944529e-04, 1.85130292e-03, 6.57051511e-04, 1.14418776e-03,
          2.70335353e-04, 6.03763503e-04, 6.86018204e-04,
          -8.50916258e-04, -1.64841837e-03, -8.58551939e-04,
          -1.11329870e-03, -5.79781248e-04, -2.70004268e-04,
          -1.43879245e-03, -1.03922212e-03, -7.84811564e-04,
          -1.77191838e-03, -4.78746789e-03, -5.74837066e-03,
          -6.47390611e-04, 2.15104432e-04, 3.02641816e-03,
          4.50823340e-04, -2.69984739e-04, 1.42393121e-03,
          6.35067059e-04, 8.22996837e-04, 1.02642621e-03, 9.99014126e-04,
          6.40955914e-05, 2.93432357e-04, 5.55430597e-04,
          -4.57077491e-04, -3.36987257e-04, -1.70607551e-03,
          2.42251535e-05, -6.86895743e-04, -1.41883816e-03,
          -1.72069485e-04, 9.09670955e-04, 1.42147730e-03,
          7.91875413e-04, -6.87356154e-03, -9.35472897e-04,
          -1.68798130e-03, 5.80840395e-04, 6.87376945e-04,
          8.67736060e-04, 1.36543077e-03, 1.36662787e-03, 2.06976035e-03,
          1.87291298e-03, 1.07797224e-03, 5.03901334e-04, 2.42592228e-04,
          -9.36790369e-04, -1.83438265e-03, -5.25535026e-04,
          1.66536716e-03, 3.97305121e-04, -2.73828337e-05,
          -6.51271024e-04, -1.06759020e-03, 9.51876063e-06,
          1.74689703e-04, 1.18015020e-03 ]
      - [ -1.33378571e-05, 1.91127710e-05, 7.52651249e-05,
          3.46260240e-05, 4.23569945e-05, 7.70912666e-05, 9.26657885e-05,
          1.27679930e-04, 1.09134497e-04, 1.10795329e-04, 4.67781720e-05,
          2.42044498e-05, 3.42276107e-05, 2.43462491e-05, 3.09247043e-05,
          4.87978796e-05, 9.81490302e-05, 1.29383450e-04, 1.50847525e-04,
          1.68584433e-04, 1.78885370e-04, 1.84995093e-04, 1.62497134e-04,
          1.07230218e-04, 7.82493501e-08, 3.05094618e-05, 4.19422431e-05,
          -9.99582817e-09, 3.50596601e-05, 8.49311255e-05,
          9.93864742e-05, 1.24080994e-04, 1.10694506e-04, 1.19851771e-04,
          9.81855410e-05, 5.71374449e-06, 2.38886605e-05, 4.18171840e-05,
          3.54858093e-05, 5.93411824e-05, 9.62590493e-05, 1.16112657e-04,
          1.38802701e-04, 1.50479667e-04, 1.72879139e-04, 1.80738862e-04,
          1.51629472e-04, 1.20610122e-04, 4.62757125e-05, 7.18651208e-05,
          7.34819550e-05, 3.66743479e-05, 7.96668101e-05, 1.30492728e-04,
          1.34650574e-04, 1.22044286e-04, 1.16776791e-04, 1.01995407e-04,
          9.81266858e-05, 9.46341097e-05, 3.24857065e-05, 4.75445413e-05,
          6.45241744e-05, 6.22556254e-05, 8.11151331e-05, 1.01285812e-04,
          1.34792004e-04, 1.51869215e-04, 1.13812290e-04, 1.35211012e-04,
          9.87726962e-05, 1.03160397e-04, 1.08357206e-04, 1.35923387e-04,
          1.18447439e-04, 5.63458780e-05, 5.20702815e-05, 1.12626760e-04,
          1.59858115e-04, 1.16606905e-04, 4.74978842e-05, 6.42513914e-05,
          1.35035880e-04, 9.32677722e-05, 4.93305342e-05,
          -7.36559923e-06, -3.94045992e-06, 1.19586266e-05,
          3.79590856e-05, 5.71374621e-05, 7.61057308e-05, 1.12642731e-04,
          1.35126655e-04, 4.32167290e-05, -2.16112294e-05,
          7.66581434e-06, 9.53500494e-05, 1.39355980e-04, 1.23399121e-04,
          6.13617885e-05, 5.82230168e-05, 9.84956059e-05, 1.42472869e-04,
          1.98866328e-04, 1.05399900e-04, 1.84375516e-04, 1.51379078e-04,
          1.30289234e-04, 6.96853895e-05, 2.85666301e-05,
          -5.82042958e-05, -4.36805640e-05, -8.33578179e-06,
          2.63084530e-05, 5.86998431e-05, 8.21786743e-05, 1.14924755e-04,
          1.34542046e-04, -2.53631842e-05, -9.42897441e-06,
          8.59067804e-05, 9.82923229e-05, 9.79666802e-05, 6.62984457e-05,
          6.43543390e-05, 1.01419282e-04, 1.37998184e-04, 1.90367035e-04,
          2.32652092e-04, 1.53712128e-04, 9.96612580e-05, 8.77569037e-05,
          9.11043680e-05, 7.89976111e-05, 7.90828853e-05, 3.73127732e-05,
          -1.17265945e-05, -3.98415750e-07, 3.17184531e-05,
          6.44148095e-05, 8.13117877e-05, 1.06642052e-04, 7.79104739e-05,
          -3.41079722e-05, 8.40147986e-05, 1.13988448e-04,
          9.39326274e-05, 3.89994057e-05, 2.14700849e-05, 8.32835940e-05,
          1.30385466e-04, 1.78903210e-04, 2.36024964e-04, 1.61179050e-04,
          8.75536862e-05, 9.15468481e-05, 9.27193178e-05, 1.09120389e-04,
          1.45624857e-04, 1.14744304e-04, 1.05238643e-04, 4.38826719e-05,
          6.15520330e-05, 7.95406668e-05, 6.28603520e-05, 7.22360273e-05,
          5.20411450e-05, -1.76323574e-05, 8.37581392e-05,
          1.06385902e-04, 8.36796098e-05, 4.99700691e-05, 3.44691070e-05,
          5.94622034e-05, 8.32169098e-05, 1.86962789e-04, 2.34672349e-04,
          1.80934672e-04, 1.65009202e-04, 9.54812640e-05, 8.45781833e-05,
          1.16648174e-04, 1.34891510e-04, 1.30651897e-04, 1.20317498e-04,
          1.10415429e-04, 4.20655888e-05, 6.85428677e-05, 5.88248768e-05,
          4.65618541e-05, 1.79642011e-05, 7.68864447e-06, 7.37558148e-05,
          9.06195128e-05, 6.86769999e-05, 4.60909869e-05, 1.51697177e-05,
          5.73160978e-05, 4.84008633e-05, 1.29998429e-04, 2.01240531e-04,
          1.86955891e-04, 1.66122249e-04, 1.69829698e-04, 1.11679205e-04,
          8.47486517e-05, 1.04995641e-04, 1.12586538e-04, 1.48264633e-04,
          1.42715828e-04, 1.35537222e-04, 8.76921404e-05, 7.21001488e-05,
          1.07693031e-05, -8.19327033e-06, -1.88126469e-05,
          4.95250024e-05, 7.52937412e-05, 5.69187941e-05, 4.41110351e-05,
          4.94406504e-06, 5.76395869e-05, 3.37644669e-05, 8.13175939e-05,
          1.70924759e-04, 1.67363483e-04, 1.74595334e-04, 1.25893843e-04,
          1.04633698e-04, 1.13396563e-04, 1.75382156e-04, 1.86020829e-04,
          1.99770264e-04, 1.62152806e-04, 1.66808575e-04, 1.20691700e-04,
          7.03970800e-05, -1.57448176e-06, -6.02508480e-05,
          -1.56219103e-05, 4.39388132e-05, 7.17308722e-05,
          4.35011862e-05, 2.38054072e-05, -5.99343230e-06,
          6.13323718e-05, 1.36494291e-05, 5.98380611e-05, 1.10756853e-04,
          1.27891020e-04, 1.40742690e-04, 1.28491374e-04, 1.12610956e-04,
          1.30951041e-04, 1.56512833e-04, 2.02748939e-04, 2.32820239e-04,
          2.01065908e-04, 1.82914213e-04, 1.50572450e-04, 5.50035038e-05,
          9.65864160e-07, -5.97743820e-05, -2.71251920e-05,
          2.22927174e-05, 5.96501595e-05, 2.62868307e-05, 1.17619247e-05,
          -2.91117321e-05, 4.47741731e-05, 1.91716549e-06,
          6.50260263e-05, 6.88174769e-05, 7.62528362e-05, 7.79519905e-05,
          9.13451295e-05, 8.94788827e-05, 1.12896727e-04, 1.45240163e-04,
          1.86638776e-04, 2.02951211e-04, 2.22933639e-04, 1.63850535e-04,
          1.53987261e-04, 1.05770814e-05, -1.49755806e-05,
          -7.56829322e-05, -1.73895587e-05, -1.17080644e-05,
          2.72579382e-05, 1.11507907e-05, -1.61396765e-05,
          -5.76711864e-05, 2.07325902e-05, -1.21933926e-05,
          5.59786240e-05, 5.07794139e-05, 5.17775115e-05, 4.31622029e-05,
          4.24565405e-05, 5.89181836e-05, 8.65162292e-05, 1.15716779e-04,
          1.61515840e-04, 1.80937335e-04, 2.00485127e-04, 1.94615874e-04,
          9.06860369e-05, -3.18728526e-05, -1.83893899e-05,
          -5.13179803e-05, -1.25834040e-05, -1.77393922e-05,
          1.24096860e-05, -1.83165128e-06, -3.52644638e-05,
          -7.40783798e-05, 1.03693219e-06, -1.51681970e-05,
          3.69860027e-05, 1.81080377e-05, 1.79455092e-05, 3.53805331e-06,
          7.83263386e-06, 3.63209983e-05, 6.49074573e-05, 8.76541308e-05,
          1.40464457e-04, 1.59524410e-04, 1.43280035e-04, 1.34733491e-04,
          2.30181249e-05, -5.89889823e-05, -2.72003927e-05,
          -4.62153876e-05, -1.04549672e-05, -1.98561738e-05,
          4.30156024e-06, -1.11181225e-05, -4.69926672e-05,
          -8.40110442e-05, -2.65897797e-05, -2.97108581e-05,
          -4.78544735e-06, -9.37900040e-06, -1.57817449e-05,
          -2.13273397e-05, -4.11430992e-05, -2.32677830e-05,
          9.85024417e-06, 7.27329243e-05, 1.04995808e-04, 9.86695231e-05,
          8.03824441e-05, 7.36681541e-05, -2.04651260e-05,
          -6.32229494e-05, -3.83980005e-05, -5.55459337e-05,
          -1.48103788e-06, -1.88632093e-05, 6.50479797e-06,
          1.39756810e-06, -4.53186622e-05, -9.31572868e-05,
          -8.08715413e-05, -4.49762920e-05, -7.62258933e-05,
          -2.67526721e-05, -4.57946117e-05, -4.41013653e-05,
          -3.84784071e-05, -9.70375140e-07, 1.56656733e-05,
          7.42179982e-05, 8.51170262e-05, 7.98174515e-05, 5.06569668e-05,
          3.30273106e-05, -5.16089858e-05, -9.37609220e-05,
          -6.14092496e-05, -5.88422736e-05, -1.25591314e-05,
          -2.21968294e-05, 6.20130322e-06, -1.66271857e-05,
          -3.56376731e-05, -1.09648841e-04, -1.17566837e-04,
          -1.03616585e-04, -1.21142526e-04, -1.94938202e-05,
          -5.31740916e-05, -7.39295210e-05, -5.14645690e-05,
          -1.23970513e-05, 3.40540537e-05, 6.66247288e-05,
          4.93966218e-05, 1.94085624e-05, 1.40677339e-05, 1.36339522e-05,
          -7.36683869e-05, -1.20281278e-04, -9.71748450e-05,
          -9.58033706e-05, -5.65627888e-05, -3.32284544e-05,
          1.18183571e-05, -1.09394141e-05, -4.56291818e-05,
          -1.31231951e-04, -1.17487900e-04, -1.10610345e-04,
          -1.16090749e-04, -1.03110062e-04, -6.47430716e-05,
          -9.57767916e-05, -6.14432502e-05, -3.96070936e-05,
          1.07053975e-05, 1.00702355e-05, -1.32811947e-05,
          2.56121598e-06, 4.84880547e-06, -8.63388414e-06,
          -1.00386416e-04, -1.16161944e-04, -1.00477962e-04,
          -1.08866872e-04, -1.28393760e-04, -4.31968783e-06,
          1.95779485e-05, -2.73774531e-05, -5.60771259e-05,
          -1.25521590e-04, -1.24500453e-04, -1.13263814e-04,
          -1.14115974e-04, -1.16214112e-04, -7.57449889e-05,
          -9.40238824e-05, -3.45689441e-05, -1.10455358e-05,
          5.79402786e-06, 3.62699643e-06, 1.09558441e-05, 1.60355521e-05,
          1.11276731e-05, -2.51308447e-05, -9.67784654e-05,
          -1.06204614e-04, -9.56989461e-05, -1.77912385e-04,
          -1.57786169e-04, -2.87885887e-05, -2.20654783e-05,
          -1.53229194e-05, -9.55599244e-05, -1.60370211e-04,
          -1.21514393e-04, -1.16514377e-04, -1.03498933e-04,
          -9.05116030e-05, -1.05940686e-04, -2.16027038e-05,
          3.62228843e-06, 4.63239667e-06, 8.89135390e-06, 1.09745679e-05,
          2.21675782e-05, 6.68442317e-06, -3.79824633e-06,
          -2.55484247e-05, -8.23746304e-05, -9.64527935e-05,
          -1.35908951e-04, -2.02219657e-04, -1.33195164e-04,
          -7.59327231e-05, -4.61670897e-05, -5.40061592e-05,
          -5.85667112e-05, -1.27731895e-04, -1.16050360e-04,
          -8.30591234e-05, -6.22196603e-05, -4.86966419e-05,
          -7.43209457e-05, -5.72948375e-05, -6.05265195e-05,
          -2.80815257e-05, -1.28393667e-05, -2.00716058e-05,
          -2.86091436e-05, -4.02458318e-05, -4.09521781e-05,
          -4.32705456e-05, -1.24764993e-04, -1.91749656e-04,
          -2.10968486e-04, -1.93787331e-04, -1.42335193e-04,
          -7.52059277e-05, -6.40054350e-05, -3.58934085e-05,
          -3.72702380e-05, -1.10206020e-04, -1.08564534e-04,
          -9.97160896e-05, -1.04046485e-04, -7.85520097e-05,
          -3.03617271e-05, -5.85021371e-05, -6.44643369e-05,
          -7.68366299e-05, -9.83013742e-05, -7.52742344e-05,
          -7.39359675e-05, -6.04889865e-05, -6.85502891e-05,
          -8.04074079e-05, -1.60461714e-04, -1.71464300e-04,
          -1.56700669e-04, -1.60837662e-04, -9.34832715e-05,
          -5.51598278e-05, -6.98766235e-05, 1.86279306e-06,
          -5.44714248e-06, -5.61074085e-05, -4.61874115e-05,
          -2.71815788e-05, 1.77876700e-05, 1.15775001e-05,
          8.51131063e-06, 2.23605252e-06, -5.16561386e-06,
          -4.44157267e-05, -5.64031361e-05, -5.70917691e-05,
          -5.37825908e-05, -4.99056077e-05, -5.03825358e-05,
          -3.40847510e-05, -7.85600205e-05, -1.09289125e-04,
          -8.39529166e-05, -7.35517897e-05, -1.92212410e-05,
          -3.33965181e-05, -3.15688194e-05, 3.61635139e-05,
          3.97449985e-05, -1.10818455e-05, -3.54164172e-06,
          -1.22200900e-05, -1.65202546e-05, -1.84336532e-05,
          -1.07422757e-05, -1.45061476e-05, -2.99397270e-05,
          -6.23884553e-05, -8.49868375e-05, -9.69200701e-05,
          -8.52321609e-05, -7.79594338e-05, -7.78449103e-05,
          -7.67701858e-05, -1.23110716e-04, -1.42066085e-04,
          -1.05770043e-04, -7.57827147e-05, -3.75260279e-05 ]
      - [ 1.00008096e-04, 1.21109071e-04, 1.00755373e-04, 1.38609554e-04,
          1.39553827e-04, 2.34174266e-04, 2.67638563e-04, 2.96835642e-04,
          2.78055930e-04, 3.06040369e-04, 3.15076817e-04, 2.89823249e-04,
          2.68007512e-04, 2.59411900e-04, 2.53524777e-04, 2.10903876e-04,
          1.67612961e-04, 1.87059777e-04, 1.82972013e-04, 2.07333665e-04,
          2.43850285e-04, 2.70949473e-04, 3.00044514e-04, 1.50882639e-04,
          7.59728864e-05, 1.22354919e-04, 1.17811578e-04, 1.53824265e-04,
          1.62191180e-04, 2.61130306e-04, 3.05158901e-04, 2.87272938e-04,
          2.53093371e-04, 2.62206246e-04, 2.40381851e-04, 1.73102584e-04,
          1.36742747e-04, 1.15827585e-04, 7.82055067e-05, 8.95690173e-05,
          1.21892801e-04, 5.89405972e-05, 1.23210470e-04, 1.54331006e-04,
          1.73856548e-04, 2.20558621e-04, 2.36785389e-04, 1.62705022e-04,
          7.34878777e-05, 9.90707340e-05, 1.00110716e-04, 1.33974041e-04,
          1.58501716e-04, 2.59631430e-04, 3.34792770e-04, 3.61060956e-04,
          2.92605342e-04, 1.57361923e-04, 1.26734318e-04, 1.32083223e-04,
          9.53543131e-05, 6.41577135e-05, 6.27301706e-05, 5.01852810e-05,
          7.53008135e-05, 7.47955928e-05, 2.29048164e-05, 1.15262199e-04,
          1.59444826e-04, 2.10198355e-04, 2.24547475e-04, 1.41251003e-04,
          8.73011886e-05, 1.14958922e-04, 9.89698747e-05, 1.56735681e-04,
          1.78449001e-04, 2.87902018e-04, 3.09399533e-04, 2.73967191e-04,
          1.85293946e-04, 1.46363382e-04, 1.32679314e-04, 1.16144256e-04,
          1.15864939e-04, 1.14623908e-04, 8.65274196e-05, 4.67381469e-05,
          3.90754176e-05, 7.81391282e-05, 5.46858173e-05, 5.83406872e-05,
          1.41348151e-04, 1.86782810e-04, 1.56556460e-04, 1.49905172e-04,
          1.03090722e-04, 1.32903733e-04, 1.12915892e-04, 1.59440853e-04,
          1.64702098e-04, 2.90202297e-04, 2.46110838e-04, 2.22422124e-04,
          1.80688090e-04, 1.67930295e-04, 1.37819574e-04, 1.18540374e-04,
          1.10481524e-04, 1.22741651e-04, 1.12761270e-04, 1.12643364e-04,
          6.66059714e-05, 5.21309812e-05, 1.08107241e-04, 4.15809700e-05,
          9.94610746e-05, 1.83617303e-04, 7.04054182e-05, 1.33387133e-04,
          1.03224629e-04, 1.44825332e-04, 1.11865367e-04, 1.49968066e-04,
          1.52714085e-04, 2.57421227e-04, 1.64936180e-04, 1.68542814e-04,
          1.56668291e-04, 1.23077625e-04, 1.04704304e-04, 9.35974822e-05,
          7.81933413e-05, 4.73948494e-05, 6.94928603e-05, 1.10115310e-04,
          1.32767178e-04, 8.09230551e-05, 8.54345926e-05, 1.04410836e-04,
          6.00286112e-05, 1.35627881e-04, 4.67364298e-05, 1.29983178e-04,
          1.12397116e-04, 1.71992695e-04, 1.20195800e-04, 1.32968707e-04,
          1.66187747e-04, 1.31738125e-04, 1.17410964e-04, 1.26114857e-04,
          1.30109212e-04, 1.18595301e-04, 1.34668895e-04, 1.24581944e-04,
          2.44336461e-05, 6.72235401e-05, 1.09497742e-04, 1.37919284e-04,
          1.24188809e-04, 1.21423996e-04, 8.92365642e-05, 7.25790742e-05,
          1.06320651e-04, 1.01376958e-04, 4.46852355e-05, 1.34687012e-04,
          1.18462303e-04, 1.83560609e-04, 1.39499607e-04, 1.51891960e-04,
          1.53987974e-04, 1.21658639e-04, 1.26494604e-04, 1.36785791e-04,
          1.08376029e-04, 1.04572857e-04, 1.18436103e-04, 1.06256761e-04,
          1.13053437e-04, 1.09917099e-04, 1.19322955e-04, 1.09514040e-04,
          1.01155994e-04, 1.02695478e-04, 1.10932873e-04, 2.92146960e-05,
          1.12923903e-04, 7.44574063e-05, 2.22378712e-05, 1.22354162e-04,
          9.55343494e-05, 1.49783911e-04, 1.09132772e-04, 1.42494886e-04,
          1.36015762e-04, 8.71383381e-05, 9.89425171e-05, 1.47045212e-04,
          1.46716149e-04, 1.21856938e-04, 1.01694932e-04, 9.95236187e-05,
          1.02643469e-04, 9.09159353e-05, 7.89857368e-05, 8.14872037e-05,
          9.13480617e-05, 9.07502836e-05, 1.03435326e-04, 7.74859654e-05,
          1.04790044e-04, 4.12533554e-05, -2.08981837e-05,
          9.87808744e-05, 1.06769330e-04, 9.57325828e-05, 6.94166301e-05,
          1.34945149e-04, 1.02652572e-04, 3.78612494e-05, 4.02962178e-05,
          7.67520542e-05, 1.02634214e-04, 1.34775051e-04, 1.35327296e-04,
          1.29855194e-04, 9.80030381e-05, 8.98668368e-05, 8.47637566e-05,
          7.77462919e-05, 9.22014733e-05, 1.09291781e-04, 1.22601370e-04,
          9.71376285e-05, 6.34743265e-05, -1.53350163e-06,
          -2.93023095e-06, 1.67670278e-05, 9.11644456e-05,
          7.90560007e-05, 3.22897249e-05, 1.08859007e-04, 8.19610723e-05,
          3.87957334e-05, -4.98751842e-06, 2.33070386e-05,
          4.36626906e-05, 1.07967651e-04, 1.61855016e-04, 1.69461986e-04,
          1.24712606e-04, 1.11201705e-04, 1.09655601e-04, 1.06637090e-04,
          1.20102064e-04, 1.49462547e-04, 1.76145055e-04, 1.52058637e-04,
          7.27136430e-05, -6.30352872e-07, -1.71306910e-05,
          -3.05171579e-05, 6.35234319e-05, 7.47775921e-05,
          -2.34406616e-05, 7.18779265e-05, 7.25586578e-05,
          2.99210024e-05, -1.88849140e-06, 3.36666267e-06,
          1.31207580e-05, 6.34531389e-05, 1.17216536e-04, 1.50810665e-04,
          1.28476153e-04, 1.30052198e-04, 1.28108368e-04, 1.26285478e-04,
          1.40873846e-04, 1.74335073e-04, 1.87750004e-04, 1.51704866e-04,
          2.35260723e-05, 6.62887396e-06, -3.44337459e-05,
          -2.83232475e-05, 6.83932376e-05, 6.72686583e-05,
          -4.31639564e-05, 3.81442874e-06, 6.27931513e-05,
          6.61643890e-06, 7.19112904e-06, -4.02025944e-05,
          -2.56028598e-05, 1.06109092e-05, 3.54275580e-05,
          8.01057540e-05, 1.13935886e-04, 1.24997023e-04, 1.34642949e-04,
          1.33617330e-04, 1.53457237e-04, 1.50141481e-04, 1.48086561e-04,
          9.82610582e-05, 2.86160102e-05, 2.19981848e-05,
          -1.86287471e-05, 3.58003967e-06, 7.55488218e-05,
          7.39924290e-05, -3.79284502e-05, -2.77342569e-05,
          4.35224101e-05, 2.19786011e-06, 3.93513983e-05,
          -1.06146153e-05, -2.54275747e-05, -3.10517098e-05,
          -4.49904473e-05, -4.37844283e-05, 4.89068625e-05,
          8.67368944e-05, 1.16309900e-04, 1.11650377e-04, 1.26274594e-04,
          9.19829981e-05, 1.08919034e-04, 7.83999130e-05, 3.94276176e-05,
          1.67927137e-05, -1.18810804e-05, -3.63089475e-06,
          7.25690115e-05, 7.17150542e-05, -4.23208803e-05,
          -3.65390115e-05, -2.93146895e-05, 8.13198142e-07,
          2.43568047e-05, 2.10020735e-05, -1.67651488e-05,
          -5.20545691e-05, -6.95493873e-05, -4.43218305e-05,
          5.13401574e-07, 2.59566878e-05, 4.54454603e-05, 8.03648436e-05,
          6.44006213e-05, 7.54285866e-05, 1.14888178e-04, 7.71826017e-05,
          2.81058947e-05, -1.11530153e-05, -1.60080663e-06,
          3.96618561e-05, 6.01617903e-05, 6.15940808e-05,
          -3.61347920e-05, -3.63123727e-05, -4.29472311e-05,
          -5.10891005e-05, 8.35887840e-06, 3.92749935e-05,
          1.60698564e-05, -2.32951461e-05, -6.84886763e-05,
          -4.25865619e-05, 2.36454321e-06, 2.21828122e-05,
          1.80590268e-05, 5.51758712e-05, 6.01938809e-05, 9.98754986e-05,
          1.18250078e-04, 8.82362583e-05, 1.07639207e-05,
          -1.98410794e-06, -1.84055825e-05, 8.18180706e-05,
          4.69935258e-05, 6.10909556e-05, -2.18919504e-05,
          -2.71273311e-05, -2.01754065e-05, -5.56150044e-05,
          -5.65356095e-05, -2.03268905e-06, -4.45400201e-06,
          -1.21384983e-05, -1.55680846e-05, -1.25295555e-05,
          8.16380236e-07, 1.72842319e-05, 2.60687484e-05, 4.34003123e-05,
          8.34044913e-05, 1.03806553e-04, 9.63623315e-05, 5.80594569e-05,
          -1.32461537e-05, -1.58185303e-05, 1.02394661e-05,
          1.02583035e-04, 8.61127501e-06, 1.12765356e-05,
          -4.64832956e-05, -1.27077465e-05, -4.61634454e-06,
          -4.74563349e-05, -8.29931232e-05, -1.12283771e-04,
          -5.17552035e-05, 1.03000084e-05, 3.01233667e-05,
          3.30622206e-05, 3.99643723e-05, 4.16269213e-05, 4.96648245e-05,
          8.01406568e-05, 1.15834919e-04, 1.11158399e-04, 6.03618282e-05,
          4.10813391e-06, -1.53769415e-05, -8.78119954e-06,
          3.81443206e-05, 9.99152617e-05, 2.90454022e-06,
          -3.76309322e-06, -7.52366177e-05, -3.37369092e-05,
          -3.14904210e-05, -2.89703712e-05, -4.85461060e-05,
          -8.21178255e-05, -9.58849632e-05, -7.09047526e-05,
          1.71405809e-05, 6.24560053e-05, 8.71984739e-05, 1.17088224e-04,
          1.43503406e-04, 1.44983482e-04, 1.05372390e-04, 4.37313574e-05,
          3.00980992e-05, -1.15845990e-06, -1.61629596e-05,
          7.58465058e-06, 4.27059204e-05, 1.00010955e-04,
          -5.32888153e-05, -3.03136512e-05, -6.46932458e-05,
          -1.47687833e-05, -7.21085962e-06, -1.50727801e-05,
          -4.84655466e-05, -3.53693758e-05, -3.77448741e-05,
          -2.90627831e-05, -1.18311218e-05, 1.61562039e-05,
          3.90479545e-05, 4.41623160e-05, 5.23569252e-05, 4.69414881e-05,
          3.71182032e-05, 4.01480102e-05, 1.79371473e-05, 1.40905086e-05,
          2.94580286e-06, 2.09939371e-05, 4.07313601e-05, 1.21210847e-04,
          -1.68101556e-04, -1.52938155e-04, -1.33630296e-04,
          -1.28609929e-04, -1.07993830e-04, -1.00515223e-04,
          -1.00364596e-04, -1.09608322e-04, -1.09138855e-04,
          -1.07565407e-04, -1.15041257e-04, -1.21431578e-04,
          -1.16297597e-04, -1.26086205e-04, -1.23723017e-04,
          -1.28540865e-04, -1.11066205e-04, -1.00561243e-04,
          -1.00357021e-04, -1.17632706e-04, -1.20025077e-04,
          -1.07212960e-04, -6.50419679e-05, 2.15401178e-05,
          -8.30228601e-05, -1.50132066e-04, -1.15045164e-04,
          -1.13751099e-04, -1.05946456e-04, -1.12514354e-04,
          -1.30079992e-04, -1.18097290e-04, -1.22042271e-04,
          -1.14167357e-04, -9.22565960e-05, -1.04600178e-04,
          -9.67056694e-05, -9.48674278e-05, -8.93115066e-05,
          -8.50030701e-05, -8.87072674e-05, -8.29802520e-05,
          -7.88229663e-05, -9.25557470e-05, -8.60336877e-05,
          -7.54314242e-05, -4.34841240e-05, 5.51135781e-05,
          1.96026704e-05, -6.58303179e-05, -9.46832915e-06,
          -3.83377410e-05, -2.30005608e-05, -2.70518485e-05,
          -3.40126026e-05, -2.03511481e-05, -2.34546987e-05,
          -1.85555346e-05, -9.62963622e-06, -1.74889974e-05,
          -1.88604354e-05, -2.09992140e-05, -8.26710038e-06,
          -7.87894260e-06, -8.77529089e-07, 7.77020614e-06,
          1.28063348e-05, -3.57902604e-06, -1.46917091e-05,
          -2.79146616e-06, 1.54663994e-05, 1.07648993e-04,
          3.75875097e-05, -5.10033315e-05, -1.02335662e-05,
          -2.66739007e-05, -5.73950956e-06, 7.18015463e-06,
          4.00579620e-06, 2.86243358e-06, 1.86580892e-05, 1.67917515e-05,
          4.05707542e-05, 2.14354041e-05, 2.49469631e-05, 2.38290977e-05,
          1.84393975e-05, 1.84143737e-05, 2.87775893e-05, 1.75470050e-05,
          3.40894803e-05, 1.54768695e-05, 1.19087335e-05, 1.93476571e-05,
          4.23345700e-05, 1.15224517e-04 ]
      - [ 9.84105282e-05, 1.07112814e-04, 5.56105042e-05, 6.39951322e-05,
          8.74112229e-05, 2.03117830e-04, 2.53211969e-04, 3.47556634e-04,
          3.35272256e-04, 3.04633169e-04, 2.76324194e-04, 2.57189618e-04,
          2.21266586e-04, 1.65820471e-04, 1.24297861e-04, 1.00714162e-04,
          6.98880540e-05, 8.78741484e-05, 2.07499383e-04, 2.42419308e-04,
          2.69666954e-04, 2.72014411e-04, 2.95575330e-04, 1.38819058e-04,
          5.18025881e-05, 9.37087316e-05, 6.03790504e-05, 6.32294104e-05,
          8.35206738e-05, 1.92267034e-04, 2.74135760e-04, 2.50426499e-04,
          2.45047442e-04, 2.32385311e-04, 2.14047686e-04, 2.01064904e-04,
          1.53745088e-04, 1.06133120e-04, 7.04806807e-05, 3.14728459e-05,
          6.35473480e-05, 4.72558459e-05, 8.23056180e-05, 1.03675091e-04,
          1.95940549e-04, 2.26199001e-04, 2.38129549e-04, 1.26195897e-04,
          6.14744567e-05, 8.91129966e-05, 5.39849607e-05, 4.25833350e-05,
          5.66634335e-05, 1.46695253e-04, 1.83115146e-04, 2.04439333e-04,
          1.72805652e-04, 1.66037629e-04, 1.86905658e-04, 1.77894646e-04,
          1.18557844e-04, 4.74558801e-05, 2.05800643e-06,
          -4.33320456e-05, -3.92547408e-05, 6.77135768e-06,
          -8.15161638e-06, 1.33379572e-05, 3.86003667e-05,
          1.16075076e-04, 1.48456966e-04, 1.16979347e-04, 1.24123442e-04,
          1.65094869e-04, 1.11931695e-04, 1.06356565e-04, 1.23643971e-04,
          2.20632341e-04, 2.75524770e-04, 2.76460720e-04, 1.79605631e-04,
          1.51018481e-04, 1.04416016e-04, 7.67839374e-05, 1.03066086e-04,
          7.49248284e-05, 4.41650991e-05, -4.39619998e-06,
          -4.03334780e-05, -3.09307288e-05, -4.24121281e-05,
          -3.63184299e-05, -1.42691279e-05, 2.35423272e-06,
          -4.97071742e-05, 6.28882190e-05, 1.51686530e-04,
          1.87351325e-04, 1.30601184e-04, 1.05221807e-04, 1.27025080e-04,
          1.92196880e-04, 2.08297017e-04, 2.38328736e-04, 2.31508253e-04,
          2.12800383e-04, 2.03678064e-04, 1.34221918e-04, 1.45903687e-04,
          1.53272587e-04, 6.17633850e-05, 4.31554254e-05, 2.13287531e-05,
          -1.79086310e-05, -3.54513904e-05, -3.78157783e-05,
          -5.41720983e-05, 4.54815535e-07, -7.41508702e-05,
          4.15158902e-05, 1.35007314e-04, 1.75671230e-04, 1.15242990e-04,
          1.09590161e-04, 1.20467499e-04, 1.71258158e-04, 1.45099708e-04,
          1.86215359e-04, 2.06028068e-04, 1.92240390e-04, 1.86858291e-04,
          1.37225652e-04, 8.78228748e-05, 1.55351328e-04, 2.00379451e-04,
          9.96749659e-05, 3.29736940e-05, -1.65134153e-07,
          6.30281147e-06, -1.06391735e-05, -1.55010530e-05,
          -3.44300975e-06, -1.00291756e-04, 2.66208917e-05,
          1.41791199e-04, 1.85148951e-04, 1.23408929e-04, 1.06799511e-04,
          9.48362576e-05, 1.16663578e-04, 1.22508005e-04, 1.39415817e-04,
          1.70593223e-04, 1.85524987e-04, 1.88412654e-04, 1.71890468e-04,
          1.29205975e-04, 8.19755223e-05, 1.33520371e-04, 1.89487939e-04,
          1.38890522e-04, 4.82565119e-05, 4.51239830e-05, 2.63591428e-05,
          1.74415763e-05, 5.08132371e-06, -9.05018605e-05,
          4.75524466e-05, 1.58281866e-04, 1.93730462e-04, 1.40821692e-04,
          1.11002817e-04, 5.36054722e-05, 5.88747316e-05, 1.04595310e-04,
          1.43953672e-04, 1.47210274e-04, 1.63456061e-04, 1.65283607e-04,
          1.95463494e-04, 1.47372426e-04, 9.86331070e-05, 1.21870289e-04,
          1.56231472e-04, 1.61106611e-04, 1.71549953e-04, 5.47049713e-05,
          5.20020731e-05, 7.63104326e-05, 1.57463110e-05,
          -3.81041464e-05, 9.53489507e-05, 1.52505076e-04,
          1.74473535e-04, 1.06049680e-04, 8.25311145e-05, 3.84335362e-05,
          3.11490003e-05, 6.32900556e-05, 1.35711365e-04, 1.66979720e-04,
          1.63349061e-04, 1.65508158e-04, 1.89973201e-04, 1.51554763e-04,
          1.24840575e-04, 1.25721737e-04, 1.14807299e-04, 2.04257201e-04,
          1.98688474e-04, 1.56212380e-04, 8.97806312e-05, 1.12712209e-04,
          2.26783413e-05, 1.66349182e-05, 1.05879975e-04, 1.42014891e-04,
          1.34992530e-04, 7.64081924e-05, 5.93408295e-05, 4.58276327e-06,
          -1.02833901e-05, 1.46654593e-05, 5.09452184e-05,
          1.46677063e-04, 1.83026699e-04, 1.98165362e-04, 1.85772034e-04,
          1.67709193e-04, 1.45620623e-04, 1.36619143e-04, 1.33606984e-04,
          2.43564107e-04, 2.48652475e-04, 2.43743518e-04, 1.73614608e-04,
          9.29914604e-05, -1.34948220e-06, 4.10718385e-05,
          1.28398984e-04, 1.11838635e-04, 1.11835623e-04, 4.16254989e-05,
          1.55927664e-05, -1.85053086e-05, -2.16712997e-05,
          -2.26643897e-05, 3.25769042e-06, 4.75361230e-05,
          1.48746491e-04, 2.15736145e-04, 1.97924383e-04, 1.66390877e-04,
          1.63678866e-04, 1.76171568e-04, 1.58903043e-04, 2.31629238e-04,
          2.80958280e-04, 2.83987931e-04, 2.28165591e-04, 8.08964833e-05,
          3.88182307e-05, 1.69430805e-05, 1.08809269e-04, 8.78688443e-05,
          9.52936680e-05, -2.44432686e-05, -2.97231018e-05,
          -5.17513763e-05, -3.17412123e-05, -4.22277626e-05,
          -5.93478308e-06, 1.06591624e-05, 7.84446893e-05,
          1.22524812e-04, 1.69991268e-04, 1.55176778e-04, 1.66463054e-04,
          1.70115367e-04, 1.64077472e-04, 2.22735151e-04, 3.09911760e-04,
          2.96943821e-04, 2.47897726e-04, 9.64101400e-06, 3.01085238e-05,
          -1.07625028e-05, 1.05139974e-04, 8.86617927e-05,
          7.72624844e-05, -6.09661256e-05, -9.20317470e-05,
          -7.96422755e-05, -5.77385727e-05, -5.23893250e-05,
          -3.78571458e-05, -1.24741237e-05, 7.99261306e-06,
          3.98828233e-05, 8.91958189e-05, 1.15890711e-04, 1.18999640e-04,
          1.42827004e-04, 1.48142150e-04, 2.19410809e-04, 2.98955070e-04,
          2.72596313e-04, 1.66642931e-04, -1.97276449e-06,
          2.77770523e-05, -2.06636241e-06, 1.03252445e-04,
          8.83347820e-05, 7.05507555e-05, -5.78568834e-05,
          -1.21881225e-04, -9.90581975e-05, -8.65655020e-05,
          -6.20819483e-05, -5.79705993e-05, -3.04386158e-05,
          -1.89893817e-05, -9.23938296e-06, -1.48492143e-06,
          3.92823713e-05, 8.73042081e-05, 9.89888213e-05, 9.70078108e-05,
          1.71463558e-04, 2.41679300e-04, 1.92798703e-04, 8.39250206e-05,
          3.98341290e-05, 2.27476430e-05, -8.79204617e-06,
          1.04443527e-04, 1.06211861e-04, 9.00917294e-05,
          -5.03671035e-05, -1.11397370e-04, -1.38696210e-04,
          -1.06931373e-04, -8.20659916e-05, -8.54112877e-05,
          -5.09715283e-05, -4.22148078e-05, -2.86245777e-05,
          -2.41272792e-05, -1.07635788e-05, 1.32560754e-05,
          2.60246215e-05, 4.41543089e-05, 1.15837756e-04, 1.71390857e-04,
          1.57745118e-04, 9.59326208e-05, 5.18180932e-05,
          -2.53119451e-05, 6.13708471e-06, 1.16542738e-04,
          1.03754290e-04, 9.33599877e-05, -3.46640081e-05,
          -9.80222030e-05, -1.59618663e-04, -1.77257753e-04,
          -1.06363288e-04, -1.03707825e-04, -6.27824265e-05,
          -4.29646752e-05, -4.64854093e-05, -3.61819148e-05,
          -3.76536846e-05, -2.88975953e-05, -2.14562697e-05,
          2.73354162e-05, 1.47857747e-04, 1.15900199e-04, 1.06537496e-04,
          1.09028886e-04, 1.30970266e-05, -2.49782934e-05,
          2.24166288e-05, 1.37112365e-04, 1.05590036e-04, 9.15884593e-05,
          -2.88446663e-05, -7.22183468e-05, -1.25338222e-04,
          -1.69219798e-04, -1.69701292e-04, -9.00083323e-05,
          -7.62016061e-05, -7.52829801e-05, -6.42888554e-05,
          -3.97029871e-05, -6.01636857e-05, -6.17733167e-05,
          -3.40762381e-05, 2.93698577e-05, 1.34473536e-04,
          1.07672524e-04, 1.14162605e-04, 7.48519087e-05,
          -3.28404749e-05, 1.05897352e-05, 6.50861912e-05,
          1.65140722e-04, 9.40521641e-05, 1.05721541e-04,
          -6.05445966e-05, -9.06908608e-05, -1.11708498e-04,
          -1.36281567e-04, -1.55737536e-04, -1.65465812e-04,
          -1.30120781e-04, -1.06940417e-04, -9.91816050e-05,
          -1.00415811e-04, -1.03165949e-04, -8.33360755e-05,
          -5.76777857e-05, 8.94903787e-05, 1.07113119e-04,
          1.14925817e-04, 9.28574082e-05, 1.19290717e-05, 6.03568878e-06,
          3.03175566e-05, 6.72596070e-05, 1.75497597e-04, 1.17170157e-05,
          9.21766550e-05, 3.40599800e-05, -8.76473787e-05,
          -1.34529124e-04, -1.35176670e-04, -1.50320222e-04,
          -1.65581238e-04, -1.72081214e-04, -1.54330075e-04,
          -1.20858203e-04, -1.04976447e-04, -1.03022845e-04,
          -5.65498449e-05, 7.78225804e-05, 9.15927667e-05,
          7.44817444e-05, 5.46045776e-05, 2.25798813e-05, 8.20833606e-08,
          3.97862732e-06, 2.21217688e-05, 7.54778448e-05, 1.74924397e-04,
          -6.85428313e-05, -3.46120905e-05, 1.97784011e-05,
          -1.74963970e-05, -1.01367448e-04, -1.35639944e-04,
          -1.64576908e-04, -1.63838762e-04, -1.68637154e-04,
          -1.51891669e-04, -1.37245326e-04, -1.31272624e-04,
          -7.97333560e-05, 3.56491801e-05, 2.26046541e-05,
          3.37731472e-05, 3.56784331e-05, 4.45216610e-05, 1.73272947e-05,
          1.87953283e-05, 9.29185353e-06, 3.96954201e-05, 9.68283566e-05,
          1.99045840e-04, -1.70813539e-04, -1.30010172e-04,
          -1.55608668e-05, 7.21006472e-06, -1.18743139e-06,
          -5.41828886e-05, -1.01491903e-04, -1.22532845e-04,
          -1.09975590e-04, -1.04377388e-04, -7.36679431e-05,
          6.39077871e-06, 1.31520046e-05, -1.70125277e-05,
          -5.86093392e-06, 1.04843930e-05, 1.13251263e-05,
          6.31469334e-07, 2.80429526e-06, -8.42459394e-06,
          -4.09758695e-06, 2.70506534e-05, 8.53958700e-05,
          1.84050383e-04, -1.01092075e-04, -1.15547060e-04,
          1.30477374e-05, 4.28183048e-05, 4.98438385e-05, 5.22531445e-05,
          3.56928977e-05, 1.90041810e-05, 1.12581540e-06, 6.42296891e-06,
          3.39711660e-05, 2.85559872e-06, 6.83914095e-06, 8.99192310e-06,
          1.69460836e-05, 8.16173451e-06, 2.19506255e-05, 4.45616888e-06,
          1.66432910e-05, 3.33821044e-05, 3.60228478e-05, 4.70788909e-05,
          8.39581553e-05, 2.11124963e-04, -1.08302964e-04,
          -1.07827596e-04, -5.32183440e-05, -4.82643118e-05,
          -3.76474381e-05, -3.17599588e-05, -3.75253185e-05,
          -2.97077859e-05, -3.10144787e-05, -1.20805789e-05,
          -2.86039176e-05, -6.05651258e-05, -7.04911654e-05,
          -6.07559996e-05, -6.77726566e-05, -8.10806378e-05,
          -9.88276443e-05, -1.02282043e-04, -9.32914772e-05,
          -9.05204579e-05, -1.13089816e-04, -7.04886406e-05,
          -1.45680870e-05, 1.06831641e-04, 2.29508878e-05,
          -6.58454010e-05, -3.18775565e-05, -6.31700686e-06,
          2.14676147e-05, 2.03348573e-05, 7.97092980e-06, 3.98874272e-06,
          2.83884879e-06, -6.46137914e-06, 1.20943753e-06,
          -2.18672212e-05, -2.61647547e-05, -2.58320124e-05,
          -4.42523196e-05, -3.78656732e-05, -2.60779289e-05,
          -5.45845069e-05, -4.66167548e-05, -4.69381084e-05,
          -5.15689862e-05, -2.42626556e-05, 3.68026813e-05,
          1.29955428e-04 ]
      - [ 4.13609014e-05, 7.63268872e-06, -1.82821368e-05,
          -3.52313291e-05, -2.59000626e-05, -1.28069014e-05,
          -5.07276172e-06, 1.98247581e-05, 1.72838245e-05,
          2.19540070e-05, 2.58971850e-05, 2.86906943e-05, 2.47433345e-05,
          2.47623957e-05, 2.41951238e-05, 2.06104123e-05, 1.26832720e-05,
          1.38948890e-05, 1.56294536e-05, 1.96774690e-05, 2.17854613e-05,
          2.03892232e-05, 1.74360721e-05, -1.18118669e-05,
          4.04323873e-05, 4.15118802e-06, -1.27913609e-05,
          -3.23780587e-05, -2.51802740e-05, -1.37787001e-05,
          -9.63763159e-06, 1.87992409e-05, 1.87217574e-05,
          2.30618116e-05, 2.29903490e-05, 2.22378239e-05, 2.46519667e-05,
          2.19655867e-05, 2.25116983e-05, 1.91577328e-05, 2.42430178e-05,
          8.13180395e-06, 7.88510442e-06, 9.46653290e-06, 1.30993822e-05,
          1.24756125e-05, 1.28021875e-05, -1.35669243e-05,
          3.59803926e-05, 4.49792151e-06, -8.77783623e-06,
          -1.90994870e-05, -1.20861123e-05, -2.30397745e-06,
          3.08377889e-06, 2.32398252e-05, 2.54340757e-05, 2.54041424e-05,
          2.82161582e-05, 3.53952601e-05, 4.12868576e-05, 4.18212912e-05,
          3.94922390e-05, 3.01204400e-05, 2.51746096e-05, 2.67622654e-05,
          1.00396510e-05, 1.48920280e-05, 1.78648297e-05, 1.89220427e-05,
          1.21838439e-05, -9.82436359e-06, 2.59939061e-05,
          1.60241034e-05, 4.95972290e-06, -3.73079871e-07,
          6.53120821e-07, 2.46499349e-05, 3.87483306e-05, 5.67180723e-05,
          5.04224008e-05, 5.53418395e-05, 5.53025857e-05, 4.89798040e-05,
          4.95305649e-05, 5.13452651e-05, 5.54707440e-05, 5.36201442e-05,
          5.94774829e-05, 5.98402112e-05, 4.01984289e-05, 3.38770951e-05,
          3.95990319e-05, 3.81130776e-05, 2.16118315e-05, 1.21730982e-05,
          2.07952216e-05, 2.56442490e-05, 3.79278317e-05, 3.25908077e-05,
          3.56114979e-05, 4.67331120e-05, 6.20107021e-05, 8.05782402e-05,
          8.64037211e-05, 8.07628458e-05, 7.97632892e-05, 7.94583248e-05,
          8.04906012e-05, 7.43916316e-05, 6.97569558e-05, 6.91296009e-05,
          6.85813138e-05, 7.46762817e-05, 7.52677806e-05, 5.30295183e-05,
          4.68040053e-05, 4.83592739e-05, 2.33489300e-05, 2.47502849e-05,
          1.12824146e-05, 2.49035493e-05, 4.55143418e-05, 3.88154185e-05,
          3.91742833e-05, 5.81115928e-05, 6.69626606e-05, 8.66611008e-05,
          9.13910553e-05, 9.40965547e-05, 9.45135907e-05, 9.29251546e-05,
          9.32164694e-05, 9.53607741e-05, 9.64018327e-05, 8.82013192e-05,
          8.19894194e-05, 8.70154981e-05, 9.08485381e-05, 8.37536572e-05,
          6.46845947e-05, 5.81575514e-05, 3.42203093e-05, 3.07403134e-05,
          1.28716092e-05, 1.71183074e-05, 4.52909117e-05, 3.82000035e-05,
          3.56900382e-05, 5.88908515e-05, 6.72964379e-05, 7.98398614e-05,
          8.83848261e-05, 9.30295355e-05, 9.77310847e-05, 9.47922454e-05,
          9.42390834e-05, 9.26494686e-05, 9.84004873e-05, 1.02857091e-04,
          9.81219418e-05, 8.71988450e-05, 9.20966268e-05, 9.23421030e-05,
          7.52879132e-05, 5.98903498e-05, 3.01143245e-05, 2.67111354e-05,
          1.64641333e-05, 2.48119850e-05, 4.33762143e-05, 4.07068728e-05,
          4.08053929e-05, 5.38925487e-05, 6.41684164e-05, 8.27530312e-05,
          8.36744803e-05, 8.86377529e-05, 9.23132466e-05, 9.45025895e-05,
          9.13957556e-05, 9.43722916e-05, 9.85746228e-05, 1.02635895e-04,
          1.05974570e-04, 1.06999418e-04, 9.39187012e-05, 9.69055764e-05,
          9.66208318e-05, 7.05153361e-05, 3.88545232e-05, 2.64427836e-05,
          1.46789871e-05, 1.87027417e-05, 4.31249791e-05, 3.96372889e-05,
          4.58865215e-05, 5.02441544e-05, 5.71245691e-05, 7.67776874e-05,
          8.95569101e-05, 8.30264908e-05, 8.17217951e-05, 8.82467575e-05,
          8.68511634e-05, 9.55385694e-05, 1.04622042e-04, 1.06891377e-04,
          1.09026041e-04, 1.10258450e-04, 1.07980166e-04, 1.02455509e-04,
          1.02302278e-04, 6.13475058e-05, 4.06162071e-05, 1.40487218e-05,
          1.81407522e-05, 1.17300060e-05, 3.46464476e-05, 3.98882621e-05,
          4.37037561e-05, 4.50837033e-05, 4.84824486e-05, 6.51748633e-05,
          8.30760619e-05, 8.19545676e-05, 8.39579661e-05, 8.52236844e-05,
          7.38093804e-05, 8.18093249e-05, 9.99832773e-05, 1.02229787e-04,
          1.05682979e-04, 1.12016714e-04, 1.16629206e-04, 1.05557730e-04,
          9.15196870e-05, 4.88073783e-05, 2.43341474e-05, 7.15724354e-06,
          1.93109372e-05, 1.14565755e-05, 2.78002844e-05, 3.75862328e-05,
          4.12997360e-05, 4.17520205e-05, 4.18009949e-05, 5.43527312e-05,
          6.93764887e-05, 8.35951214e-05, 9.39798483e-05, 1.00725818e-04,
          6.44516767e-05, 8.31706493e-05, 9.66239240e-05, 1.03994709e-04,
          1.03670856e-04, 1.13047943e-04, 1.11608002e-04, 1.04737657e-04,
          7.91034472e-05, 4.52244021e-05, 8.90119463e-06, 1.30968215e-06,
          1.76308586e-05, 1.42781118e-05, 1.80586903e-05, 3.78575787e-05,
          3.76212993e-05, 3.55226402e-05, 3.74016709e-05, 4.68354774e-05,
          5.88625990e-05, 7.42498014e-05, 8.78875435e-05, 9.83688442e-05,
          8.59542997e-05, 9.12581309e-05, 1.00101242e-04, 8.22478687e-05,
          9.60546531e-05, 1.08873006e-04, 1.05521009e-04, 9.62788472e-05,
          6.35371252e-05, 3.55738739e-05, 1.14675254e-06, 6.25037092e-06,
          1.08382665e-05, 1.14611557e-05, 7.66576341e-06, 2.86671475e-05,
          3.36274716e-05, 3.71836104e-05, 3.47120258e-05, 3.48059511e-05,
          4.69945662e-05, 6.14297242e-05, 7.64328433e-05, 8.58396234e-05,
          8.74362013e-05, 9.49606547e-05, 1.01967635e-04, 9.15229029e-05,
          7.86071250e-05, 9.67592205e-05, 9.00660234e-05, 7.48843668e-05,
          5.27726261e-05, 1.90604333e-05, 3.50273172e-06, 1.31162224e-05,
          1.08401382e-05, 9.22293020e-06, 7.58130057e-07, 2.00462200e-05,
          2.74432277e-05, 3.65066808e-05, 3.49771944e-05, 3.44949949e-05,
          4.24453065e-05, 5.33866660e-05, 5.98617662e-05, 6.56335615e-05,
          6.35439210e-05, 7.78859176e-05, 8.81719388e-05, 8.56240586e-05,
          8.83475950e-05, 7.73107095e-05, 6.85035411e-05, 6.30739087e-05,
          4.52854365e-05, 1.39739677e-05, 3.05785875e-06, 1.13979222e-05,
          1.94424683e-05, 1.44428759e-05, 3.86933152e-06, 1.62364959e-05,
          1.66145855e-05, 2.76455412e-05, 3.36925332e-05, 3.66027161e-05,
          4.35643815e-05, 4.49234612e-05, 4.88792975e-05, 5.30726829e-05,
          5.74084261e-05, 6.29334390e-05, 6.64809704e-05, 7.13015543e-05,
          6.41009174e-05, 5.77107967e-05, 6.05546375e-05, 5.16474211e-05,
          2.69995417e-05, 8.30697627e-06, 3.70657744e-06, 1.11694808e-05,
          1.26147079e-05, -5.04870695e-06, -2.64491291e-06,
          7.83441646e-06, 1.20766381e-05, 1.68967144e-05, 3.28267961e-05,
          3.64720254e-05, 4.09303029e-05, 4.51314991e-05, 4.54451765e-05,
          4.74028602e-05, 5.22925220e-05, 5.49587894e-05, 5.68521173e-05,
          6.15267127e-05, 5.74119986e-05, 5.16513210e-05, 5.20473695e-05,
          4.13744056e-05, 1.73121771e-05, 6.73552540e-06, 4.52013910e-06,
          1.12527687e-05, 6.40516328e-06, -6.09324889e-06,
          -1.22757610e-05, -6.42477346e-07, 4.36897835e-06,
          1.12702710e-05, 1.72112341e-05, 3.55333068e-05, 3.87912987e-05,
          4.00161043e-05, 4.11541332e-05, 4.27005361e-05, 4.34694157e-05,
          4.58551076e-05, 4.66445454e-05, 4.97381261e-05, 4.94452433e-05,
          4.52605855e-05, 4.06086765e-05, 2.77885465e-05, 6.26144174e-06,
          4.16933926e-06, 2.45362025e-06, 8.92435946e-06, 1.80959396e-05,
          1.42489516e-05, 3.09608231e-06, 1.81222367e-05, 5.11834560e-06,
          9.76163938e-06, 1.22949768e-05, 2.07066314e-05, 3.11122712e-05,
          3.86728170e-05, 3.85173917e-05, 3.84223604e-05, 4.11300425e-05,
          4.18113268e-05, 4.24962564e-05, 4.26958686e-05, 4.12859372e-05,
          3.07772425e-05, 2.12971663e-05, 8.69514952e-06, 3.85830799e-06,
          1.62838307e-06, 1.42532383e-06, 1.29744431e-05, 1.55896814e-05,
          1.51555014e-05, 2.59442686e-06, 1.89760358e-05, 1.20520990e-05,
          1.16673491e-05, 1.11791687e-05, 1.37424049e-05, 1.60964501e-05,
          1.80657371e-05, 2.22712988e-05, 3.13214223e-05, 3.41571067e-05,
          3.60558479e-05, 3.23191016e-05, 2.45623796e-05, 2.29924572e-05,
          1.88916856e-05, 1.09056382e-05, -1.54094178e-05,
          -1.54010615e-06, 1.05023605e-06, 1.72765351e-06,
          7.59101476e-06, -2.19090839e-06, -2.82621136e-06,
          -8.31055513e-06, 9.41453982e-06, 8.45119757e-06,
          1.35531736e-05, 1.18930675e-05, 1.76303565e-05, 1.60686723e-05,
          1.99142069e-05, 2.18286095e-05, 2.56158382e-05, 2.51478050e-05,
          2.47037678e-05, 2.33428036e-05, 2.23342704e-05, 1.60075342e-05,
          9.43963732e-06, -7.09715687e-06, 3.71450528e-06,
          4.69134375e-06, 5.66287872e-06, 4.47666389e-06, 1.51491067e-05,
          -4.74832923e-05, -3.90948626e-05, -2.67807372e-05,
          3.17112409e-07, -2.10202757e-06, -2.37740528e-06,
          5.69357735e-06, 1.06733423e-05, 1.31429006e-05, 1.26463901e-05,
          1.35544433e-05, 1.50227488e-05, 1.53701894e-05, 1.35540640e-05,
          1.22312158e-05, 6.89157287e-06, 3.45272883e-06,
          -9.12525081e-07, -2.07424773e-06, -4.78044922e-06,
          -4.34012782e-06, -2.46289778e-06, -3.50515870e-06,
          5.31774776e-06, -4.30316722e-05, -4.47130478e-05,
