%YAML:1.0
---
opencv_ml_svm:
   format: 3
   svmType: C_SVC
   kernel:
      type: LINEAR
   C: 1.0000000000000001e-01
   term_criteria: { iterations:1000 }
   var_count: 1024
   class_count: 7
   class_labels: !!opencv-matrix
      rows: 7
      cols: 1
      dt: i
      data: [ 0, 2, 3, 4, 5, 8, 11 ]
   sv_total: 21
   support_vectors:
      - [ 3.87618229e-06, 1.48452782e-05, 3.28621099e-05, 4.26028782e-05,
          8.62059678e-05, 7.40762771e-05, 6.44281681e-05, 7.17383300e-05,
          6.81305319e-05, 3.52889401e-05, 3.81630416e-05, 3.39203107e-05,
          3.03289125e-05, 3.23926397e-05, 1.76897956e-05, 1.28200581e-05,
          1.52941520e-05, 2.79423748e-05, 2.96153357e-05, 3.09576317e-05,
          2.45955598e-05, 3.48295252e-05, 3.06451984e-05, 1.83848242e-05,
          2.08957390e-05, 1.69437699e-05, 1.77554757e-05, 1.34711736e-05,
          1.81364521e-05, 7.00487135e-07, -7.07015170e-06,
          -1.72977907e-05, 1.86023067e-06, -1.79469481e-07,
          2.38272187e-05, 3.04989098e-05, 7.11669782e-05, 6.31432413e-05,
          4.86137069e-05, 6.22833177e-05, 5.56342529e-05, 1.52133798e-05,
          6.28385851e-06, 7.85087923e-06, 9.98587075e-06, 1.32053738e-05,
          7.31305590e-06, 4.32142343e-07, 1.77633780e-07, 1.15846233e-05,
          6.53061579e-06, 1.55480411e-05, -1.42679141e-06,
          8.38252799e-06, 9.77675541e-08, -4.65706398e-06,
          4.22146150e-06, 5.19847345e-06, -6.41821725e-06,
          -3.27936164e-06, -3.21385824e-06, -5.06788774e-06,
          -9.18462320e-06, -5.01637896e-06, -2.39685482e-06,
          1.86911493e-07, 1.33091419e-07, 2.15673413e-06, 3.37386955e-05,
          2.16083681e-05, 2.04691842e-05, 1.99857095e-05, 1.99252736e-05,
          -1.02882614e-05, -2.79671749e-05, -2.93583453e-05,
          -2.71912231e-05, -2.54257393e-05, -2.87202893e-05,
          -2.74523609e-05, -3.17665435e-05, -3.67034663e-05,
          -3.79103221e-05, -3.30473740e-05, -4.17027659e-05,
          -4.53055582e-05, -4.86788231e-05, -4.61527779e-05,
          -5.55849147e-05, -5.22055125e-05, -5.21462862e-05,
          -5.18829802e-05, -4.34096401e-05, -2.71628487e-05,
          -1.09206776e-05, -1.27683134e-05, -2.21019091e-05,
          -1.66708087e-05, -1.79807394e-05, -2.68880667e-05,
          -7.56925942e-07, -4.06123672e-06, -1.21000585e-05,
          -1.45508020e-05, -1.28315687e-05, -2.80394379e-05,
          -4.32167290e-05, -4.29166539e-05, -4.56867674e-05,
          -4.11055335e-05, -3.75773488e-05, -4.15920476e-05,
          -4.07313200e-05, -4.55438021e-05, -4.87329307e-05,
          -5.07136065e-05, -5.24373863e-05, -5.41197442e-05,
          -5.55877559e-05, -5.60778972e-05, -6.01324500e-05,
          -6.33015006e-05, -6.04022134e-05, -6.64329054e-05,
          -6.75912233e-05, -3.47804780e-05, -8.36208255e-06,
          -1.53211349e-05, -2.90126318e-05, -1.63662608e-05,
          -1.13763836e-05, -1.91049494e-05, 1.10178405e-06,
          -9.39731854e-06, -1.38396736e-05, -8.12769304e-06,
          -2.35527150e-05, -3.78883997e-05, -4.33798559e-05,
          -4.24074460e-05, -4.39954565e-05, -4.44447032e-05,
          -4.62316821e-05, -4.44303478e-05, -4.34375979e-05,
          -4.14140486e-05, -4.83490185e-05, -5.13085397e-05,
          -5.48257631e-05, -5.67851712e-05, -5.94089288e-05,
          -5.93518707e-05, -6.65070693e-05, -6.66826018e-05,
          -7.05363855e-05, -7.04602353e-05, -7.15437782e-05,
          -4.37851850e-05, -2.95125465e-05, -2.23702500e-05,
          -3.07484770e-05, -1.77872425e-05, -1.75495516e-05,
          -3.01307318e-05, -1.72228229e-05, -3.34777942e-05,
          -3.88588305e-05, -3.55230404e-05, -3.55525081e-05,
          -3.51007475e-05, -3.56541059e-05, -4.01623474e-05,
          -3.50642404e-05, -4.02682126e-05, -4.18552008e-05,
          -3.45662847e-05, -3.56902638e-05, -3.65208798e-05,
          -3.77785909e-05, -3.83413899e-05, -3.87502914e-05,
          -4.39626892e-05, -4.78078146e-05, -5.00017959e-05,
          -5.09639976e-05, -5.64749207e-05, -5.91512180e-05,
          -5.59275031e-05, -5.24033567e-05, -3.52316711e-05,
          -3.11062722e-05, -2.91229808e-05, -3.72892937e-05,
          -2.08503698e-05, -2.03593827e-05, -3.37052952e-05,
          -2.52395312e-05, -3.56304226e-05, -3.68195542e-05,
          -3.89351480e-05, -5.54347316e-05, -6.69454676e-05,
          -5.36610860e-05, -5.16896253e-05, -5.38188942e-05,
          -4.91788778e-05, -4.06379659e-05, -3.86389329e-05,
          -3.48978247e-05, -3.54427029e-05, -3.75945856e-05,
          -3.77284268e-05, -4.22064113e-05, -4.29569554e-05,
          -4.63741599e-05, -5.04157688e-05, -5.17798399e-05,
          -5.47090021e-05, -5.75917111e-05, -5.43326314e-05,
          -5.44153481e-05, -3.33412427e-05, -2.61677505e-05,
          -1.92773987e-05, -3.93850787e-05, -2.40498830e-05,
          -1.89252169e-05, -3.11064287e-05, -2.69286174e-05,
          -3.55047705e-05, -3.54197837e-05, -3.97790172e-05,
          -5.32211197e-05, -6.97368669e-05, -6.97241849e-05,
          -7.01509707e-05, -6.99767115e-05, -7.12165784e-05,
          -6.92901303e-05, -6.42665545e-05, -5.29662357e-05,
          -4.40409203e-05, -3.67842440e-05, -3.92433394e-05,
          -4.44326397e-05, -4.59785879e-05, -4.73260152e-05,
          -5.06657125e-05, -5.23241761e-05, -5.27353841e-05,
          -5.54898834e-05, -5.20395952e-05, -5.25003597e-05,
          -3.71020033e-05, -2.97883871e-05, -1.46908396e-05,
          -3.89160232e-05, -2.42137958e-05, -1.81647811e-05,
          -3.36359481e-05, -2.47294029e-05, -3.67764151e-05,
          -3.36793019e-05, -3.94736053e-05, -4.94881533e-05,
          -7.07912768e-05, -6.85902123e-05, -6.85657724e-05,
          -7.22743061e-05, -7.26802682e-05, -7.33112174e-05,
          -7.12052424e-05, -7.53832501e-05, -7.40938267e-05,
          -6.80170997e-05, -5.09017809e-05, -4.43430545e-05,
          -4.55623922e-05, -4.85882701e-05, -5.22329465e-05,
          -5.03500632e-05, -5.00101305e-05, -5.33323764e-05,
          -4.49620129e-05, -5.28241508e-05, -3.10319956e-05,
          -2.14156626e-05, -4.43240879e-06, -4.04394814e-05,
          -2.33018782e-05, -1.90749142e-05, -3.21224252e-05,
          -2.28832268e-05, -3.69960035e-05, -3.55475458e-05,
          -3.70599337e-05, -4.03281447e-05, -6.59545403e-05,
          -6.99472293e-05, -7.23120829e-05, -6.94723494e-05,
          -6.95710623e-05, -7.16825161e-05, -7.22395125e-05,
          -7.45056605e-05, -7.67618112e-05, -8.06062380e-05,
          -8.18680201e-05, -7.39521784e-05, -5.09603051e-05,
          -4.70357045e-05, -5.11223407e-05, -5.36765074e-05,
          -4.80197195e-05, -5.00509486e-05, -4.19390999e-05,
          -5.02884905e-05, -2.65179278e-05, -1.62243759e-05,
          2.15992443e-07, -3.76177813e-05, -1.89098937e-05,
          -1.83434950e-05, -3.07685077e-05, -1.92346233e-05,
          -3.56697965e-05, -3.65630185e-05, -3.47702953e-05,
          -3.67170287e-05, -5.23545896e-05, -6.94446426e-05,
          -7.31887922e-05, -7.15322603e-05, -6.96990028e-05,
          -6.88948639e-05, -7.06473002e-05, -7.44282152e-05,
          -7.59083705e-05, -7.93983636e-05, -7.99503396e-05,
          -8.09729972e-05, -8.17563923e-05, -6.27941990e-05,
          -4.90470447e-05, -4.77866997e-05, -4.94802152e-05,
          -4.70741725e-05, -3.48920039e-05, -4.56938178e-05,
          -2.76192641e-05, -1.22685460e-05, 4.44820716e-06,
          -4.25775615e-05, -2.18297027e-05, -1.92726457e-05,
          -3.12666125e-05, -1.70526910e-05, -3.48348367e-05,
          -3.65060296e-05, -3.80326201e-05, -3.44982764e-05,
          -4.33366331e-05, -5.61402303e-05, -6.73549439e-05,
          -7.17340081e-05, -7.49256578e-05, -7.23064004e-05,
          -7.09791566e-05, -7.09774395e-05, -7.21158576e-05,
          -7.47017693e-05, -7.58793540e-05, -7.96927998e-05,
          -8.08937912e-05, -8.35108949e-05, -6.31971925e-05,
          -4.87501129e-05, -4.85328237e-05, -4.22696321e-05,
          -2.78599437e-05, -4.28875974e-05, -2.00290579e-05,
          4.69250654e-06, 8.35871288e-06, -4.92981926e-05,
          -2.91788238e-05, -2.15909240e-05, -2.95060345e-05,
          -1.67045309e-05, -3.10150645e-05, -3.56193195e-05,
          -3.91488502e-05, -3.51158778e-05, -3.86382744e-05,
          -4.65923658e-05, -5.85224952e-05, -6.51462178e-05,
          -7.26879443e-05, -7.52277847e-05, -7.37917944e-05,
          -7.25305799e-05, -7.35702633e-05, -7.41758267e-05,
          -7.35232097e-05, -7.67898746e-05, -7.99645059e-05,
          -8.07110337e-05, -8.14713203e-05, -6.05640671e-05,
          -4.58358918e-05, -3.05157610e-05, -2.32473558e-05,
          -3.87381842e-05, -5.73094621e-06, 1.89612165e-05,
          8.96536130e-06, -4.93258558e-05, -3.23396926e-05,
          -2.19809954e-05, -2.97043462e-05, -1.68278220e-05,
          -2.87470993e-05, -3.18532511e-05, -3.76580902e-05,
          -3.61214625e-05, -3.64899061e-05, -4.63183969e-05,
          -5.59030559e-05, -6.15059253e-05, -6.52331510e-05,
          -7.15333081e-05, -7.31352047e-05, -7.42335324e-05,
          -7.68707541e-05, -7.44688441e-05, -7.77143287e-05,
          -8.07044344e-05, -8.21652575e-05, -8.36735344e-05,
          -8.35643004e-05, -8.01072893e-05, -4.61008422e-05,
          -3.73481816e-06, -1.67264116e-05, -3.74279953e-05,
          6.45970249e-06, 2.15302043e-05, 1.82031945e-05,
          -4.71473832e-05, -2.98147916e-05, -2.05191627e-05,
          -3.14034369e-05, -1.76173526e-05, -2.41905036e-05,
          -2.87580569e-05, -3.37329257e-05, -3.39803228e-05,
          -3.90060159e-05, -4.37401868e-05, -5.74107180e-05,
          -6.44792308e-05, -6.48532659e-05, -6.85138730e-05,
          -7.14535490e-05, -7.35788126e-05, -7.76428715e-05,
          -7.63756761e-05, -7.69632170e-05, -7.94170846e-05,
          -8.16053071e-05, -8.21034992e-05, -8.12693470e-05,
          -8.20526839e-05, -5.68524993e-05, -4.86157205e-06,
          -1.91436084e-05, -2.33261890e-05, 2.56775929e-05,
          2.27346754e-05, 1.10187630e-05, -4.48869032e-05,
          -2.38756074e-05, -1.71046740e-05, -3.21016742e-05,
          -1.66895970e-05, -2.04863609e-05, -2.54163369e-05,
          -2.96817598e-05, -3.17410777e-05, -3.75932214e-05,
          -4.40769290e-05, -4.93676380e-05, -6.03033732e-05,
          -6.42522937e-05, -6.66723936e-05, -6.96603965e-05,
          -7.24274287e-05, -7.47044687e-05, -7.65947480e-05,
          -7.80331320e-05, -7.87522804e-05, -7.88683828e-05,
          -7.97041212e-05, -7.84817603e-05, -7.28047598e-05,
          -5.52702550e-05, -1.07640790e-05, -1.82159033e-06,
          -6.82754353e-06, 2.47102034e-05, 2.08318506e-05,
          1.15779321e-05, -4.19623248e-05, -1.69133782e-05,
          -1.54619120e-05, -2.83434001e-05, -1.26386813e-05,
          -1.54030058e-05, -1.61815133e-05, -2.36707110e-05,
          -2.67268879e-05, -3.32690834e-05, -4.16158327e-05,
          -4.44251600e-05, -4.87150828e-05, -5.66227500e-05,
          -6.31892544e-05, -6.62545790e-05, -6.55108233e-05,
          -6.90449451e-05, -6.97130818e-05, -7.18254014e-05,
          -7.40072574e-05, -7.70804036e-05, -7.22928817e-05,
          -6.91926107e-05, -5.87276227e-05, -3.48495923e-05,
          -7.58744045e-06, 1.51118447e-05, 1.23634265e-06,
          2.77287090e-05, 2.45750562e-05, 9.71691588e-06,
          -3.91275680e-05, -1.83444899e-05, -1.41900655e-05,
          -2.55108462e-05, -9.50514732e-06, -1.02407766e-05,
          -1.23920900e-05, -1.91014224e-05, -2.20754227e-05,
          -2.59110548e-05, -3.41559353e-05, -4.17184274e-05,
          -4.38424177e-05, -4.77075700e-05, -5.18404813e-05,
          -5.44532777e-05, -5.80278647e-05, -6.11871874e-05,
          -6.28199123e-05, -6.44990214e-05, -6.61281083e-05,
          -7.18799856e-05, -6.11708165e-05, -5.48026728e-05,
          -3.67792600e-05, -2.21698392e-05, -7.14504381e-07,
          2.10164799e-05, 2.41878524e-06, 2.61787518e-05, 2.44352104e-05,
          1.40153124e-05, -3.50603696e-05, -1.68591359e-05,
          -1.04212095e-05, -2.18485511e-05, -7.64954530e-06,
          -7.09536835e-06, -8.38915275e-06, -1.14422319e-05,
          -1.69850173e-05, -2.00740051e-05, -2.67640426e-05,
          -3.03908600e-05, -3.52124734e-05, -3.87872315e-05,
          -4.04401726e-05, -4.10255925e-05, -4.22060439e-05,
          -4.56645721e-05, -4.75219022e-05, -4.84005541e-05,
          -4.84332049e-05, -4.58862487e-05, -4.03160921e-05,
          -3.11779659e-05, -2.17536472e-05, -1.68399820e-05,
          -1.46891921e-07, 2.56596395e-05, 9.60398938e-06,
          2.84889429e-05, 2.28306380e-05, 1.41675164e-05,
          -3.24669309e-05, -1.13717242e-05, -5.91305616e-06,
          -1.83057291e-05, -6.80383346e-06, -5.66218660e-06,
          -5.54908638e-06, -6.52870904e-06, -1.05917270e-05,
          -1.63846271e-05, -1.99010192e-05, -2.16916305e-05,
          -2.34197978e-05, -2.80280201e-05, -3.04043242e-05,
          -3.02761418e-05, -3.13248202e-05, -3.48895192e-05,
          -3.41193881e-05, -3.29628419e-05, -3.39766884e-05,
          -2.84495800e-05, -2.76519950e-05, -1.69824889e-05,
          -1.76829508e-05, -1.25301221e-05, 1.73871274e-06,
          2.49920049e-05, 1.12456582e-05, 3.05436297e-05, 2.25763979e-05,
          1.69126870e-05, -3.35133336e-05, -7.88316174e-06,
          -4.13254975e-06, -1.53229539e-05, -5.52945176e-06,
          -4.84481006e-06, -3.12360203e-06, -4.68835105e-06,
          -6.56081329e-06, -4.33860669e-06, -9.39670736e-06,
          -1.36925100e-05, -1.66736972e-05, -1.86379348e-05,
          -2.36338710e-05, -2.71564713e-05, -2.84597718e-05,
          -2.90884200e-05, -2.89387153e-05, -2.70437304e-05,
          -2.53789258e-05, -2.21859791e-05, -2.16113731e-05,
          -1.50134847e-05, -1.62406468e-05, -9.85824590e-06,
          2.55147279e-06, 2.27218206e-05, 9.97917050e-06, 3.34005235e-05,
          2.26084940e-05, 1.72137152e-05, -3.65216256e-05,
          -7.89505430e-06, -4.99057614e-06, -1.57433278e-05,
          -6.34228309e-06, -3.21199445e-06, -7.40208463e-07,
          -3.37249708e-06, -5.05472826e-06, -2.57625675e-06,
          -1.46900379e-06, -3.90779132e-06, -5.08513358e-06,
          -6.35383140e-06, -8.57421946e-06, -1.03632610e-05,
          -1.16669335e-05, -1.28368574e-05, -1.47127630e-05,
          -1.40733719e-05, -1.58296898e-05, -1.41058199e-05,
          -1.22110414e-05, -1.37968200e-05, -1.76726153e-05,
          -6.52761355e-06, 8.84352812e-06, 2.55929954e-05,
          7.98428482e-06, 3.12779412e-05, 2.15848613e-05, 2.05421948e-05,
          -3.65382984e-05, -8.32018759e-06, -3.57934914e-06,
          -1.56991318e-05, -5.45460989e-06, -1.75431944e-06,
          9.33754677e-07, -1.58138292e-07, 7.07084098e-07,
          1.67216956e-06, 7.35844196e-07, -6.34624826e-07,
          -3.12965176e-06, -6.15501767e-06, -6.96804182e-06,
          -7.71668147e-06, -8.29888450e-06, -1.07183223e-05,
          -1.06522230e-05, -9.14650263e-06, -8.03591684e-06,
          -8.80196330e-06, -9.43854684e-06, -1.01247524e-05,
          -9.99397889e-06, 8.34174557e-07, 1.41601586e-05,
          2.46401360e-05, 5.40735482e-06, 2.67055948e-05, 2.09606023e-05,
          2.09262689e-05, -3.49113652e-05, -9.53746348e-06,
          -9.84587246e-07, -1.43846746e-05, -3.30793796e-06,
          -9.15109069e-07, 1.23041173e-06, 3.66948916e-06,
          3.43078113e-06, 2.02085380e-06, 5.89816352e-07, 2.43562226e-07,
          -3.37998040e-06, -6.93720813e-06, -6.49440608e-06,
          -4.27234363e-06, -5.71380724e-06, -6.99702423e-06,
          -7.69450344e-06, -5.67590769e-06, -2.48762149e-06,
          -3.69482336e-06, -4.67038990e-06, -5.70897146e-06,
          -3.72330987e-06, 7.16354862e-06, 2.11953811e-05,
          2.76974151e-05, 9.98866108e-06, 2.91443175e-05, 2.46618838e-05,
          2.00940594e-05, -3.65316519e-05, -8.01168244e-06,
          -7.79080381e-07, -1.10872106e-05, -6.51029737e-08,
          2.38094216e-07, 8.39795518e-07, 4.57731858e-06, 1.55992257e-06,
          5.19373828e-07, 4.45287242e-07, -1.64871096e-07,
          2.66523830e-06, 1.44815795e-06, 1.94299832e-06, 2.59504645e-06,
          1.14842760e-06, -1.05072456e-06, -3.25049859e-06,
          -1.70114879e-06, -2.26102929e-06, -2.52218342e-06,
          -1.65276981e-06, -4.71001414e-07, 5.48330092e-07,
          1.31477409e-05, 2.40414829e-05, 2.70683740e-05, 9.73165425e-06,
          3.07454466e-05, 2.43374670e-05, 2.31789727e-05,
          -2.97934312e-05, 3.57484146e-06, -3.74180672e-07,
          -1.26050036e-05, -5.63618687e-06, -1.42508796e-07,
          8.71422856e-07, -3.60988656e-06, -1.08819643e-06,
          9.73167857e-07, 8.11521750e-06, 2.29861835e-05,
          -9.05489003e-07, 1.30554133e-06, 8.15983458e-06,
          4.02631440e-06, -2.80966356e-06, -4.38458892e-06,
          -6.79483765e-06, -5.86142551e-06, -4.16652665e-06,
          -1.89929096e-06, -3.65012147e-06, 1.71258682e-06,
          8.65353832e-06, 2.06404111e-05, 2.32976636e-05, 2.45069277e-05,
          4.34175581e-06, 2.59026328e-05, 2.04924836e-05, 1.95060766e-05,
          1.58120783e-05, 3.62649043e-05, 1.92763346e-05,
          -5.57001658e-06, -2.00498334e-06, 1.53814631e-06,
          1.47520677e-06, -1.28869613e-06, -9.37544996e-07,
          -6.19882769e-07, 5.69052327e-06, 4.02125806e-05,
          -2.42548765e-07, 4.19799744e-06, 1.15860648e-05,
          1.14853210e-05, -1.36409005e-06, -2.60087222e-06,
          -3.07501273e-06, -2.51586971e-06, -1.35202208e-06,
          1.97247164e-06, -3.06904951e-07, 6.80365611e-06,
          2.13285239e-05, 2.75803559e-05, 2.86601444e-05, 2.70746023e-05,
          7.60723060e-06, 3.11317490e-05, 2.29647922e-05, 2.20849925e-05,
          3.19393002e-05, 6.23243177e-05, 5.46918491e-05, 3.68722103e-05,
          2.35891457e-05, 8.29249529e-06, 1.05668878e-05, 1.32110672e-05,
          1.16698902e-05, 1.20492514e-05, 4.88420983e-06, 2.20125658e-05,
          -1.73162243e-06, 5.26980057e-06, 6.05759624e-06,
          4.09643189e-06, 2.56595808e-06, 1.79546504e-07, 2.93962376e-06,
          6.17420346e-06, 4.90099364e-06, 5.31361002e-06, 1.39832109e-05,
          2.49806362e-05, 3.15345242e-05, 3.36408593e-05, 3.38323625e-05,
          3.48943504e-05, 1.15796374e-05, 3.41463674e-05, 2.90919415e-05,
          3.10813666e-05, 2.71504396e-05, 5.82277025e-05, 3.44580003e-05,
          3.03315519e-05, 1.98911403e-05, 1.27788153e-05, 2.62837125e-06,
          -6.03561875e-06, -6.85329496e-06, -5.62429750e-06,
          -1.08634331e-05, -8.59576448e-06, -5.55209817e-06,
          -6.34648814e-06, -1.03189441e-05, -1.08456597e-05,
          -9.30097485e-06, -1.28300971e-05, -8.37306379e-06,
          -5.84452573e-06, -1.08788043e-07, 5.65409073e-06,
          1.28920301e-05, 1.57889208e-05, 2.06453878e-05, 2.13792337e-05,
          1.67863000e-05, 1.61489243e-05, -1.37164352e-06,
          1.56504029e-05, 1.56104961e-05, 1.34059337e-05, 3.11399890e-05,
          5.95766869e-05, 2.39603578e-05, 1.58761577e-05, 3.00495617e-06,
          -5.25597125e-06, 2.68537406e-06, 4.74007675e-06,
          -1.54541010e-06, -5.62312653e-06, -1.33475660e-05,
          -1.95003613e-05, -2.29589041e-05, -1.78444188e-05,
          -1.56431834e-05, -1.64599933e-05, -1.47959026e-05,
          -1.54513455e-05, -1.26340983e-05, -8.62099932e-06,
          -1.92044467e-06, -2.40297049e-06, -1.40542136e-06,
          -1.52169764e-06, -1.80183565e-06, -4.86310182e-06,
          -4.04590946e-06, 1.59273077e-06, -1.62556826e-05,
          3.69722511e-06, 4.99471753e-06, 1.64652338e-05, 3.78916848e-05,
          5.97560611e-05, 2.95469690e-05, 2.02170377e-05, 2.17783395e-06,
          1.10026690e-06, 6.60479782e-06, 7.02210127e-06, 9.62150989e-06,
          3.93411455e-07, -7.99841587e-07, 8.19800516e-06,
          -3.27343264e-06, -3.05505864e-06, 2.46766240e-06,
          -6.64427603e-07, -9.50821118e-07, -8.60759155e-06,
          1.90920241e-06, 1.49769960e-06, 1.39479835e-05, 2.94794991e-05,
          6.77153093e-06, 8.11150221e-06, 1.04829167e-06, 4.86259814e-05,
          5.85268281e-05, 1.00675297e-05, -1.32935511e-05,
          1.21190005e-05, 1.75408641e-05, 2.27801993e-05, 3.74047413e-05,
          6.02725886e-05, 3.43596112e-05, 2.03627606e-05, 7.81069684e-06,
          -1.42072213e-06, 3.17150125e-06, 5.50828463e-06,
          3.16788055e-06, 3.96082396e-06, 1.11426680e-05, 2.08664242e-05,
          1.68834122e-05, 1.26321938e-05, 2.56382027e-05, 1.62072720e-05,
          9.35976095e-06, 1.31016532e-05, 1.26489922e-05, 1.90106621e-05,
          2.53782655e-05, 3.75448944e-05, 2.22358776e-05, 1.72075870e-05,
          1.04910559e-05, 5.78968866e-05, 6.53552197e-05, 4.35284783e-05,
          -1.30541121e-05, 3.87852197e-06, 1.07961741e-05,
          2.00079630e-05 ]
      - [ 7.50602485e-05, 4.90775856e-05, -5.82771463e-05,
          -4.60179363e-05, 5.73907600e-05, -1.41021810e-05,
          -3.14142089e-05, 1.54735608e-04, 2.64338887e-04,
          2.86866038e-04, 1.91687534e-04, 1.58064984e-04, 1.82370452e-04,
          1.97724134e-04, 1.20508470e-04, 1.21963560e-04, 1.31017237e-04,
          1.94269232e-04, 2.14231157e-04, 2.23828640e-04, 1.54677196e-04,
          1.42966426e-04, 8.26379983e-05, -1.59975098e-05,
          5.81719269e-06, 1.60239142e-05, 2.37596905e-05, 4.51832493e-05,
          1.59555366e-05, -6.76271884e-05, -6.42856030e-05,
          -3.13455181e-04, 4.80505521e-04, 2.56620260e-04,
          5.43989408e-05, 4.38807274e-06, 1.16976604e-04, 1.03213890e-04,
          7.03163023e-05, 3.45638895e-04, 3.60422942e-04, 3.40202649e-04,
          2.12145693e-04, 1.94801411e-04, 2.09606354e-04, 2.07579127e-04,
          1.51672692e-04, 1.29790191e-04, 1.52733963e-04, 2.48321478e-04,
          2.53628590e-04, 2.84299662e-04, 8.68867646e-05, 1.25430917e-04,
          7.87660538e-05, 4.39002069e-05, 8.45675022e-05, 1.11456975e-04,
          4.74019798e-05, 1.15470437e-04, 6.94990522e-05, 5.77628307e-05,
          6.34619064e-05, 8.12133351e-07, 4.06265608e-04, 1.98739668e-04,
          -5.88006042e-05, -1.74496294e-04, -1.32987392e-04,
          -1.44547987e-04, -7.27587176e-05, 1.02773738e-04,
          1.86950085e-04, 1.82693489e-04, 6.79671866e-05,
          -4.92362369e-06, -3.86753709e-06, -1.60954860e-05,
          -7.38062154e-05, -8.46179828e-05, -7.10350068e-05,
          -5.67181087e-05, 3.77736484e-07, -2.93798421e-05,
          -1.64522455e-04, -1.89135942e-04, -1.65817415e-04,
          -1.46769933e-04, -1.40030272e-04, -8.93431934e-05,
          -7.59613322e-05, -3.14154713e-05, -3.53102187e-05,
          8.64475660e-05, 1.76422094e-04, 1.11422160e-05, 1.45067635e-04,
          -1.77898764e-05, -2.77350569e-04, -3.98680131e-04,
          -2.99655308e-04, -2.00020775e-04, -1.41304699e-04,
          -2.49646637e-05, 1.42713543e-04, 1.67129430e-04,
          1.17900556e-04, 1.07350934e-04, 1.62431679e-05, 1.87152345e-05,
          -5.30088391e-06, -2.52242353e-05, -1.13539436e-05,
          -2.82471228e-05, -8.10437632e-05, -1.74469649e-04,
          -2.13829320e-04, -2.10592101e-04, -1.76481321e-04,
          -1.28933432e-04, -1.31800611e-04, -1.05613311e-04,
          -9.55716605e-05, -7.38745657e-05, -1.23118298e-04,
          1.29025037e-04, 2.85522081e-04, 2.09186583e-05, 1.53194575e-04,
          1.10765446e-04, -3.89245397e-05, -1.07366941e-04,
          -7.16245268e-05, -4.86088502e-05, -1.66265727e-05,
          1.25227991e-04, 2.00928975e-04, 1.86192905e-04, 1.71773223e-04,
          1.83410448e-04, 1.50937893e-04, 7.61336705e-05, 1.01966485e-04,
          1.25561011e-04, 9.39161037e-05, 1.61186181e-05,
          -6.93568436e-05, -1.33523092e-04, -1.72273038e-04,
          -1.56768423e-04, -1.55498739e-04, -1.29144217e-04,
          -1.15964569e-04, -9.91518828e-05, -9.83524224e-05,
          -2.67569558e-05, -1.20398799e-04, 1.10458350e-04,
          2.29777259e-04, 1.68325869e-06, 1.39972588e-04, 1.93076412e-04,
          -2.74150443e-05, -1.44166494e-04, -1.53362809e-04,
          -1.27109219e-04, -2.48579126e-05, 1.16834628e-04,
          1.74383313e-04, 1.95779619e-04, 2.02421958e-04, 1.99593822e-04,
          2.05748715e-04, 2.09325619e-04, 1.39323791e-04, 1.36533374e-04,
          5.02405455e-05, -4.60102347e-05, -1.02231439e-04,
          -1.08052613e-04, -1.42244011e-04, -1.60285286e-04,
          -1.58746087e-04, -1.56315495e-04, -1.08168009e-04,
          -1.23585662e-04, -1.15233415e-04, -3.87836371e-05,
          -1.09396708e-04, 3.43918509e-05, 1.41765340e-04,
          -4.65233061e-05, 1.12330323e-04, 1.20442397e-04,
          -1.64604615e-04, -2.39700501e-04, -1.78630551e-04,
          -8.58801868e-05, 6.24340682e-05, 1.37791896e-04,
          1.81404699e-04, 1.87093261e-04, 2.01840114e-04, 2.08323385e-04,
          1.99403235e-04, 2.27748038e-04, 2.39877569e-04, 1.64384794e-04,
          3.90066452e-05, -3.85452076e-05, -5.92484139e-05,
          -9.97288953e-05, -1.75407287e-04, -1.62278287e-04,
          -1.66862403e-04, -1.69454477e-04, -1.26022394e-04,
          -1.37849507e-04, -1.20219105e-04, -6.67902568e-05,
          -1.23547114e-04, 3.40860388e-05, 1.79585812e-04,
          -3.92159236e-05, 1.08769564e-05, 2.00224185e-05,
          -2.29521786e-04, -2.54515238e-04, -1.78270348e-04,
          -1.00156285e-04, 7.73405482e-05, 1.58489551e-04,
          1.91395695e-04, 1.86583406e-04, 1.88779377e-04, 1.94646505e-04,
          2.13450374e-04, 2.16751941e-04, 2.05147691e-04, 1.73350738e-04,
          1.03782120e-04, 3.32866584e-05, -2.86841005e-05,
          -1.14064162e-04, -1.52372828e-04, -1.50712876e-04,
          -1.76080430e-04, -1.70433224e-04, -1.43269732e-04,
          -1.25139297e-04, -1.01143283e-04, -1.00448218e-04,
          -1.47779487e-04, -8.43763601e-08, 1.62552926e-04,
          -3.18321363e-05, -7.56669833e-05, -1.96716719e-05,
          -1.74435656e-04, -2.70860095e-04, -1.94982364e-04,
          -9.80141776e-05, 3.77521537e-05, 1.22918835e-04,
          1.07231484e-04, 1.30152504e-04, 1.46856866e-04, 1.69527455e-04,
          1.71586405e-04, 1.91629471e-04, 1.93306623e-04, 1.49142885e-04,
          8.74249890e-05, 2.61615151e-05, -7.53721270e-06,
          -1.91872441e-05, -1.97917307e-05, -4.58640752e-05,
          -6.08362388e-05, -1.08645159e-04, -7.84984150e-05,
          -6.66617925e-05, -8.53250822e-05, -7.80361152e-05,
          -1.43169120e-04, 3.85906642e-05, 1.78720118e-04,
          2.29060934e-05, -2.12273189e-05, 5.04372074e-05,
          -1.53600908e-04, -2.57581734e-04, -2.13042469e-04,
          -7.22401746e-05, 9.28743029e-05, 1.52426655e-04,
          9.90247063e-05, 1.05450075e-04, 1.06420732e-04, 1.28474159e-04,
          1.36032206e-04, 1.42132238e-04, 1.55681104e-04, 1.17189986e-04,
          1.75408331e-05, -8.85799000e-06, -2.71486970e-05,
          -3.19330247e-05, -3.10478827e-05, -2.40449299e-05,
          -2.71256013e-05, -1.08515131e-04, -6.83942053e-05,
          -5.31668011e-05, -4.98458321e-05, -8.48072305e-05,
          -1.61522228e-04, 2.32150414e-05, 1.61509583e-04,
          2.04483840e-05, 5.64759248e-05, 1.21846992e-04,
          -1.23045727e-04, -1.94137931e-04, -7.70611878e-05,
          5.57874446e-05, 1.40293385e-04, 1.16893701e-04, 1.00183759e-04,
          9.12440155e-05, 8.44566530e-05, 1.01418780e-04, 9.81368212e-05,
          9.79892357e-05, 1.10987763e-04, 6.90228044e-05,
          -1.87344576e-05, -3.25832189e-05, -4.75168090e-05,
          -3.15033139e-05, -2.70067703e-05, -1.42954577e-05,
          -1.43321931e-05, -8.45595641e-05, -1.04261220e-04,
          -6.76271520e-05, -4.83576696e-05, -5.03118972e-05,
          -1.53983798e-04, 2.63571437e-05, 1.43168698e-04,
          1.80655643e-05, 6.62243547e-05, 7.57978778e-05,
          -1.39976211e-04, -1.20905228e-04, 4.47936291e-05,
          1.02107224e-04, 9.71304180e-05, 9.03117907e-05, 7.80955161e-05,
          8.19794950e-05, 8.11459613e-05, 1.03510320e-04, 8.43504968e-05,
          6.24809836e-05, 6.66454725e-05, 4.07296138e-05,
          -4.98766276e-05, -9.34592099e-05, -1.13924885e-04,
          -6.26720866e-05, -2.10384387e-05, -2.65978342e-05,
          -1.98545076e-05, -1.37587676e-05, -1.01976409e-04,
          -9.96949238e-05, -8.00483831e-05, -8.83194298e-05,
          -1.85143508e-04, 1.91962827e-05, 1.46612234e-04,
          3.24190878e-05, 4.49724430e-05, -1.02194258e-06,
          -1.32385307e-04, -6.15610697e-05, 2.81216489e-05,
          4.70667474e-05, 6.96271600e-05, 6.21353756e-05, 4.49670260e-05,
          5.66910458e-05, 8.72518649e-05, 9.19488521e-05, 6.56530610e-05,
          3.51341005e-05, 4.60720330e-05, 1.87005080e-05,
          -5.94969097e-05, -1.34856629e-04, -1.66347425e-04,
          -1.09375214e-04, -6.02562286e-05, -5.08249177e-05,
          -2.40426525e-05, -2.60371939e-06, 1.13545393e-05,
          -7.01959725e-05, 1.55528614e-05, -9.08104921e-05,
          -1.58207054e-04, 4.95238601e-05, 1.55721427e-04,
          3.86388456e-05, 3.04929490e-05, 3.29327595e-05,
          -6.52912713e-05, -1.50813221e-05, 3.81011523e-05,
          7.78554313e-05, 5.48641110e-05, 5.29064710e-05, 3.05793983e-05,
          3.05948379e-05, -4.30910603e-07, -3.23026179e-05,
          -4.36119299e-05, -2.11226452e-05, -1.16503097e-05,
          -3.77966935e-05, -1.36420131e-04, -1.65833844e-04,
          -1.92633102e-04, -1.92575564e-04, -1.83168027e-04,
          -1.48322113e-04, -7.83749638e-05, -5.77269675e-05,
          -5.30899379e-05, -4.46525955e-05, 1.08980494e-04,
          -8.34734237e-05, -1.84259203e-04, 3.99854434e-05,
          1.36044371e-04, 3.67406865e-05, 3.16827136e-05, 1.06280007e-04,
          2.34961888e-07, 2.46029576e-05, 9.03511173e-05, 8.85537593e-05,
          7.36722141e-05, 6.69770161e-05, -1.15031589e-05,
          -5.30751058e-05, -7.96495951e-05, -8.97451391e-05,
          -9.93365175e-05, -7.26520884e-05, -6.05504611e-05,
          -9.03459950e-05, -1.80732721e-04, -2.27134340e-04,
          -2.59229157e-04, -2.67882046e-04, -2.67891388e-04,
          -2.33133818e-04, -1.77073627e-04, -1.92606385e-04,
          -1.74680725e-04, -2.01599338e-04, -5.34871615e-05,
          -1.38799980e-04, -1.90397826e-04, 4.42933306e-05,
          1.12221482e-04, -2.59213757e-05, 7.35933281e-05,
          1.48331950e-04, 3.03847955e-05, 5.45125658e-05, 8.43122616e-05,
          8.88899885e-05, 9.05122870e-05, 1.37040797e-05,
          -6.70926092e-05, -8.04259107e-05, -9.29801754e-05,
          -1.24206475e-04, -1.40078599e-04, -1.13534414e-04,
          -9.98460964e-05, -1.21361954e-04, -1.94537730e-04,
          -2.61970301e-04, -2.83310219e-04, -2.56518775e-04,
          -2.76195875e-04, -2.94523721e-04, -2.64987611e-04,
          -2.66098650e-04, -2.89813761e-04, -3.70205031e-04,
          -3.19166458e-04, -2.26950186e-04, -2.17691879e-04,
          1.39818067e-05, 6.18174599e-05, -6.84561237e-05,
          1.36278235e-04, 2.81196873e-04, -1.17547725e-05,
          3.04837122e-05, 8.96168203e-05, 7.26501166e-05, 6.97196447e-06,
          -3.22628403e-05, -5.65051087e-05, -8.80309235e-05,
          -1.18477692e-04, -1.44859907e-04, -1.36953604e-04,
          -1.26682833e-04, -1.56604219e-04, -1.53753659e-04,
          -2.06630211e-04, -2.91152974e-04, -3.34431621e-04,
          -3.10004310e-04, -3.15008947e-04, -3.19884653e-04,
          -3.12634162e-04, -3.23572749e-04, -3.83152103e-04,
          -3.46780929e-04, -3.37137812e-04, -3.00269341e-04,
          -3.74965079e-04, -2.16362132e-05, 7.47206068e-05,
          -1.03914441e-04, 1.31376699e-04, 2.16695393e-04,
          3.39421968e-05, 3.90521782e-05, 1.20161276e-04, 6.37850171e-05,
          -4.07823936e-05, -6.38739730e-05, -6.93241309e-05,
          -1.05446372e-04, -1.34794216e-04, -1.47550541e-04,
          -1.40129021e-04, -1.57089569e-04, -1.91903702e-04,
          -1.84157601e-04, -2.27553202e-04, -2.86069146e-04,
          -3.33796837e-04, -3.38426500e-04, -3.61339247e-04,
          -3.34816170e-04, -2.91487406e-04, -2.85373244e-04,
          -2.73966521e-04, -2.95217644e-04, -3.00942367e-04,
          -3.55477241e-04, -4.59859759e-04, -2.03453848e-04,
          -1.11371992e-05, -7.18268493e-05, 1.30871253e-04,
          1.67479113e-04, 7.87859972e-05, 4.31006265e-05, 1.04623199e-04,
          2.53881353e-05, -5.33641032e-05, -4.90122547e-05,
          -7.84940130e-05, -1.05114123e-04, -1.24746206e-04,
          -1.39107549e-04, -1.47559171e-04, -1.71110762e-04,
          -1.95286368e-04, -1.89612329e-04, -2.46217998e-04,
          -2.79857224e-04, -3.09481344e-04, -3.33721720e-04,
          -3.32725554e-04, -2.91098695e-04, -2.87563453e-04,
          -2.63566180e-04, -2.28913894e-04, -3.16996768e-04,
          -3.32018302e-04, -3.20964871e-04, -4.25503764e-04,
          -2.85382266e-04, -1.25373830e-04, -9.47404405e-05,
          1.31741996e-04, 1.71510765e-04, 8.01334027e-05, 1.83947195e-05,
          1.38575889e-08, -2.47900280e-05, -5.64995644e-05,
          -3.65744454e-05, -8.82306485e-05, -1.03963823e-04,
          -1.21951300e-04, -1.50641456e-04, -1.64492158e-04,
          -1.82339223e-04, -1.84882796e-04, -1.86818113e-04,
          -2.36253953e-04, -2.61577632e-04, -2.92931567e-04,
          -2.67312367e-04, -2.27629091e-04, -2.26317934e-04,
          -2.43375922e-04, -2.24043499e-04, -2.02503215e-04,
          -2.53797480e-04, -3.03051696e-04, -2.96723767e-04,
          -4.11451678e-04, -2.30003789e-04, -1.28506115e-04,
          -1.26723302e-04, 8.73108584e-05, 2.00498529e-04,
          6.53573297e-05, 7.30298643e-06, -5.35452455e-05,
          -6.34360331e-05, -7.65427394e-05, -8.08070981e-05,
          -1.02712635e-04, -1.23391263e-04, -1.44969657e-04,
          -1.73640554e-04, -2.04497454e-04, -1.99928472e-04,
          -2.02589450e-04, -2.13498570e-04, -2.34879059e-04,
          -2.85295886e-04, -3.16429243e-04, -2.50821031e-04,
          -2.13174731e-04, -2.08674945e-04, -2.00294264e-04,
          -1.81914569e-04, -1.82187840e-04, -2.19931026e-04,
          -2.45570176e-04, -2.31643513e-04, -3.18014732e-04,
          -1.02585029e-04, 4.91941573e-05, 1.26167972e-04,
          7.37030787e-05, 2.19299400e-04, 4.95994209e-05,
          -9.11226598e-05, -6.32893498e-05, -8.03579751e-05,
          -9.26865905e-05, -1.09110981e-04, -1.14934643e-04,
          -1.26525527e-04, -1.49193569e-04, -1.77137277e-04,
          -2.15162378e-04, -1.92116946e-04, -1.66991143e-04,
          -1.96051056e-04, -2.21199109e-04, -2.90611410e-04,
          -2.66053510e-04, -2.08274636e-04, -2.00506431e-04,
          -1.60260985e-04, -1.14752729e-04, -9.89735418e-05,
          -9.23684565e-05, -8.05096279e-05, -8.84967012e-05,
          -9.08300353e-05, -1.83365744e-04, 6.94636401e-05,
          2.37292261e-04, 2.87081260e-04, 5.47590935e-06, 1.89024388e-04,
          1.14091881e-05, -1.68663144e-04, -7.36293878e-05,
          -7.47231243e-05, -1.04829393e-04, -9.90800763e-05,
          -9.82482161e-05, -1.24062804e-04, -1.43537429e-04,
          -1.85043595e-04, -2.14545493e-04, -1.70200248e-04,
          -1.50268155e-04, -1.64460551e-04, -2.29020472e-04,
          -2.35164334e-04, -1.94840002e-04, -1.51672473e-04,
          -1.31237131e-04, -8.57064806e-05, -6.77718854e-05,
          -6.55726471e-05, 5.75851891e-06, -1.57703980e-05,
          -2.75356670e-05, 1.33731683e-05, -8.96698402e-05,
          1.40729127e-04, 2.94135796e-04, 2.98562372e-04,
          -3.88647131e-05, 1.59906820e-04, -4.35424918e-05,
          -2.25218682e-04, -1.00274679e-04, -8.34668899e-05,
          -1.07185944e-04, -8.34191742e-05, -9.27420188e-05,
          -1.22638128e-04, -1.59069081e-04, -1.94334454e-04,
          -1.90210194e-04, -1.72473374e-04, -1.67416991e-04,
          -1.68896251e-04, -1.51714892e-04, -1.42730263e-04,
          -1.51040891e-04, -1.25096965e-04, -5.90477866e-05,
          -1.70691346e-05, -4.42467099e-05, -5.24763309e-05,
          3.34057331e-05, 1.19318493e-05, -9.60612397e-07,
          3.41294690e-05, -2.87186595e-05, 1.76994305e-04,
          3.34238372e-04, 2.99308304e-04, -2.46439031e-05,
          1.76580012e-04, -6.18369013e-05, -2.11706079e-04,
          -1.13377399e-04, -8.75731057e-05, -1.25410705e-04,
          -1.05078660e-04, -1.14732466e-04, -1.22967191e-04,
          -1.42842371e-04, -1.99913731e-04, -1.70517640e-04,
          -1.61334887e-04, -1.61109376e-04, -9.13106414e-05,
          -9.62814593e-05, -1.14935108e-04, -1.03464583e-04,
          -4.61312011e-05, 1.13916667e-05, -5.05917478e-06,
          -5.77490500e-05, -9.01070453e-05, 2.78306961e-05,
          -9.99834265e-06, -1.60678774e-05, 3.17157574e-05,
          -3.62583560e-05, 1.96684559e-04, 2.96305720e-04,
          2.89004151e-04, 2.36142182e-06, 1.60966141e-04,
          -9.53131239e-05, -2.11371706e-04, -1.38455507e-04,
          -1.06228239e-04, -1.28620057e-04, -1.48640349e-04,
          -1.30657310e-04, -1.09301538e-04, -7.35118738e-05,
          -1.95133566e-06, -1.78987117e-04, -1.52971683e-04,
          -6.24082895e-05, -6.15514728e-05, -1.27326522e-04,
          -9.52776390e-05, -6.13583252e-05, -1.29557775e-05,
          -1.72272248e-05, -2.02540286e-05, -4.32799752e-05,
          5.12310726e-05, 5.94631019e-05, 2.76265255e-05,
          -2.35105254e-05, 1.92319239e-05, -6.20118590e-05,
          1.69086023e-04, 2.78244261e-04, 2.56289029e-04, 3.49469265e-05,
          1.90501800e-04, -1.00203346e-04, -2.30587073e-04,
          -1.33577865e-04, -7.56774825e-05, -8.06434473e-05,
          -9.54073184e-05, -4.04716011e-05, -7.20965254e-05,
          -1.05839230e-04, 9.91284251e-05, -1.71193155e-04,
          -1.39284093e-04, -6.01487664e-05, -2.21499158e-05,
          -8.90480151e-05, -8.49235294e-05, 5.32622380e-06,
          1.64439689e-06, -1.16327865e-05, -1.33840649e-05,
          1.35692062e-05, 7.28620216e-05, 7.71330233e-05, 5.98217084e-05,
          4.59336225e-05, 4.50512416e-05, -5.84556983e-05,
          1.67502571e-04, 2.61666166e-04, 2.23173658e-04, 2.34955551e-05,
          1.49601095e-04, -1.08885790e-04, -2.06446042e-04,
          -1.22016005e-04, -3.33792705e-05, 3.83316046e-06,
          1.57312243e-05, -1.06620473e-05, -6.80534649e-05,
          -1.42644349e-04, -5.66342715e-05, -1.90848950e-04,
          -1.52340523e-04, -1.67118225e-04, -1.09400637e-04,
          -5.16359032e-05, 2.76436222e-05, 1.75731532e-06,
          5.95333722e-06, -3.17119775e-05, -1.94051318e-05,
          8.83926914e-05, 8.91988238e-05, 1.07980573e-04, 1.36716073e-04,
          1.33316949e-04, 9.09587470e-05, -8.82746244e-05,
          1.40402568e-04, 2.48108379e-04, 1.51093554e-04, 2.67180239e-05,
          1.32814370e-04, -6.24684762e-05, -2.06459823e-04,
          -2.28338191e-04, -1.49220112e-04, -1.37125142e-04,
          -1.46829523e-04, -1.47138024e-04, -1.52186200e-04,
          -1.63111763e-04, -1.42628123e-04, -1.44019083e-04,
          -1.70769956e-04, -1.60977972e-04, -6.16423858e-05,
          -1.62499473e-05, -4.19714197e-05, -4.27363884e-05,
          -3.95833667e-05, -5.14322019e-05, 8.35665833e-06,
          5.45371586e-05, 7.06988285e-05, 5.71832934e-05, 4.38235802e-05,
          -2.42286296e-05, -6.17214828e-05, -1.83676588e-04,
          -1.51289887e-05, 2.99784260e-05, -9.62753693e-05,
          1.10563284e-04, 1.92793101e-04, -2.34571071e-05,
          -1.72739194e-04, -2.33232029e-04, -1.28892178e-04,
          -1.17125550e-04, -1.39658048e-04, -1.62420693e-04,
          -9.63412895e-05, -4.54206456e-05, -4.34272297e-05,
          -1.06316016e-04, -1.03262908e-04, -1.39035001e-05,
          -1.10451492e-05, -2.03495856e-05, -1.87442947e-05,
          -1.05743156e-05, -1.96464680e-05, -3.20834693e-06,
          5.28321616e-05, 2.54497045e-05, 5.58388674e-05, 9.74911818e-05,
          5.69510448e-05, 1.48058680e-05, 2.44224284e-05,
          -1.17830547e-04, 4.01936813e-05, 7.04038976e-05,
          1.56310252e-05, 2.63121066e-04, 2.82894791e-04, 5.22881819e-05,
          -1.96192617e-04, -2.43703980e-04, -1.89090671e-04,
          -1.57782299e-04, -2.17458481e-04, -2.02703202e-04,
          -2.20718619e-04, -1.76623682e-04, -7.72718704e-05,
          -1.61662552e-04, -7.07924046e-05, 8.39102213e-05,
          -1.66318023e-05, -7.50572144e-05, -1.40460368e-04,
          -6.50357324e-05, -7.29294115e-05, 8.54415921e-05,
          2.25142052e-04, 2.42405240e-05, 6.30610448e-05, 9.77928576e-05,
          4.02697653e-04, 4.35220893e-04, 8.79467916e-05,
          -7.37901719e-05, 6.83412072e-05, 1.14660579e-04,
          1.96683050e-05, 3.34429467e-04, 3.37889389e-04, 1.84503151e-04,
          -1.71893145e-04, -2.31300932e-04, -1.39086143e-04,
          -1.52736728e-04, -1.22030629e-04, -1.53441099e-04,
          -6.57660421e-05, 3.41989180e-05, 1.42839548e-04,
          2.24225558e-04, 2.49272911e-04, 3.02439294e-04, 1.27482097e-04,
          5.10371028e-05, 9.70053297e-05, 1.08446184e-04, 1.59960211e-04,
          3.18215578e-04, 3.98863544e-04, 2.69682787e-04, 2.60411412e-04,
          2.31676662e-04, 5.38044958e-04, 5.75543032e-04, 4.37660754e-04,
          5.10345635e-05, 1.26062398e-04, 1.31459587e-04, 6.77005482e-06 ]
      - [ -1.52942141e-06, -1.94985114e-04, 5.35476920e-06,
          1.88756865e-04, 4.59612522e-04, 2.33433850e-04,
          -3.27951311e-05, 2.34066116e-04, 1.53910121e-04,
          2.85597198e-05, -1.15277573e-04, -2.73445505e-04,
          -4.07531974e-04, -4.17870586e-04, -3.15056706e-04,
          -6.01414540e-05, -5.40102410e-05, 1.58735071e-04,
          4.40891017e-04, 6.27857691e-04, 1.22396636e-03, 1.39225868e-03,
          1.01821893e-03, 9.57751647e-04, 1.11958932e-03, 9.28566849e-04,
          7.71019142e-04, 2.72625446e-04, 1.66587706e-04, 2.22457078e-04,
          1.51563319e-04, -2.17178691e-04, 1.40608358e-03,
          2.52600614e-04, -2.01431947e-04, -1.54699097e-04,
          2.87822331e-04, 1.13168899e-04, -1.85037818e-04,
          2.62629910e-04, 1.58962939e-04, 3.65836349e-05,
          -7.18647207e-05, -5.85282469e-05, -1.82270247e-04,
          -2.20960064e-04, -8.74995603e-05, 1.69715931e-04,
          8.59340507e-05, 2.91084667e-04, 5.14169806e-04, 8.49669916e-04,
          1.08822051e-03, 1.27101748e-03, 1.03318482e-03, 1.31307892e-03,
          1.36454508e-03, 9.50737623e-04, 6.81552978e-04, 2.93800578e-04,
          1.28272077e-04, 3.31804942e-04, 5.42742258e-04, 5.97743900e-04,
          3.93923867e-04, -4.05216007e-04, -9.84765240e-04,
          -8.43647169e-04, -5.51794015e-04, -6.56089629e-04,
          -7.17817980e-04, -5.25555981e-04, -7.12634355e-04,
          -7.48243183e-04, -8.35228653e-04, -7.17784103e-04,
          -8.04426672e-04, -8.49302683e-04, -7.62670883e-04,
          -4.99329646e-04, -4.85900673e-04, -4.48553066e-04,
          -2.35032217e-04, -3.27389600e-04, -2.03000905e-04,
          -1.02902231e-04, -1.50663282e-05, 3.27988120e-04,
          3.85965279e-04, 8.66436749e-05, -2.39335131e-04,
          -5.43926086e-04, -7.07917963e-04, -3.33065604e-04,
          3.84593994e-04, 3.95642739e-04, 1.41194658e-04,
          -2.12751329e-04, -6.40945334e-04, -5.78051666e-04,
          -3.02448840e-04, -1.10650501e-04, -2.44302209e-04,
          -3.35187826e-04, -2.84549547e-04, -3.43925145e-04,
          -4.60288837e-04, -4.20811470e-04, -3.62055580e-04,
          -1.92961161e-04, -8.36197069e-05, 2.15758628e-05,
          -6.51086957e-05, -2.29715108e-04, -3.04247253e-04,
          -4.77582566e-04, -3.06332135e-04, 6.12176955e-05,
          2.83794710e-04, 6.86755695e-04, 6.57795405e-04, 3.50018148e-04,
          1.57783012e-04, -8.34976381e-05, -4.45750891e-04,
          7.88720645e-05, 1.10705534e-03, 7.93646032e-04, 7.54751032e-04,
          4.58233029e-04, 2.63674283e-05, 2.74686405e-04, 5.22938732e-04,
          5.41427871e-04, 4.48909355e-04, 2.86203605e-04, 1.63183082e-04,
          8.29675191e-05, 8.73061072e-05, 6.28284761e-05,
          -2.69775683e-05, -1.94646738e-04, -8.29644050e-05,
          1.08505352e-04, 2.17455163e-04, -3.04736877e-05,
          -3.46413115e-04, -6.38147700e-04, -4.29984677e-04,
          -4.28436833e-05, 2.83123867e-04, 5.36278530e-04,
          5.88682597e-04, 1.20246623e-04, -2.16761455e-05,
          -7.45977377e-05, -3.88616609e-04, 3.48141126e-04,
          9.92380083e-04, 7.87313678e-04, 6.20857056e-04, 3.58853751e-04,
          2.71134213e-05, 3.61685728e-04, 4.40195814e-04, 3.24641092e-04,
          1.84464167e-04, 1.18359771e-04, 9.44526910e-05, 7.87217068e-05,
          1.23396254e-04, 8.41795627e-05, 1.81449243e-04, 1.01400947e-04,
          1.47934334e-04, 2.17331442e-04, 1.60134296e-04,
          -6.79739242e-05, -3.20049148e-04, -3.43165069e-04,
          -2.32717910e-04, 2.77048402e-05, 4.82400443e-04,
          8.27052339e-04, 8.18377419e-04, 5.98721323e-04, 5.36883890e-04,
          3.15608399e-04, 9.71538248e-05, -3.28847673e-05,
          8.12033250e-04, 5.45130402e-04, 3.69587011e-04,
          -6.41245333e-06, -2.74401740e-04, 3.57341778e-05,
          1.22405272e-05, 1.00574180e-04, -5.49816759e-05,
          -5.90239797e-05, -8.36637992e-05, -9.77872041e-05,
          2.92207665e-06, 6.08207893e-06, 1.10739900e-04, 1.01436461e-04,
          1.17831602e-04, 6.44611373e-06, -2.32319668e-04,
          -2.01847812e-04, -3.19501356e-04, -4.28804895e-04,
          -5.32173959e-04, -3.46624671e-04, 1.44680947e-04,
          4.08382184e-04, 3.23914079e-04, 2.14843123e-04, 1.39589756e-04,
          -1.30882865e-04, -4.79964874e-05, 4.80707276e-05,
          8.22273141e-04, 6.70319423e-04, 4.49033192e-04, 7.25147256e-05,
          -2.56798412e-05, 1.01382568e-04, -8.38267297e-05,
          -1.32489631e-05, -9.48578381e-05, 3.05628309e-05,
          2.04723892e-06, 1.04185689e-04, 1.22343190e-04, 3.67501743e-05,
          1.09779612e-04, -6.81530355e-06, 9.01543244e-05,
          -6.52740564e-05, -2.87452189e-04, -3.49097070e-04,
          -4.74820350e-04, -4.19045304e-04, -4.64238779e-04,
          -3.73905408e-04, 1.03747152e-04, 4.02043399e-04,
          3.32647993e-04, 1.55281945e-04, -2.40361023e-05,
          -2.30299629e-04, 7.33035704e-05, 2.41433168e-04,
          9.49949317e-04, 6.68883906e-04, 6.12325035e-04, 1.56422044e-04,
          -6.72216556e-05, 2.02734045e-05, 1.71927401e-04,
          1.87702186e-04, 1.37296840e-04, 2.55189399e-04,
          -3.30337534e-05, 5.03317324e-07, 8.99943334e-05,
          7.20537355e-05, 1.83054726e-04, 1.37633848e-04, 8.56112638e-06,
          -1.56997849e-04, -2.48056866e-04, -3.49651818e-04,
          -4.41165874e-04, -6.24210748e-04, -5.48862910e-04,
          -4.08352120e-04, 1.75850164e-05, 3.33093427e-04,
          3.59598373e-04, 2.84491980e-04, 2.19684589e-05,
          -2.36246851e-04, 1.09526707e-04, 1.91287341e-04,
          6.14836928e-04, 4.74532368e-04, 5.91667485e-04, 3.39884980e-04,
          -9.40923201e-06, 1.06355845e-04, 3.94081180e-05,
          1.69254097e-04, 2.97999941e-04, 2.44288152e-04, 1.82617714e-05,
          1.75835539e-05, 1.21728488e-04, 1.55259302e-04, 2.00986949e-04,
          1.01242302e-04, -2.34881354e-05, -1.59831543e-04,
          -2.17378984e-04, -3.06851987e-04, -5.79817570e-04,
          -6.22652879e-04, -6.42882369e-04, -2.53676379e-04,
          5.91141397e-05, 2.91265984e-04, 1.98083406e-04, 1.23829042e-04,
          -9.25475397e-05, -3.81409598e-04, -2.70082586e-04,
          2.00187176e-04, 6.40732120e-04, 4.30891465e-04, 6.41041668e-04,
          2.90495576e-04, -2.75843224e-04, -5.78678300e-05,
          -5.23282724e-05, 7.67111487e-06, 3.48326750e-04,
          2.71247554e-04, 1.48615713e-04, 1.27227831e-04, 1.98675742e-04,
          1.96593217e-04, 1.36659626e-04, -9.17665093e-05,
          -1.97283603e-04, -2.42371432e-04, -2.28247343e-04,
          -3.90122092e-04, -5.33150684e-04, -4.42663848e-04,
          -5.51997160e-04, -1.91636922e-04, -4.74181506e-05,
          -5.83459550e-05, -2.05150252e-04, -1.97510890e-04,
          -3.43820284e-04, -5.45896939e-04, -4.69455437e-04,
          2.41495247e-04, 6.08997769e-04, 3.95483075e-04, 9.24300053e-04,
          3.42142477e-04, -5.52921381e-04, -3.47312831e-04,
          -2.94138154e-05, -1.87673049e-05, 1.98312919e-04,
          2.86678347e-04, 1.91979765e-04, 1.96382374e-04, 2.05131815e-04,
          1.77461159e-04, 1.10826579e-04, -8.91708332e-05,
          -1.16225747e-04, -9.08200818e-05, -1.48423089e-04,
          -4.35825175e-04, -5.13158157e-04, -5.39133733e-04,
          -4.82309028e-04, -2.73063488e-04, -7.08535226e-05,
          -1.95373184e-04, -4.08576336e-04, -4.65779885e-04,
          -4.67203208e-04, -5.32292994e-04, -5.16257598e-04,
          7.72264029e-05, 4.36771661e-04, 3.91820126e-04, 8.07546952e-04,
          3.00367334e-04, -4.22106212e-04, -3.26428155e-04,
          7.14271737e-05, -7.95766664e-06, -1.36482602e-04,
          -5.94598714e-05, 1.19768607e-04, 2.10341110e-04,
          2.10134938e-04, 1.66474929e-04, 1.03597762e-04, 4.30489381e-05,
          4.84536104e-05, 1.80946736e-05, -9.46554792e-05,
          -5.64908376e-04, -6.95500872e-04, -8.38313950e-04,
          -7.00280827e-04, -4.29111707e-04, -1.29013468e-04,
          -2.44090741e-04, -1.60429845e-05, -2.01401024e-04,
          -7.24144120e-05, -3.43882362e-04, -3.48410918e-04,
          9.05272245e-05, 3.93758586e-04, 3.82127910e-04,
          -1.50153764e-05, 1.06244850e-04, -1.59907664e-04,
          -8.55046237e-05, 8.06548851e-05, 3.47898858e-05,
          -2.00573326e-04, -1.42358360e-04, 3.59431783e-06,
          6.31444054e-05, 1.13500486e-04, -5.44317954e-05,
          4.54473593e-06, -1.74985234e-05, 7.17596049e-05,
          -7.40209407e-06, -3.67932662e-04, -6.19058730e-04,
          -6.81109785e-04, -6.01769076e-04, -5.68447693e-04,
          -3.82981147e-04, -2.65846844e-04, -3.51907918e-04,
          -2.46255251e-04, -3.32849886e-04, 2.52951377e-05,
          -3.33100674e-04, -3.08257644e-04, 4.81329198e-06,
          1.22997968e-04, 1.10311339e-04, -1.62917189e-04,
          -1.71050502e-04, -7.39559124e-04, -6.11799653e-04,
          -3.26850219e-04, -2.46025127e-04, -3.74317257e-04,
          -2.29316851e-04, -1.04005456e-04, -2.10240851e-05,
          2.41784910e-05, -5.61995439e-05, -3.79428639e-05,
          -3.73322218e-05, 1.67528633e-05, 8.80329117e-06,
          -4.17498930e-04, -4.17936739e-04, -2.78415304e-04,
          -1.11385991e-04, -1.21794823e-04, -1.93172571e-04,
          -3.66661203e-04, -4.03578073e-04, -3.93580907e-04,
          -4.88659367e-04, -1.94039661e-04, -3.68883455e-04,
          -2.66468734e-04, 8.17506952e-05, 5.81678323e-05,
          -2.38232824e-05, -1.31759894e-04, 1.06327861e-04,
          -6.72063266e-04, -4.80472372e-04, -2.63609545e-04,
          -1.48305611e-04, -5.32978738e-04, -5.63364418e-04,
          -5.64407848e-04, -3.53078562e-04, -8.43380549e-05,
          5.26902295e-05, 1.21907702e-04, 1.06718871e-04, 1.17065123e-04,
          4.32866145e-05, -2.19446782e-04, -2.61452922e-04,
          -1.86328660e-04, -1.12253896e-04, -3.23815730e-05,
          -3.09547380e-04, -4.85952565e-04, -4.34323243e-04,
          -1.05336483e-04, -2.51936639e-04, -3.24763678e-04,
          -4.09259228e-04, -2.86043592e-04, 8.92577154e-05,
          -5.18219931e-05, -1.12528127e-04, 1.38479954e-04,
          4.93722328e-04, -6.40187704e-04, -3.94485221e-04,
          -2.10550104e-04, -4.09701373e-04, -1.73005523e-04,
          -1.80278643e-04, -3.23474058e-04, -4.31049324e-04,
          -3.32757249e-04, -7.34425994e-05, 3.08833638e-04,
          5.00874361e-04, 3.40153114e-04, 1.10294422e-04,
          -2.47082498e-04, -2.50140816e-04, -2.73924728e-04,
          -2.50228069e-04, -2.58582644e-04, -4.04175837e-04,
          -5.30189078e-04, -3.01101827e-04, -2.14806510e-04,
          -5.08946723e-05, -2.80359003e-04, -3.04953224e-04,
          -2.36826279e-04, 1.14803217e-04, 8.24791059e-05,
          2.52778045e-05, 2.20837435e-04, 5.69999916e-04,
          -2.16127752e-04, -2.76485429e-04, -1.40056669e-04,
          -1.50312873e-04, -1.69208040e-04, -1.85409954e-04,
          -1.44749225e-04, -1.36449002e-04, -2.13753330e-04,
          -7.81837880e-05, 1.30542845e-04, 3.54567863e-04,
          2.46039446e-04, -9.54228381e-05, -2.72414210e-04,
          -1.84378325e-04, -3.60841281e-04, -5.31088386e-04,
          -3.66925437e-04, -2.69744138e-04, -2.23396695e-04,
          -2.11851184e-05, 1.32506621e-05, -4.44993275e-05,
          -2.78106309e-04, -3.36176483e-04, -8.31623620e-05,
          2.85935472e-04, 2.24491305e-04, 8.67941562e-05, 3.76552256e-04,
          6.42677827e-04, 2.50199926e-04, 2.53558483e-05, 1.93902597e-05,
          5.62483037e-05, -1.85004872e-04, -1.98222304e-04,
          -1.23587743e-04, -2.30502865e-05, -7.52145570e-05,
          -1.12634880e-04, -6.15880781e-05, 4.85811397e-05,
          -2.38791035e-04, -4.07299725e-04, -2.08825993e-04,
          1.98676184e-06, -1.59238276e-04, -5.31634374e-04,
          -4.02618462e-04, -3.36475932e-04, -3.17959290e-04,
          -1.04191837e-04, 8.89655057e-05, 9.07093090e-06,
          -9.06961432e-05, -1.66544574e-04, -1.37623638e-05,
          3.80022480e-04, 3.61220300e-04, 1.39954442e-04, 5.02889161e-04,
          7.99027388e-04, 3.75957519e-04, 1.53893416e-04, 8.88236245e-05,
          1.18643133e-04, -6.70430891e-05, -2.67604133e-04,
          -4.09149361e-05, 5.93792720e-05, -4.32662819e-05,
          -1.05406776e-04, -7.70448532e-05, -1.74306435e-04,
          -3.16497753e-04, -3.94206436e-04, -2.24102216e-04,
          -2.22866845e-04, -2.54941377e-04, -4.31239314e-04,
          -3.10297852e-04, -3.21003550e-04, -2.30604011e-04,
          -5.91190365e-05, 2.44577532e-05, 4.89439117e-05,
          -5.73031393e-05, -1.26949904e-04, -1.36835835e-04,
          3.85636085e-04, 4.84804739e-04, 2.87820731e-04, 4.50613559e-04,
          7.95047381e-04, 2.75375292e-04, 9.13997501e-05, 2.32870188e-05,
          1.30023298e-04, 1.20361969e-04, -2.78042688e-04,
          -1.90489969e-04, 2.58884411e-05, 9.59850922e-07,
          -5.11189173e-05, -7.79602633e-05, -2.75845930e-04,
          -3.00842454e-04, -3.60546343e-04, -1.69728970e-04,
          -3.64466687e-04, -2.45121715e-04, -3.23630666e-04,
          -4.05240164e-04, -4.91096172e-04, -1.98667622e-04,
          -2.26669745e-05, -2.22135282e-06, 5.71972887e-05,
          -1.02075028e-04, -2.40518333e-04, -1.44778518e-04,
          3.64149164e-04, 5.04707627e-04, 5.62877627e-04, 4.56001115e-04,
          7.89985585e-04, 3.19271552e-04, 1.32467132e-04, 1.21448218e-04,
          1.83480428e-04, 1.24954924e-04, -1.55078509e-04,
          -1.21155943e-04, 2.28429926e-04, 1.25731123e-04,
          1.03443554e-07, -1.81656942e-05, -3.32826487e-04,
          -3.16325953e-04, -3.58663761e-04, -4.92927560e-04,
          -6.22853287e-04, -4.38846444e-04, -3.46100715e-04,
          -3.86635744e-04, -3.59369180e-04, -1.02283724e-04,
          2.89383879e-05, -6.93919674e-07, 4.45032529e-05,
          -1.80659743e-04, -1.29284774e-04, -1.35329203e-04,
          3.30581825e-04, 4.49346233e-04, 6.11479452e-04, 4.99299553e-04,
          7.50956533e-04, 3.78974393e-04, 3.48123649e-05, 1.80316783e-04,
          2.10723709e-04, -2.16537446e-05, -1.10148576e-04,
          -1.95325105e-04, 5.16561267e-05, 1.18852899e-04,
          -2.33169194e-05, -5.15934153e-05, -3.11731943e-04,
          -3.89881810e-04, -4.23738034e-04, -4.65503457e-04,
          -6.48850750e-04, -6.53631287e-04, -4.78508475e-04,
          -3.06138507e-04, -2.67722527e-04, -2.28607474e-04,
          -2.68609554e-04, -9.51358015e-06, 1.71748923e-06,
          -2.23585143e-04, -1.20154211e-04, -1.91929925e-04,
          2.37958797e-04, 3.01734050e-04, 3.37216596e-04, 2.79256259e-04,
          6.52736635e-04, 2.65695911e-04, -3.25006346e-04,
          -5.78231593e-05, 1.23693768e-04, -1.81889802e-04,
          -2.84924201e-04, -3.46312678e-04, 6.64273757e-05,
          2.04367054e-04, 5.97593826e-05, -4.23262682e-05,
          -4.83677082e-04, -5.45394607e-04, -5.31736820e-04,
          -3.99908895e-04, -5.27206401e-04, -7.53009343e-04,
          -6.91104447e-04, -4.20880882e-04, -4.02708160e-04,
          -3.39864724e-04, -1.62148572e-04, 8.66758710e-05,
          -1.79791332e-05, -3.10099422e-04, -3.65597429e-04,
          -1.73398774e-04, 2.89067684e-04, 3.38036742e-04,
          6.81381644e-05, -3.44748842e-04, 6.23588450e-04,
          2.17213208e-04, -3.61748331e-04, -1.42028603e-05,
          6.27476693e-05, -2.86502764e-04, -3.26545240e-04,
          -3.42186977e-04, -2.39770052e-05, 1.48755193e-04,
          -1.67430757e-04, -2.50095327e-04, -4.08745720e-04,
          -5.68004907e-04, -5.50319732e-04, -5.39104163e-04,
          -4.64632438e-04, -4.62766096e-04, -5.88751223e-04,
          -3.09589086e-04, -3.19853541e-04, -3.77958204e-04,
          -3.05877766e-04, -1.29214852e-04, 1.72522618e-04,
          -3.36223457e-04, -4.24562109e-04, -3.52071162e-04,
          1.85570636e-04, -3.77177712e-05, -3.52774194e-04,
          -3.75181815e-04, 3.95409443e-04, -5.87620634e-05,
          -4.58594412e-04, -2.84320413e-04, -8.03814619e-05,
          -2.72095465e-04, -3.74974363e-04, -3.51590832e-04,
          1.92446259e-05, 1.05328196e-04, 1.79438779e-04,
          -7.72166968e-05, -1.47437531e-04, -2.90559110e-04,
          -6.69113593e-04, -5.46716328e-04, -4.51741740e-04,
          -5.03747200e-04, -5.25317155e-04, -4.27017570e-04,
          -4.58451454e-04, -2.85087328e-04, -7.72522762e-05,
          -2.59961726e-05, 6.45423715e-05, -2.38633613e-04,
          -3.74970288e-04, -4.62507305e-04, -1.12052534e-04,
          -3.77580931e-04, -4.34945599e-04, -3.86100059e-04,
          1.98170965e-04, -2.42881259e-04, -5.43850532e-04,
          -4.34278016e-04, -3.38833313e-04, -5.25526586e-04,
          -7.09577464e-04, -3.89175169e-04, 4.54026012e-05,
          -9.80307886e-05, 2.58993183e-04, -3.89348534e-05,
          -3.28110000e-05, -3.90274508e-04, -7.92689912e-04,
          -1.07002864e-03, -7.49790866e-04, -4.55691421e-04,
          -3.15957994e-04, -4.98892565e-04, -6.37026271e-04,
          -5.19373105e-04, -3.57174780e-04, -8.42885565e-05,
          -2.68595817e-04, -4.19182848e-04, -5.86696900e-04,
          -7.48766644e-04, -4.70069732e-04, -8.72861070e-04,
          -9.39185033e-04, -7.97153189e-05, 4.38778770e-05,
          -3.73221701e-04, -6.65662461e-04, -6.01573440e-04,
          -4.55251022e-04, -5.76603750e-04, -4.84460470e-04,
          -2.48609489e-04, -1.18034164e-04, -4.22350829e-04,
          -7.02818143e-05, -2.35826417e-04, -7.96580280e-05,
          -3.08222836e-04, -7.11582776e-04, -8.49201693e-04,
          -7.50271196e-04, -5.17222157e-04, -2.77304644e-04,
          -2.89452117e-04, -2.76742736e-04, -4.38981777e-04,
          -5.64270245e-04, -2.81017536e-04, -3.10070114e-04,
          -4.93771047e-04, -6.48147485e-04, -8.45504110e-04,
          -7.25399761e-04, -1.06743688e-03, -1.06611266e-03,
          -1.33557434e-04, -6.01515130e-05, -1.18671480e-04,
          -1.91825791e-04, -1.85465382e-04, -6.33288946e-05,
          -1.57893664e-04, 1.92678010e-04, 1.79110968e-04,
          7.36460352e-05, -1.09426976e-04, 7.11760440e-05,
          5.25646647e-05, 7.05183993e-05, 3.11896700e-04, 2.92575511e-04,
          -2.21124530e-04, -1.67000879e-04, 4.45239057e-05,
          1.45114071e-04, 7.09653468e-05, 2.08846293e-04, 1.83479322e-04,
          4.56417096e-04, 1.10269692e-04, 2.03021322e-04,
          -1.48620078e-04, -4.40559990e-04, -4.20816359e-04,
          -3.54275515e-04, -6.48333982e-04, -4.35701513e-04,
          -4.52870969e-04, 1.30275321e-05, -1.01417529e-04,
          -3.41722218e-04, -3.73936957e-04, -2.63947673e-04,
          -3.70476540e-04, -1.23075588e-05, -1.19380884e-05,
          -1.98405702e-04, -3.12642020e-04, -1.85306475e-04,
          -5.75838822e-05, 1.57788963e-04, 4.56036563e-04,
          5.14717423e-04, 1.76254209e-04, 2.01772258e-04, 2.58989690e-04,
          2.20241287e-04, -3.47893620e-05, 3.04250298e-05,
          2.70584951e-05, 5.16078202e-04, 5.56013780e-04, 3.37446952e-04,
          -2.14093918e-04, -5.49798715e-04, -5.06917888e-04,
          -2.58672255e-04, -5.85053232e-04, -3.04307177e-04,
          -6.35114091e-04, -4.25602047e-05, 1.14531649e-04,
          -5.37605607e-04, -6.30007882e-04, -2.53382343e-04,
          -2.08110418e-04, -1.63226468e-05, -2.75967730e-04,
          -4.55139496e-04, -4.59928851e-04, -1.39487238e-04,
          -9.15249620e-05, 2.36113963e-04, 6.08241826e-04,
          5.19435445e-04, 6.73414208e-04, 5.74583537e-04, 1.50960055e-04,
          -1.00540878e-04, -7.20161770e-05, 4.36075556e-04,
          1.77956856e-04, 4.78927890e-04, 6.77123084e-04, 1.02802098e-03,
          6.58818812e-04, -1.34015572e-04, -2.50085257e-04,
          -3.66698136e-04, -6.93223963e-04, -5.73014491e-04,
          -9.98429896e-05, 1.20382152e-04, 7.03461526e-04,
          -3.13231110e-04, -4.55425354e-04, -2.07399513e-04,
          -1.97476882e-04, -9.57014272e-05, -1.42833320e-04,
          -3.64992811e-05, -1.18349148e-04, 2.68196774e-04,
          4.09260276e-04, 5.34672348e-04, 8.28470860e-04, 5.49759716e-04,
          6.80215016e-04, 1.26839639e-03, 9.66206251e-04, 5.17488108e-04,
          -1.63353907e-04, -1.17357035e-06, 7.77527166e-05,
          3.01762309e-04, 6.68261957e-04, 1.44884805e-03, 9.96344956e-04,
          4.45198326e-04, 5.64379916e-05, -3.55816155e-04,
          -7.44050369e-04, -9.30719427e-04 ]
      - [ 1.28968153e-04, 1.47484418e-04, 7.29360472e-05, 7.95685992e-05,
          1.52002453e-04, 1.80110612e-04, 1.71590655e-04, 1.62074663e-04,
          1.40525342e-04, 1.50525491e-04, 1.48553750e-04, 4.81929019e-05,
          3.57963545e-05, 6.45645923e-05, 3.62471765e-05, 3.96783216e-05,
          5.40474284e-05, 7.92648425e-05, 9.58930032e-05, 9.55568830e-05,
          1.06174244e-04, 1.12564601e-04, 8.23562805e-05, 2.80623317e-05,
          3.29675931e-05, 3.56914388e-05, 2.38258945e-05, 4.30981454e-05,
          1.29033186e-04, 9.70877809e-05, 1.11894864e-04, 3.38000391e-05,
          2.30920312e-04, 1.61150281e-04, 8.31662910e-05, 4.32778106e-05,
          1.32570320e-04, 1.88358943e-04, 1.68341125e-04, 2.19353664e-04,
          1.79082650e-04, 1.10170506e-04, 7.52131673e-05, 8.25336392e-05,
          5.30767757e-05, 1.89175662e-05, -8.82423501e-06,
          -1.73364551e-05, -1.30629687e-05, 2.76477203e-05,
          5.93000259e-05, 8.22868460e-05, 2.02388073e-05, 5.19435998e-05,
          3.88345579e-05, 5.88500370e-06, 4.38458228e-05, 5.74285878e-05,
          7.10536187e-06, 6.11780251e-06, -7.47797412e-06,
          2.96361195e-05, 1.50446562e-04, 1.42918885e-04, 2.06254321e-04,
          1.55543938e-04, 1.89978309e-05, -3.02785702e-05,
          -3.50342907e-06, 2.57683369e-05, 5.33298298e-05,
          5.92446268e-05, 4.53787179e-05, 3.29096147e-05,
          -2.75174425e-05, -3.15166799e-05, -4.10657995e-05,
          -4.64652148e-05, -8.82266104e-05, -9.72214984e-05,
          -1.01544982e-04, -1.05092076e-04, -1.03741862e-04,
          -9.94996590e-05, -1.26381914e-04, -1.50318578e-04,
          -1.17564079e-04, -9.72798734e-05, -1.12842317e-04,
          -9.98994801e-05, -8.68126954e-05, -8.39266213e-05,
          -7.58812675e-05, -3.73376788e-05, 4.27054511e-05,
          1.22688463e-04, 1.30889766e-05, 5.16632690e-06,
          -6.31403382e-05, -9.34339987e-05, -7.85226803e-05,
          -4.93444031e-06, 5.82646749e-07, -1.23730379e-05,
          -1.02559488e-05, -1.48456138e-05, -4.31129265e-05,
          -6.25343164e-05, -9.68633030e-05, -9.86041196e-05,
          -1.07190375e-04, -1.15048169e-04, -1.21144963e-04,
          -1.47081213e-04, -1.47675586e-04, -1.55124129e-04,
          -1.79678376e-04, -1.89888320e-04, -1.69104431e-04,
          -1.65721460e-04, -1.57917413e-04, -1.32766218e-04,
          -9.86922823e-05, -1.03171413e-04, -1.41876328e-04,
          -5.79602165e-05, 4.03703780e-05, -2.47909975e-05,
          1.07473033e-05, 2.68849963e-05, -5.31619553e-05,
          -5.44956092e-05, -1.68928163e-05, 4.48875326e-05,
          6.39466452e-05, 4.76775458e-05, 4.11525434e-05, 2.73121095e-05,
          2.54409770e-05, -3.01401906e-06, -2.86035884e-05,
          -4.09013737e-05, -4.93708721e-05, -6.92859394e-05,
          -8.15662061e-05, -7.78747271e-05, -1.13750975e-04,
          -1.32734276e-04, -1.24463011e-04, -1.32118279e-04,
          -1.36206567e-04, -1.20756413e-04, -1.07223103e-04,
          -9.34626514e-05, -1.06861778e-04, -9.70222027e-05,
          -1.07469663e-04, -3.53763353e-05, 3.57261379e-05,
          -2.34813779e-05, 5.04788795e-06, 4.06125473e-05,
          -4.06123945e-05, -3.17602098e-05, 1.87697588e-05,
          5.19989517e-05, 6.87067295e-05, 8.40585344e-05, 6.98341755e-05,
          6.41595179e-05, 4.51532287e-05, 1.00232965e-05, 6.78420929e-06,
          -1.06423295e-05, -3.12924240e-05, -3.72945615e-05,
          -5.20030590e-05, -7.25174978e-05, -7.13417394e-05,
          -7.81237395e-05, -7.95174565e-05, -8.17993568e-05,
          -7.01046956e-05, -8.17370383e-05, -8.55624749e-05,
          -8.95318008e-05, -8.37464177e-05, -7.67632664e-05,
          -1.17753152e-04, -6.39597783e-05, 2.82114324e-05,
          -1.99493661e-05, 1.90525270e-06, 5.31655860e-05,
          -3.81906866e-05, -2.60341731e-05, 1.80729821e-05,
          5.41111294e-05, 6.65210900e-05, 6.59042271e-05, 8.21986978e-05,
          7.73268257e-05, 4.25282014e-05, 7.67893835e-06,
          -1.47128030e-05, -1.99682418e-05, -2.88147421e-05,
          -4.94755077e-05, -5.98226470e-05, -5.35958534e-05,
          -5.63694884e-05, -7.24333513e-05, -8.24274830e-05,
          -6.24988970e-05, -7.14268826e-05, -7.84327422e-05,
          -1.01017729e-04, -1.03819191e-04, -8.61288718e-05,
          -8.56389597e-05, -1.23079022e-04, -7.64894939e-05,
          1.15358580e-06, -4.11201290e-06, 1.05971521e-05,
          5.84618792e-05, -2.15214968e-05, -3.39772341e-05,
          -4.75544311e-06, 4.13724483e-05, 6.39666468e-05,
          5.91766984e-05, 6.00661806e-05, 7.51432453e-05, 3.29066061e-05,
          2.37846712e-06, -2.24595042e-05, -2.95501377e-05,
          -4.19937423e-05, -5.00478855e-05, -5.54733815e-05,
          -6.04962115e-05, -6.57889686e-05, -7.88598772e-05,
          -7.11034154e-05, -6.19057755e-05, -6.89879234e-05,
          -8.23036753e-05, -9.81713893e-05, -1.02038561e-04,
          -9.48924571e-05, -8.63310997e-05, -1.18517710e-04,
          -6.72251408e-05, -1.83142311e-05, -5.58604770e-05,
          3.62009519e-06, 2.94310539e-05, -3.60951854e-05,
          -3.17681915e-05, -1.48070658e-05, 3.43621468e-05,
          6.28324487e-05, 5.75018967e-05, 4.60091360e-05, 4.19766548e-05,
          1.40075535e-05, -1.15460980e-05, -2.13815420e-05,
          -3.42263229e-05, -5.09637648e-05, -4.62560856e-05,
          -4.67602440e-05, -5.54716062e-05, -6.08954979e-05,
          -5.82702851e-05, -5.07984878e-05, -6.06385402e-05,
          -6.55218246e-05, -8.30700083e-05, -8.60728978e-05,
          -8.76444028e-05, -9.81991907e-05, -7.72752319e-05,
          -1.14843882e-04, -6.77186181e-05, -8.49238404e-06,
          -4.73284563e-05, 3.22358659e-07, 4.21038458e-05,
          -2.47132903e-05, -2.58607106e-05, -2.09017599e-05,
          1.93493233e-05, 6.06070244e-05, 5.64132970e-05, 4.70817031e-05,
          4.20099277e-05, 1.71691582e-07, -3.08866402e-05,
          -2.78101179e-05, -2.84760117e-05, -4.14404603e-05,
          -4.74312546e-05, -5.36664993e-05, -5.34468090e-05,
          -5.41898480e-05, -5.15789325e-05, -4.92397012e-05,
          -5.27013181e-05, -5.38501117e-05, -7.57446760e-05,
          -8.80631123e-05, -9.55580908e-05, -8.34717139e-05,
          -7.02642355e-05, -1.29039923e-04, -7.34223213e-05,
          -1.03465554e-05, -3.94367016e-05, 4.69543011e-06,
          6.39869613e-05, -1.84169767e-05, -2.28708432e-05,
          -2.30408423e-05, 9.71029203e-06, 5.85675916e-05,
          5.77674000e-05, 5.17905391e-05, 3.68313995e-05,
          -3.58461506e-07, -3.47401692e-05, -3.99293131e-05,
          -4.02849000e-05, -3.44547443e-05, -4.31208355e-05,
          -4.39685900e-05, -4.26403240e-05, -4.47964740e-05,
          -4.08584165e-05, -4.17853007e-05, -5.19508358e-05,
          -5.86847382e-05, -7.79610491e-05, -9.38870289e-05,
          -9.32363473e-05, -6.26277324e-05, -6.33856544e-05,
          -1.26820261e-04, -6.26207984e-05, 6.32388128e-06,
          -1.44074393e-05, -1.96191195e-06, 5.08263001e-05,
          -3.52407478e-05, -3.33060016e-05, -1.94542718e-05,
          8.85099053e-06, 5.08537159e-05, 5.33522143e-05, 5.27080956e-05,
          3.81330428e-05, 2.67102587e-06, -3.28102979e-05,
          -4.08520682e-05, -6.13922821e-05, -6.03232402e-05,
          -4.65079029e-05, -5.11480393e-05, -4.62060088e-05,
          -4.71993917e-05, -3.45465050e-05, -2.29286088e-05,
          -3.58830039e-05, -5.41435511e-05, -7.32866829e-05,
          -9.49235109e-05, -8.65987386e-05, -5.83797919e-05,
          -6.67401546e-05, -1.24543512e-04, -4.34920148e-05,
          6.20716764e-06, -3.90464038e-06, 4.36416440e-06,
          2.93651810e-05, -4.49733488e-05, -2.76184637e-05,
          -1.79207836e-05, 9.39591064e-06, 4.30571345e-05,
          4.40965487e-05, 5.27087323e-05, 4.30100445e-05, 1.23956961e-05,
          -4.33001442e-05, -6.90461529e-05, -7.91983766e-05,
          -7.26206490e-05, -5.32576014e-05, -4.38748139e-05,
          -4.65006269e-05, -4.91514802e-05, -3.32511263e-05,
          -2.44845432e-05, -3.79414341e-05, -5.58960201e-05,
          -7.18987139e-05, -7.29658277e-05, -7.25491409e-05,
          -8.08836739e-06, -7.19517557e-05, -1.08225053e-04,
          -3.19278734e-05, 1.46096654e-05, 1.09117200e-05,
          -2.44712993e-07, 2.02090669e-05, -3.90859423e-05,
          -1.40898446e-05, -1.89969815e-05, 6.93116499e-06,
          4.27220002e-05, 4.91795836e-05, 5.28710334e-05, 4.48714600e-05,
          -5.56734585e-06, -6.24430759e-05, -7.53015847e-05,
          -9.75871881e-05, -1.17349424e-04, -9.14944976e-05,
          -7.51698608e-05, -8.58140484e-05, -9.73399729e-05,
          -7.74163927e-05, -6.62099046e-05, -6.71773596e-05,
          -6.79636578e-05, -6.83859616e-05, -8.00036796e-05,
          -5.46450319e-05, 5.18521410e-05, -5.98289771e-05,
          -1.24870130e-04, -2.82224664e-05, 2.42003753e-05,
          4.12180416e-05, 3.19201149e-06, 3.85052481e-05,
          -2.21834252e-05, -6.90539991e-06, -1.41882438e-05,
          4.18574746e-06, 4.19565222e-05, 5.25128271e-05, 4.95432359e-05,
          1.82725726e-05, -1.09095217e-05, -8.74454563e-05,
          -1.21860605e-04, -1.17999763e-04, -1.22443133e-04,
          -1.54706577e-04, -1.46871564e-04, -1.20925884e-04,
          -1.08466680e-04, -8.52597295e-05, -8.44553942e-05,
          -8.53716920e-05, -8.13193619e-05, -7.85464290e-05,
          -7.50542167e-05, -6.38184429e-05, 2.59541903e-05,
          -6.12502263e-05, -1.20525539e-04, -2.20840302e-05,
          1.94356508e-05, 2.26547672e-05, 1.04223400e-05, 5.34235151e-05,
          -1.78236896e-05, -4.77301410e-06, -1.43589605e-05,
          7.47401737e-06, 4.45530131e-05, 4.79207847e-05, 2.44950243e-05,
          8.24933613e-06, -4.32864254e-05, -8.97062200e-05,
          -1.17628646e-04, -1.28647414e-04, -1.97529822e-04,
          -1.87362049e-04, -1.73508030e-04, -1.46181235e-04,
          -1.40705146e-04, -1.11289599e-04, -9.97440511e-05,
          -1.00985359e-04, -9.55100040e-05, -9.14810735e-05,
          -7.21925753e-05, -6.79985533e-05, -2.53999333e-05,
          -4.17524243e-05, -1.03526494e-04, -2.31298418e-05,
          4.39458245e-06, 2.21941027e-05, 3.78003497e-05, 9.34799900e-05,
          -2.75261300e-05, -2.18418950e-06, -1.02128151e-05,
          -4.11211431e-06, 4.18817290e-05, 3.49502734e-05,
          1.80490479e-05, -3.21603693e-05, -5.12183651e-05,
          -8.38194028e-05, -1.18620163e-04, -1.97962101e-04,
          -2.08421930e-04, -2.09013451e-04, -2.00022841e-04,
          -1.69321822e-04, -1.50500171e-04, -1.18272204e-04,
          -1.13265000e-04, -1.14302624e-04, -1.12007998e-04,
          -9.79801698e-05, -7.89518308e-05, -6.08931514e-05,
          -2.39956662e-05, -4.53123903e-05, -8.88748546e-05,
          -6.58788895e-06, 3.14197641e-05, 2.25346048e-05,
          3.05900794e-05, 7.22017940e-05, -1.81707292e-05,
          -4.00541103e-06, -5.85414591e-06, 1.26497525e-05,
          4.71381354e-05, 2.02810770e-05, -2.42034403e-05,
          -4.35301336e-05, -6.06600042e-05, -7.82107672e-05,
          -1.72558357e-04, -2.08353231e-04, -2.26523465e-04,
          -2.17509150e-04, -2.10037979e-04, -1.80472460e-04,
          -1.52529115e-04, -1.33011315e-04, -1.21370358e-04,
          -1.01293124e-04, -9.01196981e-05, -8.41356523e-05,
          -7.46627047e-05, -5.28591809e-05, -2.70982964e-05,
          -3.66964596e-05, -8.18995832e-05, -1.52104565e-06,
          4.69442857e-05, 5.73981270e-05, 3.29938157e-05, 6.15807221e-05,
          1.52960502e-06, 8.30005206e-07, -5.61541947e-06,
          1.64446756e-05, 3.70138259e-05, -1.08278637e-05,
          -4.39660362e-05, -4.56088565e-05, -6.64502804e-05,
          -1.10161956e-04, -1.62646218e-04, -1.84898468e-04,
          -2.16919376e-04, -2.10256272e-04, -1.98241309e-04,
          -1.72677523e-04, -1.38185511e-04, -1.19346383e-04,
          -1.13096634e-04, -9.67734741e-05, -7.78518443e-05,
          -6.00790481e-05, -5.90127092e-05, -5.75406084e-05,
          -1.42634008e-05, -1.77777492e-05, -6.38110505e-05,
          -1.98374050e-06, 5.15597130e-05, 6.95534691e-05,
          5.02333423e-05, 7.45853467e-05, 9.19256763e-06, 1.39701706e-06,
          -1.55374255e-05, 1.06929247e-05, 3.31264382e-05,
          -2.03777436e-05, -4.82159630e-05, -4.83592594e-05,
          -5.76223902e-05, -1.29203472e-04, -1.65781137e-04,
          -1.61513381e-04, -1.79714276e-04, -1.75896101e-04,
          -1.97593850e-04, -1.84236036e-04, -1.56752663e-04,
          -1.31066598e-04, -1.14069029e-04, -9.24854976e-05,
          -7.90183694e-05, -7.46608348e-05, -5.17036679e-05,
          -4.61102645e-05, -3.32304553e-05, -2.12558825e-05,
          -5.51623380e-05, 2.10230664e-05, 6.00147796e-05,
          8.85318077e-05, 6.06312133e-05, 9.05406923e-05, 9.82844813e-06,
          7.72894509e-06, -1.52467237e-05, -2.20265676e-07,
          7.67528581e-06, -4.40286058e-05, -4.85903256e-05,
          -5.38513013e-05, -9.03260225e-05, -1.61209013e-04,
          -1.58421652e-04, -1.40937977e-04, -1.54590816e-04,
          -1.49790416e-04, -1.53526533e-04, -1.60086522e-04,
          -1.38990945e-04, -1.21315665e-04, -1.21018078e-04,
          -1.08833388e-04, -8.25184106e-05, -6.28917478e-05,
          -6.25017346e-05, -7.17553921e-05, -4.49578656e-05,
          -2.22672097e-05, -4.95460081e-05, 2.39813562e-05,
          5.96601531e-05, 1.21050172e-04, 6.41375882e-05, 1.05344428e-04,
          1.30817853e-05, 5.51051153e-06, -7.86500550e-06,
          -3.57697013e-06, -1.15467892e-05, -5.09004894e-05,
          -5.16016735e-05, -3.98291922e-05, -1.07087471e-04,
          -1.51274086e-04, -1.45776256e-04, -1.47616855e-04,
          -1.37694675e-04, -1.24491737e-04, -1.27886349e-04,
          -1.16945172e-04, -7.99650661e-05, -7.59691102e-05,
          -7.88365214e-05, -7.17785733e-05, -5.98557963e-05,
          -5.38333115e-05, -6.20340797e-05, -3.14415629e-05,
          -2.42222286e-05, -9.85641327e-06, -5.20908070e-05,
          2.15883247e-05, 5.56289488e-05, 1.21357662e-04, 5.61636989e-05,
          1.08647590e-04, 2.68761414e-05, 4.55659483e-06, 5.98037968e-06,
          -4.57575061e-06, -2.36114611e-05, -4.14305650e-05,
          -4.87325851e-05, -7.54495704e-05, -1.26017621e-04,
          -1.31267661e-04, -1.45906786e-04, -1.48904684e-04,
          -1.31615234e-04, -1.20930104e-04, -1.18130360e-04,
          -9.37915611e-05, -4.99457601e-05, -3.39280487e-05,
          -1.90771370e-05, -1.63640507e-05, -1.38849728e-05,
          -1.33485573e-05, 4.64981940e-06, 1.63260520e-05,
          2.16992703e-05, 2.38431949e-05, -7.15460055e-06,
          7.43756827e-05, 1.21006138e-04, 1.71050022e-04, 4.81509742e-05,
          9.92728965e-05, 3.14195677e-05, -1.08101576e-05,
          4.03466686e-07, -2.87261828e-05, -3.98636366e-05,
          -3.68882502e-05, -4.23130150e-05, -7.65068471e-05,
          -1.30756322e-04, -1.50036431e-04, -1.34503207e-04,
          -1.24025333e-04, -1.21835641e-04, -1.12772381e-04,
          -9.32387338e-05, -7.61862102e-05, -3.65031192e-05,
          -2.42337919e-05, -6.78538527e-06, 4.74847002e-06,
          1.39782705e-05, 1.55296693e-05, 1.59650845e-05, 2.74846680e-05,
          2.27948440e-05, 3.55621960e-05, 1.29548034e-05, 9.32082330e-05,
          1.36762683e-04, 1.77882175e-04, 5.67775314e-05, 1.02814825e-04,
          4.01394609e-05, -6.96147424e-07, -4.08967571e-06,
          -3.09774659e-05, -3.85064959e-05, -3.81078680e-05,
          -5.31887199e-05, -9.73984206e-05, -1.44397723e-04,
          -1.56906899e-04, -1.27373496e-04, -1.36532180e-04,
          -1.01280828e-04, -7.79638649e-05, -8.52841476e-05,
          -4.29067259e-05, -2.40283498e-05, -1.09670600e-05,
          8.27982058e-06, 1.62339347e-05, 2.33259361e-05, 3.16929909e-05,
          2.28822082e-05, 2.61278910e-05, 1.83175543e-05, 2.59194458e-05,
          -1.50571475e-06, 9.20838866e-05, 1.45532656e-04,
          1.89403261e-04, 5.36959742e-05, 1.22207566e-04, 2.01798321e-05,
          7.83337896e-07, -6.78824563e-06, -4.51368214e-05,
          -4.38642201e-05, -4.78226502e-05, -5.43283168e-05,
          -1.13842652e-04, -1.08249813e-04, -4.30087930e-05,
          -1.47361265e-04, -1.57758855e-04, -9.14998527e-05,
          -8.52083613e-05, -7.99931004e-05, -2.98789637e-05,
          -1.66676273e-05, 3.81741120e-06, 1.73321005e-05,
          3.38895516e-05, 3.84054729e-05, 4.21350633e-05, 4.06401850e-05,
          3.85227577e-05, 3.11268086e-05, 3.02727149e-05, 4.82840233e-06,
          9.88906977e-05, 1.32061192e-04, 1.85967991e-04, 6.53061870e-05,
          1.27676132e-04, 2.36062115e-05, 3.59172191e-07,
          -1.32614050e-05, -4.29638858e-05, -4.05145656e-05,
          -4.66952952e-05, -5.71615456e-05, -9.55232463e-05,
          -1.36966555e-04, -2.93610560e-06, -1.38688440e-04,
          -1.20392957e-04, -7.74883592e-05, -2.87690036e-05,
          -5.06243259e-06, 3.12019401e-05, 4.71134772e-05,
          5.70867014e-05, 4.45706901e-05, 5.39671637e-05, 5.15061438e-05,
          5.17612316e-05, 5.28328892e-05, 4.55666814e-05, 5.12163169e-05,
          4.52447093e-05, 3.15418583e-05, 1.25129358e-04, 1.37627256e-04,
          1.92007996e-04, 7.20768367e-05, 1.17539144e-04, 2.57410175e-05,
          -1.02779336e-06, 1.59420495e-06, -5.49721444e-05,
          -4.97669753e-05, -4.80080780e-05, -3.87271903e-05,
          -1.04442392e-04, -1.43402940e-04, -7.00539313e-05,
          -1.62917771e-04, -1.28275278e-04, -7.64563301e-05,
          -3.08108938e-05, -8.82558561e-06, 3.14802332e-06,
          2.34920753e-05, 4.12549307e-05, 4.07647567e-05, 4.40354270e-05,
          5.22724004e-05, 4.78053917e-05, 4.79139053e-05, 5.87141330e-05,
          5.99178165e-05, 5.80353662e-05, 2.60877350e-05, 1.24870639e-04,
          1.49811487e-04, 1.82779666e-04, 8.06785392e-05, 1.26120649e-04,
          3.49486545e-05, 1.35442233e-05, 3.21319421e-05,
          -5.55328734e-05, -8.70997101e-05, -4.35240654e-05,
          -5.23285489e-05, -1.15145311e-04, -1.63544508e-04,
          -1.52307271e-04, -1.31093300e-04, -1.06531923e-04,
          -8.27140029e-05, -4.08015658e-05, -1.54308782e-05,
          -1.47219644e-05, 3.53747873e-06, 1.84540677e-05,
          3.00414904e-05, 3.49119910e-05, 2.83595691e-05, 2.43496579e-05,
          2.75397942e-05, 3.85527419e-05, 9.06485457e-06, 2.22196031e-05,
          7.72883322e-06, 8.09680496e-05, 1.03856313e-04, 1.11701163e-04,
          1.09044813e-04, 1.53623987e-04, 4.42255186e-05, 2.06716195e-05,
          3.35136210e-05, -3.11112053e-05, -7.39582101e-05,
          -6.08092669e-05, -3.73047551e-05, -1.14177092e-04,
          -1.59088086e-04, -1.62849334e-04, -1.18477736e-04,
          -8.52978119e-05, -6.04457309e-05, -4.18258423e-05,
          -2.63506590e-05, -1.06922471e-05, -4.27584473e-06,
          4.19403386e-06, 1.87186488e-05, 2.29504531e-05, 4.50332709e-06,
          -6.86860858e-06, -6.30413797e-06, -3.51846866e-05,
          -5.23076160e-05, -3.16297724e-06, -2.73285186e-05,
          6.25070606e-05, 6.17546611e-05, 8.85942645e-05, 1.69884530e-04,
          2.20425194e-04, 1.08841465e-04, 5.14656749e-05, 4.23766032e-05,
          -8.51827224e-07, -7.73576103e-05, -4.49588624e-05,
          -3.52029529e-05, -1.38278207e-04, -2.20355156e-04,
          -1.14604198e-04, -1.27137260e-04, -9.86446757e-05,
          -5.52495621e-05, -5.47159580e-05, -3.68651636e-05,
          -4.82731011e-05, -1.50275637e-05, -1.25577399e-05,
          3.83187798e-05, 1.02886777e-04, 1.12735379e-05, 7.32128547e-06,
          5.29706176e-06, 1.52105145e-04, 1.72472093e-04, 4.02370388e-05,
          -2.29777615e-05, 7.33967972e-05, 8.11844438e-05,
          8.12838553e-05, 2.14816610e-04, 2.84232054e-04, 2.10331316e-04,
          1.45584869e-04, 1.24297731e-04, 8.69571959e-05,
          -8.94849563e-06, 8.04309002e-06, 2.06186251e-05,
          -2.45534175e-05, -7.31435430e-05, -3.27975104e-05,
          -5.59408290e-05, -4.47935781e-05, 1.11072168e-05,
          -2.07915527e-05, -1.07263741e-05, 2.87143594e-05,
          3.93946975e-05, 8.37881307e-05, 1.28687549e-04, 1.72985616e-04,
          1.07641637e-04, 8.37543048e-05, 7.43277269e-05, 2.34854509e-04,
          2.46494485e-04, 2.01974835e-04, 2.36945871e-05, 8.59283464e-05,
          9.92546848e-05, 8.24890667e-05 ]
      - [ -1.13409420e-03, -1.77314098e-03, -1.52462802e-03,
          -2.64758128e-03, -6.23313070e-04, 2.40288384e-04,
          -1.03798718e-03, -6.43624753e-06, 6.64742402e-05,
          -2.19172398e-05, -3.50524933e-05, -2.47233431e-04,
          -3.07070586e-04, 1.22253565e-04, 7.24214537e-04,
          1.58294674e-03, 2.75658560e-04, 1.00617355e-03, 7.08314066e-04,
          3.39053862e-04, 2.68304255e-04, 5.92474651e-04, 5.38009568e-04,
          1.12474023e-04, -1.10078923e-04, 3.79831850e-04,
          7.45704456e-04, 7.16641312e-04, -5.54238446e-04,
          -8.41513858e-04, -6.29380113e-04, -2.30933409e-04,
          4.39526513e-04, 1.31919456e-04, -1.03484577e-04,
          -1.49871747e-03, -8.40596564e-04, -2.45943636e-04,
          -1.02680339e-03, -1.42133955e-04, -2.68172094e-04,
          -8.17763212e-04, -9.87192849e-04, -7.27718405e-04,
          -7.54734268e-04, -6.36004988e-05, 6.46393222e-04,
          1.18694094e-03, -6.43865715e-05, -2.50073499e-04,
          -1.01626378e-04, 1.78512244e-04, -2.19798982e-04,
          -5.41138346e-04, -3.26916081e-04, -7.58727489e-04,
          -9.31413029e-04, -6.32261392e-04, -5.73595345e-04,
          -3.30738054e-04, -2.56459432e-04, -1.21413163e-04,
          -6.54296484e-04, -5.83900546e-05, -3.33057484e-04,
          1.82649848e-04, 1.13056165e-04, -9.50178481e-04,
          -1.21009466e-03, -7.74292712e-05, -5.30126621e-04,
          9.49348323e-05, -1.22542260e-04, -1.10073765e-04,
          -6.32353942e-04, 3.89225170e-04, -1.35541603e-04,
          3.05540365e-04, 5.07423072e-04, 3.68574692e-04,
          -6.68344379e-04, -7.01517973e-04, -4.66818776e-04,
          -3.92158865e-04, -9.44130879e-05, -9.25790169e-04,
          -3.58211895e-04, -5.74801990e-04, -1.05142104e-03,
          -5.60988556e-04, 1.57796705e-04, 3.32084397e-04,
          -3.65484797e-04, -1.69523968e-03, -1.99159025e-03,
          -5.02712828e-05, -5.26444055e-04, 8.62693647e-04,
          1.16345659e-03, 1.20534014e-03, 9.90122324e-04, 1.91641494e-03,
          7.99750851e-04, 8.84134963e-04, 9.92812798e-04, 8.13383725e-04,
          8.97185353e-04, 1.04526570e-03, 1.08303118e-03, 1.03178236e-03,
          8.30744917e-04, 8.30667384e-04, 5.42643887e-04, 6.65709085e-04,
          2.45015079e-04, 2.89924181e-04, 7.64751458e-05,
          -1.53895337e-04, -3.09947645e-04, -4.92357649e-05,
          -1.33624519e-04, 2.65127717e-04, 8.15885374e-04,
          6.11612049e-04, -1.15439150e-04, -8.97309801e-04,
          3.08448361e-05, 1.62032875e-03, -4.18375392e-04,
          2.92279612e-04, -1.15460629e-04, 2.11128034e-04,
          -3.15711572e-04, 1.93876360e-04, -7.01395911e-04,
          -8.46837531e-04, -4.61587100e-04, -3.48988862e-04,
          -2.05172313e-04, -4.14249342e-04, -4.66400030e-04,
          -5.76666906e-04, -5.99701540e-04, -6.07547234e-04,
          -3.96895484e-04, -4.13877249e-04, -1.22257089e-03,
          -1.25781249e-03, -1.37471152e-03, -1.39364263e-03,
          -1.20460091e-03, -1.40986708e-03, -8.15795385e-04,
          -4.32025350e-04, -2.05266493e-04, -6.62622682e-04,
          -1.31099077e-03, -1.29830337e-03, -2.32158898e-04,
          -1.64724857e-04, 3.38488608e-04, 4.38246410e-04,
          1.78139599e-05, 1.23895868e-03, -9.57417797e-05,
          1.04350183e-04, -8.45573319e-04, -7.36139016e-04,
          -7.37557828e-04, -1.70665269e-04, -1.64445912e-04,
          -3.56590226e-06, -1.10502413e-04, 5.17224216e-05,
          -3.46206711e-04, -4.18855634e-04, -6.61592232e-04,
          -4.10217734e-04, -6.51579641e-04, -7.83672032e-04,
          -8.18934583e-04, -1.53793010e-03, -1.14506483e-03,
          -1.04605441e-03, -6.83852995e-04, -2.07470672e-04,
          5.44126597e-05, 6.05035420e-05, -2.47365679e-04,
          2.78971391e-04, 4.18388052e-04, -7.84515651e-05,
          1.41453731e-03, 1.88456941e-03, 8.63103778e-04, 1.31864659e-03,
          -2.25017648e-05, 7.15915929e-04, -4.13212925e-04,
          -1.35864466e-04, -1.50022199e-04, 4.74791828e-04,
          6.61245605e-04, 5.69645199e-04, 1.67413309e-04, 3.40077153e-04,
          2.01945790e-04, 3.39048711e-05, -2.01484945e-04,
          -5.49886026e-04, -1.31880515e-03, -1.51377506e-04,
          5.10459591e-04, -2.94919096e-06, 3.50651797e-04,
          4.50470339e-04, 3.17869970e-04, 2.00194612e-04, 4.35370923e-04,
          7.46977807e-04, 3.20340943e-04, 5.33080718e-04, 7.60780007e-04,
          1.74095447e-03, 1.25319144e-04, 2.04520347e-03, 1.81486341e-03,
          1.71173993e-03, 5.41645604e-05, 8.94934346e-04,
          -7.31668115e-05, -9.94036673e-05, -4.85692755e-04,
          5.49957913e-04, 4.52181441e-04, 4.94053238e-04,
          -4.35231079e-04, -7.97801651e-04, -1.23470451e-03,
          -6.83545833e-04, -4.62180062e-04, -1.47732193e-04,
          1.85442495e-05, -6.65413245e-05, 5.09740494e-04,
          6.32381940e-04, 5.19881374e-04, 6.66697742e-04, 5.01523493e-04,
          -1.60013442e-05, 2.16794986e-04, 8.93103715e-04,
          9.40507336e-04, 5.40425768e-04, 1.11543445e-03, 2.56698695e-03,
          1.42625417e-04, 1.42901880e-03, 1.49181241e-03, 1.58416189e-03,
          5.93793957e-05, 8.54968675e-04, -2.84091017e-04,
          -2.24137009e-04, -7.23971229e-04, -2.19577909e-04,
          2.61707202e-04, -6.32777155e-05, -1.43800350e-03,
          -8.49046686e-04, -4.81831841e-04, -3.69202244e-05,
          -1.01032795e-03, -1.59403484e-03, -5.84389200e-04,
          -1.65308287e-04, 3.78556957e-04, 8.48918338e-04,
          7.93786254e-04, 6.79056742e-04, 5.97303966e-04, 6.69594447e-04,
          7.57910311e-04, 9.04485583e-04, 4.13679489e-04, 2.16734537e-04,
          5.99599443e-04, 1.78703747e-03, -8.24480885e-05,
          7.31757784e-04, 6.85528037e-04, 3.86340806e-04, 3.58407880e-04,
          9.85030434e-04, -1.96059118e-04, -2.05638367e-04,
          -1.02443446e-03, -4.63749748e-04, -1.20540244e-05,
          2.40227164e-04, -7.64866534e-04, -6.38386118e-04,
          -3.21099709e-04, -6.83552993e-04, -6.94224786e-04,
          -6.97188952e-04, 3.24387453e-04, 7.66706769e-04,
          9.65852465e-04, 1.10916723e-03, 1.07397232e-03, 1.12159306e-03,
          1.21019664e-03, 1.30259746e-03, 1.04923709e-03, 9.87249427e-04,
          8.57743318e-04, 1.10040628e-03, 7.79614027e-04, 1.25385018e-03,
          9.91429319e-04, 6.46496483e-04, 2.93416582e-04, 5.30777834e-05,
          -3.51859635e-04, 6.98269694e-04, -6.33246771e-07,
          -3.02674249e-04, -8.68754170e-04, -8.74925929e-04,
          -1.04450395e-04, 9.20466482e-05, -2.10439743e-04,
          -5.02230716e-04, -1.22553669e-03, -1.32228574e-03,
          1.62765369e-04, 1.16834114e-03, 1.31143967e-03, 1.28898956e-03,
          1.12020050e-03, 1.11034769e-03, 1.14386040e-03, 1.38486235e-03,
          1.67949882e-03, 1.72597764e-03, 1.39431725e-03, 1.05392968e-03,
          9.82984086e-04, 1.30761892e-03, 7.12516136e-04, 1.57625566e-03,
          7.79350463e-04, 5.07267890e-04, 4.25417267e-04, 3.19029932e-04,
          -1.28495041e-04, 3.48693109e-04, -5.59984357e-04,
          -6.33324787e-04, -6.31896954e-04, -1.00226235e-03,
          -2.06217141e-04, -1.71632331e-04, 6.81206002e-05,
          -6.55028736e-04, -6.36180223e-04, -4.36362869e-04,
          -1.20828256e-04, 1.44188307e-04, 5.38373133e-04,
          2.68468953e-04, 7.15132453e-04, 5.76844206e-04, 5.99034014e-04,
          9.73482383e-04, 1.43680314e-03, 1.83825847e-03, 1.50677003e-03,
          1.13635627e-03, 8.18238710e-04, 9.38159530e-04, 1.01102851e-05,
          7.77894049e-04, 4.03797370e-04, 1.00921490e-03, 4.85734199e-04,
          7.30110449e-04, 2.15446664e-04, 3.00468266e-04,
          -2.50062149e-04, -6.72569149e-04, -3.95679672e-04,
          -2.33935585e-04, -8.87787086e-04, -1.18020871e-04,
          1.11638976e-04, -1.60701005e-04, -7.57637259e-04,
          -1.01108651e-03, -1.53944676e-03, -9.01128806e-04,
          -9.00227053e-04, -4.00461489e-04, -3.39599937e-04,
          -1.44646072e-03, -6.34876138e-04, 6.51507944e-05,
          3.77227872e-04, 1.61017792e-03, 1.77018915e-03, 1.13216497e-03,
          8.21939146e-04, 7.87129160e-04, -3.14911536e-04,
          3.95510811e-04, -6.18110993e-04, 6.17250917e-04,
          6.09127565e-05, 5.21037437e-04, 1.60378069e-04, 7.66005774e-04,
          -1.53821733e-04, -4.42159711e-04, 1.57674527e-04,
          -2.25428375e-04, -7.04151229e-04, 3.26463603e-04,
          2.08860249e-04, -3.52682109e-05, -3.51861017e-05,
          -5.48882294e-04, 3.09134281e-04, 6.52111048e-05,
          -4.93725238e-04, -1.18082121e-03, -1.55893445e-03,
          -1.51249568e-03, 1.27674139e-05, 2.65121140e-04,
          3.21034677e-05, 8.32753081e-04, 1.71551981e-03, 1.17086852e-03,
          9.05154389e-04, 9.45265056e-04, 3.67924484e-04, 1.01316196e-03,
          -4.53674293e-04, -1.75812660e-04, -4.02904756e-04,
          -3.09778916e-05, 1.52885579e-04, 6.76536874e-04,
          1.36279908e-04, 1.77825306e-04, 5.57983003e-04, 1.93804604e-04,
          4.56331545e-05, 9.20714112e-04, 7.69933860e-04, 8.07532226e-04,
          7.22044089e-04, 7.59014103e-04, 5.73127836e-05,
          -5.47145100e-06, -6.95491792e-04, -6.72941445e-04,
          -6.99459808e-04, -1.70480896e-04, 4.65201010e-04,
          1.95791756e-04, -6.91646128e-04, 1.94980588e-04,
          1.46894308e-03, 6.64003252e-04, 6.26395922e-04, 8.68400792e-04,
          3.34049837e-04, 7.77768902e-04, -4.39829746e-04,
          5.75377664e-04, -1.14801500e-04, -2.44515482e-04,
          -1.61502234e-04, 2.39415444e-04, -5.13881387e-04,
          3.73289513e-04, 6.69341011e-04, 1.93964937e-04, 3.02352055e-05,
          1.07878086e-03, 1.58840872e-03, 1.18637027e-03, 8.92710872e-04,
          4.27726365e-04, 1.21238125e-04, -1.20458644e-04,
          9.96164526e-05, -2.44420982e-04, -7.30601023e-04,
          2.04422016e-04, 1.84782446e-04, -6.38573605e-04,
          -6.59425510e-04, 4.38326562e-04, 1.24127348e-03,
          1.69138861e-04, 2.34387000e-04, 1.07333332e-03, 1.78863484e-05,
          1.59495903e-04, 2.07239369e-04, 3.27920832e-04,
          -5.36651292e-04, 2.34897176e-04, -5.99485473e-04,
          -6.04460191e-04, -1.13164657e-03, 9.10762901e-05,
          1.28665497e-03, 6.73869508e-04, -1.61861259e-04,
          1.40530418e-03, 1.74868084e-03, 1.64277281e-03, 1.41589041e-03,
          8.96645011e-04, -4.35692578e-04, 3.06382048e-04,
          7.10835040e-04, 8.12175334e-04, 5.48852142e-04, 4.09789325e-04,
          4.04175982e-04, -4.05410945e-04, -1.04038848e-03,
          -5.54809696e-04, 4.57215559e-04, 7.00522360e-05,
          -1.52653214e-04, -8.65006587e-04, -1.75575237e-03,
          -6.32867683e-04, -4.59008326e-04, -2.29822021e-04,
          -1.29097304e-03, -7.18083538e-05, -3.99545039e-04,
          1.68866929e-04, -1.60534470e-03, -8.59482563e-04,
          1.32007594e-03, 1.28987746e-03, 6.34023396e-04, 1.19554903e-03,
          1.69497705e-03, 1.88125169e-03, 1.65881950e-03, 9.67738102e-04,
          -1.65524150e-04, 1.34629754e-05, 4.60216659e-04,
          -2.76940496e-04, -7.24992366e-04, -8.93380726e-04,
          -8.78274033e-04, -9.17471480e-04, -4.71163105e-04,
          -2.49490957e-04, 3.33826727e-04, -2.28144054e-04,
          -7.78769609e-04, -4.06139647e-04, -1.35697337e-04,
          5.71207667e-04, -6.10920368e-04, -1.25965744e-03,
          -2.78303400e-03, -1.59704685e-03, -1.38607435e-03,
          6.65552623e-04, 9.44821222e-05, 4.34657210e-04, 8.55795923e-04,
          1.25779957e-03, 1.30132877e-03, 1.33817678e-03, 1.93939102e-03,
          1.99815794e-03, 1.45913870e-03, 4.80727205e-04, 1.39408701e-04,
          -5.95537655e-04, 5.60521730e-04, -6.82683894e-04,
          -9.95282084e-04, -2.24464363e-03, -2.52686953e-03,
          -1.35965634e-03, -5.37513930e-04, -1.29247911e-03,
          -6.27642032e-04, -2.58970977e-04, -8.69793061e-04,
          1.10288420e-04, 2.96386657e-04, 8.92542361e-04, 2.19335678e-04,
          -4.99294954e-04, -2.93229683e-03, -1.84307026e-03,
          -1.89122441e-03, -3.83061677e-04, 5.12986095e-04,
          1.20443210e-03, 9.05971741e-04, 1.04010908e-03, 1.36495731e-03,
          1.49825774e-03, 1.70983712e-03, 1.37185096e-03, 1.03667344e-03,
          9.00009822e-04, 2.73633661e-04, 3.23159969e-04, 9.71723173e-04,
          -1.34508032e-03, -7.48138991e-05, -2.02478748e-03,
          -8.72055709e-04, 3.54585936e-04, 7.96034990e-04,
          -5.70916200e-06, 2.45809264e-04, -1.84175718e-04,
          -1.39434458e-04, 6.47267210e-04, 8.91224263e-05,
          6.23097949e-05, 5.22272196e-04, 8.86204885e-04,
          -8.66985414e-04, -6.24604814e-04, -9.91904642e-04,
          -4.15809627e-04, -4.41615877e-04, 4.92561725e-04,
          1.23037270e-03, 1.19310501e-03, 1.20889652e-03, 1.50472100e-03,
          1.20651757e-03, 8.10345577e-04, 7.93417857e-05, 3.63660511e-04,
          1.06899161e-03, 1.40377134e-03, 1.67116057e-03,
          -1.03714492e-03, -3.16584395e-04, -2.51113065e-03,
          -1.31235388e-03, 9.43205087e-04, 8.77182058e-04,
          -5.24545147e-04, -5.75184356e-04, 3.83898237e-04,
          1.60424141e-04, 2.10363491e-04, -3.06906790e-04,
          -4.36540977e-05, 2.99158943e-04, 8.14016152e-04,
          -3.65310669e-04, 1.48716077e-04, -1.04485989e-04,
          4.71145904e-04, -3.00919608e-04, -1.09457353e-04,
          1.14878279e-03, 1.04792137e-03, 1.01045857e-03, 1.12495897e-03,
          5.49329852e-04, -2.47142772e-04, -4.67802573e-04,
          7.43675046e-05, 1.33326836e-03, 1.50682742e-03, 1.20229216e-03,
          -3.94669332e-04, -1.42885826e-03, -4.47947707e-04,
          -2.06181823e-04, 1.03817449e-03, 1.00834784e-03,
          7.05881219e-04, 3.03916167e-04, 4.05557133e-04, 3.67008237e-04,
          4.09806031e-04, -2.33453902e-04, -1.68621889e-04,
          3.36854748e-04, 3.21373576e-04, -3.30941170e-04,
          1.18426200e-04, 2.25639553e-04, 1.33950938e-03,
          -5.61784436e-05, 3.30615185e-05, 7.67971622e-04,
          6.49823574e-04, 5.50938421e-04, 5.29868586e-04, 6.62084029e-04,
          -3.51320682e-06, -1.33441074e-03, -7.05132319e-04,
          7.90064107e-04, 8.23845156e-04, 9.16852150e-04,
          -3.71878268e-04, -3.89672816e-04, 1.53540488e-04,
          2.05870616e-04, 1.04242435e-03, 8.24974501e-04, 1.28747934e-05,
          -2.82802386e-04, 4.62586351e-04, 1.94975990e-04,
          2.92996847e-04, -3.68359149e-04, -1.63455377e-04,
          5.14064450e-04, 1.59839721e-04, 3.08051181e-04, 1.05941540e-03,
          2.12574974e-04, 1.43340195e-03, 1.66975631e-04, 8.25476964e-05,
          4.85361496e-04, -4.90040169e-04, -9.01191728e-04,
          -1.01800484e-03, -4.12219961e-04, 3.44401342e-04,
          1.50231237e-04, -5.23979601e-04, 4.51849628e-04,
          6.36738027e-04, 3.47343012e-04, 1.15845690e-03, 1.28720410e-03,
          9.78484633e-04, 9.34393902e-04, 6.23808010e-04, 6.91696128e-04,
          2.06884419e-04, 4.34097659e-04, 6.94105256e-05,
          -1.77522641e-04, 8.86530543e-05, -7.41214899e-04,
          -5.37105545e-04, -5.18895453e-04, 8.42233188e-04,
          -6.12865377e-04, -1.69216903e-04, 5.49989927e-04,
          1.52960757e-03, 1.73362205e-04, 1.48215477e-04, 9.12013231e-04,
          1.06995220e-04, -6.47266977e-04, -1.31583761e-03,
          -1.17798161e-03, -1.04960823e-03, 2.50012527e-04,
          7.65847391e-04, 1.42768957e-04, 6.11410418e-04, 6.12504547e-04,
          5.89976145e-04, 2.85593298e-04, 2.02112817e-04, 9.01418243e-05,
          2.59049586e-04, 2.92915938e-04, 3.85441264e-04, 4.83441254e-05,
          -2.18490241e-04, -2.19556212e-04, 6.64215186e-05,
          -5.95461635e-04, -4.70759463e-04, -6.91327383e-04,
          5.41415473e-04, 4.49192856e-04, 1.04764279e-03, 2.29525278e-04,
          8.64893780e-04, 2.49934557e-04, -2.37177665e-04,
          5.08386758e-04, 4.77796304e-04, 4.90856182e-05,
          -3.37339967e-04, -3.55727243e-04, -1.36814429e-03,
          -8.09473102e-04, 3.53709998e-04, -1.44475343e-04,
          5.41815360e-04, 1.96492198e-04, -6.63076935e-04,
          -8.49754317e-04, -4.78876900e-04, -2.66399962e-04,
          -3.43477121e-04, -1.37226583e-04, -3.90139117e-04,
          -1.23981217e-05, -3.10773845e-04, -2.11864710e-04,
          -3.12418619e-04, -8.51549034e-04, -3.27741553e-04,
          -6.92128437e-04, 2.26528311e-04, 4.78907517e-04,
          -8.71433076e-05, -2.00184179e-04, 9.28691763e-04,
          3.10278410e-05, -4.44484205e-04, -2.81363009e-05,
          1.10600740e-04, 3.92937887e-04, 4.13655856e-04,
          -1.52923632e-04, -8.97867663e-04, -1.46679848e-03,
          -1.00554479e-03, -5.76360617e-04, -5.87460643e-04,
          -9.15501150e-04, -6.52288902e-04, -8.49643664e-04,
          -9.03739128e-04, -1.05681224e-03, -1.33883487e-03,
          -7.44881574e-04, -1.01374427e-03, -1.08210312e-03,
          -7.21780933e-04, -8.41935107e-04, -9.15598474e-04,
          -9.52476694e-04, -3.01429594e-04, -1.06944691e-03,
          -5.85918140e-04, -4.57534625e-04, -5.04372059e-04,
          -8.24297953e-04, 5.90172538e-04, -5.92143006e-05,
          2.93359190e-05, -1.35982264e-04, -2.35124055e-04,
          4.32168279e-04, 5.21739421e-04, -1.93195883e-04,
          -2.50132085e-04, -4.82079020e-04, -1.23820594e-03,
          -3.60473554e-04, -3.97325202e-04, -5.71972167e-04,
          2.25093863e-05, -1.62080269e-05, -5.09314938e-04,
          -1.72887929e-04, -5.65719150e-04, -2.01726871e-04,
          -1.85356635e-04, 5.59094304e-04, 3.32567899e-04,
          -7.20654207e-05, -3.81544087e-04, 1.42650271e-04,
          2.56446452e-04, -1.34039589e-03, -1.89227820e-03,
          -7.07678671e-04, 7.07846717e-04, -1.01281599e-04,
          4.18249052e-04, -4.07393003e-04, -3.72583832e-04,
          -1.85048004e-04, -8.07795004e-05, 5.16919536e-04,
          5.17103763e-04, 5.68897522e-04, 8.88928946e-04, 1.18360296e-03,
          4.16542956e-04, 3.55039242e-06, -4.33757843e-04,
          -1.34688918e-03, -1.11895939e-03, -4.86014440e-04,
          -1.40896838e-04, 9.86150233e-04, 2.31910628e-04,
          3.37190169e-04, -1.29277832e-04, -3.06799251e-04,
          -6.48912159e-04, -5.03947842e-04, -9.81431571e-04,
          -5.21766669e-05, -7.10965891e-04, -1.56850985e-03,
          -2.00747792e-03, -7.11494649e-04, 9.37713718e-04,
          -7.30827305e-05, 7.89899132e-05, -5.73851808e-04,
          -4.63556498e-04, 2.87936546e-05, 1.61746706e-04,
          7.74356478e-04, 8.90512543e-04, 1.00632815e-03, 1.25458569e-03,
          1.57157460e-03, 1.08463189e-03, 1.03466574e-03, 1.69807186e-04,
          -4.66699683e-04, -3.48601578e-04, -7.11907051e-04,
          -9.96062765e-04, 1.02726910e-04, 3.07800336e-04,
