{
    "svm": {
        "weights": [
            -1.0
        ],
        "bias": 1.363423283590515,
        "supportVectors": [
            "{-2.5924190413206816E-4, 7.242354331538081E-4, 6.187499384395778E-4, 6.73352275043726E-4, 9.402963769389316E-5, -0.0010843070922419429, -7.450436241924763E-4, -8.804340614005923E-4, -3.425847680773586E-4, -0.001400583889335394, -5.12550410348922E-4, 1.6729047638364136E-4, 3.5225562169216573E-4, 3.4942981437779963E-4, 6.542063201777637E-4, 0.0017856174381449819, 0.0013119468931108713, 3.0684072407893836E-4, 7.573250913992524E-4, 8.935435907915235E-4, 2.4353759363293648E-4, -0.0012662215158343315, -6.45039661321789E-4, 0.003566522616893053, -1.8331749743083492E-5, -6.333959026960656E-5, 6.467291386798024E-4, 0.0019434546120464802, 8.270792895928025E-4, -5.519033293239772E-4, -1.7600900901015848E-4, -0.0010426309891045094, -0.0011610754299908876, -8.868816657923162E-4, -5.871278117410839E-4, -0.00124108768068254, -0.001107146148569882, -0.0017662576865404844, -0.0013134273467585444, 7.953871390782297E-4, 4.7242463915608823E-4, 2.2310952772386372E-4, 3.444638568907976E-4, 0.001911375904455781, 8.414839394390583E-4, -2.798844943754375E-4, -0.0015925432089716196, 0.0012475858675315976, -7.13346162228845E-5, 0.0011677226284518838, 3.091416147071868E-4, 0.0014100413536652923, 0.001920639886520803, 7.489123963750899E-4, -9.23304061871022E-4, -0.001313009881414473, -0.001483582193031907, -5.89430273976177E-4, -5.876182112842798E-4, -0.0012522190809249878, -4.600177926477045E-4, -5.718657048419118E-4, -6.753168418072164E-4, 0.0011069753672927618, 8.240895695053041E-4, 0.0016975079197436571, 0.00109143799636513, 0.0010603700065985322, 0.001656612497754395, 4.2475463123992085E-4, 2.3938542290125042E-4, 8.81930609466508E-5, -4.8555288231000304E-4, 0.00236906879581511, 0.001099122571758926, 0.0012539400486275554, 0.001779787940904498, 0.001703161746263504, 7.849640678614378E-5, -0.0011480959365144372, -0.0019403223413974047, -9.247843408957124E-4, -0.0015202511567622423, -4.573311598505825E-4, -3.413187514524907E-4, -0.001023910823278129, -0.0013457383029162884, -1.3085725368000567E-4, 9.234702447429299E-4, 0.0010475767776370049, 3.0456745298579335E-4, 7.545037078671157E-5, 4.7671020729467273E-4, -3.5299352020956576E-4, 6.831633509136736E-4, 0.0018430411582812667, -0.0013626286527141929, 7.274685194715858E-4, 5.098479450680315E-4, 0.0018988571828231215, 5.20450877957046E-4, 0.0013654895592480898, 8.757389150559902E-4, -9.73145361058414E-4, -0.0014947433955967426, -8.618603460490704E-4, -3.261648816987872E-4, -5.201121675781906E-4, -6.976128206588328E-4, 1.9874816644005477E-4, -7.170475437305868E-4, -5.43624977581203E-4, -5.446632276289165E-4, -0.0013291758950799704, -4.8566877376288176E-4, 8.345382520928979E-4, 1.2895182590000331E-4, -1.33382563944906E-4, 5.47298404853791E-4, 0.0010459247278049588, -7.365420460700989E-4, 7.743011810816824E-4, 8.076007361523807E-4, 0.0013018427416682243, -4.485435511014657E-6, -1.668037148192525E-4, -1.0861831833608449E-4, -0.0010856982553377748, -5.543925799429417E-4, 8.190942753572017E-5, 0.0011518681421875954, -1.5451743820449337E-5, 4.842643393203616E-4, 6.555188447237015E-4, -1.5303581312764436E-4, -3.742444096133113E-4, 2.846109855454415E-4, -2.598188875708729E-4, -1.432023709639907E-4, 3.518848097883165E-4, 1.811050169635564E-4, -1.1178426939295605E-4, -1.8646613170858473E-4, 4.445720405783504E-4, -0.0010762063320726156, 5.207614158280194E-4, -8.02106224000454E-5, -3.0917810818209546E-6, 4.218434914946556E-4, -9.17951765586622E-5, -2.829503209795803E-4, -3.7441737367771566E-4, -9.85967111773789E-4, 2.547141630202532E-4, 4.660390841308981E-4, 7.794535122229718E-6, 7.829051464796066E-4, 9.460558067075908E-4, -2.3753062123432755E-4, -2.1594090503640473E-4, -0.0010292259976267815, 1.55233901750762E-5, 9.033089736476541E-4, -5.547088803723454E-4, 1.4262281183619052E-4, -1.535912451799959E-4, -2.621978346724063E-4, 7.617491646669805E-4, -8.780334028415382E-4, -3.6006524169351906E-5, -5.75292797293514E-4, -4.1383209463674575E-5, -3.003741439897567E-4, -8.56482598464936E-4, -5.764275556430221E-4, -3.498944279272109E-4, -5.26189396623522E-4, -2.9647076735273004E-4, -6.843262235634029E-5, 0.0014574016677215695, 0.0013143521500751376, 7.996616186574101E-4, 3.8146739825606346E-4, 8.760629134485498E-5, -5.517056561075151E-4, -0.0012261129450052977, 2.0026351558044553E-4, -7.383086485788226E-4, 1.5780501416884363E-4, -3.7047688965685666E-4, -6.061509484425187E-4, -1.8346478464081883E-4, 4.21548611484468E-4, -7.195835933089256E-4, -0.0012765128631144762, 7.320841541513801E-4, 2.89447507384466E-6, 2.585833426564932E-4, -2.476838999427855E-4, -3.1133333686739206E-4, -0.0015120734460651875, -4.1789072565734386E-4, 1.705361355561763E-4, 0.002176255453377962, 0.001115292776376009, 4.882474895566702E-4, -7.523118983954191E-5, 0.0011822087690234184, -1.4988187467679381E-4, -7.592547917738557E-4, 0.0010282984003424644, -7.853514398448169E-4, -2.738746698014438E-4, -0.0011449938174337149, -2.3336610865953844E-6, -0.0010882425121963024, 7.905963575467467E-4, -5.281977355480194E-4, -0.0016562772216275334, -4.0102790808305144E-4, 4.606002476066351E-4, -2.2833497496321797E-4, -2.3310439428314567E-4, -4.073473683092743E-4, -3.062220348510891E-4, -2.487284364178777E-4, 6.271777092479169E-4, 8.488916209898889E-4, 0.0010286285541951656, 0.001349453697912395, 2.4150070385076106E-4, 2.2084408556111157E-4, 1.2619570770766586E-4, -1.1910032480955124E-4, 4.6333097998285666E-5, -7.988197612576187E-4, -2.378223289269954E-4, -5.131186335347593E-4, -1.2125945795560256E-4, -6.929819355718791E-4, -1.2222891382407397E-4, -0.0011756462045013905, -0.0016942120855674148, -2.1679104247596115E-4, -7.29014936950989E-5, -1.772536343196407E-4, -4.470829153433442E-4, 1.1655734124360606E-4, 2.6527492445893586E-4, -4.2069709161296487E-4, -0.0010793443070724607, -5.708139506168664E-4, 6.786726880818605E-4, -2.883095294237137E-4, 8.272351115010679E-4, -2.959563862532377E-4, -4.950454458594322E-4, -1.1532770440680906E-4, 9.266904089599848E-5, -6.599778425879776E-4, -1.0001201007980853E-4, -3.914586268365383E-4, -0.001166482106782496, -7.715786341577768E-4, -9.274151525460184E-4, -0.0014329577097669244, -0.0011678035371005535, 5.2623741794377565E-5, -5.975486128591001E-4, -7.65811710152775E-4, -5.075635272078216E-4, -6.257599306991324E-5, -1.2721777602564543E-4, -3.260195371694863E-4, -9.207576513290405E-4, 2.2614028421230614E-4, -8.104771841317415E-4, -4.421457997523248E-4, -9.052413224708289E-5, 3.212268929928541E-4, -3.074735577683896E-4, -3.031717787962407E-4, 4.4722104212269187E-4, -4.522786766756326E-4, -0.0013534721219912171, -0.0011791541473940015, -0.001662888447754085, -7.360440213233232E-4, -4.351699899416417E-4, -0.0012809648178517818, -8.599440916441381E-4, 1.245677995029837E-4, -6.104636704549193E-4, -7.073394954204559E-4, -9.182677022181451E-4, -0.0010565827833488584, -4.176206130068749E-5, -6.607534596696496E-4, -4.4704138417728245E-4, 3.0578335281461477E-4, -0.0010968716815114021, -8.966312161646783E-4, -1.1413734318921342E-4, -5.473641213029623E-4, -4.717207048088312E-4, -7.233775104396045E-4, -4.856947634834796E-4, -2.539464912842959E-4, 0.0010320608271285892, 3.5655114334076643E-4, -1.872726425062865E-4, -6.204876117408276E-4, 3.4165329998359084E-4, -8.403173997066915E-4, 2.9136642115190625E-4, -2.9508533771149814E-4, -7.10349646396935E-4, -5.100683774799109E-4, -0.0013145289849489927, -0.0010051310528069735, -3.2995801302604377E-4, -8.487101877108216E-4, -9.476572158746421E-4, -5.245938082225621E-4, -3.37239500368014E-4, -3.17803758662194E-4, 2.9639850254170597E-4, -0.0013350443914532661, -0.001069522462785244, -4.102709935978055E-4, 0.0010292059741914272, 4.072437877766788E-4, 2.7995079290121794E-4, -3.0677998438477516E-4, -4.6816360554657876E-4, -6.697303615510464E-4, 5.661019822582603E-4, 2.488751779310405E-4, 4.930982831865549E-4, -1.9276187231298536E-4, -9.83709585852921E-4, -7.314970134757459E-4, -9.244232205674052E-4, -9.997828165069222E-4, -0.001096128486096859, -0.0014296359149739146, -1.9165212506777607E-5, -0.0020629893988370895, -3.3352599712088704E-4, 3.8530686288140714E-4, 5.274746799841523E-4, 3.173220466123894E-5, 3.1701150874141604E-5, 6.562269409187138E-4, 6.795554072596133E-4, 4.523700918070972E-4, 8.730359259061515E-4, 7.53716507460922E-4, -5.546267493627965E-4, 1.523519604234025E-4, 7.729642675258219E-4, 5.191239179112017E-4, 8.603528840467334E-4, 6.0754589503631E-4, -6.675847107544541E-4, 3.44937841873616E-4, -9.283472318202257E-4, -8.310151170007885E-4, -8.440260426141322E-4, -0.0011174873216077685, 1.6612126273685135E-5, -0.0026195312384516, -0.001277162111364305, -2.2930765408091247E-4, -8.801469230093062E-4, 0.0010950051946565509, 6.930207600817084E-4, -6.712806225550594E-6, 5.762034561485052E-4, 8.972762734629214E-4, 5.705197108909488E-4, 4.884647787548602E-4, 1.9240283290855587E-4, 3.680490772239864E-4, 0.0013241900596767664, 2.2541603539139032E-4, 7.657067617401481E-4, 9.178179898299277E-4, -5.412315367721021E-4, 2.9634017846547067E-4, -4.47990809334442E-4, -7.19510018825531E-4, -5.858521326445043E-4, 2.6127658202312887E-4, -2.7288333512842655E-4, -0.0010516351321712136, -0.0017608385533094406, -0.0019478023750707507, -8.736844174563885E-4, -2.0895409397780895E-4, -0.0013273118529468775, -4.226695164106786E-4, 5.7795892644207925E-5, 5.164492758922279E-4, 6.596018793061376E-4, 4.22207493102178E-4, 4.582892870530486E-4, -5.600598524324596E-4, 0.0013329003704711795, -4.00281191105023E-4, 7.710670470260084E-4, 0.00134987139608711, 5.901571130380034E-4, 3.0398889794014394E-4, 4.189014434814453E-4, -4.5920530101284385E-4, -9.277887147618458E-5, 0.00119742751121521, 2.58735817624256E-4, 4.283143498469144E-4, 6.634750752709806E-5, -0.0012146998196840286, -3.591125278035179E-5, -6.291046738624573E-4, -0.0013584413100033998, -9.452835656702518E-4, 2.22622838919051E-4, -2.126364124706015E-4, 1.4281136100180447E-4, 4.286726762074977E-4, 2.763591764960438E-4, -3.1296350061893463E-4, 0.001354107866063714, 4.420014374773018E-5, 4.927649279125035E-4, 0.0016419794410467148, 0.0013745470205321908, 8.111722418107092E-4, 8.074819343164563E-4, -1.9939092453569174E-4, 0.001107325660996139, 6.600869819521904E-4, 0.00101195415481925, 0.0015216426691040397, 1.3497467443812639E-4, -4.933344316668808E-4, 1.194700671476312E-4, -4.577619838528335E-4, -4.255080420989543E-4, -9.179968619719148E-4, 1.0651082266122103E-4, -2.887014707084745E-4, 8.65562935359776E-4, 9.757968364283442E-4, 3.985252697020769E-4, -4.1797637823037803E-4, 1.5674933092668653E-4, -3.344313518027775E-5, 6.079736049287021E-4, 0.0017299840692430735, 0.0020817904733121395, 0.001222306047566235, 3.146957533317618E-5, -4.6819366980344057E-4, 1.6261851123999804E-4, 5.71254031456192E-6, -1.018559851218015E-4, 5.671611288562417E-4, -1.333931286353618E-4, -2.470990875735879E-4, -2.278962783748284E-4, -7.141815149225295E-4, -4.909184062853456E-4, -7.86346266977489E-4, -2.087852917611599E-4, 9.174452861770988E-4, 0.0015057229902595282, 0.0018334415508434176, 2.394086041022092E-4, 8.076102822087705E-4, 4.938709898851812E-4, 6.690489681204781E-5, 5.466148722916842E-4, 0.0014171682996675372, 0.001979582943022251, 0.0017936710501089692, 9.8456721752882E-4, 3.283832629676908E-4, 4.290750075597316E-4, 0.0012061957968398929, -8.858116052579135E-5, 7.822688203305006E-4, 7.852721610106528E-4, -1.6043768846429884E-4, -1.335270790150389E-4, 5.214317352510989E-4, 6.169126718305051E-4, 0.0016165191773325205, 6.560146575793624E-4, 0.002039867453277111, 0.002185222925618291, 0.0015519714215770364, 7.334534311667085E-4, 9.481132146902382E-4, 0.0016267318278551102, 0.0010718087432906032, -6.545889482367784E-5, 1.4397624181583524E-4, 9.812203934416175E-4, 5.316383321769536E-4, 4.9201527872355655E-5, -5.185118061490357E-4, -6.383750005625188E-4, 2.4144935014192015E-4, -0.001229627407155931, -0.0010777985444292426, 2.580356376711279E-4, -6.896479753777385E-4, -9.182644862448797E-5, 0.0012291467282921076, 0.0011610094225034118, 0.0015416322275996208, 0.0012412057258188725, 0.0023090785834938288, 0.0018920154543593526, 8.355320314876735E-4, 2.770639257505536E-4, 0.0012254677712917328, -3.260610392317176E-4, -6.995715375524014E-5, 4.8258781316690147E-4, 0.0015325292479246855, 4.795837157871574E-4, -4.313769459258765E-4, -8.343764347955585E-4, -6.901735905557871E-4, -0.0010341120650991797, -4.221562703605741E-4, -0.0014641971793025732, -6.031913217157125E-4, -6.858386332169175E-4, -3.2791850389912724E-4, 6.338723469525576E-4, 0.0015246864641085267, 3.4032034454867244E-4, 1.303824974456802E-4, -1.837756426539272E-4, -1.383374910801649E-4, 1.570452586747706E-4, 5.096689565107226E-4, -5.988331395201385E-4, 0.0016449311515316367, -0.0015425734454765916, -1.660886046011001E-4, 2.1716700575780123E-4, 0.0017518610693514347, 0.001468947040848434, -2.0119128748774529E-4, -5.007364670746028E-4, -6.273267208598554E-4, -7.99197587184608E-4, -8.7655836250633E-4, -3.3518520649522543E-4, -1.908784033730626E-4, 2.970168134197593E-4, 0.0011314245639368892, 0.0013767475029453635, 9.763845009729266E-4, 8.737474563531578E-4, -2.2900251497048885E-4, -0.0011410561855882406, -6.253168685361743E-4, -6.163708167150617E-4, -0.0014084536815062165, -0.0013079984346404672, 0.0013878297759220004}"
        ],
        "K": {
            "type": "com.azbyn.chess_solver.svm.Kernel.Linear"
        }
    }
}