{
    "svm": {
        "weights": [
            -1.0
        ],
        "bias": -1.14626753347076,
        "supportVectors": [
            "{4.7715436085127294E-4, 0.001262846402823925, 2.8365346952341497E-4, 8.109282498480752E-5, 8.533835352864116E-5, -1.8037766858469695E-4, 7.061445649014786E-5, -0.0011200665030628443, -3.3640701440162957E-4, -0.0012168469838798046, -1.4893836123519577E-5, 6.746746657881886E-5, 8.069394971244037E-4, 0.0010476092575117946, -0.001059708185493946, -0.0013300979044288397, 4.489563871175051E-4, -2.954833908006549E-4, 1.663168368395418E-4, 5.970940110273659E-4, 7.899476331658661E-4, 6.329891039058566E-4, -6.876441766507924E-4, 7.719147251918912E-4, -2.4759030202403665E-4, -4.07729166909121E-5, -1.638139656279236E-4, 2.8707084129564464E-4, -3.6532687954604626E-4, 2.181774761993438E-4, -3.5939281224273145E-4, 4.1548293665982783E-4, 2.4330329324584454E-4, -3.5944400588050485E-4, 8.847862773109227E-5, 4.542450187727809E-4, -3.6343352985568345E-4, 2.4016155293793418E-5, -3.300634562037885E-4, 3.158116596750915E-4, 3.481478488538414E-4, 6.029608193784952E-4, 5.426929565146565E-4, -4.946209373883903E-4, -0.0011189976939931512, -4.333059478085488E-4, -6.399445701390505E-4, 7.15576228685677E-4, -2.2700631234329194E-4, 3.0185264768078923E-4, 1.6798173601273447E-4, -2.1242194634396583E-5, 4.733929526992142E-4, 1.7522237612865865E-4, -1.4697607548441738E-4, 6.323183770291507E-4, 3.128231328446418E-4, -0.0011241476750001311, -1.9107242405880243E-4, 4.2928638868033886E-4, 2.5967464898712933E-4, -2.6364278164692223E-4, -0.0011779115302488208, -4.743007884826511E-4, -5.36679639481008E-4, 2.845755370799452E-4, 4.800613969564438E-4, -2.599769795779139E-4, 1.3354085967876017E-4, 9.23233455978334E-4, -1.88845515367575E-5, 4.0221685776486993E-4, -7.867027306929231E-4, -2.950402267742902E-4, -6.23526400886476E-4, 2.4554075207561255E-4, 1.4442331121244933E-5, 4.188423918094486E-4, 1.4162817024043761E-5, 5.228305235505104E-4, -2.458895032759756E-4, -9.573170682415366E-4, 4.7185897710733116E-4, 3.623367811087519E-4, 3.342140116728842E-4, 7.582486141473055E-4, -9.905563201755285E-4, -8.371070143766701E-4, -8.606907795183361E-4, -6.033900426700711E-4, 4.1289316141046584E-4, 9.544434142298996E-4, 8.158104901667684E-5, 4.771231615450233E-4, -5.483182612806559E-4, 6.442455342039466E-4, 0.0010451060952618718, -2.2889771207701415E-4, -1.5021134458947927E-4, -1.0091866897710133E-5, 9.797744860406965E-5, -6.312095210887492E-4, 1.765727938618511E-4, 3.962722548749298E-4, 0.001010703737847507, -3.253827744629234E-4, -2.406084786343854E-5, 0.0010688112815842032, 3.0350001179613173E-4, 6.510598468594253E-4, -2.609422954265028E-4, -5.118393455632031E-4, -1.6999550280161202E-4, -1.6588286962360144E-4, 7.635924848727882E-4, 8.949800976552069E-4, -1.1919681128347293E-4, -2.915898512583226E-4, 2.2752724180463701E-4, 5.940112168900669E-4, 3.3604426425881684E-4, -8.616544655524194E-4, -4.4761947356164455E-4, -7.302418816834688E-4, 2.0348228281363845E-4, -8.444022387266159E-5, 8.547605248168111E-4, 6.018055137246847E-4, 1.1173886741744354E-4, -4.302644811104983E-4, -0.001172990771010518, -1.1517271195771173E-4, -2.8170106816105545E-5, 8.162679732777178E-4, 6.458477582782507E-4, 9.537987352814525E-5, 6.467476487159729E-4, 7.576015923405066E-5, 3.189082781318575E-4, 7.832711562514305E-4, 7.306002225959674E-5, -2.37576910876669E-4, -3.1194773328024894E-5, -3.347406745888293E-4, -1.1911120236618444E-4, -2.6272324612364173E-4, -5.055202636867762E-4, -4.685414023697376E-4, -1.6596575733274221E-4, 2.2176431957632303E-4, 2.0598505216185004E-4, 4.2729347478598356E-4, -5.134377861395478E-4, -1.0407574154669419E-4, -0.0013776866253465414, 4.884597146883607E-4, 9.215694444719702E-5, 8.040174725465477E-4, 5.362867959775031E-4, -8.360696665477008E-5, -3.290902532171458E-5, -7.542422827100381E-5, 8.310300472658128E-5, 4.562299873214215E-4, -3.195911704096943E-4, -9.551774382998701E-6, 4.185318830423057E-4, -7.334813708439469E-4, 6.316399230854586E-5, 8.660517778480425E-5, -2.557624247856438E-4, -1.05305080069229E-4, 4.8326633987016976E-4, 4.4959370279684663E-4, 2.886815054807812E-4, 1.4400389045476913E-4, -6.062397733330727E-4, -1.324356417171657E-4, -0.001118896179832518, 2.7663484797813E-4, 2.033049677265808E-4, -1.930004364112392E-4, 7.633696077391505E-5, 1.8453669326845556E-4, 3.5928605939261615E-5, 2.981649013236165E-4, -2.953715156763792E-4, 4.15111833717674E-4, -2.3691874230280519E-4, -1.0328438656870276E-4, -1.7120006668847054E-4, -3.7406894261948764E-4, 2.1365712746046484E-4, -3.0074018286541104E-4, 2.3700587917119265E-4, -6.862190784886479E-4, 4.870738121098839E-5, 4.316540725994855E-4, -4.2284507071599364E-4, -3.8566516013816E-4, -4.3429620563983917E-4, -8.001949172466993E-4, -0.0016245240112766623, -4.955274926032871E-5, -8.346157119376585E-5, -1.67060672538355E-4, 4.4525472912937403E-4, 1.5405590238515288E-4, -9.234223398379982E-5, -4.5272772695170715E-5, -0.001125131151638925, 2.992249392264057E-5, 1.9459448230918497E-4, 8.702116901986301E-4, 4.56065172329545E-4, -8.93753778655082E-4, -4.052261356264353E-4, -1.043568117893301E-4, 4.5067397877573967E-4, -5.27580086782109E-5, -3.006812767125666E-4, 1.450911513529718E-4, 1.9475062435958534E-4, -5.426548304967582E-4, -3.5761253093369305E-4, -0.0012923418544232845, -7.579888915643096E-4, 1.9757993868552148E-4, 7.839658646844327E-4, 9.584230137988925E-4, 4.788339720107615E-4, -7.037902832962573E-4, -6.437638076022267E-4, -7.081993389874697E-4, -7.227255264297128E-4, -2.0413029415067285E-4, -2.573022211436182E-4, 0.0011003627441823483, 2.3521851107943803E-4, -0.0016087698750197887, -5.181183223612607E-4, -2.0359664176794467E-6, 3.003916353918612E-4, 4.4447160325944424E-4, -1.7515079525765032E-4, 9.385105659021065E-5, 6.460801523644477E-5, 2.6016763877123594E-4, -1.6511231660842896E-4, 1.2201943172840402E-4, -4.4379594328347594E-5, -4.744420220959E-5, -1.4957805979065597E-4, -2.3630019541087677E-7, 1.250067180080805E-5, -9.272191673517227E-4, -0.0011492661433294415, -3.6965461913496256E-4, -7.376631838269532E-4, -5.345711251720786E-4, -9.455504186917096E-5, 2.8195371851325035E-4, -0.0011123158037662506, -0.0018760822713375092, -7.158183143474162E-4, 3.536597650963813E-4, 8.001651731319726E-4, 9.07123030629009E-4, 7.226596935652196E-4, -2.9604320297949016E-4, 9.216143371304497E-5, -9.217225015163422E-4, 5.416068597696722E-4, 5.470426985993981E-4, -1.1106004967587069E-4, -4.045713649247773E-5, 5.468713352456689E-4, -8.126700995489955E-4, -7.951876614242792E-4, -5.664730560965836E-4, -6.69894041493535E-4, -1.121454915846698E-4, -3.0277814948931336E-4, -8.304257789859548E-5, 2.4495157413184643E-4, -1.0425921936985105E-4, -7.065659738145769E-4, -8.657356374897063E-4, -9.79026430286467E-4, -8.926258888095617E-4, -1.532526221126318E-4, 7.04436024534516E-5, 4.7444479423575103E-4, -5.644724005833268E-4, -5.178020219318569E-4, -2.650900569278747E-4, -5.494795623235404E-4, -2.2386149794328958E-4, -4.265313327778131E-4, -1.7119469703175128E-4, 1.567963627167046E-4, 4.045138484798372E-4, 4.2024088907055557E-4, -5.354129243642092E-4, -1.6251621127594262E-4, 2.1202290372457355E-4, 1.5307124704122543E-4, 1.135389757109806E-4, 3.080875612795353E-4, 5.212922769715078E-5, -5.531410570256412E-4, -5.858141230419278E-4, 0.0010009828256443143, -4.267334588803351E-4, -1.7193873645737767E-4, -3.1275980290956795E-4, -1.8154425561078824E-5, -8.355077588930726E-4, -4.615107027348131E-4, -4.5318828779272735E-4, 1.0606474097585306E-4, -1.778229052433744E-4, 3.179445047862828E-4, 3.5240445868112147E-4, -3.8318883161991835E-4, -2.2578555217478424E-4, 7.469799602404237E-4, -1.0618746455293149E-4, 7.31782813090831E-4, 4.31671243859455E-4, 3.203526430297643E-4, 8.164559403667226E-5, -2.8467117226682603E-4, -6.71428453642875E-4, -0.001045761164277792, 4.7181753325276077E-4, 0.001061409479007125, 3.466054913587868E-4, 1.9300206622574478E-4, -7.73370498791337E-4, -2.4332611064892262E-4, 2.127934858435765E-4, 7.238649413920939E-4, -9.27331257116748E-6, 6.025286857038736E-4, -6.722891121171415E-4, 8.003069087862968E-4, 3.2054082839749753E-4, 6.166694220155478E-5, 3.684571711346507E-4, 9.401928982697427E-4, 6.527272635139525E-4, 1.2795072689186782E-4, 1.0843173367902637E-4, 8.253590203821659E-4, 9.487436036579311E-4, -2.3072927433531731E-4, -3.664738906081766E-4, -9.596021118341014E-5, 9.959762683138251E-4, 6.512608524644747E-5, -2.960975398309529E-4, -3.176364116370678E-4, -2.2133644961286336E-4, -4.434804432094097E-4, -4.2575295083224773E-5, 5.846790154464543E-4, -4.24636818934232E-4, -6.284982082433999E-4, -6.084300694055855E-4, 3.0336223426274955E-4, 4.2484671575948596E-4, 7.935383473522961E-5, 6.842358852736652E-4, 3.046346246264875E-4, -9.251432493329048E-4, -3.5428351839073E-4, 3.6362267564982176E-4, 6.86002749716863E-5, 6.096710567362607E-4, 2.7643871726468205E-4, 5.077827954664826E-4, -3.055788984056562E-4, 5.097982939332724E-4, 5.228969384916127E-4, 3.273904731031507E-4, 5.83084998652339E-4, -2.566633920650929E-4, 6.048813229426742E-4, -0.0010409621754661202, 8.095086086541414E-4, -8.400222868658602E-4, -6.935937562957406E-4, -0.0015864291926845908, 6.760426913388073E-5, 2.860427484847605E-4, 2.4229625705629587E-4, -4.4615514343604445E-4, -2.3534077627118677E-4, -5.5842047004261985E-5, -5.556974210776389E-4, 5.0075232138624415E-6, -1.0452749847900122E-4, 6.136677693575621E-4, 6.307234289124608E-4, -6.682464154437184E-4, -1.3042375030636322E-5, 1.531614107079804E-4, -2.5414820993319154E-4, 4.548264550976455E-4, 2.6648849598132074E-4, 2.7955631594522856E-5, -9.871396468952298E-5, -9.155262432614109E-7, 3.1839340226724744E-4, 2.8412736719474196E-4, -0.0017079352401196957, -9.603329235687852E-4, -2.604056498967111E-4, -7.964980613905936E-5, -5.171761149540544E-4, -4.074862808920443E-4, 1.2302107643336058E-4, 3.12888078042306E-5, 1.466001704102382E-4, 1.7358592594973743E-4, 6.389413611032069E-4, -1.2305367272347212E-4, -1.5532519319094718E-4, 2.00811537069967E-5, 5.78752311412245E-4, 3.3002617419697344E-4, 6.036763661541045E-4, 8.656137506477535E-4, 4.2606270289979875E-4, 2.0972562197130173E-4, -6.969805690459907E-5, -5.149128628545441E-5, 3.727962321136147E-4, -5.5289750889642164E-5, -7.745514740236104E-4, -1.241434656549245E-4, -9.743809641804546E-6, -5.733232828788459E-4, -3.636468609329313E-4, -1.881013304227963E-4, -1.0882975232107128E-7, 2.544086892157793E-4, 5.163818714208901E-4, 3.694691258715466E-5, -4.2974032112397254E-4, 4.111832822673023E-4, -7.249747286550701E-4, -2.5950506096705794E-4, 2.3957710072863847E-4, -4.919478669762611E-4, -7.590909954160452E-4, 2.256545121781528E-4, 9.8820572020486E-5, 4.624195280484855E-4, -9.460361616220325E-5, -4.4706047629006207E-4, 6.857331754872575E-5, 1.0244292934658006E-4, 1.5291737508960068E-4, 0.0010573739418759942, 0.0012151404516771436, 8.372586307814345E-5, -8.29419179353863E-4, -1.5229354903567582E-4, -6.5591000020504E-4, -2.5870130048133433E-4, 1.0704979649744928E-4, 6.842234142823145E-5, 1.3122556265443563E-4, 5.351869622245431E-4, -3.6242164787836373E-4, -5.330666899681091E-4, -5.094388616271317E-4, -1.0406747605884448E-4, -2.3860379587858915E-4, -7.79374095145613E-4, -6.440675351768732E-4, -2.523737493902445E-4, 5.645802593789995E-5, -5.783689557574689E-4, 4.2522643343545496E-4, 1.0385554196545854E-4, 1.3721473806072026E-5, -5.2664551185444E-4, 4.156433278694749E-4, 2.776258625090122E-4, -4.972567694494501E-5, 6.425722967833281E-4, -1.0304923489456996E-4, -2.626686473377049E-4, -3.7157689803279936E-4, 5.103119183331728E-4, 2.689794055186212E-4, -7.87341850809753E-5, -7.18100112862885E-4, -6.103300838731229E-4, -1.7764388758223504E-4, 0.0012487960048019886, 1.2572502600960433E-4, -1.9117759075015783E-4, -2.029181778198108E-4, 4.0887240902520716E-4, 4.305288603063673E-4, 2.669079403858632E-4, 5.676367436535656E-4, -5.233772681094706E-4, -7.172265904955566E-4, -5.454961210489273E-4, 6.020363071002066E-4, 4.7002913197502494E-4, 3.4899450838565826E-4, 6.371965864673257E-4, 2.5167924468405545E-4, -2.6231477386318147E-4, -6.007623960613273E-5, 3.327851591166109E-4, -2.50354380114004E-4, -1.1183122842339799E-4, -0.0012652872828766704, -9.5752788183745E-5, 9.748379234224558E-4, 0.0012307466240599751, 1.905768149299547E-4, 1.5082931895449292E-5, 9.548561065457761E-4, -3.4589716960908845E-5, 5.2675091865239665E-5, 4.3687812285497785E-4, 5.530029302462935E-4, -1.6591437452007085E-4, -1.0260954149998724E-4, 1.9504284136928618E-4, -2.8193075559102E-4, -4.895460442639887E-4, -7.080172963469522E-6, 1.1096985690528527E-4, 5.436049541458488E-4, 1.5649464330635965E-4, 3.356507222633809E-4, -5.579022690653801E-4, -7.289574132300913E-4, -2.4285582185257226E-4, -1.4662308967672288E-4, 0.0011142619187012315, 0.0011011260794475675, 8.442969410680234E-4, -5.953010986559093E-4, -1.0718853445723653E-4, 7.105263066478074E-4, -4.1916247573681176E-4, -3.156690509058535E-4, 1.1034858471248299E-4, 1.6624746785964817E-4, 4.3941594776697457E-4, 6.654786411672831E-4, 5.358055932447314E-4, 4.034052835777402E-4, -3.42664890922606E-4, -0.0012320553651079535, -7.452444406226277E-4, -3.6943823215551674E-4, -1.3188974116928875E-4, 4.930394934490323E-4, -2.6789840194396675E-4, -1.0813465632963926E-4, -6.194551824592054E-4, -3.255298361182213E-4, 7.868973771110177E-4, 6.145320367068052E-4, -2.078881807392463E-4}"
        ],
        "K": {
            "type": "com.azbyn.chess_solver.svm.Kernel.Linear"
        }
    }
}