{
    "svm": {
        "weights": [
            -1.0
        ],
        "bias": 0.41115748193815826,
        "supportVectors": [
            "{3.569651653378969E-6, -2.1626536909025162E-4, -4.1138919186778367E-4, 1.00662000477314E-4, 5.808886489830911E-4, 3.805549058597535E-4, 8.942760177887976E-5, 2.472533014952205E-5, 7.865782390581444E-5, -7.466001261491328E-5, -3.791757917497307E-4, -7.114087347872555E-4, 4.236664608470164E-5, 6.253342144191265E-5, 1.5954325499478728E-4, 2.7226164820604026E-4, 3.6963578895665705E-4, 5.861777462996542E-4, 7.472853030776605E-5, -1.2692235759459436E-4, -3.0887543107382953E-4, -3.079152520513162E-5, -2.8466296498663723E-4, -3.7990370765328407E-4, 3.4103679354302585E-4, -5.563116792473011E-5, 5.088333273306489E-4, 3.695501363836229E-4, -7.183966226875782E-5, 1.8090344383381307E-4, 1.7863797256723046E-4, -2.0655223124776967E-5, 2.2597213683184236E-4, 1.2139559839852154E-4, -2.245659416075796E-4, -3.20797465974465E-4, 3.593689762055874E-4, -1.0634728096192703E-4, -1.706468901829794E-4, -9.426740143680945E-5, -3.776327648665756E-4, -7.109356811270118E-4, -7.623604033142328E-4, -4.4910897850058973E-4, -5.246952423476614E-5, -4.339091537985951E-5, -1.2928077194374055E-4, 1.6098967171274126E-4, -9.814200893742964E-5, 1.4525523874908686E-4, 1.840831246227026E-4, 4.5004955609329045E-4, 1.8652183644007891E-4, -3.0334608163684607E-4, -3.625932731665671E-4, 4.730725413537584E-5, 2.1176572772674263E-4, 3.202088410034776E-4, 2.4206853413488716E-4, 3.6627938970923424E-4, 1.6051273632911034E-5, -3.7329760380089283E-4, 1.775269047357142E-4, 1.692620207904838E-5, 4.539191722869873E-4, 1.85162149136886E-4, -1.7813504382502288E-4, 1.383586786687374E-4, 6.227033445611596E-4, 3.999870677944273E-4, 2.966524625662714E-4, 3.090516256634146E-4, 2.5087039830395952E-5, -4.4333923142403364E-4, -4.45190496975556E-4, -1.6420320025645196E-4, -1.7557857790961862E-4, -1.5463227464351803E-4, 4.9749360186979175E-5, 1.1518471728777513E-4, -1.5596908633597195E-4, 8.340735803358257E-5, 1.1574335803743452E-4, 4.102007078472525E-4, 1.4946391456760466E-4, -1.268707710551098E-4, -1.7817186017055064E-4, -6.115010473877192E-4, -2.8967612888664007E-4, -5.988870179862715E-5, 2.1639102487824857E-4, 2.7782682082033716E-5, -2.465899451635778E-4, -5.919607356190681E-4, 2.468000166118145E-4, 4.730312793981284E-4, 3.066700301133096E-4, -8.398153295274824E-5, -1.6212501213885844E-4, 4.361836763564497E-4, 4.392094851937145E-4, 2.686263178475201E-4, -1.7593837401364E-4, -2.603252069093287E-4, -2.846160205081105E-4, -4.5280245831236243E-4, -2.793851599562913E-4, -2.4299616052303463E-4, -3.2763226772658527E-4, -1.2441632861737162E-4, -9.171268902719021E-5, -5.745326780015603E-5, -2.1178083261474967E-4, 6.657595076831058E-5, 1.844789512688294E-4, 7.459195330739021E-5, 9.100860188482329E-5, 1.267476036446169E-4, -1.6786508786026388E-4, 2.1033745724707842E-4, -1.5832012286409736E-4, 1.0821173782460392E-4, 4.95580374263227E-4, 3.188305418007076E-4, 8.483996498398483E-5, -1.4788343105465174E-4, 1.5407270984724164E-4, 5.858548101969063E-4, 4.374521722638747E-6, -2.4991296231746674E-4, -6.466128979809582E-5, 1.4659740554634482E-4, 3.2500780071131885E-4, 3.4707176382653415E-5, -2.6193601661361754E-4, -3.2859554630704224E-4, -1.5634510782547295E-4, -1.1951811029575765E-4, -2.5184094556607306E-4, 1.1647382780211046E-4, 9.391314961249009E-6, 8.613430691184476E-5, 3.87347477953881E-4, 3.7806277396157384E-4, 1.3082078658044338E-4, 3.6153654218651354E-4, 3.714391204994172E-4, 1.5275407349690795E-4, -1.397858577547595E-4, 3.3697699109325185E-5, -1.1823049862869084E-4, -3.912007014150731E-5, -5.0544756959425285E-5, -8.624534530099481E-5, -2.0173334633000195E-4, 3.148408359265886E-5, -2.022903208853677E-4, -5.925055593252182E-4, 2.642849867697805E-4, 5.163126043044031E-4, 1.185234505101107E-4, 1.5494730905629694E-4, 3.487362409941852E-4, 4.0030936361290514E-5, 2.429714659228921E-4, 1.7350255802739412E-4, 1.8257039482705295E-4, 1.5992728003766388E-4, 4.280626599211246E-4, 3.36742727085948E-4, 1.3235490769147873E-4, 4.234133521094918E-4, 1.7935196228791028E-4, -8.32446021377109E-5, 1.6550578584428877E-4, 5.235175485722721E-4, 1.416894083376974E-4, 2.877340593840927E-4, 4.5886574662290514E-4, 2.9754286515526474E-4, 1.6273511573672295E-4, 2.2291229106485844E-4, 3.643482341431081E-5, -5.6402801419608295E-5, 8.351988799404353E-5, -1.641862399992533E-5, 1.371510879835114E-4, 1.7783512885216624E-4, -1.6207978478632867E-4, -3.7121278000995517E-4, 1.6872106061782688E-4, 6.089697126299143E-4, -1.0419220780022442E-4, 8.30195058370009E-5, 1.8769429880194366E-4, 5.543421866605058E-5, 6.981026672292501E-5, 3.1782521546119824E-5, 4.664408334065229E-5, 1.7030951858032495E-4, 1.3576582205132581E-5, 2.9162441933294758E-5, -5.184773908695206E-5, -3.5654971725307405E-5, -2.4197756829380523E-6, -1.7182483134092763E-5, 1.3298691192176193E-4, 2.2341375006362796E-4, 1.8179147446062416E-4, -4.527398414211348E-5, 1.1895618627022486E-5, 2.605670306365937E-4, 1.8480760627426207E-4, -1.1637320085355896E-6, 4.404768696986139E-5, -3.5095910425297916E-4, -5.703067290596664E-5, -4.276652543921955E-5, 1.7754560394678265E-4, -4.1286526538897306E-5, -3.27620015013963E-4, -2.3335281002800912E-4, 6.44521351205185E-5, 1.7995269445236772E-4, -1.9790566875599325E-4, -1.9151068408973515E-4, 3.626485413406044E-4, -2.127462939824909E-4, 1.3000633043702692E-4, -3.2897188793867826E-4, -1.19791817269288E-4, 3.0870348564349115E-4, 1.8514867406338453E-4, 7.359484152402729E-5, -9.068118379218504E-5, -5.3688760090153664E-5, -1.9187286670785397E-4, -9.872463124338537E-5, 2.683649363461882E-4, 2.2471514239441603E-4, 9.785441216081381E-5, 9.148310346063226E-5, 1.5423585136886686E-4, -2.1568185184150934E-4, -2.788755518849939E-4, -1.0464654042152688E-4, 2.05192161956802E-4, -1.5605345834046602E-4, -5.294042421155609E-5, 5.530378984985873E-5, 3.992820275016129E-4, -5.5448828788939863E-5, -2.854110498446971E-4, -2.448645536787808E-4, -2.0547211170196533E-4, 2.5015720166265965E-4, -1.4018631190992892E-4, -2.46388342930004E-4, 9.906089690048248E-5, 2.9676590929739177E-4, -5.561094803852029E-5, -1.8106283096130937E-4, -4.038625047542155E-4, -3.5968993324786425E-4, -3.109300450887531E-4, 9.137207234743983E-5, 1.4555032248608768E-4, 2.2172891476657242E-4, -1.450918789487332E-4, -5.048065795563161E-4, -1.2158157915109769E-4, 3.7184939719736576E-4, 2.736255410127342E-4, 1.8353945051785558E-4, 9.41921171033755E-5, 1.9046659872401506E-5, 2.1710213331971318E-4, -3.80810015485622E-5, -1.6820925520733E-4, -1.8783166888169944E-4, 2.7661491913022473E-5, 1.6857693844940513E-4, 2.614208497107029E-4, -2.1039246348664165E-4, -1.2634243466891348E-4, -4.807431196240941E-6, -2.4522727471776307E-4, -3.451621887506917E-5, -3.328121965751052E-5, -8.775098103797063E-5, 1.3346350169740617E-4, 6.918914732523263E-5, -1.9693543436005712E-4, 8.034763595787808E-5, -3.785047447308898E-4, -3.527832741383463E-4, -4.208588507026434E-4, -1.6414964920841157E-4, -2.789929276332259E-4, -7.197457307484001E-5, -2.7985108317807317E-4, -2.3166267783381045E-4, 6.207115802681074E-5, 3.6151305539533496E-4, 2.9373247525654733E-4, -1.2187786524009425E-5, 4.569751126837218E-6, -9.251181472791359E-5, -5.290271292324178E-5, -4.178691960987635E-5, 1.3398923329077661E-5, 2.3163693185779266E-5, -8.489748870488256E-5, 1.12687521323096E-5, 1.9988530766568147E-5, 8.719755714992061E-5, -2.0212671370245516E-4, 1.6707969189155847E-4, -2.4772019241936505E-4, -1.0151031892746687E-4, -1.1511355842230842E-4, 5.755556412623264E-5, 3.2959121745079756E-4, -9.206997674482409E-6, -1.4253324479795992E-4, 2.0792015129700303E-4, -1.7746920639183372E-4, -4.5858356315875426E-5, -7.461268251063302E-5, -1.7122524150181562E-4, -2.151288790628314E-4, -4.909427952952683E-4, -3.4095908631570637E-4, -2.768202102743089E-4, -2.1180328985792585E-5, -1.0098380880663171E-4, 1.0762111924123019E-4, -1.4014881162438542E-4, -2.7257093461230397E-4, 7.762476161587983E-5, 3.5037694487982662E-6, 4.777856474902364E-7, 2.3501850955653936E-4, 4.7953802277334034E-4, -6.992564067331841E-6, -2.4080327420961112E-5, -4.5121152652427554E-4, -7.691152859479189E-5, 1.1319936311338097E-4, 2.5846221251413226E-4, -4.186650585324969E-6, -3.3090531360358E-4, -8.60406071296893E-5, 2.0016303096781485E-5, 2.4892803048714995E-4, -9.808705362956971E-5, -1.0054568701889366E-4, -1.853725261753425E-4, -1.3419023889582604E-4, 3.6301160434959456E-5, 9.577776654623449E-5, -2.6584978331811726E-4, -1.4415683108381927E-4, -3.1639367080060765E-5, -1.5898668789304793E-4, -6.434456736315042E-6, -2.967014443129301E-4, 3.0001779668964446E-4, 4.753629400511272E-5, 5.17237167514395E-5, -2.3979249817784876E-4, -2.677393013073015E-6, 3.6974449812987586E-6, -1.2358192179817706E-4, 1.252275105798617E-4, 2.25873154704459E-4, -1.92127117770724E-5, 3.150136035401374E-4, 1.533334725536406E-4, 7.621666009072214E-5, 4.439496842678636E-5, -1.565377606311813E-4, 1.1396874469937757E-4, -3.018952556885779E-4, -9.782249435374979E-6, -5.723649519495666E-5, -1.2232632798259147E-5, 6.441438745241612E-5, 3.524241328705102E-4, 3.158995823469013E-4, 1.0111703886650503E-5, 4.724124664789997E-5, -1.2826277816202492E-4, -3.6027407622896135E-4, 2.488524769432843E-4, -2.4701739312149584E-4, -1.590485335327685E-4, -3.215938340872526E-4, -2.4503321037627757E-4, -3.2428037229692563E-5, 4.908936534775421E-5, 3.2354341237805784E-4, 6.277723150560632E-5, -2.961506543215364E-4, -4.758798168040812E-4, -2.457697701174766E-4, 1.3059428601991385E-4, 9.068890358321369E-5, -2.4713296443223953E-4, 4.185224534012377E-4, 1.9383504695724696E-4, -1.5696007176302373E-4, -2.051630690402817E-5, -6.999706238275394E-5, -8.150494250003248E-5, -6.535302381962538E-4, -5.4512140195583925E-5, -9.137337474385276E-5, -3.169538686051965E-4, -1.8368373275734484E-4, 8.642877219244838E-5, 4.849366960115731E-4, 2.1892445511184633E-4, 1.275888062082231E-4, 4.1549541492713615E-5, -2.2606913989875466E-4, 1.3655824295710772E-4, 3.2863135857041925E-5, -2.7511746156960726E-4, -3.601576609071344E-4, -3.9519788697361946E-4, 4.965009793522768E-5, 4.0041381726041436E-4, 4.099170910194516E-4, 2.455509966239333E-4, 4.940626968163997E-5, -1.2998460442759097E-4, -4.278058768250048E-4, -1.7013278556987643E-4, -3.86010724469088E-5, 1.0946360998786986E-4, 1.4832543092779815E-4, 1.3331738591659814E-4, 1.3017161109019071E-5, 2.937183598987758E-4, 4.531597369350493E-4, -1.693598460406065E-5, -8.412651368416846E-4, -2.9689425718970597E-4, -1.6331834194716066E-4, -2.817169588524848E-4, -2.3777468595653772E-4, -1.7758033936843276E-4, 2.425711863907054E-4, 1.9810229423455894E-4, 1.1236226418986917E-4, -9.04651460587047E-5, -2.7993269031867385E-4, 2.2694644576404244E-4, -1.925058604683727E-4, -1.4141264546196908E-4, -2.3043052351567894E-5, 1.7490271420683712E-4, 2.5226123398169875E-4, -5.651542596751824E-5, 2.849717566277832E-4, 7.27732403902337E-5, -2.3472425527870655E-4, -7.228797039715573E-5, -1.4595911488868296E-4, -1.979667867999524E-4, -3.8190625491552055E-4, 5.265661457087845E-6, -1.017515969579108E-4, -2.519669069442898E-4, -1.2914063700009137E-4, 3.796780947595835E-4, 1.6471835260745138E-4, -2.833984326571226E-4, -8.50411772262305E-4, -4.143164260312915E-4, -9.232752745447215E-6, -4.3598691263468936E-5, -4.854258077102713E-5, 1.7510448742541485E-5, 1.8838827600120567E-5, 4.268583143129945E-4, 1.0301659494871274E-4, -9.062235039891675E-5, -3.312913468107581E-4, 1.0493764420971274E-5, -2.589477808214724E-4, -1.8315557781534153E-6, 1.731234951876104E-4, 3.966727526858449E-4, 2.458822855260223E-4, 1.1020600504707545E-4, 1.9176705973222852E-4, -4.429989348864183E-5, -4.290908691473305E-5, 2.3087127192411572E-4, 3.5458993806969374E-5, 8.264074131147936E-5, -5.265006620902568E-5, -2.0334930741228163E-4, -2.9901284142397344E-4, -2.659605524968356E-4, 1.2334701023064554E-4, 3.0212069395929575E-4, -3.0564877670258284E-4, -4.8244959907606244E-4, -2.561905130278319E-4, 1.1243648259551264E-5, -1.1012489267159253E-4, 3.976756852352992E-5, -4.392954451759579E-6, -1.7243262846022844E-4, -2.1267709962558E-4, 1.9819423323497176E-4, 2.5946652749553323E-4, 2.863826375687495E-5, -2.776423061732203E-4, 2.1114527771715075E-4, 5.365965989767574E-6, 7.713696686550975E-5, 2.1750909218098968E-4, 3.98971424147021E-5, 1.5530662494711578E-5, 2.622134634293616E-4, 2.0510646572802216E-4, -2.2852611436974257E-4, -1.7373802256770432E-4, -3.6177221772959456E-5, 1.328516664216295E-4, 5.421410605777055E-6, -1.3373604451771826E-4, -1.1207124043721706E-4, -4.8659363528713584E-5, 1.742515160003677E-4, 6.944641063455492E-5, -3.8321808096952736E-4, -2.6404677191749215E-4, -8.460708195343614E-4, -2.0615897665265948E-4, -2.0845689869020134E-4, -2.4270146968774498E-4, -5.035370122641325E-5, -1.6844194033183157E-4, -1.6738877457100898E-4, -5.9614863857859746E-5, 5.298046162351966E-4, 2.2067587997298688E-4, -3.0254350349423476E-5, -4.070914292242378E-4, 1.8956069834530354E-4, 9.329980093752965E-5, -1.5046342741698027E-4, -8.17368709249422E-5, 1.4625008043367416E-4, 4.963260653312318E-5, 5.332476575858891E-4, 2.9654198442585766E-4, -3.194842429365963E-4, -1.7905350250657648E-4, -1.3607865548692644E-4, -8.424109546467662E-5, -3.483255277387798E-4, -4.16464579757303E-4, -1.4497406664304435E-4, 1.6476366727147251E-4, -2.0083954950678162E-5, -2.1347656729631126E-4, -3.0704852542839944E-4, 9.952934306056704E-6, -3.9422063855454326E-4, 1.5138961316552013E-4, -5.999438144499436E-6, -3.6539848224492744E-5, -5.2561448683263734E-5, -3.222509621991776E-5, -1.008283652481623E-4, -2.9778655152767897E-4, 1.0060622298624367E-4, 1.3633845082949847E-4, 2.576935185061302E-5, -3.728900046553463E-4, -3.373399958945811E-4, 1.2309088560868986E-5, -7.968844147399068E-5, 1.0899890185100958E-5, -3.495831333566457E-5, 2.6304140919819474E-4, 3.94728354876861E-4, 2.500092959962785E-4, -8.642511966172606E-5, -7.763959001749754E-5, 3.74168848793488E-5, 2.0288933228584938E-5, -3.674568506539799E-5, -1.0236290108878165E-4, 2.655993739608675E-4, -3.654734973679297E-5, -1.2174917355878279E-4, 5.0782502512447536E-5, -1.4289660612121224E-4, -2.0321609918028116E-4, -2.894843346439302E-4, 2.581689623184502E-4, 3.1128176487982273E-4, 1.928928577399347E-5, -9.456723637413234E-5, 3.6590604577213526E-4, 1.8152993288822472E-4, 1.8288210412720218E-5, 8.987658475234639E-6, 2.2648654703516513E-4, 7.461596396751702E-5, -2.732562134042382E-4, -3.3860933035612106E-4, -1.9823217007797211E-4, -1.2830624473281205E-4, -1.5715933841420338E-5, 4.2686748201958835E-5, 1.438711042283103E-4, 4.975153133273125E-4, 7.00147997122258E-4, 1.7066644795704633E-4, -1.0346751878387295E-5, -5.893870547879487E-5, -1.409480901202187E-4, -6.46161352051422E-5, -1.1991584187853732E-6, 2.4218347971327603E-4, -6.664640386588871E-5, -1.5806122974026948E-4, 4.194513167021796E-6, 9.246675290341955E-6, -1.024077573674731E-4, -1.320045266766101E-4, 2.6726623764261603E-4, 1.5841457934584469E-4, -1.2739872545353137E-5, 1.035815803334117E-4, 3.763610147871077E-4, 4.808064841199666E-5, -9.692567255115137E-5, -1.537206262582913E-4, 3.260238154325634E-4, 1.5869677008595318E-4, -7.941398507682607E-5, -2.7116911951452494E-4, -2.3041950771585107E-4, -3.506208031467395E-6, -1.1278079182375222E-4, -9.298207442043349E-5, -3.8019225030438974E-5, 8.576839900342748E-5, 2.391358866589144E-4, 4.0863826870918274E-4, -7.031488348729908E-5, -1.406244409736246E-4, -1.5319397789426148E-4, -6.20698046986945E-5, -8.284203795483336E-5, 5.882253390154801E-5, 1.6887046513147652E-4, 1.003536453936249E-4, -1.2959416199009866E-4, -1.483980886405334E-4, -1.1162539885845035E-4, 8.27892727102153E-5, 4.669190675485879E-4, 1.4418609498534352E-4, 2.9723142506554723E-4, 3.2766195363365114E-4, 3.076887223869562E-4, 5.883359335712157E-5, -2.5493864086456597E-4, 3.864620339300018E-6, 1.769826776580885E-4, 3.644133539637551E-5, -6.808987382100895E-5, -1.3187492731958628E-4, -1.6566910198889673E-4, -1.6776570191723295E-5, -6.636628677370027E-5, -1.0200294491369277E-4, -1.0727723565651104E-4, -1.2253255408722907E-4, 3.3323380193905905E-5, -2.2691869162372313E-5, -2.9802974313497543E-4, -1.8415867816656828E-4, -1.1905917199328542E-4, -1.6351976955775172E-4, -8.04954906925559E-5, 1.2782210251316428E-4, 2.2640610404778272E-4, 2.0274482085369527E-4, -1.2725077976938337E-4, -5.94723314861767E-5, 1.1844534128613304E-5, 4.612991324393079E-5, 3.9084706804715097E-4, 1.2304813935770653E-5, -1.0695950913941488E-4, 1.42961842357181E-4, 1.13224821689073E-4, 3.2533309422433376E-4, 2.2379669826477766E-4, 1.8233057926408947E-4, 1.1918487871298566E-4, -2.0399907043611165E-6, 3.64639017789159E-5, -1.2346521543804556E-4, -3.379163972567767E-4, 3.058762013097294E-5, -5.226377834333107E-5, -2.0196019613649696E-4, 2.179818693548441E-5, -2.3930448514875025E-4, -1.6948397387750447E-4, -2.66381714027375E-4, -1.814280403777957E-4, -8.546486060367897E-5, -1.6771149239502847E-4, -2.5976428878493607E-4, 1.74922461155802E-5, 3.0020842677913606E-4, 3.657879278762266E-5, -1.3592765026260167E-4, -1.2012066144961864E-4, 1.4546180318575352E-4, 2.5284994626417756E-4, 1.901325595099479E-4, 4.043928347527981E-4, 1.1566433386178687E-4, 6.793018110329285E-5, 2.1955883130431175E-4, 2.946588792838156E-4, 1.3938828487880528E-4, 2.1269594435580075E-4, 8.275763684650883E-5, -3.494334305287339E-5, 2.0079375826753676E-4, 1.6113821766339242E-4, -1.6235554357990623E-4, -2.670744142960757E-4, 6.125772051746026E-5, 1.530566078145057E-5, -1.5100357995834202E-4, -1.939437242981512E-5, -2.7456424504634924E-5, -1.821855257730931E-4, -1.77532037923811E-5, 6.665554246865213E-5, -7.668200851185247E-5, -6.306301656877622E-5, -3.3824058482423425E-4, 7.968644058564678E-5, 2.1696391922887415E-4, 5.310547294357093E-6, -1.5681603690609336E-4, -1.9060373597312719E-4, 2.518084947951138E-4, 3.339108661748469E-4, 1.88436868484132E-4, 5.762298314948566E-5, -2.1043924789410084E-4, 2.849259180948138E-4, 2.692103444132954E-4, -8.454757335130125E-6, 2.791156293824315E-5, -5.2818359108641744E-5, 1.1666307545965537E-4, 2.1938576537650079E-4, 4.233845174894668E-5, -1.9323575543239713E-4, -2.8034969000145793E-4, 7.687519973842427E-5, -2.865391616069246E-5, -2.665751671884209E-4, -5.5622487707296386E-5, 1.2699874059762806E-4, 2.0067174773430452E-5, -5.4826454288559034E-5, 1.7389391723554581E-4, -1.562377146910876E-4, 6.934624980203807E-5, -3.4408913052175194E-5, -8.586832700530067E-5, 1.7526771989651024E-4, -3.287491608716664E-6, 6.70830559101887E-5, -1.12982997961808E-4, -1.5945469203870744E-4, 6.720096280332655E-5, 3.293818444944918E-4, 3.631306753959507E-4, 1.0452666174387559E-4, -2.293889265274629E-4, 9.070756641449407E-5, -1.308756909566E-4, 7.237317913677543E-5, 7.489618292311206E-5, -2.8032511181663722E-5, 2.634323900565505E-4, 1.8111533427145332E-4, -2.8608401771634817E-4, -2.828395226970315E-4, -1.7183581803692505E-5, 3.431852674111724E-4, -8.166888437699527E-5, -3.2225626637227833E-4, 3.1720475817564875E-5, 2.8174027102068067E-4, 2.6884200633503497E-4, 1.954794133780524E-4, 3.5813249996863306E-4, 1.5554444689769298E-4, 2.612392127048224E-4, 1.676826213952154E-4, 8.580245776101947E-5, -2.2164722395245917E-5, -1.1278291640337557E-4, 6.1219629969855305E-6, -1.9431457621976733E-4, -1.0372164979344234E-4, -8.214325498556718E-5, 2.86599068203941E-4, 2.11850565392524E-4, 1.9588472787290812E-4, -3.947795194108039E-4, -3.159272455377504E-5, 2.2221149993129075E-4, 2.4600414326414466E-4, 1.5724085096735507E-4, 1.0537706111790612E-4, 2.629638183861971E-4, 1.61697986186482E-4, -2.938294201157987E-4, -1.8954355618916452E-4, -6.654181197518483E-5, 9.465061157243326E-5, -1.2451069778762758E-4, 3.700779052451253E-5, 1.9841130779241212E-5, 3.057277062907815E-4, 6.176907481858507E-5, -3.43095998687204E-5, 3.840013814624399E-4, 4.539864603430033E-4, 3.262810641899705E-4, 1.958790817297995E-4, 1.0864339856198058E-4, 9.810201299842447E-5, -2.340458449907601E-4, 9.630584827391431E-5, -1.0966280387947336E-4, 5.943476571701467E-5, 2.2025193902663887E-4, 3.656731569208205E-4, -1.0730293979577255E-5, -2.1592387929558754E-4, -1.2940113083459437E-4, -2.1104320694576018E-5, 2.335542521905154E-4, 2.0476423378568143E-4, 1.0101286898134276E-4, -1.5404347504954785E-4, -1.5047039778437465E-4, 1.655286323511973E-4, -3.9608293445780873E-4, -1.9477869500406086E-4, -1.046679462888278E-4, 2.0636513363569975E-4, 1.6785952902864665E-4, -1.0561718954704702E-4, 1.3692446373170242E-5, -4.268364864401519E-5, 3.8282425521174446E-5, -6.581395427929237E-5, 1.7425835540052503E-4, 2.0395033061504364E-4, 6.135952571639791E-5, -3.41449813276995E-5, -8.216941932914779E-5, 9.083281474886462E-5, 2.5802148229558952E-5, 9.764276910573244E-5, 4.365757558844052E-5, 5.005996790714562E-4, 5.849526496604085E-4, 5.071528721600771E-4, -9.208310075337067E-5, -4.0387833723798394E-4, 2.50609329668805E-4, 1.0646134614944458E-4, 2.1986453793942928E-4, 1.3692525681108236E-4, 1.6534711176063865E-4, -1.1364460806362331E-4, -4.433919966686517E-4, 5.898788913327735E-6, 2.2993968741502613E-4, 5.8381127018947154E-5, -5.9548805438680574E-5, 6.040044536348432E-5, 7.064652163535357E-5, 7.637045928277075E-5, -6.192580622155219E-5, 1.874111476354301E-4, 2.460643881931901E-4, -8.858660294208676E-5, 6.550780381076038E-5, 2.7642248824122362E-5, 9.284883708460256E-5, 3.62755854439456E-5, -6.447930354624987E-5, -2.49541481025517E-5, -3.292567271273583E-4, -4.400582838570699E-5, -7.130872836569324E-5, 3.123293208773248E-5, 1.7670882516540587E-4, 3.7304055877029896E-4, -1.1756593448808417E-4, -9.353597852168605E-5, 6.928433140274137E-5, -1.8400049884803593E-4, -2.9092395561747253E-4, -6.067068534321152E-5, -1.8369234749116004E-4, -2.4268843117170036E-4, -1.9413226982578635E-4, -1.2818601680919528E-4, -1.252383808605373E-4, 1.1300226469757035E-4, 5.9373604017309844E-5, -1.1441001697676256E-4, 1.7684808699414134E-4, -1.9906686793547124E-4, 1.4290821854956448E-4, -2.8106562240282074E-5, 3.449351424933411E-5, -1.7176852270495147E-4, 4.325805639382452E-5, 5.900620453758165E-5, 1.8242905207443982E-4, -1.5711704008936067E-6, 2.351186703890562E-4, 4.338862490840256E-4, 2.4544232292100787E-4, 2.2976574837230146E-4, 1.5101360622793436E-4, -1.0504364581720438E-5, 8.062907727435231E-5, 4.2995178955607116E-4, -2.3892642275313847E-5, 1.8009664199780673E-4, -2.0152729121036828E-4, 1.1194088438060135E-4, 1.1510800686664879E-4, 3.141955239698291E-4, -1.5959457959979773E-4, 9.504272748017684E-5, 2.155115726054646E-5, -1.3194918210501783E-5, -1.340454473393038E-4, 2.3588049225509167E-4, 4.8626307398080826E-4, 2.7689419221132994E-4, 3.4569294075481594E-4, 1.1356858522049151E-5, 2.1626939997076988E-4, 2.3566503659822047E-4, -5.5306863941950724E-5, -2.7909118216484785E-4, -4.643034844775684E-5, -9.45587526075542E-5, 4.9725465942174196E-5, -3.2402705983258784E-4, -1.34841407998465E-4, 6.532788393087685E-5, -5.198897997615859E-5, -1.1035153875127435E-4, 2.6032896130345762E-5, -2.734922745730728E-4, -5.658316513290629E-5, 2.5054625439224765E-5, -3.39389662258327E-4, -1.3867321831639856E-4, 2.0462799511733465E-5, 5.492037598742172E-5, -6.353760545607656E-5, 3.8427606341429055E-5, -6.481360760517418E-4, 1.602344127604738E-4, -1.4331050624605268E-4, 2.7902264264412224E-4, 2.444267738610506E-4, 1.1164505121996626E-4, -1.1577136319829151E-4, -1.5412054199259728E-4, 1.1724526848411188E-4, 9.371056512463838E-5, -2.34373495914042E-4, -5.891055334359407E-4, -1.2285597040317953E-4, -1.2259959476068616E-4, 2.1477899281308055E-4, 2.0282305194996297E-4, 4.3058209121227264E-4, 3.1127213151194155E-4, 4.222571151331067E-4, 4.5688089448958635E-4, -1.4515637758449884E-6, -1.9772123778238893E-4, -3.459157014731318E-4, -2.7463174774311483E-4, 4.2285264498787E-5, -4.2995019612135366E-5, 3.5170282353647053E-4, 4.012312274426222E-4}"
        ],
        "K": {
            "type": "com.azbyn.chess_solver.svm.Kernel.Linear"
        }
    }
}