%YAML:1.0
---
opencv_ml_svm:
   format: 3
   svmType: C_SVC
   kernel:
      type: LINEAR
   C: 1.0000000000000001e-01
   term_criteria: { iterations:1000 }
   var_count: 576
   class_count: 4
   class_labels: !!opencv-matrix
      rows: 4
      cols: 1
      dt: i
      data: [ 0, 2, 4, 11 ]
   sv_total: 6
   support_vectors:
      - [ 8.49175092e-04, 1.02225784e-03, 7.92827283e-04, 9.42848390e-04,
          9.81967314e-04, 1.05952332e-03, 9.18568054e-04, 7.66370504e-04,
          6.57648314e-04, -8.75955448e-06, -5.79073792e-04,
          -8.95018631e-04, -9.83319362e-04, -1.05911016e-03,
          -1.07762602e-03, -6.98195654e-04, -7.96766253e-04,
          -8.00037291e-04, -8.37214873e-04, -3.79876321e-04,
          2.55059189e-04, 1.43138212e-04, -2.56274361e-04,
          -5.89249830e-04, 1.76752757e-04, 4.51570028e-04,
          4.41276934e-04, 2.69512500e-04, 1.46660241e-04, 3.91074136e-04,
          4.98492969e-04, 8.18747445e-04, 5.95115533e-04, 1.92575375e-04,
          -2.00308088e-04, -4.18901764e-04, -3.27590184e-04,
          -2.60805158e-04, -2.35065017e-04, -7.83000505e-05,
          -9.51721522e-05, -4.10446752e-04, -3.70795169e-04,
          -4.19407676e-04, -2.59498658e-04, -3.60514037e-04,
          -3.56513250e-04, -5.53072139e-04, -6.98907592e-04,
          -2.27983401e-04, 1.06121661e-04, 5.25226533e-05,
          -4.89704144e-05, 1.78063157e-04, 2.14468790e-04,
          4.38670133e-04, 2.01815259e-04, 1.23617792e-04, 2.72328998e-06,
          -1.03915161e-04, -2.18687943e-04, -3.27589572e-04,
          -3.18575738e-04, -1.15492745e-04, -1.62977885e-04,
          -4.15155140e-04, -4.93495492e-04, -6.25246554e-04,
          -7.89444486e-04, -6.84468949e-04, -8.83522618e-04,
          -9.46336426e-04, -4.81724448e-04, -6.55708354e-05,
          -3.13831290e-04, -2.31492886e-04, -6.02425134e-04,
          -2.83343252e-04, -3.36564495e-04, -4.15016082e-04,
          -3.12037533e-04, -4.77088543e-05, 1.27089152e-04,
          1.24374768e-04, -1.23223275e-04, -1.99523900e-04,
          -2.96137849e-04, -2.49220961e-04, -4.11967718e-04,
          -5.38911030e-04, -6.41943712e-04, -9.29667964e-04,
          -1.16841332e-03, -9.06480011e-04, -1.09841512e-03,
          -1.01418677e-03, -5.03416777e-05, -6.20662177e-05,
          -2.69068521e-04, -2.62115878e-04, -6.43512467e-04,
          -3.79054254e-04, -3.34223791e-04, -3.49671900e-04,
          -3.50733200e-04, -2.06874058e-04, -8.75377082e-05,
          2.34624269e-04, 1.99048460e-04, 1.39959186e-04,
          -4.84192715e-05, -1.94071632e-04, -2.98939995e-04,
          -4.36602102e-04, -6.57643192e-04, -1.01146440e-03,
          -1.17078295e-03, -9.72609909e-04, -1.13743835e-03,
          -9.59687633e-04, -1.24449973e-04, 2.58501736e-04,
          -5.05464814e-05, -1.50065389e-04, -3.00457759e-04,
          -1.87233818e-05, -5.70031116e-05, 1.66582700e-04,
          2.47328804e-04, 1.84707460e-05, -4.18521086e-05,
          2.39213754e-04, 3.52712872e-04, 2.87299277e-04, 1.00935293e-04,
          1.40569595e-04, -2.00091934e-04, -3.36919911e-04,
          -6.08184200e-04, -8.20526388e-04, -8.39891611e-04,
          -6.90177374e-04, -8.94373341e-04, -7.43988494e-04,
          1.42567937e-04, 3.37786070e-04, 3.57057957e-04,
          -9.80278201e-05, -1.41864948e-04, 3.01209016e-04,
          9.22800900e-05, 5.52501078e-05, 2.37951608e-04, 3.50804854e-04,
          2.50788318e-04, -1.71222040e-04, -1.46850667e-04,
          1.14937349e-04, 4.59597286e-05, 6.89873632e-05,
          -1.48991850e-04, -2.64464354e-04, -4.48532664e-04,
          -5.10032172e-04, -7.25551683e-04, -5.35107160e-04,
          -5.85281232e-04, -3.50991817e-04, 6.57040335e-04,
          4.16305440e-04, 3.34657670e-04, 3.68190929e-04,
          -1.51832255e-05, 2.63275870e-04, 2.61767564e-04,
          8.93248216e-05, 1.31586465e-04, 4.92750958e-04, 4.48472187e-04,
          1.45498983e-04, 2.40997579e-05, 1.00166297e-04,
          -2.46098825e-05, 3.08293493e-05, -1.33841661e-06,
          -1.98169233e-04, -2.75058061e-04, -4.63321107e-04,
          -6.36494602e-04, -6.53103809e-04, -5.16476575e-04,
          -2.46320706e-04, 6.79304823e-04, 5.46816387e-04,
          3.16192192e-04, 3.55388329e-04, 4.17405499e-05, 2.59017484e-04,
          4.14851937e-04, 4.19072225e-04, 4.59905510e-04, 5.90324053e-04,
          5.64384507e-04, 3.87676322e-04, -6.13159791e-05,
          4.43086901e-05, -2.24604482e-05, 8.57904670e-05,
          3.11814292e-05, -2.84207956e-04, -5.37067128e-04,
          -3.88855522e-04, -4.69732360e-04, -5.81294880e-04,
          -3.16853722e-04, 4.48582578e-05, 3.92423390e-04,
          7.49853323e-04, 4.72694548e-04, 2.91870179e-04,
          -1.20994446e-05, 3.89279099e-04, 6.19825674e-04,
          7.86906865e-04, 7.41305936e-04, 6.46957720e-04, 6.30199502e-04,
          5.06556826e-04, 2.70960045e-05, 1.46648490e-05,
          -7.88025209e-05, -8.41467136e-06, 7.51791667e-05,
          -7.97447647e-05, -4.18980810e-04, -3.11065640e-04,
          -3.81074613e-04, -3.34230543e-04, -1.23546211e-04,
          -1.21155044e-05, 4.10909852e-04, 8.78901279e-04,
          5.91112475e-04, 4.55066358e-04, 9.79570395e-05, 4.24504629e-04,
          6.51373004e-04, 1.00610941e-03, 8.10709957e-04, 7.79303897e-04,
          8.53080128e-04, 7.54266977e-04, 3.70801019e-04, 2.11020480e-04,
          1.87261467e-04, 1.63498975e-04, 1.85214347e-04, 3.74023366e-05,
          -1.61540622e-04, -9.24380729e-05, -1.47712082e-04,
          -1.76090776e-04, -4.27061022e-05, 2.23310242e-04,
          3.03983834e-04, 9.47667286e-04, 5.31251659e-04, 4.70581756e-04,
          2.45697942e-04, 5.22701070e-04, 6.81789941e-04, 7.81033887e-04,
          8.53376230e-04, 8.81580869e-04, 7.85927114e-04, 7.78130780e-04,
          5.37622720e-04, 4.15048067e-04, 5.78213891e-04, 5.32428210e-04,
          2.19257912e-04, 7.69188555e-05, 5.49507931e-05, 3.83190054e-05,
          -1.71453430e-04, -3.21392203e-04, -1.26064318e-04,
          4.71891690e-04, 3.50560964e-04, 6.64474966e-04, 1.23897509e-04,
          4.11485496e-04, 2.90794938e-04, 5.13003150e-04, 7.70386367e-04,
          1.00648752e-03, 9.97047522e-04, 1.00069609e-03, 7.85542710e-04,
          7.99115398e-04, 7.45603116e-04, 7.02657097e-04, 7.96055479e-04,
          5.34876192e-04, 4.13630507e-04, 1.79397161e-04, 2.13448347e-05,
          4.21270670e-06, -3.02115222e-04, -2.37177839e-04,
          -9.08670045e-05, 4.80495713e-04, 8.68178104e-05,
          4.91577433e-04, -3.74475858e-05, 1.46779610e-04,
          1.38280637e-04, 3.77383287e-04, 7.45265395e-04, 8.58880871e-04,
          9.04579589e-04, 1.03545492e-03, 9.30345617e-04, 8.14601197e-04,
          1.00656843e-03, 8.14770523e-04, 7.48153718e-04, 5.27018798e-04,
          4.76236048e-04, 2.16075336e-04, 1.61222470e-05,
          -1.54567519e-04, -3.05392809e-04, -1.71513238e-04,
          -1.18689219e-04, 2.95258360e-04, -1.20102331e-05,
          3.47875903e-04, -1.53403293e-04, -9.52088158e-05,
          -5.12604347e-05, 1.59496311e-04, 3.90056201e-04,
          5.82180510e-04, 9.93477181e-04, 1.06996694e-03, 9.67175525e-04,
          7.28906714e-04, 8.10420257e-04, 7.34527071e-04, 8.48606345e-04,
          5.78862207e-04, 4.20829543e-04, 3.01969820e-04, 3.13933298e-04,
          -9.41392791e-05, -3.09582188e-04, -2.82057910e-04,
          -3.34112439e-04, 5.40049223e-05, -9.49846944e-05,
          4.49042273e-04, -1.16563540e-04, -3.56833480e-04,
          -1.81375683e-04, 3.40908271e-04, 4.14408481e-04,
          3.69199493e-04, 7.43283366e-04, 8.35225801e-04, 9.27583838e-04,
          7.29273888e-04, 7.11619796e-04, 7.38956674e-04, 7.68471044e-04,
          5.43053262e-04, 4.66880912e-04, 2.35605956e-04, 1.08083026e-04,
          -1.77024122e-04, -4.97784466e-04, -5.12781378e-04,
          -5.08296420e-04, -1.07582899e-04, -3.03035020e-04,
          4.23442398e-04, -2.11058927e-04, -4.73250489e-04,
          -4.69637744e-04, 9.09199662e-05, 2.61923356e-04,
          3.01005202e-04, 4.98154608e-04, 7.81996932e-04, 9.96333663e-04,
          1.02255656e-03, 8.24888470e-04, 8.57659150e-04, 6.93267677e-04,
          4.50089487e-04, 4.33369918e-04, 3.10158444e-04, 1.08039079e-04,
          -1.48343624e-05, -4.56260925e-04, -6.51190057e-04,
          -4.70756204e-04, -2.98482191e-04, -5.24617615e-04,
          4.84116354e-05, -8.18291664e-05, -5.51051053e-04,
          -6.08623610e-04, 4.32874513e-05, -1.28295986e-04,
          1.53392102e-04, 3.14494275e-04, 6.27338770e-04, 6.77424250e-04,
          8.24508083e-04, 8.63024790e-04, 7.69986305e-04, 6.64595980e-04,
          7.91567669e-04, 7.17624964e-04, 5.01399976e-04, 2.45353469e-04,
          -6.98661606e-05, -4.76125453e-04, -6.91636931e-04,
          -5.21238428e-04, -3.98078235e-04, -6.86390325e-04,
          -1.55771428e-04, -4.02751059e-04, -8.80265550e-04,
          -8.80649488e-04, -2.09937134e-04, -4.81388233e-05,
          -7.98375622e-05, 1.14035371e-04, 3.36348952e-04,
          4.61200718e-04, 5.60204091e-04, 7.21908233e-04, 7.36162008e-04,
          7.94693828e-04, 8.04992218e-04, 5.71568555e-04, 3.58758640e-04,
          -5.65941045e-05, -3.15644167e-04, -4.59976814e-04,
          -7.32755405e-04, -6.75924239e-04, -5.02809824e-04,
          -5.67002746e-04, -3.80387035e-04, -6.20520499e-04,
          -7.24123907e-04, -8.69235490e-04, -2.11592895e-04,
          -2.00478811e-04, -1.26928746e-04, -3.83251172e-05,
          2.18557063e-04, 2.91310716e-04, 3.66247405e-04, 2.94235215e-04,
          3.93129216e-04, 4.15581337e-04, 3.47062858e-04, 3.39749269e-04,
          8.60341097e-05, -4.18000272e-04, -8.14672443e-04,
          -8.31837184e-04, -1.07143389e-03, -8.74304736e-04,
          -7.50544714e-04, -7.34750996e-04, -6.14778139e-04,
          -6.46524481e-04, -9.03402397e-04, -8.06263881e-04,
          -3.38723563e-04, -2.92685203e-04, -1.77074937e-04,
          -1.62485478e-04, -1.00578283e-04, -4.21188524e-05,
          -8.11132631e-05, -7.68216341e-06, 3.62424798e-05,
          1.52538519e-06, -1.12509224e-06, -1.47958111e-04,
          -4.69277467e-04, -7.21612654e-04, -9.06857196e-04,
          -1.07900542e-03, -1.04503916e-03, -9.17149067e-04,
          -1.22207426e-03, -9.88676562e-04, -5.24331583e-04,
          -5.11219550e-04, -8.76106264e-04, -1.17791747e-03,
          -6.28436916e-04, -4.00031364e-04, -3.37853737e-04,
          -6.99948287e-05, -1.34245856e-04, -1.45014856e-04,
          -6.52786912e-05, -4.10291905e-05, -3.02154876e-05,
          -2.76168284e-04, -2.59224878e-04, -4.51786938e-04,
          -6.55994227e-04, -9.32343304e-04, -1.05687254e-03,
          -1.09208410e-03, -1.11419649e-03, -9.92482877e-04,
          -1.04400772e-03, -9.76001727e-04, -3.87744250e-04,
          -1.02097598e-04, -4.94413776e-04, -8.86169786e-04,
          -1.35289520e-04, -6.17106125e-05, 2.32348888e-04,
          2.48733355e-04, 6.26240071e-05, 3.20738181e-05, 1.26840067e-04,
          5.84818372e-05, 1.23394144e-04, -1.77216265e-04,
          -7.55985966e-05, -1.52881126e-04, -1.65853926e-04,
          -3.92961520e-04, -6.83217542e-04, -6.46497821e-04,
          -8.83490837e-04, -6.86434039e-04, -3.22311622e-04,
          -6.92721587e-05, -2.48785131e-04, 1.67034756e-04,
          4.55602276e-05, -2.46270938e-05, -1.82764692e-04,
          1.55583388e-04, 1.94557331e-04, 4.24760510e-04, 2.58345564e-04,
          5.22169168e-04, 5.15115331e-04, 2.21217691e-04, 1.99453978e-04,
          1.41414974e-04, 3.36266297e-04, 1.02914128e-04, 5.91086282e-05,
          5.35187210e-05, -2.48119730e-04, 1.18640637e-04,
          -4.57415445e-05, -2.18059373e-04, -1.19056414e-04 ]
      - [ 5.53807826e-04, -1.08763715e-03, -5.64219081e-04,
          -5.56847153e-05, -7.65429286e-04, 2.68897013e-04,
          9.33300471e-05, 8.66982096e-04, 1.37009146e-03, 1.82720274e-03,
          2.54183589e-03, 2.85817077e-03, 2.82697100e-03, 1.39232399e-03,
          -2.34494102e-04, -1.25586789e-03, -1.93736656e-03,
          -2.12597311e-03, -2.36908952e-03, -1.32710277e-03,
          -2.39405752e-04, -2.75427039e-04, -6.05172361e-04,
          -2.32971064e-03, -6.79447316e-04, -8.00492067e-04,
          -5.05717413e-04, -7.19514268e-04, -1.02489046e-03,
          7.16588545e-07, 3.82727594e-05, 1.21900800e-03, 1.07567420e-03,
          1.62377756e-03, 1.81829196e-03, 2.06316868e-03, 2.11420655e-03,
          1.22719095e-03, 7.47207552e-04, 7.00723613e-05,
          -4.21098026e-04, -1.10391097e-03, -1.69057620e-03,
          -1.24819961e-03, -9.44793923e-04, -4.95273969e-04,
          -3.72913055e-04, -1.91248802e-03, -9.22861625e-04,
          -9.16405465e-04, -9.77048883e-04, -1.36257382e-03,
          -1.68409047e-03, -8.24298593e-04, -4.64285724e-04,
          1.03030223e-04, 1.68359227e-04, 4.40219650e-04, 3.24252323e-04,
          2.03407442e-04, 9.10912349e-05, 5.79846674e-04, 3.59940866e-04,
          -6.24897017e-04, -1.22235436e-03, -1.50983315e-03,
          -1.44810078e-03, -1.19045970e-03, -1.67887285e-03,
          -7.61219824e-04, -2.59829758e-05, -1.99713046e-03,
          8.14950385e-04, 1.66696482e-04, -1.27218571e-03,
          -1.89757661e-03, -1.24428479e-03, -4.83085518e-04,
          -5.41338755e-04, -2.53775885e-04, 4.89348429e-04,
          9.67276690e-04, 1.15534791e-03, 6.93184847e-04, 6.66109205e-04,
          1.03504979e-03, 1.23110751e-03, 2.34870444e-04,
          -3.24985624e-04, -1.76224959e-04, -4.73302585e-04,
          -5.53568359e-04, -1.18769624e-03, -9.86123632e-05,
          1.33712465e-05, -7.99911330e-04, 8.54039041e-04,
          3.33180855e-04, -1.59223011e-04, -8.34924635e-04,
          -4.03725018e-04, -3.33388802e-04, -2.94943420e-05,
          3.65021842e-04, 4.66444151e-04, 9.38785728e-04, 2.18950561e-04,
          -4.92945310e-06, 2.56145373e-04, 5.67491923e-04,
          7.04366947e-04, 8.46494280e-04, 9.44921980e-04, 8.48804950e-04,
          2.01028422e-04, 1.91925719e-04, -4.51957196e-04,
          -2.40710753e-04, 2.48095512e-05, 3.04729416e-04,
          2.44725496e-04, 2.68534786e-04, -3.44513333e-04,
          -9.84609942e-04, 8.08649638e-05, 2.44496623e-04,
          1.51835091e-04, 2.85966089e-04, -2.74167596e-05,
          6.18469785e-05, -3.61652899e-04, -1.30828377e-03,
          -1.14492048e-03, -9.37631412e-05, 2.88058218e-04,
          6.44746295e-04, 1.14521908e-03, 6.06645364e-04, 3.03796522e-04,
          3.50484013e-04, 4.78040747e-04, 4.45084181e-04, 7.40078511e-04,
          -8.78175313e-04, 1.22472108e-03, 7.09198648e-04,
          6.00342573e-05, -3.91201611e-04, 9.34837211e-04,
          1.27252738e-03, 7.63190736e-04, 4.21742152e-04,
          -7.80132541e-06, -2.71437806e-04, -3.07653798e-04,
          -1.04144285e-03, -1.48874195e-03, -7.93146261e-04,
          -4.19072836e-04, 3.90009198e-04, 7.36496178e-04,
          7.97602697e-04, 5.16530476e-04, 1.93719388e-04, 4.41850629e-04,
          5.49266580e-04, 6.26255467e-04, -6.00759697e-04,
          1.40010763e-03, 7.02618796e-04, -1.84109827e-04,
          -8.14015584e-05, 1.02880050e-03, 1.80175307e-03,
          1.26685319e-03, 5.48757031e-04, 5.34408260e-04,
          -4.23154823e-04, -6.55804237e-04, -8.34037783e-04,
          -1.32960570e-03, -9.20688151e-04, -2.57825770e-04,
          6.89282606e-04, 6.57704950e-04, 6.48323970e-04, 6.15752069e-04,
          1.75171124e-04, 3.31018615e-04, 3.09926021e-04, 3.64740728e-04,
          -6.76172611e-04, 1.47155137e-03, 2.83294707e-04,
          -4.14311507e-04, -5.78575127e-04, 1.09460857e-03,
          1.76522520e-03, 1.41462940e-03, 3.65710643e-04, 5.74353791e-04,
          -2.43429313e-04, -5.65831549e-04, -2.19942071e-03,
          -1.94519816e-03, -1.05692598e-03, -4.35611786e-04,
          7.54825523e-05, 8.25810421e-04, 6.21637446e-04, 3.81298560e-05,
          2.71259545e-04, 1.91508501e-04, 5.53189078e-04, 5.04563155e-04,
          -4.02020320e-04, 1.35478983e-03, 6.89211418e-04,
          -2.85269052e-04, -5.97741804e-04, 8.79779749e-04,
          1.44183112e-03, 1.43666042e-03, 7.97892746e-04, 5.33497368e-04,
          -1.29113148e-04, -5.95320191e-04, -1.29389984e-03,
          -1.46678719e-03, -1.09113962e-03, -5.19249937e-04,
          3.58780933e-04, 1.17500976e-03, 1.12608704e-03, 5.97848732e-04,
          -7.92349092e-05, -1.34123093e-05, 2.85301066e-04,
          7.37560447e-04, 2.02920113e-04, 1.39050721e-03, 6.26374444e-04,
          -2.44432886e-04, -3.81338003e-04, 7.16983865e-04,
          1.04434800e-03, 1.03077758e-03, 9.58235178e-04, 4.30872606e-04,
          2.31639497e-05, -7.92120001e-04, -6.01148757e-04,
          -9.75129718e-04, -9.13833908e-04, -1.00262114e-03,
          -1.29086373e-04, 6.29377377e-04, 9.56774980e-04,
          6.69528148e-04, 1.78698028e-04, -3.22260632e-04,
          5.99262130e-04, 1.11260382e-03, 9.69477231e-04, 9.19023936e-04,
          1.06770440e-03, 1.17758260e-04, -6.96737625e-05,
          8.10800237e-04, 1.47589971e-03, 1.65411818e-03, 1.27018301e-03,
          6.58382720e-04, 1.61015196e-04, -4.46391525e-04,
          2.48962257e-04, 5.37848100e-04, -6.16234465e-05,
          -2.83638190e-04, -1.35866110e-04, 5.13758336e-04,
          7.82725227e-04, 8.53204110e-04, 2.12006315e-04, 5.71785145e-04,
          9.65374464e-04, 1.13635138e-03, 8.24298535e-04, 1.65432066e-04,
          1.06799300e-04, -9.12813048e-05, 2.04591110e-04,
          4.74025175e-04, 9.76097828e-04, 9.96268936e-04, 1.50092307e-03,
          9.28452995e-04, 1.00673067e-04, -4.27624967e-04,
          -4.35925576e-05, 3.51879571e-04, 8.96398327e-04,
          1.57056388e-03, 9.29304049e-04, -1.39578304e-04,
          -2.56058556e-04, 1.04863095e-04, 2.49111152e-04,
          8.85351474e-05, 6.82318409e-04, 1.04314752e-03, 1.26981165e-03,
          1.06454398e-04, 3.00489424e-04, 4.27106454e-04,
          -4.29820881e-04, 2.82511086e-04, 8.89545656e-04,
          1.16527372e-03, 1.97437615e-03, 1.75646436e-03, 1.46013917e-03,
          4.26251296e-04, 3.10605865e-05, 5.74121193e-04, 7.78391550e-05,
          3.07757262e-04, 4.98017645e-04, -7.55295769e-05,
          -7.24671583e-04, -5.19595225e-04, -5.23916911e-04,
          -5.24347706e-04, 2.83894362e-04, 9.18208738e-04,
          1.32888590e-03, -3.33461532e-04, 1.57133982e-05,
          3.00977146e-04, -1.11832586e-03, -2.44085662e-04,
          8.43558519e-04, 9.41454724e-04, 1.22209871e-03, 2.12340476e-03,
          1.22051686e-03, 1.86573583e-04, 6.07117603e-04, 5.18645917e-04,
          -1.00321115e-04, -6.92125526e-04, -1.50047569e-03,
          -5.54475177e-04, -6.99714699e-04, -4.64833429e-04,
          -4.42786666e-04, -3.36378522e-04, 2.80104054e-04,
          2.82419263e-04, 6.85452076e-04, -1.16833288e-03,
          -6.82232203e-05, -3.19114974e-04, -3.28815047e-04,
          -1.39233771e-05, 1.35611568e-03, 9.73311020e-04,
          4.58822178e-04, 1.14896998e-03, 1.32245990e-03, 1.05082477e-03,
          1.01659447e-03, 7.72987434e-04, -1.67449005e-04,
          -3.95955169e-04, -1.32207049e-03, -8.47884221e-04,
          -3.12321587e-04, -1.03544837e-04, -1.57852366e-04,
          -5.72039455e-04, 1.87760470e-05, 2.16313038e-05,
          -2.41840055e-04, -1.12390716e-03, -6.99430588e-04,
          8.70555014e-05, 2.47707183e-04, 1.99318078e-04, 8.87959031e-04,
          9.01121472e-04, 3.84941173e-04, 5.42790745e-04, 6.61405560e-04,
          1.55119493e-03, 9.05971450e-04, 9.92425601e-04, 3.28367751e-04,
          -1.12387781e-04, -3.67257657e-04, 5.56066880e-05,
          2.29003184e-04, 3.02177999e-04, 4.67520964e-04,
          -8.07009172e-04, -2.99601466e-04, -3.13215569e-04,
          -8.04324751e-04, -1.25240837e-03, -1.19030033e-03,
          -8.74327437e-04, 3.32558884e-05, 4.79240261e-04,
          7.10590219e-04, 5.61787281e-04, 1.81126990e-04,
          -3.42432759e-04, -9.17661353e-04, 2.53075006e-04,
          4.02367965e-04, 3.89478591e-05, 8.64982667e-06, 8.21404916e-04,
          5.15702355e-04, 4.45605750e-04, 1.50491644e-04, 2.55708059e-04,
          -4.74068256e-05, -4.63604752e-04, -4.87140205e-04,
          -5.19672467e-04, -9.20506078e-04, -1.45628292e-03,
          -6.31225645e-04, -8.23166629e-04, -1.12328096e-03,
          2.87710311e-04, -2.98562936e-05, 6.50802540e-05,
          -2.13260155e-05, -7.30714703e-04, -1.34882575e-03,
          -4.01839963e-04, -3.40356404e-04, 3.98637349e-05,
          -1.02427279e-04, 3.73363786e-04, 5.61395136e-04,
          6.26247842e-04, 1.57564573e-04, -1.96742840e-05,
          -2.80189357e-04, -5.63290494e-04, -6.69531641e-04,
          -3.55144381e-04, -6.17385260e-04, -1.12731173e-03,
          -3.55215219e-04, -1.05188170e-03, -1.33340701e-03,
          -1.98957117e-04, 4.31235530e-04, 4.11017769e-04,
          -7.95555243e-05, -3.29829636e-04, -3.38151323e-04,
          -2.20500529e-04, -2.59108958e-04, -5.91785181e-04,
          -4.03072881e-05, 8.41327070e-04, 9.93258436e-05,
          6.82207232e-04, 6.65580388e-04, -3.25113331e-04,
          -1.02927629e-03, -1.63366797e-03, -1.18497852e-03,
          -5.82101464e-04, -1.18507631e-03, -2.05493905e-03,
          -3.86696338e-04, -1.30942010e-03, -1.08001940e-03,
          -8.31791142e-04, -2.73104379e-04, -1.39176074e-04,
          -4.70785890e-04, -5.62193563e-05, -1.89662067e-04,
          -4.04302584e-04, -6.63960993e-04, -6.48223737e-04,
          -1.17572883e-04, 4.14147944e-04, -7.51200605e-06,
          1.33694673e-04, -4.53868299e-04, -1.59581250e-03,
          -1.62427907e-03, -1.82721997e-03, -1.17746275e-03,
          -2.52170226e-04, -1.11085793e-03, -2.90106959e-03,
          -5.75906481e-04, -5.43766306e-04, -1.16667442e-03,
          -4.18818992e-04, -1.72001732e-04, 2.00044262e-04,
          4.71717532e-04, 2.15155102e-04, 7.63918579e-05, 2.12068517e-05,
          1.31601540e-04, 2.84788111e-04, 2.06443379e-04, 1.81858908e-04,
          3.09990050e-04, -3.61018145e-04, -1.23948185e-03,
          -1.95022544e-03, -1.75288459e-03, -1.55865541e-03,
          -1.09760941e-03, -1.19360141e-03, -7.25449121e-04,
          -3.20094847e-03, -1.90856576e-03, -1.00769184e-03,
          -8.14620988e-04, -1.75953712e-04, -3.54848962e-05,
          3.77861696e-04, 5.93284669e-04, 8.00215057e-04, 5.24321920e-04,
          7.55492074e-04, 6.73126779e-04, 6.38304104e-04, 1.37772935e-04,
          4.56629088e-04, 1.23241116e-04, -9.07639216e-04,
          -1.50123995e-03, -6.08656963e-04, -5.00617898e-04,
          -7.11076136e-04, -2.59321416e-04, -6.33046613e-04,
          -3.71435395e-04, -3.65327578e-04, -4.03609389e-04,
          4.30740678e-04, 1.49428018e-03, 1.27398630e-03, 9.31277289e-04,
          8.28969642e-04, 1.23008364e-03, 5.53931808e-04,
          -1.46943508e-04, 4.93745960e-04, 4.37863258e-04,
          1.88087623e-04, 2.54683750e-04, -2.03576536e-04,
          -6.97683485e-04, -1.08633528e-03, -1.76055043e-03,
          -1.30449887e-03, -1.03611755e-03, -2.74328428e-04,
          -5.38790890e-04, 1.91497951e-04, 7.54561916e-04 ]
      - [ 7.65876262e-04, 7.44659686e-04, 1.85425990e-04, 1.44168909e-04,
          3.61675367e-04, 4.19548713e-04, 4.38491639e-04, 5.05549484e-04,
          5.00016671e-04, 4.35274153e-04, 2.07592966e-04, 2.31929123e-04,
          1.04111947e-04, 6.82858808e-05, -6.54325850e-05,
          -1.02598264e-04, -1.22655139e-04, -1.52762077e-04,
          -1.12929505e-04, -8.98067447e-05, -1.61610005e-04,
          5.25507385e-05, 9.85239822e-05, 4.16209805e-04,
          -1.91201194e-04, -1.96102817e-04, 1.80383518e-04,
          7.64536599e-05, 1.89521525e-04, 4.22618832e-05, 1.86801262e-04,
          1.25772698e-04, 1.67114355e-04, 9.96651288e-05, 1.03831535e-05,
          6.23483793e-05, 8.29847806e-07, -5.47671407e-05,
          -1.30787041e-04, -1.12132802e-04, -1.56420909e-04,
          -1.92340653e-04, -1.97644331e-04, -1.85940531e-04,
          -1.63728488e-04, -1.28493237e-04, -2.61979789e-04,
          -1.62992263e-04, -1.53774687e-04, -1.87415848e-04,
          9.72847920e-05, -3.57159661e-05, 1.30383036e-04,
          7.51807311e-05, 2.14542633e-05, 3.78130062e-05,
          -2.66786737e-05, -3.84247469e-05, -2.78549542e-05,
          -3.28221795e-05, -3.33238386e-05, -8.47619776e-06,
          -2.56379735e-05, -1.59631891e-04, -1.85582248e-04,
          -2.15810331e-04, -2.95640319e-04, -2.98058847e-04,
          -2.25366704e-04, -1.10740330e-04, -2.02110721e-04,
          -1.57997172e-04, -1.62738754e-04, -1.80885327e-04,
          1.37001014e-04, 7.86264536e-06, 1.01450212e-04, 2.98656851e-05,
          5.99091663e-06, 1.05797619e-04, 5.81102577e-05,
          -4.78288675e-05, 2.96645667e-05, 9.49368696e-05,
          -2.20381226e-05, -1.00919651e-05, -4.23250858e-05,
          -2.01712774e-05, -1.51025612e-04, -2.61610112e-04,
          -2.04181881e-04, -2.59424909e-04, -1.51908316e-04,
          -1.56584836e-04, -1.85377969e-04, -1.55942864e-04,
          -1.69258215e-04, -2.18213740e-04, 9.95279552e-05,
          -2.16331937e-05, 5.88678849e-05, 1.13066271e-05,
          2.98366376e-05, 4.03596205e-05, 4.13928101e-05, 4.01175639e-05,
          6.55619660e-05, -7.81119888e-06, -5.50958175e-05,
          1.32375935e-05, -1.71799129e-05, 5.72466479e-06,
          1.57392733e-05, -9.08842849e-05, -1.65246835e-04,
          -8.90731608e-05, -1.31636320e-04, -7.88135585e-05,
          -1.23026330e-04, -4.15984105e-05, -1.79351598e-04,
          -1.84395452e-04, 1.08865155e-04, 2.15292039e-06,
          7.16521099e-05, 1.40050979e-04, 4.25985527e-05, 1.15245530e-04,
          1.29571417e-04, -3.14672036e-07, 5.15016982e-05,
          5.62932200e-06, 1.80575935e-05, 2.67044270e-05, 4.86609824e-05,
          7.56410809e-05, 5.88494258e-05, 2.49745312e-06, 4.01053112e-05,
          1.69018240e-04, 1.78202201e-04, 1.61474905e-04, 6.64708423e-05,
          3.48727372e-05, -1.74091067e-04, -2.01818257e-04,
          1.40040138e-04, 4.57898159e-06, 8.58104177e-05, 1.15607814e-04,
          1.16269839e-04, 1.23578473e-04, 1.22378318e-04, 7.50344334e-05,
          1.45131809e-04, 8.77269995e-05, 7.78469039e-05, 9.50261019e-05,
          1.04627034e-04, 2.43729271e-04, 3.40509549e-04, 1.68787679e-04,
          -1.03119364e-05, 1.76215442e-04, 1.37616415e-04,
          1.89268874e-04, 1.80980103e-04, 2.08215351e-04,
          -1.66171259e-04, -1.90035164e-04, 1.07023916e-04,
          2.57300394e-06, 1.43987199e-04, 1.36015253e-04, 1.45602549e-04,
          1.52641995e-04, 1.35739829e-04, 1.65935897e-04, 1.72308195e-04,
          1.55993519e-04, 9.91560664e-05, 1.08731772e-04, 2.84330745e-04,
          3.92596587e-04, 3.11519048e-04, 1.82465636e-04,
          -2.99175863e-05, 1.77755472e-04, 2.17508816e-04,
          1.97847723e-04, 2.21012451e-04, 1.70087384e-04,
          -1.55092042e-04, -1.87173049e-04, 1.44850317e-04,
          7.02354810e-05, 1.05462641e-04, 1.51729924e-04, 1.85904515e-04,
          1.61047297e-04, 1.97188507e-04, 2.25699754e-04, 1.45390921e-04,
          1.94969849e-04, 2.44735274e-04, 3.62424355e-04, 4.28639178e-04,
          3.86719010e-04, 3.24952794e-04, 1.50490116e-04,
          -1.32908026e-04, 1.14639894e-04, 1.36681017e-04,
          2.10077589e-04, 1.82803327e-04, 7.22530749e-05,
          -1.44671707e-04, -1.86114281e-04, 2.25307624e-04,
          1.14397488e-04, 1.50431733e-04, 1.31351844e-04, 1.95316272e-04,
          2.49668636e-04, 2.24569332e-04, 1.66282363e-04, 1.81488344e-04,
          3.52494681e-04, 4.13060974e-04, 5.02631417e-04, 4.09614498e-04,
          3.52269300e-04, 3.08102026e-04, 1.32310961e-04, 3.76811040e-05,
          1.14003735e-04, 1.23285252e-04, 1.63229881e-04, 1.85942539e-04,
          2.13742445e-04, -1.55393791e-04, -1.69477047e-04,
          1.90317543e-04, 1.08519518e-04, 1.71129301e-04, 1.53882633e-04,
          2.08762751e-04, 2.52920843e-04, 1.55931193e-04, 1.33052483e-04,
          2.66236544e-04, 2.73608137e-04, 2.22190138e-04, 3.57173267e-04,
          3.54693300e-04, 4.29906184e-04, 2.54807383e-04, 1.13626236e-04,
          7.27538873e-06, 1.45394180e-04, 9.47952140e-05, 1.58835348e-04,
          1.64864206e-04, 2.10995597e-04, -1.57325820e-04,
          -6.28788985e-05, 1.98768626e-04, 6.86801504e-05,
          1.73590859e-04, 1.49194369e-04, 1.93353771e-04, 1.40922712e-04,
          8.44728202e-05, 1.15407682e-04, 2.43298084e-04, 1.87474303e-04,
          -8.56590996e-05, 2.08838508e-04, 4.15844435e-04,
          3.85655585e-04, 7.04712875e-05, -1.69044477e-04,
          -1.48236184e-04, 1.14671006e-04, 1.47997212e-04,
          1.51565328e-04, 1.50207517e-04, 1.62930941e-04,
          -1.45583370e-04, -7.08821754e-05, 1.80171628e-04,
          6.04841007e-05, 1.70411498e-04, 1.28377869e-04, 1.81269788e-04,
          1.27696680e-04, 2.27721084e-05, 1.47475526e-04, 1.99977701e-04,
          2.41605492e-04, 8.44714450e-05, 2.32426959e-04, 3.87942186e-04,
          3.34355718e-04, 3.00655782e-04, 1.86115343e-04, 1.63345874e-04,
          1.41719531e-04, 1.26606712e-04, 1.57667469e-04, 1.75565991e-04,
          1.58036739e-04, -1.29406486e-04, -1.10824767e-04,
          1.32327361e-04, 5.25822070e-05, 1.45263519e-04, 8.97296850e-05,
          1.42414807e-04, 1.17457246e-04, 9.62436025e-06, 1.61100834e-04,
          2.99044914e-04, 2.57121603e-04, 1.94877590e-04, 2.89324060e-04,
          2.77558895e-04, 2.60822271e-04, 3.17284168e-04, 2.34525476e-04,
          1.74004192e-04, 1.51432148e-04, 1.24050974e-04, 1.29577500e-04,
          1.94516266e-04, 2.04071184e-04, -1.43107027e-04,
          -1.35143084e-04, 1.19084172e-04, 6.86273852e-05,
          8.60571599e-05, 3.82416292e-05, 9.13109034e-05, 1.27351610e-04,
          9.14840621e-06, 1.89109749e-04, 1.82999313e-04, 3.09374998e-04,
          1.88177466e-04, 2.94395606e-04, 4.14292415e-04, 3.53054318e-04,
          3.00429499e-04, 2.58097483e-04, 1.59991818e-04, 1.31735971e-04,
          1.14516923e-04, 1.05351959e-04, 1.78898321e-04, 1.57202317e-04,
          -1.49486135e-04, -1.84818375e-04, 4.53114590e-05,
          1.37077413e-05, 9.21842220e-05, 5.99148989e-05, 1.30390414e-04,
          1.51592176e-04, -2.17571251e-05, 1.79717288e-04,
          2.54445011e-04, 3.75683769e-04, 2.34815190e-04, 3.60183127e-04,
          3.72692855e-04, 3.24470893e-04, 2.66624498e-04, 2.22660354e-04,
          1.27312931e-04, 1.14819843e-04, 6.24938766e-05, 5.78726249e-05,
          1.24449711e-04, 1.23077902e-04, -8.80891530e-05,
          -1.90556020e-04, 1.09125585e-05, -6.45478431e-05,
          2.21544833e-05, 2.39586043e-05, 6.08945011e-05, 9.35698117e-05,
          6.06711110e-05, 2.15775890e-05, 3.44916101e-04, 4.17230505e-04,
          3.40671453e-04, 3.84943880e-04, 3.22899461e-04, 2.46969488e-04,
          2.26627439e-04, 1.80934498e-04, 7.03441692e-05, 1.37630661e-04,
          1.00675228e-04, 6.30579962e-05, 7.99321133e-05, 1.10045374e-04,
          -1.01397280e-04, -1.79020906e-04, 2.02071205e-05,
          -9.55589276e-05, -2.50039084e-05, -2.97085244e-05,
          -1.35019727e-04, -9.54872521e-05, -1.20423370e-04,
          -6.41139995e-05, 1.36795250e-04, 2.23560113e-04,
          3.04298970e-04, 2.55766296e-04, 1.85942103e-04, 2.16926215e-04,
          2.23052266e-04, 1.35062350e-04, 1.28755346e-04, 1.05673789e-04,
          -1.12295384e-05, 7.24345455e-07, -1.15191751e-05,
          7.22337354e-05, -8.82623135e-05, -1.99066548e-04,
          1.20274785e-06, -2.70271485e-05, -3.93503542e-05,
          -5.01141221e-05, -1.22578713e-04, -5.27620832e-05,
          -8.08422556e-05, -9.53393464e-06, 1.12322268e-05,
          1.56385970e-04, 1.77118549e-04, 2.49047880e-04, 2.32907725e-04,
          2.08102254e-04, 1.32831105e-04, 1.18001670e-04, 5.29903919e-05,
          3.42011845e-05, -3.95695752e-05, 5.12006454e-06,
          1.85733516e-05, 3.08852977e-05, -1.02484119e-04,
          -2.03475851e-04, -3.02091630e-05, -6.34390608e-06,
          -5.24286406e-05, -9.13790427e-05, -8.31308280e-05,
          -1.53586006e-05, 4.64772711e-05, 5.04657146e-05,
          7.81944327e-05, 7.47812956e-05, -2.25700878e-05,
          1.12363581e-04, 1.43138328e-04, 4.42584605e-05, 2.58142136e-05,
          2.25891581e-05, -2.00061277e-05, -2.52489535e-05,
          -6.27889094e-05, -5.22852570e-05, -4.29714237e-05,
          -2.89162763e-05, -1.43578232e-04, -2.18266883e-04,
          -3.17089834e-05, -5.74684964e-05, -6.96342395e-05,
          -7.98740439e-05, -7.18953306e-05, -2.58299751e-05,
          -2.88870069e-05, -1.04019855e-05, 4.62758217e-05,
          1.76414287e-05, -4.38990628e-06, -3.20774452e-05,
          -9.75630974e-06, -2.94945366e-05, -1.25351617e-05,
          -4.25457438e-05, -1.40383299e-05, -7.98360416e-05,
          -1.21902362e-04, -1.50114240e-04, -1.81334559e-04,
          -7.77596797e-05, -1.83118813e-04, -2.88294861e-04,
          -1.11336194e-04, -1.42706660e-04, -8.17925102e-05,
          -8.07741162e-05, -4.08845117e-05, -7.89692422e-06,
          1.60389015e-06, 1.60113159e-05, 5.39212051e-05, 2.09065456e-05,
          7.82358893e-06, -5.26803960e-05, -1.79620605e-04,
          -1.76475020e-04, -1.26149112e-04, -9.52892151e-05,
          -9.21124520e-05, -1.54918132e-04, -1.33462730e-04,
          -1.33437541e-04, -1.76651563e-04, -1.38639545e-04,
          -1.88854930e-04, -2.37907734e-04, -7.29013918e-05,
          -8.50859724e-05, 3.08731869e-05, -3.16152145e-05,
          2.51797755e-05, 8.11690916e-05, 6.22666994e-05, 1.23802427e-04,
          1.51883913e-04, 7.79663460e-05, 2.27551991e-05, 1.36837771e-05,
          -1.53832862e-05, -7.54365828e-05, -1.30653367e-04,
          -1.49906613e-04, -1.60287469e-04, -1.49865999e-04,
          -1.42602657e-04, -1.55739763e-04, -1.93430824e-04,
          -2.51529476e-04, -3.23539338e-04, -1.65110396e-04,
          -6.12663962e-06, -3.85595085e-05, 9.75165385e-05,
          5.32144550e-05, 1.44231744e-04, 2.06733937e-04, 2.45900941e-04,
          1.54632027e-04, 2.15005814e-04, 8.84597466e-05, 9.91677443e-05,
          7.98837355e-05, 1.11406756e-04, 4.70992491e-05,
          -2.88849114e-05, -8.75109181e-05, -2.24661585e-06,
          -6.81512611e-05, -7.40487012e-05, -1.62805190e-05,
          -7.91907660e-05, -9.90330154e-05 ]
      - [ -2.83659948e-03, -1.08744332e-03, -1.83487590e-03,
          -1.82830356e-03, -1.56822777e-03, -1.27000746e-03,
          -9.91185196e-04, -4.86894045e-04, 1.06737064e-03,
          2.18306249e-03, 2.75044236e-03, 2.96535483e-03, 2.19926471e-03,
          9.47997207e-04, 4.03260958e-04, -4.37437375e-05,
          -1.54026275e-04, -3.64290521e-04, -1.05167145e-03,
          -2.58309592e-04, 3.42123676e-05, -1.92184743e-04,
          -1.17711769e-03, -1.35468086e-03, -2.32849387e-03,
          -5.59561304e-04, -1.49097876e-03, -1.44335721e-03,
          -1.26474141e-03, -2.17088978e-04, -2.02840001e-05,
          -2.04020515e-04, -7.63212229e-05, 1.62892765e-03,
          1.89590687e-03, 2.26457766e-03, 1.30779459e-03, 1.04188977e-03,
          1.16686930e-03, 1.25031173e-03, 6.41212740e-04, 2.32864390e-04,
          -7.10323802e-04, -2.80144130e-04, 1.61006596e-04,
          -5.26966469e-04, -1.11179915e-03, -8.07964476e-04,
          -1.09752960e-04, -4.53085318e-04, -1.66118832e-03,
          -2.45720870e-03, -1.60122453e-03, -8.93309421e-04,
          -1.23783736e-03, -7.02663092e-04, -1.76977701e-04,
          1.07142096e-03, 6.53206953e-04, 2.67942640e-04,
          -5.91322780e-04, 3.01678607e-04, 8.72463686e-04,
          7.46390841e-04, 5.93729492e-04, 7.33429188e-05,
          -6.83575563e-05, 5.36145584e-04, 7.95414322e-04,
          2.92806741e-04, 7.67290650e-04, -2.46240117e-04,
          5.43005764e-04, -2.61289497e-05, -1.52554689e-03,
          -1.77921774e-03, -6.35245640e-04, -6.10519317e-04,
          -6.78468961e-04, 5.67397219e-05, 5.73047320e-04,
          8.71232711e-04, 3.30859562e-04, -3.81762831e-04,
          -9.45488340e-04, -5.78385312e-04, 9.97575335e-05,
          2.57595602e-05, 1.05044091e-04, -3.14389326e-04,
          -3.55607444e-05, -2.99225445e-04, -7.42106058e-04,
          -1.33812704e-04, 3.97539028e-04, -1.89550447e-05,
          -4.06708074e-04, 5.20993723e-04, -7.83736177e-04,
          -1.07319164e-03, -1.86347825e-04, -1.95056098e-04,
          8.97427963e-05, 8.38330190e-04, 3.25578265e-04, 2.16115688e-04,
          -3.42708692e-04, -1.15828961e-03, -1.34570885e-03,
          -1.65762578e-03, -1.07965805e-03, -2.22019429e-04,
          7.40564370e-04, 7.30216270e-04, 2.15333726e-04, 4.91951068e-04,
          2.59147899e-04, 6.17593643e-04, 9.43830237e-04, 1.89287728e-03,
          -9.02010215e-05, -5.86197166e-05, -7.89313519e-04,
          -1.32197211e-03, -3.39002494e-04, -4.95476357e-04,
          -1.87173820e-04, -9.76527284e-04, -5.91611839e-04,
          -4.77055670e-04, -1.27581239e-03, -1.75695505e-03,
          -2.04092683e-03, -1.56236743e-03, -5.69700380e-04,
          -1.07085879e-03, -8.14246232e-05, 3.47466674e-04,
          2.87581235e-04, 2.47272226e-04, 2.46408774e-04, 9.36858531e-04,
          9.55618627e-04, 1.33074087e-03, 5.68559510e-04, 1.58710362e-04,
          -1.07370224e-03, -1.21463591e-03, -2.00025985e-04,
          -5.82581015e-05, 5.16137748e-04, 3.58125952e-04,
          1.05550425e-04, -3.51483846e-04, -7.05136626e-04,
          -6.45828375e-04, -3.05843801e-04, -4.55648405e-04,
          -4.70612576e-04, -4.29397507e-04, 1.45734695e-04,
          7.91856030e-04, 9.63848492e-04, -8.68452162e-07,
          2.84944137e-04, 2.57629785e-04, 5.79610874e-04, 5.82714216e-04,
          -1.32363042e-04, 1.20409437e-04, -3.08634131e-04,
          -1.20317552e-03, -4.34442300e-05, 1.97767949e-04,
          1.99451402e-04, 1.31884799e-03, 4.63538192e-04,
          -8.40827241e-04, -8.12713522e-04, -2.45849194e-04,
          -2.23017414e-05, 6.99142693e-04, -7.71302439e-05,
          1.59211661e-04, -7.26849423e-04, 4.76519141e-04,
          6.96064322e-04, 8.73659563e-04, 6.50926260e-04, 8.97923717e-04,
          9.75692878e-04, 4.65451943e-04, -4.88178594e-05,
          -3.13583296e-04, -3.83882987e-04, -8.38503067e-04,
          1.56943788e-04, 5.42978873e-04, 1.01416488e-03, 1.17921073e-03,
          8.28845485e-04, -6.31594681e-04, -5.64832531e-04,
          -3.51101800e-04, 1.32843139e-04, 3.96581483e-04,
          1.34298243e-04, 5.76906430e-04, 3.89993191e-04, 6.18313730e-04,
          1.45226915e-03, 1.66363362e-03, 9.23877640e-04, 1.38299284e-03,
          3.34051438e-04, 9.94505172e-05, 1.08499080e-04,
          -2.86624243e-04, -2.31264581e-04, -8.79048370e-04,
          5.91094140e-04, 3.33034666e-04, 6.01622742e-04, 1.18239666e-03,
          1.19587732e-03, 5.99036051e-04, -3.46451197e-05,
          -3.17411846e-04, 3.58635938e-04, 1.15260342e-03,
          7.64593598e-04, 1.34208996e-03, 1.60934299e-03, 1.48551806e-03,
          1.83055631e-03, 1.67892547e-03, 5.36823529e-04, 1.00020654e-04,
          3.16622696e-04, 4.27538907e-04, 1.41421414e-03, 1.00556994e-03,
          6.96505245e-04, -8.87844304e-04, 3.62333667e-04,
          6.24834909e-04, -9.32147668e-05, 6.11853960e-04,
          5.75126032e-04, -1.01778394e-04, -1.22022547e-03,
          7.11027096e-05, -5.53491700e-04, -6.13898097e-04,
          -7.08184321e-04, 1.82819102e-04, 1.33875513e-03,
          1.59071363e-03, 1.50839053e-03, 1.07204251e-03,
          -7.78675076e-06, -3.33002899e-05, 3.75336967e-04,
          9.51915164e-04, 7.31500681e-04, 1.57151907e-03, 9.82254394e-04,
          -9.67537286e-04, 9.67317028e-05, 3.68566893e-04,
          2.32004197e-04, 7.91903178e-04, 7.38270930e-04,
          -3.18117411e-04, -7.17832299e-04, -3.93734896e-04,
          6.60150836e-05, -8.79870844e-04, -7.79554481e-04,
          -2.50695623e-04, 5.99794439e-04, 1.11318927e-03,
          4.16620605e-04, -4.80539966e-05, 2.27810233e-04,
          -2.81384477e-04, 2.86769151e-04, 5.61432171e-05,
          -7.64368218e-04, 5.70153526e-04, 6.30466151e-04,
          -6.76465104e-04, 3.63801018e-06, 2.84002424e-04,
          9.12843097e-05, 8.25258612e-04, 8.98330298e-04,
          -3.42794519e-04, -6.59501471e-04, -3.28324910e-04,
          -1.19746866e-04, -7.83964992e-04, -3.86456755e-04,
          5.88239403e-04, 4.43600526e-04, 5.47079893e-04,
          -1.79929368e-04, -4.81889641e-04, -8.81170039e-04,
          -7.66407233e-04, 1.19226330e-04, 4.99198868e-05,
          -3.11788317e-04, 3.96664342e-04, 4.86335484e-04,
          -6.15385943e-04, 7.89967016e-05, 6.06106652e-04,
          6.16887584e-04, 7.37405790e-04, 7.75565626e-04, 1.50815140e-05,
          -3.20750754e-04, 2.59107386e-04, 3.53360607e-04,
          -3.98111879e-04, -7.90962018e-04, 1.94992186e-04,
          1.74407163e-04, -9.08178452e-04, -1.33787713e-03,
          -1.23649940e-03, -1.32629334e-03, -1.23722269e-03,
          2.24035015e-04, 8.95097692e-05, -5.38068474e-04,
          3.48763890e-04, 9.71745176e-04, -6.72069320e-04,
          -3.12067161e-04, 1.31604355e-03, 1.01884268e-03,
          7.87793600e-04, 4.54245222e-04, -2.20326998e-04,
          -2.32447637e-04, 7.17131188e-04, 1.36329164e-03,
          -1.77383590e-05, -1.32743444e-03, -4.67869686e-04,
          -1.07220745e-04, -4.12257446e-04, -9.94313043e-04,
          -1.68226531e-03, -8.69664305e-04, -1.10562891e-03,
          -4.30224143e-04, 3.37282370e-04, -9.62569495e-04,
          -1.60951429e-04, 5.92704630e-04, -3.43803113e-04,
          4.53220535e-04, 6.90155022e-04, 1.02268066e-03, 1.02589244e-03,
          9.31998191e-04, 2.15883745e-04, -1.75854121e-03,
          -4.07179177e-04, 9.82304453e-04, -3.54720891e-04,
          -1.44566142e-03, -9.27385059e-04, 2.17662484e-04,
          1.17878709e-03, 9.67339671e-04, -4.61615651e-04,
          -4.65429184e-04, -4.27729130e-04, 5.34442079e-04,
          -9.47389170e-04, -1.13472610e-03, -1.04155182e-03,
          6.64406514e-04, 2.72219855e-04, 4.16179071e-04, 7.92148930e-04,
          3.40802857e-04, 2.60967005e-04, -4.16693438e-05,
          -1.17893377e-03, -1.69744098e-03, -7.79349008e-04,
          6.56441398e-06, -1.65799365e-03, -1.76363089e-03,
          -1.12784596e-03, -9.14890770e-05, 1.03898032e-03,
          6.52506424e-04, -1.68517756e-04, -6.04676839e-04,
          -9.40078244e-05, 5.87845216e-06, -9.19114740e-04,
          -3.09229537e-04, -7.69612612e-04, 2.35735773e-04,
          -4.40683143e-05, 3.65865068e-04, 5.64640155e-04,
          6.16297475e-04, -4.84076561e-04, -3.46746674e-04,
          -1.53692323e-03, -1.83982926e-03, -9.88567597e-04,
          -8.09627745e-05, -7.07062194e-04, -8.58520623e-04,
          -7.64190801e-04, -2.02729512e-04, -2.34622290e-04,
          1.36080009e-04, 1.75043868e-04, 1.58916839e-04, 1.54011810e-04,
          3.70825292e-04, -1.26683066e-04, -2.21180191e-04,
          2.28998819e-04, 3.52031435e-04, -1.36311181e-04,
          5.61681576e-04, 6.76719472e-04, 4.79051494e-04,
          -3.68963316e-04, -5.55199920e-04, -1.39129581e-03,
          -7.41811702e-04, -1.19210970e-04, -4.49797342e-04,
          -4.72123967e-04, -7.79102964e-04, -9.61293990e-04,
          -3.32632451e-04, -2.14691885e-04, 4.92143699e-05,
          3.59749305e-04, 3.67010507e-04, 1.34743941e-05, 9.13040130e-04,
          5.16536471e-04, 3.24996188e-04, 9.74940427e-04, 3.58950056e-04,
          -7.95932356e-05, 4.15217713e-04, 8.13659746e-04,
          3.33525764e-04, -7.13767804e-05, -4.74790839e-04,
          -1.36014874e-04, -1.60090916e-04, -1.74875546e-04,
          -3.84491228e-04, -6.99679804e-05, 3.49462716e-05,
          1.84301010e-04, 2.53039179e-04, 7.16533745e-04, 8.79087136e-04,
          8.84982175e-04, 7.42669392e-04, 4.53001354e-04, 1.13328372e-03,
          4.21931181e-04, 2.62890040e-04, 1.39951822e-03, 7.35243026e-04,
          5.46820927e-04, 4.76480520e-04, 1.00191764e-03, 2.45505653e-04,
          -1.07793538e-04, 1.54598645e-04, -1.42312972e-04,
          -3.21285625e-04, -6.52181683e-04, 7.30833563e-05,
          4.48271254e-04, 4.87229612e-04, 8.10588070e-04, 4.95820306e-04,
          1.40044242e-04, 5.29269339e-04, 6.58747449e-04, 9.76229669e-04,
          8.56056693e-04, 1.34088052e-03, 1.87396316e-03,
          -1.26405724e-03, -5.53270511e-04, 1.84765395e-05,
          2.13647538e-04, 9.85788764e-04, 7.49393948e-04,
          -5.59695472e-04, -4.50150779e-04, -6.01680600e-04,
          2.92048295e-04, 1.05883041e-03, 7.32343295e-04, 6.34925789e-04,
          6.53173192e-04, 9.38682759e-04, 5.50061872e-04, 5.76287799e-04,
          -3.29347327e-04, 1.55933958e-04, 3.65410582e-04,
          7.64692319e-04, 2.06291574e-04, 8.33587139e-04, 1.62391539e-03,
          -1.51008612e-03, -1.92622817e-03, -6.40689861e-04,
          -5.71547171e-05, 1.81860453e-03, 1.30744488e-03,
          9.65867439e-05, -6.17189624e-04, -9.19036160e-04,
          -1.87582424e-04, 3.85088642e-04, -1.01803787e-04,
          8.90715455e-05, 4.17990741e-05, -1.25441657e-04,
          -1.53000187e-03, -2.11883453e-03, -2.51268549e-03,
          -9.80248326e-04, -9.08701531e-06, 4.84788266e-04,
          1.34579270e-04, 9.10729053e-04, 1.58088980e-03,
          -2.00483878e-03, -2.05157069e-03, -6.96517702e-04,
          -2.86209746e-04, 1.36011699e-03, 1.53944106e-03,
          1.14964775e-03, 9.08702670e-04, 8.50001466e-04, 4.50722204e-04,
          -5.07910445e-04, -1.18473210e-04, 3.56347242e-04,
          -4.84219781e-04, -7.69570994e-04, -1.95898069e-03,
          -1.80358218e-03, -2.36341846e-03, -1.72740803e-03,
          -6.68947294e-04, 1.25535403e-03, -2.12432744e-04,
          8.79913918e-04, 2.49574869e-03 ]
      - [ 1.52954653e-05, -1.08376453e-05, -2.73796704e-05,
          -3.09072893e-05, -3.39029684e-05, -3.25076398e-05,
          -7.18300362e-06, -8.25919506e-06, -1.04968494e-05,
          -5.36744119e-06, -1.87141504e-05, -8.07390370e-06,
          -9.19671220e-06, -1.28260572e-05, -4.78987704e-06,
          3.66657150e-06, 8.05782383e-06, 7.01487079e-06, 6.97780820e-07,
          -1.79929521e-05, -5.37522174e-05, -9.73596034e-05,
          -1.26734521e-04, -9.53426061e-05, -2.10878734e-05,
          -1.15094963e-05, -5.78072322e-05, -1.60123318e-06,
          6.93457014e-06, -4.05847095e-05, -6.98254444e-05,
          1.93365358e-05, 1.66362825e-05, 1.75547066e-05, 6.95601602e-06,
          2.00321574e-05, 3.70375687e-06, 6.08492701e-06, 1.94154254e-05,
          2.91079650e-05, 1.99483802e-05, -2.03634863e-06,
          -2.36849828e-05, -3.93405098e-05, -7.21668766e-05,
          -7.99051268e-05, -1.03243088e-04, -7.02306497e-05,
          -5.20256217e-05, -4.02333681e-05, -3.68912806e-05,
          -2.10759863e-05, 2.23770876e-05, 1.78353403e-05,
          1.80704083e-05, 3.42005624e-05, 4.28635976e-05, 5.39156354e-05,
          4.32534434e-05, 5.64955408e-05, 4.99372945e-05, 4.70085761e-05,
          6.13496304e-05, 6.87173379e-05, 4.20229844e-05, 1.50140386e-05,
          1.77178026e-05, 1.04578767e-05, -3.81714108e-06,
          2.68590361e-06, 2.36530764e-06, 2.73473488e-05,
          -6.04191155e-05, -1.77132260e-05, -8.67918243e-06,
          -1.18012231e-05, 4.05902865e-05, 3.04104888e-05,
          3.63959552e-05, 7.10906825e-05, 6.26615511e-05, 5.91242460e-05,
          4.73164509e-05, 5.04916425e-05, 4.25918624e-05, 5.13020059e-05,
          5.35019535e-05, 6.33197924e-05, 5.22925184e-05, 6.44802867e-06,
          8.06124172e-06, -5.42269709e-06, -4.63873175e-06,
          -4.54641258e-06, 2.39514920e-05, 4.25866347e-05,
          -9.40734026e-05, -2.49212226e-05, -1.22962738e-05,
          1.78868379e-06, 5.41160334e-05, 4.60169467e-05, 6.66336418e-05,
          7.17062285e-05, 6.16387406e-05, 5.64479087e-05, 5.02039074e-05,
          5.60856024e-05, 6.67636195e-05, 7.23379126e-05, 7.30555112e-05,
          6.53600364e-05, 6.57000710e-05, 1.34507272e-05,
          -8.02045270e-06, -2.17452225e-06, -1.07007088e-06,
          8.88157956e-06, 4.71672611e-05, 6.68996217e-05,
          -9.85816660e-05, -2.91579108e-05, -1.00391189e-05,
          -7.23304220e-06, 3.86770553e-05, 6.47562265e-05,
          4.97096407e-05, 4.12500049e-05, 6.14890741e-05, 6.21361978e-05,
          6.32985684e-05, 6.49141002e-05, 6.38789206e-05, 6.64350373e-05,
          6.94752962e-05, 6.29174538e-05, 6.58064455e-05, 5.98332808e-05,
          4.20007054e-05, 5.57112726e-05, 5.53122263e-05, 6.88994478e-05,
          8.69693613e-05, 8.37435582e-05, -9.18086880e-05,
          -2.86944087e-05, -1.41263799e-05, 1.20802579e-05,
          7.24261772e-05, 6.03796288e-05, 6.61462182e-05, 6.58887802e-05,
          8.21666254e-05, 9.13201584e-05, 9.76597657e-05, 1.01939448e-04,
          9.89110704e-05, 7.86586534e-05, 6.80104276e-05, 1.09395689e-04,
          1.43903017e-04, 1.24183833e-04, 5.90239360e-05, 5.47667005e-05,
          5.43508613e-05, 6.50032525e-05, 1.00861740e-04, 1.16723291e-04,
          -9.46214059e-05, -3.07136870e-05, 3.24606140e-06,
          3.59429723e-05, 7.91458515e-05, 7.44551799e-05, 6.79785953e-05,
          7.99322734e-05, 1.04188657e-04, 1.11846006e-04, 1.19764169e-04,
          1.23359147e-04, 1.10584828e-04, 8.82854147e-05, 1.43273384e-04,
          1.50827618e-04, 1.48013787e-04, 1.37649360e-04, 5.94442245e-05,
          5.83971632e-05, 6.70566151e-05, 8.33161539e-05, 1.08354805e-04,
          1.16205396e-04, -8.78998981e-05, -2.48178567e-05,
          3.33366188e-05, 4.86637655e-05, 8.36328254e-05, 7.64602519e-05,
          7.91345301e-05, 8.96570855e-05, 1.10341884e-04, 1.10361114e-04,
          1.24835511e-04, 1.15236413e-04, 1.43630488e-04, 1.77686103e-04,
          1.68394865e-04, 1.71310938e-04, 1.64886122e-04, 1.54036388e-04,
          7.69570470e-05, 7.43756827e-05, 8.02624345e-05, 7.11113680e-05,
          9.35784483e-05, 7.76777379e-05, -1.03514467e-04,
          1.44664375e-06, 3.23326931e-05, 4.99755515e-05, 8.82851382e-05,
          7.36809234e-05, 8.20169153e-05, 1.04958250e-04, 1.11191177e-04,
          1.04134371e-04, 1.17265670e-04, 1.75296082e-04, 1.83574972e-04,
          1.98043286e-04, 1.85934754e-04, 1.88276230e-04, 1.81453754e-04,
          1.50480904e-04, 1.01562888e-04, 5.76847851e-05, 5.79700754e-05,
          6.45289983e-05, 8.88027935e-05, 9.47289736e-05,
          -1.13701608e-04, 1.48791160e-05, 3.41823725e-05,
          4.52474815e-05, 1.07309999e-04, 8.63021123e-05, 8.78275969e-05,
          1.07431013e-04, 9.54274074e-05, 9.28391382e-05, 1.46099264e-04,
          1.87825688e-04, 1.87172744e-04, 1.90222345e-04, 1.85133933e-04,
          1.88912250e-04, 1.73449880e-04, 1.28039886e-04, 9.25868881e-05,
          7.75944864e-05, 5.56409941e-05, 5.17172630e-05, 6.98421500e-05,
          9.06309142e-05, -6.46016415e-05, 5.78472373e-06,
          3.73593866e-05, 5.90140044e-05, 1.23959573e-04, 9.19296435e-05,
          8.15766762e-05, 1.06290528e-04, 9.76385636e-05, 9.71372137e-05,
          1.79331546e-04, 1.83825250e-04, 1.95717046e-04, 1.75608002e-04,
          1.80194154e-04, 1.86290490e-04, 1.10428256e-04, 3.41377490e-05,
          4.66285746e-05, 6.64137478e-05, 5.67662755e-05, 3.34437173e-05,
          5.29022363e-05, 7.30307438e-05, -4.87610159e-05,
          -1.45636056e-06, 7.23676658e-06, 7.90181002e-05,
          1.36681876e-04, 9.83079299e-05, 8.33923623e-05, 1.16019313e-04,
          1.04097177e-04, 1.21587254e-04, 1.73950393e-04, 1.93411586e-04,
          1.90907813e-04, 1.65135905e-04, 1.84165052e-04, 1.95104221e-04,
          1.76186324e-04, 9.98188043e-05, 8.28249467e-05, 6.08352129e-05,
          3.73058901e-05, 2.72051129e-05, 5.44665963e-05, 6.75833435e-05,
          -3.81023528e-05, 4.65386302e-06, 1.91042386e-06,
          7.35212088e-05, 1.35696973e-04, 1.11901332e-04, 9.09676965e-05,
          1.10941044e-04, 1.14364993e-04, 1.51715809e-04, 1.90118662e-04,
          2.05917298e-04, 1.87657657e-04, 1.77537673e-04, 1.85267214e-04,
          2.15675536e-04, 1.70296218e-04, 7.86830569e-05, 8.87176939e-05,
          6.98618969e-05, 4.11679393e-05, 2.72890466e-05, 6.01729189e-05,
          7.05562416e-05, -3.57399294e-05, 9.01537624e-06,
          1.14594914e-05, 4.73504479e-05, 1.20085555e-04, 1.25457693e-04,
          1.07858468e-04, 1.16509109e-04, 1.23578327e-04, 1.61122662e-04,
          2.00595197e-04, 2.11644510e-04, 2.01051240e-04, 1.96095978e-04,
          1.75566180e-04, 2.13215375e-04, 1.45071070e-04, 8.28564735e-05,
          8.52045705e-05, 7.31130931e-05, 5.10679056e-05, 3.34782562e-05,
          6.65993430e-05, 7.77081150e-05, -3.60870581e-05,
          2.67973655e-06, 2.18378191e-05, 4.85324636e-05, 9.49957830e-05,
          1.03346174e-04, 1.09569781e-04, 1.24104481e-04, 1.33334732e-04,
          1.76116941e-04, 2.05536708e-04, 2.19066947e-04, 2.25043841e-04,
          2.00943192e-04, 1.66645783e-04, 1.85769895e-04, 1.33232228e-04,
          1.00307916e-04, 8.52430967e-05, 7.51985644e-05, 5.46351039e-05,
          4.73818691e-05, 6.84557090e-05, 8.49051503e-05,
          -2.70197816e-05, 4.61603895e-06, 2.73260321e-05,
          5.70298216e-05, 8.21159992e-05, 8.52863013e-05, 7.78524118e-05,
          1.14181275e-04, 1.28341155e-04, 1.44798192e-04, 2.07401536e-04,
          2.08370009e-04, 2.12784609e-04, 1.78878312e-04, 1.43795725e-04,
          1.58392097e-04, 1.23635255e-04, 8.50945507e-05, 7.09855594e-05,
          6.61893646e-05, 5.20739413e-05, 4.50369735e-05, 7.42206612e-05,
          8.89639414e-05, -2.24841351e-05, 2.12574578e-05,
          2.39898418e-05, 3.36542798e-05, 8.95983831e-05, 9.20994280e-05,
          7.61843330e-05, 7.42311022e-05, 9.85198058e-05, 1.07368673e-04,
          1.37503084e-04, 1.66056809e-04, 1.72683212e-04, 1.65950027e-04,
          1.43242432e-04, 1.18362324e-04, 9.21263272e-05, 6.94949704e-05,
          6.09652416e-05, 5.35795079e-05, 5.35262261e-05, 4.85345408e-05,
          8.13016086e-05, 7.90583144e-05, -4.88824699e-05,
          1.48919316e-05, 3.00286920e-05, 2.88316842e-05, 6.21249055e-05,
          5.62044661e-05, 8.65810725e-05, 7.89928235e-05, 9.07885624e-05,
          9.60636098e-05, 9.12715623e-05, 1.28551619e-04, 1.40964694e-04,
          1.37602838e-04, 1.17395553e-04, 9.14704797e-05, 7.54185894e-05,
          7.49361061e-05, 5.96462924e-05, 4.36518749e-05, 4.36775917e-05,
          5.31527949e-05, 9.01297535e-05, 8.46509793e-05,
          -5.74015576e-05, 8.76738977e-06, 2.76698302e-05,
          2.61784826e-05, 6.53412717e-05, 6.41785009e-05, 1.00501384e-04,
          9.41357284e-05, 9.62673657e-05, 1.07913555e-04, 9.43653795e-05,
          9.48813977e-05, 1.14258255e-04, 1.04395192e-04, 9.91723355e-05,
          8.13688748e-05, 7.16614886e-05, 7.38875387e-05, 6.02516920e-05,
          3.79939083e-05, 3.84536797e-05, 5.10518657e-05, 8.53212114e-05,
          1.00525744e-04, -4.80044582e-05, 8.26269388e-06,
          -1.58512830e-06, 1.57556533e-05, 8.49975913e-05,
          9.97553288e-05, 1.02155005e-04, 1.00296093e-04, 9.12732357e-05,
          9.50284739e-05, 8.57035993e-05, 9.29026210e-05, 7.75190929e-05,
          7.16987925e-05, 7.64537690e-05, 7.18928350e-05, 6.66746491e-05,
          6.74742332e-05, 5.86621281e-05, 4.23383426e-05, 4.75133056e-05,
          5.62407949e-05, 8.42854643e-05, 1.12003399e-04,
          -3.31948104e-05, 1.71536558e-05, 2.10157650e-05,
          3.90507557e-05, 6.86281201e-05, 7.27563456e-05, 6.67865825e-05,
          8.02439754e-05, 8.50547003e-05, 8.75479309e-05, 8.10375932e-05,
          7.78708927e-05, 6.92465328e-05, 6.97185751e-05, 4.63635297e-05,
          3.82930411e-05, 3.35313962e-05, 5.58620814e-05, 5.65441223e-05,
          4.87221077e-05, 5.58214779e-05, 5.72039680e-05, 8.08233453e-05,
          9.31044269e-05, -2.56913627e-05, 1.53184521e-06,
          -8.27210715e-06, 1.22179281e-05, 5.72980862e-05,
          4.37862036e-05, 2.11495335e-05, 3.28795868e-05, 5.69212680e-05,
          6.30726427e-05, 5.71318924e-05, 5.48070566e-05, 3.99967212e-05,
          2.22740528e-05, 2.15524724e-05, 1.24608287e-05, 7.39591496e-06,
          -7.29041722e-06, 3.15559555e-06, -6.60816522e-06,
          -2.50361245e-06, -6.18691774e-06, 1.95095217e-05,
          3.23893073e-05, -5.60389417e-05, -6.45229738e-06,
          -3.41243249e-05, -3.65518354e-05, 3.43490246e-05,
          4.41081647e-05, 6.01745851e-05, 7.28381274e-05, 8.55134858e-05,
          7.42904449e-05, 5.15202737e-05, 7.22221084e-05, 4.37815470e-05,
          3.80159399e-05, 2.88518222e-05, 3.48787435e-05, 3.76217067e-05,
          1.24719445e-05, 1.80414227e-05, 8.31442230e-06, 6.99892644e-06,
          8.41283145e-06, 3.05538961e-05, 3.50899390e-05 ]
      - [ -8.39009517e-05, 2.00288414e-04, 1.99120055e-04,
          6.48514251e-05, 1.73114531e-04, 1.77131049e-04, 2.30655933e-04,
          2.10312399e-04, 2.37573506e-04, 2.11885053e-04, 2.31760423e-04,
          3.00104555e-04, 2.99578765e-04, 2.90045544e-04, 2.82965542e-04,
          2.47917138e-04, 2.50620447e-04, 1.93622909e-04, 2.06911733e-04,
          1.00738958e-04, -1.41265278e-04, -2.76965700e-04,
          -3.18919047e-04, -4.54763154e-04, -1.03929833e-05,
          2.87144620e-04, 3.55837285e-04, 2.41043643e-04, 2.68079748e-04,
          2.25402982e-04, 2.51811318e-04, 2.18205081e-04, 2.97442166e-04,
          2.94419850e-04, 2.85683520e-04, 2.77305924e-04, 2.18995847e-04,
          2.28145887e-04, 1.45022888e-04, 1.77547452e-04, 1.30745728e-04,
          9.96596209e-05, 6.20529681e-05, 2.95057853e-05,
          -6.46255721e-05, -1.23213496e-04, -2.91234493e-04,
          -3.92879127e-04, -2.93847115e-04, 8.86255439e-05,
          2.27639452e-04, 6.76187701e-05, 1.10610003e-04, 7.53095519e-05,
          1.49812826e-04, 1.74270113e-04, 2.08988728e-04, 2.27471872e-04,
          3.42391199e-04, 5.19181194e-04, 5.10197307e-04, 3.38791113e-04,
          2.50269251e-04, 1.30240165e-04, 5.74162805e-05, 5.77005048e-05,
          1.61931093e-05, -6.06499125e-05, -1.22891317e-04,
          -1.05547515e-04, -9.28817535e-05, -1.53685614e-04,
          -2.08155732e-04, -1.02409991e-04, 6.22021253e-05,
          -1.36008734e-04, -1.75002890e-04, -1.92022955e-04,
          -7.73595166e-05, -7.05608954e-06, 6.67723143e-05,
          9.17912184e-05, 1.69611070e-04, 3.34140059e-04, 3.59412545e-04,
          2.51310761e-04, 9.60723628e-05, 4.65710873e-05,
          -3.26985610e-05, -1.41279752e-05, -4.88660335e-05,
          -1.15638504e-04, -1.84747856e-04, -2.09330043e-04,
          -2.46660173e-04, -2.67226482e-04, -2.48339900e-04,
          -9.57661541e-05, 1.54607551e-04, -3.73662333e-05,
          -1.55900678e-04, -1.49644780e-04, -6.26156252e-05,
          2.27117380e-05, 9.90891422e-05, 1.80445233e-04, 2.72002915e-04,
          2.56736472e-04, 2.59188469e-04, 2.82005029e-04, 1.56125170e-04,
          9.38290468e-05, 4.09338354e-05, 6.74455005e-05, 5.71643614e-05,
          5.25210744e-05, -1.24779399e-05, -3.85203602e-05,
          3.55265365e-05, -1.32568646e-04, -2.40940906e-04,
          -1.19838223e-04, 6.90183733e-05, -1.31060588e-04,
          -3.86833970e-04, -2.42203285e-04, -1.52472334e-04,
          6.20210994e-05, 1.71932974e-04, 1.13269278e-04, 8.73772224e-05,
          1.91007566e-04, 1.92959604e-04, 1.88080783e-04, 9.49628666e-05,
          8.54290774e-05, 7.58856768e-05, 1.75104666e-04, 2.12700455e-04,
          2.74378603e-04, 1.46950362e-04, 1.42697827e-04, 2.16028056e-04,
          7.51223633e-05, -2.34665378e-04, -6.19169950e-05,
          6.57141863e-05, -1.28934233e-04, -1.90840205e-04,
          -1.27842723e-04, -7.31278851e-05, 8.59343854e-05,
          2.13697815e-04, 2.12206302e-04, 2.36914027e-04, 2.83770845e-04,
          2.74697319e-04, 2.71109311e-04, 2.32669830e-04, 3.09569354e-04,
          2.96205864e-04, 2.16636210e-04, 1.69221967e-04, 3.45886539e-04,
          2.50626210e-04, 2.02795054e-04, 2.83793954e-04, 2.48644443e-04,
          -1.78717295e-04, -1.12850648e-05, 9.91162087e-05,
          -2.65306189e-05, 1.25062775e-06, -4.35166694e-05,
          6.33300515e-05, 1.41920231e-04, 2.26389195e-04, 3.56180477e-04,
          4.01956582e-04, 4.33377456e-04, 4.35738039e-04, 2.63731839e-04,
          4.77197551e-04, 4.63232223e-04, 2.76020757e-04, 1.44364109e-04,
          2.46540567e-05, 2.60253844e-04, 1.88769627e-04, 2.13289866e-04,
          2.62758724e-04, 2.46952375e-04, -2.12097832e-04,
          8.17594118e-05, 2.14688756e-04, 5.32988306e-05, 3.52864299e-06,
          -8.67679191e-05, -2.50891535e-05, 1.09879387e-04,
          2.65772920e-04, 3.66606720e-04, 4.54470486e-04, 4.72791551e-04,
          6.34953263e-04, 6.75685587e-04, 5.43208094e-04, 4.51384432e-04,
          2.47161050e-04, 1.34763715e-04, -1.01539685e-04,
          8.66380142e-05, 9.80613040e-05, 7.91847197e-05, 2.61381065e-04,
          7.75379012e-05, -1.53389628e-04, 1.76921458e-04,
          2.72240461e-04, 5.93837758e-05, -3.06132533e-05,
          -1.26476967e-04, 1.12852584e-04, 1.91373649e-04,
          2.86700495e-04, 3.40281520e-04, 3.56246135e-04, 5.95020538e-04,
          6.77156437e-04, 6.28546695e-04, 4.99192858e-04, 2.50529934e-04,
          2.39121975e-04, 1.33000416e-04, 7.43809433e-05,
          -1.04546143e-05, 6.62019665e-05, 1.65366378e-04,
          2.44148454e-04, 2.05100456e-04, -1.82151780e-04,
          1.82180913e-04, 1.59204137e-04, 4.20874530e-05,
          -4.44916295e-05, -2.49358400e-05, 6.54586838e-05,
          1.06645595e-04, 1.95633445e-04, 1.56168942e-04, 3.55454220e-04,
          4.11795307e-04, 3.92379501e-04, 4.20508906e-04, 4.02765494e-04,
          3.84611281e-04, 2.35439875e-04, 1.08723703e-04,
          -9.66040943e-07, 2.52565733e-05, -1.97422578e-05,
          8.69023424e-05, 1.94027176e-04, 2.44727969e-04,
          -8.28523771e-05, 2.88411684e-04, 1.57831761e-04,
          2.30042161e-07, 7.70715997e-05, -4.53624998e-05,
          -2.80566564e-05, 3.83931874e-05, 1.44480127e-05,
          4.63447577e-05, 3.34830343e-04, 2.47865624e-04, 7.09119195e-05,
          2.08083322e-04, 3.39844148e-04, 4.39306401e-04,
          -9.04598892e-06, -2.43047733e-04, -1.46486098e-04,
          -2.51432448e-05, -2.06849581e-05, -2.51996498e-05,
          1.46426391e-04, 2.09114907e-04, 2.01970379e-05, 2.72342382e-04,
          1.94800334e-04, -1.26300779e-06, 8.36083200e-05,
          -1.04061881e-04, -6.65219777e-05, -3.31229276e-05,
          -1.75957277e-04, 3.99247619e-05, 2.19080641e-04,
          3.21694941e-04, 1.73995737e-04, 2.70612538e-04, 4.11960413e-04,
          4.28456638e-04, 2.71273864e-04, 1.91425221e-04, 7.59673494e-05,
          -4.52508466e-05, -4.16284493e-05, -2.21598093e-05,
          1.75525493e-04, 1.85899567e-04, -1.51943939e-04,
          -3.95843290e-06, -1.27381514e-04, -1.68321203e-04,
          -6.33554155e-05, -8.91856544e-05, -1.12279151e-04,
          -1.38379226e-04, -1.39539974e-04, 4.19337775e-05,
          2.92978395e-04, 3.15142679e-04, 3.48595466e-04, 3.99115874e-04,
          3.99553246e-04, 4.49930580e-04, 2.75293918e-04, 1.98789348e-04,
          6.79651639e-05, -4.38788593e-05, -1.43117459e-05,
          1.32754567e-05, 2.13206033e-04, 2.09078818e-04,
          -1.48466963e-04, 9.25712520e-05, -7.58799142e-05,
          -5.23089038e-05, -7.83429132e-05, -9.83497448e-05,
          -4.35691572e-06, -1.10281115e-04, -1.45014899e-04,
          8.77692000e-05, 3.13391531e-04, 3.64298845e-04, 3.78922006e-04,
          4.43670579e-04, 4.65688383e-04, 5.25019073e-04, 2.82892579e-04,
          2.33495084e-04, 4.18860691e-05, 3.19342598e-06,
          -5.81487257e-05, 1.24727421e-05, 2.18074958e-04,
          1.86987090e-04, -1.23076767e-04, 3.82012367e-05,
          2.54208226e-05, -9.05088600e-05, -1.47534432e-04,
          -1.88768448e-04, -2.19450121e-05, 1.11845629e-05,
          -2.86785726e-05, 2.52093654e-04, 3.57681420e-04,
          4.97080327e-04, 4.31923690e-04, 5.11937134e-04, 5.17447013e-04,
          4.78716189e-04, 2.46326264e-04, 1.15841132e-04,
          -6.19986458e-05, 4.15121576e-05, -9.14735938e-06,
          -1.13300075e-05, 1.72817672e-04, 2.14423519e-04,
          -7.69979215e-06, 1.96148740e-05, 8.56674451e-05,
          -8.27232507e-05, -1.89446277e-04, -2.95009377e-04,
          -1.57004164e-04, -9.44873045e-06, 7.98390101e-05,
          1.31839057e-04, 4.29325009e-04, 5.16212545e-04, 4.76905785e-04,
          4.60696407e-04, 3.73240706e-04, 2.80582288e-04, 1.51631641e-04,
          1.80563948e-05, 2.26238826e-05, -1.50250594e-06,
          -1.05613417e-05, 4.73365890e-06, 1.82099626e-04,
          2.35689397e-04, -1.04479754e-04, 1.39297088e-04,
          2.26771750e-04, -1.24917322e-04, -1.53833447e-04,
          -2.33840939e-04, -2.65514449e-04, -1.56324255e-04,
          -1.15947412e-04, 3.20303079e-05, 2.29765428e-04,
          3.93679366e-04, 3.85479216e-04, 4.25838400e-04, 3.36005964e-04,
          1.03862280e-04, 9.15696000e-05, 3.21527841e-05, 1.15070827e-04,
          3.60593585e-05, -3.92297989e-05, -6.06210633e-05,
          1.62484794e-04, 2.28476667e-04, -8.11819773e-05,
          5.73246252e-05, 3.27644288e-04, -1.00255211e-05,
          -1.05954823e-04, -2.50181067e-04, -2.36235792e-04,
          -2.06782977e-04, -7.69273611e-05, -5.17637818e-06,
          -9.88274769e-06, 2.42772570e-04, 3.07502545e-04,
          3.91221314e-04, 1.91782980e-04, 1.53241446e-04, 1.31018023e-04,
          8.34390230e-05, 1.33425070e-04, -4.01990874e-05,
          -7.13069894e-05, -4.42713863e-05, 1.43849727e-04,
          2.12426850e-04, -1.82997814e-04, 6.73617687e-05,
          2.86257942e-04, -8.26648466e-05, -6.80710436e-05,
          -1.87332611e-04, -1.64590107e-04, -1.31029519e-04,
          -8.78474239e-05, -4.71092135e-05, -1.92261250e-05,
          5.22431692e-05, 1.03917584e-04, 9.92230125e-05, 3.75108357e-05,
          3.29186587e-05, 3.71682036e-05, 5.66016934e-05, 1.51757878e-04,
          -6.86353087e-05, -3.61068014e-05, -9.08605398e-06,
          1.54083682e-04, 2.25618744e-04, -9.46048385e-05,
          1.64157871e-04, 5.24719944e-05, -2.58961256e-04,
          7.19083528e-06, -6.96589632e-05, -1.07124280e-04,
          -6.84362603e-05, -4.20196448e-05, -8.22445872e-05,
          -2.62307876e-05, -2.80188251e-05, -1.05786807e-04,
          -9.29616508e-05, -1.22215251e-05, -6.35359902e-05,
          3.25172223e-05, 1.52312015e-04, 8.32236256e-05,
          -7.91915518e-05, -7.78431604e-06, -9.83364735e-05,
          5.90726268e-05, 1.43109035e-04, -1.59941759e-04,
          1.31156208e-04, 8.31346770e-05, -2.02793773e-04,
          -4.54246074e-05, -5.32653103e-05, -4.83329495e-05,
          1.00751586e-05, 1.22875572e-04, 9.27902147e-05, 2.15610885e-06,
          -3.75298332e-05, -6.41157312e-05, -8.85147238e-05,
          -1.54462003e-04, -9.90876724e-05, -2.36193755e-05,
          1.47050989e-04, -9.45598658e-05, -1.20189827e-04,
          -6.05257883e-05, -1.58835508e-04, -9.60853959e-06,
          2.89278159e-05, -2.28434088e-04, 1.85374287e-04,
          -3.28097158e-05, -1.53159432e-04, -1.18626294e-05,
          -1.09264816e-04, -1.64619822e-04, -8.25932293e-05,
          1.13142436e-04, 1.99997245e-04, 1.29365071e-04, 8.85468762e-05,
          1.68604238e-05, -1.24139595e-04, -7.70703627e-05,
          -6.49569338e-05, -3.80012243e-05, -1.65189733e-04,
          -2.49912642e-04, -3.04956135e-04, -2.88520387e-04,
          -3.28769063e-04, -1.75424604e-04, -1.11040055e-04,
          -3.02057364e-04, 2.20199945e-05, -2.70933320e-04,
          -4.11483808e-04, -2.45965144e-04, -2.27193232e-04,
          -1.56500202e-04, 1.37851443e-04, 1.54406807e-04,
          1.33156136e-04, 9.38020530e-05, -1.70535768e-05,
          -8.40210632e-05, 7.10265231e-05, 7.34989153e-05,
          6.74649345e-05, -1.06792846e-04, -2.31799073e-04,
          -1.95336339e-04, -2.23286595e-04, -2.70007178e-04,
          -2.98579427e-04, -9.00199375e-05, -1.32513946e-04 ]
   uncompressed_sv_total: 104
   uncompressed_support_vectors:
      - [ 134., 136., 141., 147., 143., 147., 141., 145., 144., 143.,
          143., 144., 145., 145., 143., 142., 143., 143., 144., 145.,
          144., 144., 147., 149., 72., 131., 143., 150., 152., 151.,
          154., 155., 152., 152., 154., 155., 156., 156., 154., 153.,
          153., 153., 154., 154., 154., 154., 155., 157., 79., 142.,
          139., 147., 158., 154., 154., 147., 153., 154., 155., 156.,
          156., 156., 156., 157., 157., 156., 155., 155., 155., 154.,
          154., 155., 77., 131., 143., 151., 151., 150., 154., 157.,
          152., 152., 152., 151., 150., 151., 153., 155., 156., 154.,
          153., 153., 154., 154., 154., 154., 84., 127., 143., 148.,
          147., 153., 152., 148., 151., 151., 151., 150., 148., 148.,
          150., 153., 149., 148., 148., 149., 150., 151., 151., 152.,
          84., 132., 142., 147., 147., 149., 151., 152., 149., 150.,
          151., 151., 150., 149., 150., 151., 152., 152., 151., 151.,
          152., 151., 151., 152., 80., 129., 139., 147., 149., 146.,
          147., 149., 150., 151., 152., 152., 152., 151., 151., 151.,
          151., 151., 151., 150., 149., 148., 149., 150., 82., 126.,
          142., 143., 140., 148., 150., 151., 149., 149., 149., 149.,
          149., 149., 149., 149., 150., 151., 152., 153., 152., 152.,
          153., 155., 83., 130., 138., 143., 147., 146., 146., 150.,
          149., 150., 150., 150., 150., 151., 151., 151., 151., 151.,
          153., 153., 152., 151., 154., 157., 87., 129., 141., 143.,
          140., 151., 145., 150., 148., 149., 150., 151., 152., 151.,
          152., 155., 153., 153., 154., 154., 153., 152., 154., 156.,
          70., 128., 138., 146., 151., 148., 149., 146., 146., 151.,
          151., 149., 151., 152., 152., 153., 154., 154., 155., 156.,
          155., 154., 154., 156., 136., 133., 140., 145., 144., 149.,
          146., 148., 147., 150., 150., 150., 153., 152., 152., 156.,
          155., 155., 156., 157., 156., 155., 156., 158., 168., 160.,
          156., 147., 145., 144., 144., 146., 150., 147., 146., 150.,
          154., 151., 152., 160., 156., 157., 158., 159., 157., 156.,
          158., 161., 178., 182., 179., 170., 123., 122., 129., 139.,
          147., 149., 149., 147., 147., 151., 155., 156., 157., 158.,
          161., 161., 159., 157., 159., 162., 183., 189., 182., 176.,
          162., 106., 129., 139., 147., 155., 161., 156., 151., 158.,
          162., 156., 158., 159., 162., 164., 163., 161., 161., 163.,
          189., 189., 183., 184., 165., 141., 127., 146., 153., 157.,
          170., 176., 168., 167., 171., 169., 158., 159., 162., 165.,
          166., 164., 163., 164., 212., 213., 191., 184., 172., 162.,
          151., 152., 163., 168., 177., 186., 187., 172., 176., 178.,
          178., 157., 162., 165., 166., 162., 161., 163., 188., 225.,
          194., 185., 171., 163., 165., 166., 170., 174., 180., 193.,
          193., 184., 176., 184., 183., 185., 156., 156., 164., 164.,
          165., 159., 176., 182., 179., 178., 167., 171., 169., 174.,
          177., 179., 185., 189., 192., 193., 178., 185., 186., 189.,
          176., 155., 163., 162., 157., 163., 172., 166., 171., 169.,
          158., 161., 185., 183., 181., 183., 198., 185., 184., 192.,
          181., 186., 192., 186., 181., 161., 162., 160., 163., 162.,
          161., 163., 165., 151., 146., 146., 165., 175., 177., 193.,
          228., 218., 200., 199., 186., 190., 199., 192., 186., 173.,
          156., 165., 163., 158., 144., 150., 137., 129., 128., 136.,
          149., 159., 166., 166., 181., 190., 185., 201., 192., 199.,
          207., 194., 183., 170., 151., 159., 156., 162., 114., 105.,
          106., 91., 89., 123., 134., 149., 155., 161., 168., 177., 170.,
          182., 182., 201., 234., 213., 178., 164., 147., 147., 155.,
          153., 90., 67., 65., 78., 88., 101., 122., 132., 144., 159.,
          166., 168., 171., 171., 170., 187., 195., 180., 168., 155.,
          124., 153., 146., 150. ]
      - [ 89., 107., 119., 123., 123., 123., 124., 120., 90., 72., 93.,
          102., 103., 114., 143., 174., 170., 124., 111., 100., 105.,
          98., 90., 84., 90., 120., 119., 119., 124., 126., 127., 90.,
          61., 76., 90., 110., 117., 121., 126., 138., 134., 132., 116.,
          101., 102., 97., 95., 76., 93., 123., 121., 125., 123., 101.,
          96., 63., 60., 71., 89., 108., 128., 141., 127., 124., 127.,
          122., 106., 96., 100., 100., 96., 82., 100., 116., 126., 112.,
          86., 75., 81., 50., 59., 72., 87., 96., 130., 134., 114., 117.,
          124., 109., 101., 91., 90., 97., 99., 85., 95., 122., 117.,
          88., 81., 81., 73., 49., 51., 61., 74., 87., 101., 105., 116.,
          116., 110., 96., 88., 85., 92., 92., 98., 77., 100., 113., 83.,
          64., 69., 71., 66., 46., 49., 64., 72., 84., 90., 96., 93.,
          94., 93., 80., 73., 71., 95., 97., 95., 79., 94., 108., 68.,
          59., 70., 66., 55., 43., 51., 50., 61., 70., 71., 83., 80.,
          79., 71., 67., 67., 64., 88., 100., 97., 83., 92., 84., 55.,
          62., 60., 55., 51., 47., 36., 46., 55., 63., 65., 55., 62.,
          64., 66., 52., 46., 77., 98., 94., 96., 70., 90., 70., 44.,
          55., 58., 56., 49., 42., 44., 51., 46., 52., 53., 56., 57.,
          50., 51., 53., 52., 84., 97., 97., 96., 80., 79., 61., 41.,
          55., 55., 56., 53., 43., 42., 49., 44., 43., 43., 47., 50.,
          41., 51., 57., 69., 85., 91., 95., 93., 76., 72., 56., 41.,
          54., 53., 55., 56., 46., 49., 47., 43., 45., 43., 35., 42.,
          47., 57., 65., 71., 91., 92., 95., 98., 72., 73., 61., 44.,
          51., 54., 56., 59., 53., 41., 42., 43., 41., 42., 39., 52.,
          59., 64., 63., 67., 95., 92., 95., 95., 73., 72., 67., 46.,
          48., 57., 58., 59., 59., 54., 50., 48., 46., 47., 43., 52.,
          57., 65., 56., 80., 95., 93., 97., 88., 80., 71., 71., 49.,
          46., 57., 56., 54., 55., 59., 48., 45., 51., 55., 51., 53.,
          58., 55., 58., 88., 91., 98., 95., 93., 81., 72., 73., 53.,
          47., 55., 52., 51., 49., 59., 59., 57., 56., 56., 59., 55.,
          52., 48., 71., 86., 90., 97., 92., 97., 78., 75., 75., 57.,
          51., 54., 52., 54., 50., 45., 47., 49., 52., 47., 45., 41.,
          45., 55., 85., 95., 97., 95., 97., 94., 83., 76., 81., 62.,
          56., 49., 45., 47., 44., 53., 46., 51., 40., 38., 42., 36.,
          59., 78., 94., 96., 95., 102., 101., 100., 78., 73., 86., 71.,
          67., 52., 39., 40., 44., 40., 39., 43., 39., 40., 48., 60.,
          82., 99., 98., 100., 99., 100., 100., 98., 78., 72., 85., 68.,
          70., 65., 53., 44., 39., 38., 39., 40., 46., 51., 63., 83.,
          95., 100., 100., 99., 98., 104., 104., 95., 81., 72., 91., 80.,
          75., 67., 61., 61., 64., 60., 62., 64., 72., 77., 86., 101.,
          102., 99., 96., 101., 104., 99., 102., 101., 80., 82., 84.,
          74., 75., 78., 76., 73., 71., 71., 70., 75., 77., 74., 80.,
          87., 85., 75., 83., 77., 79., 80., 77., 79., 79., 78., 57.,
          52., 55., 57., 49., 45., 46., 55., 51., 55., 55., 56., 65.,
          69., 69., 70., 71., 69., 75., 69., 64., 73., 90., 80., 32.,
          25., 21., 21., 13., 15., 20., 20., 17., 21., 25., 30., 40.,
          43., 42., 41., 46., 44., 42., 45., 37., 36., 78., 77., 21.,
          22., 19., 23., 20., 23., 23., 24., 27., 30., 32., 30., 28.,
          28., 26., 27., 30., 33., 26., 29., 32., 29., 80. ]
      - [ 139., 130., 122., 130., 127., 115., 107., 90., 79., 67., 75.,
          78., 92., 90., 92., 103., 113., 127., 130., 136., 165., 146.,
          148., 152., 165., 145., 134., 119., 103., 94., 87., 91., 83.,
          75., 75., 78., 85., 118., 114., 128., 156., 164., 169., 177.,
          179., 40., 10., 4., 136., 123., 118., 108., 108., 109., 90.,
          80., 96., 103., 97., 91., 87., 67., 104., 119., 146., 164.,
          166., 171., 172., 29., 28., 31., 104., 109., 103., 99., 101.,
          103., 108., 104., 86., 92., 88., 99., 99., 99., 64., 105.,
          139., 154., 165., 173., 168., 28., 26., 25., 109., 104., 89.,
          94., 99., 100., 113., 119., 108., 63., 88., 95., 103., 105.,
          104., 71., 132., 149., 162., 173., 174., 26., 18., 15., 85.,
          84., 90., 96., 96., 98., 105., 119., 123., 108., 72., 97.,
          105., 110., 112., 104., 104., 162., 165., 171., 168., 25., 11.,
          6., 84., 77., 89., 88., 87., 99., 106., 123., 132., 124., 69.,
          99., 115., 112., 114., 112., 77., 155., 160., 172., 166., 22.,
          7., 6., 106., 87., 92., 94., 95., 104., 110., 127., 135., 137.,
          108., 101., 122., 123., 117., 118., 89., 150., 163., 168.,
          170., 20., 12., 5., 107., 96., 94., 98., 106., 113., 122.,
          133., 145., 150., 120., 98., 128., 131., 126., 123., 109.,
          144., 167., 175., 173., 26., 4., 6., 116., 110., 104., 120.,
          122., 124., 136., 142., 145., 150., 134., 94., 137., 143.,
          140., 133., 121., 147., 168., 175., 178., 21., 6., 9., 136.,
          132., 131., 139., 137., 139., 156., 156., 161., 163., 139.,
          131., 150., 152., 149., 146., 136., 158., 172., 178., 179.,
          18., 9., 9., 150., 153., 161., 160., 159., 160., 164., 170.,
          173., 168., 141., 144., 158., 163., 159., 160., 140., 167.,
          173., 180., 173., 20., 13., 9., 170., 173., 176., 166., 167.,
          172., 174., 172., 170., 173., 141., 160., 169., 164., 166.,
          165., 147., 172., 178., 183., 176., 26., 26., 20., 192., 184.,
          185., 175., 175., 191., 214., 185., 180., 161., 149., 166.,
          166., 168., 166., 155., 163., 176., 184., 185., 183., 26., 34.,
          30., 200., 198., 185., 229., 182., 177., 178., 216., 166.,
          152., 207., 175., 169., 170., 158., 158., 172., 176., 184.,
          184., 181., 22., 29., 27., 208., 216., 207., 185., 231., 199.,
          186., 206., 171., 170., 188., 157., 161., 152., 145., 163.,
          176., 179., 184., 187., 179., 26., 27., 25., 192., 207., 205.,
          199., 203., 197., 190., 197., 164., 155., 150., 143., 136.,
          148., 159., 171., 174., 180., 187., 184., 183., 26., 25., 26.,
          176., 180., 181., 182., 182., 179., 170., 163., 153., 147.,
          144., 146., 145., 159., 162., 167., 173., 175., 184., 185.,
          183., 31., 21., 23., 175., 175., 177., 178., 175., 173., 168.,
          161., 156., 154., 151., 152., 149., 159., 159., 160., 166.,
          174., 181., 180., 181., 28., 26., 23., 170., 174., 173., 169.,
          169., 165., 162., 164., 156., 155., 153., 151., 148., 150.,
          152., 155., 158., 171., 180., 176., 175., 32., 28., 25., 169.,
          169., 167., 167., 168., 164., 158., 155., 151., 149., 148.,
          145., 147., 143., 145., 147., 151., 164., 175., 176., 169.,
          39., 22., 26., 168., 160., 162., 165., 161., 158., 155., 146.,
          143., 144., 141., 139., 140., 135., 138., 140., 143., 158.,
          167., 172., 169., 27., 24., 25., 168., 162., 163., 164., 157.,
          151., 148., 144., 133., 139., 133., 135., 134., 134., 132.,
          131., 136., 153., 163., 171., 171., 36., 25., 20., 169., 171.,
          166., 163., 160., 148., 137., 138., 134., 143., 134., 142.,
          141., 145., 129., 118., 135., 146., 163., 177., 171., 73., 16.,
          13. ]
      - [ 16., 50., 83., 87., 92., 94., 90., 80., 73., 64., 59., 59.,
          63., 62., 59., 63., 64., 61., 67., 62., 55., 57., 65., 84.,
          18., 52., 84., 90., 93., 92., 88., 80., 76., 66., 65., 55.,
          59., 54., 58., 59., 53., 54., 58., 58., 56., 68., 79., 97.,
          15., 50., 83., 90., 92., 89., 85., 78., 72., 60., 57., 48.,
          50., 50., 56., 56., 50., 53., 51., 56., 59., 79., 93., 107.,
          12., 49., 82., 91., 93., 90., 88., 80., 65., 52., 46., 47.,
          47., 57., 58., 57., 50., 51., 47., 57., 68., 90., 107., 118.,
          5., 46., 78., 86., 90., 89., 87., 74., 62., 50., 46., 53., 54.,
          64., 62., 60., 55., 51., 49., 62., 80., 98., 116., 125., 10.,
          51., 81., 89., 94., 92., 88., 70., 55., 49., 53., 56., 61.,
          66., 66., 63., 61., 54., 56., 69., 89., 104., 118., 128., 11.,
          50., 79., 89., 95., 90., 82., 61., 48., 52., 58., 61., 67.,
          73., 71., 67., 64., 58., 64., 77., 92., 110., 119., 133., 12.,
          49., 77., 90., 96., 89., 79., 56., 51., 61., 64., 70., 72.,
          86., 77., 73., 71., 68., 73., 85., 92., 110., 114., 129., 10.,
          50., 81., 95., 93., 93., 73., 65., 63., 75., 76., 85., 88.,
          92., 86., 89., 88., 92., 95., 94., 103., 113., 122., 134., 12.,
          49., 85., 95., 93., 95., 73., 63., 66., 82., 88., 90., 91.,
          93., 92., 94., 102., 106., 109., 112., 106., 109., 115., 133.,
          12., 52., 83., 95., 95., 94., 86., 69., 71., 90., 102., 100.,
          102., 104., 106., 107., 117., 109., 123., 125., 127., 113.,
          113., 107., 13., 47., 89., 98., 98., 102., 91., 81., 83., 99.,
          110., 109., 108., 111., 110., 111., 115., 117., 135., 134.,
          125., 125., 131., 124., 11., 52., 88., 107., 106., 100., 100.,
          87., 90., 102., 112., 116., 109., 113., 110., 115., 130., 155.,
          174., 148., 141., 134., 134., 121., 14., 51., 92., 106., 104.,
          106., 101., 100., 92., 101., 113., 119., 110., 116., 116.,
          128., 137., 191., 196., 172., 142., 142., 122., 125., 13., 59.,
          88., 106., 105., 105., 108., 105., 96., 102., 114., 119., 117.,
          126., 130., 143., 164., 182., 174., 150., 136., 141., 128.,
          120., 13., 61., 93., 110., 108., 110., 104., 102., 101., 103.,
          117., 123., 131., 145., 154., 165., 161., 150., 150., 145.,
          134., 140., 131., 108., 19., 63., 94., 102., 109., 115., 116.,
          112., 113., 108., 118., 123., 137., 163., 204., 208., 172.,
          154., 154., 144., 140., 127., 120., 113., 21., 66., 98., 110.,
          119., 121., 121., 123., 112., 118., 122., 119., 133., 154.,
          163., 155., 148., 146., 145., 140., 125., 106., 116., 117.,
          21., 66., 99., 112., 119., 119., 118., 122., 117., 126., 118.,
          120., 122., 126., 135., 133., 134., 128., 123., 115., 113.,
          120., 124., 121., 30., 70., 103., 115., 118., 118., 121., 121.,
          126., 117., 120., 126., 124., 126., 125., 130., 132., 120.,
          120., 124., 122., 125., 119., 123., 35., 68., 107., 126., 122.,
          118., 122., 121., 124., 127., 124., 130., 130., 125., 132.,
          125., 129., 132., 127., 136., 128., 121., 122., 123., 107.,
          108., 118., 134., 138., 138., 140., 135., 132., 138., 139.,
          133., 137., 138., 135., 140., 136., 141., 137., 137., 136.,
          144., 141., 134., 110., 110., 107., 106., 103., 99., 102.,
          105., 100., 107., 100., 106., 110., 108., 107., 105., 105.,
          102., 107., 109., 111., 114., 104., 106., 113., 101., 64., 34.,
          25., 22., 20., 21., 21., 26., 28., 31., 17., 24., 28., 28.,
          26., 28., 23., 26., 30., 30., 29., 24. ]
      - [ 103., 100., 95., 99., 93., 82., 74., 80., 74., 71., 78., 70.,
          82., 79., 74., 82., 77., 82., 88., 96., 101., 101., 96., 68.,
          100., 108., 108., 91., 88., 84., 82., 73., 77., 73., 75., 71.,
          83., 84., 86., 86., 81., 86., 86., 101., 104., 104., 83., 45.,
          104., 107., 103., 99., 85., 82., 79., 84., 82., 80., 80., 76.,
          77., 75., 83., 80., 85., 86., 91., 98., 109., 102., 83., 39.,
          104., 104., 104., 91., 84., 78., 86., 90., 87., 85., 89., 86.,
          79., 74., 82., 79., 86., 84., 90., 95., 111., 100., 88., 46.,
          103., 107., 105., 84., 80., 83., 94., 94., 100., 93., 98., 98.,
          94., 90., 86., 78., 82., 81., 83., 97., 107., 102., 83., 44.,
          105., 108., 98., 86., 85., 95., 102., 109., 111., 105., 108.,
          107., 105., 99., 85., 74., 77., 77., 81., 94., 103., 96., 79.,
          41., 103., 105., 100., 80., 99., 106., 119., 119., 119., 125.,
          122., 119., 115., 105., 91., 79., 76., 76., 80., 87., 100.,
          95., 82., 43., 102., 103., 93., 84., 104., 113., 120., 126.,
          137., 150., 139., 133., 128., 115., 102., 86., 78., 79., 73.,
          87., 97., 105., 84., 42., 104., 96., 94., 87., 104., 122.,
          131., 136., 156., 162., 138., 145., 139., 123., 108., 88., 74.,
          75., 77., 84., 96., 104., 81., 41., 103., 95., 89., 88., 108.,
          128., 136., 149., 148., 151., 144., 145., 140., 128., 117.,
          85., 84., 83., 73., 83., 102., 107., 84., 42., 108., 100., 92.,
          87., 109., 128., 139., 152., 152., 165., 153., 148., 135.,
          131., 113., 86., 94., 93., 75., 81., 105., 108., 83., 42.,
          116., 111., 105., 92., 108., 126., 141., 147., 157., 184.,
          156., 144., 134., 132., 114., 107., 103., 105., 86., 83., 106.,
          107., 80., 41., 116., 112., 107., 98., 102., 119., 135., 139.,
          150., 178., 153., 136., 138., 123., 112., 108., 115., 114.,
          100., 86., 107., 111., 80., 44., 114., 110., 101., 105., 98.,
          114., 122., 131., 139., 151., 133., 127., 128., 122., 123.,
          123., 127., 120., 107., 90., 109., 116., 84., 45., 120., 120.,
          107., 111., 109., 117., 119., 129., 133., 136., 140., 144.,
          135., 132., 126., 124., 134., 123., 112., 100., 116., 118.,
          89., 46., 125., 127., 116., 109., 121., 121., 122., 128., 136.,
          130., 149., 141., 138., 132., 134., 140., 138., 126., 117.,
          111., 123., 119., 94., 47., 129., 133., 119., 119., 124., 122.,
          129., 135., 141., 135., 164., 209., 152., 143., 143., 143.,
          141., 129., 120., 119., 126., 126., 98., 52., 133., 130., 127.,
          124., 119., 133., 137., 142., 136., 147., 190., 223., 168.,
          152., 155., 151., 144., 140., 131., 123., 128., 126., 105.,
          46., 136., 130., 135., 127., 124., 135., 143., 145., 150.,
          153., 189., 215., 169., 158., 156., 155., 146., 139., 126.,
          131., 134., 126., 112., 53., 136., 137., 135., 135., 132.,
          133., 139., 141., 151., 158., 177., 226., 189., 166., 160.,
          152., 148., 134., 130., 136., 142., 132., 107., 46., 132.,
          144., 133., 137., 136., 137., 131., 138., 145., 151., 173.,
          206., 177., 160., 149., 149., 141., 132., 142., 144., 136.,
          140., 100., 60., 141., 139., 146., 141., 149., 143., 144.,
          140., 146., 146., 154., 159., 149., 150., 148., 145., 142.,
          152., 149., 147., 149., 142., 117., 61., 168., 176., 173.,
          163., 203., 173., 166., 178., 187., 198., 181., 196., 203.,
          199., 207., 182., 197., 212., 233., 230., 222., 233., 150.,
          106., 140., 134., 128., 150., 164., 135., 138., 137., 149.,
          146., 137., 147., 150., 155., 142., 134., 165., 153., 192.,
          167., 173., 137., 112., 125. ]
      - [ 35., 44., 55., 55., 51., 48., 48., 52., 56., 55., 59., 54.,
          52., 58., 60., 60., 62., 62., 66., 59., 59., 55., 57., 48., 9.,
          15., 51., 68., 70., 68., 73., 72., 74., 70., 70., 69., 73.,
          81., 77., 84., 76., 77., 77., 79., 79., 73., 69., 70., 4., 18.,
          55., 61., 77., 76., 75., 79., 70., 76., 77., 77., 81., 88.,
          79., 85., 76., 79., 76., 82., 81., 78., 71., 78., 9., 17., 63.,
          71., 78., 79., 74., 68., 73., 82., 77., 97., 105., 102., 92.,
          83., 75., 80., 79., 81., 79., 80., 76., 76., 5., 9., 58., 76.,
          83., 77., 66., 67., 78., 77., 91., 92., 114., 153., 115., 87.,
          80., 78., 83., 83., 81., 80., 80., 72., 4., 15., 55., 70., 82.,
          69., 54., 67., 77., 85., 93., 98., 98., 109., 98., 85., 81.,
          70., 79., 82., 82., 74., 77., 68., 7., 14., 61., 76., 80., 61.,
          55., 61., 81., 97., 97., 95., 97., 102., 100., 85., 78., 63.,
          70., 76., 82., 71., 74., 70., 6., 14., 57., 70., 83., 49., 43.,
          64., 73., 98., 96., 88., 92., 95., 93., 76., 68., 56., 58.,
          63., 74., 66., 69., 69., 2., 15., 68., 70., 70., 43., 43., 59.,
          67., 79., 89., 85., 95., 87., 81., 74., 63., 48., 45., 46.,
          69., 73., 66., 71., 4., 17., 56., 70., 58., 41., 40., 48., 59.,
          66., 77., 77., 80., 71., 65., 58., 57., 42., 46., 48., 54.,
          63., 64., 64., 1., 16., 57., 69., 43., 37., 36., 44., 47., 52.,
          62., 66., 63., 60., 56., 47., 42., 38., 45., 48., 44., 57.,
          64., 66., 5., 10., 55., 55., 40., 42., 32., 38., 41., 48., 52.,
          52., 46., 46., 40., 33., 33., 44., 47., 48., 43., 57., 62.,
          69., 5., 9., 49., 43., 37., 40., 29., 34., 38., 44., 40., 40.,
          36., 34., 26., 29., 39., 52., 51., 50., 42., 54., 59., 61., 5.,
          16., 43., 43., 32., 33., 30., 34., 34., 35., 29., 34., 34.,
          29., 25., 37., 43., 50., 48., 51., 41., 54., 64., 58., 9., 14.,
          37., 45., 35., 38., 36., 31., 33., 31., 27., 31., 30., 26.,
          27., 37., 42., 47., 42., 45., 42., 55., 68., 64., 4., 5., 43.,
          48., 35., 37., 37., 34., 34., 32., 33., 32., 29., 31., 36.,
          38., 41., 51., 38., 37., 44., 53., 64., 67., 5., 7., 40., 44.,
          40., 34., 33., 39., 45., 36., 34., 35., 30., 32., 34., 40.,
          44., 51., 39., 37., 44., 62., 62., 65., 6., 9., 43., 49., 45.,
          37., 33., 36., 35., 38., 41., 37., 43., 44., 41., 39., 37.,
          38., 29., 35., 46., 63., 64., 67., 5., 10., 45., 53., 49., 40.,
          36., 38., 38., 43., 38., 39., 40., 41., 30., 34., 30., 28.,
          27., 42., 54., 67., 67., 69., 4., 7., 41., 54., 56., 48., 40.,
          36., 34., 31., 36., 30., 38., 27., 26., 30., 26., 28., 37.,
          55., 63., 69., 68., 68., 4., 7., 39., 56., 65., 58., 46., 33.,
          28., 27., 29., 32., 29., 30., 26., 26., 25., 35., 52., 66.,
          67., 68., 69., 68., 3., 11., 43., 57., 64., 61., 57., 48., 47.,
          32., 34., 26., 31., 24., 30., 30., 36., 48., 65., 73., 69.,
          70., 73., 74., 2., 15., 48., 58., 60., 60., 63., 59., 59., 46.,
          40., 35., 35., 32., 38., 49., 53., 61., 71., 72., 69., 70.,
          73., 75., 2., 16., 48., 58., 61., 60., 60., 52., 57., 59., 60.,
          47., 52., 46., 51., 59., 63., 66., 69., 68., 66., 66., 68.,
          68. ]
      - [ 34., 62., 74., 73., 71., 68., 71., 69., 69., 70., 65., 70.,
          72., 75., 69., 70., 79., 83., 91., 93., 96., 93., 95., 95.,
          38., 64., 73., 72., 71., 69., 70., 66., 71., 72., 75., 68.,
          64., 64., 63., 68., 71., 73., 84., 93., 101., 94., 95., 96.,
          34., 62., 72., 70., 67., 65., 67., 66., 65., 64., 58., 65.,
          59., 66., 64., 67., 70., 70., 82., 89., 100., 93., 92., 89.,
          33., 63., 73., 72., 67., 66., 69., 70., 64., 61., 60., 67.,
          71., 65., 75., 72., 76., 76., 83., 83., 94., 92., 93., 86.,
          31., 57., 63., 64., 61., 62., 61., 59., 53., 57., 60., 77.,
          77., 89., 88., 87., 84., 82., 83., 79., 89., 91., 95., 90.,
          33., 58., 62., 61., 55., 56., 53., 51., 52., 57., 77., 79.,
          91., 106., 100., 93., 97., 90., 85., 83., 88., 88., 90., 88.,
          31., 56., 57., 55., 47., 48., 46., 45., 47., 68., 87., 98.,
          104., 123., 118., 118., 109., 101., 91., 88., 88., 90., 87.,
          84., 34., 55., 53., 52., 47., 50., 47., 44., 59., 78., 87.,
          108., 123., 127., 130., 123., 113., 109., 96., 91., 90., 98.,
          92., 86., 30., 55., 46., 42., 51., 57., 56., 50., 66., 84.,
          89., 100., 114., 120., 126., 128., 120., 109., 99., 102., 93.,
          99., 94., 87., 25., 48., 43., 47., 58., 61., 57., 52., 68.,
          73., 94., 109., 110., 123., 134., 128., 116., 112., 105., 99.,
          105., 98., 92., 89., 27., 43., 38., 49., 64., 65., 63., 64.,
          72., 84., 104., 104., 122., 169., 170., 130., 122., 113., 109.,
          98., 101., 94., 95., 92., 27., 41., 43., 62., 78., 76., 71.,
          74., 75., 93., 102., 107., 132., 147., 131., 124., 113., 109.,
          106., 107., 104., 103., 98., 95., 31., 44., 51., 72., 86., 85.,
          81., 86., 92., 96., 107., 115., 116., 120., 118., 108., 102.,
          106., 97., 101., 105., 109., 102., 108., 33., 49., 59., 75.,
          85., 88., 89., 96., 95., 105., 119., 127., 124., 116., 110.,
          106., 104., 107., 110., 115., 120., 117., 109., 105., 30., 55.,
          71., 83., 90., 95., 97., 102., 103., 106., 123., 124., 116.,
          121., 119., 108., 112., 106., 113., 116., 114., 111., 111.,
          102., 37., 64., 80., 88., 92., 102., 108., 114., 119., 139.,
          181., 173., 133., 118., 112., 112., 110., 111., 114., 118.,
          118., 116., 112., 109., 45., 79., 87., 91., 101., 106., 107.,
          113., 131., 174., 190., 157., 127., 126., 118., 121., 117.,
          117., 115., 125., 126., 124., 120., 119., 48., 86., 94., 95.,
          103., 112., 114., 117., 143., 175., 179., 158., 141., 132.,
          129., 120., 116., 123., 124., 126., 124., 126., 124., 120.,
          47., 89., 103., 104., 106., 113., 119., 125., 147., 164., 156.,
          140., 132., 121., 127., 122., 121., 127., 124., 122., 118.,
          122., 123., 119., 52., 90., 107., 112., 111., 113., 120., 129.,
          144., 144., 134., 126., 129., 128., 125., 121., 131., 130.,
          124., 125., 123., 124., 124., 125., 55., 89., 109., 119., 118.,
          118., 122., 127., 128., 133., 128., 127., 125., 126., 128.,
          132., 132., 131., 127., 132., 130., 128., 127., 127., 72.,
          106., 127., 139., 136., 136., 139., 138., 140., 144., 133.,
          140., 140., 139., 143., 140., 140., 143., 140., 140., 135.,
          134., 134., 134., 112., 128., 132., 134., 129., 129., 133.,
          133., 132., 136., 134., 139., 136., 128., 128., 127., 128.,
          131., 126., 124., 119., 120., 121., 120., 115., 100., 72., 62.,
          56., 57., 62., 63., 67., 55., 58., 56., 58., 54., 47., 49.,
          51., 52., 47., 50., 48., 49., 48., 46. ]
      - [ 157., 152., 157., 153., 155., 151., 145., 136., 125., 112.,
          102., 130., 151., 164., 157., 163., 163., 156., 160., 159.,
          155., 150., 148., 97., 168., 155., 168., 192., 203., 153.,
          148., 142., 124., 112., 100., 99., 122., 139., 151., 154.,
          157., 154., 155., 150., 153., 146., 148., 84., 160., 150.,
          180., 238., 189., 153., 161., 142., 126., 107., 93., 86., 109.,
          118., 129., 129., 139., 148., 153., 154., 148., 139., 151.,
          95., 145., 149., 156., 167., 157., 166., 160., 146., 127.,
          110., 87., 78., 91., 108., 112., 106., 125., 137., 149., 154.,
          145., 135., 147., 91., 136., 144., 142., 160., 167., 143.,
          145., 131., 118., 102., 81., 74., 76., 86., 91., 92., 88.,
          106., 132., 148., 143., 139., 146., 90., 138., 132., 130.,
          132., 126., 128., 118., 117., 106., 86., 77., 72., 72., 63.,
          69., 76., 71., 76., 115., 134., 149., 133., 148., 91., 136.,
          120., 124., 126., 120., 121., 116., 110., 92., 80., 76., 62.,
          62., 57., 66., 65., 68., 66., 72., 115., 125., 142., 152.,
          100., 149., 130., 109., 110., 108., 107., 101., 89., 78., 70.,
          71., 65., 63., 56., 64., 66., 71., 67., 67., 76., 100., 118.,
          158., 94., 161., 137., 106., 97., 87., 88., 77., 71., 70., 73.,
          67., 60., 58., 58., 62., 65., 69., 70., 68., 62., 78., 96.,
          140., 92., 168., 148., 124., 105., 81., 65., 62., 65., 65.,
          63., 62., 63., 59., 57., 63., 63., 68., 66., 63., 60., 70.,
          81., 114., 75., 167., 158., 143., 128., 104., 88., 82., 71.,
          59., 54., 56., 60., 57., 60., 67., 65., 68., 62., 59., 58.,
          62., 62., 76., 47., 167., 159., 140., 132., 115., 110., 96.,
          74., 63., 58., 57., 60., 60., 65., 69., 63., 69., 63., 62.,
          64., 64., 58., 53., 30., 173., 161., 146., 136., 123., 112.,
          103., 88., 70., 65., 58., 61., 67., 67., 65., 62., 66., 61.,
          62., 66., 66., 60., 44., 26., 162., 158., 154., 135., 126.,
          113., 110., 102., 89., 77., 63., 65., 70., 64., 62., 64., 62.,
          59., 59., 62., 64., 59., 40., 23., 159., 163., 160., 140.,
          127., 119., 105., 98., 95., 82., 68., 67., 67., 64., 64., 63.,
          62., 60., 62., 64., 65., 58., 40., 23., 158., 166., 164., 161.,
          138., 126., 86., 80., 67., 62., 59., 60., 60., 66., 70., 60.,
          58., 57., 62., 65., 67., 57., 39., 22., 164., 164., 164., 164.,
          161., 140., 117., 90., 72., 65., 64., 62., 64., 63., 63., 57.,
          59., 65., 59., 60., 69., 58., 39., 30., 164., 164., 162., 166.,
          164., 155., 142., 125., 95., 85., 75., 69., 63., 61., 59., 55.,
          61., 62., 70., 66., 66., 56., 49., 27., 163., 163., 159., 163.,
          161., 162., 157., 150., 133., 113., 87., 76., 69., 74., 76.,
          78., 76., 77., 73., 77., 69., 67., 49., 27., 168., 168., 166.,
          167., 164., 166., 165., 162., 161., 158., 151., 142., 123.,
          107., 95., 92., 92., 89., 86., 82., 83., 66., 49., 30., 149.,
          148., 151., 150., 150., 151., 153., 152., 157., 155., 156.,
          155., 155., 146., 139., 134., 134., 117., 104., 92., 90., 75.,
          65., 42., 143., 138., 141., 136., 137., 136., 138., 136., 134.,
          135., 138., 135., 138., 135., 138., 141., 137., 131., 110.,
          96., 86., 85., 76., 64., 103., 97., 99., 99., 103., 108., 110.,
          111., 115., 117., 117., 117., 122., 125., 126., 127., 128.,
          135., 126., 103., 86., 79., 87., 92., 53., 44., 39., 37., 34.,
          39., 34., 34., 31., 38., 35., 30., 24., 26., 26., 32., 35.,
          32., 28., 40., 30., 70., 108., 129. ]
      - [ 41., 30., 25., 27., 25., 18., 16., 18., 19., 20., 21., 19.,
          21., 16., 24., 29., 30., 30., 27., 27., 30., 35., 42., 53.,
          51., 44., 40., 41., 41., 36., 30., 29., 22., 21., 26., 25.,
          35., 44., 56., 71., 73., 67., 68., 65., 59., 60., 64., 58.,
          63., 66., 63., 58., 60., 60., 52., 46., 41., 42., 44., 52.,
          68., 72., 76., 80., 84., 76., 78., 74., 73., 72., 69., 52.,
          62., 68., 66., 62., 61., 56., 51., 52., 48., 61., 70., 74.,
          80., 83., 84., 84., 82., 77., 76., 70., 79., 75., 66., 49.,
          65., 67., 67., 66., 59., 48., 49., 64., 82., 86., 98., 102.,
          99., 95., 86., 86., 77., 72., 74., 71., 77., 69., 62., 48.,
          61., 68., 68., 60., 52., 50., 61., 75., 86., 95., 92., 105.,
          104., 100., 99., 78., 77., 68., 77., 78., 73., 67., 67., 51.,
          61., 71., 69., 52., 45., 59., 75., 82., 87., 90., 98., 141.,
          133., 102., 99., 86., 79., 67., 71., 74., 67., 66., 64., 47.,
          66., 68., 63., 48., 42., 56., 74., 83., 95., 88., 106., 119.,
          112., 116., 104., 93., 74., 64., 58., 61., 65., 69., 60., 46.,
          69., 70., 54., 37., 44., 53., 73., 90., 92., 97., 97., 105.,
          107., 103., 102., 91., 76., 64., 51., 60., 68., 63., 61., 51.,
          68., 62., 48., 41., 42., 49., 71., 86., 98., 99., 94., 95.,
          99., 100., 97., 86., 71., 62., 51., 59., 66., 58., 53., 44.,
          62., 59., 38., 39., 45., 45., 59., 81., 87., 90., 86., 83.,
          90., 94., 85., 74., 62., 58., 48., 53., 61., 59., 51., 40.,
          60., 59., 36., 39., 46., 41., 48., 70., 78., 84., 84., 79.,
          84., 83., 69., 59., 48., 51., 44., 49., 59., 62., 50., 33.,
          63., 58., 41., 43., 41., 39., 46., 55., 66., 73., 75., 71.,
          71., 66., 55., 51., 47., 44., 36., 43., 52., 58., 45., 30.,
          59., 57., 45., 40., 39., 41., 44., 48., 49., 56., 59., 58.,
          56., 50., 44., 44., 47., 38., 32., 46., 51., 55., 42., 32.,
          57., 59., 50., 36., 40., 43., 41., 44., 42., 48., 49., 50.,
          47., 40., 40., 36., 36., 31., 38., 58., 58., 57., 40., 27.,
          65., 58., 59., 41., 36., 42., 43., 37., 38., 42., 38., 40.,
          39., 38., 43., 37., 33., 32., 41., 56., 51., 55., 42., 27.,
          60., 57., 61., 48., 31., 39., 44., 37., 38., 41., 31., 40.,
          43., 39., 45., 33., 26., 34., 43., 55., 56., 54., 38., 33.,
          66., 61., 60., 54., 45., 36., 33., 38., 38., 35., 38., 37.,
          35., 36., 31., 29., 35., 48., 57., 52., 54., 56., 43., 29.,
          59., 66., 65., 52., 50., 44., 42., 33., 40., 33., 36., 28.,
          24., 27., 25., 31., 41., 53., 55., 58., 52., 58., 41., 33.,
          60., 61., 65., 60., 57., 49., 54., 43., 39., 35., 31., 29.,
          30., 33., 44., 48., 53., 54., 60., 59., 62., 53., 42., 36.,
          66., 61., 65., 65., 63., 52., 61., 58., 52., 49., 42., 43.,
          46., 44., 53., 49., 57., 62., 59., 61., 55., 61., 45., 39.,
          59., 64., 63., 55., 57., 54., 58., 58., 57., 52., 54., 51.,
