%YAML:1.0
---
opencv_ml_svm:
   format: 3
   svmType: C_SVC
   kernel:
      type: LINEAR
   C: 1.0000000000000001e-01
   term_criteria: { iterations:1000 }
   var_count: 1024
   class_count: 8
   class_labels: !!opencv-matrix
      rows: 8
      cols: 1
      dt: i
      data: [ 0, 1, 2, 4, 5, 6, 11, 12 ]
   sv_total: 28
   support_vectors:
      - [ -9.46920700e-05, -2.06014782e-04, 1.18638016e-03,
          5.53469057e-04, 2.90957891e-04, -3.51878669e-04,
          -1.64061988e-04, 2.39567293e-04, 7.72521526e-05,
          4.72351167e-05, 5.97662351e-04, 3.24483612e-04,
          -6.19804196e-05, -6.51632494e-04, -6.00379717e-04,
          -4.98638256e-04, -1.90553357e-04, -5.98414801e-04,
          -5.99818653e-04, -5.65903494e-04, -3.22341948e-04,
          -6.15061581e-05, -4.84931457e-04, -9.02920074e-05,
          -1.88477046e-04, -1.42099874e-04, -3.22400942e-04,
          -3.41123086e-04, -1.00207944e-04, -2.23166397e-04,
          -6.61115555e-05, -2.30460369e-04, -5.09021513e-04,
          -7.18474737e-04, 3.40138387e-04, 1.21012541e-04,
          4.32771376e-05, -4.43935947e-04, -2.28030884e-04,
          5.30709667e-06, 2.39716770e-04, 4.87257697e-04, 5.67209616e-04,
          3.56442761e-04, 4.64783399e-04, 2.93827779e-05,
          -2.89072486e-04, -8.93009128e-05, 3.56813471e-05,
          -4.07441257e-06, 2.49111617e-04, 1.71053398e-04,
          1.46171587e-04, 1.36747272e-04, 4.33827699e-05, 8.69590367e-05,
          -2.21349488e-04, -6.81781239e-05, -1.02337552e-04,
          1.73645967e-04, 3.46821005e-04, -3.47649184e-05,
          -1.90189035e-04, -2.30329650e-04, 5.50666082e-05,
          -3.21121392e-04, 9.75880612e-05, 1.10099616e-04,
          -4.22891637e-04, -1.96894311e-04, -1.94858294e-04,
          3.74968920e-04, 3.48018977e-04, 6.04404951e-04, 6.13020442e-04,
          5.67694544e-04, 7.56929687e-04, 3.55027412e-04, 6.22308653e-05,
          2.88736861e-04, 6.09655748e-04, 3.83833976e-04, 4.02027625e-04,
          5.59259672e-04, 2.49370234e-04, 2.10461803e-04, 4.38218762e-04,
          2.91936070e-04, -6.71121888e-05, -5.61422552e-04,
          -7.36966205e-04, -7.87642668e-04, -5.97686390e-04,
          -6.79587654e-04, -7.72881962e-04, -5.59703156e-04,
          6.20634091e-05, -1.78814313e-04, -1.91738960e-04,
          -1.40857228e-04, -1.87513258e-04, -2.68872274e-04,
          -6.09365758e-04, -2.05234261e-04, 1.61890537e-04,
          2.08368903e-04, 4.05407191e-04, 5.71923913e-04, 5.12069673e-04,
          2.01883508e-04, -8.80926891e-05, 1.46412014e-04,
          2.23123556e-04, -4.01282305e-05, -1.95690063e-05,
          1.29553533e-04, -1.00619391e-05, -2.26052885e-04,
          -1.53482804e-04, 1.43976620e-04, 7.80287519e-05,
          -2.36466847e-04, -3.77226126e-04, -4.64346580e-04,
          -4.64427925e-04, -4.96214139e-04, -7.50065781e-04,
          -6.13460725e-04, 2.73917976e-04, -2.42313428e-04,
          -1.77193695e-04, 2.30203688e-04, 1.91508982e-04,
          -1.12888301e-04, -1.61956094e-04, -2.35015788e-04,
          3.37648817e-05, 1.29706095e-04, 4.72281332e-04, 6.64378982e-04,
          4.43765573e-04, 3.36104888e-04, 1.48580788e-04, 1.88622565e-04,
          1.98929585e-04, -2.96157581e-04, -5.33599268e-05,
          1.01638507e-04, 2.89850141e-05, 3.34692813e-05, 8.63053283e-05,
          2.51496444e-04, 9.99089534e-05, 1.08057993e-05,
          -2.05032455e-04, -2.53537961e-04, -2.84375070e-04,
          -4.31109336e-04, -4.92776046e-04, -5.47730771e-04,
          -3.94344970e-05, -3.51642055e-04, -2.68974632e-04,
          1.92195788e-04, 3.38457816e-04, 1.30079963e-04,
          -1.40924662e-04, -2.23431867e-04, -5.32292870e-05,
          2.58918619e-04, 3.73363378e-04, 7.78008718e-04, 7.55980145e-04,
          7.95760483e-04, 7.64874974e-04, 5.16910863e-04, 3.65405547e-04,
          -1.43720927e-05, -2.62562680e-05, 1.28640473e-04,
          1.72956206e-04, 2.51243619e-04, 2.15874039e-04, 3.43929860e-04,
          3.59684986e-04, 3.00747430e-04, -2.83024856e-05,
          1.57192353e-05, -1.46792780e-04, -2.64067145e-04,
          -1.01877500e-04, -2.41077854e-04, -5.40190886e-05,
          -3.09564610e-04, -1.32102126e-04, 8.76760096e-05,
          3.73024493e-04, 1.93255401e-04, -3.66512504e-05,
          -2.28581921e-04, 8.76854392e-05, 3.89946974e-04,
          3.81153106e-04, 5.24754345e-04, 8.35891464e-04, 8.43198563e-04,
          7.11073051e-04, 4.67123202e-04, 3.47742403e-04, 5.74301412e-05,
          -2.46043899e-04, -1.92442138e-04, -6.63081446e-05,
          4.46811580e-04, 4.09398519e-04, 1.95476241e-04, 2.65489944e-04,
          2.38986438e-04, -6.53239986e-05, 1.43637326e-05,
          -2.05045624e-04, -2.10098224e-04, -2.36248961e-05,
          -1.27512641e-04, -4.39059659e-05, -2.50730576e-04,
          4.06951840e-05, -2.68351014e-05, -1.72348919e-05,
          6.20080682e-05, 7.00684977e-05, 1.19327829e-04, 2.91211647e-04,
          2.53550796e-04, 4.07864543e-04, 2.74616934e-04, 6.64957101e-04,
          8.69865122e-04, 9.21987696e-04, 7.00679899e-04, 2.86164810e-04,
          2.31278991e-05, -5.68852411e-05, 1.72497579e-07,
          1.34228263e-04, 3.08700808e-04, 2.89092830e-04, 3.38731566e-04,
          1.07451975e-04, 1.99870934e-04, -1.98668786e-04,
          -1.62333177e-04, -1.02812439e-04, -1.39581622e-04,
          -3.38773272e-04, -3.93991097e-04, -1.95767170e-05,
          -1.09711669e-04, -1.93455300e-04, 1.57037881e-04,
          1.50495631e-04, -1.60335549e-04, 1.28319109e-04,
          1.71553445e-04, 3.86533968e-04, 3.50293238e-04, 1.68490064e-04,
          2.93947203e-04, 6.77327160e-04, 7.62383919e-04, 6.57749420e-04,
          4.66172729e-04, 2.90226861e-04, 6.92236936e-05,
          -2.62251615e-05, 9.54706684e-06, 9.26800858e-05,
          2.29517609e-04, 3.77850782e-04, 2.41261208e-04, 1.71029038e-04,
          1.86058693e-04, -2.09243044e-05, -1.52726483e-04,
          -1.85931189e-04, -2.44763913e-04, -2.55935040e-04,
          -3.65321175e-04, 8.77792081e-06, 3.72926515e-05,
          -1.48352410e-04, 1.07562402e-04, 1.34980422e-04,
          -1.67937294e-04, 1.63243603e-05, -1.32817673e-04,
          1.81588606e-04, 2.03232761e-04, 2.15941709e-05, 1.66385114e-04,
          5.64806280e-04, 5.99290419e-04, 6.73977192e-04, 2.62442074e-04,
          4.22693993e-04, 2.54432700e-04, 1.50705848e-04, 3.20471067e-04,
          7.57348826e-05, 7.69690523e-05, 1.99424685e-04, 8.99312799e-05,
          -6.68820721e-05, 3.45202025e-05, 1.08654778e-04,
          1.36882836e-05, -1.18011791e-04, -1.82136355e-04,
          -2.14080937e-04, -1.85006094e-04, 4.74955450e-05,
          1.89506434e-04, -1.00496596e-04, 7.82962379e-05,
          1.00359124e-04, -1.44224221e-04, 1.93829546e-04,
          -1.33256690e-05, 7.67905585e-05, 1.81007345e-04,
          -2.98271945e-04, -6.81765014e-05, 3.65738495e-04,
          5.35222585e-04, 5.10371756e-04, 2.01569375e-04, 1.01257261e-04,
          -1.10514942e-04, 1.45280166e-04, 2.06128592e-04,
          -1.00054211e-04, -4.55223490e-05, -1.90943974e-04,
          -1.55003960e-04, -4.62989119e-05, 2.48864217e-05,
          1.81689495e-04, -3.71522256e-05, -2.52639438e-04,
          -4.19082964e-04, -4.12594207e-04, -3.75304138e-04,
          1.40779448e-04, 2.27892728e-04, 8.64425965e-05, 5.87809191e-05,
          1.40540229e-04, -1.11655427e-04, 1.14851100e-04,
          -1.76158035e-04, -2.16158063e-04, -2.38704204e-04,
          -3.36271332e-04, -1.96509092e-04, 2.39800473e-04,
          3.84496438e-04, 5.34573977e-04, 3.22611304e-04, 7.33098423e-05,
          -2.86743772e-04, -1.73054985e-04, 1.63831312e-04,
          2.12722283e-04, 1.86065154e-05, -5.83795918e-05,
          3.23556415e-05, -2.15173004e-05, 3.39194085e-05,
          9.70726906e-05, -2.23038849e-04, -4.87166806e-04,
          -6.59171434e-04, -5.69973956e-04, -5.96076075e-04,
          2.31716214e-04, 2.34112420e-04, 4.25844395e-04, 2.83120957e-04,
          2.49141420e-04, -4.71608982e-05, -7.83113064e-05,
          -4.46974533e-04, -6.69686822e-04, -7.32012850e-04,
          -9.22056381e-04, -5.48013020e-04, -1.81716692e-04,
          8.85627305e-05, 1.25986597e-04, 1.09160021e-04,
          -9.76533120e-05, -2.34149411e-04, -2.11517225e-04,
          -1.74939501e-04, -2.24158757e-05, -8.44304013e-05,
          -2.73506099e-04, -2.92110111e-04, -1.25490726e-04,
          -7.88500474e-05, 1.98911021e-05, -2.75626895e-04,
          -4.17815871e-04, -5.70771226e-04, -5.84554393e-04,
          -6.12402859e-04, 2.39550733e-04, 1.65026548e-04,
          5.84774185e-04, 4.71246021e-04, 1.62715049e-04,
          -1.23651786e-04, -1.32680798e-04, -5.16470405e-04,
          -6.75877149e-04, -9.54789808e-04, -1.17787858e-03,
          -7.97167129e-04, -2.89162679e-04, -3.61348357e-04,
          -1.04138118e-04, -1.46733655e-04, -1.30494547e-04,
          -3.30887051e-05, 1.55137415e-04, -1.26564264e-04,
          -2.17132023e-04, -5.27262964e-05, -3.49102658e-04,
          -1.35477094e-04, -7.79932234e-05, -2.48262018e-04,
          -2.07590594e-04, -3.68189532e-04, -3.46342480e-04,
          -3.96550837e-04, -5.11378632e-04, -5.96423692e-04,
          2.59387976e-04, -8.95568064e-06, 6.75285584e-04,
          5.40619832e-04, 3.09702504e-04, -5.38366730e-05,
          -1.85324796e-04, -5.53010963e-04, -7.61119125e-04,
          -8.78423103e-04, -9.86679923e-04, -7.08508887e-04,
          -5.01969131e-04, -5.29930927e-04, -1.67678518e-04,
          3.17460253e-05, -9.82659230e-07, 3.49308211e-05,
          -9.78437220e-06, -9.75259172e-05, -7.37806113e-05,
          -9.61705518e-05, -3.83065162e-05, 7.79976617e-05,
          2.68268312e-04, 1.47676663e-04, 1.77880705e-04,
          -2.17408306e-05, -1.18940086e-04, -2.13915235e-04,
          -2.28643912e-04, -1.54051973e-04, 2.02405732e-04,
          -1.84387201e-04, 5.39140834e-04, 4.42894903e-04,
          4.51218977e-04, 2.95462087e-04, -1.01869337e-04,
          -2.51473597e-04, -6.91688969e-04, -7.27898907e-04,
          -6.00013358e-04, -7.03842321e-04, -4.51199739e-04,
          -4.44046047e-04, -1.87517900e-04, -1.41719247e-05,
          2.32795646e-04, 1.64926369e-05, 6.73615286e-05,
          -4.96626453e-05, 1.45304351e-04, 8.29641504e-05,
          6.26970286e-05, 1.46533799e-04, 1.73146866e-04, 1.91385232e-04,
          3.66480439e-04, 2.34742925e-04, 1.77138150e-04, 1.44217702e-04,
          8.44743481e-05, 2.38565874e-04, 2.46668089e-04,
          -8.71759476e-05, 6.05260488e-04, 5.08927042e-04,
          3.33201897e-04, 2.35263087e-05, 3.42311687e-04,
          -6.17665355e-05, -3.82541592e-04, -3.43720021e-04,
          -4.58215305e-04, -4.23217454e-04, -4.03395155e-04,
          -3.66864930e-04, -1.77666763e-04, 1.04707913e-04,
          2.27661119e-04, 3.31344869e-04, 4.29476931e-04, 8.27942058e-05,
          -7.14319103e-05, 3.87903383e-05, 5.47895324e-05,
          3.00190033e-04, 9.31922114e-05, 1.87057376e-04, 4.19842254e-04,
          4.32280533e-04, 3.38733691e-04, 9.54224524e-05, 3.70956608e-04,
          5.31905331e-04, 2.11737424e-04, -2.07693825e-04,
          3.39426042e-04, 2.55905208e-04, 1.90938561e-04, 2.71669251e-05,
          1.70866508e-04, 9.19930753e-05, -2.04164768e-04,
          -1.05671352e-04, -2.68666889e-04, -1.61286458e-04,
          -2.48984376e-04, -5.14922503e-05, 2.30769892e-05,
          5.84590271e-05, 5.48535900e-04, 3.53265175e-04, 2.81711371e-04,
          1.56823487e-04, 1.03235929e-04, 2.08150959e-04, 3.88978107e-04,
          2.02734896e-04, 4.02926991e-04, 4.60652460e-04, 6.21772022e-04,
          4.08288935e-04, 3.26253503e-04, -2.83840291e-05,
          2.93041347e-04, 5.42045862e-04, 1.67728256e-04,
          -3.16198391e-04, 3.70284833e-04, 3.05037771e-04,
          -5.60306762e-05, -1.40127449e-04, 6.17096448e-05,
          -2.14123738e-05, 2.45101401e-04, 4.28969870e-05,
          -2.91538978e-04, -2.09921374e-04, -1.72964399e-04,
          2.68541975e-04, 5.10410697e-04, 6.32737007e-04, 4.18219774e-04,
          1.27080493e-05, 4.89371632e-05, 4.19108655e-05, 3.08628427e-04,
          5.37107815e-04, 3.54259188e-04, 1.54099413e-04, 3.62693390e-04,
          5.19350462e-04, 7.04760023e-04, 3.68854526e-04, 1.87811907e-04,
          -1.94411710e-04, 1.22921250e-04, 2.67474417e-04,
          3.14265984e-04, -2.19647103e-04, 4.36640024e-04,
          4.14997688e-04, -1.67554957e-04, -2.31185579e-04,
          1.04618584e-05, -3.13440942e-05, 2.23569063e-04,
          3.54142918e-04, 2.65723706e-04, -4.72247984e-06,
          -1.24468599e-04, 2.82216613e-04, 4.97351924e-04,
          3.97091586e-04, -2.45655334e-04, -2.20514165e-04,
          -1.58188734e-04, 1.55340924e-04, 2.99760839e-04,
          3.26369423e-04, 3.68215056e-04, 1.91406230e-04, 3.29496077e-04,
          6.46490837e-04, 7.39724550e-04, 3.39419406e-04, 9.75272633e-05,
          -4.00867684e-05, 2.45248782e-04, 1.28581567e-04,
          2.33668849e-04, -3.14277393e-04, 3.32959869e-04,
          2.26311342e-04, -3.92598740e-04, -5.36911015e-04,
          -3.60811478e-04, -1.66243015e-04, 5.09820529e-05,
          1.46278355e-04, 4.84638258e-05, 8.98661674e-05, 2.10797385e-04,
          5.05454198e-04, 8.81273358e-04, 6.36361074e-04, 3.88659915e-04,
          1.68982544e-04, 6.36419936e-05, -6.54164614e-05,
          1.51587548e-04, 4.75396228e-04, 4.50500986e-04, 6.42683473e-04,
          4.28118539e-04, 5.45080227e-04, 3.77424527e-04,
          -3.84997511e-05, -1.51400280e-04, 5.98275219e-05,
          2.49420991e-04, 1.10522786e-04, 1.99854330e-04,
          -2.61424109e-04, 4.57289221e-04, 2.39643574e-04,
          -4.23083984e-04, -7.47549231e-04, -3.77990160e-04,
          -2.51760648e-04, -2.67712661e-04, -5.06302713e-05,
          5.34856590e-05, 5.18175511e-05, 1.74317247e-04, 6.07910100e-04,
          5.47334610e-04, 5.87507202e-05, -1.58564944e-04,
          -4.86444560e-06, -6.26187830e-05, 2.28370656e-04,
          4.64793993e-04, 6.54551608e-04, 7.49139755e-04, 5.66597329e-04,
          6.29665039e-04, 3.29048868e-04, -2.37396052e-05,
          -2.56786327e-04, -2.30557256e-04, -2.62905469e-05,
          1.62294193e-04, 3.19839019e-04, 1.65500693e-04,
          -2.65089911e-04, 4.13785194e-04, 1.43427562e-04,
          -4.11321264e-04, -8.91700271e-04, -4.55484347e-04,
          -4.57421440e-04, -1.40922712e-04, -1.32232250e-04,
          8.24698582e-05, 7.88314137e-05, 3.42965970e-04, 7.54253415e-04,
          3.65802960e-04, 4.45771206e-04, 4.00146266e-04, 3.28626600e-04,
          3.42811254e-04, 3.91349109e-04, 5.12133411e-04, 7.14300317e-04,
          5.97043661e-04, 5.26619609e-04, 4.90821840e-04, 2.41064394e-04,
          -1.08427550e-04, -2.35010506e-04, -1.58559167e-04,
          -1.03877494e-04, 1.08779437e-04, 4.84634773e-04,
          -1.57878647e-04, -1.65005811e-04, 5.65140683e-04,
          2.56543281e-04, -4.00602177e-04, -1.02089439e-03,
          -7.57034810e-04, -4.11102752e-04, -2.53889215e-04,
          6.51358505e-06, -2.24022995e-04, -3.04686662e-04,
          2.81478424e-04, 8.45566625e-04, 5.82048611e-04, 4.14428127e-04,
          3.57983256e-04, 3.08857649e-04, 3.11665674e-04, 3.59834259e-04,
          7.19695585e-04, 6.37167017e-04, 4.39803873e-04, 5.27035969e-04,
          2.07270132e-04, 3.20647698e-04, 4.30782711e-06,
          -8.49439966e-05, 9.91219858e-05, 1.73843466e-04,
          3.43602587e-04, 5.67280862e-04, -2.15997366e-04,
          -2.03818228e-04, 3.89230438e-04, 1.55221074e-04,
          -4.26738785e-04, -9.96350194e-04, -1.15261064e-03,
          -9.13123076e-04, -5.23230236e-04, -3.32597323e-04,
          -2.04486991e-04, -2.39812012e-04, 3.35391436e-04,
          7.17044051e-04, 6.13037031e-04, 7.24075653e-04, 5.19240682e-04,
          4.26236627e-04, 1.89129278e-04, 4.48685350e-05, 4.91602113e-04,
          4.41905024e-04, 3.66738241e-04, 4.14269045e-04, 1.98694048e-04,
          6.89889639e-05, 1.60303083e-04, 5.36464759e-05, 2.08378740e-04,
          2.19242298e-04, 9.30946262e-05, 3.63881481e-05,
          -4.80570052e-05, -3.23101645e-04, 2.08385114e-04,
          6.88745931e-05, -5.23217313e-04, -1.05060951e-03,
          -1.13501644e-03, -1.11838861e-03, -9.56915726e-04,
          -5.86115813e-04, -5.35376836e-04, -3.02682718e-04,
          1.34614209e-04, 6.03748136e-04, 6.20176783e-04, 6.49615191e-04,
          4.89295693e-04, 3.47638066e-04, 3.66243505e-04, 5.13209554e-04,
          6.72438298e-04, 3.12400487e-04, 5.04743330e-05, 1.66509548e-04,
          -1.18033604e-04, -1.55702946e-05, 1.61782737e-04,
          -5.01470458e-05, 2.34988634e-04, 1.94019012e-04,
          2.52068625e-04, -1.46080667e-04, 1.49567335e-04,
          -3.08766059e-04, 1.75899200e-04, 3.05565372e-05,
          -7.12560024e-04, -1.20168924e-03, -1.08740560e-03,
          -1.10802182e-03, -9.73127608e-04, -8.03864095e-04,
          -5.35646977e-04, -5.41975081e-04, 1.40794960e-04,
          5.37878892e-04, 5.85334317e-04, 5.11589169e-04, 1.43107507e-04,
          -6.18054473e-05, 7.73122520e-05, 1.50291249e-04,
          3.33761447e-04, 2.02319818e-04, 1.76837755e-04, 1.39553260e-04,
          7.95744854e-05, 2.79934349e-04, 1.62147291e-04, 1.59365460e-04,
          9.17069992e-05, 2.26716744e-04, 4.19787568e-04,
          -4.17342890e-05, 6.76396594e-05, -3.61188810e-04,
          1.64333062e-04, 4.08498890e-05, -7.70551094e-04,
          -1.26292882e-03, -1.19365344e-03, -1.24414230e-03,
          -1.14262837e-03, -9.79780103e-04, -8.49749893e-04,
          -7.22148805e-04, -7.45759244e-05, 2.25417680e-04,
          4.24532860e-04, 1.02951068e-04, 1.80384246e-04, 7.14135240e-05,
          1.07560962e-04, 1.63863137e-04, 2.38769207e-04, 1.24781916e-04,
          -8.93741744e-05, -1.43408215e-05, -6.07123293e-05,
          -1.39325901e-04, 6.41135412e-05, 1.43951140e-04,
          1.97236121e-04, 1.59744202e-04, 3.99000011e-04, 5.24530333e-05,
          -1.02303879e-04, -4.24502563e-04, 1.91653135e-06,
          -2.63807251e-05, -6.79169199e-04, -1.17881165e-03,
          -1.17545051e-03, -1.26697577e-03, -1.19805685e-03,
          -9.75652365e-04, -9.35138261e-04, -7.42099422e-04,
          -4.72667016e-04, -4.28471367e-06, 2.09807389e-04,
          2.06299446e-05, 4.26517217e-05, -3.25505134e-05,
          -2.70761608e-04, -3.43832944e-04, -1.84500008e-04,
          -2.26310367e-04, -4.04961407e-04, -1.09555942e-04,
          -1.29644235e-04, -3.00567044e-04, -1.96550900e-05,
          -8.56009501e-05, -5.96693753e-05, -1.14963450e-05,
          1.34014525e-04, -8.85585978e-05, -3.53818119e-04,
          -5.30638732e-04, -1.82451768e-04, -1.19243465e-04,
          -5.93376812e-04, -1.23672478e-03, -1.30480039e-03,
          -1.39313436e-03, -1.26866857e-03, -9.57733952e-04,
          -8.86495109e-04, -6.19131606e-04, -4.88723279e-04,
          -1.33397902e-04, 1.62770259e-04, 1.53412329e-04,
          3.19590385e-04, 3.90392706e-05, -2.98478662e-05,
          -1.28756670e-04, -1.65734513e-04, -2.09387712e-04,
          -3.41613428e-04, -1.78324728e-04, -4.87455736e-06,
          -4.62871176e-05, -5.15729807e-05, -8.41129731e-05,
          -1.19180680e-04, 2.26520460e-05, -2.31388389e-04,
          -3.81516234e-04, -7.99409056e-04, -7.26563449e-04,
          -3.16156773e-04, 3.71681926e-05, -1.37548850e-04,
          -7.11627770e-04, -7.98840891e-04, -8.78923223e-04,
          -7.33426539e-04, -4.69897088e-04, -2.83187983e-04,
          -1.50112261e-04, -5.12430743e-05, -8.16105821e-05,
          4.10639070e-04, 6.18920487e-04, 6.25609304e-04, 4.15312621e-04,
          5.77270403e-04, 3.05438385e-04, 2.15153617e-04, 1.34155387e-04,
          -3.45901353e-05, -1.04040198e-04, -6.65279513e-05,
          -1.41876677e-04, -8.46939365e-05, -6.75161573e-05,
          2.05589648e-04, 1.09224988e-04, -1.37991592e-04,
          -2.08725905e-04, -7.95840984e-04, -6.53774070e-04,
          -3.04859044e-04, 1.30874731e-04, 5.17033441e-05,
          -2.44701601e-04, -1.24150392e-04, -7.06650972e-05,
          4.35843776e-06, -2.26131451e-04, -4.65696736e-04,
          -3.37894191e-04, -2.57682812e-04, -6.05666282e-05,
          1.65904916e-04, 6.10566873e-04, 7.67078775e-04, 5.95791207e-04,
          1.81426556e-04, -6.26418332e-05, 3.04614252e-04,
          2.56762112e-04, -1.15649054e-04, -7.77182213e-05,
          1.33000349e-05, 1.17557305e-04, -1.65369347e-04,
          -1.01285957e-04, 7.66106023e-05, -1.87846454e-04,
          -1.60381809e-04, -1.44892474e-04 ]
      - [ 1.61040734e-04, -9.08805014e-05, 4.47689672e-04,
          5.56885323e-04, 8.45551083e-04, 1.01528538e-03, 9.70813853e-04,
          9.69648594e-04, 5.89960429e-04, 2.83391040e-04, 1.84845863e-04,
          -1.56483569e-04, -4.08628839e-04, -3.52854317e-04,
          -5.07209741e-04, -1.00397295e-03, -8.16574320e-04,
          -8.74004676e-04, -7.17308722e-04, -4.10603418e-04,
          -3.38863581e-04, -4.26911371e-04, -6.38592930e-04,
          -5.46831230e-04, -6.17227226e-04, -5.08862664e-04,
          -3.04930902e-04, -1.98824724e-04, -4.59251052e-04,
          -4.81732655e-04, 8.23044611e-05, -1.70669577e-04,
          -4.18191048e-04, -4.64669196e-04, 2.13550215e-04,
          3.05484369e-04, 7.23085468e-05, 2.26545977e-04, 3.69508722e-04,
          7.07021507e-04, 4.64376906e-04, 4.94454755e-04, 1.74618763e-04,
          -1.12671980e-04, -2.50252575e-04, -4.72026033e-04,
          -6.62444625e-04, -7.43963872e-04, -7.13776913e-04,
          -5.75817074e-04, -3.25024332e-04, -1.34959118e-04,
          -1.69171733e-04, -3.25471134e-04, -5.42596972e-04,
          -5.50493773e-04, -5.79962216e-04, -4.37228475e-04,
          -3.84421583e-04, -4.38222749e-04, -4.93231346e-04,
          -4.85346187e-04, -3.56850360e-04, -3.68742360e-04,
          -5.08715806e-04, -1.87628422e-04, 6.05624984e-04,
          6.92290778e-04, 4.62915457e-04, 7.15629780e-04, 7.86537246e-04,
          1.01442670e-03, 9.70495341e-04, 1.05579151e-03, 7.65265548e-04,
          5.27539058e-04, 3.82440194e-04, 7.88884281e-05,
          -1.24531289e-04, -1.45919403e-05, 9.09108494e-05,
          1.65290432e-04, 2.17859342e-04, 4.20229801e-04, 5.41458896e-04,
          4.68609476e-04, 1.57886912e-04, 9.00493687e-05,
          -1.21024961e-04, -2.41807011e-05, -4.98595364e-06,
          -1.28115324e-04, -3.44248292e-05, 2.09554673e-05,
          -1.55549656e-04, 1.69598832e-04, -4.51524131e-04,
          -2.76546431e-04, -1.10084598e-04, -7.35334470e-06,
          -1.53398243e-04, 4.17718402e-05, 7.17750299e-05,
          3.35778604e-04, 3.42823594e-04, 3.52342293e-04,
          -5.77838036e-05, -2.67619645e-04, -2.66581017e-04,
          -1.21448531e-04, -2.21819602e-04, -2.35366766e-04,
          -2.04595781e-04, -1.35715571e-04, -1.15062001e-04,
          -6.38299316e-05, -1.44319958e-04, -7.11332032e-05,
          -2.86803261e-04, -3.27683461e-04, -5.46935597e-04,
          -4.88427700e-04, -3.74903088e-04, -3.40912055e-04,
          -4.15418996e-04, -2.25338052e-04, -4.28364583e-04,
          2.57255684e-04, -2.83615555e-05, -2.14601096e-05,
          1.44791757e-05, 8.65606053e-05, -9.57664088e-05,
          2.17593551e-05, 6.87432257e-05, 5.02885996e-05, 2.61021691e-04,
          2.61383917e-04, -9.46520086e-05, -3.39071412e-04,
          -3.43531050e-04, -5.93303885e-05, -5.07530713e-05,
          -5.04255731e-05, -2.52222471e-05, 4.56545713e-05,
          9.36596916e-05, 5.78646404e-06, -1.50017688e-04,
          -1.04163679e-04, -1.79355018e-04, -2.65745330e-04,
          -5.56985149e-04, -5.62752888e-04, -4.76319605e-04,
          -3.97145981e-04, -4.32111789e-04, -3.39937716e-04,
          -4.71846288e-04, 1.25600462e-04, 1.30484215e-04,
          -3.98770608e-05, -1.30696892e-04, -1.76158471e-06,
          -1.32062050e-04, -1.07929634e-04, -8.18976696e-05,
          -4.94623637e-05, 1.53353802e-04, 2.71236233e-04,
          -1.07073167e-04, -2.55164574e-04, -2.20495494e-04,
          -8.96319216e-06, 7.16938739e-05, -3.40855422e-06,
          -8.74398393e-06, -1.78316059e-05, 5.18760171e-05,
          -2.67819796e-05, -1.82173360e-04, -1.54332170e-04,
          -8.20324203e-05, -2.89283140e-04, -4.15549031e-04,
          -4.43363737e-04, -4.11335059e-04, -3.82278580e-04,
          -5.10254991e-04, -4.39102470e-04, -4.52820823e-04,
          9.79824108e-05, 2.82147172e-04, 1.69280684e-04, 1.67568178e-05,
          -4.78766160e-05, -2.01410527e-04, -2.78017615e-05,
          2.42359733e-04, 2.08164420e-04, 1.45550293e-04, 2.68328877e-04,
          6.72713359e-05, -4.62170174e-05, 2.11982115e-05,
          1.44235419e-05, 1.43379628e-04, 2.61979993e-04, 1.93482934e-04,
          2.00851879e-04, 1.33361784e-04, 2.10849194e-05, 2.23026018e-06,
          -9.51529785e-07, -6.71451053e-05, -3.13178520e-04,
          -3.02193628e-04, -4.12808702e-04, -4.19113610e-04,
          -4.73216729e-04, -5.13108273e-04, -4.00642341e-04,
          -3.39646765e-04, 2.25176525e-04, 4.42913988e-05,
          -7.85049415e-05, 2.16893546e-04, -5.79162843e-05,
          -2.06238823e-04, 8.62390152e-05, 2.22403629e-04,
          1.48579391e-04, 1.40059448e-04, 5.64849215e-05, 1.96641573e-04,
          3.35720077e-04, 2.39400702e-04, 3.39979684e-04, 4.14570270e-04,
          5.05526201e-04, 2.41563102e-04, 3.20912426e-04, 3.17005499e-04,
          1.23352045e-04, -3.43168813e-06, -1.00434394e-04,
          -1.80650441e-05, -1.15739131e-04, -2.90708471e-04,
          -2.36010295e-04, -3.56957346e-04, -4.13274189e-04,
          -4.57589689e-04, -4.05839266e-04, -5.10598416e-04,
          2.96642072e-04, 1.37167095e-04, 1.20975841e-04, 4.88789519e-04,
          2.42266128e-06, -1.96014546e-04, 8.70361255e-05,
          1.25117760e-04, 1.12210670e-04, 1.35310693e-04, 3.41778577e-05,
          8.83870234e-05, 3.20860010e-04, 3.27740185e-04, 5.27800352e-04,
          6.65797677e-04, 4.02689737e-04, 2.96732964e-04, 2.71355791e-04,
          2.63982511e-04, 6.75476040e-05, -6.49116828e-06,
          2.25087024e-05, 1.33067961e-05, -4.24109967e-05,
          -2.60452671e-05, -6.89653316e-05, -1.88750681e-04,
          -2.09094476e-04, -3.38900310e-04, -2.91636708e-04,
          -3.08578659e-04, 2.41475253e-04, 4.04413411e-04,
          2.82533641e-04, 5.26080548e-04, 2.03271993e-05,
          -9.48776869e-05, 1.31148467e-04, 1.52728739e-04,
          1.12558926e-04, 1.12264112e-04, 6.66823544e-05, 1.57509821e-05,
          2.33871993e-04, 3.61299200e-04, 3.13451106e-04, 5.53763763e-04,
          4.10668115e-04, 3.06228292e-04, 3.04262823e-04, 1.53821893e-04,
          6.22173684e-05, -3.92673210e-05, -7.42465199e-05,
          -6.57905985e-05, -2.24076812e-05, 1.88363611e-05,
          6.63344508e-06, -1.95533157e-05, -3.28876085e-05,
          -1.79342955e-04, -2.67475436e-04, -2.82177090e-04,
          3.49194393e-04, 5.31756959e-04, 5.30191290e-04, 6.41971768e-04,
          7.74048021e-05, 2.39988130e-05, 1.27026404e-04, 2.94022349e-04,
          2.76277715e-04, 3.02768691e-04, 2.21367110e-04,
          -7.29930834e-05, 1.82374468e-04, 3.79555306e-04,
          3.86008411e-04, 4.03605227e-04, 2.16952671e-04, 6.53799507e-05,
          4.07701646e-06, 4.59123439e-05, -1.51636894e-04,
          -1.29619904e-04, 7.21604956e-05, 5.57520389e-06,
          4.17014271e-05, -1.99646602e-04, -1.39370022e-04,
          -6.92440954e-05, 1.18216694e-05, -8.31857615e-05,
          -1.79974479e-04, -2.41539165e-04, 3.95188632e-04,
          4.17308649e-04, 2.76603882e-04, 5.48876997e-04, 1.83919605e-04,
          -3.37765232e-05, 6.88304790e-05, 1.70866493e-04,
          2.17444191e-04, 3.22277629e-04, 2.93454301e-04, 1.17093718e-04,
          1.67524820e-04, 4.48186329e-04, 4.36052476e-04, 3.67718749e-04,
          1.50657361e-04, 2.06370038e-04, 6.39125865e-05,
          -3.02473582e-05, -1.34710339e-04, -1.18869524e-04,
          -3.74260185e-06, -1.07188745e-04, -7.03661935e-05,
          -2.23377821e-04, -1.81563169e-04, -1.90239924e-04,
          -1.12319294e-05, 2.55515552e-05, -3.07005466e-05,
          -2.49045057e-04, 2.29237907e-04, 1.99327784e-04,
          3.44428961e-04, 5.49364951e-04, 4.10339358e-04, 1.63912220e-04,
          7.26812868e-05, 3.66516724e-05, 1.41807541e-04, 2.66049348e-04,
          3.22033331e-04, 1.81654832e-04, 2.58573884e-04, 3.38319689e-04,
          4.80393734e-04, 3.36652622e-04, 1.95134431e-04, 1.50922759e-04,
          -5.37054757e-06, -1.31923502e-04, -2.06582088e-04,
          -2.03515840e-04, -1.89697967e-04, -2.76772858e-04,
          -1.90056526e-04, -1.31017689e-04, -1.31402325e-04,
          -1.87361875e-04, -2.79028027e-05, 1.14696450e-05,
          3.21922671e-05, -9.95183145e-05, 2.56145606e-04,
          2.50319397e-04, 4.42233984e-04, 7.85471406e-04, 4.00319725e-04,
          9.96743256e-05, 1.38279473e-04, -1.73326189e-05,
          2.03304939e-04, 2.84787908e-04, 2.58825661e-04, 1.22555619e-04,
          1.20141107e-04, 2.92814424e-04, 4.34126414e-04, 4.04893362e-04,
          2.32043240e-04, 2.25266966e-04, 2.25356212e-04, 1.20978162e-04,
          2.63485363e-05, 6.35960096e-05, 4.95830500e-05,
          -1.13269969e-04, -1.12971211e-04, -2.22141738e-04,
          -1.25469145e-04, -6.98080039e-05, -3.54379954e-05,
          -1.99646402e-05, 1.04363127e-04, 8.17762630e-05,
          4.17356030e-04, 3.10323987e-04, 4.40254604e-04, 6.26122055e-04,
          2.92686134e-04, 1.71025735e-04, 1.98139853e-04, 6.39596547e-05,
          1.78884235e-04, 2.35905434e-04, 1.92816529e-04, 1.13312875e-04,
          1.49971529e-04, 2.28948760e-04, 3.99642566e-04, 5.31142054e-04,
          3.05742287e-04, 3.35668912e-04, 3.95495998e-04, 5.56077866e-04,
          4.25119710e-04, 2.98675150e-04, 2.38689427e-05,
          -2.02394258e-05, -3.48260910e-05, 1.73779936e-05,
          1.36326853e-04, 1.13124697e-04, 9.62329577e-05, 9.47004810e-05,
          1.31743553e-04, -6.56071779e-06, 3.06618225e-04,
          2.41208880e-04, 3.04655376e-04, 4.47065628e-04, 3.04418441e-04,
          2.22540359e-04, 3.78170807e-04, 2.63009424e-04, 1.27290215e-04,
          3.51555849e-04, 1.57652306e-04, 1.76177520e-04, 2.47600488e-04,
          3.43880762e-04, 5.11359714e-04, 4.73625376e-04, 3.19566170e-04,
          2.64736329e-04, 3.39730905e-04, 5.60231507e-04, 6.34562224e-04,
          3.17663129e-04, 3.10772884e-05, 4.58795803e-05, 1.79479655e-04,
          1.47360930e-04, 9.65617728e-05, 6.51704759e-05, 1.12476002e-04,
          6.80919475e-05, 9.15539131e-05, -4.35024594e-05,
          3.41945764e-04, 1.07560882e-04, 4.15506016e-04, 3.32294905e-04,
          1.75608497e-04, 1.39164491e-04, 1.80201663e-04, 3.23239859e-04,
          1.49146610e-04, 3.79033008e-04, 2.63898866e-04, 2.33315688e-04,
          1.60515061e-04, 1.79694340e-04, 5.50517696e-04, 5.86172740e-04,
          4.27258638e-04, 2.87817878e-04, 3.88524699e-04, 4.76943649e-04,
          5.89243777e-04, 4.41403216e-04, 1.25484919e-04, 6.27395129e-05,
          3.39410726e-05, -1.72571381e-05, 6.10958814e-05,
          1.20564786e-04, -1.80128136e-05, -7.79701877e-05,
          -3.30738876e-05, 9.45633074e-05, 4.33188456e-04,
          3.21788975e-04, 4.09664965e-04, 2.34402556e-04, 2.28537698e-04,
          1.94717039e-04, 1.99508475e-04, 2.35412153e-04, 1.84557444e-04,
          4.08406893e-04, 3.25848639e-04, 1.64987505e-04, 8.24643284e-05,
          1.74653396e-04, 5.30755089e-04, 4.79049049e-04, 3.55155789e-04,
          3.77831224e-04, 4.79856913e-04, 4.90341277e-04, 4.25754697e-04,
          3.44497908e-04, 2.61930923e-04, 3.34287179e-04, 1.51943750e-04,
          1.09482549e-04, 1.05233339e-04, 1.62781071e-04, 8.14378145e-05,
          6.18370032e-05, -3.23276799e-05, 3.45932785e-05,
          3.84684769e-04, -2.15220171e-05, 2.96690268e-04,
          1.90357416e-04, 7.34630012e-05, -3.31447973e-06,
          1.89219951e-04, 2.06266224e-04, 4.10407883e-05, 1.43861325e-04,
          3.10568168e-04, 3.31624207e-04, 2.22817645e-04, 2.06067140e-04,
          3.41177569e-04, 5.44787617e-04, 5.14448795e-04, 5.49562625e-04,
          4.72483167e-04, 5.23337047e-04, 3.99341923e-04, 4.14793263e-04,
          4.63135773e-04, 5.29230048e-04, 3.50573449e-04, 2.24827716e-04,
          2.26891963e-04, 2.38515495e-04, 5.70172961e-05,
          -4.58513059e-05, -1.23465987e-04, 2.26233988e-05,
          4.34361573e-04, -1.28018248e-04, 1.27846244e-04,
          2.09812453e-04, 7.33086417e-05, -1.27671752e-04,
          8.70033109e-05, 1.19053126e-04, 8.33094527e-05, 1.86468795e-04,
          3.06128728e-04, 4.59624658e-04, 3.64618754e-04, 3.02469241e-04,
          3.25040193e-04, 5.19010995e-04, 3.84780113e-04, 4.71771695e-04,
          4.50609310e-04, 4.51101980e-04, 5.01939328e-04, 4.65940568e-04,
          4.62579541e-04, 5.50738012e-04, 3.89276625e-04, 2.13969237e-04,
          1.81206997e-04, 6.55812109e-05, -3.40084407e-05,
          -1.32831810e-05, 3.50235700e-06, -1.95657500e-04,
          2.26997672e-05, -1.20410608e-04, 3.53552488e-04,
          9.70699693e-05, -5.89299379e-05, -2.26231961e-04,
          6.16972829e-05, 1.77964248e-04, 1.21498728e-04, 2.58322922e-04,
          9.88626125e-05, 2.99623760e-04, 3.34886863e-04, 3.53463489e-04,
          4.27491090e-04, 5.04234573e-04, 3.67341185e-04, 3.66691558e-04,
          3.26948502e-04, 5.28902805e-04, 5.83275454e-04, 4.64553508e-04,
          3.98499367e-04, 3.70022783e-04, 3.68091598e-04, 1.14790484e-04,
          4.20471952e-05, -1.15500443e-04, -2.42562062e-04,
          -2.14795320e-04, -1.62808923e-04, -3.08133254e-04,
          6.09663075e-05, -2.77596264e-04, 5.94611105e-04,
          3.76840879e-04, -1.38691990e-04, -2.48004711e-04,
          4.39931173e-05, 5.68984542e-05, 3.67103858e-05, 1.15791692e-04,
          -7.43386190e-05, 3.65549458e-05, 1.66912971e-04,
          2.14948668e-04, 2.84009991e-04, 3.17634927e-04, 3.81210906e-04,
          3.15159530e-04, 4.49276849e-04, 5.40329376e-04, 6.31484494e-04,
          4.82809643e-04, 3.71699163e-04, 4.51072876e-04, 3.68160894e-04,
          1.28750617e-04, -8.26872783e-05, -2.23890442e-04,
          -2.60466099e-04, -2.08611804e-04, -1.39919197e-04,
          -2.55622261e-04, 3.34539072e-05, -5.99815859e-04,
          2.62480957e-04, 2.85605609e-04, -2.92457931e-04,
          -3.23348679e-04, -9.48189336e-05, -6.50430229e-05,
          -2.40721027e-04, -6.13586453e-05, -4.43246136e-05,
          -9.44581989e-05, 4.14983551e-05, 8.37799234e-05,
          6.57151322e-05, 1.17693016e-04, 2.31155194e-04, 3.40328290e-04,
          4.24782222e-04, 5.14100480e-04, 5.98243554e-04, 4.88971360e-04,
          5.14930638e-04, 4.84461896e-04, 3.19087558e-04, 2.88184710e-05,
          -1.29769163e-04, -2.25975760e-04, -3.41147941e-04,
          -2.96715240e-04, -1.76334550e-04, -1.75996349e-04,
          3.24524299e-04, -4.36977687e-04, 3.76605196e-04,
          1.15250317e-04, -4.44464124e-04, -4.09785571e-04,
          -1.34047150e-04, -2.04362397e-04, -3.47804598e-04,
          -2.54717568e-04, -5.07972291e-05, -1.32141970e-04,
          -7.61326592e-05, 1.80882300e-04, 2.43216040e-04,
          2.12459796e-04, 1.64665238e-04, 2.48817931e-04, 3.02969827e-04,
          3.72611074e-04, 5.64559305e-04, 5.00869064e-04, 4.95232816e-04,
          4.31284454e-04, 1.97784117e-04, 1.10066903e-04,
          -7.17238145e-05, -2.24072122e-04, -3.75503150e-04,
          -3.69044981e-04, -1.96613575e-04, -3.23741202e-04,
          1.76575428e-04, -8.24176299e-04, -4.67322097e-04,
          -4.38219606e-04, -6.12560776e-04, -5.92009281e-04,
          -3.00053915e-04, -2.96941667e-04, -2.89443764e-04,
          -3.11156327e-04, -2.15827487e-04, -1.25675346e-04,
          -1.25865146e-04, 5.55989027e-05, 6.25716493e-05,
          9.41223479e-05, 1.80306204e-04, 2.02480427e-04, 2.70956254e-04,
          2.53946811e-04, 3.73854593e-04, 5.64762624e-04, 5.87141782e-04,
          2.10356709e-04, 1.13144677e-04, -2.00691511e-06,
          -8.82319873e-05, -2.84818409e-04, -2.66228744e-04,
          -3.36451252e-04, -3.45001696e-04, -4.88628226e-04,
          -1.09033372e-05, -8.54119309e-04, -5.53108868e-04,
          -3.33980657e-04, -5.36709093e-04, -6.52964984e-04,
          -3.46653193e-04, -4.04985098e-04, -2.91435368e-04,
          -2.13494510e-04, -1.68768587e-04, -1.89843297e-04,
          -1.90926148e-04, 4.09141539e-05, 9.57905213e-05,
          9.52594419e-05, 5.63559952e-05, 1.13275280e-04, 1.22392696e-04,
          1.49813015e-04, 3.00370099e-04, 4.42428194e-04, 4.01086116e-04,
          6.96371944e-06, -1.40004908e-04, -2.37568645e-04,
          -2.35269486e-04, -4.16488503e-04, -6.78063487e-04,
          -7.51910789e-04, -6.26191322e-04, -6.67896238e-04,
          -5.08272031e-04, -7.94286374e-04, -7.72868167e-04,
          -5.22364397e-04, -7.17652030e-04, -9.81021323e-04,
          -6.44557294e-04, -5.04784752e-04, -3.34623008e-04,
          -3.40891740e-04, -2.95422011e-04, -3.07083363e-04,
          -2.89779709e-04, -2.56767729e-04, -2.24591437e-04,
          -2.89596879e-04, -3.45704088e-04, -2.62076883e-05,
          7.72949079e-07, 1.77587171e-05, -1.01992810e-05,
          -4.45022706e-05, -4.79135088e-05, -2.45723728e-04,
          -3.83848033e-04, -4.08992870e-04, -4.28632164e-04,
          -6.71401562e-04, -6.72995811e-04, -7.43663695e-04,
          -6.21993910e-04, -5.75431506e-04, -3.91473994e-04,
          -7.19878823e-04, -4.79295821e-04, -6.29490067e-04,
          -7.26429222e-04, -1.09204801e-03, -7.17026647e-04,
          -5.79648186e-04, -4.90441162e-04, -3.78856086e-04,
          -3.59263504e-04, -2.79824832e-04, -3.20156134e-04,
          -3.25584610e-04, -4.45290701e-04, -4.50384890e-04,
          -5.09581703e-04, -4.04706952e-04, -4.09251050e-04,
          -2.65565759e-04, -2.20794958e-04, -2.24077550e-04,
          -2.26479446e-04, -2.28345787e-04, -3.49572801e-04,
          -6.30452705e-04, -6.59538957e-04, -7.62508309e-04,
          -7.38084433e-04, -8.32680729e-04, -8.28166609e-04,
          -7.12806184e-04, -3.67851928e-04, -4.16450581e-04,
          -2.04729702e-04, -5.40661626e-04, -6.39124191e-04,
          -1.06673012e-03, -7.00229313e-04, -4.37729177e-04,
          -4.16441530e-04, -4.29288659e-04, -4.50529187e-04,
          -5.61246532e-04, -5.92464639e-04, -6.67624816e-04,
          -5.99057414e-04, -6.16354460e-04, -7.07462605e-04,
          -6.26452267e-04, -6.72778464e-04, -5.33445796e-04,
          -4.20894532e-04, -3.59817059e-04, -4.12767637e-04,
          -3.90994363e-04, -5.66424394e-04, -7.12497451e-04,
          -8.35346524e-04, -9.23026877e-04, -8.88846931e-04,
          -9.05038847e-04, -7.28867133e-04, -6.94702263e-04,
          -5.05391916e-04, 1.09402194e-04, 1.90535022e-04,
          2.11718841e-04, -2.41341841e-05, -4.60147072e-04,
          -3.00177839e-04, -1.11038673e-04, -1.35236347e-04,
          9.95288974e-06, 1.25775856e-04, 1.25647348e-04, 1.74271918e-04,
          1.27171152e-04, 3.18240782e-04, 2.71721656e-04, 9.62567719e-05,
          2.56083935e-04, 1.84041448e-04, 2.44600407e-04, 1.83495067e-04,
          1.92621621e-04, 1.21235200e-04, 1.49092244e-04,
          -9.27694782e-05, -1.60087402e-05, -1.59381612e-04,
          -1.99693517e-04, -2.31555197e-04, -1.70088242e-04,
          -2.31093491e-05, -2.11241102e-04, -2.12945830e-04,
          1.01704558e-04, 2.92467623e-04, 2.79376574e-04,
          -2.88170530e-04, -7.37988856e-04, -6.82048441e-04,
          -4.83859912e-04, -4.62670927e-04, -2.93727178e-04,
          -2.17454435e-04, -1.07496635e-04, -7.16858267e-05,
          8.50791403e-05, 1.47725441e-04, 2.08440790e-04, 1.45731843e-04,
          7.72650455e-05, 9.77355667e-05, 9.70281690e-05, 4.21200311e-05,
          5.18189845e-05, 2.06414970e-05, 1.01015081e-04,
          -1.20716713e-05, -4.95442946e-05, -2.50380981e-04,
          -2.54164741e-04, -2.95309845e-04, -1.59944815e-04,
          -4.66311722e-05, 1.80301780e-04, 1.97331130e-04,
          -4.32246045e-04, -2.50399404e-04, 3.37703357e-04,
          -6.56959674e-05, -3.00951215e-04, -3.58902587e-04,
          -7.24771598e-05, 1.11938812e-06, 1.44871781e-04,
          -1.28611782e-05, -1.39722280e-04, 1.13328395e-04,
          1.75341658e-04, 2.17265551e-04, 1.27047519e-04, 1.75947382e-04,
          1.86190868e-04, 2.73052865e-04, 1.79958079e-04, 1.95346787e-04,
          1.74176632e-04, 9.69438406e-05, 1.65092177e-04, 9.14570264e-05,
          4.65667763e-05, -1.69591178e-04, -1.80851435e-04,
          -1.27740044e-04, -1.02592378e-04, -2.36089763e-04,
          -1.28750209e-04, -1.38471623e-05 ]
      - [ -1.30144821e-03, -9.02301457e-04, 1.69688661e-04,
          -4.65306279e-04, -6.03160297e-04, -7.17006333e-04,
          -9.82606667e-04, -7.63672462e-04, -1.14515377e-03,
          -9.65554733e-04, -4.08084801e-04, -3.93614464e-04,
          -2.55508319e-04, -1.74120403e-04, 2.82459718e-04,
          4.97472356e-04, 2.01555624e-04, 1.91191939e-04, 3.58338206e-04,
          2.40776688e-04, -4.04589460e-04, -8.21545545e-04,
          -1.00316794e-03, -1.04747526e-03, -1.47690310e-03,
          -1.19793229e-03, -1.28762587e-03, -5.33536891e-04,
          -2.76195409e-04, -5.54924132e-04, -1.19767047e-03,
          -1.38431287e-03, 1.44955731e-04, 2.84055277e-04,
          1.99885646e-04, -5.68419986e-04, -3.49008013e-04,
          -2.59179476e-04, 1.16242380e-04, -3.59147416e-05,
          -2.41683039e-04, 2.46468582e-04, 3.97275202e-04,
          4.25415667e-04, 5.45073999e-04, 8.07222154e-04, 8.90451716e-04,
          9.02391970e-04, 4.01750061e-04, 1.10937038e-03, 1.33010186e-03,
          1.14059483e-03, 5.05782198e-04, 4.80771378e-05,
          -2.02499068e-05, -1.86096135e-04, -1.87596626e-04,
          -2.39810630e-04, -5.28275326e-04, -5.58474931e-05,
          5.27826487e-04, 4.20961151e-04, -2.94031837e-04,
          -5.36210835e-04, -1.39364609e-04, 6.65067200e-05,
          -6.89094304e-04, -7.91444385e-04, -6.63380139e-04,
          -3.95635929e-04, -3.33677344e-05, -2.84992511e-05,
          1.17078773e-04, 4.78973670e-04, 3.85482650e-04, 2.74791091e-04,
          3.67191824e-04, 5.51574514e-04, 5.42698544e-04, 7.97984365e-04,
          9.20291233e-04, 1.52788043e-03, 1.45601982e-03, 1.13754615e-03,
          6.31189730e-04, 6.56346456e-05, -1.08558015e-04,
          -4.33913257e-04, -3.35596182e-04, -2.92070967e-04,
          -3.70424968e-04, -5.35981781e-05, 6.40347193e-04,
          4.74143395e-04, -3.98441771e-04, -3.01171298e-04,
          -4.28436761e-04, 3.20922845e-05, -4.96771187e-04,
          -3.34249635e-04, -2.26185744e-04, -3.24777095e-04,
          5.09280035e-05, 8.56328552e-05, 1.18612406e-04, 9.66707885e-05,
          1.73657390e-04, 5.21522161e-05, -2.18044297e-04,
          -5.39113011e-04, -1.43844038e-04, 8.57309788e-04,
          1.12065393e-03, 1.27235369e-03, 1.22513366e-03, 6.95555238e-04,
          2.03604955e-04, -1.38498857e-04, -4.27945226e-04,
          -6.77951961e-04, -6.96657342e-04, -4.63831588e-04,
          -3.51606199e-04, -1.37793017e-04, 2.60606350e-04,
          -2.48200929e-04, -9.65822954e-04, -6.11232768e-04,
          -1.98583090e-04, -8.23380178e-05, -5.62876870e-04,
          -6.28517810e-05, -9.58144446e-05, -1.81471391e-04,
          -7.68151149e-05, -2.51063437e-04, 1.11327725e-04,
          -6.73285613e-05, 2.04021446e-04, 2.67152558e-04,
          1.38334581e-04, -1.10175373e-04, 4.89996710e-05,
          5.93176112e-04, 7.51834421e-04, 6.01356558e-04, 6.75390707e-04,
          4.18204523e-04, -2.99094187e-04, -6.10443123e-04,
          -5.11488935e-04, -1.79116832e-04, -4.05000872e-04,
          -3.27178888e-04, -2.61569483e-04, 1.43759433e-04,
          4.82612057e-04, 5.19199093e-05, -6.12338656e-04,
          -8.80986627e-04, -1.45252474e-04, 2.18077694e-04,
          -5.20050584e-04, 5.43213428e-05, -3.27891939e-05,
          -5.99944287e-05, -2.48134347e-05, -2.65122304e-04,
          -1.02261401e-04, 8.68190618e-05, 8.15411331e-05,
          1.03858620e-04, -5.91561293e-05, 3.68027468e-05,
          2.60606146e-04, 5.39645611e-04, 5.16878732e-04, 4.22530342e-04,
          4.99361311e-04, 4.25937469e-04, 8.98553990e-05,
          -9.38098165e-05, -1.68952727e-04, -3.41789826e-04,
          3.22172476e-04, 2.13446590e-04, 1.01897145e-04, 1.76210509e-04,
          6.54606964e-04, 4.49679239e-04, -1.23155041e-04,
          -5.28069562e-04, -1.27213076e-04, 3.91724112e-04,
          -2.95863778e-04, -2.14769796e-04, 1.56731257e-04,
          1.19693585e-04, 1.65821373e-04, 3.39992475e-05,
          -2.05339253e-04, -4.80555027e-05, -6.08469345e-05,
          9.43186606e-05, -1.17536156e-05, -8.85300415e-06,
          -7.63256321e-05, 2.06580560e-04, 3.35559191e-04,
          2.38955763e-04, 2.82658730e-04, 3.46683722e-04, 2.01147559e-04,
          1.89185477e-04, 1.94989279e-05, -3.20794643e-04,
          4.88526130e-04, 5.91708813e-04, 3.46181012e-04,
          -7.76847592e-05, 4.61483403e-04, 3.69107613e-04,
          2.22762828e-05, 8.28332122e-05, -2.37785309e-04,
          3.73658637e-04, -1.26015468e-04, 2.71140219e-04,
          1.64993893e-04, 1.17400356e-04, -1.14057993e-05,
          3.87840148e-04, 1.98104826e-04, 1.91299492e-04, 1.82159536e-04,
          9.17194266e-05, 5.02466391e-05, -7.50494146e-05,
          -5.54773491e-04, -5.21732087e-04, -2.84762966e-04,
          -1.58696173e-04, 9.29282323e-05, 2.31080441e-04,
          2.13766689e-04, 4.07467014e-04, 1.77631548e-04, 2.44547031e-04,
          4.17639036e-04, 6.05610257e-04, 2.73023208e-04, 3.94687959e-05,
          6.41799590e-04, 5.44007693e-04, 1.17221207e-04,
          -2.14179654e-05, -7.17255461e-05, 2.58250133e-04,
          -1.08494814e-05, 4.88572812e-04, 2.09190010e-04,
          4.16933995e-04, 5.54957136e-04, 6.72116003e-04, 6.45534950e-04,
          4.45548096e-04, 3.67941480e-04, 1.84908306e-04, 4.54294895e-05,
          -4.92416730e-05, -1.43212659e-04, -4.74373461e-04,
          -3.29549395e-04, -5.89363917e-05, -1.38006042e-04,
          4.57685499e-04, 3.94401868e-04, 2.31742000e-04, 8.61659792e-05,
          4.55451773e-05, 2.45492847e-04, 4.99385525e-04, 4.06834261e-05,
          -1.59849471e-04, 3.48103989e-04, 4.13785136e-04,
          -3.89260022e-05, 4.57424467e-05, 7.79586044e-05,
          5.35737025e-04, 3.23199987e-04, 6.14717195e-04, 3.93346971e-04,
          4.86467005e-04, 6.53415918e-04, 6.10981078e-04, 4.76008106e-04,
          5.83830231e-04, 5.42845461e-04, 4.70583647e-04, 3.30916839e-04,
          2.10600250e-04, -5.83514193e-05, -5.79577929e-04,
          -3.80325830e-04, -3.41950654e-04, -4.88587539e-04,
          -2.27083379e-04, -7.69867620e-05, 1.50423817e-04,
          8.99842635e-05, 7.45040379e-05, 7.38234012e-05, 4.38264833e-04,
          2.36846565e-04, -9.46111904e-05, 2.28829158e-04,
          2.20020636e-04, -1.91254163e-04, -4.04376799e-04,
          6.22454536e-05, 6.73685397e-04, 6.30185532e-04, 3.74551455e-04,
          3.13863799e-04, 6.01064472e-04, 5.58167987e-04, 5.83049143e-04,
          3.83539445e-04, 7.61633390e-04, 7.33018736e-04, 5.54807601e-04,
          5.22480754e-04, 3.11333017e-04, -2.65378185e-04,
          -8.79007916e-04, -8.96706304e-04, -7.99397181e-04,
          -5.75389364e-04, -5.28667064e-04, -3.70071793e-04,
          -1.03925369e-04, 1.88680482e-04, 4.56203677e-04,
          1.13032060e-04, 3.56318953e-04, 2.55875464e-04,
          -2.50151134e-05, 8.30543868e-05, 1.17488024e-04,
          -2.86111026e-04, -6.11494295e-04, -2.76203296e-04,
          6.19694998e-04, 5.79736254e-04, 4.58629191e-04, 4.67833568e-04,
          6.15050667e-04, 5.49187942e-04, 3.82896891e-04, 4.76754183e-04,
          7.38490722e-04, 4.29088657e-04, 2.93652469e-04, 3.63215979e-04,
          2.83545553e-04, -1.84750650e-04, -5.52238082e-04,
          -5.87266637e-04, -7.88792677e-04, -7.91030878e-04,
          -9.99193406e-04, -7.49062747e-04, -3.85837659e-04,
          -1.73372682e-05, 3.09167692e-04, 1.11651243e-04,
          1.01047117e-04, 7.31618400e-07, -1.23547390e-04,
          -3.02363478e-05, 1.79243914e-04, -1.25906430e-04,
          -4.60794574e-04, 2.44527415e-04, 7.47022685e-04,
          7.09386833e-04, 7.40555348e-04, 6.00491825e-04, 7.67857651e-04,
          4.04400751e-04, 4.44571255e-04, 6.99309283e-04, 6.39008416e-04,
          1.97815651e-04, 2.90223892e-04, 3.60108621e-04, 2.27437617e-04,
          -1.24086757e-04, -2.58718559e-04, -7.96552049e-05,
          -4.55817382e-04, -6.63198240e-04, -1.17020367e-03,
          -1.00953248e-03, -6.80472469e-04, -3.82679777e-04,
          -4.28640196e-04, 1.29975160e-04, 1.56010239e-04,
          -1.98891962e-06, -2.08705183e-04, -4.52022432e-05,
          1.15965486e-04, -2.36633117e-04, -4.63178352e-04,
          4.99345188e-04, 1.02762529e-03, 6.78731070e-04, 6.80047902e-04,
          5.41241723e-04, 5.18765708e-04, 4.99335059e-04, 6.26427587e-04,
          5.50800702e-04, 5.21063805e-04, 2.09699487e-04, 4.70957428e-04,
          3.88107699e-04, 1.11243142e-04, 5.24521420e-06,
          -8.88044233e-05, -9.54878269e-05, -4.74011438e-04,
          -6.22060033e-04, -7.27643899e-04, -7.87963043e-04,
          -7.26784230e-04, -4.54788911e-04, -4.03500075e-04,
          -1.29854481e-04, 1.08416432e-04, -6.78196011e-05,
          -1.65983161e-04, 7.97372122e-05, 1.96747613e-04,
          -2.55400868e-04, -4.42254037e-04, -1.16742929e-04,
          5.21395996e-04, 7.17280491e-04, 6.58254197e-04, 3.85317166e-04,
          5.17520763e-04, 4.97707515e-04, 7.31409586e-04, 5.32007136e-04,
          6.53153227e-04, 4.59593517e-04, 4.93663538e-04, 1.99987408e-04,
          1.62404976e-05, 2.35121697e-04, -9.18123260e-06,
          1.41667959e-04, -3.13277153e-04, -6.34417753e-04,
          -5.23107883e-04, -5.87198650e-04, -7.99625588e-04,
          -5.35070256e-04, -2.88107840e-04, 1.08957947e-05,
          2.82201305e-04, -3.08354502e-05, 4.86291683e-05,
          4.66662517e-04, 5.22189541e-04, 1.18181670e-04,
          -4.52491004e-05, -3.64123902e-04, 2.32542152e-04,
          7.64291850e-04, 9.52244736e-04, 6.12151111e-04, 5.01763832e-04,
          3.20034829e-04, 3.78683239e-04, 6.85124367e-04, 7.19593838e-04,
          4.37277631e-04, 3.76436714e-04, 1.18951510e-04, 4.72004285e-05,
          4.60673880e-04, 7.36645452e-05, -3.76920332e-04,
          -1.94921304e-04, -3.20699241e-04, 1.38694071e-04,
          8.13603911e-05, -1.01981088e-04, -4.45749356e-05,
          2.71463682e-06, 1.93649234e-04, 5.47233270e-04, 8.36444233e-05,
          1.46282746e-05, 6.46767148e-04, 6.90491055e-04, 4.04113525e-04,
          2.77244631e-04, -5.19712456e-04, 6.59020094e-04,
          4.92616557e-04, 9.63080092e-04, 5.33492828e-04, 5.83884714e-04,
          4.98702517e-04, 5.55425824e-04, 7.49637431e-04, 6.56317105e-04,
          4.41708922e-04, 2.35921441e-04, 6.62644597e-05,
          -7.09027590e-05, -7.19896707e-05, -2.75147962e-04,
          -6.35362696e-04, -1.90481907e-04, -3.43028631e-04,
          8.74857651e-05, 7.16269715e-04, 8.51414341e-04, 7.88703677e-04,
          5.51426609e-04, 7.02652091e-04, 7.70814309e-04, 5.41710935e-04,
          3.80704296e-04, 8.51589779e-04, 8.82600842e-04, 5.56823390e-04,
          4.81179246e-04, -3.28035094e-04, 5.85487986e-04,
          3.78630590e-04, 4.96479857e-04, 3.18035200e-05, 2.22946837e-05,
          3.01147666e-04, 5.40800975e-04, 7.22181401e-04, 7.50767766e-04,
          4.23861115e-04, 3.53589916e-04, 5.24907082e-05,
          -6.33088275e-05, -3.13826924e-04, -8.31987418e-04,
          -9.44935542e-04, -5.36203443e-04, -3.52200499e-04,
          -3.01431020e-04, 1.53253757e-04, 8.20852001e-04,
          1.24122016e-03, 9.53757321e-04, 7.26661470e-04, 8.50234122e-04,
          6.40333921e-04, 3.84917425e-04, 5.88280207e-04, 6.34494121e-04,
          5.36337961e-04, 5.45149203e-04, -8.50073237e-04,
          -3.98457159e-05, 1.40332762e-04, 3.78111785e-04,
          -1.60099720e-04, 2.09263599e-05, 3.22037435e-04,
          1.44218109e-04, 4.80069109e-04, 6.56774268e-04, 4.83735465e-04,
          4.33490699e-04, 4.36257513e-04, 3.77191864e-05, 1.76186368e-04,
          -6.70480003e-05, -2.87293195e-04, -4.28756670e-04,
          -2.45017640e-04, -2.08674188e-04, -1.25281367e-04,
          1.32126326e-04, 4.99523943e-04, 1.46847960e-04, 3.75317351e-04,
          5.14412706e-04, 4.01733530e-04, 2.55928695e-04, 4.24378377e-04,
          4.79841518e-04, 3.31401534e-04, 4.47943981e-04,
          -4.51529952e-04, 1.42206918e-04, 5.10155369e-05,
          2.03382544e-04, -4.52042557e-04, -1.43491226e-04,
          1.17410324e-04, -6.90272427e-05, 1.01778583e-04,
          3.50419316e-04, 4.13762551e-04, 2.46182404e-04, 1.84142205e-04,
          5.93073964e-05, 4.12188150e-04, 4.31534019e-04, 1.51027460e-04,
          -1.45960861e-04, -2.17164561e-04, 3.74319556e-04,
          2.37011584e-04, -3.69462145e-06, 2.16791828e-04,
          1.85447439e-04, 3.69665766e-04, 4.26776649e-04, 4.10504406e-04,
          5.68878604e-04, 1.01657200e-03, 1.07038207e-03, 4.46646445e-04,
          2.39329354e-04, -1.54821668e-04, 1.06464358e-04,
          -2.87383009e-04, 8.71186330e-06, -2.90188327e-04,
          -2.47206393e-04, -1.28081869e-04, 8.41422734e-05,
          1.00431993e-04, -2.62253434e-05, 1.63833509e-04,
          3.72005248e-04, 1.43512720e-04, 2.19448819e-04, 5.78002247e-04,
          5.05044707e-04, 5.45906893e-04, 4.47724684e-04, 3.34697397e-04,
          7.24028796e-04, 4.88197809e-04, 3.07792303e-04, 3.70590831e-04,
          2.66282936e-04, 8.37491389e-05, 3.55029246e-04, 5.39620814e-04,
          5.80625958e-04, 8.84098932e-04, 8.32746155e-04, 2.90533062e-04,
          1.43696394e-04, -3.74141120e-04, 7.47293598e-05,
          -3.85181738e-05, 2.01140196e-04, -9.23033367e-05,
          -2.21796479e-04, -2.50865938e-04, 8.48792624e-05,
          -8.32864898e-05, -2.88718205e-04, -8.10678539e-05,
          3.79118603e-04, 6.17982078e-05, 1.45465165e-04, 4.97493427e-04,
          5.87568327e-04, 8.46832350e-04, 9.25586326e-04, 8.51452409e-04,
          9.97900381e-04, 9.07412847e-04, 9.74006252e-04, 7.05663930e-04,
          3.69912159e-04, 3.11127864e-04, 4.63752862e-04, 5.57482592e-04,
          4.13842528e-04, 6.72715716e-04, 5.93665172e-04,
          -1.72712043e-05, -1.14751922e-04, -3.96999676e-05,
          1.47176761e-04, -1.92012842e-04, -3.41022154e-04,
          -3.88933287e-04, 1.24816506e-04, 3.36191006e-05,
          -1.26829924e-04, 7.86403107e-05, 1.65059537e-05,
          -1.15146438e-04, 2.31895945e-04, -9.50786707e-05,
          9.82054480e-05, 2.07648613e-04, 3.80767538e-04, 7.56475027e-04,
          7.07406842e-04, 8.44773836e-04, 7.56140507e-04, 6.52446994e-04,
          6.69278437e-04, 6.13366836e-04, 6.43307983e-04, 4.20739991e-04,
          3.31124524e-04, 2.67899741e-04, 1.05411455e-05, 2.43018236e-04,
          3.28151276e-04, -1.88461403e-04, -3.47885420e-04,
          -2.85247312e-04, 1.51897300e-04, 3.66573768e-05,
          -1.73696375e-04, -6.59826270e-04, 4.94109299e-05,
          1.49227359e-04, 3.53061150e-05, -6.22441439e-05,
          -3.70315756e-05, -1.75677807e-04, 1.06116873e-04,
          2.13316496e-04, 1.70963380e-04, 1.72407425e-04, 1.89552229e-04,
          -1.09379405e-04, 1.53707970e-05, 7.50725667e-05,
          -1.57069342e-04, -1.82056741e-04, -1.08323133e-04,
          2.00322160e-04, 5.84531925e-04, 1.55351707e-04, 1.80812145e-04,
          1.05439758e-04, -1.33761263e-04, 2.84873007e-04,
          3.29995906e-04, -2.38395674e-04, -4.66778729e-04,
          -2.93362478e-04, -5.37505948e-05, -3.38250451e-04,
          -2.90567375e-04, -5.91764401e-04, -3.14380362e-04,
          1.77938535e-04, 2.43745249e-04, 2.65578390e-04,
          -2.23804731e-04, -1.30950561e-04, 1.10811670e-04,
          2.35306652e-04, 1.09559034e-04, -1.74152694e-04,
          1.29595312e-04, -3.81342921e-04, -3.72795039e-04,
          -2.08731391e-04, -5.76388149e-04, -3.48936650e-04,
          -7.11877801e-05, -9.16408462e-05, -2.87650560e-04,
          -4.90703038e-04, -7.10060063e-04, -7.24047539e-04,
          -4.75019508e-04, -1.35880473e-04, -2.78824475e-04,
          -5.83004730e-04, -9.33201576e-04, -3.69573012e-04,
          -1.42528470e-05, -6.12689008e-04, -5.17129141e-04,
          -6.93049165e-04, -3.06994538e-04, 8.91668897e-05,
          1.36176706e-04, 2.10793092e-04, -1.34370814e-04,
          -1.55129077e-04, 6.70490635e-07, 6.19357597e-05,
          1.41915109e-04, -2.54120387e-04, -3.52999341e-04,
          -1.53236833e-04, -1.48610678e-04, -3.96786723e-04,
          -5.77566912e-04, -6.02313725e-04, -5.64336602e-04,
          -8.12132203e-04, -7.57565838e-04, -8.68478499e-04,
          -9.97951603e-04, -9.39370075e-04, -6.56342483e-04,
          -3.01950611e-04, -3.42336018e-04, -7.66709738e-04,
          -1.32979325e-03, -1.39995333e-04, 2.29177400e-04,
          -5.38050255e-04, -8.17021064e-04, -1.25736126e-03,
          -8.32612976e-04, -4.68422222e-04, -1.01971935e-04,
          1.29228516e-04, -6.58485806e-05, -3.21954460e-04,
          -2.37653730e-04, -9.34643540e-05, 9.24976775e-05,
          -3.79349774e-04, -6.68053399e-04, -3.69888585e-04,
          -2.19920548e-04, -3.97542404e-04, -3.73206160e-04,
          -6.94100512e-04, -4.14810405e-04, -7.14924885e-04,
          -7.66693614e-04, -8.56384984e-04, -9.33456526e-04,
          -8.78411462e-04, -9.13198804e-04, -7.55749352e-04,
          -4.52141569e-04, -6.28404086e-04, -1.05123268e-03,
          -7.58201873e-04, -9.98984397e-05, -5.53319813e-04,
          -8.07791017e-04, -1.17988675e-03, -7.81779876e-04,
          -7.86049757e-04, -4.69052524e-04, -2.67421507e-04,
          -1.14047543e-04, -6.76197378e-05, -5.49783872e-05,
          -5.75852609e-05, -1.06422915e-04, -4.35469527e-04,
          -7.07997475e-04, -4.16105438e-04, -3.32736643e-04,
          -6.19294122e-04, -8.37139843e-04, -7.65710371e-04,
          -3.40819301e-04, -3.60512407e-04, -6.03942317e-04,
          -6.67815213e-04, -9.84389917e-04, -8.60045082e-04,
          -7.86165532e-04, -4.07577027e-04, -3.08418734e-04,
          -6.03234046e-04, -8.08969024e-04, -5.76922088e-04,
          3.70882510e-04, -1.20827121e-04, -4.22532961e-04,
          -6.51056005e-04, -3.94913164e-04, -2.28177276e-04,
          5.62720561e-05, -5.04039490e-05, 1.05405394e-04,
          1.28412401e-04, 1.15581526e-04, 2.82524532e-04, 3.31025512e-04,
          1.62450538e-04, -2.20335554e-04, -2.44924624e-04,
          4.94973792e-05, -4.71775216e-04, -6.02949003e-04,
          -3.95676296e-04, -1.21175406e-04, -5.94152734e-05,
          4.23603087e-05, -2.49112549e-04, -6.86931831e-04,
          -5.41866524e-04, -3.59211670e-04, -2.42384976e-05,
          -2.89919826e-05, -6.34381664e-04, -7.70639104e-04,
          -6.99311378e-04, 6.03060413e-04, 9.73661281e-06,
          -3.89230438e-04, -7.29925232e-04, -4.25162230e-04,
          -1.23018144e-05, 1.23010934e-04, -1.67783452e-04,
          -1.23530786e-04, -1.06215746e-04, -2.77539279e-04,
          -1.41617857e-04, 1.08406173e-04, 5.18712914e-05,
          -5.26643358e-04, -6.46912027e-04, -3.78145167e-04,
          -4.67912294e-04, -4.63709119e-04, -5.31007652e-04,
          -4.21867007e-04, -1.97281435e-04, -1.84033372e-04,
          -1.95410350e-04, -6.23545493e-05, 3.11312829e-06,
          -2.02902793e-05, 1.64482204e-04, 3.50092130e-04,
          -3.67134955e-04, -1.15022634e-03, -2.04095850e-03,
          -6.03085151e-04, -2.52179248e-04, 9.08859729e-05,
          5.19838659e-06, 2.60208704e-04, 4.02651436e-04, 2.24939475e-04,
          2.54969316e-04, 1.53539004e-04, 1.57892733e-04,
          -5.62350833e-05, -2.30370817e-04, -3.05461028e-04,
          -1.44585225e-04, -4.88797086e-04, -5.08438679e-04,
          -5.28303557e-04, -4.79620794e-04, -3.66835680e-04,
          -3.92151065e-04, -3.31542862e-04, -1.30240471e-04,
          -2.93161400e-04, -4.81407595e-04, -1.67900376e-04,
          -7.24990059e-06, 1.31964816e-05, 4.25706763e-04,
          6.93126174e-04, -2.14813263e-04, -1.65824324e-03,
          -3.32364137e-03, -2.13979976e-03, -9.12496762e-04,
          -3.75537842e-04, 6.15509634e-05, 4.58236434e-04,
          1.04634173e-03, 1.14379625e-03, 9.11569456e-04, 2.49882345e-04,
          7.83082287e-05, -2.39051656e-06, -1.69383857e-05,
          -2.60106055e-04, -2.88758427e-04, -6.59273588e-04,
          -4.06336680e-04, -5.74182544e-04, -6.47071982e-04,
          -5.24028786e-04, -7.72757703e-05, -5.28219563e-04,
          -4.25058359e-04, -2.24647578e-04, 2.08287267e-04,
          -6.47201232e-05, -1.53089626e-04, 3.56277189e-04,
          5.55528852e-04, 7.06002873e-04, 1.01345140e-04,
          -9.11761774e-04 ]
      - [ -1.18782884e-03, -4.10236389e-04, -3.07340088e-04,
          -3.87636566e-04, 6.74162447e-06, 1.47425191e-04,
          1.48096355e-04, 5.51211633e-05, -5.77671744e-04,
          -7.62778101e-04, -6.89194771e-04, -8.57216073e-04,
          -9.14125354e-04, -9.74640599e-04, -5.46370866e-04,
          -1.11863308e-04, 3.14362522e-04, 5.93991834e-04,
          4.63664328e-04, 4.89059021e-04, 2.88654846e-04, 8.80382358e-05,
          -1.45972183e-04, -2.57743464e-04, -6.22061838e-04,
          -6.20866020e-04, -7.50775100e-04, -4.17938369e-04,
          -7.99781177e-04, -8.40422523e-04, -9.29640722e-04,
          -1.01915491e-03, -4.80197603e-04, -1.23326943e-04,
          1.87608326e-04, 1.59623465e-04, 6.09922979e-04, 5.92701137e-04,
          7.73835753e-04, 5.49857505e-04, 6.10802745e-05,
          -8.78116480e-05, -2.82779656e-04, -3.15120094e-04,
          -2.21142313e-04, -1.69023959e-04, -1.96654451e-04,
          9.43547639e-05, 2.41692382e-04, 4.36511007e-04, 8.54644051e-04,
          1.14586693e-03, 1.04704464e-03, 7.93893647e-04, 5.32386533e-04,
          2.01766787e-04, 1.47624247e-04, 3.91479582e-04, 2.21679249e-04,
          3.09872878e-04, 1.75069872e-04, -9.72184207e-05,
          -6.23888103e-04, -7.03522528e-04, -1.10930763e-03,
          -6.65463682e-04, -1.58853160e-04, 1.17681127e-04,
          2.65028008e-04, 1.88759237e-04, 1.59048781e-04, 7.52829510e-05,
          5.83557921e-05, -1.19029166e-04, -3.63266096e-04,
          -4.11288289e-04, -2.61508656e-04, -1.77249342e-04,
          -4.17183939e-04, -2.50098728e-05, 1.94959095e-04,
          4.99425805e-04, 8.74593796e-04, 9.84267564e-04, 7.98312481e-04,
          7.26530852e-04, 3.07148002e-04, -4.92569408e-04,
          -4.88310412e-04, -3.52291914e-04, -5.28854842e-04,
          -2.89979071e-04, -1.46319755e-04, -2.95450329e-04,
          -8.11950071e-04, -5.27896802e-04, -4.98732028e-04,
          -4.02891892e-04, 1.92092775e-05, 1.58312294e-04,
          2.50036974e-04, 2.58033659e-04, 3.23296117e-04, 2.12942425e-04,
          8.45014511e-05, -7.71353371e-05, -6.61153172e-05,
          -1.31857290e-04, -2.78267660e-04, -1.74926143e-04,
          9.36825672e-05, 5.95871767e-04, 8.27480340e-04, 1.11463224e-03,
          1.23393990e-03, 1.16787106e-03, 8.34501931e-04, 7.12499139e-04,
          4.76771529e-04, -1.38984848e-04, -2.45525764e-04,
          -4.64399927e-04, -8.80120846e-04, -6.48165005e-04,
          -3.68157227e-04, -3.26590438e-04, -7.47835264e-04,
          -6.17260055e-04, 6.33822521e-04, 2.67501542e-04,
          3.98978416e-04, 2.87331030e-04, 3.48160131e-04, 4.35221766e-04,
          4.54397144e-04, 1.48467763e-04, 2.03780553e-04, 9.64412684e-05,
          6.96996067e-05, -1.24145110e-04, -4.43468976e-04,
          -3.54301737e-04, -2.82912770e-05, 1.44615085e-04,
          4.30727552e-04, 5.96736500e-04, 3.67016881e-04, 2.01392468e-04,
          3.68213441e-05, -6.08111804e-05, -1.31146837e-04,
          -2.02553405e-04, -1.65279343e-04, -2.23249139e-04,
          -4.43509052e-04, -4.68099490e-04, -5.51854144e-04,
          -4.00604971e-04, -5.92266675e-04, -4.18064010e-04,
          6.15508354e-04, 4.61237447e-04, 6.47208421e-04, 5.17575652e-04,
          5.28780103e-04, 5.95640915e-04, 4.67988953e-04, 2.54733663e-04,
          3.35406803e-04, 2.10033817e-04, 7.39526731e-05, 1.04713899e-05,
          -4.28530853e-04, -3.39053950e-04, -1.04942548e-04,
          -2.40452631e-04, 3.24589288e-04, 4.45547543e-04,
          2.79429514e-05, -3.91748414e-04, -2.27034689e-04,
          -1.77901791e-04, 3.99215514e-06, -1.68894985e-04,
          -4.48944134e-04, -3.20984982e-04, -1.58505209e-04,
          1.27514708e-04, -1.10889836e-04, -4.34167450e-04,
          -2.94713478e-04, -1.50678343e-05, 7.10991037e-04,
          7.17811810e-04, 9.05911904e-04, 5.82505425e-04, 5.84627211e-04,
          6.51664450e-04, 6.16678095e-04, 5.16385771e-04, 2.38039138e-05,
          -6.12235817e-05, -1.89764396e-04, -9.97210518e-05,
          -5.02663082e-04, -6.10844058e-04, -3.96737159e-04,
          -2.39938963e-04, 5.15517640e-05, 4.36318551e-05,
          -1.85355966e-04, -5.28730801e-04, -3.77587770e-04,
          -2.51350983e-04, 8.89319108e-06, 1.17528092e-04,
          2.27149176e-05, -7.62538330e-05, 1.11410409e-04,
          2.39265733e-04, 6.58534409e-05, -5.33368031e-04,
          -3.00666405e-04, 1.38107833e-04, 5.82660374e-04,
          4.94928099e-04, 8.12744955e-04, 6.03933237e-04, 6.83999097e-04,
          8.55194870e-04, 7.72600644e-04, 4.86426696e-04, 3.35553486e-04,
          -4.06238360e-05, -5.10675927e-05, -1.53483285e-04,
          -4.62610275e-04, -8.09884747e-04, -7.61478965e-04,
          -1.76147019e-04, -2.90319673e-04, -8.51505320e-05,
          6.10907664e-05, -2.53707432e-04, -3.47333000e-04,
          -2.63711670e-04, 8.09538906e-05, 3.24501052e-05,
          6.05472706e-05, 6.35365286e-05, -8.46547264e-05,
          -3.84436753e-05, 2.96126091e-04, -3.30950832e-04,
          -1.66704340e-04, 2.14671963e-04, 6.27376779e-04,
          4.38194285e-04, 7.24423095e-04, 3.64918727e-04, 4.26757353e-04,
          6.91752939e-04, 8.30875768e-04, 6.18991558e-04, 5.50100929e-04,
          1.32967529e-04, -1.63922829e-04, -4.03457525e-04,
          -6.16760692e-04, -7.09896442e-04, -3.16161342e-04,
          -1.81497322e-04, -2.20772592e-04, 1.60332220e-05,
          -1.62159355e-04, -1.94391483e-04, -3.44186810e-06,
          3.40776787e-05, 5.12411862e-05, -1.35525974e-04,
          -1.90382867e-04, 8.64738686e-05, -2.54455040e-06,
          -6.09874405e-05, 3.47462701e-05, -1.82310876e-04,
          -8.77540442e-05, 2.82163062e-04, 4.56407957e-04,
          4.00077464e-04, 6.75701594e-04, 3.03467183e-04, 4.71260108e-04,
          6.57838944e-04, 6.25627406e-04, 4.78582486e-04, 4.11249726e-04,
          2.48791272e-04, -1.11858062e-04, -3.93346505e-04,
          -6.05516834e-04, -4.78408154e-04, -2.45638890e-04,
          -1.93925283e-04, -5.46603347e-04, -3.50262562e-04,
          -3.55025782e-04, -2.91697041e-04, -1.36225179e-04,
          7.22552795e-05, 1.01033176e-04, 4.73081745e-05,
          -2.79408181e-04, -1.79419749e-05, 2.77982996e-04,
          1.44100079e-04, 1.92424312e-04, -3.74419964e-04,
          -2.62606100e-05, 3.87617620e-04, 2.40502530e-04,
          4.13656875e-04, 7.17782590e-04, 2.91356468e-04, 4.43351775e-04,
          5.00050955e-04, 4.70665400e-04, 3.86393891e-04, 3.06114496e-04,
          1.91866042e-04, -2.70950026e-04, -3.90505098e-04,
          -2.73146667e-04, -1.15521179e-04, -2.19796289e-04,
          -3.68993729e-04, -5.27578290e-04, -4.74707544e-04,
          -5.75776270e-04, -5.86575014e-04, -3.32348427e-04,
          3.95785646e-05, 2.28732562e-04, 1.13154638e-04,
          -1.37579336e-04, -4.54809669e-05, 3.78959157e-05,
          -5.47831623e-05, 1.83624375e-04, 5.57629683e-05,
          2.29467696e-05, 2.63086316e-04, 1.56612339e-04, 2.52978702e-04,
          5.90816082e-04, 2.74289399e-04, 2.62183254e-04, 4.05855099e-04,
          3.19120008e-04, 1.90747669e-04, 1.01280666e-05,
          -3.38093378e-05, -4.74752887e-04, -4.99494548e-04,
          -1.10325294e-04, 1.32976624e-04, -4.78726215e-05,
          -2.55452469e-04, -2.84466543e-04, -1.95641886e-04,
          -4.90402861e-04, -6.26036897e-04, -4.42045333e-04,
          -9.79299803e-05, -2.92835375e-06, -3.92273887e-06,
          8.62165471e-05, 1.23843449e-04, -1.02314589e-04,
          -1.73887616e-04, 2.68763775e-04, 6.01405278e-04,
          1.99137401e-04, 3.64348642e-04, 7.71928608e-05, 2.81019544e-04,
          6.30269700e-04, 2.36867068e-04, 1.84757650e-04, 4.76673740e-04,
          3.25753237e-04, 1.98090696e-04, -2.29326888e-05,
          -4.12242553e-05, -4.12201160e-04, -5.34996507e-04,
          -2.42031238e-04, 9.51036563e-05, 4.37646804e-06,
          -1.01072743e-04, -7.19206510e-05, 7.63370044e-05,
          -5.83353540e-05, -2.39622648e-04, -2.84042704e-04,
          -1.70687272e-04, -6.07465845e-05, -9.65605577e-05,
          3.45418492e-04, 3.81137594e-04, 2.29529483e-04, 5.77293176e-05,
          6.82341168e-04, 9.61282582e-04, 4.82841395e-04, 6.19216764e-04,
          -2.03062853e-04, 1.62607219e-04, 6.41730905e-04,
          2.03739648e-04, 1.21046927e-04, 5.60312881e-04, 4.30578686e-04,
          3.56865115e-04, -2.45948992e-04, -1.50234177e-04,
          -1.09256980e-04, 5.80797205e-05, -4.17842093e-05,
          -8.12509970e-05, -9.60628968e-05, 2.39957881e-04,
          8.75372061e-05, 7.20023236e-05, 2.90391647e-04, 3.77395154e-05,
          -1.51230037e-04, -1.55508227e-04, -1.84790566e-04,
          2.67406394e-05, 2.52787169e-04, 2.08070764e-04, 1.30176195e-04,
          4.68641199e-04, 1.08696695e-03, 1.24404579e-03, 7.28196290e-04,
          5.32532693e-04, -1.96561639e-04, -5.07002915e-05,
          3.27495363e-04, 2.99697990e-06, 1.02710786e-07, 2.32532984e-04,
          1.95334229e-04, 1.56481619e-04, -3.72833078e-04,
          -2.35817497e-04, 4.55693444e-05, 3.81087710e-04,
          3.30455252e-04, 3.98377379e-05, -2.20609018e-05,
          -4.43748941e-05, 2.60325265e-04, 9.87986932e-05,
          2.55549880e-04, 1.08840119e-04, -8.96859929e-05,
          -2.45547300e-04, -2.83795176e-04, -1.41463868e-04,
          1.08424319e-04, 1.84106582e-04, 1.08946544e-04, 9.72162758e-04,
          1.44089316e-03, 1.47876877e-03, 1.06761698e-03, 6.77226228e-04,
          2.86384670e-06, -1.93609885e-04, 1.77947848e-04,
          -6.39367645e-05, -5.62023051e-05, 1.05650732e-04,
          1.34479415e-04, 1.52538661e-04, 3.72166833e-05,
          -1.40408112e-04, 3.72240138e-05, 3.65740270e-04,
          4.28067520e-04, 1.36979332e-04, 2.52934900e-04, 1.70371510e-04,
          2.29323574e-04, 1.60955649e-04, 3.41164938e-04, 2.15250169e-04,
          1.25492879e-04, -2.71390192e-04, -4.33715686e-05,
          -2.19591559e-04, -3.16640828e-04, 2.48242752e-04,
          2.72787962e-04, 7.02946680e-04, 1.17506809e-03, 1.25727546e-03,
          1.43907662e-03, 8.03332019e-04, -1.21776757e-04,
          -1.88421982e-04, 8.28090051e-05, -5.89631018e-05,
          -4.48894752e-05, 1.52386856e-04, 3.10990086e-04,
          4.28216619e-04, 1.84011835e-04, 2.47639255e-05,
          -2.56578114e-05, 2.12705723e-04, 2.52928876e-04,
          1.00427154e-04, -1.47753410e-04, 2.36732842e-04,
          3.09112482e-04, 6.67293149e-04, 4.87011188e-04, 3.12112330e-04,
          -9.45076590e-06, -1.80495044e-04, -3.68195215e-05,
          -6.22537800e-06, -2.06584718e-05, 4.84158343e-04,
          6.90177723e-04, 7.91220926e-04, 1.11552060e-03, 1.06719520e-03,
          1.03933178e-03, 8.41732894e-04, -1.73692737e-04,
          -4.95820714e-04, -1.52789318e-04, -2.84071459e-04,
          -3.56054516e-04, -2.64807662e-04, 8.53386300e-05,
          1.10395042e-04, 1.74876724e-04, 2.61928537e-04, 7.29643652e-05,
          -9.49357855e-05, 5.99845116e-05, 3.02468718e-04,
          -4.61699710e-06, -1.59903240e-04, 2.14234504e-04,
          5.60268818e-04, 5.13239007e-04, 2.30299891e-04, 3.43587490e-05,
          -1.48033723e-04, -4.24895989e-05, -1.05497842e-04,
          9.49860041e-05, 6.32858253e-04, 8.40753841e-04, 7.66461308e-04,
          1.13816292e-03, 8.25164083e-04, 5.82394074e-04, 3.04453511e-04,
          -5.30261779e-04, -8.32418213e-04, -2.91913195e-04,
          -4.53143497e-04, -5.72993536e-04, -4.68068814e-04,
          -6.63528481e-05, -1.35438167e-04, -2.10062572e-04,
          -2.56596722e-05, 4.34530193e-05, -6.85475767e-04,
          -2.96258164e-04, 7.97396642e-05, -2.21134069e-05,
          -1.23674385e-04, 6.37149860e-05, 2.26799297e-04,
          3.82040220e-04, 1.60233799e-06, -2.95539328e-04,
          -2.12682149e-04, 1.00768048e-04, -2.38066204e-05,
          1.19584183e-04, 6.88241445e-04, 9.56436154e-04, 9.56810487e-04,
          1.10576348e-03, 6.80357683e-04, 4.72896267e-04, 4.19811346e-04,
          -7.18789990e-04, -1.14477857e-03, -4.87936719e-04,
          -6.69458765e-04, -6.51426148e-04, -5.03447489e-04,
          -2.07451245e-04, -9.80366895e-05, 1.59166040e-04,
          1.18291297e-04, 2.53641949e-04, 1.20758355e-04,
          -1.02280843e-04, -1.22847239e-04, -3.00243904e-04,
          -6.19319500e-04, -2.38228007e-04, 2.27539378e-04,
          2.35697407e-05, -1.55707559e-04, -2.74004415e-04,
          -2.16570639e-04, -1.45882868e-05, 1.60004522e-04,
          1.95783869e-04, 4.30457440e-04, 6.61551545e-04, 1.03466271e-03,
          9.91955865e-04, 5.96583879e-04, 1.29524560e-04, 6.29082351e-05,
          -5.64927468e-04, -1.07765885e-03, -6.45520049e-04,
          -7.48582417e-04, -5.97135630e-04, -4.50804189e-04,
          -3.45255656e-04, -7.67258462e-05, 7.36511574e-05,
          -9.62113045e-05, 7.64100914e-05, 3.07263021e-04,
          2.48808501e-04, -3.70976486e-05, -5.02611627e-04,
          -1.77063164e-04, 3.36496072e-04, 3.71961592e-04,
          -3.74599076e-05, -1.23907521e-04, -4.47352330e-04,
          -2.67130876e-04, -4.94108972e-05, 8.90005831e-05,
          1.03087012e-04, 2.60828616e-04, 5.46706433e-04, 7.98807421e-04,
          5.87967865e-04, 1.01638798e-04, 1.21297865e-06, 8.37465850e-05,
          5.73061152e-05, -3.14046862e-04, -3.41863488e-05,
          -5.50329802e-04, -5.40442474e-04, -2.99750274e-04,
          -3.78411467e-04, -2.91853212e-04, -2.23769108e-04,
          -2.52251193e-04, 2.84079259e-04, 4.18846932e-04,
          1.95991946e-04, 2.59326353e-05, -3.93835071e-05,
          3.62264138e-04, 3.78616067e-04, 5.49530087e-04, 2.15419015e-04,
          -1.04123319e-04, -4.45275917e-04, -6.24023232e-05,
          -7.45051511e-05, -5.94947451e-05, 2.99994223e-04,
          2.61048757e-04, 4.66618629e-04, 2.68147181e-04, 4.55748494e-04,
          -1.37949522e-04, 5.66272320e-05, 2.43821851e-04,
          1.45574915e-04, -6.17686455e-05, 5.01876231e-04,
          -3.07655282e-04, -5.63835201e-04, -2.52514583e-04,
          -3.01861117e-04, -3.93732189e-04, -2.47402990e-04,
          -4.57920542e-05, 8.40042412e-05, 2.69656302e-04,
          -1.22074198e-04, 3.16011574e-05, 3.02006316e-04,
          5.94400510e-04, 5.60248620e-04, 5.88344992e-04, 1.33557143e-04,
          -2.16242843e-04, -2.67123076e-04, -1.54048510e-04,
          5.05379357e-05, 1.48352090e-04, 1.00153840e-04,
          -6.89681328e-05, -4.75342822e-05, -3.65926855e-04,
          1.58213676e-04, -3.48762085e-04, -3.42685121e-06,
          3.44030850e-04, 1.90710678e-04, 5.10430073e-05, 5.38640888e-04,
          -8.38068736e-05, -4.77349997e-04, -1.42377801e-04,
          -2.95908358e-05, -5.05759181e-06, -2.02328694e-04,
          5.14233143e-05, 1.29933633e-05, 7.83582436e-05, 1.72446133e-04,
          3.36183904e-04, 3.67656350e-04, 5.44421666e-04, 4.97270434e-04,
          3.55871656e-04, -2.80554930e-04, -1.98151232e-04,
          1.62478944e-04, -1.33822337e-04, -1.17788521e-04,
          8.42072332e-05, -3.10706673e-05, -7.62985801e-05,
          -1.86998426e-04, -3.79708130e-04, 6.39360733e-05,
          -4.08900261e-04, -1.25347462e-04, 1.57745293e-04,
          2.74968829e-06, -2.83167872e-04, 3.48202972e-04,
          -2.75679136e-04, -3.22537322e-04, -2.31478916e-04,
          -4.61515920e-05, 6.88809741e-05, 3.51335730e-05,
          1.33574635e-04, 1.80479430e-04, 1.77801892e-04, 2.67757365e-04,
          3.27657326e-04, 3.92060989e-04, 6.11732306e-04, 7.16604176e-04,
          3.16555728e-04, 9.09535956e-05, 1.12559886e-04, 1.27665597e-04,
          -8.69895157e-05, -2.02217052e-04, -3.15334473e-04,
          -3.32536642e-04, -5.00103692e-04, -6.14942517e-04,
          -2.47531978e-04, -4.54722292e-04, -8.22476693e-04,
          -5.78179606e-04, -4.09899832e-04, -1.03776867e-04,
          -3.83660721e-04, 1.62938115e-04, -2.56993895e-04,
          -4.33546345e-04, -3.45960696e-04, -1.18741409e-04,
          1.75444948e-04, 1.43235317e-04, 2.12030951e-04, 1.10510817e-04,
          1.44501100e-04, 3.04502348e-04, 3.59887053e-04, 3.34070850e-04,
          4.55919449e-04, 6.24497014e-04, 5.51960838e-04, 3.78632598e-04,
          3.86438856e-04, 3.07324226e-04, 3.00053052e-05,
          -1.54936293e-04, -1.82692413e-04, -4.91944840e-04,
          -6.53347815e-04, -8.75413301e-04, -1.06023357e-03,
          -1.23023381e-03, -1.29921630e-03, -8.05422955e-04,
          -7.60480645e-04, -3.36099125e-04, -5.67669340e-04,
          1.16520299e-04, -3.44969449e-04, -5.68141870e-04,
          -3.65946558e-04, -1.21750410e-04, 3.63091422e-05,
          1.62016964e-04, 2.46468117e-04, 1.70831729e-04, 2.49573612e-04,
          4.37373266e-04, 5.53853344e-04, 5.23629831e-04, 4.18412033e-04,
          6.03294466e-04, 7.23492762e-04, 6.06064743e-04, 2.58150510e-04,
          3.28807982e-06, 6.96771676e-05, -1.48200750e-04,
          -4.03354381e-04, -4.69281658e-04, -5.52617770e-04,
          -7.94723630e-04, -1.37052964e-03, -1.47046719e-03,
          -1.49224792e-03, -9.36890603e-04, -7.81957700e-04,
          -4.51595988e-04, -6.71185786e-04, -1.54671157e-04,
          -4.61898686e-04, -5.77263418e-04, -3.58938356e-04,
          -1.70246232e-04, -1.10831665e-04, -6.61719314e-05,
          1.53349072e-04, 3.42174608e-04, 3.29114904e-04, 5.77526633e-04,
          6.16503297e-04, 6.40947022e-04, 3.97501484e-04, 6.04161294e-04,
          7.15501781e-04, 7.11625849e-04, 3.34924174e-04, 1.62821845e-04,
          3.00614891e-04, 1.93826825e-04, -1.54395602e-04,
          -5.40759880e-04, -8.56913277e-04, -1.17229915e-03,
          -1.48806174e-03, -1.15798984e-03, -1.25507347e-03,
          -8.78206629e-04, -3.43588472e-04, -4.81000054e-04,
          -6.20772364e-04, 4.11318360e-05, -3.30105686e-04,
          -6.24275766e-04, -4.14431823e-04, -9.53911876e-06,
          2.76119768e-04, 7.83405485e-05, 9.58263554e-05, 1.76578731e-04,
          4.51381566e-05, 2.37589644e-04, 4.90761537e-04, 6.70681882e-04,
          3.31910269e-04, 5.16791944e-04, 6.53163006e-04, 5.74099016e-04,
          4.29201813e-04, 3.64397332e-04, 3.28346709e-04, 9.72248890e-05,
          -1.09088098e-04, -4.59046889e-04, -1.07522996e-03,
          -1.45921810e-03, -1.61832781e-03, -1.26525958e-03,
          -1.37182022e-03, -1.42122363e-03, -7.72686733e-04,
          -4.49480925e-04, -5.46364754e-04, 1.56839407e-04,
          -3.96453688e-04, -7.70678744e-04, -6.26952620e-04,
          -2.09690115e-04, -6.64611216e-05, -1.28305081e-04,
          -1.69493593e-04, -3.92436952e-04, -2.80815788e-04,
          2.43827279e-04, 5.00157184e-04, 7.86226359e-04, 4.54204972e-04,
          3.63053201e-04, 5.51939884e-04, 5.45576215e-04, 4.00764256e-04,
          1.71219668e-04, 1.96989480e-04, 5.35447361e-05,
          -3.05512367e-04, -4.78181202e-04, -6.85929612e-04,
          -9.71248781e-04, -1.26519892e-03, -1.16165518e-03,
          -1.26709591e-03, -1.41889253e-03, -1.15953991e-03,
          -5.71383978e-04, -4.98050766e-04, -6.55025797e-05,
          -3.90358560e-04, -4.10406006e-04, -1.94862077e-04,
          1.07382883e-04, -6.11573778e-05, 4.32326924e-05,
          2.68175918e-05, 2.38614011e-04, 4.44354751e-04, 6.71546324e-04,
          5.91682852e-04, 6.45125925e-04, 3.99860815e-04, 1.42691919e-04,
          2.21145718e-04, 2.95274716e-04, 1.89818340e-04,
          -4.07007501e-05, 3.50446426e-05, 1.77995054e-04,
          -1.52094508e-04, -5.67278534e-04, -8.47235147e-04,
          -1.06155849e-03, -1.45932857e-03, -1.24959438e-03,
          -1.18483813e-03, -1.14486646e-03, -1.30928378e-03,
          -5.10338286e-04, -3.59067169e-04, -1.40091128e-04,
          -1.12789545e-04, 1.62868644e-04, 5.06918703e-04,
          9.87384003e-04, 7.17744231e-04, 3.35448101e-04, 3.49287322e-04,
          5.69939672e-04, 7.93981540e-04, 1.02009007e-03, 9.02597734e-04,
          7.70714367e-04, 3.84977990e-04, 2.50688259e-04, 2.03609743e-04,
          -1.03284816e-04, -1.10472283e-04, 5.94561898e-05,
          -7.02558191e-06, 1.93766409e-05, 1.74659508e-05,
          7.01145545e-05, -6.31770003e-04, -7.17140385e-04,
          -9.36166558e-04, -1.04013528e-03, -1.03207468e-03,
          -5.40824723e-04, -1.08368415e-03 ]
      - [ 4.44277859e-04, 5.13063686e-04, 2.58957094e-04, 6.13059616e-04,
          5.49068733e-04, 1.96711931e-04, 3.13100063e-05, 1.72746673e-04,
          4.30185537e-05, 3.41031373e-05, 3.27282032e-05,
          -3.72905342e-05, -7.83051364e-05, -1.08097825e-04,
          -1.10017216e-04, -6.97697324e-05, -3.39931976e-05,
          -6.13091106e-05, -5.39611356e-05, 8.76298072e-05,
          -7.51154730e-05, -2.68103322e-05, -1.28241096e-04,
          -2.06767854e-05, -2.03719101e-04, -1.99010101e-04,
          -1.85164317e-04, -2.27269978e-04, -4.08651140e-05,
          -2.26279517e-05, -2.50568963e-04, -4.78677975e-04,
          4.67230100e-04, 3.04729008e-04, 1.43490848e-04, 4.34648595e-04,
          3.06507485e-04, 3.47522699e-04, 2.38226232e-04, 2.39109886e-05,
          9.45334978e-06, 3.85270178e-05, -1.30408853e-05,
          -1.14984912e-04, -7.88186881e-05, -1.38571431e-06,
          5.29607178e-06, 1.31334149e-04, 8.67508716e-05, 3.06530419e-04,
          3.25192756e-04, 2.75429949e-04, 2.64602073e-04, 3.08970222e-04,
          2.70380988e-04, 2.53537728e-04, 1.85581768e-04, 1.72163622e-04,
          1.81338721e-04, 2.82310939e-04, 3.78231111e-04, 1.11783902e-05,
          -1.42751102e-04, 8.09670091e-05, 5.71649325e-05,
          -1.98118461e-04, -5.40978275e-04, 2.20403854e-05,
          -1.12440241e-04, 3.73161572e-04, 2.00896320e-04,
          1.90946681e-04, 1.53483910e-04, 1.10738118e-04,
          -1.74293091e-04, -1.83923286e-04, -1.06312313e-04,
          -4.30415821e-05, 1.56886490e-05, 3.19210267e-06,
          1.58684008e-04, 3.56879696e-04, 4.36422444e-04, 4.51146130e-04,
          4.99488844e-04, 5.64777642e-04, 5.17725653e-04, 3.69965099e-04,
          3.45185166e-04, 2.61463923e-04, 2.24154588e-04, 1.94331093e-04,
          1.91436266e-04, -1.24555823e-04, -3.45384760e-05,
          2.85533199e-04, -5.69985714e-04, -6.63505925e-04,
          -7.86018209e-04, -9.62422782e-05, -1.52124892e-04,
          1.23551014e-04, -1.18185570e-04, -1.11281392e-04,
          -2.32557868e-04, -3.16450896e-04, -4.15968068e-04,
          -5.18197601e-04, -4.49144311e-04, -1.95945817e-04,
          -8.86543057e-05, -1.53519708e-04, -6.33730378e-05,
          2.24461648e-04, 2.31045604e-04, 2.27603130e-04, 2.12088155e-04,
          2.37256245e-04, 1.43384896e-04, 1.86749006e-04, 2.30733844e-04,
          2.95398786e-04, 2.75660044e-04, 2.19050096e-04, 1.51127402e-04,
          8.15563762e-05, 9.66273001e-05, 1.29766631e-04,
          -7.60952535e-04, -6.79650344e-04, -6.95273047e-04,
          9.46518994e-05, -4.35989095e-05, 1.01808997e-04,
          -5.09998463e-05, -7.63724529e-05, -1.14530783e-04,
          -3.73998977e-04, -4.15199815e-04, -4.63329139e-04,
          -3.68210225e-04, -3.41605482e-04, -2.62864080e-04,
          -1.62043434e-04, -2.08097772e-04, -3.02264798e-05,
          -1.82969015e-05, 9.16101499e-07, -5.44875593e-06,
          9.39853562e-05, 4.08818153e-08, 2.28681110e-05, 1.57117393e-04,
          2.35288084e-04, 2.01865114e-04, 1.58970332e-04, 9.15718992e-05,
          2.21147207e-06, 6.58092176e-05, -1.16684947e-04,
          -5.99662948e-04, -4.84980614e-04, -5.19944471e-04,
          2.53880571e-04, 1.04599538e-04, 1.93811444e-04, 3.27479029e-05,
          -2.37645159e-04, -3.91111709e-04, -3.74602532e-04,
          -4.85632860e-04, -5.01652132e-04, -5.19081252e-04,
          -3.39138467e-04, -3.26174777e-04, -2.30084086e-04,
          -2.09505451e-04, -1.69219406e-04, -7.18772135e-05,
          1.17757281e-06, -1.80926727e-04, -8.46965850e-05,
          -1.40290867e-04, -1.62520897e-04, 1.48650623e-04,
          1.77530266e-04, 1.34600006e-04, 3.18508573e-05, 1.03738879e-04,
          -5.79641721e-07, 1.41271856e-04, -2.01984833e-04,
          -2.69893353e-04, -3.22403008e-04, -4.23605961e-04,
          6.50116954e-06, -7.14896960e-05, 5.64464790e-05,
          1.02161124e-04, -1.83386946e-04, -1.65989084e-04,
          -2.37951346e-04, -5.63299458e-04, -6.50016707e-04,
          -7.09040498e-04, -4.92158171e-04, -4.23511199e-04,
          -2.54158571e-04, -2.36966807e-04, -2.95372593e-04,
          -3.38404905e-04, -1.72519649e-04, -9.58348464e-05,
          5.03880874e-05, -1.39942524e-04, -2.09628561e-04,
          1.10599885e-05, 1.26944753e-04, -3.43935426e-06,
          -1.00923105e-04, -7.52206251e-05, -2.15006276e-05,
          8.64917092e-05, -1.97711066e-04, -3.05085327e-04,
          -5.02900803e-04, -5.92597818e-04, -2.39497858e-05,
          -1.57609073e-04, -1.32742143e-05, -4.61546442e-05,
          -4.96281500e-05, -2.11775587e-05, -2.90281256e-04,
          -3.21237952e-04, -5.71161567e-04, -6.21050189e-04,
          -4.90028469e-04, -5.14736515e-04, -2.41414848e-04,
          -1.19003991e-04, -1.69712235e-04, -1.67718448e-04,
          -1.47830913e-04, -8.16869433e-05, -1.06483116e-04,
          -1.69633131e-04, -2.05629156e-04, -1.73094741e-04,
          -8.12467697e-05, -2.25088355e-04, -2.56661733e-04,
          -1.13372116e-04, -5.56102314e-05, -1.26201703e-04,
          -2.80159235e-04, -4.53034503e-04, -5.17270179e-04,
          -4.03929269e-04, 2.30711099e-04, 1.43670868e-05,
          -6.31784496e-05, -1.05234853e-04, -1.01217927e-04,
          -4.00854624e-05, -2.82728404e-04, -1.97939633e-04,
          -2.73068523e-04, -1.91789193e-04, -2.46507290e-04,
          -2.52463011e-04, -1.93892251e-04, -1.24184211e-04,
          -1.43933619e-04, -3.46133165e-04, -1.64067606e-04,
          -8.46955809e-05, -1.68641141e-04, -1.40965334e-04,
          -1.39694486e-04, -2.26504359e-04, -1.87637328e-04,
          -3.37654405e-04, -3.14183388e-04, -2.44134106e-04,
          -1.12330432e-04, -1.91578442e-06, -2.52381258e-04,
          -3.61406623e-04, -4.00757825e-04, -3.11582378e-04,
          5.91278185e-05, -5.56278392e-05, 6.29100614e-05,
          -2.04797143e-05, -1.63041375e-04, -3.87934379e-05,
          1.18610180e-04, 1.42368095e-04, 9.54342322e-05, 1.70221567e-04,
          6.01763204e-05, 1.71146137e-04, -6.96969146e-05,
          -1.81771931e-04, -9.15067503e-05, -1.21015939e-04,
          -1.56044858e-04, -1.26730214e-04, -1.34613889e-04,
          -9.38106750e-05, -1.37690033e-04, -2.30576014e-04,
          -1.62172306e-04, -2.31868020e-04, -2.99697800e-04,
          -2.61911948e-04, -1.61150863e-04, -1.00675374e-04,
          -3.39508493e-04, -2.28639794e-04, -2.62532645e-04,
          -2.59356166e-04, 1.42449253e-05, -2.01821767e-05,
          2.08810248e-04, 2.16800821e-04, 7.69028193e-05, 1.14918017e-04,
          4.08627791e-04, 2.02657262e-04, 2.78987514e-04, 2.87262024e-04,
          3.59665370e-04, 2.82507768e-04, -1.39115730e-06,
          -1.87641112e-04, -2.90035736e-04, -1.18839213e-04,
          -2.54669751e-04, -2.26265402e-04, 1.47843430e-05,
          -6.23806554e-05, -1.34257134e-04, -1.16165007e-04,
          -1.22245983e-04, -1.79227980e-04, -2.26920514e-04,
          -1.85349476e-04, -1.26287850e-04, -1.28267435e-04,
          -3.25280358e-04, 1.68023907e-05, -1.52428431e-04,
          -1.95791290e-04, 2.91172357e-04, 2.89838907e-04,
          4.85411671e-04, 4.46315971e-04, 3.97619093e-04, 2.39667628e-04,
          4.16990282e-04, 3.57795187e-04, 2.98880186e-04, 8.41223446e-05,
          1.54932568e-05, 2.06270284e-04, 8.49683929e-05,
          -1.81754411e-04, -4.11740592e-04, -3.50900140e-04,
          -1.55760383e-04, -9.45649663e-05, -7.92757783e-05,
          -1.12323265e-04, -1.27490872e-04, -9.28461450e-05,
          -1.31922032e-04, -2.28049670e-04, -2.28729041e-04,
          -1.32035842e-04, -1.12268688e-04, -7.94457301e-05,
          -3.32474359e-04, 1.20365934e-04, -1.10276691e-04,
          -1.71524298e-04, 2.89122196e-04, 3.16182588e-04,
          5.67372539e-04, 4.08258609e-04, 3.31667834e-04, 3.92133632e-04,
          5.61739376e-04, 3.58615158e-04, 3.42008512e-04, 1.04663040e-05,
          2.26719058e-04, 2.81402376e-04, -6.36226760e-05,
          -2.32551436e-04, -4.14101116e-04, -3.63778759e-04,
          -2.15968452e-04, -9.00446830e-05, -1.07829524e-04,
          -1.72175351e-04, -1.37583469e-04, 9.03150867e-05,
          5.27026386e-05, -3.43576648e-05, -8.37256157e-05,
          -2.90790540e-05, -5.49345823e-05, -1.89850834e-05,
          -2.60977336e-04, 9.69015528e-05, -9.29409944e-05,
          -6.94103073e-05, 2.34130959e-04, 3.06130503e-04,
          6.52376271e-04, 4.26296494e-04, 4.28442028e-04, 4.53788089e-04,
          4.78659786e-04, 1.11082431e-04, 4.48383107e-05, 2.21167444e-04,
          2.26255186e-04, 2.28227043e-04, -7.30667671e-05,
          -2.17338558e-04, -4.00068064e-04, -9.58029195e-05,
          -8.18913977e-05, 2.73149562e-05, 1.01012163e-04,
          -1.07296401e-04, -6.66878113e-05, 7.33087873e-05,
          4.43586760e-05, 1.47684777e-05, -8.84686233e-05,
          -2.30962069e-05, 1.81788564e-05, -4.43718782e-05,
          -2.36226551e-04, -6.23573669e-06, -2.37869623e-04,
          -1.72677741e-04, 1.48685125e-04, 2.04121228e-04,
          6.83927967e-04, 5.31659578e-04, 6.16604055e-04, 4.39130003e-04,
          3.22947424e-04, -7.61612391e-05, -1.91705622e-04,
          1.94593289e-04, 7.08666048e-05, 1.24515500e-04,
          -4.03239101e-05, -3.51322669e-04, -5.59128704e-04,
          -3.57872486e-04, -4.72786778e-05, 5.20981121e-05,
          4.75307206e-05, 7.56709342e-05, -1.61518801e-05,
          -1.61912358e-05, 1.76184640e-05, 1.42086610e-05,
          7.47259173e-06, 1.55637928e-04, 2.07330973e-04, 9.47248409e-05,
          -4.95543973e-05, -2.22250776e-04, -3.29327886e-04,
          2.31764607e-05, 2.54467450e-04, 2.00083479e-04, 6.40290906e-04,
          7.22630008e-04, 6.62650680e-04, 5.32113307e-04, 1.07065258e-04,
          -1.82226388e-04, 9.09274167e-05, 2.63295253e-04,
          6.82527170e-05, 2.88230731e-05, -2.68046842e-05,
          -4.18233947e-04, -5.85249683e-04, -5.99232677e-04,
          -2.68267264e-04, -1.98422349e-04, -6.97367796e-05,
          1.17290445e-04, -6.14044257e-05, -2.93259200e-05,
          7.23199482e-05, 4.02909391e-05, 1.16043149e-04, 3.31462565e-04,
          2.31983882e-04, 1.83758006e-04, 5.32485537e-05,
          -2.46581458e-05, -2.01233241e-04, -3.99669916e-05,
          1.76154674e-04, 3.19198880e-04, 7.78484275e-04, 6.45643566e-04,
          5.61560912e-04, 4.23896243e-04, 4.25997074e-04, 3.00997664e-04,
          2.78124789e-04, 9.10615927e-05, -3.26766385e-05,
          -1.08988846e-04, -1.22413971e-04, -4.92562423e-04,
          -7.31013832e-04, -7.48057617e-04, -3.49017588e-04,
          -4.73735738e-04, -6.11504598e-04, -1.37495328e-04,
          3.89232082e-05, 5.31402511e-05, 1.72447490e-05, 6.22037696e-05,
          2.52812228e-04, 4.09862259e-04, 2.90641416e-04, 3.00459156e-04,
          2.06156052e-04, 1.73799548e-04, -1.61025571e-04,
          -3.12601405e-05, 1.33626556e-04, 2.57235079e-04,
          5.88541676e-04, 4.80694347e-04, 4.41362936e-04, 4.13501723e-04,
          3.80415295e-04, 2.45140429e-04, 2.18870890e-04,
          -3.30147959e-05, 1.41206387e-04, -3.70056514e-05,
          -2.76019797e-04, -4.48584353e-04, -6.99612079e-04,
          -8.34125443e-04, -5.29574871e-04, -5.09222969e-04,
          -4.87598387e-04, -2.94385041e-04, -9.67710075e-05,
          2.48347529e-08, 4.24128884e-05, 2.01874409e-05, 2.27088967e-04,
          3.45885579e-04, 2.94045196e-04, 2.32480088e-04, 1.70208441e-04,
          4.07656102e-04, -7.39010429e-05, 5.13445666e-05,
          2.59205350e-04, 2.90854834e-04, 4.15293296e-04, 4.82059055e-04,
          4.01439291e-04, 6.55638141e-05, -1.37739844e-04,
          -1.60866766e-05, 2.16896937e-04, 2.31010767e-04,
          2.08245590e-04, 8.83924731e-05, -1.17322037e-04,
          -4.07553307e-04, -5.72770194e-04, -5.13216830e-04,
          -3.77892022e-04, -6.18960883e-04, -6.10647723e-04,
          -3.60173290e-04, -3.11952957e-04, -1.86616540e-04,
          -6.08118462e-05, 7.82890202e-05, 1.91288564e-04,
          3.52650328e-04, 2.70423421e-04, 1.50404623e-04, 1.01062142e-04,
          4.07486747e-04, -2.34538766e-05, 6.71384259e-05,
          2.84347247e-04, 2.35040061e-04, 2.98969448e-04, 4.44515026e-04,
          1.70862389e-04, -1.36392293e-04, -3.05646798e-04,
          -1.83603552e-04, -5.71470173e-06, 1.32247820e-04,
          -1.88506747e-05, -2.02715339e-04, -4.50310938e-04,
          -5.64527814e-04, -3.95841111e-04, -3.59166472e-04,
          -8.94672557e-05, -4.48331266e-04, -4.74867004e-04,
          -2.09603750e-04, -3.55583383e-04, -2.67156196e-04,
          -1.45781873e-04, 1.98940063e-04, 1.65526217e-04,
          3.95625480e-04, 3.36312980e-04, 1.93685773e-04, 1.53964618e-04,
          4.46460646e-04, 1.43707293e-04, 2.48830329e-04, 2.52611731e-04,
          1.90213148e-04, 2.83989328e-04, 2.92813929e-04,
          -6.23439701e-05, -1.56590220e-04, -3.11560376e-04,
          -3.35637043e-04, -2.02973548e-04, -1.72660773e-04,
          -3.33219126e-04, -4.49596700e-04, -6.32490148e-04,
          -7.47582701e-04, -2.59253604e-04, -1.26584971e-04,
          -1.51407818e-04, -4.42851364e-04, -2.78428779e-04,
          -1.71739230e-04, -2.95259524e-04, -2.89204472e-04,
          -1.87290789e-04, 2.24461648e-04, 2.75516330e-04,
          4.70435247e-04, 2.93123303e-04, 1.48871593e-04, 2.38536115e-04,
          4.14195645e-04, 1.89102109e-04, 4.43915807e-04, 2.78377556e-04,
          2.47152551e-04, 2.73936399e-04, 1.20223151e-04,
          -6.93327893e-05, -1.62156779e-04, -3.92884365e-04,
          -2.97233462e-04, -3.02939821e-04, -3.68431880e-04,
          -4.71622974e-04, -4.16621042e-04, -5.44675859e-04,
          -5.08267840e-04, -6.63062674e-04, -1.83745709e-04,
          -2.53122944e-05, -2.83212081e-04, -2.69538257e-04,
          -1.63197226e-04, -2.67332907e-05, -1.61684511e-04,
          -2.12134590e-04, 5.41034569e-05, 3.15911457e-04,
          3.57115146e-04, 1.76097077e-04, 9.78177704e-05, 2.98154104e-04,
          4.87472134e-04, 2.07585952e-04, 5.31416619e-04, 2.73959449e-04,
          2.45600269e-04, 9.16415520e-05, 6.54313908e-06,
          -1.59617324e-04, -2.11526596e-04, -4.56449430e-04,
          -2.67007155e-04, -2.59369495e-04, -4.73025517e-04,
          -4.45754180e-04, -4.02667938e-04, -4.60591604e-04,
          -6.24998705e-04, -7.32822227e-04, -3.39574646e-04,
          -1.13737842e-05, -3.10790143e-04, -4.33031091e-04,
          -2.65536044e-04, 3.72209433e-05, 4.30366117e-06,
          -9.39594611e-05, 8.31597645e-05, 2.96422280e-04,
          3.73946066e-04, 2.95160891e-04, 2.76449777e-04, 3.35418707e-04,
          4.96977009e-04, 2.37816319e-04, 5.30104677e-04, 1.60208205e-04,
          2.82603451e-05, -1.61889446e-04, 4.87339203e-05,
          -2.08197453e-04, -2.59616965e-04, -4.83717711e-04,
          -3.07669165e-04, -1.46178485e-04, -2.54073180e-04,
          -1.41199329e-04, -3.12271644e-04, -5.00787166e-04,
          -4.60804556e-04, -4.94614069e-04, -2.67930853e-04,
          -3.38928134e-04, -1.94805019e-04, -3.07253678e-04,
          -1.96565190e-04, -4.02657679e-05, 1.84286619e-04,
          1.61955832e-04, 2.52762606e-04, 3.95106850e-04, 5.01538627e-04,
          3.64882872e-04, 1.60336349e-04, 2.04439624e-04, 5.70991717e-04,
          2.19510694e-04, 4.77699330e-04, 1.26448373e-04, 1.13713169e-04,
          -3.03116074e-04, -4.14971364e-05, -2.40810783e-04,
          -1.35743976e-04, -1.27175765e-04, 1.15546434e-04,
          -4.33101513e-06, -1.43448968e-04, -7.57213566e-05,
          -2.20832837e-04, -2.74536025e-04, -1.14588191e-04,
          -3.75855598e-04, -4.03295417e-05, -9.70439505e-05,
          8.11979917e-05, -5.79575644e-05, -1.44250123e-04,
          -2.35077150e-05, 2.90752097e-04, 3.50926857e-04,
          4.37955459e-04, 3.84353538e-04, 5.12543891e-04, 4.76800051e-04,
          1.49551488e-04, 1.71096413e-04, 4.69166902e-04, 2.80298089e-04,
          5.55909937e-04, 1.82221411e-04, 1.06369924e-04,
          -2.10928585e-04, -1.23049293e-04, -5.42316644e-04,
          -7.64614451e-05, 4.88353144e-05, 1.18601303e-04,
          -3.14269346e-05, -1.48111576e-04, -8.57845578e-07,
          8.07046963e-05, 1.57736853e-04, -4.89947961e-05,
          -1.71681662e-04, 2.31322592e-05, -5.73733123e-05,
          -1.36205563e-05, 1.03661558e-04, 3.67826178e-05,
          1.04792074e-04, 2.40216221e-04, 3.24844790e-04, 4.48047562e-04,
          4.39612486e-04, 5.90466661e-04, 5.32983628e-04, 2.06634853e-04,
          2.15059277e-04, 4.87461657e-04, 3.68610461e-04, 7.25554943e-04,
          1.66440339e-04, 2.59989436e-04, 5.66371891e-05,
          -8.32000660e-05, -4.40407341e-04, 5.87304858e-05,
          1.49542597e-04, 1.20476194e-04, -6.88872206e-06,
          5.30592188e-05, 2.09011763e-04, 3.55844182e-04, 2.11203951e-04,
          2.38887049e-04, 1.16620853e-04, 1.47185521e-04, 9.07028079e-05,
          1.64569414e-04, 2.72139267e-04, 1.95497822e-04, 1.55868183e-04,
          2.94515543e-04, 3.96997755e-04, 4.38735937e-04, 5.54205966e-04,
          6.06564514e-04, 4.97867295e-04, 3.57207231e-04, 3.24796361e-04,
          4.05585888e-04, 2.25052354e-04, 5.48957556e-04, 1.22882368e-04,
          3.45334003e-04, 2.73287413e-04, 1.44615347e-04,
          -2.71551107e-04, -1.33111134e-05, 1.88015532e-04,
          2.76072155e-04, 2.19359208e-04, 3.18912265e-04, 3.00095882e-04,
          4.15040849e-04, 1.82997712e-04, 3.40376282e-04, 1.74627101e-04,
          1.74208893e-04, 1.72054657e-04, 3.25257191e-04, 2.38000619e-04,
          2.33529936e-04, 2.87940376e-04, 3.80729907e-04, 3.55995086e-04,
          4.98247973e-04, 5.45112765e-04, 8.14146711e-04, 5.42958966e-04,
          5.99736464e-04, 4.89418628e-04, 2.57332431e-04, 1.04072329e-04,
          5.07823424e-04, 3.11685493e-04, 4.68314451e-04, 5.04085270e-04,
          3.15935235e-04, -5.68469586e-05, 1.01116151e-04,
          2.21056122e-04, 1.92756794e-04, 2.42791313e-04, 3.50944087e-04,
          3.32776865e-04, 3.67353408e-04, 2.55842344e-04, 4.32704896e-04,
          2.11174643e-04, 1.27247607e-04, 2.41212154e-04, 3.68265464e-04,
          3.52457166e-04, 2.69499462e-04, 3.41422041e-04, 4.98796755e-04,
          3.85656022e-04, 5.90556359e-04, 5.43328060e-04, 7.39445968e-04,
          4.46536345e-04, 4.12941765e-04, 3.74828436e-04, 3.13446682e-04,
          1.26429950e-04, 4.28802334e-04, 3.50535440e-04, 4.83327312e-04,
          4.51988279e-04, 1.60889176e-04, -1.98892914e-04,
          -4.60410811e-05, -9.06491550e-06, -2.69912562e-05,
          8.46787079e-05, 1.32481189e-04, 1.37586758e-04, 2.36156717e-04,
          1.25535880e-04, 3.27307207e-04, 1.91371131e-04, 2.28620891e-04,
          1.62876691e-04, 2.36612061e-04, 3.52418778e-04, 2.78794731e-04,
          9.06307905e-05, -8.20418518e-06, 2.25077296e-04,
          4.89970029e-04, 5.14060725e-04, 4.13306174e-04, 3.59374069e-04,
          2.58815435e-05, -2.75626871e-06, 1.84050004e-04,
          -1.53757501e-04, 3.54113436e-04, 2.60731409e-04,
          4.44011530e-04, 4.12087684e-04, 2.59933819e-04, 5.79214175e-05,
          4.89106860e-05, -5.08862795e-05, -1.50415815e-06,
          1.31043635e-05, -6.30360373e-05, -1.69108375e-07,
          2.41434784e-04, 1.85328230e-04, 1.83988232e-04, 1.37258481e-04,
          3.92905757e-04, 2.08133759e-04, 4.40644362e-04, 6.71977818e-04,
          7.28845072e-04, 3.74870287e-04, 1.54884969e-04, 3.71776958e-04,
          4.59969044e-04, 4.62897209e-04, 3.49320791e-04, 2.60525994e-04,
          2.49236873e-05, -1.81553682e-04, 2.44949915e-04,
          -8.75612895e-05, 5.31571684e-04, 4.61614545e-04,
          7.19837262e-04, 5.64293354e-04, 4.15341026e-04, 3.05498019e-04,
          2.16499364e-04, 5.37354172e-05, 1.30565910e-04, 2.49852019e-04,
