%YAML:1.0
---
opencv_ml_svm:
   format: 3
   svmType: C_SVC
   kernel:
      type: RBF
      gamma: 9.9999999999999995e-08
   C: 100.
   term_criteria: { iterations:1000 }
   var_count: 576
   class_count: 13
   class_labels: !!opencv-matrix
      rows: 13
      cols: 1
      dt: i
      data: [ 0, 1, 2, 3, 4, 5, 6, 8, 9, 10, 11, 12, 13 ]
   sv_total: 115
   support_vectors:
      - [ 81., 83., 84., 86., 86., 83., 89., 85., 93., 90., 87., 89.,
          76., 75., 86., 70., 72., 69., 79., 83., 90., 83., 13., 34.,
          82., 84., 85., 90., 85., 74., 90., 95., 86., 83., 14., 49.,
          40., 24., 51., 45., 39., 44., 52., 86., 88., 86., 6., 27., 44.,
          53., 74., 88., 81., 93., 85., 87., 85., 85., 79., 96., 79.,
          83., 42., 42., 41., 36., 45., 54., 75., 81., 12., 83., 36.,
          24., 46., 56., 73., 88., 87., 90., 84., 86., 89., 92., 94.,
          73., 47., 32., 38., 29., 28., 44., 71., 82., 77., 78., 43.,
          35., 26., 38., 48., 67., 84., 88., 82., 90., 83., 92., 90.,
          81., 41., 43., 34., 36., 34., 36., 50., 69., 77., 85., 39.,
          39., 38., 30., 38., 44., 74., 84., 86., 88., 96., 91., 94.,
          82., 48., 32., 36., 31., 28., 30., 31., 33., 41., 59., 43.,
          36., 35., 35., 28., 29., 46., 80., 83., 74., 75., 90., 93.,
          85., 73., 42., 33., 28., 27., 23., 21., 18., 25., 26., 33.,
          36., 32., 37., 30., 15., 20., 37., 57., 50., 58., 55., 57.,
          56., 49., 32., 36., 24., 16., 18., 12., 12., 8., 4., 36., 29.,
          33., 32., 34., 9., 0., 0., 1., 2., 3., 2., 1., 0., 1., 2., 55.,
          39., 16., 14., 12., 1., 0., 1., 37., 33., 37., 28., 28., 9.,
          0., 2., 0., 1., 1., 0., 0., 0., 0., 0., 57., 48., 18., 11., 0.,
          0., 5., 0., 55., 45., 29., 29., 25., 7., 2., 0., 0., 0., 0.,
          0., 0., 0., 0., 0., 51., 69., 0., 0., 0., 3., 0., 0., 58., 60.,
          44., 28., 21., 12., 0., 2., 1., 0., 0., 0., 1., 1., 0., 0.,
          52., 3., 0., 3., 1., 2., 0., 1., 4., 64., 72., 32., 20., 5.,
          0., 0., 0., 0., 0., 0., 0., 1., 0., 0., 8., 0., 1., 0., 0., 0.,
          1., 0., 74., 86., 86., 40., 27., 1., 2., 2., 0., 0., 0., 0.,
          0., 0., 0., 0., 0., 1., 0., 1., 0., 3., 0., 8., 97., 86., 82.,
          19., 0., 2., 0., 0., 0., 0., 0., 0., 0., 0., 0., 0., 1., 2.,
          0., 1., 0., 0., 7., 241., 76., 83., 30., 3., 0., 0., 3., 0.,
          0., 0., 0., 0., 0., 0., 0., 0., 0., 0., 1., 3., 0., 3., 1.,
          28., 47., 56., 6., 0., 0., 3., 0., 0., 0., 3., 0., 0., 1., 0.,
          1., 0., 0., 2., 0., 2., 2., 0., 0., 22., 7., 14., 0., 0., 2.,
          0., 1., 2., 1., 0., 1., 0., 1., 0., 0., 0., 1., 0., 44., 1.,
          0., 16., 72., 85., 0., 0., 0., 3., 2., 0., 0., 0., 2., 0., 0.,
          1., 0., 5., 130., 1., 0., 5., 47., 46., 82., 96., 90., 89., 1.,
          0., 0., 1., 0., 2., 1., 0., 1., 0., 2., 0., 0., 0., 17., 0.,
          0., 19., 22., 23., 30., 65., 62., 70., 0., 0., 0., 0., 0., 2.,
          0., 0., 0., 38., 73., 40., 2., 4., 2., 27., 31., 7., 0., 0.,
          2., 3., 4., 2., 0., 0., 0., 3., 8., 0., 1., 3., 37., 63., 86.,
          90., 81., 81., 81., 45., 33., 3., 4., 0., 2., 0., 0., 0., 1.,
          0., 2., 21., 26., 12., 22., 22., 28., 29., 71., 75., 84., 95.,
          94., 63., 41., 0., 0., 2., 0., 4., 1., 1., 0., 2., 0., 30.,
          26., 14., 19., 11., 0., 2., 7., 39., 79., 89., 90., 88., 55.,
          7., 0., 0., 3., 0., 0., 1. ]
      - [ 1., 2., 0., 0., 33., 118., 0., 1., 0., 1., 0., 1., 1., 0., 28.,
          90., 114., 113., 143., 154., 157., 169., 42., 33., 2., 0., 0.,
          0., 32., 128., 0., 0., 3., 0., 3., 0., 1., 3., 12., 101., 120.,
          121., 144., 154., 160., 115., 148., 54., 0., 20., 0., 14., 37.,
          70., 22., 1., 0., 3., 2., 4., 10., 6., 3., 116., 123., 122.,
          148., 158., 157., 111., 37., 36., 14., 5., 0., 42., 37., 16.,
          19., 0., 6., 0., 7., 17., 11., 8., 82., 121., 122., 118., 152.,
          163., 163., 162., 161., 166., 4., 24., 38., 35., 39., 9., 55.,
          46., 16., 7., 30., 22., 16., 47., 122., 116., 126., 126., 152.,
          158., 161., 166., 166., 170., 38., 38., 29., 37., 40., 151.,
          34., 69., 0., 19., 29., 24., 10., 122., 119., 122., 116., 125.,
          153., 168., 162., 162., 166., 169., 29., 28., 37., 33., 36.,
          136., 177., 193., 102., 109., 13., 3., 79., 92., 97., 109.,
          112., 118., 148., 162., 170., 167., 165., 172., 85., 85., 72.,
          93., 109., 137., 130., 147., 156., 115., 85., 66., 66., 60.,
          66., 58., 84., 123., 150., 164., 166., 165., 174., 169., 86.,
          90., 89., 122., 155., 135., 37., 37., 36., 24., 2., 0., 0., 1.,
          0., 1., 15., 120., 153., 168., 168., 169., 172., 171., 36.,
          63., 66., 110., 151., 114., 37., 40., 37., 0., 0., 1., 2., 0.,
          0., 0., 9., 128., 160., 168., 169., 173., 175., 175., 0., 3.,
          56., 100., 161., 122., 34., 35., 0., 1., 0., 1., 0., 0., 4.,
          0., 6., 125., 157., 172., 180., 171., 177., 178., 3., 0., 25.,
          99., 165., 139., 39., 35., 1., 0., 0., 4., 0., 8., 0., 1., 16.,
          126., 172., 177., 174., 179., 180., 175., 0., 3., 0., 100.,
          176., 147., 33., 24., 6., 44., 6., 0., 9., 4., 21., 0., 14.,
          123., 181., 179., 181., 178., 182., 181., 6., 1., 4., 117.,
          186., 151., 26., 19., 7., 2., 0., 0., 12., 26., 27., 4., 29.,
          135., 177., 186., 177., 181., 175., 178., 0., 2., 1., 165.,
          192., 145., 21., 23., 17., 43., 78., 29., 2., 22., 22., 11.,
          29., 134., 193., 192., 177., 180., 134., 18., 4., 7., 3., 188.,
          201., 141., 39., 75., 42., 40., 45., 38., 34., 2., 43., 24.,
          36., 135., 200., 192., 186., 191., 19., 84., 9., 15., 187.,
          203., 203., 171., 18., 34., 38., 38., 41., 37., 45., 25., 83.,
          35., 40., 129., 198., 196., 189., 188., 183., 187., 11., 156.,
          207., 201., 206., 181., 29., 35., 40., 50., 41., 33., 33., 33.,
          108., 38., 33., 115., 196., 196., 195., 184., 183., 185., 194.,
          208., 208., 207., 207., 192., 36., 44., 45., 37., 35., 42.,
          40., 17., 40., 38., 44., 85., 199., 195., 188., 185., 184.,
          183., 223., 218., 215., 218., 208., 211., 39., 110., 47., 40.,
          37., 32., 28., 1., 27., 16., 24., 99., 196., 194., 186., 189.,
          189., 181., 201., 193., 201., 211., 183., 203., 183., 177.,
          132., 162., 47., 21., 23., 114., 110., 74., 116., 160., 190.,
          191., 183., 182., 181., 183., 216., 203., 209., 212., 206.,
          211., 208., 202., 206., 211., 207., 212., 187., 190., 193.,
          184., 179., 188., 202., 189., 190., 182., 187., 184., 211.,
          211., 209., 211., 211., 207., 210., 205., 201., 210., 207.,
          203., 201., 201., 196., 187., 188., 186., 179., 185., 200.,
          181., 186., 185., 211., 208., 210., 210., 207., 209., 211.,
          202., 205., 206., 210., 207., 198., 200., 195., 197., 194.,
          189., 188., 200., 174., 193., 184., 186. ]
      - [ 77., 69., 54., 82., 81., 76., 81., 79., 84., 85., 80., 77.,
          77., 86., 80., 75., 80., 88., 84., 86., 82., 80., 88., 89.,
          80., 76., 68., 59., 79., 80., 74., 79., 77., 88., 80., 82.,
          92., 89., 92., 86., 87., 83., 88., 79., 87., 88., 83., 84.,
          87., 77., 73., 76., 63., 86., 76., 83., 79., 81., 82., 83.,
          88., 87., 83., 82., 79., 87., 90., 80., 87., 80., 91., 93.,
          83., 82., 89., 78., 77., 65., 78., 77., 69., 82., 84., 77.,
          79., 92., 90., 84., 83., 85., 91., 81., 90., 90., 86., 88.,
          90., 81., 84., 78., 72., 5., 2., 0., 37., 75., 74., 78., 89.,
          82., 90., 83., 82., 84., 88., 86., 85., 91., 87., 90., 84.,
          86., 76., 72., 0., 5., 2., 2., 5., 9., 59., 52., 52., 64., 63.,
          67., 59., 58., 63., 70., 67., 68., 64., 52., 85., 87., 77., 0.,
          15., 1., 1., 7., 2., 17., 22., 3., 1., 2., 0., 1., 2., 5., 72.,
          81., 83., 89., 83., 85., 83., 81., 81., 2., 3., 1., 3., 2., 9.,
          3., 0., 18., 3., 2., 2., 1., 0., 3., 84., 91., 94., 90., 92.,
          90., 90., 79., 82., 0., 2., 5., 6., 6., 1., 11., 0., 12., 1.,
          4., 2., 0., 2., 3., 83., 86., 77., 92., 93., 91., 17., 54.,
          80., 5., 2., 1., 9., 3., 2., 7., 0., 5., 0., 1., 2., 1., 4.,
          2., 27., 0., 1., 0., 63., 85., 55., 23., 19., 67., 3., 5., 0.,
          1., 1., 2., 0., 0., 0., 0., 2., 1., 1., 2., 2., 3., 6., 126.,
          0., 36., 10., 58., 78., 88., 66., 0., 0., 4., 0., 0., 1., 0.,
          1., 0., 0., 0., 1., 0., 0., 10., 21., 18., 3., 1., 77., 86.,
          85., 87., 86., 58., 0., 0., 0., 0., 1., 0., 0., 1., 0., 0., 3.,
          1., 0., 3., 11., 11., 0., 0., 85., 84., 89., 89., 88., 83.,
          48., 0., 1., 0., 0., 0., 0., 1., 0., 0., 0., 1., 1., 0., 0.,
          0., 0., 3., 92., 87., 87., 83., 82., 74., 47., 1., 0., 1., 0.,
          0., 0., 0., 0., 0., 3., 0., 0., 4., 1., 1., 0., 0., 90., 86.,
          81., 82., 77., 75., 49., 6., 0., 1., 0., 1., 2., 0., 1., 0.,
          0., 1., 22., 0., 0., 0., 2., 0., 85., 89., 82., 78., 82., 72.,
          45., 9., 5., 0., 0., 1., 0., 0., 1., 0., 0., 0., 21., 3., 0.,
          0., 4., 0., 89., 86., 82., 87., 77., 75., 41., 15., 10., 11.,
          3., 4., 2., 2., 6., 5., 6., 0., 14., 27., 2., 3., 0., 0., 90.,
          90., 83., 84., 82., 76., 54., 49., 51., 44., 48., 36., 39.,
          52., 61., 65., 53., 44., 42., 6., 0., 0., 1., 2., 88., 90.,
          85., 84., 60., 28., 23., 43., 50., 57., 63., 68., 71., 71.,
          78., 76., 64., 59., 51., 0., 2., 0., 0., 0., 86., 85., 87.,
          86., 18., 3., 4., 5., 0., 4., 17., 52., 79., 84., 83., 86.,
          73., 63., 54., 4., 1., 5., 5., 3., 88., 88., 80., 69., 2., 6.,
          8., 8., 2., 0., 2., 0., 1., 77., 79., 94., 78., 76., 71., 4.,
          6., 2., 1., 0., 35., 34., 41., 78., 2., 0., 6., 0., 0., 3., 0.,
          0., 0., 4., 67., 88., 84., 83., 74., 8., 10., 2., 2., 15., 26.,
          54., 13., 72., 13., 6., 0., 0., 2., 0., 0., 3., 0., 0., 5.,
          80., 83., 78., 82., 10., 9., 0., 10., 17. ]
      - [ 78., 66., 70., 74., 74., 75., 77., 80., 83., 77., 78., 75., 5.,
          29., 25., 16., 50., 48., 50., 47., 53., 82., 82., 82., 63.,
          49., 39., 41., 48., 69., 77., 81., 84., 85., 77., 83., 83.,
          90., 79., 73., 47., 47., 39., 46., 46., 57., 76., 87., 52.,
          43., 40., 31., 40., 51., 69., 80., 82., 82., 83., 79., 92.,
          88., 85., 72., 47., 47., 42., 37., 43., 36., 70., 86., 40.,
          42., 40., 42., 33., 35., 43., 63., 79., 80., 84., 79., 79.,
          85., 89., 81., 37., 47., 45., 40., 42., 39., 47., 79., 45.,
          39., 40., 37., 40., 30., 35., 42., 66., 85., 80., 79., 80.,
          82., 85., 79., 55., 15., 21., 29., 35., 32., 39., 41., 42.,
          42., 35., 40., 38., 41., 37., 35., 46., 71., 73., 82., 80.,
          80., 88., 46., 0., 3., 0., 0., 4., 30., 36., 33., 41., 41.,
          40., 37., 39., 35., 30., 11., 20., 27., 34., 44., 41., 46.,
          50., 0., 0., 3., 1., 0., 2., 0., 1., 0., 0., 0., 0., 14., 27.,
          36., 27., 1., 0., 1., 0., 0., 2., 0., 0., 2., 2., 3., 0., 0.,
          0., 1., 0., 1., 0., 0., 0., 0., 1., 4., 30., 0., 0., 0., 2.,
          0., 0., 2., 0., 0., 1., 0., 8., 16., 2., 0., 0., 0., 0., 3.,
          0., 3., 0., 0., 0., 7., 5., 6., 0., 0., 4., 0., 1., 0., 0., 3.,
          2., 0., 0., 2., 4., 0., 3., 0., 1., 0., 3., 1., 0., 4., 0., 2.,
          0., 0., 0., 1., 1., 1., 2., 0., 0., 0., 3., 0., 0., 0., 0., 3.,
          0., 2., 0., 0., 1., 0., 2., 0., 0., 1., 4., 0., 0., 0., 1., 4.,
          45., 90., 0., 0., 3., 2., 0., 0., 3., 64., 0., 4., 0., 0., 0.,
          2., 0., 2., 0., 0., 1., 1., 0., 0., 51., 78., 35., 0., 0., 1.,
          0., 2., 0., 1., 0., 0., 0., 2., 2., 0., 0., 0., 1., 6., 0., 0.,
          1., 1., 47., 78., 84., 82., 1., 0., 48., 3., 0., 0., 2., 0.,
          3., 0., 1., 0., 2., 0., 0., 0., 3., 0., 0., 0., 45., 80., 79.,
          91., 89., 44., 88., 59., 40., 23., 28., 2., 0., 2., 0., 0., 0.,
          2., 153., 1., 0., 2., 1., 1., 38., 86., 86., 80., 89., 86.,
          95., 58., 49., 45., 48., 35., 0., 1., 1., 0., 0., 0., 0., 0.,
          1., 0., 0., 2., 23., 60., 75., 85., 84., 83., 90., 62., 49.,
          44., 42., 47., 40., 9., 0., 1., 0., 1., 0., 2., 0., 4., 0., 0.,
          12., 37., 43., 44., 86., 90., 93., 77., 43., 39., 44., 42.,
          26., 52., 58., 54., 22., 14., 14., 52., 60., 65., 67., 35.,
          27., 27., 26., 26., 34., 73., 90., 81., 53., 43., 45., 40.,
          37., 32., 35., 44., 56., 86., 84., 83., 78., 90., 81., 37.,
          30., 2., 0., 1., 1., 2., 89., 84., 50., 45., 38., 44., 31.,
          32., 40., 32., 42., 66., 86., 83., 89., 88., 85., 53., 39., 0.,
          0., 0., 0., 0., 95., 88., 75., 40., 31., 33., 24., 31., 28.,
          35., 26., 37., 67., 87., 92., 93., 95., 79., 40., 4., 0., 1.,
          6., 0., 0., 4., 0., 1., 0., 0., 0., 0., 0., 0., 1., 2., 0.,
          50., 95., 87., 90., 89., 74., 3., 0., 2., 0., 0., 6., 0., 0.,
          1., 0., 0., 1., 1., 2., 0., 1., 0., 0., 0., 54., 97., 94., 20.,
          0., 0., 0., 2., 0., 2. ]
      - [ 0., 0., 0., 2., 0., 3., 54., 103., 110., 108., 105., 94., 54.,
          51., 55., 70., 107., 111., 97., 37., 1., 4., 0., 0., 2., 0.,
          0., 1., 0., 2., 56., 106., 113., 105., 105., 85., 53., 56.,
          57., 68., 110., 110., 104., 42., 0., 0., 3., 0., 0., 0., 2.,
          0., 1., 0., 65., 121., 113., 114., 94., 66., 61., 59., 54.,
          70., 101., 111., 101., 34., 0., 0., 3., 0., 0., 1., 0., 3., 0.,
          6., 62., 113., 111., 104., 71., 57., 56., 53., 57., 57., 73.,
          104., 104., 35., 2., 1., 0., 1., 0., 0., 0., 0., 0., 0., 67.,
          115., 117., 97., 60., 57., 56., 55., 58., 56., 69., 95., 100.,
          29., 0., 4., 1., 1., 19., 17., 21., 16., 15., 14., 80., 115.,
          116., 89., 56., 49., 50., 53., 50., 58., 60., 95., 108., 35.,
          7., 9., 9., 10., 96., 100., 91., 102., 92., 100., 107., 88.,
          78., 51., 40., 35., 28., 33., 39., 38., 43., 75., 100., 95.,
          94., 98., 91., 89., 116., 121., 119., 116., 119., 109., 84.,
          9., 0., 0., 0., 0., 3., 0., 2., 0., 0., 4., 40., 113., 116.,
          118., 115., 124., 121., 120., 112., 116., 118., 110., 87., 8.,
          0., 1., 0., 0., 0., 1., 0., 0., 2., 0., 44., 115., 122., 127.,
          119., 121., 122., 121., 118., 111., 122., 114., 95., 6., 2.,
          1., 0., 1., 1., 0., 0., 0., 0., 0., 40., 111., 120., 125.,
          123., 122., 114., 117., 117., 117., 115., 112., 86., 12., 2.,
          0., 0., 0., 0., 1., 2., 1., 2., 0., 34., 107., 121., 125.,
          123., 116., 116., 115., 123., 117., 110., 108., 82., 16., 16.,
          11., 8., 5., 2., 0., 0., 0., 0., 0., 43., 112., 118., 117.,
          116., 119., 118., 109., 118., 120., 120., 106., 8., 1., 2., 0.,
          1., 0., 2., 0., 2., 2., 0., 0., 49., 108., 114., 117., 114.,
          119., 117., 110., 112., 116., 115., 0., 3., 0., 0., 0., 3., 1.,
          7., 0., 0., 0., 1., 0., 48., 100., 109., 120., 113., 112.,
          115., 112., 112., 117., 81., 4., 0., 3., 0., 0., 1., 0., 10.,
          1., 0., 0., 0., 2., 53., 104., 109., 114., 112., 113., 115.,
          113., 119., 112., 67., 1., 3., 0., 1., 1., 1., 0., 15., 8., 6.,
          9., 0., 1., 51., 112., 118., 115., 114., 116., 120., 118.,
          123., 126., 81., 4., 0., 0., 0., 0., 2., 0., 1., 11., 12., 10.,
          0., 1., 60., 114., 121., 121., 122., 118., 120., 124., 128.,
          123., 103., 49., 5., 3., 0., 3., 10., 14., 16., 9., 24., 6.,
          4., 8., 66., 117., 130., 125., 125., 127., 86., 85., 82., 88.,
          89., 62., 38., 20., 16., 66., 54., 60., 75., 92., 87., 77.,
          87., 85., 109., 111., 114., 105., 106., 109., 2., 6., 6., 11.,
          10., 8., 73., 92., 99., 107., 112., 112., 105., 103., 109.,
          114., 109., 111., 88., 13., 0., 7., 13., 6., 1., 0., 1., 0.,
          1., 2., 68., 108., 113., 113., 114., 108., 115., 120., 111.,
          112., 115., 114., 89., 12., 2., 0., 0., 0., 0., 2., 1., 0., 2.,
          10., 68., 115., 115., 114., 124., 118., 123., 112., 115., 112.,
          117., 118., 92., 8., 0., 1., 1., 1., 0., 1., 0., 1., 0., 4.,
          75., 112., 119., 118., 111., 120., 110., 115., 115., 114.,
          116., 113., 86., 7., 0., 0., 0., 1., 2., 0., 0., 0., 3., 3.,
          79., 117., 118., 117., 116., 113., 118., 116., 111., 113.,
          122., 120., 92., 7., 0., 2., 0., 0. ]
      - [ 21., 22., 22., 27., 23., 26., 146., 178., 176., 182., 182.,
          178., 180., 176., 172., 182., 179., 178., 155., 15., 22., 23.,
          24., 21., 18., 26., 22., 26., 27., 23., 153., 185., 186., 180.,
          185., 182., 177., 183., 179., 181., 181., 180., 147., 16., 24.,
          22., 21., 22., 20., 23., 22., 20., 21., 18., 155., 184., 186.,
          185., 185., 181., 183., 177., 178., 181., 182., 180., 158.,
          15., 20., 20., 20., 21., 23., 17., 18., 27., 18., 20., 150.,
          183., 185., 188., 178., 181., 176., 180., 179., 180., 178.,
          170., 153., 19., 20., 24., 23., 19., 15., 16., 18., 13., 20.,
          14., 0., 8., 142., 182., 181., 178., 178., 174., 175., 167.,
          176., 184., 150., 24., 18., 21., 26., 18., 18., 18., 20., 19.,
          10., 20., 22., 24., 17., 82., 178., 174., 171., 176., 170.,
          177., 175., 169., 147., 15., 24., 25., 19., 27., 73., 54., 58.,
          8., 20., 23., 26., 20., 18., 26., 178., 177., 169., 166., 165.,
          168., 175., 177., 138., 31., 49., 51., 66., 44., 184., 190.,
          186., 8., 25., 25., 30., 25., 23., 22., 37., 131., 112., 118.,
          116., 121., 129., 130., 161., 160., 177., 173., 170., 179.,
          189., 184., 194., 6., 20., 23., 24., 17., 25., 18., 27., 29.,
          21., 27., 23., 25., 24., 25., 145., 170., 179., 176., 183.,
          183., 187., 183., 186., 7., 30., 29., 22., 29., 27., 7., 25.,
          20., 21., 25., 21., 25., 28., 28., 142., 172., 177., 177.,
          182., 182., 188., 191., 183., 148., 31., 49., 40., 36., 14.,
          1., 18., 8., 9., 19., 22., 24., 25., 27., 135., 173., 176.,
          180., 183., 183., 186., 190., 180., 183., 33., 2., 5., 5., 6.,
          0., 2., 0., 0., 12., 22., 18., 22., 24., 132., 172., 176.,
          180., 183., 182., 180., 181., 184., 181., 182., 25., 2., 17.,
          9., 2., 0., 3., 0., 2., 14., 19., 24., 26., 137., 170., 175.,
          175., 180., 180., 183., 180., 176., 176., 166., 14., 17., 25.,
          20., 3., 0., 0., 0., 2., 9., 21., 26., 26., 141., 167., 171.,
          171., 177., 178., 176., 176., 173., 171., 170., 76., 74., 28.,
          4., 0., 0., 1., 1., 0., 1., 20., 24., 24., 144., 166., 170.,
          173., 175., 178., 182., 177., 179., 178., 173., 171., 19.,
          158., 114., 68., 2., 0., 0., 0., 0., 15., 22., 24., 146., 169.,
          171., 176., 174., 177., 180., 176., 176., 171., 171., 161.,
          32., 59., 40., 18., 5., 1., 0., 1., 0., 12., 21., 29., 144.,
          167., 173., 174., 171., 179., 178., 179., 176., 176., 175.,
          172., 138., 12., 54., 6., 14., 0., 1., 0., 0., 6., 21., 26.,
          151., 171., 174., 179., 174., 171., 188., 187., 186., 181.,
          178., 172., 137., 27., 49., 10., 16., 16., 23., 11., 12., 13.,
          28., 32., 139., 174., 180., 179., 180., 182., 139., 141., 146.,
          153., 142., 134., 160., 162., 155., 141., 118., 145., 138.,
          153., 150., 164., 168., 164., 158., 148., 135., 148., 153.,
          127., 19., 25., 26., 23., 27., 21., 134., 164., 163., 153.,
          152., 159., 159., 159., 160., 158., 165., 169., 140., 14., 22.,
          25., 21., 25., 26., 23., 28., 23., 24., 27., 144., 166., 167.,
          171., 161., 161., 162., 160., 165., 163., 162., 164., 143.,
          23., 22., 21., 22., 20., 18., 31., 21., 24., 27., 21., 124.,
          171., 167., 174., 160., 156., 160., 153., 162., 161., 169.,
          164., 141., 20., 22., 23., 23., 18., 26., 18., 23., 22., 24.,
          25., 149., 171., 168., 160., 164., 167., 157., 167., 165.,
          168., 169., 171., 138., 25., 23., 22., 20., 25. ]
      - [ 79., 0., 93., 79., 83., 82., 85., 83., 85., 81., 78., 77., 75.,
          19., 4., 80., 73., 75., 75., 71., 71., 73., 72., 69., 2., 2.,
          78., 78., 81., 80., 79., 77., 76., 77., 73., 77., 76., 75., 8.,
          72., 71., 69., 69., 68., 73., 65., 66., 28., 82., 79., 82.,
          81., 81., 79., 76., 72., 75., 76., 75., 68., 69., 69., 71.,
          74., 75., 73., 76., 57., 57., 68., 40., 70., 83., 80., 78.,
          80., 73., 74., 80., 74., 75., 78., 68., 75., 76., 70., 75.,
          78., 33., 48., 81., 66., 65., 45., 68., 69., 76., 76., 75.,
          79., 75., 75., 74., 71., 71., 67., 73., 67., 70., 84., 0., 2.,
          1., 1., 0., 21., 47., 64., 67., 59., 40., 50., 42., 47., 49.,
          48., 37., 45., 40., 35., 38., 36., 41., 4., 0., 0., 0., 0., 1.,
          0., 60., 61., 54., 64., 64., 60., 63., 64., 61., 59., 22., 3.,
          0., 0., 2., 7., 13., 0., 3., 1., 4., 0., 2., 0., 4., 52., 58.,
          60., 69., 11., 25., 30., 23., 32., 13., 0., 1., 0., 4., 35.,
          5., 51., 0., 0., 0., 0., 0., 0., 1., 41., 53., 52., 7., 5.,
          19., 1., 0., 2., 26., 0., 2., 0., 13., 2., 0., 106., 2., 0.,
          0., 0., 0., 1., 7., 55., 56., 59., 1., 0., 3., 25., 6., 5.,
          11., 1., 2., 3., 0., 4., 2., 21., 0., 0., 0., 1., 3., 0., 46.,
          49., 49., 56., 1., 1., 3., 3., 2., 0., 18., 0., 0., 0., 2., 0.,
          0., 4., 0., 0., 2., 0., 0., 29., 33., 47., 50., 53., 0., 1.,
          6., 4., 8., 1., 14., 0., 2., 2., 71., 0., 0., 0., 5., 0., 0.,
          5., 4., 26., 43., 45., 50., 64., 1., 0., 0., 0., 0., 3., 5.,
          1., 0., 31., 57., 1., 3., 0., 0., 3., 0., 2., 3., 33., 48.,
          56., 55., 64., 0., 0., 4., 0., 2., 11., 10., 0., 1., 9., 4.,
          0., 2., 2., 5., 0., 0., 0., 2., 42., 55., 59., 60., 63., 0.,
          0., 0., 0., 2., 14., 12., 1., 0., 0., 0., 0., 0., 0., 0., 1.,
          1., 0., 1., 56., 55., 58., 63., 64., 0., 2., 0., 0., 9., 19.,
          20., 0., 0., 1., 0., 0., 2., 0., 3., 0., 0., 3., 0., 60., 55.,
          54., 58., 56., 0., 1., 0., 9., 33., 32., 25., 0., 0., 0., 0.,
          2., 0., 2., 2., 0., 2., 0., 1., 50., 55., 56., 58., 62., 24.,
          25., 50., 45., 44., 52., 29., 6., 4., 7., 5., 10., 20., 17.,
          29., 35., 42., 45., 32., 65., 57., 58., 53., 59., 5., 0., 3.,
          3., 1., 3., 32., 35., 44., 46., 46., 50., 49., 58., 50., 58.,
          55., 57., 46., 57., 52., 53., 58., 56., 0., 3., 0., 0., 3., 0.,
          36., 52., 48., 53., 50., 54., 52., 58., 2., 0., 2., 0., 6.,
          50., 55., 52., 51., 56., 12., 1., 0., 6., 0., 0., 30., 40.,
          46., 48., 59., 10., 0., 0., 1., 0., 0., 0., 1., 16., 50., 47.,
          57., 54., 75., 19., 14., 0., 0., 0., 32., 43., 43., 33., 0.,
          0., 15., 1., 71., 9., 4., 9., 0., 3., 42., 47., 46., 55., 132.,
          3., 0., 0., 1., 0., 29., 35., 46., 3., 1., 19., 2., 0., 181.,
          2., 0., 10., 2., 0., 40., 47., 52., 55., 0., 2., 0., 1., 0.,
          1., 30., 46., 31., 0., 14., 16., 0., 9., 101., 0., 0., 0., 0.,
          18., 42., 50., 58., 67. ]
      - [ 94., 84., 66., 66., 69., 80., 81., 85., 86., 87., 88., 85.,
          59., 44., 50., 43., 24., 50., 49., 43., 43., 63., 88., 82.,
          87., 67., 45., 34., 38., 53., 76., 81., 91., 86., 85., 84.,
          82., 91., 98., 89., 61., 42., 44., 36., 42., 50., 62., 92.,
          87., 48., 35., 41., 37., 35., 37., 66., 82., 84., 89., 85.,
          83., 91., 94., 90., 64., 39., 42., 39., 34., 39., 44., 77.,
          66., 51., 42., 31., 41., 33., 38., 38., 69., 83., 91., 84.,
          80., 87., 91., 89., 68., 43., 39., 41., 35., 34., 38., 57.,
          64., 41., 37., 32., 32., 42., 32., 36., 38., 68., 81., 80.,
          77., 83., 93., 90., 77., 48., 39., 31., 30., 33., 32., 30.,
          71., 43., 37., 36., 36., 31., 38., 27., 22., 44., 60., 73.,
          75., 74., 86., 88., 79., 76., 43., 37., 26., 28., 23., 28.,
          79., 53., 37., 36., 28., 33., 30., 33., 5., 1., 1., 12., 15.,
          13., 17., 17., 18., 14., 14., 44., 10., 8., 16., 9., 78., 76.,
          46., 28., 31., 35., 32., 32., 0., 0., 2., 0., 0., 2., 3., 0.,
          1., 0., 6., 0., 0., 1., 0., 0., 73., 85., 62., 38., 34., 25.,
          32., 31., 0., 2., 1., 0., 0., 1., 1., 0., 1., 0., 0., 5., 0.,
          0., 3., 0., 20., 35., 66., 58., 43., 29., 28., 25., 0., 0., 0.,
          1., 0., 0., 0., 2., 0., 2., 2., 0., 3., 1., 0., 0., 44., 29.,
          4., 22., 45., 9., 3., 0., 0., 2., 5., 0., 3., 6., 4., 0., 0.,
          0., 0., 0., 0., 0., 3., 8., 5., 0., 17., 11., 0., 0., 1., 0.,
          0., 0., 0., 2., 54., 16., 0., 0., 0., 1., 1., 1., 0., 4., 2.,
          163., 0., 0., 0., 2., 2., 0., 1., 1., 0., 0., 1., 2., 0., 7.,
          0., 0., 0., 0., 2., 0., 0., 0., 0., 10., 1., 1., 0., 1., 0.,
          2., 1., 0., 1., 2., 0., 0., 1., 0., 0., 2., 0., 3., 0., 9., 0.,
          0., 0., 0., 0., 0., 3., 2., 0., 0., 0., 0., 0., 0., 2., 4.,
          10., 0., 0., 0., 0., 0., 2., 76., 62., 52., 79., 38., 1., 0.,
          0., 0., 1., 0., 0., 0., 16., 104., 8., 3., 76., 0., 1., 0., 1.,
          7., 3., 72., 82., 88., 89., 90., 0., 22., 52., 22., 2., 0., 0.,
          2., 0., 2., 0., 0., 1., 1., 1., 0., 0., 1., 2., 39., 51., 67.,
          86., 93., 48., 94., 64., 40., 16., 0., 0., 2., 7., 0., 2., 3.,
          0., 4., 13., 16., 20., 11., 0., 30., 31., 35., 45., 90., 99.,
          90., 72., 44., 36., 36., 30., 27., 29., 36., 36., 47., 55.,
          68., 63., 75., 80., 60., 34., 34., 11., 9., 6., 21., 92., 98.,
          87., 48., 30., 38., 33., 31., 26., 28., 36., 44., 88., 84.,
          84., 88., 92., 71., 45., 37., 2., 0., 4., 0., 93., 107., 86.,
          53., 35., 36., 37., 29., 26., 21., 31., 28., 58., 70., 98.,
          88., 95., 84., 45., 33., 0., 1., 0., 3., 95., 91., 91., 73.,
          37., 28., 30., 24., 23., 13., 8., 8., 14., 47., 81., 84., 97.,
          89., 70., 30., 3., 0., 0., 0., 17., 34., 32., 41., 15., 19.,
          13., 8., 2., 0., 3., 0., 0., 0., 30., 85., 92., 94., 86., 74.,
          0., 3., 0., 3., 5., 1., 2., 0., 0., 1., 0., 1., 0., 0., 0., 0.,
          1., 0., 1., 61., 86., 88., 86., 77., 0., 0., 4., 0. ]
      - [ 88., 84., 77., 81., 74., 82., 84., 86., 84., 88., 82., 76.,
          36., 70., 80., 72., 66., 86., 85., 87., 80., 82., 19., 64.,
          83., 81., 81., 83., 80., 82., 82., 86., 84., 52., 13., 39.,
          34., 30., 52., 44., 47., 44., 66., 83., 83., 81., 13., 10.,
          45., 56., 75., 82., 84., 81., 80., 87., 86., 78., 86., 86.,
          77., 53., 47., 45., 38., 43., 47., 72., 79., 85., 22., 66.,
          34., 38., 50., 60., 79., 88., 83., 83., 84., 89., 96., 85.,
          79., 53., 43., 42., 41., 37., 39., 47., 78., 80., 82., 79.,
          40., 41., 41., 44., 59., 76., 79., 83., 84., 82., 76., 84.,
          87., 62., 43., 40., 40., 37., 38., 37., 58., 82., 83., 80.,
          42., 42., 35., 34., 43., 62., 77., 85., 83., 82., 89., 89.,
          85., 78., 44., 41., 38., 36., 34., 37., 35., 41., 59., 84.,
          36., 42., 41., 33., 29., 38., 71., 89., 82., 81., 81., 90.,
          90., 84., 62., 44., 39., 32., 34., 33., 30., 33., 30., 45.,
          36., 39., 40., 36., 32., 25., 51., 58., 63., 68., 70., 77.,
          74., 69., 68., 49., 30., 29., 23., 26., 21., 17., 18., 11.,
          43., 38., 35., 35., 24., 2., 0., 0., 0., 0., 0., 1., 2., 1.,
          1., 2., 68., 38., 30., 24., 0., 2., 1., 0., 38., 40., 41., 38.,
          22., 0., 0., 2., 1., 0., 0., 0., 0., 0., 1., 2., 67., 46., 27.,
          0., 0., 0., 0., 0., 44., 40., 37., 34., 22., 2., 0., 1., 2.,
          0., 0., 0., 0., 0., 0., 1., 71., 56., 3., 0., 4., 3., 0., 1.,
          71., 51., 40., 16., 0., 3., 0., 0., 3., 1., 0., 0., 0., 0., 0.,
          0., 69., 74., 9., 2., 0., 0., 3., 0., 43., 83., 29., 0., 0.,
          0., 4., 0., 1., 1., 0., 0., 0., 0., 0., 0., 68., 81., 57., 0.,
          3., 2., 95., 2., 93., 81., 7., 0., 5., 0., 0., 1., 0., 0., 0.,
          0., 0., 0., 0., 0., 65., 81., 83., 17., 0., 0., 0., 42., 88.,
          85., 4., 0., 0., 0., 0., 0., 0., 0., 1., 0., 0., 0., 0., 0.,
          67., 85., 93., 79., 0., 0., 2., 1., 91., 92., 3., 2., 0., 0.,
          1., 1., 0., 2., 3., 1., 0., 0., 0., 0., 63., 86., 90., 92.,
          70., 0., 0., 1., 55., 60., 26., 3., 0., 0., 5., 0., 11., 0.,
          0., 3., 0., 0., 5., 0., 68., 92., 92., 88., 88., 81., 56., 44.,
          51., 51., 53., 14., 1., 0., 0., 2., 18., 5., 1., 0., 0., 4.,
          0., 1., 60., 84., 89., 90., 88., 93., 93., 86., 49., 43., 53.,
          47., 27., 3., 0., 4., 3., 1., 0., 0., 4., 0., 0., 1., 31., 45.,
          55., 83., 94., 84., 84., 91., 50., 42., 44., 41., 46., 20.,
          21., 0., 0., 1., 3., 24., 20., 17., 12., 1., 22., 46., 38.,
          42., 76., 87., 82., 95., 38., 43., 45., 36., 30., 45., 54.,
          63., 78., 65., 70., 70., 77., 74., 62., 40., 32., 10., 8., 8.,
          12., 24., 31., 37., 44., 34., 44., 35., 31., 31., 32., 43.,
          61., 84., 90., 92., 90., 95., 73., 38., 25., 0., 2., 0., 0.,
          3., 0., 0., 50., 41., 39., 40., 26., 33., 34., 35., 33., 69.,
          89., 94., 93., 89., 85., 47., 31., 0., 0., 0., 0., 1., 0., 0.,
          59., 38., 40., 38., 27., 30., 26., 12., 7., 18., 54., 88., 90.,
          94., 92., 69., 28., 3., 0., 0., 2., 0., 0., 1. ]
      - [ 0., 0., 3., 0., 3., 7., 27., 103., 132., 132., 146., 149.,
          151., 153., 151., 157., 156., 159., 155., 20., 18., 14., 14.,
          12., 0., 0., 1., 0., 7., 5., 22., 90., 99., 106., 116., 130.,
          152., 149., 156., 155., 158., 161., 156., 19., 15., 13., 15.,
          13., 0., 0., 3., 1., 3., 0., 19., 89., 90., 96., 94., 104.,
          133., 145., 154., 153., 155., 160., 155., 22., 10., 12., 13.,
          17., 2., 0., 0., 0., 3., 1., 12., 82., 83., 90., 89., 96.,
          112., 152., 149., 153., 157., 157., 151., 27., 8., 15., 5., 9.,
          0., 0., 1., 4., 5., 1., 2., 78., 78., 82., 87., 93., 96., 145.,
          145., 153., 150., 150., 153., 32., 6., 11., 6., 12., 0., 0.,
          2., 5., 2., 0., 2., 73., 69., 67., 69., 76., 78., 112., 130.,
          142., 144., 139., 140., 38., 7., 3., 8., 13., 2., 0., 0., 0.,
          4., 2., 0., 17., 11., 9., 7., 9., 9., 15., 28., 32., 43., 33.,
          31., 10., 1., 3., 7., 6., 66., 75., 82., 77., 79., 70., 49.,
          19., 0., 1., 0., 1., 3., 3., 6., 7., 8., 11., 23., 87., 93.,
          102., 105., 111., 114., 124., 132., 134., 131., 129., 116.,
          22., 1., 1., 0., 1., 8., 11., 12., 0., 1., 3., 30., 122., 148.,
          149., 154., 157., 112., 123., 134., 136., 131., 129., 119.,
          35., 0., 2., 0., 1., 4., 10., 5., 1., 0., 6., 34., 121., 147.,
          153., 158., 158., 112., 119., 134., 134., 129., 128., 118.,
          44., 1., 0., 4., 10., 1., 6., 1., 3., 6., 7., 27., 117., 148.,
          154., 156., 159., 112., 116., 131., 131., 129., 128., 117.,
          53., 10., 2., 0., 4., 6., 4., 0., 0., 18., 9., 24., 119., 153.,
          158., 158., 163., 108., 113., 129., 131., 131., 131., 123.,
          68., 12., 6., 3., 20., 14., 4., 4., 0., 11., 6., 22., 117.,
          149., 157., 157., 160., 104., 113., 130., 132., 132., 130.,
          127., 80., 25., 1., 0., 14., 106., 12., 8., 4., 17., 7., 23.,
          121., 149., 157., 159., 164., 104., 114., 128., 131., 132.,
          129., 130., 86., 3., 5., 1., 0., 71., 116., 40., 7., 15., 3.,
          22., 123., 146., 154., 157., 162., 105., 115., 125., 130.,
          135., 133., 135., 90., 1., 0., 0., 0., 0., 40., 15., 9., 0.,
          2., 31., 129., 146., 156., 160., 159., 106., 110., 126., 132.,
          136., 136., 132., 94., 1., 0., 0., 3., 0., 14., 11., 1., 0.,
          3., 37., 129., 149., 154., 156., 158., 100., 112., 129., 132.,
          134., 134., 134., 103., 1., 5., 4., 1., 0., 3., 2., 1., 3., 8.,
          29., 127., 151., 152., 158., 159., 104., 114., 128., 133.,
          135., 131., 130., 124., 35., 43., 43., 34., 42., 38., 42., 49.,
          49., 62., 79., 133., 148., 150., 156., 150., 61., 62., 70.,
          77., 81., 77., 78., 125., 133., 136., 132., 123., 131., 126.,
          128., 133., 136., 140., 145., 100., 73., 63., 62., 58., 0., 0.,
          0., 3., 2., 2., 4., 108., 137., 137., 136., 136., 143., 144.,
          146., 147., 150., 148., 152., 64., 13., 2., 2., 9., 1., 1., 0.,
          0., 0., 0., 0., 120., 140., 140., 141., 145., 143., 146., 145.,
          143., 143., 146., 151., 68., 7., 4., 3., 5., 0., 0., 0., 0.,
          3., 3., 2., 118., 137., 140., 141., 142., 139., 142., 140.,
          139., 139., 141., 147., 68., 2., 6., 9., 6., 1., 0., 0., 0.,
          0., 0., 4., 113., 136., 140., 139., 137., 139., 141., 141.,
          143., 149., 142., 158., 76., 6., 3., 5., 5. ]
      - [ 14., 14., 14., 12., 17., 18., 139., 155., 157., 162., 158.,
          162., 160., 165., 158., 166., 162., 160., 150., 5., 24., 16.,
          17., 20., 13., 17., 9., 12., 15., 14., 126., 149., 158., 155.,
          160., 162., 164., 165., 164., 161., 168., 162., 147., 9., 21.,
          21., 22., 16., 13., 10., 15., 13., 13., 19., 88., 117., 142.,
          144., 162., 155., 162., 162., 164., 163., 161., 159., 157.,
          10., 21., 21., 19., 19., 9., 13., 11., 12., 10., 16., 85.,
          108., 108., 116., 111., 145., 161., 158., 156., 164., 166.,
          156., 151., 10., 20., 20., 18., 22., 14., 14., 13., 16., 14.,
          16., 83., 99., 108., 104., 114., 111., 145., 161., 159., 160.,
          154., 154., 139., 24., 25., 19., 24., 18., 19., 13., 20., 18.,
          14., 17., 77., 100., 102., 100., 105., 112., 118., 158., 155.,
          155., 156., 154., 142., 17., 21., 23., 19., 24., 53., 71., 79.,
          87., 80., 58., 87., 79., 80., 74., 81., 81., 91., 150., 157.,
          160., 164., 171., 168., 138., 157., 148., 157., 143., 150.,
          154., 153., 148., 144., 107., 60., 7., 9., 10., 7., 10., 3.,
          9., 13., 15., 21., 8., 64., 153., 157., 164., 163., 165., 156.,
          158., 156., 154., 147., 104., 56., 6., 9., 9., 8., 14., 12.,
          14., 24., 12., 18., 24., 70., 150., 167., 169., 165., 168.,
          157., 149., 152., 146., 143., 124., 65., 8., 9., 2., 0., 2.,
          0., 7., 4., 9., 14., 26., 64., 145., 163., 166., 170., 166.,
          149., 150., 150., 148., 141., 134., 85., 11., 6., 0., 3., 1.,
          0., 5., 0., 5., 3., 22., 69., 153., 168., 166., 169., 166.,
          147., 149., 145., 150., 149., 146., 105., 6., 0., 1., 2., 9.,
          6., 16., 19., 12., 11., 15., 62., 147., 167., 170., 165., 167.,
          155., 151., 155., 153., 152., 149., 105., 0., 4., 0., 7., 12.,
          4., 50., 156., 37., 17., 20., 65., 148., 168., 171., 168.,
          172., 151., 153., 157., 157., 155., 149., 114., 11., 0., 8.,
          3., 0., 9., 5., 26., 84., 2., 22., 68., 150., 162., 161., 165.,
          162., 162., 163., 158., 159., 158., 151., 111., 5., 4., 3., 0.,
          1., 0., 1., 15., 10., 10., 26., 67., 146., 162., 164., 167.,
          161., 158., 157., 165., 159., 154., 158., 105., 14., 7., 0.,
          1., 0., 1., 0., 9., 10., 17., 26., 72., 148., 161., 166., 165.,
          168., 159., 161., 159., 158., 157., 151., 108., 18., 14., 9.,
          0., 0., 12., 21., 52., 34., 27., 25., 74., 153., 160., 164.,
          169., 166., 159., 156., 159., 151., 151., 153., 120., 17., 20.,
          19., 20., 16., 19., 18., 31., 19., 24., 34., 77., 150., 162.,
          165., 169., 170., 150., 146., 153., 152., 156., 159., 125.,
          64., 93., 90., 94., 89., 91., 97., 107., 112., 123., 130.,
          144., 151., 168., 174., 177., 177., 39., 31., 30., 23., 23.,
          26., 129., 143., 148., 143., 143., 140., 140., 144., 145.,
          153., 156., 157., 147., 42., 39., 27., 20., 15., 9., 14., 18.,
          19., 20., 14., 137., 155., 157., 158., 157., 161., 163., 161.,
          159., 162., 167., 163., 143., 0., 23., 25., 27., 24., 6., 14.,
          13., 13., 14., 26., 124., 153., 161., 163., 160., 162., 162.,
          160., 163., 166., 160., 163., 142., 5., 27., 19., 21., 21.,
          11., 8., 11., 17., 21., 19., 138., 151., 157., 159., 160.,
          159., 159., 158., 162., 163., 164., 162., 137., 2., 26., 25.,
          24., 26., 4., 4., 9., 14., 22., 20., 129., 155., 157., 157.,
          161., 159., 161., 164., 166., 164., 163., 165., 153., 5., 22.,
          26., 22., 26. ]
      - [ 21., 21., 22., 27., 24., 24., 110., 160., 176., 178., 184.,
          185., 183., 190., 190., 192., 192., 194., 150., 28., 31., 21.,
          24., 28., 17., 22., 22., 22., 24., 31., 110., 163., 173., 178.,
          186., 186., 184., 188., 189., 192., 193., 193., 155., 36., 26.,
          29., 21., 12., 24., 21., 21., 21., 22., 24., 129., 170., 177.,
          178., 183., 181., 183., 188., 190., 192., 195., 189., 153.,
          35., 31., 35., 24., 13., 24., 19., 25., 24., 24., 29., 116.,
          170., 175., 176., 178., 177., 182., 187., 190., 192., 191.,
          190., 156., 33., 28., 33., 29., 28., 25., 20., 23., 24., 22.,
          27., 122., 152., 170., 177., 180., 181., 183., 185., 187.,
          189., 192., 193., 153., 36., 35., 29., 35., 31., 20., 23., 21.,
          19., 29., 23., 87., 166., 163., 173., 173., 180., 184., 189.,
          190., 194., 190., 193., 155., 25., 28., 28., 31., 35., 11., 0.,
          3., 53., 74., 101., 117., 111., 130., 141., 138., 149., 154.,
          165., 166., 171., 170., 181., 165., 179., 170., 180., 166.,
          179., 6., 3., 4., 3., 30., 1., 0., 19., 12., 27., 22., 31.,
          27., 33., 29., 34., 31., 23., 164., 179., 185., 184., 187.,
          194., 1., 0., 3., 2., 0., 21., 0., 0., 1., 5., 14., 19., 26.,
          28., 26., 34., 31., 27., 163., 183., 186., 194., 192., 193.,
          22., 13., 0., 16., 0., 0., 0., 0., 0., 0., 0., 1., 13., 25.,
          28., 29., 30., 39., 166., 183., 191., 193., 191., 194., 30.,
          0., 0., 1., 4., 0., 1., 0., 0., 3., 3., 0., 0., 12., 27., 30.,
          35., 29., 162., 187., 195., 197., 193., 197., 5., 24., 40.,
          19., 0., 0., 1., 1., 0., 0., 0., 0., 0., 9., 27., 27., 32.,
          28., 154., 190., 196., 191., 198., 193., 8., 6., 131., 151.,
          64., 76., 1., 0., 2., 0., 0., 3., 0., 3., 24., 30., 33., 39.,
          170., 187., 194., 196., 192., 196., 5., 1., 7., 15., 16., 3.,
          178., 167., 20., 4., 0., 0., 1., 9., 23., 27., 34., 41., 167.,
          190., 195., 193., 198., 196., 151., 155., 0., 11., 13., 2., 0.,
          4., 12., 3., 2., 1., 1., 11., 25., 33., 36., 27., 165., 187.,
          189., 194., 193., 196., 153., 151., 152., 158., 105., 55., 76.,
          4., 6., 0., 2., 2., 8., 23., 28., 30., 36., 40., 171., 187.,
          191., 194., 192., 199., 158., 158., 153., 155., 154., 145.,
          145., 12., 21., 17., 13., 17., 25., 27., 29., 34., 38., 44.,
          169., 191., 189., 189., 195., 195., 160., 156., 162., 157.,
          154., 158., 151., 18., 28., 26., 23., 24., 26., 25., 26., 32.,
          38., 28., 163., 190., 191., 189., 197., 190., 8., 18., 4., 11.,
          6., 7., 74., 5., 10., 9., 7., 10., 15., 16., 16., 20., 22.,
          19., 90., 6., 9., 16., 5., 17., 25., 24., 26., 24., 19., 26.,
          118., 150., 161., 159., 158., 162., 166., 167., 168., 170.,
          175., 174., 170., 24., 28., 28., 33., 29., 23., 26., 23., 29.,
          30., 28., 119., 167., 169., 169., 171., 173., 172., 172., 175.,
          178., 179., 185., 184., 36., 37., 30., 45., 36., 26., 23., 25.,
          29., 28., 32., 114., 162., 170., 169., 173., 176., 176., 177.,
          181., 183., 183., 182., 188., 34., 43., 43., 38., 33., 27.,
          27., 31., 30., 26., 28., 107., 165., 172., 170., 173., 177.,
          177., 179., 182., 181., 185., 184., 182., 39., 40., 32., 40.,
          38., 22., 32., 24., 26., 33., 31., 110., 169., 174., 175.,
          180., 182., 179., 180., 184., 185., 185., 192., 183., 31., 40.,
          41., 37., 39. ]
      - [ 15., 16., 19., 13., 15., 14., 70., 127., 134., 139., 140.,
          138., 139., 130., 132., 129., 125., 125., 118., 21., 13., 19.,
          14., 13., 16., 14., 16., 17., 16., 11., 67., 127., 137., 133.,
          138., 131., 133., 132., 133., 129., 129., 131., 110., 15., 10.,
          15., 10., 17., 10., 16., 15., 14., 16., 17., 68., 129., 133.,
          135., 132., 135., 137., 135., 126., 128., 130., 125., 119.,
          11., 21., 14., 14., 11., 17., 10., 14., 18., 12., 13., 61.,
          120., 127., 134., 133., 135., 132., 124., 132., 124., 121.,
          132., 113., 11., 11., 15., 12., 17., 14., 16., 20., 18., 16.,
          16., 59., 126., 130., 125., 130., 128., 116., 28., 2., 9., 13.,
          6., 113., 18., 12., 16., 5., 20., 78., 79., 79., 83., 90., 79.,
          89., 108., 112., 105., 103., 89., 0., 0., 6., 16., 27., 16.,
          4., 116., 104., 106., 108., 112., 135., 136., 136., 131., 128.,
          132., 112., 13., 8., 1., 2., 6., 0., 2., 8., 43., 32., 6., 4.,
          105., 134., 133., 142., 135., 133., 137., 129., 133., 133.,
          120., 108., 12., 19., 9., 10., 1., 3., 0., 5., 9., 2., 3., 3.,
          72., 131., 138., 134., 138., 134., 135., 134., 132., 133.,
          128., 100., 18., 16., 10., 3., 2., 2., 2., 11., 22., 9., 4.,
          7., 69., 128., 134., 135., 136., 137., 136., 134., 130., 130.,
          124., 94., 16., 17., 7., 0., 1., 2., 1., 2., 4., 2., 6., 3.,
          102., 135., 135., 138., 136., 134., 132., 132., 130., 131.,
          126., 97., 25., 13., 2., 0., 0., 2., 2., 1., 0., 0., 7., 39.,
          119., 128., 126., 133., 136., 137., 134., 134., 132., 133.,
          128., 98., 29., 13., 2., 0., 0., 0., 0., 1., 0., 0., 2., 61.,
          115., 128., 136., 139., 138., 141., 138., 137., 135., 135.,
          128., 99., 26., 9., 0., 1., 1., 0., 0., 0., 1., 2., 12., 65.,
          124., 132., 134., 139., 140., 143., 141., 140., 139., 139.,
          132., 105., 24., 5., 0., 0., 1., 0., 2., 0., 0., 5., 12., 58.,
          121., 136., 141., 145., 142., 146., 146., 143., 144., 141.,
          134., 108., 18., 12., 1., 1., 0., 1., 1., 0., 0., 10., 16.,
          73., 121., 131., 135., 141., 143., 143., 144., 141., 144.,
          141., 135., 111., 15., 13., 2., 0., 0., 0., 1., 0., 10., 15.,
          17., 70., 130., 137., 142., 144., 143., 145., 146., 143., 145.,
          139., 139., 111., 19., 15., 15., 2., 1., 3., 3., 15., 17., 23.,
          21., 67., 133., 135., 141., 141., 143., 131., 128., 133., 127.,
          133., 125., 120., 74., 80., 76., 68., 65., 67., 69., 74., 77.,
          93., 107., 109., 110., 115., 120., 126., 121., 32., 30., 31.,
          30., 34., 20., 84., 130., 130., 124., 120., 117., 119., 122.,
          121., 124., 131., 142., 115., 11., 5., 8., 14., 5., 18., 14.,
          19., 18., 20., 18., 67., 133., 136., 133., 131., 129., 131.,
          133., 131., 134., 132., 133., 122., 17., 16., 14., 16., 17.,
          14., 22., 18., 22., 18., 17., 74., 128., 136., 137., 134.,
          135., 137., 136., 137., 138., 139., 142., 116., 16., 12., 18.,
          19., 12., 18., 13., 19., 16., 18., 24., 81., 132., 134., 137.,
          134., 135., 136., 134., 137., 138., 141., 137., 117., 12., 20.,
          15., 14., 18., 17., 21., 20., 17., 18., 22., 92., 132., 139.,
          139., 140., 138., 139., 139., 138., 142., 142., 141., 132.,
          11., 18., 18., 14., 16., 21., 16., 15., 22., 22., 19., 85.,
          136., 138., 135., 140., 136., 137., 140., 134., 140., 137.,
          139., 121., 29., 21., 21., 18., 17. ]
      - [ 10., 9., 12., 12., 21., 8., 94., 128., 142., 155., 157., 154.,
          160., 164., 163., 165., 167., 165., 148., 22., 22., 21., 21.,
          19., 12., 10., 11., 17., 7., 15., 91., 113., 115., 114., 130.,
          154., 157., 161., 170., 169., 168., 170., 149., 22., 19., 16.,
          19., 24., 8., 17., 13., 11., 19., 9., 84., 107., 109., 112.,
          112., 120., 160., 163., 168., 167., 167., 173., 152., 25., 17.,
          19., 17., 12., 10., 13., 14., 20., 17., 9., 85., 98., 98.,
          100., 107., 115., 154., 160., 163., 169., 172., 166., 156.,
          21., 18., 17., 20., 21., 15., 13., 24., 16., 9., 16., 82., 95.,
          96., 103., 100., 108., 125., 158., 157., 168., 165., 163.,
          148., 19., 21., 18., 17., 18., 14., 16., 17., 20., 11., 11.,
          89., 90., 91., 88., 94., 101., 105., 156., 170., 163., 166.,
          171., 162., 17., 18., 22., 22., 17., 0., 0., 0., 0., 1., 0.,
          0., 5., 0., 2., 1., 0., 0., 0., 0., 0., 1., 0., 0., 2., 4., 0.,
          4., 1., 159., 156., 151., 143., 152., 110., 70., 8., 9., 8.,
          0., 7., 15., 19., 30., 28., 28., 26., 133., 158., 167., 167.,
          175., 168., 154., 150., 153., 154., 146., 145., 67., 13., 11.,
          0., 2., 0., 3., 11., 2., 6., 3., 27., 126., 163., 167., 170.,
          177., 170., 150., 153., 148., 155., 153., 141., 105., 16., 0.,
          3., 2., 2., 0., 2., 9., 2., 2., 24., 117., 162., 166., 167.,
          170., 175., 151., 156., 149., 145., 150., 137., 109., 7., 0.,
          6., 0., 1., 4., 9., 9., 3., 0., 8., 116., 167., 176., 179.,
          172., 177., 145., 147., 147., 144., 147., 148., 115., 15., 1.,
          17., 0., 4., 0., 10., 18., 6., 10., 3., 125., 164., 166., 173.,
          175., 178., 151., 148., 148., 155., 146., 146., 126., 13., 0.,
          12., 0., 4., 1., 0., 104., 2., 12., 5., 119., 166., 172., 178.,
          181., 177., 147., 144., 146., 150., 149., 144., 128., 18., 9.,
          5., 1., 0., 3., 0., 1., 138., 19., 25., 107., 166., 175., 176.,
          179., 179., 147., 147., 152., 144., 152., 150., 124., 21., 21.,
          0., 0., 0., 0., 0., 8., 15., 8., 31., 114., 173., 174., 173.,
          177., 182., 145., 147., 152., 150., 151., 155., 131., 19., 19.,
          23., 4., 7., 8., 0., 14., 54., 30., 41., 125., 167., 170.,
          179., 181., 179., 142., 150., 153., 150., 154., 156., 132.,
          22., 23., 22., 26., 30., 23., 27., 24., 29., 32., 37., 118.,
          169., 166., 173., 174., 179., 149., 147., 151., 152., 153.,
          157., 137., 18., 28., 26., 29., 28., 31., 29., 30., 37., 31.,
          32., 112., 162., 176., 175., 175., 179., 149., 152., 155.,
          155., 160., 158., 134., 18., 36., 32., 40., 32., 55., 48., 61.,
          71., 77., 91., 125., 185., 192., 185., 193., 186., 79., 100.,
          104., 106., 102., 80., 130., 149., 139., 140., 136., 138.,
          141., 145., 145., 155., 156., 159., 144., 26., 29., 19., 17.,
          16., 8., 8., 13., 19., 19., 29., 125., 152., 157., 158., 163.,
          163., 166., 166., 169., 167., 175., 169., 141., 25., 38., 38.,
          40., 34., 1., 2., 6., 16., 24., 32., 127., 158., 160., 165.,
          165., 170., 162., 169., 170., 167., 168., 170., 141., 23., 36.,
          33., 36., 37., 3., 2., 11., 24., 27., 30., 126., 153., 162.,
          166., 165., 163., 162., 161., 168., 168., 166., 160., 142.,
          25., 36., 43., 44., 39., 5., 6., 10., 16., 20., 28., 127.,
          153., 153., 165., 157., 164., 160., 162., 160., 168., 171.,
          174., 151., 28., 43., 47., 38., 42. ]
      - [ 14., 15., 15., 17., 19., 17., 105., 147., 158., 164., 100.,
          18., 14., 144., 168., 170., 170., 178., 148., 28., 25., 17.,
          22., 21., 16., 18., 17., 23., 19., 20., 95., 126., 131., 87.,
          5., 24., 33., 4., 181., 178., 178., 177., 147., 24., 25., 25.,
          22., 22., 17., 14., 22., 16., 17., 12., 98., 123., 126., 42.,
          4., 8., 71., 8., 15., 110., 178., 175., 163., 29., 19., 22.,
          17., 19., 20., 17., 17., 22., 20., 18., 98., 113., 54., 6., 7.,
          3., 39., 12., 14., 14., 179., 171., 153., 30., 19., 19., 18.,
          22., 16., 18., 15., 19., 14., 11., 95., 112., 3., 9., 5., 0.,
          12., 47., 20., 12., 21., 170., 161., 26., 15., 29., 16., 18.,
          14., 18., 19., 11., 12., 11., 93., 116., 6., 0., 3., 9., 4.,
          53., 16., 5., 4., 167., 153., 16., 19., 12., 19., 11., 0., 1.,
          0., 2., 1., 0., 8., 0., 1., 10., 0., 0., 0., 24., 15., 5., 5.,
          0., 1., 0., 0., 1., 4., 2., 162., 161., 170., 163., 160., 120.,
          65., 14., 27., 0., 5., 0., 2., 14., 11., 1., 23., 24., 142.,
          174., 174., 176., 178., 177., 163., 159., 165., 161., 159.,
          148., 87., 12., 3., 0., 0., 3., 0., 11., 8., 17., 3., 22.,
          148., 170., 175., 177., 177., 178., 162., 159., 157., 163.,
          158., 150., 116., 18., 1., 15., 3., 0., 0., 4., 13., 13., 3.,
          20., 146., 167., 171., 173., 174., 175., 163., 165., 153.,
          157., 154., 144., 124., 10., 0., 0., 0., 1., 6., 18., 15., 4.,
          5., 21., 147., 169., 175., 178., 181., 182., 159., 152., 154.,
          159., 152., 151., 139., 13., 6., 1., 2., 0., 10., 12., 5., 7.,
          4., 19., 145., 168., 173., 175., 178., 178., 159., 159., 157.,
          156., 160., 154., 132., 15., 0., 0., 0., 0., 1., 6., 22., 12.,
          5., 18., 146., 172., 176., 178., 181., 181., 158., 156., 154.,
          158., 157., 151., 136., 14., 3., 4., 1., 0., 4., 8., 8., 0.,
          1., 13., 143., 171., 176., 177., 182., 182., 158., 162., 155.,
          157., 160., 155., 134., 16., 11., 0., 3., 0., 0., 3., 2., 0.,
          8., 18., 146., 173., 175., 175., 179., 179., 157., 155., 157.,
          159., 157., 160., 136., 16., 7., 1., 0., 1., 3., 3., 6., 0.,
          12., 20., 147., 174., 176., 176., 181., 181., 158., 161., 160.,
          156., 160., 158., 130., 14., 11., 2., 0., 1., 1., 0., 0., 3.,
          12., 21., 145., 170., 170., 173., 176., 181., 159., 160., 161.,
          158., 156., 162., 147., 17., 11., 5., 1., 0., 0., 1., 4., 5.,
          19., 16., 148., 168., 177., 176., 177., 181., 162., 157., 160.,
          157., 159., 161., 138., 55., 48., 41., 34., 29., 32., 43., 55.,
          60., 65., 76., 139., 174., 179., 178., 175., 172., 6., 8., 21.,
          11., 8., 10., 138., 160., 161., 157., 153., 148., 148., 154.,
          161., 162., 168., 168., 145., 16., 12., 16., 6., 14., 9., 13.,
          11., 16., 11., 11., 136., 164., 161., 162., 165., 167., 167.,
          168., 169., 168., 174., 165., 136., 22., 16., 23., 20., 14.,
          12., 11., 13., 17., 16., 16., 145., 165., 167., 165., 166.,
          167., 165., 165., 167., 168., 169., 165., 146., 18., 19., 15.,
          15., 21., 10., 11., 15., 9., 10., 19., 119., 167., 164., 163.,
          164., 164., 162., 162., 165., 167., 161., 155., 146., 13., 19.,
          18., 17., 13., 14., 11., 12., 12., 16., 14., 137., 161., 164.,
          163., 163., 160., 158., 161., 166., 168., 174., 174., 153.,
          19., 18., 15., 19., 13. ]
      - [ 14., 18., 15., 17., 17., 21., 153., 175., 174., 178., 181.,
          174., 179., 180., 177., 179., 175., 170., 159., 32., 28., 22.,
          20., 22., 12., 15., 17., 16., 18., 23., 149., 166., 175., 178.,
          175., 178., 184., 180., 174., 182., 181., 186., 154., 17., 26.,
          21., 23., 25., 15., 12., 15., 19., 18., 17., 105., 149., 170.,
          169., 176., 177., 176., 180., 181., 178., 179., 178., 165.,
          19., 22., 19., 29., 20., 10., 21., 16., 12., 20., 13., 101.,
          130., 127., 135., 138., 179., 175., 168., 178., 176., 175.,
          172., 160., 9., 24., 20., 22., 27., 17., 13., 19., 20., 15.,
          17., 97., 122., 126., 122., 130., 134., 170., 175., 176., 176.,
          172., 171., 153., 11., 26., 22., 26., 21., 12., 19., 17., 16.,
          18., 14., 105., 116., 122., 128., 124., 131., 141., 173., 167.,
          173., 168., 165., 163., 15., 27., 29., 32., 29., 13., 10., 29.,
          25., 59., 30., 88., 86., 87., 85., 91., 89., 101., 162., 160.,
          152., 156., 161., 164., 148., 141., 128., 155., 127., 123.,
          138., 148., 158., 159., 115., 87., 18., 11., 11., 12., 11., 7.,
          13., 19., 17., 23., 21., 31., 170., 176., 180., 174., 183.,
          128., 138., 144., 154., 160., 117., 73., 14., 12., 13., 1., 2.,
          12., 2., 27., 20., 20., 23., 39., 168., 180., 179., 181., 182.,
          121., 123., 136., 145., 155., 140., 73., 12., 5., 0., 5., 5.,
          12., 17., 5., 11., 20., 21., 67., 159., 176., 182., 178., 181.,
          120., 113., 133., 143., 145., 143., 105., 13., 12., 8., 4.,
          19., 11., 7., 16., 0., 14., 26., 51., 167., 174., 179., 182.,
          180., 118., 117., 120., 134., 152., 153., 130., 23., 7., 0.,
          45., 29., 20., 39., 13., 7., 20., 19., 46., 168., 175., 183.,
          176., 181., 120., 120., 122., 134., 142., 155., 119., 15., 12.,
          8., 2., 21., 90., 79., 8., 7., 30., 19., 67., 162., 182., 180.,
          180., 182., 121., 119., 131., 139., 142., 156., 128., 23., 7.,
          6., 0., 14., 9., 2., 11., 7., 17., 17., 50., 158., 171., 168.,
          178., 173., 125., 127., 123., 127., 147., 152., 127., 15., 7.,
          0., 0., 2., 1., 3., 8., 15., 15., 15., 39., 163., 164., 176.,
          174., 176., 126., 125., 125., 136., 138., 154., 132., 15., 13.,
          2., 1., 0., 2., 1., 17., 4., 17., 17., 47., 160., 167., 172.,
          177., 173., 126., 124., 127., 131., 142., 144., 134., 16., 13.,
          13., 9., 26., 37., 6., 7., 61., 17., 19., 48., 160., 173.,
          175., 170., 178., 125., 127., 119., 119., 134., 140., 124.,
          18., 17., 16., 17., 14., 6., 6., 12., 14., 20., 17., 45., 159.,
          173., 169., 180., 174., 120., 108., 121., 116., 120., 129.,
          128., 8., 7., 1., 3., 6., 3., 9., 14., 10., 15., 18., 92.,
          157., 157., 167., 170., 167., 70., 73., 52., 44., 50., 51.,
          111., 153., 152., 148., 141., 137., 138., 140., 143., 148.,
          157., 161., 164., 100., 36., 43., 46., 6., 12., 9., 13., 9.,
          14., 8., 100., 156., 160., 159., 159., 157., 155., 157., 161.,
          161., 156., 161., 164., 6., 11., 15., 20., 18., 12., 16., 7.,
          10., 12., 15., 95., 148., 158., 155., 159., 163., 161., 159.,
          160., 158., 160., 160., 163., 3., 6., 5., 7., 21., 8., 11.,
          15., 14., 12., 10., 101., 137., 154., 157., 153., 149., 152.,
          157., 157., 157., 155., 163., 162., 2., 8., 7., 10., 9., 13.,
          13., 9., 14., 12., 14., 102., 137., 152., 153., 153., 155.,
          157., 157., 156., 158., 159., 160., 161., 7., 5., 0., 7., 10. ]
      - [ 0., 2., 0., 0., 0., 6., 64., 73., 76., 73., 74., 75., 75., 74.,
          71., 74., 76., 73., 74., 76., 77., 68., 28., 44., 1., 0., 0.,
          2., 0., 0., 58., 76., 79., 74., 73., 72., 71., 71., 71., 76.,
          78., 73., 75., 74., 71., 64., 2., 0., 1., 0., 1., 1., 0., 3.,
          63., 74., 78., 75., 75., 74., 72., 72., 71., 74., 69., 75.,
          73., 73., 76., 69., 59., 56., 0., 0., 1., 1., 0., 2., 66., 74.,
          73., 71., 73., 73., 72., 72., 71., 74., 79., 72., 74., 69.,
          74., 68., 69., 71., 3., 1., 0., 1., 1., 2., 63., 74., 75., 72.,
          73., 71., 69., 69., 69., 72., 76., 72., 71., 78., 70., 72.,
          72., 76., 11., 13., 11., 7., 3., 7., 52., 58., 49., 49., 53.,
          54., 56., 58., 59., 61., 59., 63., 66., 75., 73., 72., 77.,
          69., 74., 69., 71., 68., 71., 66., 41., 4., 3., 3., 6., 6., 5.,
          4., 1., 1., 4., 21., 75., 74., 75., 72., 72., 75., 71., 61.,
          69., 61., 60., 58., 23., 0., 0., 0., 1., 0., 0., 1., 0., 1.,
          0., 21., 69., 76., 75., 70., 72., 74., 76., 67., 61., 64., 61.,
          58., 31., 0., 1., 0., 2., 1., 0., 2., 0., 0., 0., 18., 68.,
          71., 70., 72., 74., 72., 76., 67., 69., 67., 62., 59., 29., 0.,
          1., 2., 3., 52., 84., 9., 1., 2., 1., 22., 72., 65., 73., 72.,
          69., 65., 72., 68., 64., 65., 62., 56., 40., 1., 0., 0., 18.,
          29., 203., 91., 7., 0., 0., 20., 69., 72., 70., 74., 74., 70.,
          75., 72., 69., 67., 61., 52., 40., 0., 1., 0., 0., 1., 13.,
          21., 23., 11., 10., 19., 66., 69., 73., 68., 65., 66., 70.,
          63., 77., 68., 63., 63., 37., 2., 1., 1., 1., 1., 0., 0., 6.,
          24., 13., 30., 17., 9., 36., 69., 18., 55., 76., 66., 72., 67.,
          66., 68., 38., 0., 0., 1., 0., 0., 1., 2., 3., 0., 13., 124.,
          20., 0., 2., 11., 12., 60., 74., 69., 61., 65., 70., 70., 46.,
          1., 0., 4., 0., 0., 0., 1., 0., 0., 2., 0., 95., 20., 2., 0.,
          6., 0., 75., 74., 70., 71., 69., 68., 38., 1., 0., 0., 0., 1.,
          0., 2., 0., 1., 0., 2., 1., 0., 8., 7., 4., 52., 69., 69., 61.,
          68., 69., 68., 44., 1., 0., 0., 0., 1., 0., 0., 0., 0., 2., 0.,
          6., 11., 19., 18., 13., 3., 72., 68., 67., 67., 69., 70., 43.,
          0., 0., 1., 0., 0., 6., 1., 3., 0., 0., 1., 0., 3., 12., 1.,
          15., 3., 74., 64., 59., 54., 51., 52., 64., 46., 30., 14., 15.,
          10., 16., 7., 1., 2., 0., 3., 4., 2., 0., 10., 11., 15., 1.,
          1., 0., 1., 0., 0., 57., 61., 50., 35., 31., 31., 33., 37.,
          39., 3., 1., 0., 0., 3., 2., 8., 17., 4., 0., 2., 0., 0., 0.,
          0., 59., 61., 50., 43., 37., 27., 32., 36., 36., 49., 31., 16.,
          4., 1., 28., 64., 32., 22., 3., 0., 0., 0., 2., 1., 54., 61.,
          53., 48., 40., 39., 33., 37., 48., 42., 58., 65., 59., 66.,
          69., 73., 67., 71., 0., 0., 0., 0., 3., 0., 51., 64., 59., 45.,
          43., 38., 35., 33., 39., 48., 58., 57., 63., 64., 70., 65.,
          56., 20., 0., 5., 0., 0., 0., 0., 55., 63., 58., 52., 44., 33.,
          42., 40., 45., 46., 60., 62., 64., 67., 72., 72., 0., 60. ]
      - [ 3., 0., 1., 1., 0., 0., 0., 58., 69., 69., 69., 60., 69., 67.,
          67., 60., 67., 64., 64., 58., 62., 60., 66., 0., 0., 0., 0.,
          0., 0., 1., 0., 51., 65., 68., 67., 65., 66., 67., 62., 57.,
          63., 71., 69., 65., 62., 68., 59., 3., 0., 3., 0., 0., 3., 0.,
          0., 65., 65., 68., 67., 67., 66., 67., 64., 64., 67., 67., 67.,
          62., 66., 64., 55., 26., 1., 1., 0., 1., 0., 1., 1., 47., 66.,
          65., 66., 62., 67., 63., 65., 66., 64., 63., 71., 62., 68.,
          59., 62., 67., 0., 1., 2., 0., 0., 3., 1., 56., 64., 64., 64.,
          63., 67., 63., 63., 63., 67., 68., 63., 57., 62., 68., 61.,
          64., 4., 0., 0., 1., 3., 0., 1., 54., 61., 62., 57., 61., 60.,
          65., 61., 63., 65., 70., 68., 65., 62., 64., 62., 65., 80.,
          65., 66., 68., 60., 64., 66., 58., 37., 38., 31., 35., 33.,
          41., 38., 41., 36., 33., 34., 59., 65., 66., 67., 66., 66.,
          70., 62., 59., 61., 58., 57., 42., 0., 1., 0., 0., 1., 2., 0.,
          0., 1., 0., 1., 58., 60., 72., 65., 63., 70., 67., 67., 56.,
          55., 61., 58., 40., 0., 0., 3., 0., 0., 0., 0., 1., 0., 2., 0.,
          61., 61., 60., 61., 68., 71., 67., 61., 59., 55., 55., 55.,
          43., 0., 0., 0., 2., 16., 36., 6., 1., 3., 0., 6., 56., 64.,
          63., 66., 63., 70., 70., 59., 60., 54., 56., 57., 43., 0., 4.,
          0., 0., 105., 30., 206., 50., 0., 5., 1., 56., 61., 61., 64.,
          62., 68., 66., 58., 58., 54., 57., 56., 41., 2., 0., 0., 0.,
          0., 24., 8., 32., 17., 18., 14., 27., 13., 13., 29., 59., 70.,
          61., 63., 63., 60., 54., 52., 47., 1., 1., 0., 4., 0., 1., 0.,
          1., 3., 13., 4., 30., 158., 15., 1., 0., 68., 63., 70., 66.,
          61., 55., 54., 50., 0., 0., 0., 0., 0., 0., 1., 0., 0., 3., 1.,
          19., 5., 76., 9., 5., 64., 64., 66., 64., 58., 57., 57., 48.,
          0., 6., 0., 1., 1., 0., 0., 0., 0., 0., 0., 2., 1., 7., 0., 8.,
          70., 65., 58., 67., 63., 61., 61., 52., 2., 0., 1., 0., 0., 0.,
          1., 0., 0., 1., 0., 3., 0., 0., 8., 16., 69., 61., 62., 67.,
          62., 59., 62., 47., 0., 0., 0., 0., 0., 0., 0., 1., 0., 2., 0.,
          1., 0., 1., 11., 8., 72., 68., 62., 59., 57., 64., 64., 51.,
          1., 0., 2., 2., 0., 1., 1., 0., 0., 0., 0., 2., 0., 0., 2., 2.,
          41., 42., 44., 48., 44., 44., 38., 51., 17., 18., 12., 7., 11.,
          12., 8., 8., 9., 9., 0., 0., 2., 7., 0., 0., 4., 1., 0., 5.,
          0., 0., 2., 49., 60., 46., 36., 29., 24., 27., 28., 22., 31.,
          51., 45., 3., 2., 0., 10., 42., 0., 0., 0., 2., 0., 2., 0.,
          48., 56., 48., 33., 26., 29., 28., 29., 37., 36., 41., 56.,
          53., 55., 68., 66., 60., 0., 2., 0., 0., 0., 2., 0., 45., 56.,
          45., 40., 37., 27., 23., 29., 34., 37., 46., 51., 48., 54.,
          62., 56., 63., 1., 0., 0., 2., 0., 0., 0., 44., 53., 50., 44.,
          39., 35., 29., 29., 37., 39., 42., 55., 43., 68., 61., 62.,
          58., 0., 0., 0., 1., 0., 1., 1., 39., 60., 53., 45., 40., 34.,
          30., 30., 31., 40., 48., 48., 44., 58., 66., 58., 53. ]
      - [ 26., 73., 160., 165., 167., 187., 160., 174., 173., 170., 165.,
          159., 161., 159., 165., 171., 174., 184., 0., 4., 3., 4., 4.,
          0., 158., 13., 164., 164., 164., 182., 163., 175., 169., 169.,
          165., 165., 162., 166., 174., 169., 168., 179., 0., 4., 9., 4.,
          4., 3., 81., 82., 163., 173., 164., 187., 162., 171., 172.,
          178., 170., 173., 170., 167., 168., 169., 174., 180., 2., 10.,
          5., 1., 9., 8., 130., 168., 167., 169., 167., 185., 163., 177.,
          177., 171., 166., 169., 165., 167., 171., 168., 174., 186., 0.,
          5., 11., 7., 8., 11., 166., 166., 164., 174., 165., 193., 157.,
          170., 172., 173., 173., 165., 165., 166., 168., 170., 167.,
          192., 0., 14., 8., 11., 13., 15., 161., 164., 165., 166., 163.,
          181., 160., 174., 170., 170., 169., 163., 167., 164., 168.,
          171., 172., 189., 11., 10., 11., 14., 11., 15., 150., 161.,
          162., 161., 168., 181., 156., 169., 164., 168., 165., 167.,
          162., 161., 169., 155., 162., 193., 9., 19., 15., 16., 19.,
          23., 132., 143., 151., 152., 76., 14., 57., 45., 44., 126.,
          133., 129., 137., 127., 123., 125., 142., 160., 136., 137.,
          138., 131., 140., 133., 113., 127., 125., 48., 15., 37., 3.,
          7., 0., 27., 38., 5., 9., 6., 9., 10., 16., 135., 172., 165.,
          165., 171., 170., 167., 110., 105., 102., 29., 55., 18., 44.,
          67., 36., 0., 5., 0., 8., 10., 9., 10., 10., 124., 164., 171.,
          172., 170., 173., 170., 95., 99., 92., 27., 47., 1., 11., 5.,
          28., 16., 46., 14., 0., 4., 9., 3., 9., 131., 164., 170., 176.,
          170., 169., 170., 15., 0., 90., 38., 48., 8., 8., 19., 10.,
          12., 37., 34., 16., 0., 0., 5., 9., 128., 165., 168., 174.,
          172., 172., 175., 111., 4., 105., 77., 21., 25., 1., 2., 0.,
          22., 15., 239., 136., 0., 1., 6., 6., 107., 160., 171., 165.,
          168., 173., 173., 134., 7., 111., 98., 79., 6., 12., 5., 0.,
          15., 32., 84., 143., 0., 0., 4., 7., 107., 165., 176., 170.,
          174., 174., 172., 157., 153., 149., 129., 90., 54., 4., 2.,
          11., 1., 1., 4., 0., 1., 3., 4., 2., 108., 158., 169., 172.,
          174., 171., 171., 166., 164., 164., 162., 147., 114., 20., 1.,
          0., 0., 4., 0., 1., 2., 0., 3., 13., 108., 154., 174., 174.,
          169., 172., 174., 167., 171., 162., 162., 165., 162., 18., 2.,
          0., 1., 1., 1., 0., 1., 1., 0., 9., 100., 151., 172., 171.,
          171., 170., 175., 174., 168., 160., 167., 163., 174., 14., 10.,
          3., 3., 4., 4., 3., 2., 2., 4., 6., 86., 158., 169., 169.,
          170., 171., 171., 172., 170., 171., 169., 167., 166., 32., 8.,
          2., 4., 8., 11., 10., 8., 8., 10., 15., 98., 159., 166., 171.,
          171., 169., 176., 173., 172., 169., 171., 164., 172., 93., 73.,
          84., 85., 87., 87., 86., 85., 85., 85., 75., 142., 143., 151.,
          142., 150., 144., 150., 174., 168., 168., 169., 164., 173.,
          141., 165., 159., 159., 158., 157., 160., 166., 170., 171.,
          174., 200., 22., 1., 1., 0., 5., 1., 174., 169., 167., 167.,
          175., 170., 145., 177., 173., 172., 169., 167., 168., 171.,
          173., 173., 175., 194., 23., 6., 14., 15., 14., 13., 171.,
          168., 171., 166., 164., 177., 144., 170., 171., 169., 169.,
          171., 171., 171., 172., 174., 178., 199., 32., 4., 10., 8., 5.,
          12., 37., 66., 172., 172., 169., 178., 145., 176., 176., 170.,
          168., 171., 171., 169., 173., 181., 181., 195., 33., 9., 5.,
          7., 12., 8. ]
      - [ 91., 56., 122., 122., 117., 41., 1., 0., 2., 0., 0., 0., 1.,
          0., 43., 112., 112., 118., 43., 1., 1., 1., 0., 0., 100., 48.,
          129., 129., 121., 1., 2., 1., 0., 5., 0., 1., 1., 0., 48.,
          102., 103., 111., 35., 0., 0., 0., 2., 0., 110., 112., 126.,
          122., 9., 0., 0., 0., 2., 0., 0., 0., 0., 3., 46., 62., 56.,
          69., 20., 1., 6., 1., 0., 0., 122., 121., 105., 99., 1., 10.,
          3., 1., 1., 0., 0., 0., 9., 36., 48., 57., 50., 58., 20., 0.,
          1., 0., 0., 1., 126., 120., 74., 51., 5., 8., 0., 0., 0., 0.,
          3., 40., 103., 60., 52., 48., 49., 55., 18., 0., 2., 3., 2.,
          0., 119., 120., 70., 47., 4., 0., 0., 8., 1., 3., 105., 94.,
          104., 68., 43., 45., 45., 47., 16., 8., 9., 0., 3., 4., 122.,
          120., 83., 62., 24., 6., 0., 1., 0., 18., 49., 49., 40., 27.,
          14., 15., 16., 26., 30., 38., 35., 13., 2., 6., 117., 120.,
          96., 62., 57., 34., 3., 0., 0., 1., 0., 5., 2., 1., 0., 0., 0.,
          12., 40., 38., 37., 27., 0., 1., 119., 122., 104., 64., 52.,
          46., 4., 0., 0., 0., 0., 0., 0., 0., 0., 0., 0., 9., 34., 35.,
          30., 4., 3., 0., 121., 114., 118., 65., 49., 44., 5., 2., 0.,
          0., 0., 0., 0., 0., 0., 0., 0., 13., 30., 25., 1., 0., 0., 3.,
          92., 117., 122., 89., 55., 38., 13., 0., 0., 0., 0., 0., 0.,
          0., 0., 0., 0., 1., 29., 8., 1., 0., 0., 1., 58., 102., 121.,
          115., 77., 37., 4., 2., 0., 0., 0., 0., 0., 0., 0., 0., 0.,
          13., 27., 0., 1., 0., 3., 0., 58., 105., 119., 115., 106., 62.,
          8., 0., 0., 0., 0., 0., 0., 0., 0., 0., 1., 30., 53., 0., 0.,
          0., 0., 1., 3., 65., 87., 99., 116., 102., 22., 0., 0., 0., 0.,
          0., 0., 0., 0., 0., 1., 29., 47., 1., 1., 2., 0., 1., 47., 56.,
          60., 75., 99., 117., 12., 1., 0., 0., 0., 0., 0., 0., 0., 0.,
          0., 21., 0., 3., 0., 0., 3., 0., 56., 56., 48., 54., 64., 76.,
          7., 7., 0., 0., 0., 0., 0., 0., 0., 0., 0., 3., 0., 3., 6., 9.,
          2., 0., 59., 53., 51., 49., 55., 49., 18., 7., 0., 3., 0., 0.,
          0., 0., 0., 0., 1., 1., 0., 0., 13., 14., 29., 6., 56., 54.,
          50., 53., 52., 44., 18., 14., 1., 0., 1., 0., 0., 0., 0., 2.,
          0., 3., 9., 0., 0., 21., 9., 30., 58., 53., 48., 48., 47., 37.,
          23., 18., 13., 8., 7., 7., 0., 47., 47., 13., 10., 13., 2., 1.,
          1., 0., 0., 9., 54., 47., 48., 44., 47., 37., 39., 26., 53.,
          4., 7., 2., 108., 107., 89., 38., 26., 7., 0., 1., 0., 0., 3.,
          0., 59., 47., 49., 45., 46., 33., 38., 21., 14., 8., 6., 56.,
          113., 110., 105., 62., 35., 0., 0., 1., 0., 13., 7., 1., 79.,
          62., 47., 44., 42., 33., 29., 16., 4., 0., 5., 34., 89., 114.,
          102., 94., 69., 2., 0., 4., 0., 7., 13., 0., 110., 100., 69.,
          45., 40., 26., 9., 1., 1., 3., 0., 1., 38., 101., 105., 115.,
          86., 0., 0., 0., 0., 2., 11., 3., 102., 112., 86., 42., 39.,
          20., 2., 0., 0., 0., 1., 0., 2., 74., 108., 106., 48., 0., 0.,
          2., 0., 0., 0., 0. ]
      - [ 52., 60., 15., 0., 30., 14., 12., 13., 2., 2., 0., 0., 0., 0.,
          2., 1., 83., 92., 98., 51., 3., 8., 5., 0., 37., 74., 23., 10.,
          20., 10., 13., 0., 0., 4., 0., 0., 0., 2., 0., 19., 91., 91.,
          93., 57., 12., 7., 2., 2., 84., 80., 63., 0., 3., 8., 4., 5.,
          1., 0., 0., 0., 3., 2., 3., 72., 96., 100., 97., 50., 3., 2.,
          5., 10., 85., 83., 74., 50., 2., 0., 0., 0., 0., 3., 1., 0.,
          0., 12., 62., 100., 100., 98., 95., 54., 11., 6., 0., 1., 81.,
          80., 75., 75., 66., 49., 24., 13., 28., 45., 55., 51., 63.,
          73., 88., 90., 100., 98., 95., 51., 9., 7., 0., 2., 86., 77.,
          75., 82., 69., 73., 67., 50., 56., 51., 44., 57., 63., 71.,
          85., 82., 87., 90., 87., 52., 11., 5., 0., 0., 80., 78., 78.,
          78., 68., 75., 70., 58., 18., 17., 19., 21., 27., 31., 25.,
          27., 29., 27., 41., 73., 69., 54., 49., 38., 79., 76., 74.,
          75., 82., 76., 67., 49., 7., 3., 7., 3., 3., 0., 13., 2., 7.,
          4., 14., 71., 80., 60., 60., 41., 82., 77., 78., 79., 74., 79.,
          71., 46., 3., 4., 4., 5., 6., 2., 2., 2., 3., 1., 14., 69.,
          77., 54., 1., 0., 83., 77., 81., 72., 78., 72., 72., 50., 4.,
          8., 1., 3., 0., 0., 0., 1., 1., 2., 11., 74., 67., 0., 1., 0.,
          31., 37., 81., 74., 78., 74., 84., 41., 4., 4., 0., 0., 2.,
          65., 155., 0., 1., 0., 6., 71., 1., 0., 1., 0., 71., 36., 26.,
          83., 79., 83., 82., 48., 0., 4., 0., 0., 1., 2., 4., 1., 0.,
          0., 1., 4., 0., 0., 1., 33., 35., 79., 17., 75., 83., 84., 86.,
          2., 2., 0., 0., 0., 159., 143., 1., 2., 2., 2., 0., 0., 11.,
          15., 101., 0., 28., 36., 32., 78., 80., 90., 9., 7., 2., 4.,
          4., 2., 0., 0., 0., 0., 0., 1., 0., 0., 23., 20., 11., 1., 69.,
          71., 81., 84., 84., 88., 23., 14., 8., 0., 0., 0., 6., 0., 4.,
          2., 3., 0., 5., 0., 8., 13., 4., 0., 82., 78., 77., 80., 83.,
          81., 29., 6., 4., 1., 0., 0., 0., 3., 0., 0., 1., 0., 2., 0.,
          0., 8., 0., 2., 83., 82., 81., 82., 79., 82., 61., 3., 3., 7.,
          0., 0., 0., 0., 2., 0., 4., 0., 4., 9., 0., 0., 2., 7., 84.,
          79., 76., 77., 77., 76., 66., 11., 7., 0., 0., 0., 1., 0., 0.,
          0., 0., 4., 1., 34., 9., 0., 0., 1., 83., 79., 74., 73., 76.,
          68., 61., 44., 29., 33., 22., 31., 28., 39., 52., 50., 42.,
          41., 41., 1., 0., 2., 0., 54., 84., 78., 79., 74., 69., 71.,
          58., 49., 48., 49., 42., 51., 57., 62., 68., 74., 67., 62.,
          12., 0., 0., 8., 25., 28., 81., 79., 77., 68., 67., 63., 56.,
          58., 48., 35., 44., 32., 48., 64., 72., 67., 62., 57., 2., 0.,
          3., 0., 61., 32., 80., 78., 74., 66., 69., 61., 63., 49., 18.,
          0., 0., 0., 3., 45., 67., 70., 59., 2., 0., 2., 0., 5., 0.,
          17., 83., 73., 77., 74., 65., 71., 50., 1., 3., 0., 1., 12.,
          163., 3., 37., 63., 26., 0., 9., 32., 86., 3., 0., 1., 79.,
          76., 70., 71., 66., 59., 2., 1., 0., 1., 0., 84., 2., 0., 1.,
          53., 2., 4., 13., 17., 1., 0., 0., 1. ]
      - [ 9., 149., 146., 140., 142., 139., 141., 138., 136., 141., 136.,
          138., 130., 53., 114., 121., 125., 123., 123., 121., 125.,
          118., 124., 98., 9., 152., 137., 147., 144., 140., 149., 134.,
          143., 130., 126., 1., 22., 14., 120., 132., 124., 121., 125.,
          121., 114., 115., 60., 64., 144., 142., 147., 140., 142., 146.,
          138., 141., 139., 136., 140., 136., 133., 127., 131., 121.,
          124., 118., 120., 119., 121., 116., 115., 115., 145., 140.,
          144., 145., 140., 138., 141., 143., 138., 139., 135., 130.,
          125., 131., 129., 123., 120., 119., 119., 117., 117., 120.,
          118., 118., 148., 156., 147., 149., 148., 150., 149., 140.,
          142., 139., 133., 131., 131., 125., 116., 123., 120., 123.,
          116., 121., 113., 112., 111., 108., 147., 150., 150., 149.,
          147., 145., 139., 138., 134., 131., 129., 128., 123., 123.,
          117., 113., 114., 104., 114., 108., 111., 107., 110., 109.,
          149., 145., 135., 137., 130., 127., 127., 130., 121., 117.,
          113., 111., 107., 100., 89., 94., 92., 93., 103., 53., 56.,
          99., 83., 87., 116., 145., 150., 135., 127., 119., 136., 16.,
          14., 91., 46., 24., 16., 14., 20., 11., 16., 18., 4., 36., 14.,
          1., 64., 83., 3., 79., 130., 128., 115., 112., 123., 18., 25.,
          0., 22., 54., 12., 4., 4., 11., 10., 27., 22., 35., 12., 13.,
          3., 71., 16., 3., 69., 102., 95., 95., 115., 17., 5., 2., 11.,
          0., 3., 2., 0., 2., 14., 23., 19., 20., 17., 15., 0., 1., 25.,
          0., 3., 6., 70., 72., 104., 15., 20., 15., 13., 0., 0., 0., 0.,
          0., 5., 5., 27., 20., 21., 0., 0., 0., 21., 1., 0., 0., 2.,
          49., 65., 17., 0., 33., 9., 1., 1., 0., 0., 1., 2., 0., 129.,
          6., 2., 2., 0., 1., 7., 0., 4., 0., 3., 28., 19., 16., 3., 0.,
          7., 5., 0., 1., 0., 2., 0., 7., 4., 7., 0., 0., 1., 0., 0., 0.,
          0., 2., 0., 2., 24., 13., 7., 47., 32., 0., 0., 1., 1., 0., 0.,
          9., 0., 0., 2., 0., 3., 1., 0., 0., 0., 0., 2., 0., 16., 15.,
          21., 13., 0., 0., 4., 0., 0., 1., 1., 11., 64., 53., 1., 2.,
          0., 0., 1., 0., 3., 0., 0., 2., 12., 8., 19., 15., 11., 0., 3.,
          0., 0., 1., 0., 18., 3., 61., 9., 0., 3., 0., 0., 1., 1., 0.,
          0., 11., 34., 2., 19., 22., 16., 0., 4., 0., 0., 1., 0., 18.,
          31., 11., 1., 2., 0., 1., 3., 0., 0., 0., 2., 55., 56., 3.,
          25., 20., 22., 16., 2., 0., 2., 0., 12., 22., 41., 92., 55.,
          0., 3., 2., 43., 1., 12., 78., 95., 105., 99., 103., 108., 87.,
          31., 85., 88., 90., 81., 75., 80., 72., 80., 81., 78., 88.,
          75., 82., 23., 13., 4., 6., 0., 0., 111., 109., 3., 3., 0., 1.,
          0., 84., 75., 81., 84., 82., 49., 18., 17., 5., 3., 0., 22.,
          18., 13., 12., 10., 13., 126., 66., 37., 3., 8., 0., 4., 20.,
          59., 69., 70., 74., 47., 15., 15., 13., 14., 0., 2., 19., 22.,
          18., 16., 19., 111., 64., 143., 38., 16., 0., 1., 1., 1., 48.,
          53., 61., 52., 18., 16., 18., 4., 80., 0., 0., 16., 22., 20.,
          20., 105., 3., 211., 19., 0., 1., 0., 0., 3., 0., 44., 50.,
          46., 13., 16., 16., 0., 180., 0., 0., 1., 14., 22., 18., 78.,
          106., 87., 7., 1., 0., 1., 1., 1., 0., 29., 45., 41., 22., 18.,
          16., 28., 220. ]
      - [ 0., 2., 0., 0., 3., 44., 151., 175., 177., 177., 178., 181.,
          180., 180., 185., 182., 184., 175., 140., 21., 9., 6., 6., 7.,
          0., 2., 3., 1., 0., 48., 154., 169., 174., 175., 176., 179.,
          177., 176., 180., 176., 180., 173., 139., 20., 0., 10., 6., 7.,
          0., 0., 0., 1., 1., 51., 154., 171., 175., 177., 178., 180.,
          179., 178., 181., 178., 176., 175., 141., 16., 11., 2., 6., 5.,
          1., 4., 0., 0., 1., 41., 148., 173., 176., 177., 177., 177.,
          177., 179., 181., 180., 181., 178., 133., 7., 6., 6., 5., 3.,
          0., 1., 1., 0., 3., 46., 157., 174., 176., 177., 177., 175.,
          176., 178., 177., 177., 178., 172., 138., 9., 5., 2., 1., 2.,
          3., 0., 3., 3., 3., 53., 158., 174., 170., 173., 174., 173.,
          175., 178., 175., 176., 172., 176., 134., 6., 10., 3., 14., 7.,
          86., 84., 92., 92., 91., 123., 162., 156., 157., 157., 155.,
          147., 145., 144., 136., 135., 141., 139., 153., 145., 163.,
          156., 159., 170., 182., 185., 186., 183., 185., 172., 85., 9.,
          6., 7., 6., 0., 2., 5., 0., 1., 1., 4., 131., 182., 188., 193.,
          188., 193., 177., 166., 172., 175., 164., 156., 70., 0., 0.,
          0., 1., 0., 0., 2., 1., 2., 2., 9., 124., 179., 184., 186.,
          188., 187., 171., 174., 167., 165., 163., 154., 67., 2., 3.,
          0., 0., 2., 1., 0., 1., 1., 0., 5., 121., 175., 180., 182.,
          183., 183., 171., 165., 167., 172., 169., 154., 60., 0., 0.,
          0., 0., 0., 0., 2., 0., 0., 0., 7., 122., 175., 180., 181.,
          182., 182., 168., 172., 166., 169., 162., 150., 73., 1., 0.,
          5., 0., 9., 64., 0., 1., 3., 1., 9., 122., 174., 178., 179.,
          178., 179., 172., 173., 172., 165., 166., 160., 63., 0., 0.,
          15., 55., 234., 116., 10., 0., 0., 2., 12., 123., 172., 177.,
          177., 177., 178., 167., 170., 168., 172., 168., 150., 68., 16.,
          26., 31., 123., 192., 68., 0., 3., 1., 2., 12., 123., 171.,
          176., 177., 177., 180., 179., 171., 174., 174., 172., 155.,
          53., 4., 27., 45., 35., 30., 6., 5., 0., 0., 0., 11., 121.,
          169., 175., 176., 176., 179., 175., 178., 176., 174., 170.,
          132., 38., 30., 25., 21., 13., 18., 0., 0., 1., 1., 2., 14.,
          124., 172., 178., 179., 179., 182., 181., 173., 178., 173.,
          169., 111., 59., 73., 15., 16., 0., 2., 7., 0., 2., 0., 2., 8.,
          120., 177., 178., 181., 184., 185., 174., 175., 171., 172.,
          158., 55., 169., 12., 20., 5., 0., 11., 5., 0., 0., 6., 5.,
          11., 133., 175., 179., 181., 181., 179., 161., 163., 160.,
          156., 149., 0., 22., 11., 4., 1., 10., 7., 0., 20., 58., 112.,
          124., 115., 157., 160., 160., 163., 155., 165., 178., 178.,
          179., 172., 140., 64., 14., 9., 33., 18., 20., 11., 39., 97.,
          163., 173., 180., 180., 176., 173., 181., 180., 189., 179.,
          174., 168., 171., 168., 140., 79., 23., 33., 30., 40., 19.,
          69., 84., 138., 164., 172., 174., 176., 175., 178., 178., 175.,
          174., 180., 170., 175., 170., 165., 162., 139., 84., 46., 39.,
          44., 84., 93., 121., 161., 176., 171., 175., 176., 178., 178.,
          177., 175., 181., 178., 152., 158., 166., 165., 162., 142.,
          122., 95., 83., 79., 68., 98., 131., 165., 172., 173., 177.,
          180., 178., 174., 181., 177., 174., 161., 69., 122., 162.,
          160., 154., 143., 112., 94., 82., 21., 5., 50., 131., 168.,
          171., 175., 177., 178., 178., 181., 176., 163., 23., 105. ]
      - [ 0., 5., 0., 0., 1., 0., 2., 0., 0., 0., 1., 3., 0., 43., 2.,
          10., 113., 106., 108., 46., 1., 2., 0., 1., 1., 0., 0., 4., 0.,
          2., 0., 0., 2., 0., 0., 13., 19., 1., 0., 27., 63., 55., 2.,
          0., 0., 1., 0., 1., 2., 2., 31., 19., 0., 1., 3., 0., 0., 0.,
          2., 0., 3., 0., 7., 47., 52., 3., 0., 2., 0., 1., 1., 0., 44.,
          0., 4., 2., 0., 0., 0., 1., 1., 3., 26., 0., 11., 81., 65.,
          51., 43., 2., 6., 1., 0., 0., 0., 1., 0., 0., 1., 2., 0., 39.,
          51., 47., 42., 88., 107., 102., 104., 102., 83., 48., 45., 0.,
          0., 1., 43., 3., 1., 20., 93., 91., 91., 94., 57., 46., 43.,
          44., 36., 44., 68., 69., 69., 75., 64., 29., 25., 0., 3., 1.,
          5., 1., 0., 12., 106., 103., 104., 95., 61., 45., 46., 29., 2.,
          0., 5., 2., 0., 2., 0., 1., 1., 0., 0., 2., 0., 3., 26., 34.,
          110., 105., 107., 109., 68., 50., 44., 24., 0., 0., 0., 0., 4.,
          0., 0., 0., 0., 1., 1., 30., 30., 34., 19., 8., 106., 108.,
          105., 102., 84., 49., 41., 21., 0., 1., 1., 0., 0., 0., 0., 0.,
          2., 0., 5., 25., 31., 1., 1., 0., 67., 92., 107., 103., 103.,
          46., 37., 17., 0., 0., 0., 0., 0., 0., 0., 0., 0., 0., 1., 8.,
          1., 0., 0., 0., 70., 10., 73., 111., 99., 71., 39., 17., 0.,
          0., 0., 0., 0., 0., 0., 0., 2., 0., 0., 0., 0., 0., 0., 3.,
          85., 88., 12., 95., 109., 104., 0., 1., 1., 1., 0., 1., 1., 0.,
          0., 0., 1., 0., 4., 0., 5., 2., 0., 0., 47., 57., 28., 65.,
          72., 8., 0., 0., 1., 0., 0., 0., 0., 0., 0., 0., 0., 1., 0.,
          2., 0., 0., 6., 0., 45., 29., 49., 42., 18., 2., 3., 0., 0.,
          0., 0., 0., 0., 0., 1., 3., 6., 0., 1., 3., 1., 0., 0., 14.,
          54., 59., 47., 24., 2., 0., 0., 0., 0., 0., 0., 1., 0., 0., 2.,
          5., 3., 6., 0., 0., 0., 3., 4., 18., 51., 45., 26., 1., 0., 3.,
          0., 1., 0., 0., 0., 0., 0., 0., 1., 5., 14., 131., 2., 0., 28.,
          0., 15., 1., 52., 27., 0., 2., 0., 0., 4., 0., 0., 1., 3., 0.,
          2., 0., 0., 5., 3., 0., 3., 2., 7., 0., 3., 22., 49., 17., 45.,
          8., 3., 1., 0., 0., 2., 0., 0., 3., 39., 35., 39., 23., 0., 1.,
          4., 0., 0., 1., 0., 2., 64., 1., 4., 3., 3., 0., 0., 7., 30.,
          32., 37., 83., 88., 91., 91., 82., 39., 17., 0., 3., 2., 0.,
          0., 1., 101., 51., 39., 35., 25., 23., 28., 31., 29., 27., 26.,
          42., 89., 102., 99., 100., 55., 0., 1., 0., 8., 2., 3., 0.,
          101., 86., 52., 38., 29., 29., 33., 26., 17., 4., 2., 0., 14.,
          86., 103., 77., 1., 3., 0., 1., 16., 20., 2., 1., 102., 104.,
          95., 70., 32., 34., 25., 7., 0., 3., 0., 0., 0., 3., 0., 2.,
          2., 0., 0., 1., 0., 25., 0., 0., 92., 97., 92., 90., 42., 1.,
          0., 0., 0., 0., 0., 2., 1., 0., 0., 0., 0., 0., 2., 0., 1., 1.,
          15., 26., 5., 0., 54., 103., 0., 0., 3., 0., 1., 0., 1., 0.,
          0., 1., 0., 1., 0., 2., 0., 1., 1., 2., 2., 0. ]
      - [ 109., 113., 110., 59., 34., 1., 0., 0., 1., 0., 1., 0., 1.,
          71., 114., 116., 109., 14., 0., 0., 0., 0., 2., 0., 43., 120.,
          118., 93., 30., 3., 0., 0., 0., 0., 2., 0., 4., 44., 127.,
          113., 117., 11., 0., 0., 1., 0., 2., 2., 35., 125., 121., 112.,
          18., 0., 3., 0., 2., 0., 0., 1., 0., 52., 119., 119., 117., 6.,
          1., 5., 0., 0., 0., 0., 49., 120., 120., 55., 0., 0., 0., 1.,
          2., 0., 2., 0., 3., 62., 76., 88., 107., 12., 0., 1., 0., 3.,
          1., 1., 110., 116., 122., 6., 9., 4., 0., 0., 0., 1., 2., 0.,
          7., 55., 57., 57., 60., 6., 1., 0., 2., 0., 0., 1., 114., 91.,
          60., 13., 18., 4., 8., 0., 2., 0., 0., 36., 57., 54., 57., 49.,
          55., 5., 2., 0., 1., 0., 3., 0., 116., 77., 59., 0., 10., 3.,
          7., 21., 0., 26., 109., 103., 64., 47., 56., 55., 55., 5., 0.,
          1., 0., 1., 0., 2., 116., 81., 63., 20., 0., 4., 3., 0., 26.,
          91., 89., 90., 63., 32., 28., 32., 32., 18., 12., 13., 0., 1.,
          4., 68., 114., 95., 66., 48., 36., 3., 2., 0., 2., 2., 2., 2.,
          2., 1., 1., 1., 21., 36., 35., 33., 21., 1., 3., 0., 112.,
          106., 66., 47., 44., 6., 0., 1., 0., 0., 0., 1., 0., 0., 0.,
          0., 14., 36., 32., 27., 24., 1., 0., 4., 119., 110., 73., 53.,
          39., 5., 3., 1., 0., 0., 0., 0., 0., 0., 0., 0., 10., 24., 27.,
          10., 1., 0., 2., 0., 113., 116., 82., 50., 37., 4., 0., 0., 0.,
          0., 0., 1., 1., 0., 0., 1., 9., 28., 17., 0., 0., 3., 0., 0.,
          106., 120., 106., 56., 35., 0., 5., 1., 0., 0., 0., 0., 0., 0.,
          0., 1., 9., 26., 0., 4., 3., 0., 2., 0., 80., 116., 117., 95.,
          35., 6., 0., 0., 0., 0., 0., 0., 0., 0., 0., 1., 36., 22., 1.,
          1., 0., 3., 0., 0., 59., 95., 114., 110., 93., 11., 0., 0., 1.,
          0., 0., 0., 0., 0., 0., 1., 50., 44., 0., 0., 2., 0., 3., 0.,
          58., 61., 67., 101., 108., 15., 3., 0., 0., 0., 0., 0., 0., 0.,
          0., 0., 35., 9., 0., 0., 2., 0., 0., 1., 56., 56., 59., 67.,
          93., 5., 4., 0., 0., 0., 0., 0., 1., 0., 0., 0., 24., 0., 0.,
          3., 0., 2., 0., 17., 52., 48., 53., 56., 56., 16., 1., 1., 0.,
          0., 0., 1., 0., 0., 0., 2., 10., 0., 2., 15., 21., 0., 0., 21.,
          54., 49., 51., 48., 54., 13., 13., 0., 3., 0., 0., 0., 0., 2.,
          1., 0., 2., 5., 0., 0., 25., 15., 27., 100., 44., 47., 46.,
          48., 38., 17., 16., 2., 1., 0., 1., 1., 4., 1., 0., 0., 4., 5.,
          0., 2., 0., 3., 36., 112., 44., 43., 43., 42., 36., 36., 21.,
          77., 8., 13., 0., 24., 78., 69., 25., 17., 10., 0., 0., 0., 0.,
          5., 0., 35., 44., 43., 37., 39., 35., 32., 30., 17., 4., 3.,
          11., 112., 106., 105., 46., 24., 0., 0., 0., 5., 2., 0., 1.,
          0., 50., 36., 40., 41., 30., 34., 16., 7., 2., 14., 47., 110.,
          112., 110., 85., 31., 0., 5., 1., 0., 10., 14., 0., 1., 94.,
          61., 38., 35., 30., 22., 3., 0., 0., 1., 0., 50., 108., 117.,
          109., 76., 1., 0., 0., 2., 0., 19., 2., 0. ]
      - [ 19., 19., 18., 18., 18., 20., 161., 179., 178., 185., 183.,
          181., 185., 186., 184., 190., 181., 183., 160., 33., 26., 26.,
          24., 21., 18., 16., 21., 17., 23., 21., 128., 169., 183., 178.,
          183., 185., 182., 180., 188., 186., 192., 180., 148., 29., 23.,
          24., 22., 27., 16., 19., 16., 16., 18., 16., 114., 142., 156.,
          170., 182., 183., 187., 186., 189., 188., 183., 187., 162.,
          26., 27., 22., 21., 26., 22., 13., 21., 19., 17., 22., 107.,
          132., 136., 137., 139., 177., 183., 187., 179., 186., 189.,
          186., 157., 25., 27., 28., 20., 21., 14., 22., 23., 11., 17.,
          19., 101., 131., 130., 130., 134., 137., 173., 182., 179.,
          183., 176., 176., 157., 28., 26., 22., 31., 19., 19., 23., 19.,
          19., 18., 14., 105., 122., 125., 131., 131., 140., 144., 178.,
          185., 174., 178., 176., 155., 35., 28., 31., 33., 33., 150.,
          154., 152., 152., 150., 103., 104., 100., 104., 98., 104., 84.,
          100., 166., 162., 172., 170., 181., 179., 177., 184., 183.,
          186., 181., 172., 175., 173., 173., 157., 120., 94., 18., 14.,
          15., 0., 10., 16., 15., 21., 26., 25., 30., 153., 182., 188.,
          185., 188., 193., 173., 174., 174., 168., 171., 121., 83., 15.,
          7., 9., 7., 21., 13., 15., 18., 6., 23., 25., 151., 188., 190.,
          190., 188., 189., 174., 160., 164., 157., 159., 149., 98., 16.,
          14., 19., 46., 28., 58., 30., 19., 9., 33., 24., 142., 180.,
          188., 189., 196., 189., 170., 165., 167., 168., 158., 160.,
          130., 28., 15., 13., 10., 2., 105., 36., 33., 5., 58., 25.,
          156., 180., 191., 190., 188., 188., 167., 168., 167., 173.,
          170., 161., 151., 26., 7., 12., 0., 7., 11., 34., 17., 7., 40.,
          30., 151., 189., 190., 193., 192., 192., 173., 169., 174.,
          171., 172., 163., 142., 14., 0., 9., 0., 0., 7., 11., 10., 8.,
          19., 31., 154., 183., 190., 191., 195., 190., 166., 170., 177.,
          172., 171., 172., 144., 22., 22., 0., 1., 0., 2., 15., 7., 24.,
          20., 27., 155., 178., 187., 185., 183., 186., 176., 180., 175.,
          174., 173., 171., 143., 15., 10., 5., 0., 0., 0., 9., 34., 10.,
          14., 26., 140., 182., 180., 184., 184., 187., 176., 176., 176.,
          175., 175., 171., 146., 23., 17., 0., 0., 4., 0., 5., 8., 12.,
          21., 23., 161., 174., 184., 188., 190., 184., 177., 177., 180.,
          172., 171., 169., 148., 18., 18., 17., 1., 0., 4., 11., 106.,
          10., 20., 25., 150., 175., 182., 184., 185., 190., 176., 173.,
          170., 174., 165., 168., 152., 24., 23., 19., 13., 6., 5., 10.,
          8., 17., 21., 28., 158., 183., 182., 187., 192., 184., 161.,
          159., 162., 158., 166., 158., 153., 125., 154., 130., 157.,
          143., 138., 132., 152., 143., 147., 164., 175., 177., 182.,
          183., 176., 182., 11., 17., 15., 19., 13., 19., 151., 169.,
          169., 169., 169., 165., 168., 164., 167., 172., 177., 182.,
          162., 22., 21., 25., 15., 22., 20., 20., 24., 20., 21., 25.,
          158., 171., 174., 173., 175., 176., 178., 174., 178., 182.,
          184., 182., 156., 25., 25., 25., 26., 28., 18., 17., 19., 20.,
          23., 24., 145., 175., 178., 181., 173., 181., 173., 176., 180.,
          176., 174., 178., 154., 25., 30., 24., 24., 22., 14., 21., 19.,
          20., 25., 28., 139., 168., 174., 172., 169., 171., 176., 178.,
          172., 182., 183., 181., 159., 23., 23., 27., 33., 25., 18.,
          16., 20., 21., 22., 27., 144., 170., 169., 171., 173., 177.,
          174., 177., 182., 177., 176., 185., 162., 25., 25., 26., 26.,
          27. ]
      - [ 90., 16., 13., 1., 0., 1., 0., 0., 0., 6., 1., 0., 173., 1.,
          1., 2., 70., 75., 82., 8., 2., 0., 2., 5., 0., 0., 1., 1., 2.,
          0., 0., 0., 81., 203., 0., 2., 1., 0., 0., 22., 42., 53., 18.,
          1., 1., 0., 0., 8., 2., 0., 3., 0., 0., 5., 3., 0., 3., 19.,
          2., 0., 3., 6., 16., 16., 16., 28., 3., 0., 5., 0., 0., 0., 0.,
          3., 0., 7., 1., 0., 0., 3., 0., 12., 17., 51., 42., 0., 2., 0.,
          1., 1., 3., 0., 0., 2., 0., 1., 4., 0., 106., 102., 58., 15.,
          4., 9., 20., 36., 70., 15., 4., 0., 0., 0., 2., 0., 1., 0., 1.,
          0., 2., 0., 1., 72., 101., 101., 80., 45., 51., 60., 11., 1.,
          0., 0., 0., 1., 3., 0., 0., 5., 0., 5., 1., 9., 57., 4., 89.,
          112., 103., 108., 97., 53., 43., 45., 0., 0., 0., 2., 0., 0.,
          44., 0., 0., 0., 1., 26., 28., 20., 7., 14., 107., 106., 107.,
          108., 99., 55., 40., 36., 0., 0., 1., 1., 0., 1., 147., 1., 1.,
          1., 1., 14., 20., 4., 2., 0., 76., 78., 88., 109., 108., 76.,
          39., 25., 0., 0., 0., 0., 0., 0., 0., 0., 0., 0., 2., 11., 4.,
          0., 1., 0., 38., 27., 12., 98., 104., 99., 45., 26., 0., 0.,
          0., 0., 0., 0., 0., 0., 0., 0., 0., 2., 0., 1., 0., 2., 90.,
          97., 49., 84., 105., 107., 84., 36., 0., 0., 0., 0., 0., 0.,
          0., 0., 1., 0., 1., 0., 0., 0., 2., 0., 27., 81., 17., 57.,
          68., 42., 8., 1., 0., 0., 0., 0., 0., 0., 0., 0., 1., 0., 0.,
          3., 0., 1., 1., 0., 5., 52., 8., 0., 0., 0., 2., 0., 0., 0.,
          0., 0., 0., 0., 1., 1., 0., 0., 2., 0., 2., 11., 18., 1., 47.,
          19., 2., 3., 0., 0., 3., 0., 0., 0., 0., 0., 0., 0., 0., 1.,
          0., 4., 0., 0., 2., 24., 229., 5., 6., 0., 1., 0., 2., 0., 0.,
          3., 0., 0., 0., 0., 0., 0., 0., 0., 2., 0., 0., 7., 13., 18.,
          2., 2., 0., 1., 0., 1., 0., 0., 1., 0., 0., 0., 0., 0., 0., 0.,
          0., 0., 0., 0., 1., 0., 6., 2., 1., 0., 0., 1., 1., 0., 1., 1.,
          0., 1., 0., 1., 0., 4., 0., 0., 1., 0., 6., 0., 1., 0., 1., 0.,
          0., 0., 1., 0., 1., 0., 0., 1., 2., 0., 13., 6., 12., 16., 0.,
          0., 3., 26., 37., 11., 1., 0., 1., 1., 0., 3., 0., 1., 2., 7.,
          0., 1., 0., 0., 0., 0., 11., 0., 1., 4., 45., 86., 39., 1., 0.,
          3., 0., 0., 1., 0., 1., 0., 51., 45., 25., 29., 37., 10., 5.,
          0., 0., 1., 3., 57., 94., 0., 3., 4., 1., 0., 4., 0., 1., 1.,
          1., 3., 79., 85., 52., 35., 22., 4., 0., 1., 2., 0., 0., 1.,
          0., 0., 0., 13., 18., 4., 0., 0., 3., 6., 48., 91., 80., 86.,
          55., 20., 1., 0., 1., 0., 0., 0., 2., 0., 1., 1., 2., 1., 29.,
          27., 5., 0., 77., 18., 9., 3., 4., 20., 0., 0., 2., 0., 1., 0.,
          0., 6., 0., 5., 0., 0., 1., 0., 17., 173., 137., 3., 1., 0.,
          65., 68., 7., 0., 0., 3., 0., 1., 0., 2., 0., 0., 1., 0., 0.,
          1., 0., 0., 1., 45., 0., 0., 0., 0. ]
      - [ 14., 20., 14., 20., 17., 22., 149., 149., 150., 156., 167.,
          177., 182., 179., 183., 187., 178., 179., 107., 24., 16., 18.,
          20., 21., 17., 16., 19., 18., 18., 22., 123., 139., 140., 141.,
          148., 153., 177., 177., 177., 180., 176., 177., 115., 21., 22.,
          16., 17., 15., 12., 18., 15., 17., 20., 21., 116., 139., 141.,
          141., 143., 143., 155., 180., 183., 180., 177., 181., 105.,
          19., 19., 19., 22., 13., 17., 14., 15., 17., 22., 18., 115.,
          140., 146., 143., 146., 147., 150., 176., 181., 182., 180.,
          186., 116., 23., 26., 20., 16., 18., 16., 25., 14., 18., 18.,
          21., 119., 142., 141., 145., 147., 143., 166., 180., 187.,
          185., 184., 178., 119., 21., 18., 18., 21., 18., 16., 3., 13.,
          14., 13., 22., 109., 134., 138., 138., 126., 138., 159., 169.,
          181., 185., 187., 181., 130., 25., 25., 25., 27., 24., 170.,
          168., 168., 180., 165., 165., 131., 134., 139., 141., 130.,
          184., 190., 180., 178., 184., 155., 180., 174., 181., 179.,
          179., 174., 177., 173., 178., 173., 171., 170., 169., 142.,
          11., 125., 144., 122., 167., 188., 188., 191., 193., 137., 28.,
          154., 177., 179., 183., 180., 182., 171., 169., 170., 168.,
          167., 166., 124., 19., 147., 142., 125., 127., 156., 181.,
          198., 208., 175., 19., 155., 179., 182., 183., 180., 190.,
          171., 170., 169., 165., 167., 162., 116., 12., 130., 153.,
          138., 144., 160., 181., 193., 219., 186., 21., 153., 181.,
          184., 186., 190., 184., 172., 167., 172., 173., 170., 167.,
          129., 21., 124., 158., 153., 154., 167., 177., 190., 194.,
          187., 15., 156., 186., 187., 182., 184., 183., 175., 177.,
          176., 170., 170., 160., 119., 18., 122., 129., 165., 166.,
          169., 179., 184., 182., 186., 16., 166., 188., 185., 187.,
          185., 183., 178., 172., 177., 177., 172., 166., 133., 21., 39.,
          132., 119., 152., 163., 171., 176., 180., 179., 18., 153.,
          182., 184., 183., 182., 184., 177., 176., 174., 172., 178.,
          169., 130., 17., 16., 130., 144., 139., 155., 169., 170., 172.,
          65., 19., 161., 181., 184., 183., 184., 185., 178., 171., 174.,
          174., 175., 170., 138., 17., 15., 5., 122., 135., 149., 158.,
          156., 80., 24., 28., 154., 174., 185., 183., 180., 184., 175.,
          173., 175., 170., 173., 169., 139., 23., 20., 10., 9., 12.,
          51., 55., 14., 15., 23., 25., 154., 182., 179., 182., 183.,
          183., 169., 173., 173., 174., 169., 172., 140., 25., 18., 16.,
          12., 5., 4., 10., 15., 21., 25., 14., 153., 181., 179., 179.,
          181., 183., 173., 176., 171., 171., 174., 167., 148., 22., 21.,
          17., 19., 16., 13., 16., 20., 23., 25., 29., 149., 170., 175.,
          180., 183., 177., 2., 1., 8., 12., 5., 6., 80., 14., 16., 17.,
          16., 14., 16., 13., 10., 17., 16., 17., 131., 24., 20., 32.,
          22., 40., 33., 27., 23., 26., 31., 31., 154., 150., 153., 146.,
          150., 150., 145., 146., 147., 145., 140., 147., 125., 27., 44.,
          35., 53., 39., 20., 17., 24., 26., 21., 22., 154., 165., 172.,
          173., 170., 166., 171., 172., 167., 170., 168., 171., 133.,
          34., 30., 24., 22., 31., 17., 21., 21., 19., 26., 27., 143.,
          168., 173., 169., 171., 169., 166., 171., 171., 166., 167.,
          167., 140., 34., 35., 32., 31., 27., 22., 18., 22., 25., 25.,
          29., 148., 172., 170., 171., 170., 166., 168., 168., 166.,
          170., 171., 173., 121., 36., 31., 29., 31., 32., 21., 19., 21.,
          20., 24., 29., 147., 167., 173., 170., 171., 171., 170., 171.,
          174., 180., 171., 179., 105., 31., 30., 29., 23., 33. ]
      - [ 22., 24., 31., 24., 26., 25., 109., 151., 153., 154., 150.,
          142., 117., 115., 153., 180., 187., 183., 170., 30., 24., 28.,
          21., 27., 24., 26., 21., 24., 29., 29., 87., 148., 148., 145.,
          155., 142., 126., 134., 155., 184., 194., 193., 161., 33., 29.,
          22., 26., 21., 20., 23., 29., 27., 21., 30., 99., 149., 153.,
          153., 157., 153., 147., 149., 166., 188., 208., 207., 175.,
          31., 28., 26., 22., 24., 27., 30., 31., 24., 31., 36., 87.,
          155., 148., 147., 155., 161., 156., 162., 174., 186., 202.,
          208., 171., 25., 31., 22., 31., 23., 101., 101., 99., 98.,
          109., 116., 108., 134., 126., 126., 122., 170., 165., 164.,
          181., 188., 187., 191., 178., 144., 145., 161., 146., 151.,
          183., 186., 186., 184., 179., 180., 153., 58., 62., 111., 115.,
          110., 160., 174., 183., 184., 182., 86., 174., 188., 186.,
          185., 185., 186., 179., 182., 179., 179., 182., 172., 158.,
          17., 19., 123., 124., 128., 113., 135., 167., 173., 190., 192.,
          168., 178., 186., 186., 187., 190., 181., 176., 179., 178.,
          174., 173., 151., 17., 23., 127., 115., 141., 144., 149., 173.,
          180., 189., 197., 166., 187., 191., 187., 187., 192., 181.,
          179., 179., 174., 173., 180., 144., 10., 17., 135., 125., 115.,
          129., 154., 161., 175., 194., 151., 167., 192., 190., 187.,
          191., 192., 183., 178., 182., 186., 179., 172., 139., 21., 12.,
          106., 142., 133., 145., 150., 168., 181., 190., 41., 173.,
          188., 193., 193., 187., 192., 184., 181., 183., 184., 182.,
          176., 143., 26., 10., 118., 121., 145., 145., 162., 175., 178.,
          189., 15., 171., 188., 188., 188., 189., 185., 183., 185.,
          183., 180., 183., 181., 147., 20., 18., 78., 129., 124., 132.,
          154., 160., 172., 167., 34., 166., 189., 181., 189., 190.,
          189., 182., 184., 184., 183., 185., 177., 143., 16., 16., 4.,
          90., 128., 142., 156., 159., 145., 40., 28., 172., 180., 185.,
          189., 184., 190., 182., 182., 181., 179., 182., 174., 145.,
          18., 18., 0., 9., 68., 91., 132., 104., 33., 21., 27., 163.,
          184., 185., 180., 189., 182., 181., 180., 178., 173., 178.,
          176., 150., 16., 20., 0., 3., 2., 16., 34., 14., 10., 22., 30.,
          164., 178., 178., 188., 183., 184., 180., 177., 178., 177.,
          181., 174., 147., 11., 15., 5., 0., 4., 0., 0., 8., 15., 22.,
          26., 159., 178., 177., 182., 178., 181., 165., 165., 150.,
          162., 167., 156., 140., 16., 23., 16., 18., 14., 17., 17., 17.,
          19., 27., 30., 151., 164., 164., 170., 170., 169., 4., 4., 7.,
          2., 2., 8., 25., 6., 4., 4., 5., 3., 4., 1., 5., 6., 4., 8.,
          55., 6., 11., 3., 10., 11., 23., 23., 23., 20., 24., 24., 142.,
          182., 166., 169., 167., 167., 167., 163., 169., 166., 171.,
          168., 148., 28., 18., 27., 25., 21., 21., 16., 14., 27., 23.,
          22., 135., 168., 172., 173., 170., 169., 170., 169., 170.,
          166., 167., 167., 155., 29., 28., 20., 22., 22., 20., 22., 22.,
          21., 18., 23., 118., 172., 175., 173., 173., 170., 170., 173.,
          170., 170., 168., 171., 135., 30., 30., 28., 24., 23., 20.,
          24., 18., 14., 25., 24., 114., 172., 169., 168., 171., 168.,
          166., 171., 168., 172., 170., 172., 159., 33., 24., 21., 25.,
          20., 18., 19., 22., 24., 18., 23., 98., 168., 173., 174., 174.,
          177., 174., 176., 175., 178., 179., 168., 163., 37., 21., 28.,
          20., 25., 23., 19., 20., 17., 24., 20., 103., 169., 174., 176.,
          171., 179., 178., 177., 177., 175., 176., 180., 168., 25., 26.,
          25., 19., 21. ]
      - [ 21., 21., 21., 25., 23., 23., 136., 146., 146., 150., 157.,
          176., 174., 143., 134., 120., 108., 123., 146., 167., 142.,
          18., 27., 20., 23., 22., 23., 23., 27., 23., 116., 143., 144.,
          143., 144., 148., 158., 144., 139., 120., 123., 136., 161.,
          178., 170., 19., 18., 23., 21., 19., 25., 26., 21., 22., 113.,
          139., 144., 141., 141., 146., 140., 148., 142., 144., 142.,
          158., 180., 199., 192., 7., 21., 20., 23., 24., 23., 21., 30.,
          24., 113., 141., 142., 139., 144., 142., 136., 150., 153.,
          147., 156., 165., 179., 196., 171., 16., 23., 22., 25., 25.,
          26., 24., 25., 30., 113., 142., 142., 146., 139., 128., 111.,
          139., 159., 157., 160., 179., 175., 190., 137., 23., 17., 22.,
          65., 71., 91., 103., 129., 103., 114., 126., 116., 120., 120.,
          104., 101., 87., 148., 165., 173., 181., 181., 178., 101.,
          114., 111., 118., 173., 185., 176., 182., 172., 176., 107.,
          33., 36., 44., 104., 98., 110., 97., 89., 127., 154., 165.,
          173., 176., 180., 177., 175., 180., 177., 175., 176., 167.,
          173., 168., 124., 22., 19., 60., 110., 98., 127., 129., 124.,
          147., 162., 175., 170., 178., 174., 181., 180., 176., 175.,
          174., 173., 170., 168., 165., 110., 22., 24., 100., 121., 111.,
          91., 138., 151., 163., 176., 182., 170., 179., 183., 181.,
          180., 184., 174., 172., 169., 166., 164., 161., 109., 21., 39.,
          107., 131., 128., 126., 123., 128., 154., 167., 179., 170.,
          182., 185., 182., 185., 186., 175., 174., 175., 175., 172.,
          166., 112., 19., 41., 102., 108., 142., 138., 141., 155., 164.,
          176., 154., 157., 184., 183., 178., 180., 183., 181., 178.,
          178., 176., 172., 167., 117., 21., 28., 108., 91., 111., 145.,
          151., 167., 174., 170., 47., 160., 181., 182., 184., 185.,
          179., 180., 177., 180., 178., 174., 167., 118., 15., 14., 81.,
          136., 125., 105., 141., 147., 159., 162., 22., 163., 180.,
          181., 180., 180., 182., 175., 175., 181., 180., 177., 170.,
          119., 7., 2., 33., 81., 122., 140., 152., 160., 131., 20., 23.,
          153., 179., 180., 184., 183., 181., 176., 174., 176., 171.,
          169., 167., 121., 8., 0., 3., 27., 88., 104., 113., 97., 14.,
          22., 27., 150., 173., 178., 178., 177., 178., 176., 173., 176.,
          170., 167., 167., 124., 8., 1., 0., 4., 7., 38., 10., 9., 21.,
          22., 26., 149., 174., 173., 179., 177., 176., 173., 172., 172.,
          171., 173., 169., 118., 2., 0., 0., 0., 0., 1., 5., 14., 22.,
          25., 22., 153., 170., 172., 174., 172., 173., 170., 168., 156.,
          173., 164., 170., 120., 2., 2., 5., 8., 10., 11., 13., 18.,
          22., 22., 13., 146., 171., 173., 176., 182., 178., 2., 0., 2.,
          0., 2., 1., 4., 2., 1., 3., 3., 2., 0., 1., 1., 0., 0., 4.,
          17., 0., 3., 2., 0., 0., 20., 24., 20., 22., 20., 13., 135.,
