%YAML:1.0
---
opencv_ml_svm:
   format: 3
   svmType: C_SVC
   kernel:
      type: LINEAR
   C: 1.0000000000000001e-01
   term_criteria: { iterations:1000 }
   var_count: 1024
   class_count: 13
   class_labels: !!opencv-matrix
      rows: 13
      cols: 1
      dt: i
      data: [ 0, 1, 2, 3, 4, 5, 6, 8, 9, 10, 11, 12, 13 ]
   sv_total: 78
   support_vectors:
      - [ -1.67778504e-04, -1.83104989e-04, -1.50513355e-04,
          -9.68258828e-05, -1.38194417e-04, -2.18953777e-04,
          -1.50662687e-04, -2.72795471e-04, -4.30229920e-05,
          -2.16165616e-04, -1.41457247e-04, -1.09591179e-04,
          -8.31161597e-05, -1.05383471e-04, -8.93446777e-05,
          -1.32879868e-05, 1.05935742e-05, -3.31783849e-05,
          4.79244700e-05, -4.36047321e-06, -1.81966079e-05,
          -1.13412952e-05, -2.35984880e-05, 6.05521745e-05,
          -1.02352766e-04, -1.60007578e-04, -9.42225815e-05,
          -9.32395560e-05, -9.14166958e-05, -1.02892518e-04,
          -9.75545845e-05, -1.38375675e-04, -1.28325060e-04,
          -1.64216675e-04, -1.43268015e-04, -1.83507422e-04,
          -1.61071002e-04, -1.54309892e-04, -1.64660873e-04,
          -2.44893163e-04, -1.65669859e-04, -2.25011347e-04,
          -9.62553386e-05, -7.65983932e-05, -7.93671279e-05,
          -1.07642780e-04, -1.21945523e-04, -3.79877019e-05,
          4.87408433e-05, 6.10438001e-05, 4.10913599e-05, 1.38756141e-05,
          4.63594333e-05, -3.18807179e-05, -4.49291729e-05,
          1.23165337e-05, -5.60693879e-05, -9.20705643e-05,
          -1.40908072e-04, -1.31572393e-04, -1.09639113e-04,
          -9.77675300e-05, -1.45307902e-04, -1.42500678e-04,
          -1.55795045e-04, -1.57496776e-04, -1.49205051e-04,
          -1.64085344e-04, -1.67964798e-04, -1.44907666e-04,
          -1.99617265e-04, -2.42384180e-04, -1.67596911e-04,
          -2.15843524e-04, -9.38577068e-05, -1.18161071e-04,
          -9.04407498e-05, -7.81382478e-05, -8.15648527e-05,
          -6.10437564e-05, 2.20411312e-05, 8.46694020e-05,
          8.54854734e-05, 4.12546542e-05, -3.28319729e-05,
          -1.55068174e-05, -3.43729298e-05, 6.55848853e-05,
          -7.67779493e-05, -1.81472878e-05, -9.99976692e-05,
          -8.52102457e-05, -6.68634530e-05, -1.05714455e-04,
          -1.31686742e-04, -1.12164082e-04, -1.75914116e-04,
          -1.46650535e-04, -1.44806996e-04, -1.43421785e-04,
          -1.35217080e-04, -1.44602323e-04, -1.65767429e-04,
          -1.79580762e-04, -3.68771180e-05, -2.16487344e-04,
          -1.14493312e-04, -6.68945795e-05, -8.08267796e-05,
          -7.48764214e-05, -7.60872426e-05, -1.06166735e-04,
          -4.79778755e-05, -2.71911158e-05, 1.61042226e-05,
          3.07635637e-05, -1.60806103e-05, -2.72848993e-05,
          -5.21641050e-05, -1.00468123e-05, -9.46041764e-05,
          -9.30965871e-06, -8.69817159e-05, -7.33141933e-05,
          -7.29858075e-05, -5.77779538e-05, -1.58629235e-04,
          -1.66944767e-04, -1.70974105e-04, -1.15639006e-04,
          -1.62994183e-04, -1.53179208e-04, -1.53332614e-04,
          -1.80336152e-04, -1.13335460e-04, -7.82049683e-05,
          9.27944711e-05, -2.17455192e-04, -1.39036099e-04,
          -1.11287125e-04, -1.11760695e-04, -9.28857917e-05,
          -9.81270059e-05, -8.79170111e-05, -6.03917542e-05,
          -1.05522973e-04, -8.60851651e-05, -7.06292121e-05,
          -7.66894082e-05, -1.29898632e-04, -9.43443229e-05,
          -1.59936808e-05, -6.85499981e-05, 1.52215816e-05,
          2.16155586e-05, -1.77741767e-05, -8.80573934e-05,
          -3.75675954e-05, -1.27998224e-04, -1.39328127e-04,
          -9.48482339e-05, -8.87331626e-05, -1.52273176e-04,
          -1.20300654e-04, -1.42801509e-04, -1.58038019e-04,
          -9.01012463e-05, -4.58667928e-05, 4.61531563e-05,
          -2.32403443e-04, -1.34428512e-04, -1.10267974e-04,
          -1.05037325e-04, -9.85860825e-05, -7.61418196e-05,
          -8.22303773e-05, -9.63063067e-05, -8.49603166e-05,
          -1.00377831e-04, -1.21513986e-04, -1.26427374e-04,
          -8.32388032e-05, -1.33533875e-04, -3.07361029e-06,
          -5.19180430e-05, -8.48295749e-05, -6.87013744e-05,
          -5.32491504e-05, -6.57320052e-05, -1.13376541e-06,
          -1.37990311e-04, -1.15655923e-04, -2.92197481e-04,
          -3.56683915e-04, -3.86953558e-04, -3.80011188e-04,
          -3.73540039e-04, -3.46323679e-04, -3.33833974e-04,
          -3.07815411e-04, -1.49929663e-04, -2.83013389e-04,
          -1.04149520e-04, -1.22899975e-04, -1.53063942e-04,
          -1.59582196e-04, -1.40126125e-04, -1.33289999e-04,
          -8.80982770e-05, -1.98869602e-04, -2.71617639e-04,
          -2.98971252e-04, -2.46436713e-04, -1.18107026e-04,
          -1.17174248e-04, -1.78892788e-05, -5.19890018e-05,
          -1.70574625e-04, -2.14556116e-04, -2.31638624e-04,
          -2.89320364e-04, -2.77093583e-04, -3.03589943e-04,
          -2.79299158e-04, -1.54012057e-04, -2.05110526e-04,
          -1.53208777e-04, -1.81146839e-04, -2.47656018e-04,
          -1.88641716e-04, -1.79948736e-04, -1.10841298e-04,
          8.49418429e-05, -2.04110416e-04, -6.71273883e-05,
          -7.79782713e-05, -9.26580178e-05, -6.92424364e-05,
          3.89067609e-05, 5.21729089e-05, -1.25429760e-05,
          -1.12374197e-04, -1.91661413e-04, -2.51333433e-04,
          -1.98173962e-04, -1.66721657e-04, -4.74083754e-05,
          -1.54033725e-04, 2.50028766e-04, -6.61268132e-06,
          -7.03763799e-05, -1.34336253e-04, -1.28125073e-04,
          -1.28462081e-04, -2.30073289e-04, -2.60423403e-04,
          1.38432253e-04, 1.24456317e-04, 9.87472376e-05, 1.05859566e-04,
          1.14020128e-04, 9.94143484e-05, 1.34800124e-04, 1.83929282e-04,
          5.13964740e-04, 5.63871406e-04, 4.31887485e-04, 4.83869197e-04,
          6.40100159e-04, 5.89113275e-04, 5.20286208e-04, 5.53377089e-04,
          4.61564894e-04, 4.21959441e-04, 4.59376432e-04, 4.38433024e-04,
          3.24251014e-04, 2.26836419e-04, 2.98947154e-04, 1.83992699e-04,
          1.16313196e-04, 1.90814229e-04, 1.68711311e-04, 8.37305852e-05,
          8.48910713e-05, 7.71585201e-06, 6.33444797e-05, 9.10427189e-05,
          -1.56640628e-04, -1.50097199e-04, -1.66062062e-04,
          -1.41612007e-04, -1.06837004e-04, -1.32468718e-04,
          -1.41861688e-04, -1.22266065e-04, 2.31097874e-04,
          7.70598708e-05, 4.19350290e-05, 2.00605573e-04, 4.15377493e-04,
          2.37418557e-04, 1.42057208e-04, 3.42248502e-04, 3.87818232e-04,
          3.44178377e-04, 3.68566107e-04, 2.12683779e-04, 1.25859078e-04,
          4.20774777e-05, 7.28085870e-05, 1.51159475e-04,
          -1.04341329e-04, -1.25767794e-04, 3.00732590e-05,
          6.62396415e-05, 2.46667751e-05, 7.33853230e-05, 1.51903834e-04,
          8.48727504e-05, -4.10669163e-05, -1.13061678e-05,
          -1.53578112e-05, -3.67247958e-05, -2.28565623e-05,
          -5.76493876e-05, -7.30248721e-05, -5.29599893e-05,
          7.27374136e-05, -1.03560691e-04, 1.65339122e-06,
          1.92125211e-04, 3.59040772e-04, 3.42108426e-04, 2.71814875e-04,
          3.67799832e-04, 4.32605011e-04, 4.90041333e-04, 5.13733481e-04,
          1.45701197e-04, 1.64211189e-04, 1.99561269e-04, 8.29179990e-05,
          1.41473705e-04, -6.05857531e-05, 3.40883998e-05,
          -3.08669551e-05, -5.74073092e-05, -5.98508632e-05,
          -5.40834735e-05, -4.87343386e-05, -5.63954818e-05,
          -4.62112148e-05, -4.04336824e-05, -5.81760323e-05,
          -7.05994244e-05, -4.72513275e-05, -4.98722184e-05,
          -6.56049160e-05, -1.82509339e-05, -1.09455050e-05,
          -1.42468169e-04, -4.69888946e-05, 1.33508525e-04,
          2.78925843e-04, 3.33632546e-04, 3.57625424e-04, 3.63654486e-04,
          3.91041831e-04, 3.67682893e-04, 4.49063926e-04, 3.02519911e-04,
          1.95793691e-04, 2.85047950e-04, 2.30448684e-04, 1.10546498e-04,
          -8.32309233e-05, -1.98669295e-05, -9.61867045e-05,
          -9.84627841e-05, -1.24368264e-04, -9.03315522e-05,
          -1.01528676e-04, -5.52324127e-05, -6.35109827e-05,
          -4.67119717e-05, -4.46381200e-05, -5.47004965e-05,
          -4.50391381e-05, -5.54644430e-05, -7.51018451e-05,
          -2.46663531e-05, -1.93327491e-04, -2.33362938e-04,
          -5.40499095e-05, 8.90985248e-05, 2.82729074e-04,
          3.15570942e-04, 2.27174227e-04, 1.78158851e-04, 3.91206093e-04,
          1.15469069e-04, 3.07890034e-04, 2.65462382e-04, 2.32226870e-04,
          2.91710632e-04, 2.16929635e-04, 1.39021198e-04,
          -6.46841872e-05, -2.28343542e-05, -1.63452525e-04,
          -1.83580618e-04, -1.60367505e-04, -1.45779035e-04,
          -1.02149075e-04, -8.92105600e-05, -7.39750103e-05,
          -4.87534817e-05, -4.44409561e-05, -8.33216836e-05,
          -7.03992118e-05, -5.46719239e-05, -2.87219591e-05,
          5.55130064e-05, -1.52376582e-04, -2.43859729e-04,
          -6.46329354e-05, 1.22069854e-04, 1.64787474e-04,
          2.72768171e-04, 1.71482126e-04, 5.46074771e-05, 6.88860891e-05,
          6.98937074e-05, 1.77645750e-04, 2.21001392e-04, 3.33881530e-04,
          2.56512256e-04, 1.65164922e-04, 7.10647219e-05,
          -6.46379267e-05, -5.30012258e-05, -1.54543231e-04,
          -1.18160366e-04, -1.33306195e-04, -7.90552731e-05,
          -1.15136339e-04, -9.91448105e-05, -6.46469125e-05,
          -5.85025737e-05, -7.37216760e-05, -6.23896412e-05,
          -4.32815941e-05, -6.14208329e-05, -7.28211598e-05,
          6.49114872e-06, 2.34635954e-05, -2.60352681e-04,
          -1.29487671e-04, 4.73031578e-05, -3.71461210e-05,
          1.33211593e-04, 7.56370064e-05, -5.67458264e-05,
          -2.79786418e-05, 5.53395912e-05, 7.07793733e-05,
          2.19593378e-04, 2.87570263e-04, 2.92870536e-04, 2.24546486e-04,
          1.44014601e-04, -5.56947089e-05, 2.43025261e-05,
          -1.08180808e-04, -1.13996248e-04, -9.27957590e-05,
          -7.27021834e-05, -1.05667903e-04, -8.19204433e-05,
          -6.59831785e-05, -4.97980473e-05, -4.98417285e-05,
          -6.84410479e-05, -4.45199730e-05, -6.34181997e-05,
          -8.45787581e-05, 1.89172661e-05, 2.72685895e-04,
          -1.60517462e-04, -2.78081949e-04, -2.01806921e-04,
          -1.83744560e-04, 1.74905326e-05, 1.64016092e-04,
          4.03308877e-06, -6.98301028e-06, 8.77807179e-05,
          1.51851156e-04, 2.04937969e-04, 2.22122457e-04, 2.60694651e-04,
          3.26466747e-04, 2.14708823e-04, -1.28585743e-04,
          -7.54391294e-05, -5.96880382e-05, -7.77606911e-05,
          -7.00536257e-05, -1.04817751e-04, -5.17225526e-05,
          -4.20949109e-05, -6.86076455e-05, -6.71691596e-05,
          -6.07645707e-05, -5.69121876e-05, -3.18531820e-05,
          -6.00992680e-05, -3.74392876e-05, 2.60528959e-05,
          3.75059026e-04, -3.12783231e-05, -2.61265348e-04,
          -7.65604927e-05, 1.79817744e-05, -2.76605697e-05,
          1.10906527e-04, 5.12255501e-05, 2.94102047e-05, 1.02276070e-04,
          1.55229704e-04, 1.50925713e-04, 2.08808153e-04, 2.95211532e-04,
          3.63761297e-04, 2.08733560e-04, -4.69868173e-05,
          -1.80556308e-05, -7.34345012e-05, -2.02464526e-05,
          -4.64756340e-05, -7.21574397e-05, -1.65480378e-05,
          -3.26049994e-05, -6.90605666e-05, -6.33115706e-05,
          -5.28915079e-05, -4.98869922e-05, -4.33923014e-05,
          -7.84302101e-05, -4.32187335e-05, 5.27725715e-05,
          4.54715278e-04, 1.91684126e-06, -9.31910181e-05,
          -1.33261696e-04, 1.12907706e-04, -1.29227492e-05,
          1.60569452e-05, 8.95059202e-05, 1.73264852e-04, 1.62109078e-04,
          1.81397772e-04, 1.59704781e-04, 2.24111573e-04, 3.53372830e-04,
          3.64609208e-04, 7.77127789e-05, 1.58066341e-05,
          -4.86941062e-05, -2.79316337e-05, -6.18178638e-06,
          -2.15959171e-05, -7.02181278e-05, -4.01469297e-05,
          -2.36504111e-05, -6.44135216e-05, -6.38764905e-05,
          -5.07607765e-05, -5.60395420e-05, -5.83734145e-05,
          -6.69493456e-05, -4.95910062e-05, 6.18659833e-05,
          4.33968613e-04, 7.43200362e-05, -5.84988447e-05,
          -2.98186728e-06, 1.43115976e-04, 1.32358793e-04,
          -6.44349057e-05, 6.54496353e-06, 1.90237464e-04,
          1.89547718e-04, 1.81405077e-04, 1.66920916e-04, 1.89118204e-04,
          3.48633854e-04, 3.11173120e-04, 4.48054270e-05,
          -3.38162863e-05, -1.08132663e-05, -4.70379637e-05,
          -4.80217604e-05, -4.35317233e-05, -6.21942236e-05,
          -5.02755465e-05, -3.40109727e-05, -5.26805889e-05,
          -8.17289256e-05, -7.32249173e-05, -6.50159636e-05,
          -6.98696385e-05, -5.23590752e-05, -5.48803400e-05,
          5.76621351e-05, 4.73947934e-04, 4.57487404e-05,
          -8.07532633e-05, 1.77592756e-05, 3.38793257e-06,
          1.64407596e-04, 1.38842617e-04, 6.28825946e-05, 1.75733454e-04,
          1.94293811e-04, 1.68628161e-04, 2.25347234e-04, 2.10116646e-04,
          3.11467797e-04, 2.09649079e-04, 4.91174542e-05,
          -7.61647098e-05, -7.36515140e-05, -3.19761784e-06,
          -2.38754528e-05, -3.38571917e-05, -4.72918800e-05,
          -4.21891891e-05, -3.69699846e-05, -5.87345239e-05,
          -7.20223034e-05, -8.08122641e-05, -6.17539481e-05,
          -8.09451521e-05, -6.96428615e-05, -7.12684123e-05,
          4.18000745e-05, 3.63771134e-04, 8.13071820e-05,
          -7.94671287e-05, -5.90796080e-05, -3.62361243e-05,
          1.37847292e-05, 1.28144122e-04, 1.63946374e-04, 1.96414418e-04,
          1.47701678e-04, 1.07736916e-04, 1.43575089e-04, 1.53180867e-04,
          1.99682036e-04, 1.33851223e-04, 4.89179802e-05,
          -1.97841382e-05, -5.46558331e-05, -2.91307588e-05,
          -2.50821959e-05, -2.26579432e-05, -5.46578376e-05,
          -8.30693461e-05, 4.65901667e-06, -7.81352064e-05,
          -8.29103083e-05, -7.22505138e-05, -5.58159336e-05,
          -6.95973940e-05, -6.69552246e-05, -5.20617650e-05,
          1.80855368e-05, 3.83069448e-04, 1.24557628e-04,
          -3.78908662e-05, -2.72001089e-05, -1.65565452e-05,
          -5.32496779e-06, -9.67367032e-06, 5.03089723e-05,
          9.66623775e-05, 4.30927648e-05, 9.10293747e-05, 8.47233532e-05,
          1.21348232e-04, 1.23953272e-04, 1.41210141e-04, 5.51620615e-05,
          -7.21921697e-06, -1.10229266e-04, 3.75057448e-06,
          -2.73967853e-05, -3.88780209e-05, -7.00665260e-05,
          -3.75114250e-05, -4.41121847e-05, -1.03486549e-04,
          -8.01867864e-05, -9.01569729e-05, -7.16506911e-05,
          -7.79639231e-05, -7.79609400e-05, -4.20522774e-05,
          -3.32831951e-05, 3.70341819e-04, 3.31318479e-05,
          -8.89651346e-05, -9.12911273e-05, 2.15702021e-05,
          2.86109043e-05, 3.19265673e-05, -4.22673947e-05,
          -8.10604797e-06, -1.58219223e-06, 1.18753123e-04,
          9.11903844e-05, 1.29491935e-04, 7.18551091e-05, 7.56445661e-05,
          -2.43060003e-05, -1.31593360e-05, -1.24209662e-04,
          -2.77990057e-06, 4.16844529e-07, -2.95339705e-05,
          -2.37819950e-05, -2.91960841e-05, -4.73115542e-05,
          -1.22957077e-04, -1.05941392e-04, -1.22933401e-04,
          -1.03623781e-04, -9.24062842e-05, -9.80249461e-05,
          -5.06371871e-05, -6.98843505e-05, 3.27394955e-04,
          9.53349518e-05, -8.61516528e-05, -1.19080367e-04,
          -1.30342858e-04, -4.84087905e-05, -3.15079378e-05,
          -3.78607110e-05, -3.05239482e-05, -7.19045920e-06,
          -1.09470584e-05, -8.82824388e-05, -3.71033930e-05,
          -8.25403768e-05, -6.72115784e-05, -1.10749432e-04,
          -1.25127001e-04, -5.28920733e-04, -1.58748400e-04,
          -2.37061322e-04, -1.94126085e-04, -1.65279969e-04,
          -3.19905608e-04, -2.16904315e-04, -1.92405801e-04,
          -2.02847863e-04, -1.92499472e-04, -2.35058804e-04,
          -2.02051451e-04, -2.68590404e-04, -2.74892984e-04,
          -2.79555272e-04, -5.76105231e-05, -3.08217015e-04,
          -3.53231473e-04, -2.80184147e-04, -3.38241836e-04,
          -3.33342556e-04, -3.11700685e-04, -2.57270207e-04,
          -2.32567589e-04, -3.16154008e-04, -3.37950099e-04,
          -3.29398026e-04, -3.56041128e-04, -3.70356953e-04,
          -3.90167115e-04, -4.02674370e-04, -3.30737792e-04,
          -3.47773341e-04, -4.36219649e-04, -5.18738932e-04,
          -5.09915757e-04, -5.31050726e-04, -5.06763521e-04,
          -4.79301350e-04, -1.25111954e-04, -1.44886173e-04,
          -1.56886454e-04, -1.57905248e-04, -9.63295824e-05,
          -1.05523475e-04, -1.14186347e-04, -1.64492609e-04,
          -2.47666903e-04, -3.24781489e-04, -1.19886121e-04,
          4.00501267e-05, 1.58490235e-04, 1.65112870e-04, 2.03404328e-04,
          2.14242958e-04, 2.15843611e-04, 1.82775097e-04, 1.86663325e-04,
          1.93685977e-04, 1.74067609e-04, 1.68152663e-04, 1.89059909e-04,
          2.57123465e-04, 2.73735495e-04, -9.21347237e-06,
          -7.15715651e-05, -6.08740374e-05, -8.01427450e-05,
          -6.54022006e-05, -1.14123868e-04, -7.87753452e-05,
          -9.80289551e-05, -1.22852536e-04, -1.35056485e-04,
          -1.25126491e-04, -8.14583545e-05, -7.95094020e-05,
          -6.54165124e-05, -1.26977131e-04, -1.98570488e-04,
          -2.73094978e-04, 7.82350762e-05, 5.89523806e-05,
          1.18667718e-04, 1.05048603e-04, 1.14902497e-04, 1.01763893e-04,
          1.01239333e-04, 9.39658203e-05, 9.52641130e-05, 9.35237476e-05,
          9.67064116e-05, 8.54157697e-05, 1.02532307e-04, 2.06887940e-04,
          4.68671089e-04, 7.15141941e-05, -5.82229804e-05,
          -4.50066218e-05, -4.47225793e-05, -5.31750520e-05,
          -1.06786378e-04, -1.16326257e-04, -8.08847908e-05,
          -1.44496866e-04, -1.45881029e-04, -1.30180095e-04,
          -1.50697801e-04, -1.59707779e-04, -1.21442623e-04,
          -1.29368520e-04, -1.25887644e-04, -2.72090343e-04,
          7.36085713e-05, 8.52094890e-05, 9.29357993e-05, 1.19815253e-04,
          1.46215098e-04, 1.22217898e-04, 1.18401993e-04, 9.34714262e-05,
          8.71477823e-05, 9.72570342e-05, 1.32151792e-04, 1.23304606e-04,
          1.15167160e-04, 2.18117770e-04, 5.09738806e-04, 8.53075926e-06,
          -3.69018308e-05, -1.06373984e-04, -9.98208416e-05,
          -7.75024309e-05, -1.14502647e-04, -9.40070677e-05,
          -1.08406632e-04, -1.29843582e-04, -7.49911851e-05,
          -5.17516855e-05, -1.00840654e-04, -1.16469826e-04,
          -1.11423557e-04, -1.24637663e-04, -1.73384586e-04,
          -2.87416216e-04, 6.07867405e-05, 1.41779528e-04,
          1.05210056e-04, 9.35872013e-05, 1.02477497e-04, 9.20148086e-05,
          1.02307131e-04, 1.16806877e-04, 1.11072011e-04, 1.00829129e-04,
          1.23932507e-04, 1.17855911e-04, 1.14037772e-04, 2.30556951e-04,
          4.42705146e-04, 7.76062552e-06, -1.11874258e-04,
          -5.79048428e-05, -5.41893278e-05, -5.81845561e-05,
          -8.69435389e-05, -1.32086789e-04, -1.21070450e-04,
          -1.30541201e-04, -1.04944564e-04, -9.81326593e-05,
          -1.06048268e-04, -7.40386167e-05, -8.66059709e-05,
          -1.53022280e-04, -1.36557821e-04, -2.55276915e-04,
          -1.88477907e-06, 6.14408273e-05, 1.12469439e-04,
          6.61065787e-05, 9.82897691e-05, 9.21968676e-05, 9.33881165e-05,
          1.13773240e-04, 1.02845894e-04, 9.18615769e-05, 8.80972075e-05,
          8.91356613e-05, 9.18749283e-05, 1.84402845e-04, 4.78325615e-04,
          6.77793214e-05, -1.19646043e-04, -1.14816270e-04,
          -1.27043459e-04, -8.84638794e-05, -1.01392849e-04,
          -6.40410581e-05, -1.02882113e-04, -8.95306293e-05,
          -1.23175079e-04, -1.29347507e-04, -1.36394607e-04,
          -1.11767840e-04, -1.35989059e-04, -2.13836072e-04,
          -2.17193388e-04, -2.81877699e-04, 2.18842288e-05,
          8.12690705e-05, 1.33787762e-04, 7.33019624e-05, 1.08490523e-04,
          9.17821526e-05, 2.61837504e-05, 3.68998626e-05, 8.60479558e-05,
          9.32387120e-05, 9.34288182e-05, 1.03933053e-04, 8.70417862e-05,
          2.01371964e-04, 4.50497755e-04, -5.07895993e-06,
          -1.22183046e-04, -8.24703020e-05, -1.10462133e-04,
          -1.08596098e-04, -4.06400250e-05, -8.45865579e-05,
          -2.15676569e-04, -1.05348649e-04, -1.41344004e-04,
          -1.49260755e-04, -1.55937276e-04, -1.34544942e-04,
          -1.42043384e-04, -1.80092480e-04, -1.68095663e-04,
          -3.04152432e-04, 7.99508052e-05, 8.25249663e-05,
          7.38130984e-05, 6.25860848e-05, 8.98728686e-05, 5.05269873e-06,
          -6.75401316e-05, -3.23029053e-05, -4.42799355e-05,
          7.15075794e-06, 7.82294155e-05, 8.41400542e-05, 1.01363978e-04,
          2.15486507e-04, 4.12535883e-04, -6.94596383e-05,
          -1.66208440e-04, -1.01857477e-04, -1.06637119e-04,
          -1.07064552e-04, -9.26057546e-05, -1.13506503e-04 ]
      - [ -1.17337411e-04, -8.84201800e-05, -9.24124251e-05,
          -6.89823137e-05, -6.37247722e-05, -5.62944879e-05,
          -1.14038958e-05, -5.87400827e-05, -2.27461118e-04,
          8.91833952e-06, -4.14559727e-05, -4.15538998e-05,
          -3.92530092e-05, -1.58307739e-04, -3.11772950e-04,
          -1.41659068e-04, -7.20035387e-05, -2.29534839e-04,
          -2.11053659e-04, -2.01912080e-05, -3.17813428e-05,
          -8.63717942e-05, -5.66535928e-05, -1.61464741e-05,
          -2.05071075e-04, -2.07489633e-04, -1.49194238e-04,
          -1.18431853e-04, -1.44226520e-04, -8.98688668e-05,
          -8.76335980e-05, -1.60536601e-05, -5.51309349e-05,
          -7.97562170e-05, -4.27643572e-05, -8.75776896e-05,
          -3.71383758e-05, -2.30227761e-05, -1.53083010e-06,
          -4.23900528e-05, -2.06585086e-04, -1.01052192e-05,
          -4.65455232e-05, -1.67576345e-05, -5.07543664e-05,
          -3.23922315e-04, -3.37250938e-04, -1.99731192e-04,
          -1.14255636e-04, -1.15055642e-04, -9.53176277e-05,
          -4.89432423e-05, -3.08852068e-05, -6.61217127e-05,
          -2.63495574e-04, -4.93580483e-05, -1.87822574e-04,
          -1.52523979e-04, -1.24215963e-04, -1.08947010e-04,
          -1.25919425e-04, -7.27342267e-05, -9.32635667e-05,
          -2.58384603e-06, -7.58058668e-05, -3.02348089e-05,
          -4.03560625e-05, -4.12459667e-05, -5.10481586e-05,
          -2.18421101e-05, -9.75816147e-06, 1.79626477e-05,
          -1.52823894e-04, -7.32979197e-06, -4.78857655e-05,
          -4.16975417e-05, -1.27045030e-04, -2.76947889e-04,
          -3.37378908e-04, -3.15905549e-04, -1.43456768e-04,
          6.22544612e-05, 9.36840661e-05, 2.24430023e-05,
          -6.73445684e-05, -4.21506811e-05, -1.10143454e-04,
          -1.22138983e-04, -2.26636112e-04, -1.30349857e-04,
          -9.16220306e-05, -8.51506047e-05, -1.41790981e-04,
          -9.56297154e-05, -1.03546001e-04, 1.28413903e-05,
          -1.70528292e-05, -4.54320216e-05, -3.13850287e-05,
          -3.20379513e-05, -4.23333731e-05, -1.62857123e-05,
          1.09436189e-06, 8.04794763e-05, -3.41964696e-05,
          2.61290152e-05, -1.60965355e-05, -3.08710369e-05,
          -1.75120658e-04, -2.61658104e-04, -3.21709871e-04,
          -3.30089213e-04, -2.92344193e-04, -1.15069626e-04,
          4.00542958e-05, 2.74019494e-05, -2.02959673e-05,
          1.99914084e-05, -6.32798910e-05, -2.19563255e-04,
          -2.31657352e-04, -1.42279227e-04, -1.35037990e-04,
          -5.54232247e-05, -1.08133398e-04, -1.23726248e-04,
          -9.35722201e-05, -1.00614880e-05, 1.25681981e-05,
          2.49458353e-05, -9.73787974e-06, -3.20855111e-06,
          -7.17942612e-06, 2.13832227e-05, 8.65835536e-05,
          1.60636322e-04, -7.12061274e-06, 4.08803953e-06,
          -3.15097750e-05, -1.51365903e-05, -2.01054558e-04,
          -2.79399945e-04, -3.76039738e-04, -3.02176515e-04,
          -2.93707941e-04, -2.85456510e-04, -1.79567374e-04,
          -8.86558191e-05, -1.62940254e-04, -2.10574799e-04,
          -2.01892704e-04, -2.50386016e-04, -2.01770861e-04,
          -1.94055261e-04, -1.35914350e-04, -1.24510887e-04,
          -1.27135630e-04, -1.12289621e-04, -1.24201484e-04,
          -1.08538559e-04, -1.85582958e-05, 3.17512749e-05,
          -4.36026276e-05, 1.31612387e-05, -2.61801233e-05,
          1.03392699e-06, 1.41939687e-04, 1.51891087e-04,
          -4.58505274e-05, -1.16039664e-05, -6.69428919e-05,
          -1.72118489e-05, -9.49063033e-05, -3.08006565e-04,
          -3.82307655e-04, -2.82389927e-04, -2.18842339e-04,
          -2.11998791e-04, -2.21954528e-04, -1.81574243e-04,
          -1.69985797e-04, -1.80992458e-04, -2.36123553e-04,
          -2.62411544e-04, -1.92275445e-04, -1.56869894e-04,
          -1.25213075e-04, -1.31692170e-04, -1.07093481e-04,
          -1.22206620e-04, -9.50503454e-05, -1.12324400e-04,
          -7.01389799e-05, -9.23303087e-05, -8.02874856e-05,
          -9.08066722e-05, -6.31051516e-05, 1.37702182e-05,
          6.46039189e-05, 4.47220918e-05, -1.27046544e-04,
          2.18480836e-05, -1.56475726e-05, -2.86842769e-05,
          -8.45066825e-05, -2.32733626e-04, -3.19636689e-04,
          -4.96872875e-04, -3.70698312e-04, -1.79713024e-04,
          -1.63270757e-04, -1.91175626e-04, -1.73942812e-04,
          -2.19742942e-04, -2.47036573e-04, -1.65409248e-04,
          -1.36252638e-04, -1.75808789e-04, -1.86177407e-04,
          -1.95286717e-04, -1.97956644e-04, -2.01604445e-04,
          -2.03956050e-04, -1.67925769e-04, -2.29730449e-05,
          -3.14039025e-05, -1.87511159e-05, 1.58526218e-05,
          -2.52862592e-05, 1.38888645e-04, 1.21425546e-04,
          9.91910929e-05, 2.09736143e-04, 2.44362454e-04, 2.63744645e-04,
          2.26006916e-04, 6.11568612e-05, -1.80145653e-04,
          -1.39130105e-04, -2.14727479e-04, -2.32144754e-04,
          -2.59851193e-04, -1.97486443e-04, -1.58889670e-05,
          -1.29849708e-04, -1.26713989e-04, -1.26735016e-04,
          -1.58544586e-04, -1.02578975e-04, -3.18374914e-05,
          -1.12743248e-04, -1.34707312e-04, -1.69812076e-04,
          -1.86516583e-04, -1.38581614e-04, -1.79737923e-04,
          -1.98836031e-04, -2.06481607e-04, -1.85049241e-04,
          -1.86083547e-04, -1.81535157e-04, -8.14196901e-05,
          -4.58149370e-05, 2.84490634e-05, 1.08485481e-04,
          1.26978135e-04, 1.04033301e-04, -6.70680629e-06,
          3.64192056e-05, 1.74611741e-05, 7.16238719e-06,
          -6.34708122e-05, -7.37294395e-05, 4.29672404e-08,
          -4.37444760e-05, 5.19522400e-05, -1.21967954e-04,
          -9.94323855e-05, -1.65086807e-04, -1.40574368e-04,
          -2.21655064e-04, 7.55679794e-05, 1.44012920e-05,
          -1.83767897e-05, -2.68744116e-05, 4.82556134e-05,
          9.71052577e-05, 8.66588671e-05, -3.88207882e-05,
          -2.72116722e-05, 1.10648880e-05, 5.10516074e-05,
          6.18446866e-05, 8.69223659e-05, 1.18093907e-04, 1.95779532e-04,
          2.07604506e-04, 2.38425477e-04, 2.42801369e-04, 1.26666884e-04,
          1.83405922e-04, 1.63377859e-04, 2.46563122e-05,
          -2.58378295e-05, 4.56674898e-05, 1.36638715e-04,
          1.53895628e-04, 2.15644817e-04, 1.73995388e-04, 1.02050042e-04,
          4.39718788e-05, -2.26263182e-05, -6.57355558e-05,
          2.77416810e-04, 2.03108939e-04, 1.75352368e-04, 1.91352068e-04,
          1.98084963e-04, 1.75632420e-04, 1.84268531e-04,
          -2.45422270e-04, -2.15119217e-04, -2.08888145e-04,
          -1.88565697e-04, -1.38752832e-04, -1.14265174e-04,
          -8.50477518e-05, 4.47390848e-05, 1.40904871e-04,
          2.06935743e-04, 2.09872043e-04, 1.24452636e-04, 1.66097321e-04,
          1.99054397e-04, 9.30000606e-05, 1.85782756e-05,
          -9.85442821e-05, 1.53139044e-04, 1.42773933e-04,
          1.09047913e-04, 1.52807595e-04, 6.10588831e-05, 1.09835228e-05,
          1.87959831e-05, -7.64713041e-05, 2.51798832e-04,
          1.20408426e-04, 1.03386948e-04, 7.80681949e-05, 9.15617275e-05,
          9.02432221e-05, 7.93987492e-05, -2.57039588e-04,
          -2.63447902e-04, -2.54699786e-04, -2.21386435e-04,
          -2.07293022e-04, -1.59555784e-04, -1.05204643e-04,
          6.23033266e-05, 1.31331151e-04, 2.45987234e-04, 1.43375801e-04,
          1.17900083e-04, 1.44074394e-04, 1.82718533e-04, 2.26604519e-04,
          2.22910618e-04, 1.14805815e-04, 1.33878697e-04, 7.68685641e-05,
          9.53619165e-05, 1.18894204e-04, 9.67006417e-05, 6.82268364e-05,
          2.64152241e-05, -7.76350280e-05, 2.19232257e-04,
          1.01288591e-04, 9.76734518e-05, 7.94043663e-05, 7.31576292e-05,
          6.30467184e-05, 6.79468285e-05, -2.64741422e-04,
          -3.08334478e-04, -2.65409006e-04, -2.49556528e-04,
          -2.24662595e-04, -1.91776577e-04, -1.46235732e-04,
          1.52183493e-05, 1.50674678e-04, 2.27760800e-04, 1.29655658e-04,
          6.75661649e-05, 1.27183303e-04, 2.31820799e-04, 1.95542016e-04,
          2.38299457e-04, 1.95790257e-04, 1.17907781e-04, 1.07410749e-04,
          9.90894187e-05, 4.35620095e-05, 1.04496037e-04, 8.81188462e-05,
          7.46907681e-05, 1.25612096e-05, 2.31021229e-04, 9.95687733e-05,
          7.31183973e-05, 4.89704507e-05, 6.60351216e-05, 7.29471940e-05,
          6.58195568e-05, -2.64486414e-04, -2.86161579e-04,
          -2.84734648e-04, -2.63221242e-04, -2.15978696e-04,
          -1.90316146e-04, -1.48018938e-04, 1.25366123e-05,
          6.36081022e-05, 2.14044019e-04, 1.78788818e-04,
          -2.96608487e-05, 4.75390625e-05, 1.29768625e-04,
          2.16813671e-04, 1.86482881e-04, 1.62126395e-04, 9.92916539e-05,
          5.96081773e-05, 1.17762058e-04, 1.00401681e-04, 6.90647139e-05,
          4.97500296e-05, 1.67318358e-05, -3.07296723e-05,
          1.50001622e-04, 8.28055490e-05, 6.52346716e-05, 4.60714073e-05,
          5.86833812e-05, 3.86433567e-05, 2.63033344e-05,
          -2.62131914e-04, -2.80290202e-04, -2.80392211e-04,
          -2.75605940e-04, -2.20935981e-04, -2.26098287e-04,
          -1.56121372e-04, 3.20783511e-05, 1.53650995e-04,
          2.35497311e-04, 2.85801128e-04, -5.05950193e-05,
          -3.14216268e-05, 1.71501742e-04, 1.74445973e-04,
          1.54856534e-04, 1.30460598e-04, 1.25328210e-04, 1.06784493e-04,
          1.30229077e-04, 1.66975020e-04, 6.63718893e-05, 9.06998248e-05,
          5.74764781e-05, -8.57487103e-05, 1.39536307e-04,
          -2.46883501e-05, 2.49573241e-05, 2.86653612e-05,
          5.09330130e-06, -1.55273774e-05, 3.22071605e-06,
          -2.30937236e-04, -2.66246469e-04, -2.73056387e-04,
          -2.72050151e-04, -2.21695882e-04, -2.37793982e-04,
          -2.02314011e-04, 3.06869470e-06, 1.10021167e-04,
          2.36315798e-04, 2.45067000e-04, 4.20925498e-05, 1.32606237e-05,
          1.08683402e-04, 1.23937134e-04, 8.35066458e-05, 1.20296907e-04,
          9.41672479e-05, 1.02375961e-04, 1.17852731e-04, 1.49601707e-04,
          1.20343648e-04, 1.02972073e-04, 4.38355783e-05,
          -1.11053276e-04, 1.20591190e-04, -7.02480902e-05,
          -3.21328298e-06, 2.10507133e-05, -1.73897370e-05,
          -1.52928387e-05, 2.48591823e-05, -2.19653244e-04,
          -1.97705958e-04, -2.30885751e-04, -2.48385186e-04,
          -2.12653264e-04, -2.26388060e-04, -1.78709030e-04,
          2.44951334e-05, -9.18889555e-07, 2.53537321e-04,
          1.58866344e-04, 1.85592929e-04, 9.33687261e-05, 7.37268201e-05,
          1.05677849e-04, 6.83706385e-05, 8.33758095e-05, 6.26702094e-05,
          1.02061058e-04, 1.71005609e-04, 1.82202755e-04, 9.52803166e-05,
          4.06775071e-05, 2.04064127e-05, -9.72483977e-05,
          1.42946927e-04, -7.26360158e-05, -1.10261622e-04,
          3.16891856e-05, 2.97705719e-06, 5.54631106e-06, 9.49990063e-05,
          -2.00026872e-04, -1.81028183e-04, -1.74528293e-04,
          -2.13273393e-04, -1.92401407e-04, -1.55769507e-04,
          -1.62133249e-04, 3.10680916e-05, -7.57367743e-05,
          2.08359445e-04, 1.37681243e-04, 1.63911827e-04, 1.65347941e-04,
          1.25226332e-04, 1.33715206e-04, 1.21885554e-04, 1.51947766e-04,
          9.48762099e-05, 1.15765171e-04, 1.79125214e-04, 1.64068944e-04,
          5.55687802e-05, 3.50399205e-05, -2.87780495e-05,
          -1.03189617e-04, 1.46282080e-04, -9.96338713e-05,
          -1.22463345e-04, -3.16653836e-06, -3.04428818e-06,
          5.04704876e-05, 1.15012343e-04, -1.96800363e-04,
          -1.68957107e-04, -1.66273050e-04, -1.89190148e-04,
          -1.78921196e-04, -1.45641301e-04, -1.04678860e-04,
          5.66809285e-05, -1.18245633e-04, 1.22767160e-04,
          1.39725744e-04, 9.80870100e-05, 9.90113185e-05, 1.41694152e-04,
          2.06724639e-04, 1.20297598e-04, 1.52999361e-04, 1.52712353e-04,
          1.07423279e-04, 1.50967418e-04, 1.77319947e-04, 1.65697329e-05,
          -1.86610196e-05, -6.40804865e-05, -1.13634422e-04,
          1.05741536e-04, -8.27059630e-05, -1.27968160e-04,
          -9.65432628e-06, 2.91874289e-06, 6.46987683e-05,
          1.10338449e-04, -1.81034018e-04, -1.63098623e-04,
          -1.71790962e-04, -1.55752510e-04, -1.49103987e-04,
          -1.07726606e-04, -6.57357232e-05, 6.11160576e-05,
          -9.49317764e-05, -7.14543639e-05, 1.87561716e-04,
          1.04904422e-04, 8.52929006e-05, 9.73337083e-05, 1.06617408e-04,
          1.46490769e-04, 7.87111931e-05, 7.89256665e-05, 5.35076033e-05,
          1.34588059e-04, 1.23943057e-04, 2.62146841e-05, 3.22525993e-05,
          -9.82860511e-05, -1.55632311e-04, 1.33698950e-05,
          -1.05483341e-04, -1.03135128e-04, 1.12509097e-05,
          -6.65141079e-06, 1.37375355e-06, 2.71871886e-05,
          -8.22511138e-05, -1.09500361e-04, -1.14014569e-04,
          -1.38327974e-04, -1.06347761e-04, -7.11852044e-05,
          -7.25238497e-05, 4.87245889e-05, -1.55764938e-04,
          -8.07970991e-06, 5.51334961e-05, 1.55655245e-04,
          1.26339961e-04, 9.69775283e-05, 7.26061407e-05, 5.34508363e-05,
          9.58097298e-05, 1.28643849e-04, 9.60847901e-05, 9.82910278e-05,
          3.23104214e-05, -3.32528580e-05, -3.65827618e-05,
          -7.63773933e-05, -2.07866135e-04, 2.99769399e-05,
          -7.76685702e-05, -1.38740026e-04, 3.70862836e-05,
          2.15200453e-05, 2.79894230e-05, 3.11800432e-05,
          -4.67386963e-05, -7.49359679e-05, -7.07630170e-05,
          -1.14257287e-04, -9.35585485e-05, -7.15393835e-05,
          -6.24424792e-05, 5.35717072e-06, -9.18196456e-05,
          -3.40983115e-06, 3.63680083e-05, 6.88120563e-05,
          1.48283303e-04, 1.56168928e-04, 1.05356099e-04, 1.17936819e-04,
          1.01599871e-04, 1.05682520e-04, 7.78804024e-05, 2.56972125e-05,
          -3.83868355e-05, -2.52367372e-05, -8.06420067e-05,
          -1.62383512e-04, -2.52743281e-04, 2.11933930e-05,
          -6.28105845e-05, -3.40589613e-05, 1.22132615e-05,
          5.81241977e-07, -1.92351181e-05, -6.01446800e-06,
          -4.80549934e-05, -4.63160031e-05, -6.85705090e-05,
          -9.41143371e-05, -9.38359881e-05, -7.65262230e-05,
          -2.94357196e-05, 1.98975140e-05, -1.03178689e-04,
          7.76769866e-06, 1.43386269e-05, 3.99711353e-05, 6.76299605e-05,
          1.02623861e-04, 1.65469217e-04, 1.48149571e-04, 8.69690703e-05,
          4.86833824e-06, -3.74712872e-05, -7.59607938e-05,
          -1.08113913e-04, -1.10238136e-04, -1.42071105e-04,
          -2.28218079e-04, -2.09837075e-04, 1.52850916e-05,
          -3.98149496e-05, 5.30384750e-05, 2.63157399e-05,
          3.74885749e-05, 2.10958897e-05, 1.57860959e-05, 4.44415055e-05,
          2.36359319e-05, -2.16834396e-05, -4.53781104e-05,
          -7.34110436e-05, -1.12208319e-04, -1.10591325e-04,
          -1.05265763e-05, -6.74218172e-05, -5.48794851e-05,
          2.08988349e-05, 2.42518308e-05, 1.41100963e-05, 5.93894038e-06,
          -5.60952913e-06, -1.74371926e-05, -3.54081021e-05,
          -7.85633165e-05, -1.38876174e-04, -1.49031315e-04,
          -1.92249630e-04, -3.08715971e-04, -2.82636320e-04,
          -2.76161387e-04, -1.15299066e-04, 3.47199675e-05,
          -2.50888334e-05, -7.84829826e-05, -1.59711766e-04,
          -1.87172423e-04, -2.14901462e-04, -2.03520933e-04,
          1.06394153e-04, 8.46811527e-05, 9.84927174e-05, 2.17962097e-05,
          -2.94837228e-05, -3.65159576e-05, 2.84684279e-06,
          -4.35166112e-05, 1.10720386e-04, 1.73816792e-04,
          1.98918293e-04, 2.13684645e-04, 2.32651379e-04, 2.02476862e-04,
          2.12708255e-04, 2.04817770e-04, 2.33881830e-04, 2.30864680e-04,
          2.03066840e-04, 1.87629790e-04, 1.68079147e-04, 1.66871279e-04,
          1.45608152e-04, 2.74341292e-04, 4.06496925e-04, 8.78470455e-05,
          7.91068233e-05, 3.00359607e-05, 5.43369924e-06,
          -1.50855449e-05, 3.31209594e-05, 2.03290874e-05,
          1.19202712e-04, 1.22469864e-04, 1.63601086e-04, 1.31840206e-04,
          2.44558705e-05, -1.52436905e-05, 3.77811775e-05,
          -4.73730579e-05, -4.07862914e-04, -5.53708305e-05,
          6.21523441e-06, 2.03300515e-05, 6.86451240e-05, 1.03994833e-04,
          7.25531572e-05, 6.56174161e-05, 1.09550156e-05,
          -2.03936397e-05, -1.88437753e-05, -1.78490081e-05,
          -3.66861750e-05, -7.63973640e-06, 1.19557285e-06,
          1.69102830e-04, 5.70115844e-05, -3.68730871e-05,
          -2.19859958e-05, -4.91438077e-05, -7.29576350e-05,
          -1.06567340e-05, -6.00919520e-05, -8.71546654e-05,
          -3.43514548e-05, -7.31395048e-05, -6.49650610e-05,
          -5.42089583e-05, -7.93827494e-05, -1.06165455e-04,
          -5.84784357e-05, -1.44869788e-04, -3.60460515e-04,
          1.46630118e-04, 1.25754988e-04, 1.30535394e-04, 1.14725844e-04,
          1.32816742e-04, 7.14083944e-05, -1.95579287e-05,
          -6.18893464e-05, -6.49768481e-05, -8.75185287e-05,
          -9.84126673e-05, -2.81537614e-05, 2.91496981e-05,
          7.90705017e-05, 2.28403034e-04, 1.20175515e-04,
          -2.59588905e-05, -7.49147193e-06, -3.53555770e-05,
          -3.24712528e-05, -1.84611126e-05, -3.58748330e-05,
          -3.37818856e-05, -6.34154931e-05, -7.71596606e-05,
          -4.58683717e-05, -3.02875505e-05, -1.89111415e-05,
          -9.42764964e-05, -6.63140017e-05, -1.38842704e-04,
          -3.48476227e-04, 1.19600649e-04, 7.14649141e-05,
          7.06793944e-05, 4.91689243e-05, 2.38689099e-05,
          -4.03906488e-05, -3.71656570e-05, -4.76425193e-05,
          -8.41982546e-05, -1.11420530e-04, -1.18876043e-04,
          -1.40224976e-04, -9.42140323e-05, 2.63715219e-06,
          1.81165728e-04, 1.19863056e-04, -1.92621665e-05,
          4.12456939e-05, -6.63130195e-05, 5.52787697e-06,
          -3.06179900e-05, -1.06352782e-05, 4.72919237e-05,
          -2.21470800e-05, -3.67299435e-05, -3.07809860e-05,
          -4.34226749e-05, -4.68661565e-05, -8.73174358e-05,
          -8.93683900e-05, -1.45891798e-04, -3.52976291e-04,
          5.16895852e-05, 6.25224420e-05, 9.03691252e-05, 4.49052750e-05,
          -2.28240893e-08, -5.33353741e-05, -6.24157983e-05,
          -1.04731720e-04, -1.12888105e-04, -1.27270745e-04,
          -1.38488511e-04, -1.42869423e-04, -1.39266893e-04,
          -4.72362626e-05, 1.26666113e-04, 8.82031381e-05,
          -2.95088157e-05, 3.59706173e-05, -1.47643404e-05,
          5.29449062e-06, 4.74548688e-05, 3.43204847e-05, 1.77049278e-05,
          -8.60301225e-05, -6.11004652e-05, -7.03922888e-06,
          -1.73228582e-05, 9.16445401e-07, -5.41649279e-05,
          -9.13755284e-05, -1.22471392e-04, -3.30319483e-04,
          -3.49527763e-05, 4.95177337e-05, 7.75263397e-05,
          2.37814529e-05, -3.57997051e-05, -5.77010796e-05,
          -1.26586092e-04, -1.36299102e-04, -1.46271821e-04,
          -1.41343553e-04, -1.59183299e-04, -1.55179994e-04,
          -1.42447403e-04, -1.26182014e-04, 7.19504387e-05,
          8.20485729e-05, -6.57833298e-05, -2.67067244e-05,
          1.16569327e-05, 2.79013857e-05, 7.04129416e-05, 7.44545105e-05,
          6.11814321e-05, -8.54031605e-05, -8.19137422e-05,
          -4.44228717e-05, -4.93604348e-05, 1.23056009e-06,
          -9.78429598e-05, -1.07422544e-04, -1.67213962e-04,
          -3.35727789e-04, -1.93597807e-05, 4.63597316e-05,
          4.03606609e-05, -8.09929679e-06, -5.14946951e-05,
          -6.76839118e-05, -1.21300611e-04, -1.42527409e-04,
          -1.36666451e-04, -1.11395384e-04, -1.32898145e-04,
          -1.35398310e-04, -1.05780658e-04, -1.33301830e-04,
          3.05015456e-05, 8.21984795e-05, -8.30979843e-05,
          -2.10964954e-05, 3.44524051e-05, 2.26736593e-05,
          4.45774167e-05, 5.77133833e-05, 4.48822648e-05,
          -2.06152647e-04, -1.33527428e-04, -1.05410858e-04,
          -1.03603001e-04, -3.34285469e-05, -1.26321800e-04,
          -1.54040914e-04, -2.13014355e-04, -3.41092702e-04,
          -6.97237047e-05, 3.03849374e-05, 1.96116398e-05,
          7.70480347e-06, -5.97987892e-05, -1.25701423e-04,
          -1.64562400e-04, -2.68827891e-04, -2.57177715e-04,
          -2.96053418e-04, -2.75092316e-04, -1.55160451e-04,
          -1.46859325e-04, -1.18730313e-04, 7.81016352e-05,
          -3.30762341e-05, -1.13661772e-04, -1.97406298e-05,
          2.01031398e-05, 1.33555795e-06, 7.55304936e-05, 4.05617284e-05,
          9.50629783e-06 ]
      - [ 4.20481956e-05, 6.52346425e-05, 7.08056177e-05, 1.31158493e-04,
          1.38925752e-04, 9.45636857e-05, 4.61791788e-05, 2.77183631e-06,
          -1.80122544e-04, -9.99849144e-05, -1.63473902e-04,
          -1.50930646e-04, -1.68319224e-04, -4.10057866e-04,
          -3.33871576e-04, -1.83161374e-05, 6.90815068e-05,
          -5.64667462e-05, -3.30000257e-05, -1.42815761e-05,
          -5.42115959e-05, -1.00842117e-04, -4.21013792e-05,
          9.13572148e-05, -9.87060484e-05, -9.69501125e-05,
          -4.27247433e-05, -2.13430958e-05, -2.47785138e-05,
          3.47644855e-05, 5.47997624e-05, 2.33100709e-05, 8.38465203e-05,
          8.00554044e-05, 8.61757508e-05, 3.76737953e-05, 1.31102206e-04,
          1.24888276e-04, 3.72056311e-05, 2.74698214e-05,
          -1.76609523e-04, -7.72786734e-05, -1.64363912e-04,
          -1.30750792e-04, -1.42387711e-04, -3.45245324e-04,
          -3.48372123e-04, -1.65070494e-04, 5.47211130e-06,
          -1.75560774e-06, 6.34108574e-06, -6.88840810e-05,
          -9.21748651e-05, -7.48344974e-05, -7.50174077e-05,
          9.05750130e-05, -9.33845149e-05, -3.30751354e-05,
          -2.48304350e-05, 1.33893100e-05, 2.37002808e-07,
          5.14782587e-05, 4.83231743e-05, 5.76196453e-06, 8.17998371e-05,
          9.79538891e-05, 8.68389761e-05, 9.42677798e-05, 2.51698748e-05,
          9.96016024e-05, 1.75912719e-05, 6.79102814e-05,
          -1.59097501e-04, -9.87335879e-05, -1.62963785e-04,
          -1.38962641e-04, -1.26336134e-04, -3.07808135e-04,
          -3.39230115e-04, -2.78581836e-04, -6.53593961e-05,
          1.54409398e-04, 2.04714903e-04, 6.42190789e-05,
          -6.65998086e-05, -5.56274881e-06, -5.60929147e-05,
          1.09973000e-04, -1.24872153e-04, -4.85586170e-05,
          1.77285947e-05, 3.07532355e-05, -8.09596031e-07,
          4.57195092e-05, 2.96991220e-05, 8.57451087e-05, 1.27371633e-04,
          1.22698882e-04, 1.07973567e-04, 9.99225667e-05, 6.94822666e-05,
          7.20944663e-05, 3.50911578e-05, 2.71406279e-05,
          -1.60162221e-04, -1.06563581e-04, -1.49995161e-04,
          -1.26893792e-04, -1.12458627e-04, -2.84786569e-04,
          -3.08410352e-04, -3.24216700e-04, -2.77628715e-04,
          -1.29054009e-04, 5.21653492e-05, 6.73216564e-05,
          4.93999978e-05, 2.83789450e-05, -4.09316090e-05,
          -8.76497288e-05, -9.97145835e-05, -1.25484212e-05,
          1.18060725e-05, 5.42650159e-05, 4.40134863e-05, 3.28534370e-05,
          4.57426577e-05, 6.97963696e-05, 1.29706503e-04, 1.45996324e-04,
          1.08955712e-04, 1.22198820e-04, 9.49932873e-05, 1.17734613e-04,
          9.38546582e-05, 8.73061217e-05, -1.57340095e-04,
          -1.05040162e-04, -1.41313853e-04, -1.15252464e-04,
          -1.07485190e-04, -2.64212344e-04, -2.82861787e-04,
          -3.27769987e-04, -3.07746668e-04, -3.38310783e-04,
          -2.54474900e-04, -1.77471622e-04, -1.71816151e-04,
          -2.54675979e-04, -1.91547690e-04, -1.16991374e-04,
          -5.09019956e-05, -2.62849862e-05, 4.39147734e-05,
          3.61100065e-05, 6.42268933e-05, 9.10841118e-05, 1.41459623e-05,
          1.74946999e-05, 1.15076044e-04, 1.49127722e-04, 1.23048667e-04,
          1.55271133e-04, 9.93305002e-05, 9.73626811e-05, 8.06436437e-05,
          1.18185613e-04, -1.46920007e-04, -8.06705139e-05,
          -1.26131796e-04, -1.18918368e-04, -1.41005410e-04,
          -1.22619793e-04, -2.85096030e-04, -3.46781249e-04,
          -3.91896960e-04, -3.61756945e-04, -3.38416110e-04,
          -3.66635621e-04, -3.44455504e-04, -2.62750487e-04,
          -2.41940448e-04, -9.59665267e-05, -4.47823913e-05,
          5.76640196e-06, 4.69892329e-05, 4.90900420e-05, 8.07148681e-05,
          4.83822041e-05, 3.33463286e-05, -1.76916892e-05,
          1.65674996e-04, 1.55843969e-04, 1.41408440e-04, 1.22264653e-04,
          1.52306631e-04, 1.15129769e-04, 1.13819195e-04, 1.08307577e-04,
          -1.86122590e-04, -6.83172693e-05, -1.01729245e-04,
          -1.04332859e-04, -1.30083208e-04, -1.88288395e-04,
          -3.29149567e-04, -3.93802969e-04, -3.86874861e-04,
          -3.85671505e-04, -3.39287770e-04, -3.23441229e-04,
          -2.93894991e-04, -3.31978750e-04, -2.71628553e-04,
          -1.18617034e-04, 5.74592468e-06, 3.00341289e-05,
          8.81907908e-05, 6.39158461e-05, 5.12029255e-05, 3.67704379e-05,
          3.84416635e-05, 1.40713692e-05, 9.80851473e-05, 1.41878307e-04,
          1.93252359e-04, 1.62014519e-04, 1.43777783e-04, 1.58409879e-04,
          1.37877068e-04, 1.43914018e-04, 3.74633782e-05, 1.88254315e-04,
          1.46126607e-04, 1.63310804e-04, 1.64032826e-04, 1.19778470e-05,
          -7.35622671e-05, -1.26809857e-04, -9.66809748e-05,
          -6.27254485e-05, -5.40480723e-05, -2.66056418e-06,
          1.09720690e-06, 9.02454849e-05, 7.60696057e-05, 2.01322633e-04,
          8.58652784e-05, 1.02032987e-04, 8.78321298e-05, 7.23235135e-05,
          5.24771167e-05, 6.33128229e-06, 3.52733878e-05,
          -2.26035672e-06, -3.30017239e-04, -2.49712321e-04,
          -3.05107475e-04, -3.22422158e-04, -3.51647701e-04,
          -3.42033221e-04, -2.68829288e-04, -2.72173929e-04,
          3.78246477e-05, -1.31903662e-05, -2.04684446e-04,
          -2.18939444e-04, -2.15481225e-04, -1.63979377e-04,
          -2.77486921e-04, -2.96891725e-04, -2.62618298e-04,
          -2.07867328e-04, -1.90911567e-04, -1.49816391e-04,
          -1.18613505e-04, -1.25200706e-04, -1.35356109e-04,
          -1.23293808e-04, -2.14221669e-04, -2.62884918e-04,
          -3.08163348e-04, -3.43748106e-04, -3.75619100e-04,
          -3.78129072e-04, -4.25660517e-04, -3.48931586e-04,
          -7.60699768e-05, -3.43488791e-05, -6.31305011e-05,
          -3.70464331e-05, -1.18675443e-05, -4.50206971e-05,
          -5.53110476e-05, -4.49775762e-05, 1.08122986e-04,
          8.72375167e-05, 4.67860591e-05, 4.23442725e-05, 6.83537583e-05,
          4.02511760e-05, -1.38381747e-05, -4.57250962e-06,
          -1.84565070e-05, -2.30756414e-05, 2.70100263e-05,
          9.14305856e-05, 5.72205172e-05, 4.57543974e-05, 8.34948150e-05,
          1.15650510e-04, -1.02001584e-04, -7.36378861e-05,
          4.30892105e-05, -1.72109740e-05, -1.29193768e-05,
          2.42724382e-05, 2.10459602e-05, 1.56272908e-05,
          -7.70997867e-05, -6.21616928e-05, -1.06966800e-04,
          -1.04563769e-04, -3.43759780e-06, -3.56904056e-05,
          -5.18428897e-05, -3.00752017e-05, -3.60600679e-05,
          7.35727663e-05, 6.62562015e-05, 6.68637949e-05, 8.80584630e-05,
          1.23414240e-04, 8.39629229e-06, -4.84609227e-05,
          -6.07665315e-05, -1.13322305e-04, -8.20814967e-05,
          -3.10645055e-06, 1.13168280e-05, 4.22764388e-05,
          1.07122454e-04, 1.06831103e-04, -2.35840489e-05,
          4.77559079e-05, 4.22683588e-05, -2.32767816e-05,
          -6.88363662e-06, -2.26607608e-05, -2.52144928e-05,
          -2.00246832e-05, -6.53714596e-05, -9.21795508e-05,
          -1.21943245e-04, -1.20576799e-04, -3.38740792e-05,
          -4.06686195e-05, -3.91842696e-05, 2.02598608e-06,
          -4.63404394e-05, 9.40007012e-05, 7.63948774e-05,
          9.22315667e-05, 1.13904913e-04, 1.02856655e-04,
          -3.60213562e-06, -7.45264260e-05, -1.78098140e-04,
          -1.38258198e-04, -1.16261661e-04, -6.99626253e-05,
          -2.70399851e-05, 3.57001518e-05, 1.44263628e-04,
          9.63530110e-05, -1.31453799e-05, 3.88739609e-05,
          3.54729855e-05, -8.40909433e-06, -9.69399207e-06,
          -1.12394337e-05, -1.85489152e-05, -1.41917262e-05,
          -7.85956800e-05, -1.08922679e-04, -1.20978017e-04,
          -9.15247292e-05, -4.34326321e-05, -4.18910204e-05,
          -4.34327449e-05, 8.75187425e-07, -1.01453305e-04,
          6.60823134e-05, 9.97278912e-05, 8.45798131e-05, 1.38007832e-04,
          1.10834997e-04, 5.87605064e-05, -3.52703173e-05,
          -1.37212657e-04, -2.04024385e-04, -1.38937685e-04,
          -5.04250638e-05, -2.49406803e-05, 8.63210080e-05,
          1.78852031e-04, 1.38783536e-04, 1.75242621e-05, 3.47008536e-05,
          3.39661929e-05, 1.79692006e-06, -5.07039522e-06,
          -3.08165977e-06, -3.01291925e-06, -2.91153865e-05,
          -8.20958885e-05, -1.03110528e-04, -1.07508422e-04,
          -8.79821964e-05, -3.87603250e-05, -3.99319542e-05,
          -3.02105946e-05, 1.23344380e-05, -6.64721301e-05,
          4.43023346e-05, 8.52464509e-05, 6.01474094e-05, 1.15861651e-04,
          1.14329705e-04, 1.75721634e-05, -3.32893542e-05,
          -1.10822250e-04, -1.71335516e-04, -1.03750848e-04,
          -4.92280960e-05, 7.49157698e-05, 1.13441289e-04,
          1.57726856e-04, 1.28109561e-04, 3.44764740e-05, 4.28004751e-05,
          4.01966136e-05, 1.18941907e-05, -2.07739322e-05,
          -9.81602261e-06, 7.52214464e-06, -2.73468754e-06,
          -6.44625470e-05, -8.37803382e-05, -9.44620988e-05,
          -7.32170520e-05, -3.46073612e-05, -4.79808150e-05,
          -1.40367856e-05, 2.35025709e-05, -4.69968763e-05,
          8.99185034e-05, 1.01356913e-04, 9.55220748e-05, 1.15069408e-04,
          8.58821440e-05, 1.60719935e-06, -4.74074295e-05,
          -6.12968724e-05, -5.65863775e-05, -6.78830911e-05,
          -2.31010454e-05, 8.69083742e-05, 3.89562338e-05,
          3.52593706e-05, 1.53754343e-04, 6.51251139e-06, 3.09978968e-05,
          4.01130674e-05, 1.06283342e-05, -5.19895548e-06,
          9.16551812e-08, -1.60700911e-05, -3.37461024e-05,
          -4.52996610e-05, -7.44941208e-05, -7.41184704e-05,
          -4.18412492e-05, -4.37264207e-05, -4.46920421e-05,
          -3.80729180e-05, 1.45533058e-05, -6.00101557e-05,
          1.15001742e-04, 1.14290575e-04, 1.59431685e-04, 1.16130912e-04,
          -1.69250757e-06, -1.54318783e-04, -2.01736097e-04,
          -2.56955245e-04, -2.67193973e-04, -2.18585032e-04,
          -6.39708960e-05, 2.84624866e-06, 4.38841562e-05,
          1.02557948e-04, 1.10595960e-04, -1.29065171e-04,
          -1.40968841e-04, -7.16871364e-05, 2.00361665e-05,
          1.42805868e-06, -2.35096400e-06, -2.48428787e-05,
          -1.84456876e-05, -3.06395159e-05, -5.75005106e-05,
          -5.66317212e-05, -2.91795441e-05, -2.34757244e-05,
          -3.10746836e-05, -3.76487624e-05, 2.76711507e-05,
          -9.90090848e-06, 1.14720984e-04, 1.62325960e-04,
          1.87999744e-04, 4.85620985e-05, -1.55330752e-04,
          -1.44325328e-04, -2.43315662e-04, -3.64626030e-04,
          -4.08901775e-04, -2.75100872e-04, -1.91688261e-04,
          -1.12084817e-04, 3.43679545e-07, 5.96978725e-06,
          -1.70790327e-06, -2.11168401e-04, -1.55412985e-04,
          -1.64180034e-04, -2.05189252e-04, -6.52616945e-05,
          1.28256461e-05, -9.71690224e-06, 3.36603844e-05,
          -3.54364747e-05, -2.36640008e-05, -2.11269962e-05,
          -2.55581326e-05, -3.59350233e-05, -3.62142418e-05,
          -2.59240041e-05, 8.64413505e-06, -2.65875269e-06,
          1.24497790e-04, 1.42984412e-04, 2.28076184e-04,
          -5.82674184e-05, -1.65724399e-04, -2.09760285e-04,
          -3.46120127e-04, -4.49557760e-04, -3.56187898e-04,
          -2.58634973e-04, -2.18523724e-04, -1.75127920e-04,
          -5.80590095e-05, 2.57409029e-05, 5.48654384e-07,
          -1.83247350e-04, -1.15223462e-04, -1.47532322e-04,
          -1.79308510e-04, -1.86147648e-04, -4.13816742e-05,
          1.81368432e-05, 2.15303135e-05, -1.50307378e-05,
          -1.18501357e-05, -1.13270762e-05, -3.34801662e-05,
          -2.92707718e-05, -3.05956055e-05, -1.94036093e-05,
          1.29076543e-05, 1.16302645e-05, 1.86492616e-04, 1.65734746e-04,
          2.12278857e-04, -1.98066809e-05, -1.96377034e-04,
          -2.30593228e-04, -3.29411414e-04, -2.85686605e-04,
          -3.11560056e-04, -2.09959209e-04, -1.55025555e-04,
          -1.50509994e-04, -1.09565917e-04, 3.98220545e-05,
          3.34392826e-05, -1.96515815e-04, -1.03601429e-04,
          -1.28444590e-04, -1.68722079e-04, -1.52008201e-04,
          -1.82449745e-04, 2.54067691e-05, 1.02062859e-05,
          -2.56565636e-05, -2.15136515e-05, -2.51387555e-05,
          -3.83171791e-05, -2.84935904e-05, -3.48332942e-05,
          -1.96091987e-05, 3.76271637e-05, 3.47774221e-05,
          1.50987486e-04, 1.98135866e-04, 1.69478444e-04, 4.27697196e-05,
          -7.49728861e-05, -1.51088563e-04, -2.23110561e-04,
          -2.92812620e-04, -2.61242327e-04, -1.53692090e-04,
          -9.05649285e-05, -1.35043578e-04, -9.16903882e-05,
          3.68180918e-05, 2.62795911e-05, -1.85666824e-04,
          -1.29352367e-04, -1.41369179e-04, -1.64816738e-04,
          -1.68965184e-04, -1.86575766e-04, -2.20678453e-06,
          1.88387712e-05, -1.98917496e-05, -1.48121599e-05,
          -2.60882316e-05, -3.49010807e-05, -3.05803151e-05,
          -3.05441063e-05, -2.17189590e-05, 4.17366900e-05,
          4.89992308e-05, 1.76595597e-04, 1.83861397e-04, 2.02764728e-04,
          1.30415254e-04, -6.83078615e-05, -8.02337581e-06,
          -1.04672654e-04, -1.01403057e-04, -1.08452397e-04,
          -8.31721554e-05, -8.88629947e-05, -1.32890826e-04,
          -1.05036088e-04, 7.66370067e-05, 4.29459433e-05,
          -1.49566709e-04, -1.06376421e-04, -1.23061574e-04,
          -1.69270235e-04, -1.51020606e-04, -1.63336561e-04,
          2.98240066e-05, 1.62873202e-05, -3.42230924e-05,
          -4.28401945e-05, -4.62939570e-05, -4.62668395e-05,
          -4.06353247e-05, -4.03237718e-05, -3.13520759e-05,
          2.75375769e-05, 1.23335543e-04, 1.92441483e-04, 2.11100021e-04,
          2.10947212e-04, 1.96175766e-04, 3.83789629e-05,
          -3.11644508e-05, -5.65384798e-05, -4.83062431e-05,
          -5.52474085e-05, -4.25200160e-05, -5.48351891e-05,
          -1.02839484e-04, -1.11757188e-04, 6.15776080e-05,
          3.43969368e-05, -2.20912465e-04, -1.39718948e-04,
          -1.29227352e-04, -1.56989918e-04, -1.59637944e-04,
          -1.55770322e-04, 1.45697950e-05, 1.32784471e-05,
          -4.38699899e-05, -3.32743693e-05, -2.72481939e-05,
          -2.21919818e-05, -1.95342327e-05, -3.47842288e-05,
          -1.25743791e-05, 3.89320194e-05, 4.32940869e-05,
          1.88379985e-04, 2.35667685e-04, 2.37089305e-04, 1.87767830e-04,
          9.21890023e-05, 1.12187090e-05, -8.93476044e-06,
          8.17426007e-06, -6.64604158e-05, -2.52819282e-05,
          -1.89382990e-05, -7.22205805e-05, -7.23064077e-05,
          6.92605754e-05, 3.80054589e-05, -2.11244638e-04,
          -1.40167365e-04, -1.33553811e-04, -1.48631269e-04,
          -1.60635289e-04, -7.03154874e-05, 1.74221914e-05,
          2.54545357e-05, -6.57384703e-07, -3.40597649e-06,
          1.14981558e-05, 1.87393762e-05, 3.35536461e-05, 2.14145293e-05,
          3.50156515e-05, 7.11494285e-05, 7.27114675e-05, 1.99336660e-04,
          2.39542729e-04, 2.43602946e-04, 1.72343658e-04, 1.46077538e-04,
          1.50806722e-04, 1.08105720e-04, 1.23187056e-04, 5.76827733e-05,
          -5.58833090e-05, 7.95783137e-07, -2.51217043e-05,
          5.12013976e-05, 4.22084377e-05, -3.23532513e-05,
          -1.41888857e-04, -7.47389859e-05, -1.29494249e-04,
          -1.64987548e-04, -1.13210124e-04, 3.25706606e-06,
          -3.75887903e-05, -2.16093449e-05, 1.43853365e-04,
          1.11634276e-04, 1.68007915e-04, 1.80874253e-04, 1.67962731e-04,
          1.63639765e-04, 2.00843133e-04, 1.36405695e-04,
          -1.19243530e-04, -8.79879553e-06, 5.00277420e-05,
          1.85103218e-05, -3.11113836e-05, -1.89012951e-06,
          -7.54914799e-05, -9.49848836e-05, -4.71182575e-05,
          -1.02445694e-04, -1.37616211e-04, -2.33486571e-04,
          -8.64655594e-05, -1.56337101e-05, -6.01550346e-05,
          -9.49700552e-05, -7.93070649e-05, 9.21765968e-05,
          3.50780065e-05, 2.11503411e-05, 5.84956979e-05, 4.44470352e-05,
          1.19766497e-04, 1.25903010e-04, 1.78341303e-04, 1.62953336e-04,
          1.40299337e-04, 2.14686224e-04, 2.29700934e-04, 2.12478160e-04,
          1.93311091e-04, 1.27614345e-04, -1.12767171e-04,
          -1.80655872e-04, -1.75407520e-04, -5.54728285e-05,
          -7.98339388e-05, -5.67280258e-05, -9.07220892e-05,
          -9.37381265e-05, -9.01357926e-05, -1.48787221e-04,
          -1.53580768e-04, -1.69506442e-04, -1.03559243e-04,
          2.40614463e-05, -1.87758924e-04, -1.69577994e-04,
          2.57266336e-04, 1.75959824e-04, 1.25406077e-04, 8.55572434e-05,
          4.74373373e-05, 8.47404226e-05, 8.03963412e-05, 1.12413625e-04,
          4.90988568e-05, 8.23850860e-05, 5.84818554e-05, 1.00286110e-04,
          1.26735264e-04, 1.55442205e-04, 1.43613594e-04, 1.10647823e-04,
          -1.08337779e-04, 6.35692268e-05, 1.41681710e-04,
          3.00423762e-05, 2.82960646e-05, 1.37404013e-05,
          -2.90514326e-05, 1.93911419e-05, -1.49343559e-05,
          2.60138404e-06, 9.06092555e-06, -4.93544903e-05,
          -3.75538220e-05, 1.46309103e-04, 9.91071574e-05,
          2.10084225e-04, 1.48839812e-04, 7.65177610e-05, 1.19519849e-04,
          5.62179594e-05, 7.36543734e-05, 9.97226307e-05, 6.94835398e-05,
          8.83239554e-05, 5.11516228e-05, 9.71995396e-05, 1.10403045e-04,
          1.10635941e-04, 1.19760778e-04, 1.23821941e-04, 1.58674520e-04,
          1.61504460e-04, -3.88252774e-05, 7.55565561e-05,
          1.33654656e-04, 3.21385633e-05, -6.98736699e-07,
          1.34475222e-05, -1.56477927e-05, 3.14061363e-05,
          -5.27528937e-06, 1.31885254e-05, -1.57324375e-05,
          -3.66921049e-05, 1.55074322e-05, 6.52648087e-05,
          4.75238121e-05, 1.49383151e-04, 1.28772386e-04, 9.79319666e-05,
          1.25864011e-04, 7.90854683e-05, 1.17481759e-04, 8.11740028e-05,
          7.13672562e-05, 9.05985580e-05, 1.00990976e-04, 1.10494657e-04,
          1.65508362e-04, 1.44181176e-04, 1.61243021e-04, 1.84284349e-04,
          1.61036456e-04, 1.78944902e-04, -8.13110746e-05,
          7.56105583e-05, 1.21805577e-04, 7.77671739e-05,
          -6.61127388e-06, -1.78362279e-06, 1.07334063e-05,
          -1.00485340e-05, -8.01409726e-07, 6.06080766e-06,
          -3.92080183e-05, -1.42695048e-04, 3.91186404e-05,
          3.36125158e-05, 4.67196696e-05, 1.82520773e-04, 9.17579455e-05,
          1.41373501e-04, 1.27393214e-04, 1.30525688e-04, 1.14102593e-04,
          1.33910711e-04, 9.37520672e-05, 7.27469742e-05, 1.21979647e-04,
          1.13910806e-04, 1.57490693e-04, 1.48171443e-04, 1.81077194e-04,
          1.76548187e-04, 1.36522052e-04, 1.79350056e-04,
          -4.12616937e-05, 5.69264521e-05, 1.12228139e-04,
          1.09599787e-04, 6.43921567e-06, -4.00530371e-05,
          -1.99320657e-05, -9.93744288e-06, -3.54228837e-06,
          -1.78298797e-05, -1.14233975e-04, -1.22240308e-04,
          -2.98799714e-05, -2.70984820e-05, 1.99469878e-06,
          1.25011924e-04, 1.35495065e-04, 1.20869692e-04, 1.08340551e-04,
          1.74144865e-04, 7.00486198e-05, 9.74456198e-05, 9.25970526e-05,
          1.25891034e-04, 1.67983555e-04, 1.52324472e-04, 1.71069318e-04,
          1.55972622e-04, 1.90859355e-04, 1.67720689e-04, 1.52952663e-04,
          1.73702938e-04, -1.69759588e-07, 5.59251421e-05,
          1.04743907e-04, 9.96575909e-05, 1.05846659e-04,
          -3.31838828e-06, -2.04125954e-05, -2.54087008e-05,
          -5.62794485e-05, -9.57562661e-05, -2.57477259e-05,
          4.44356265e-05, 1.45031499e-05, -1.16880974e-05,
          -2.30037790e-06, 1.30670844e-04, 1.92440464e-04,
          1.52381748e-04, 1.44448160e-04, 1.78695336e-04, 1.22039906e-04,
          8.59268330e-05, 5.78092731e-05, 1.26303625e-04, 6.04234665e-05,
          1.25568171e-04, 1.55907619e-04, 1.12935733e-04, 1.68236424e-04,
          1.24792889e-04, 1.33521928e-04, 1.03598213e-04,
          -3.31894043e-05, 2.52811842e-05, 1.11197245e-04,
          9.02744723e-05, 8.64081521e-05, 9.75362491e-05, 8.42130321e-05,
          2.04122553e-05, -6.12329532e-05, -4.42879573e-05,
          -4.41305165e-05, -1.39145031e-05, 5.41518057e-05,
          5.16699083e-06, 7.17975126e-05, 1.63134013e-04, 1.59454299e-04,
          1.55210611e-04, 1.54150184e-04, 1.60750220e-04, 1.18934506e-04,
          1.17266987e-04, 8.40671710e-05, 1.19157943e-04 ]
      - [ -1.12139889e-04, -1.07418520e-04, -9.38457597e-05,
          -9.52673217e-05, -9.21572719e-05, -7.62038253e-05,
          -3.21960506e-05, 3.42406274e-05, 2.38592438e-05,
          -4.70850100e-05, -5.97688777e-05, -8.14356681e-05,
          -7.91940765e-05, -1.66180049e-04, -1.89870319e-04,
          -5.09509082e-05, -5.88349940e-05, -1.29868058e-04,
          -9.98809119e-05, -4.86968638e-05, -6.66949290e-06,
          2.76407300e-05, 5.52810125e-05, -9.99661916e-06,
          1.76992653e-05, -9.27488782e-06, 1.85839635e-05,
          6.64750260e-05, 8.98858125e-05, 8.76105987e-05, 4.16970906e-05,
          1.61429343e-05, -8.69619907e-05, -9.24310370e-05,
          -7.41191470e-05, -9.19847080e-05, -6.39292557e-05,
          -5.56850100e-05, -1.64949233e-05, 3.04587138e-05,
          3.08310809e-05, -2.72484449e-05, -8.67724666e-05,
          -8.31861107e-05, -8.22580187e-05, -8.06441967e-05,
          -1.73603024e-04, -1.08143839e-04, -3.69785594e-05,
          -1.83341363e-05, 2.12843534e-05, 9.33152478e-06,
          5.95183701e-05, 9.95877490e-05, 3.31622286e-05,
          -1.38243558e-05, 1.69894593e-05, 1.51004078e-05,
          4.44753605e-05, 8.40658686e-05, 1.08728047e-04, 9.21788305e-05,
          -1.10297162e-06, -1.18675489e-05, -1.02980070e-04,
          -9.01795138e-05, -9.61829573e-05, -8.40315115e-05,
          -9.59354657e-05, -5.39786379e-05, -3.83969054e-05,
          3.77153665e-05, 1.00576754e-05, -5.38636123e-05,
          -7.71022387e-05, -7.98892215e-05, -8.17567052e-05,
          -6.91769892e-05, -6.21738800e-05, -8.69143041e-05,
          -8.63861897e-06, 1.45668135e-04, 1.97136396e-04,
          2.10896091e-04, 1.31539709e-04, 1.32741989e-04, 4.10241591e-05,
          -1.24918861e-05, -2.58295518e-06, 3.35861550e-05,
          7.66877565e-05, 1.08136745e-04, 8.42617301e-05, 5.71476448e-05,
          -8.54013633e-05, -4.43054923e-05, -7.86727105e-05,
          -8.04236115e-05, -9.92607747e-05, -9.93247595e-05,
          -7.99534246e-05, -5.09248384e-05, -3.70511334e-05,
          2.16303670e-05, 3.01223499e-05, -5.10672689e-05,
          -7.21535471e-05, -7.27752267e-05, -7.52146516e-05,
          -5.71790551e-05, -7.81869239e-05, -8.03472794e-05,
          -4.34227259e-05, 6.15754470e-05, 1.63447301e-04,
          1.73111359e-04, 1.68924773e-04, 1.57850067e-04, 3.22357919e-05,
          -1.08877961e-04, -2.85056849e-05, 5.71980927e-05,
          5.51227677e-05, 1.26979445e-04, 1.25982217e-04, 5.65702503e-05,
          3.20045219e-05, -1.58159764e-05, -8.17614273e-05,
          -7.10485183e-05, -8.66482442e-05, -9.32549592e-05,
          -6.98899021e-05, -4.03645608e-05, -1.98807084e-05,
          3.08722774e-05, 5.05445787e-05, -6.70985173e-05,
          -5.54529106e-05, -6.87853681e-05, -6.35428223e-05,
          -6.43170497e-05, -7.89195983e-05, -8.33620870e-05,
          -7.76442757e-05, -8.11114223e-05, -2.68631702e-05,
          1.01247433e-05, 4.37928065e-05, -4.48357969e-06,
          -8.15386811e-05, -1.41181037e-04, 7.72007206e-06,
          3.33649768e-05, 6.25994653e-05, 9.73356509e-05, 9.30643873e-05,
          4.19873504e-05, -6.48915811e-05, 8.40145094e-06,
          -8.47181145e-05, -6.41918668e-05, -8.44101014e-05,
          -6.54989708e-05, -6.65027183e-05, -2.83666977e-05,
          -1.57798786e-05, 5.39954672e-05, 3.02283624e-05,
          -5.40053152e-05, -5.59854780e-05, -5.41229092e-05,
          -5.93940604e-05, -7.28016748e-05, -8.63432288e-05,
          -8.62372690e-05, -8.35025567e-05, -7.53846180e-05,
          -8.57650302e-05, -5.70537923e-05, -9.90362332e-06,
          -4.96548500e-06, -9.33414922e-05, -1.16476302e-04,
          1.14513005e-05, 5.28725213e-05, 6.06097528e-05, 7.65749937e-05,
          1.20056800e-04, 8.89159783e-05, 8.24373710e-05, 3.90513924e-05,
          -2.96569269e-05, -4.67526079e-05, -4.45251826e-05,
          -4.62803837e-05, -1.03829698e-05, -1.84789915e-05,
          1.18188191e-05, 5.30019825e-05, 2.29635716e-05,
          -1.03314713e-04, -3.66798122e-05, -4.58143404e-05,
          -5.46597148e-05, -6.92809408e-05, -6.66644992e-05,
          -8.07419783e-05, -8.35375249e-05, -8.38725464e-05,
          -6.70986847e-05, -4.70534869e-05, 1.16631791e-05,
          -1.39324573e-06, -6.61749218e-05, -8.57816049e-05,
          3.78541263e-05, 8.03371586e-05, 1.08871565e-04, 8.37248153e-05,
          9.95963492e-05, 1.20163400e-04, 1.42175122e-04, 1.33482361e-04,
          3.91833964e-05, 4.05608916e-05, 5.52284546e-05, 6.36694749e-05,
          6.48666755e-05, 6.39634018e-05, 8.59032225e-05, 1.26298328e-04,
          8.72709425e-05, -5.79167900e-05, -6.99521042e-05,
          -5.45055445e-05, -7.56226727e-05, -5.69960321e-05,
          -5.51212979e-05, -6.96536736e-05, -1.13124457e-04,
          -7.62615382e-05, -5.03317497e-05, -5.11115832e-05,
          -2.30521528e-05, 2.86022441e-05, -3.90448258e-05,
          -2.04963380e-05, 1.33383855e-05, 1.21382029e-04,
          1.48766776e-04, 1.32236106e-04, 1.70432526e-04, 1.57312403e-04,
          1.78689021e-04, 1.48633582e-04, 6.26756955e-05, 5.55965889e-05,
          5.43006608e-05, 4.88405567e-05, 5.72739191e-05, 7.14195194e-05,
          1.01742880e-04, 1.63724035e-04, 1.86616104e-04, 5.22989903e-05,
          3.52228312e-06, -1.97005411e-05, -6.77278240e-06,
          -5.69210101e-07, -2.85809892e-05, -3.25969304e-05,
          -6.64199615e-05, -5.83565779e-05, -5.32618360e-05,
          -1.74295383e-05, -1.00188045e-05, 5.97256894e-06,
          -4.74432272e-05, -4.88731166e-05, -4.48087449e-05,
          1.05121435e-05, 7.92599094e-05, 8.87620408e-05, 8.74358302e-05,
          9.22965410e-05, 9.22279578e-05, 6.99227239e-05,
          -6.37095000e-05, -5.55662082e-05, -5.33353268e-05,
          -5.12272563e-05, -3.03594152e-05, -2.45357915e-05,
          -3.51128401e-05, -4.02740843e-05, 9.95158334e-05,
          6.49735084e-05, 5.68860451e-05, 4.93751504e-05, 7.50431427e-05,
          7.45997968e-05, 6.56067277e-05, 7.59619288e-05, 7.01348545e-05,
          3.65424057e-05, 3.87810069e-05, 8.14623854e-05, 5.73765756e-05,
          5.32394661e-05, 7.14103662e-05, 6.04948618e-05,
          -1.32624509e-05, -7.16469513e-05, -3.08194758e-05,
          -3.78153454e-05, -3.06626935e-05, -2.51277688e-05,
          -2.99362036e-05, -2.56908461e-05, -5.61214911e-05,
          -4.49248619e-05, -6.16439211e-05, -6.26201363e-05,
          -3.99119235e-05, -3.37398342e-05, -1.23114194e-04,
          -1.48665058e-04, -2.25736239e-05, 4.66705642e-05,
          7.17922449e-05, 9.43241903e-05, 9.33751508e-05, 9.68693057e-05,
          8.55404214e-05, 8.25186944e-05, 9.19239974e-05, 8.44554088e-05,
          4.90747261e-05, 4.83577060e-05, 4.58269051e-06, 2.78739772e-05,
          7.44476492e-05, 1.51893837e-04, 8.33323647e-05,
          -8.98224880e-06, -2.54955035e-06, -1.07850883e-05,
          -6.75274896e-06, -1.39766462e-05, -1.50304841e-05,
          -1.52744869e-05, -1.84358323e-05, -1.18738662e-05,
          -3.68764340e-05, -8.67962808e-05, -8.90092269e-05,
          -8.24039671e-05, -7.57864327e-05, -1.51193919e-04,
          1.88796657e-05, 8.36960899e-05, 8.74724647e-05, 9.09496812e-05,
          1.02207006e-04, 8.69131327e-05, 9.59178942e-05, 8.23888404e-05,
          4.99916023e-05, 3.24708853e-05, 4.05860701e-05, 5.52698330e-05,
          1.12813032e-05, 9.43880059e-06, 2.58631480e-05, 1.10872665e-04,
          7.89861224e-05, -1.32336445e-05, 1.85212502e-06,
          3.76163342e-07, 4.10828898e-06, -4.45708883e-06,
          -7.81822109e-06, -2.44361818e-05, -1.46393031e-05,
          -8.59071370e-05, -7.83774958e-05, -7.48061721e-05,
          -7.18414303e-05, -7.72199128e-05, -7.65947989e-05,
          -8.55927647e-05, 5.26933763e-05, 8.72768942e-05,
          1.10972265e-04, 1.16930991e-04, 1.24835569e-04, 1.13397422e-04,
          5.98082188e-05, 5.87625364e-05, 5.60656117e-05,
          -6.77373318e-05, -3.36560588e-05, 4.36944028e-05,
          9.10497602e-06, 1.32486657e-05, 5.25021169e-05, 1.17628086e-04,
          9.60582547e-05, 7.13102600e-06, 5.97670760e-06, 7.62337504e-06,
          4.09322502e-06, -9.02872944e-06, -2.03713153e-05,
          -2.97074675e-05, -9.85783336e-05, -9.69592511e-05,
          -9.70874025e-05, -9.38724770e-05, -8.64816902e-05,
          -7.33756242e-05, -8.67488707e-05, -9.47120425e-05,
          2.39474120e-05, 8.35882674e-05, 1.12699367e-04, 1.34742368e-04,
          1.31120905e-04, 9.82586789e-05, 4.39447831e-05, 2.09796272e-05,
          3.19235005e-06, -1.47364422e-04, -5.44687173e-05,
          5.53202881e-06, 4.13512244e-05, 4.47559578e-05, 3.73767289e-05,
          1.12685600e-04, 1.04688283e-04, 8.84067776e-06, 8.98540657e-06,
          3.93699520e-06, -1.82603094e-06, -9.88098509e-06,
          -1.72518903e-05, -2.52297123e-05, -1.12292764e-04,
          -1.13972797e-04, -1.18079108e-04, -1.12026355e-04,
          -1.07186388e-04, -9.91346897e-05, -9.31610630e-05,
          -9.62417034e-05, 3.39958533e-05, 8.55927865e-05,
          1.08885666e-04, 1.33921698e-04, 1.28409753e-04, 8.64627873e-05,
          3.42515959e-05, 1.71116403e-06, 8.72960209e-06,
          -5.14072708e-05, -8.76349150e-05, -1.42472200e-05,
          5.14960702e-05, 3.26439585e-05, 4.95984714e-05, 1.32476052e-04,
          8.36309337e-05, 4.77534468e-06, 8.58848762e-06,
          -3.80507390e-06, 4.95881386e-06, -1.22929241e-05,
          -2.51763195e-05, -4.96587345e-05, -1.31849127e-04,
          -1.37968891e-04, -1.48116087e-04, -1.35652823e-04,
          -1.25428589e-04, -1.32500485e-04, -1.25060062e-04,
          -1.31692097e-04, 7.38346625e-06, 8.02472496e-05,
          1.00767196e-04, 1.27221472e-04, 8.41146102e-05, 4.86311437e-05,
          2.10461967e-05, -3.30582006e-05, 2.24161358e-05,
          -3.92629227e-05, -4.60592746e-05, 5.88245075e-06,
          7.04720105e-06, 5.37972337e-05, 6.57825294e-05, 1.40527307e-04,
          8.46072799e-05, 2.52595169e-06, 1.52036064e-05,
          -1.09411383e-06, -3.52188727e-06, -2.11592469e-05,
          -6.31483272e-05, -1.13095382e-04, -1.55266534e-04,
          -1.56248643e-04, -1.58234470e-04, -1.50467560e-04,
          -1.42251811e-04, -1.54320514e-04, -1.56744703e-04,
          -1.43305922e-04, -1.08552285e-05, 5.54551589e-05,
          7.35666326e-05, 8.85655536e-05, 6.96625211e-05, 2.24975975e-05,
          -2.20445490e-05, -9.68332024e-05, -9.06050700e-05,
          -1.26814295e-04, -5.41809422e-05, 8.06410208e-06,
          5.01553814e-06, 6.19857528e-05, 7.48566526e-05, 1.57233851e-04,
          8.25690804e-05, -3.63017148e-06, 5.08891389e-06,
          -9.54438383e-06, -9.48580600e-06, -2.42480473e-05,
          -1.15244729e-04, -1.63099714e-04, -1.66036349e-04,
          -1.62263430e-04, -1.63153512e-04, -1.64850979e-04,
          -1.71011590e-04, -1.67547681e-04, -1.73480104e-04,
          -1.84607750e-04, -4.34166213e-05, 2.10571070e-05,
          2.85810511e-05, 8.19967318e-05, 5.69120530e-05,
          -2.12864597e-05, -1.11358044e-04, -1.40687465e-04,
          -2.51759862e-04, -1.91019149e-04, -1.25831735e-04,
          -1.90365677e-06, 2.62843569e-05, 7.13324771e-05,
          7.07743529e-05, 1.21461388e-04, 6.11799987e-05,
          -1.25506476e-05, -1.05514473e-05, -2.10785129e-06,
          -2.02544616e-05, -6.77585776e-05, -1.35791764e-04,
          -1.94286229e-04, -1.52907032e-05, -1.58615498e-04,
          -1.55821603e-04, -1.69824125e-04, -1.63847682e-04,
          -1.57722388e-04, -1.70394182e-04, -1.73617387e-04,
          -5.33458042e-05, 2.01181956e-05, 3.53671712e-05,
          4.93788393e-05, 5.97402213e-05, -4.21949662e-05,
          -1.03831582e-04, -1.08658183e-04, -1.86753750e-04,
          -1.78308823e-04, -1.38822317e-04, -6.79815857e-05,
          3.77348006e-05, 8.82123568e-05, 7.06625942e-05, 1.37824158e-04,
          5.22184164e-05, -2.17306824e-05, -1.84370838e-05,
          -1.48025174e-05, -2.76306328e-05, -1.15034985e-04,
          -1.47496277e-04, -1.92904437e-04, -2.13026269e-05,
          -1.31244315e-05, -4.06555919e-05, -1.42067613e-04,
          -1.54086796e-04, -1.41036231e-04, -1.17351476e-04,
          -1.43928992e-04, -6.56830161e-05, -1.90067549e-05,
          2.89230175e-05, 3.41973609e-05, 3.80194178e-05,
          -1.19851429e-05, -5.77074679e-05, -7.35836147e-05,
          -1.13556540e-04, -1.34338436e-04, -1.04103085e-04,
          -4.36409136e-05, 6.50526854e-05, 3.99374112e-05,
          7.02272227e-05, 1.55409245e-04, 7.10115273e-05,
          -1.92962452e-05, -1.27484636e-05, -1.58018047e-05,
          -4.07153311e-05, -1.28379645e-04, -1.48770356e-04,
          -1.75151348e-04, -1.18559692e-05, -1.95518714e-05,
          -2.06625118e-05, -1.76885387e-05, -1.59180199e-05,
          -1.54545523e-05, -7.38644740e-05, -1.09282984e-04,
          -2.68229014e-05, 2.42126171e-05, 4.34227659e-05,
          4.80995332e-05, 5.00718415e-05, 1.49550515e-05, 2.21054052e-05,
          -2.54464376e-05, -7.71729246e-05, -5.11488470e-05,
          -8.54728205e-05, -1.64216854e-05, 4.27691739e-05,
          5.79394691e-05, 1.03020546e-04, 1.43835670e-04, 6.11395662e-05,
          -4.74757180e-05, -1.35658775e-05, -2.35347106e-05,
          -2.42754886e-05, -1.14729388e-04, -1.13358867e-04,
          -1.42202160e-04, -1.72288856e-05, -1.76410958e-05,
          -1.79913386e-05, -1.78162863e-05, -1.07224441e-05,
          -1.06429407e-05, -7.78904214e-05, -1.06618507e-04,
          1.11948584e-05, 4.33521855e-05, 7.37878872e-05, 6.81175370e-05,
          5.01597351e-05, 4.34560934e-05, 3.29643408e-05, 2.12424875e-05,
          -2.99187195e-05, -5.63260837e-05, -7.02321995e-05,
          -2.30030400e-05, 2.53913076e-05, 4.97833389e-05,
          6.01327883e-05, 1.32204950e-04, 4.41223929e-05,
          -5.19123205e-05, -1.17648351e-05, -1.19624829e-05,
          -1.24901271e-05, -1.11889865e-04, -1.22891099e-04,
          -1.78113172e-04, -5.80231681e-05, -4.13556154e-05,
          -5.94303856e-05, -5.00486385e-05, -3.32626005e-05,
          -4.46562590e-05, -1.05374827e-04, -1.18144220e-04,
          5.02102012e-06, 6.55776021e-05, 8.51978548e-05, 1.13442416e-04,
          9.15239289e-05, 5.91184908e-05, 5.73283105e-05, 3.36122248e-05,
          4.61613272e-05, 2.22747931e-05, 2.28169174e-05, 4.08519263e-05,
          3.88798398e-05, 5.68112191e-05, 7.82445277e-05, 1.27493549e-04,
          2.51725305e-05, -7.76361194e-05, -1.45014983e-05,
          1.47537537e-06, -4.77999447e-06, -5.08147386e-05,
          -1.00225727e-04, -1.97423942e-04, -1.99322560e-04,
          -1.77778798e-04, -1.88261518e-04, -1.81998563e-04,
          -1.65366611e-04, -1.76407746e-04, -2.31470709e-04,
          -2.11505452e-04, -2.23618008e-05, 6.93123366e-05,
          1.32958434e-04, 1.19764416e-04, 1.29173714e-04, 1.16599585e-04,
          1.14424285e-04, 8.24316958e-05, 1.07898646e-04, 7.50981999e-05,
          8.75943297e-05, 8.74026518e-05, 9.17755315e-05, 8.31427897e-05,
          1.05372936e-04, 1.40721517e-04, 8.44768365e-05,
          -4.42892160e-05, -2.19525773e-05, 4.09192580e-06,
          -2.76010360e-05, 1.29711225e-06, -8.17111068e-05,
          -1.58987779e-04, -7.02758916e-05, -6.59835277e-05,
          -3.08886192e-05, -3.08807103e-05, -5.30835568e-05,
          -2.02866413e-05, -8.41417568e-05, -1.38874821e-04,
          -5.00017777e-05, -2.94082129e-05, 3.20109721e-05,
          2.87558960e-05, 3.13937744e-05, 1.78382234e-05, 9.40127484e-06,
          1.67073013e-05, 7.44720546e-06, 1.84269834e-06,
          -1.25276620e-05, 9.91788625e-07, 2.04431017e-05,
          2.29914931e-05, 1.91703657e-05, 1.26375817e-04, 1.98239490e-04,
          8.07327597e-05, 8.03963558e-05, 1.02556958e-04, 1.29022766e-04,
          1.04057319e-04, 1.17314135e-04, 3.10262913e-05, 4.56518283e-05,
          4.85722230e-05, 2.89588388e-05, 5.53719765e-05, 5.06804208e-05,
          2.13756357e-05, 2.85576298e-05, -2.06365039e-05,
          -1.13510301e-04, -1.80768417e-04, -1.21914236e-04,
          -1.05916886e-04, -1.00928926e-04, -6.86997228e-05,
          -1.31284149e-04, -1.32678266e-04, -1.42973440e-04,
          -1.65192643e-04, -1.72139742e-04, -1.87405909e-04,
          -1.61923133e-04, -1.22253943e-04, -1.22528334e-04,
          -5.33265702e-05, 1.19311095e-04, 1.35535083e-04,
          1.39198877e-04, 1.60609809e-04, 1.34731803e-04, 1.77065784e-04,
          1.43595535e-04, 7.38499293e-05, -2.57174488e-05,
          -1.16716055e-05, 6.40846110e-06, 1.15719267e-05,
          2.40616027e-05, 8.46546027e-06, 3.40834340e-05, 3.84862506e-05,
          -3.58500729e-05, -8.86448106e-05, -1.99296464e-05,
          -2.02839874e-05, -8.63561763e-06, -1.17238387e-05,
          -8.20643691e-05, -1.14388633e-04, -1.31650348e-04,
          -1.10548026e-04, -1.30812899e-04, -1.36153118e-04,
          -1.42768185e-04, -1.12513662e-04, -1.65737831e-04,
          -6.32100055e-05, 8.47268384e-05, 1.05440588e-04,
          1.49445565e-04, 1.39446187e-04, 1.57809351e-04, 1.50060907e-04,
          1.51504733e-04, 1.32533605e-04, -3.92291258e-05,
          -3.00278152e-05, -3.52885800e-05, 2.07344601e-05,
          -4.42056398e-06, -2.75619586e-05, 2.04453245e-05,
          4.79817609e-05, -8.51972163e-06, -5.72875470e-05,
          6.74610783e-06, -4.66624333e-05, -7.83597643e-05,
          -1.11982874e-04, -1.07624008e-04, -8.45267059e-05,
          -1.01150261e-04, -1.38374060e-04, -1.54746216e-04,
          -1.24058526e-04, -9.44707135e-05, -1.21026736e-04,
          -1.66981423e-04, -9.90422632e-05, 1.04511171e-04,
          1.11547990e-04, 1.41521523e-04, 1.27609906e-04, 1.55104848e-04,
          1.25446371e-04, 1.33407360e-04, 1.45193000e-04,
          -4.77568319e-05, -3.85486492e-05, -1.57021786e-05,
          -2.33928313e-06, 3.05623435e-05, -2.49194018e-05,
          -3.31965339e-06, 3.44249420e-05, -1.79643030e-06,
          -5.99932064e-05, -7.41433687e-05, -4.33772111e-05,
          -8.85698173e-05, -1.02953949e-04, -1.07698426e-04,
          -1.14477480e-04, -1.36309012e-04, -1.51613305e-04,
          -1.63396166e-04, -1.51441069e-04, -1.14337461e-04,
          -9.86068771e-05, -1.70034371e-04, -1.09958477e-04,
          5.83922665e-05, 1.05508727e-04, 1.37881842e-04, 1.36321658e-04,
          1.65124264e-04, 1.49129366e-04, 1.44868784e-04, 1.35308219e-04,
          -1.87444257e-05, -4.99710841e-05, -2.53046346e-05,
          -2.67953928e-05, 1.50340611e-05, 1.24381768e-05,
          4.16191915e-06, 3.96483701e-05, -6.47569395e-05,
          -1.20322096e-04, -7.92065257e-05, -5.80098495e-05,
          -8.84378096e-05, -1.09570741e-04, -1.19985780e-04,
          -1.32811751e-04, -1.62049590e-04, -1.47485000e-04,
          -1.71163134e-04, -1.70512751e-04, -1.50601001e-04,
          -1.04740189e-04, -1.60784242e-04, -1.34108559e-04,
          4.26624174e-05, 9.60527468e-05, 8.01415736e-05, 1.35962968e-04,
          1.17715848e-04, 1.50480715e-04, 1.39605589e-04, 1.37483104e-04,
          1.40839506e-06, 7.13025220e-05, -2.47573334e-05,
          5.85322668e-05, 1.08699154e-04, 3.62580649e-05, 5.59873342e-06,
          2.74635568e-05, -3.11009244e-05, -1.02983955e-04,
          -8.14673112e-05, -9.54782445e-05, -1.06460786e-04,
          -1.24809085e-04, -1.28092550e-04, -1.39482756e-04,
          -1.40043776e-04, -1.99532908e-04, -1.78731018e-04,
          -1.81016629e-04, -1.89007042e-04, -1.40296514e-04,
          -1.59132600e-04, -1.22434532e-04, 6.09148155e-05,
          6.39004793e-05, 9.83041245e-05, 1.29245542e-04, 1.41544951e-04,
          1.39913755e-04, 1.33145906e-04, 1.34815797e-04,
          -3.31105948e-05, -6.23102169e-05, 1.58081093e-05,
          -6.64215622e-06, 7.98802212e-05, 1.13263770e-04,
          -1.50840251e-05, -5.91434355e-06, -3.34550459e-05,
          -1.16552903e-04, -8.82586537e-05, -1.05919986e-04,
          -1.18217824e-04, -1.30715795e-04, -1.53192887e-04,
          -1.38418312e-04, -1.30497225e-04, -1.99259695e-04,
          -2.59319437e-04, -2.70762655e-04, -2.19125708e-04,
          -1.81100448e-04, -1.45636499e-04, -1.54195921e-04,
          4.20044234e-05, 6.56414632e-05, 8.95541380e-05, 1.19868149e-04,
          9.70229303e-05, 1.33448018e-04, 1.22779806e-04, 1.61838674e-04 ]
      - [ -5.97227045e-05, 6.18165868e-05, 7.73361680e-05,
          8.36062645e-06, 2.65104009e-05, 4.17229858e-05, 3.63726685e-05,
          -1.20302120e-05, -1.41188415e-04, -2.79211235e-04,
          -2.19053036e-04, -2.13149615e-04, -2.23467432e-04,
          -2.38403532e-04, -2.20922069e-04, -2.98985251e-05,
          3.08857270e-05, -1.31018867e-04, -8.64632311e-05,
          -4.73009350e-05, -7.23323174e-05, -1.17474949e-04,
          -8.71043012e-05, -1.19939046e-04, -5.28856654e-05,
          -2.97430179e-05, 2.11755760e-05, 3.14801946e-05,
          1.01120568e-04, 1.40237928e-04, 1.56745838e-04, 3.06349539e-04,
          9.52371920e-06, 4.77587091e-05, -8.76054764e-06,
          -1.63125333e-05, 7.12663896e-05, 7.65828736e-05,
          5.36146217e-05, -9.48026184e-07, -1.20474004e-04,
          -2.71496450e-04, -2.12715197e-04, -2.05774821e-04,
          -2.04231066e-04, -2.24837393e-04, -2.30572492e-04,
          -9.43345440e-05, 3.46596426e-05, -1.10031206e-05,
          -1.45991726e-06, -5.77452120e-05, -8.81456290e-05,
          -1.41561148e-04, -1.25675244e-04, -1.44898164e-04,
          -1.13550283e-04, -8.92876960e-06, 1.70988387e-05,
          4.27960404e-05, 6.05316782e-05, 1.10624249e-04, 1.04885476e-04,
          2.12500570e-04, 3.18722632e-05, -1.05709760e-05,
          -3.29983231e-05, 3.95891439e-05, 3.46301167e-05,
          8.23759692e-05, 2.20813890e-05, 2.84593789e-05,
          -1.29702123e-04, -2.91372358e-04, -2.13910869e-04,
          -2.16353190e-04, -1.95056258e-04, -2.10055761e-04,
          -2.25902390e-04, -1.79004550e-04, 1.95700659e-06,
          1.52631255e-04, 1.74369852e-04, 6.66444903e-05,
          -8.30325152e-05, -1.03550374e-04, -1.36031173e-04,
          -1.78949209e-04, -1.68685816e-04, -2.03767904e-05,
          3.00363499e-05, 4.31243498e-05, 5.86775823e-05, 1.68604296e-04,
          1.04561477e-04, 1.53121975e-04, -6.75413867e-06,
          6.85521400e-06, 2.76084938e-05, 5.07747172e-05, 5.38754975e-05,
          6.02970758e-05, 2.98306750e-05, 2.26247303e-05,
          -1.13049959e-04, -2.93919293e-04, -2.14966392e-04,
          -2.14287196e-04, -2.09822014e-04, -1.91637941e-04,
          -2.20638671e-04, -2.15455118e-04, -1.62660086e-04,
          -3.38203026e-05, 6.63919272e-05, 4.86427853e-05,
          -4.42345336e-05, -8.40936191e-05, -1.89518527e-04,
          -3.68425681e-04, -1.98516165e-04, -5.59865766e-05,
          -2.72980942e-05, 3.38577629e-05, 2.94390247e-05,
          4.69356601e-05, 6.68100620e-05, 7.46423248e-05, 1.53492165e-05,
          3.23812237e-05, 3.91089925e-05, 5.55948718e-05, 5.68832002e-05,
          6.61537779e-05, 5.82207904e-05, 3.96544565e-05,
          -9.52633127e-05, -2.91544973e-04, -2.12882980e-04,
          -2.19743029e-04, -2.24311356e-04, -2.01328075e-04,
          -2.10311089e-04, -2.10879516e-04, -1.81236494e-04,
          -1.98662339e-04, -1.67050413e-04, -1.39373151e-04,
          -2.07167279e-04, -2.94362922e-04, -3.38412618e-04,
          -3.95802839e-04, -1.66873797e-04, -6.76926575e-05,
          -8.94993082e-06, 8.46646071e-06, 2.18356254e-05,
          4.74505796e-05, 2.83237205e-05, 3.56122873e-05, 3.87738874e-05,
          6.50203656e-05, 2.64632963e-05, 6.53717725e-05, 4.09863751e-05,
          6.52381277e-05, 5.70098055e-05, 5.86106762e-05,
          -1.14378861e-04, -3.02032626e-04, -2.20045302e-04,
          -2.14943415e-04, -2.17041073e-04, -2.07563891e-04,
          -2.05634118e-04, -2.00610448e-04, -1.92622188e-04,
          -1.61669581e-04, -1.54075635e-04, -2.24465024e-04,
          -2.57640000e-04, -2.84720853e-04, -3.29247385e-04,
          -3.55380791e-04, -1.29423119e-04, 2.14051615e-05,
          1.69351788e-05, 3.10735632e-05, 5.09254351e-05, 4.18244636e-05,
          4.44830184e-05, 1.70728399e-05, 5.87581817e-05, 4.60840420e-05,
          4.10152279e-05, 2.91178640e-05, 6.82750542e-05, 6.43898893e-05,
          7.78066678e-05, 5.20420872e-05, -1.25045437e-04,
          -2.94010912e-04, -2.29049110e-04, -2.23158990e-04,
          -2.13956708e-04, -2.08178666e-04, -2.09983875e-04,
          -2.19209862e-04, -2.06330049e-04, -1.73465698e-04,
          -1.42548612e-04, -1.90677223e-04, -2.09269943e-04,
          -2.53813283e-04, -2.91514007e-04, -2.70245975e-04,
          -5.82435241e-05, 6.85046471e-05, 5.93163386e-05,
          2.80633976e-05, 3.18062812e-05, 3.35480145e-05, 3.44459950e-05,
          2.49952463e-05, 4.59036346e-05, 5.47160307e-05, 7.52665583e-05,
          6.83343096e-05, 6.95426279e-05, 9.82862330e-05, 8.16680185e-05,
          8.36618201e-05, 3.00117279e-07, -1.35193870e-04,
          -9.98158066e-05, -1.11039175e-04, -1.04086292e-04,
          -8.22246293e-05, -9.17573343e-05, -1.13923386e-04,
          -1.25998617e-04, -8.75326878e-05, -6.14159144e-05,
          -3.10765427e-05, -7.43159690e-05, -1.68062215e-05,
          -3.73225375e-05, 1.72038417e-05, 2.82425426e-05,
          1.07606145e-04, 7.95970118e-05, 4.30007494e-05, 6.12831136e-05,
          1.48968584e-05, 4.01410543e-05, 2.56038311e-05,
          -4.24419559e-05, -4.07336083e-05, -4.43629397e-05,
          -6.93897164e-05, -5.97725375e-05, -4.04092607e-05,
          -2.53800354e-05, -9.78921889e-06, 7.71554987e-05,
          2.33300198e-05, 3.99329792e-06, -2.54534752e-05,
          -9.58165401e-06, -1.81915459e-06, -2.44316634e-05,
          9.66594052e-06, -1.93535088e-05, 8.36668096e-06,
          4.65732301e-05, 4.79745831e-05, 4.49039871e-05, 2.71512145e-05,
          4.43026220e-05, 3.89018678e-05, 3.09879260e-06,
          -1.19670978e-04, -1.20915749e-04, -1.20423792e-04,
          -1.22199839e-04, -1.13485810e-04, -1.09807188e-04,
          -1.21823461e-04, -2.34059135e-05, -2.94966721e-05,
          -2.28588688e-05, -2.96764883e-05, -1.71339852e-05,
          -2.66692041e-05, -3.56192868e-05, -5.27266711e-05,
          1.24983388e-04, 1.03824204e-04, 7.90269405e-05, 8.65476541e-05,
          6.64981344e-05, 6.19210841e-05, 4.50314801e-05, 7.31098335e-05,
          7.17942166e-05, 6.76597047e-05, 1.12605958e-04, 1.32182991e-04,
          9.17636498e-05, 7.57794260e-05, 1.01256890e-04, 1.00409954e-04,
          -1.27468975e-05, -4.76929854e-05, -3.40368169e-05,
          -5.10668397e-05, -6.45611071e-05, -5.98297665e-05,
          -4.92032923e-05, -6.53062380e-05, -7.89912519e-06,
          -3.67407142e-06, -5.62091009e-06, -1.57120739e-05,
          -1.89091440e-06, -9.29812359e-06, -4.50815332e-06,
          6.35911738e-06, 9.41390463e-05, 9.71073678e-05, 7.97485409e-05,
          9.27299116e-05, 6.55644035e-05, 5.34442224e-05, 7.59338436e-05,
          8.52660814e-05, 8.29103374e-05, 8.80871230e-05, 9.06102141e-05,
          1.01583704e-04, 8.38458946e-05, 9.15108103e-05, 1.14135313e-04,
          1.27738123e-04, 7.76386605e-06, -4.78828078e-05,
          -7.37067530e-05, -7.25844584e-05, -8.47707197e-05,
          -8.87404676e-05, -7.61389165e-05, -8.34384191e-05,
          5.49524066e-06, 5.76402840e-07, -6.49040385e-06,
          -1.89143759e-06, -3.54091412e-06, -2.46026025e-06,
          -5.34138826e-06, -2.66026200e-06, 9.05159613e-05,
          9.62352060e-05, 9.78629760e-05, 9.65423023e-05, 7.58287206e-05,
          4.59497096e-05, 6.61233644e-05, 5.71734672e-05, 8.43408179e-06,
          4.43446152e-05, 5.22863447e-05, 7.17992953e-05, 8.95326157e-05,
          1.02036603e-04, 1.24171114e-04, 9.51528054e-05, 3.15108518e-05,
          -6.04423003e-05, -8.51080622e-05, -7.68354585e-05,
          -8.91786622e-05, -8.63577225e-05, -8.69526048e-05,
          -8.69137148e-05, 2.32228422e-06, -1.09776693e-06,
          -6.01711918e-06, 2.61171590e-06, 4.60726733e-06,
          -4.61941636e-06, -5.09010488e-06, -4.63276001e-06,
          7.06396386e-05, 8.19064880e-05, 9.74198047e-05, 8.87364004e-05,
          8.37486295e-05, 6.49650246e-05, 5.42414637e-05, 4.14392853e-05,
          4.12258232e-05, 1.70487892e-05, 3.46474189e-05, 6.71039525e-05,
          7.24715719e-05, 9.33200645e-05, 1.51216707e-04, 1.21183992e-04,
          2.33910050e-05, -5.15767460e-05, -6.96409334e-05,
          -7.17019793e-05, -8.28212796e-05, -7.85083030e-05,
          -9.37148943e-05, -8.52997764e-05, -5.03222582e-05,
          -3.56400997e-05, -9.83234349e-06, 1.01464354e-06,
          6.78312381e-06, -6.78895458e-06, -1.01559926e-05,
          -1.01440110e-05, 4.07844054e-05, 5.39379580e-05,
          6.42940722e-05, 6.25381726e-05, 6.60716323e-05, 7.78996910e-05,
          4.37768540e-05, 4.38506759e-05, 4.67110440e-05, 2.06398181e-05,
          6.53170500e-05, 7.52797059e-05, 1.01957070e-04, 9.93014764e-05,
          1.08978427e-04, 1.17220952e-04, 2.31401427e-05,
          -4.59147777e-05, -8.67692652e-05, -9.61128608e-05,
          -8.63601017e-05, -8.23861919e-05, -9.58563469e-05,
          -6.14302335e-05, -9.41378603e-05, -9.23631887e-05,
          -7.21147080e-05, -3.27966773e-05, 4.36859260e-08,
          -3.07170239e-06, 7.15116857e-06, -5.99783334e-06,
          8.51718069e-05, 8.57320629e-05, 6.04267334e-05, 4.18861200e-05,
          5.65164919e-05, 7.47936429e-05, 4.88717924e-05, 4.98783484e-05,
          4.75546985e-05, 6.54158139e-05, 5.38998829e-05, 3.72504983e-05,
          6.87246647e-05, 7.28975065e-05, 7.35914073e-05, 1.06671680e-04,
          1.47677747e-05, -4.05014507e-05, -7.71133637e-05,
          -9.87344029e-05, -9.10569870e-05, -8.24124800e-05,
          -8.47402334e-05, -2.33219835e-05, -7.93806321e-05,
          -1.02154001e-04, -1.08778397e-04, -7.70545375e-05,
          -3.02716380e-05, -7.64523429e-06, -6.90687602e-06,
          7.79238144e-06, 7.53084751e-05, 6.78518045e-05, 4.83172917e-05,
          2.28878162e-05, 4.78260990e-05, 3.87837717e-05, 3.46298584e-05,
          1.91639756e-05, 5.97423968e-05, 6.24848471e-05, 5.11644430e-05,
          4.19719836e-05, 1.47133715e-05, 4.27311752e-05, 6.49711656e-05,
          3.47466084e-05, -2.32988059e-05, -5.18858724e-05,
          -6.14654782e-05, -8.63768510e-05, -9.16802965e-05,
          -1.03603481e-04, -9.23482512e-05, -2.32229577e-05,
          -1.01879377e-04, -1.06753658e-04, -8.45531540e-05,
          -9.27787260e-05, -4.75647430e-05, -7.85529028e-06,
          -5.21663787e-06, 2.06707136e-05, 8.48647906e-05,
          6.93475522e-05, 3.81680475e-05, 2.99723852e-05, 4.61252130e-05,
          2.76172614e-05, 5.85078451e-05, 8.00668840e-06,
          -2.66222901e-06, -1.49325824e-05, -1.59442825e-05,
          -3.86544307e-05, -6.13095881e-06, -7.72415206e-06,
          3.57102399e-05, 1.85634253e-05, -5.16684704e-05,
          -7.05886996e-05, -8.61596054e-05, -1.02093545e-04,
          -9.18020014e-05, -9.06405694e-05, -9.54027637e-05,
          -4.33621353e-05, -1.54822221e-04, -1.33270529e-04,
          -1.15276023e-04, -9.37255827e-05, -9.53186973e-05,
          -2.28192857e-05, -3.16540968e-06, 3.70663802e-05,
          5.83928013e-05, 6.40327344e-05, 3.44716027e-05, 4.16417352e-05,
          3.60982158e-05, 3.79643243e-05, 1.99692677e-05,
          -3.17433369e-05, -4.06662257e-05, -3.40179322e-05,
          -2.00438535e-05, -5.02871299e-05, -5.57330932e-05,
          -4.21410077e-05, 5.20972981e-06, -1.05532408e-05,
          -9.04218105e-05, -7.73309730e-05, -9.01842941e-05,
          -1.05434345e-04, -1.03357306e-04, -1.08462955e-04,
          -9.13736440e-05, -9.02070969e-05, -1.90681385e-04,
          -1.70057814e-04, -1.27348467e-04, -1.15782728e-04,
          -8.42145964e-05, -3.04720561e-05, 4.16074636e-06,
          4.11276123e-05, 6.68329376e-05, 9.31498507e-05, 2.46714953e-05,
          2.54229635e-05, 1.90067076e-05, 3.51537092e-05, 5.21516486e-05,
          4.04164712e-06, -1.97835798e-05, -2.02034134e-05,
          -2.96703456e-05, -5.80318883e-05, -5.19564710e-05,
          -3.02497810e-05, -2.13645417e-05, -6.52539966e-05,
          -1.48737541e-04, -6.49451686e-05, -7.98432520e-05,
          -1.05204272e-04, -9.98160540e-05, -1.11090885e-04,
          -8.61937151e-05, -8.72576202e-05, -2.09391408e-04,
          -1.75916881e-04, -1.50152162e-04, -1.51314482e-04,
          -6.78010983e-05, -2.85873539e-05, -1.10460096e-05,
          4.06329382e-05, 6.05783607e-05, 6.15044773e-05, 5.42763446e-05,
          1.60509626e-05, 4.49347535e-05, 5.21278307e-05, 6.13015218e-05,
          6.37854173e-05, 7.87184217e-06, 1.45439990e-05,
          -2.88751352e-07, -3.82964099e-05, -4.97600231e-05,
          -3.42273706e-05, -2.58130240e-05, -6.92842223e-05,
          -1.28817919e-04, -7.13018308e-05, -9.07337890e-05,
          -1.08743065e-04, -1.17931108e-04, -1.15778239e-04,
          -1.03936363e-04, -1.09659741e-04, -2.01182673e-04,
          -2.34089996e-04, -1.96019391e-04, -1.24514350e-04,
          -9.66671578e-05, -8.49812022e-06, 2.56661269e-06,
          5.26173280e-05, 7.16964132e-05, 8.87574934e-05, 3.99675700e-05,
          3.82748549e-05, 5.27512675e-05, 2.66062252e-05, 6.45673572e-05,
          5.64322763e-05, 5.58314896e-05, 6.22983716e-05, 5.80709057e-05,
          2.46689742e-05, -1.96006022e-05, -2.49894529e-05,
          -3.52873503e-05, -6.77601056e-05, -4.52947970e-05,
          -5.25035102e-05, -9.95714436e-05, -1.14333350e-04,
          -1.09900218e-04, -1.09650478e-04, -9.94974398e-05,
          -1.18714386e-04, -2.00951894e-04, -2.10738101e-04,
          -1.78598057e-04, -1.12586888e-04, -4.66783058e-05,
          -8.22366655e-06, -1.11141608e-05, 3.85444073e-05,
          1.28227010e-04, 1.04369021e-04, 7.84440344e-05, 5.19383138e-05,
          4.20167235e-05, 6.98319127e-05, 4.65718622e-05, 6.94577975e-05,
          5.83291476e-05, 4.82739379e-05, 5.14541825e-05, 6.19319908e-05,
          3.92324255e-05, 4.44154866e-05, 3.10526411e-05,
          -9.38073026e-06, -5.55264742e-05, -6.93015463e-05,
          -1.02035658e-04, -1.09039938e-04, -1.05776475e-04,
          -1.11311252e-04, -1.11812849e-04, -1.25828607e-04,
          -2.00480194e-04, -1.83407887e-04, -1.13378876e-04,
          -7.36471775e-05, -1.32184618e-06, -1.12642292e-05,
          9.06286004e-06, 2.94370202e-05, 7.22024488e-05, 8.51699151e-05,
          6.83390244e-05, 7.90219274e-05, 7.41578260e-05, 7.52880514e-05,
          6.46629633e-05, 5.62247369e-05, 7.25157370e-05, 4.52242639e-05,
          3.95182615e-05, 3.80805541e-05, 2.81059347e-05, 1.66760128e-05,
          1.65843830e-05, -6.00301519e-06, -6.04669003e-05,
          -7.65265941e-05, -9.85890583e-05, -1.05896594e-04,
          -1.00010366e-04, -1.10543086e-04, -1.16952724e-04,
          -1.08421482e-04, -2.05407632e-04, -1.84224715e-04,
          -1.44525911e-04, -9.05939378e-05, -1.04230290e-04,
          -1.22682730e-04, -1.04284722e-04, -6.56964694e-05,
          8.05232485e-05, 8.83809480e-05, 1.35815324e-04, 1.23696736e-04,
          1.40487216e-04, 1.35869836e-04, 1.32365109e-04, 1.27662031e-04,
          1.35027673e-04, 9.06641144e-05, 8.04518058e-05, 8.97309219e-05,
          7.74801956e-05, 5.38912354e-05, 4.55190275e-05, 7.83380074e-06,
          -3.99302189e-05, -1.26656945e-04, -1.60276919e-04,
          -1.69792373e-04, -1.97913876e-04, -2.03217031e-04,
          -2.02858369e-04, -1.90799867e-04, -5.59012406e-05,
          -8.47915944e-05, -2.00384729e-05, -4.14094575e-05,
          -5.42160815e-05, -4.56621492e-05, -1.63059431e-05,
          -5.54402250e-05, -1.12508275e-07, -4.52016975e-05,
          -1.88960064e-06, 8.17966429e-06, 1.97887130e-05,
          -1.95834200e-05, -2.57421234e-05, -2.32729526e-05,
          -1.08154163e-05, -1.96433557e-05, -2.43827053e-05,
          -1.70714538e-05, -2.48519700e-05, -1.41534238e-05,
          -3.59404621e-05, -9.34847412e-06, 3.17714475e-05,
          -6.54987816e-05, -1.09256580e-04, -1.36986680e-04,
          -1.45695536e-04, -1.73859429e-04, -1.31864712e-04,
          -1.57128088e-04, 9.16308491e-05, 7.92882638e-05,
          9.24022897e-05, 8.74292600e-05, 7.56457375e-05, 5.81887834e-05,
          7.16349095e-05, 1.76161375e-05, -1.15066956e-04,
          -6.58467325e-05, -1.97919962e-05, 3.49773700e-06,
          -1.13606302e-05, -1.61701735e-06, -1.73943499e-05,
          -1.30584249e-05, -2.74924678e-05, -5.74469450e-05,
          -3.95765564e-05, -4.14110800e-05, -2.51538440e-05,
          -2.98721952e-05, -2.87302664e-05, -5.03823721e-05,
          8.41663350e-05, 7.77654277e-05, 4.53431821e-05, 2.43909162e-05,
          -1.40235124e-05, 3.31516057e-05, 1.94350323e-05,
          -8.32934461e-07, 1.11874717e-04, 1.01296449e-04,
          8.00176058e-05, 8.77714847e-05, 9.50612084e-05, 9.09690134e-05,
          8.97750942e-05, 4.63686338e-05, -1.14024711e-04,
          -4.18148556e-05, 1.11342788e-05, 1.44539695e-06,
          1.36520675e-05, 2.76068586e-05, 4.67870814e-06, 9.07998640e-07,
          -3.17129889e-05, -2.04090757e-05, -2.32823895e-05,
          -2.98313935e-05, -2.59957142e-05, -1.76293870e-05,
          5.20800427e-07, 6.01864485e-06, 1.19904340e-04, 9.20150705e-05,
          5.77253195e-05, 1.94045679e-05, 1.47057053e-05, 1.05855643e-05,
          -3.20304389e-06, 2.45654264e-05, 1.09788387e-04,
          1.04857434e-04, 7.28080122e-05, 7.77969253e-05, 9.31726681e-05,
          9.16850331e-05, 8.00942507e-05, 5.18955349e-05,
          -9.16239806e-05, -3.18859311e-05, 3.00029642e-05,
          1.15973899e-05, 5.01628347e-06, 1.43756042e-05,
          -1.35785956e-06, -3.88793160e-06, -2.27035180e-05,
          -3.42648018e-05, -5.45982730e-05, -4.10066677e-05,
          -2.90728567e-05, -4.64965269e-05, -2.91391934e-05,
          1.11782929e-05, 1.50097258e-04, 9.31462855e-05, 7.85215962e-05,
          4.92585423e-06, 2.86666855e-05, -1.33695812e-05,
          -3.65234314e-06, 2.41297166e-05, 1.13404189e-04,
          1.07294429e-04, 1.21451470e-04, 1.18813885e-04, 1.15419694e-04,
          1.23054619e-04, 9.49594687e-05, 7.27690422e-05,
          -8.14093364e-05, -1.35419996e-05, 1.71821448e-05,
          1.24993085e-05, 6.05491823e-06, 1.58377929e-06,
          -2.16641383e-05, -6.05571768e-05, -4.34996655e-05,
          -3.87351356e-05, -5.24019597e-05, -6.97416181e-05,
          -6.11791911e-05, -6.04493362e-05, -5.40113360e-05,
          -5.90875716e-05, 7.62193522e-05, 7.57746529e-05,
          6.05970090e-05, 2.83934005e-05, 6.73615148e-07, 2.64866758e-05,
          9.69047323e-06, 1.94241011e-07, 9.68050954e-05, 8.56426559e-05,
          1.15637027e-04, 1.01077159e-04, 9.85309234e-05, 1.21067176e-04,
          1.03607643e-04, 7.03105907e-05, -8.55168691e-05,
          -3.73533985e-05, 8.48099535e-06, 1.32477717e-05,
          1.25069937e-05, -9.77505806e-06, -3.39457147e-05,
          -7.82671923e-05, -5.67034404e-05, -6.52379676e-05,
          -8.15558742e-05, -9.89290857e-05, -1.03665043e-04,
          -7.93780491e-05, -8.18549306e-05, -1.07004795e-04,
          2.49643945e-05, 3.60797858e-05, 2.41479811e-05, 5.23447306e-05,
          -4.25874487e-06, 3.67193861e-05, 1.40715947e-05,
          1.59312494e-05, 8.61467270e-05, 7.08198859e-05, 8.46125622e-05,
          6.86088460e-05, 7.85751545e-05, 9.81925914e-05, 9.63870625e-05,
