%YAML:1.0
---
opencv_ml_svm:
   format: 3
   svmType: C_SVC
   kernel:
      type: LINEAR
   C: 1.0000000000000001e-01
   term_criteria: { iterations:1000 }
   var_count: 1024
   class_count: 13
   class_labels: !!opencv-matrix
      rows: 13
      cols: 1
      dt: i
      data: [ 0, 1, 2, 3, 4, 5, 6, 8, 9, 10, 11, 12, 13 ]
   sv_total: 78
   support_vectors:
      - [ 6.86414191e-04, 4.92020452e-04, -3.24303255e-05,
          -1.08703251e-04, -2.11141032e-05, 7.00235760e-05,
          5.48069511e-05, 3.00405954e-05, 1.42655175e-04, 2.55213294e-04,
          2.35518222e-04, 2.05013406e-04, 2.85274058e-04, 3.04253772e-04,
          2.54422659e-04, 1.14441573e-04, 5.49083925e-04, 6.55868498e-04,
          2.68631993e-04, 2.02140276e-04, 4.72278538e-04, 2.83705653e-04,
          -1.58696512e-05, -9.14281463e-06, -1.24175232e-04,
          -2.22792340e-04, -1.09360575e-04, 1.65320307e-05,
          1.69046121e-04, 2.23927236e-05, 1.79669485e-04,
          -2.87011990e-05, 2.13745370e-04, 2.75869359e-04,
          2.68638600e-04, 4.29513602e-04, 5.71663259e-04, 6.71002839e-04,
          5.66312694e-04, 5.05082251e-04, 5.50305704e-04, 6.69174595e-04,
          7.30703352e-04, 6.72011054e-04, 6.52901654e-04, 6.70840091e-04,
          6.68689026e-04, 5.87741437e-04, 5.29659737e-04, 4.83866723e-04,
          4.62681463e-04, 5.20060712e-04, 6.41251565e-04, 6.76648400e-04,
          5.89785515e-04, 3.81336868e-04, 1.95595378e-04, 2.57113774e-04,
          4.49845742e-04, 5.61138499e-04, 6.71128801e-04, 5.53958409e-04,
          6.36858342e-04, 4.81571798e-04, -8.85058325e-05,
          -2.19863636e-04, -1.78466711e-04, -7.40153773e-05,
          4.05438077e-05, 1.31254812e-04, 1.07862172e-04, 1.09160617e-04,
          1.55960326e-04, 8.87964925e-05, 1.01639322e-04, 1.28568805e-04,
          1.07134758e-04, 1.76221256e-05, 2.01417606e-06,
          -9.67170217e-06, -3.76238313e-05, -1.36583112e-04,
          -9.41316030e-05, -1.38667485e-04, -1.19769495e-04,
          3.20509594e-06, 8.16129250e-05, -5.96364298e-05,
          -1.20987810e-04, -9.79488686e-05, -6.67905188e-05,
          -8.90607043e-05, -4.78229013e-05, -7.13586851e-05,
          -3.13519995e-05, -1.44748090e-04, -3.21649422e-04,
          -3.80234938e-04, -3.38782935e-04, -2.17067398e-04,
          -2.00896291e-04, -1.47791478e-04, -1.59773772e-04,
          -1.26642088e-04, -5.52128768e-05, -1.02078957e-04,
          -8.92952012e-05, -5.84248883e-05, 4.29415340e-05,
          -5.42284120e-08, -4.25010403e-05, -1.14465845e-04,
          -1.75761656e-04, -2.36492269e-04, -1.53407367e-04,
          -1.21639110e-04, -1.07839667e-04, -4.39223186e-05,
          2.02828996e-05, -1.21502984e-04, -1.09728418e-04,
          -4.54550172e-05, -4.33258401e-06, -1.10414207e-04,
          -2.05282908e-04, -2.28910110e-04, -2.08145604e-04,
          -2.60044442e-04, -2.50530371e-04, -3.40539118e-04,
          -4.32323664e-04, -1.91346058e-04, -3.94900926e-05,
          -3.65397937e-05, -6.19592174e-05, 2.69522588e-05,
          8.47450719e-05, 6.36736077e-05, 4.48750943e-05, 8.76927061e-06,
          8.81868909e-05, 1.14143491e-04, 9.23688785e-05, 1.05627914e-05,
          -8.98558937e-05, -1.04234226e-04, -1.31815264e-04,
          -1.15821720e-04, -1.26973420e-04, -1.04782681e-04,
          -7.12549809e-05, -9.42524712e-05, -8.07500764e-05,
          -4.79852424e-05, -7.19916079e-06, -9.83903155e-05,
          -1.81707626e-04, -1.91098283e-04, -1.71190899e-04,
          -2.31962767e-04, -2.22782866e-04, -2.47986900e-04,
          -3.46425630e-04, -2.35413376e-04, -2.66507468e-05,
          1.07789565e-05, -4.55644949e-05, 2.00105787e-05,
          7.37898517e-05, 1.69095674e-05, 3.69627123e-05, 8.53943711e-05,
          1.09338398e-04, 1.61557546e-04, 1.38551317e-04, 5.12898696e-05,
          -3.45751650e-05, -6.14671080e-06, -5.69444164e-05,
          -1.11637513e-04, -1.22177997e-04, -1.12539303e-04,
          -1.56598253e-04, -1.63738514e-04, -9.88887550e-05,
          -5.98154293e-05, -3.86961328e-05, -9.18868973e-05,
          -1.52732086e-04, -1.53847868e-04, -1.31044479e-04,
          -2.21844995e-04, -1.62787735e-04, -2.84340756e-04,
          -3.26626672e-04, -2.34689040e-04, -5.26952099e-05,
          -3.09077586e-05, -9.16549743e-06, 9.07695357e-05,
          9.50891335e-05, 9.36514334e-05, 1.04404142e-04, 1.12829970e-04,
          1.31314635e-04, 2.10352388e-04, 2.14643165e-04, 1.47384446e-04,
          6.43643216e-05, -2.29443576e-05, -5.38897475e-05,
          -1.36833900e-04, -1.21994366e-04, -8.13644292e-05,
          -8.92757234e-05, -1.17814161e-04, -1.24446247e-04,
          -8.38747583e-05, -6.52285089e-05, -9.85852166e-05,
          -1.44375343e-04, -1.52510445e-04, -1.31382330e-04,
          -2.01173636e-04, -1.29374486e-04, -2.51983089e-04,
          -2.46787124e-04, -1.60639378e-04, -4.05429346e-05,
          -1.46317516e-05, 6.74776529e-05, 7.53439745e-05,
          6.93323746e-05, 9.12061732e-05, 1.64779442e-04, 1.90916486e-04,
          2.33200204e-04, 2.13870822e-04, 2.09763064e-04, 2.58153625e-04,
          1.37917828e-04, 2.73615842e-06, 3.70798989e-05,
          -4.36624250e-05, -5.29092322e-05, -5.19913192e-05,
          -8.49923381e-05, -1.56636466e-04, -6.02253313e-05,
          -4.87746402e-05, -7.10145323e-05, -8.04975643e-05,
          -8.50944052e-05, -9.11423267e-05, -6.64949766e-05,
          -1.19324795e-04, -2.05794699e-04, -2.67952593e-04,
          -3.12469172e-04, -2.15506807e-04, -9.41685648e-05,
          -4.72712200e-05, -2.52865375e-05, 4.29120155e-05,
          9.90968620e-05, 9.79672695e-05, 1.91330226e-04, 2.60635803e-04,
          2.79963308e-04, 2.42669877e-04, 2.32705002e-04, 2.12066458e-04,
          2.17824752e-04, 1.36902134e-04, 6.88051077e-05, 3.23345193e-05,
          1.68335937e-05, 5.44326122e-06, -4.72905267e-05,
          -5.84567642e-05, -1.16377691e-04, -1.64682933e-05,
          -2.40848331e-05, -2.02349511e-05, -1.10179224e-06,
          3.60317813e-06, -6.78118668e-05, -1.10048510e-04,
          -1.93134445e-04, -2.59414752e-04, -3.50228220e-04,
          -3.04469955e-04, -1.54798705e-04, -9.46565269e-05,
          -5.87708892e-05, 4.14396636e-05, 7.46367077e-05,
          2.77279214e-05, 1.14208582e-04, 2.25335549e-04, 2.81506422e-04,
          2.66026240e-04, 2.30407066e-04, 2.24776988e-04, 2.29958780e-04,
          1.60136406e-04, 9.32074690e-05, 9.41351027e-05, 6.46542758e-05,
          1.55603702e-05, -4.05993014e-05, -5.81231470e-05,
          -4.03678969e-05, -3.38896022e-08, -1.03453849e-05,
          -4.00837826e-06, 7.64226934e-05, 5.52671518e-05,
          -7.45226259e-07, -5.83193614e-05, -1.19550365e-04,
          -2.43285118e-04, -3.75964446e-04, -3.38835409e-04,
          -1.06090047e-04, -4.30927867e-05, -6.32344654e-06,
          4.80602612e-05, 9.22947511e-05, 9.93091476e-07, 3.74413648e-05,
          1.64574303e-04, 1.80363888e-04, 2.19031659e-04, 1.84557532e-04,
          1.43659752e-04, 1.90216975e-04, 1.45371276e-04, 9.06630521e-05,
          8.62554953e-05, 5.11265353e-05, 3.03272063e-05,
          -1.11870906e-06, 2.08459114e-05, 2.91479337e-05,
          2.08971378e-05, 3.15125508e-05, 7.27770166e-05, 9.07511348e-05,
          6.25060493e-05, 3.09931129e-05, -4.66847741e-05,
          -7.78281101e-05, -1.99272967e-04, -3.51928815e-04,
          -3.63521598e-04, -1.55113681e-04, -9.40520549e-05,
          -1.57088234e-05, 6.72666356e-05, 1.26127678e-04,
          4.95530549e-05, 2.84030593e-05, 1.21747260e-04, 1.30854707e-04,
          2.11757986e-04, 2.23142444e-04, 1.36707502e-04, 1.01044076e-04,
          8.16777683e-05, 5.98235420e-05, 2.43679096e-05,
          -2.18710265e-05, -1.16565625e-05, 5.92931883e-06,
          5.76835409e-05, 7.76440938e-05, 4.84405355e-05, 9.87724270e-05,
          1.41599550e-04, 1.31217588e-04, 1.03068225e-04, 6.88641740e-05,
          -1.68097176e-05, -6.15448807e-05, -1.47450934e-04,
          -2.89211457e-04, -3.76720040e-04, -2.13211111e-04,
          -7.06219653e-05, 2.04878561e-05, 1.16103714e-04,
          9.90749977e-05, 5.37702799e-05, 1.54154059e-05, 8.53892852e-05,
          1.08347878e-04, 1.89355196e-04, 2.26328979e-04, 1.55802802e-04,
          8.73176978e-05, 8.02590293e-05, 6.02260407e-05, 3.40686552e-06,
          -3.41188243e-05, -2.23120824e-05, 1.81965947e-06,
          3.99994533e-05, 6.39494174e-05, 5.07310433e-05, 1.42937948e-04,
          1.45360755e-04, 1.67648672e-04, 1.18680946e-04, 7.36527654e-05,
          -2.49556269e-05, 8.84113906e-05, -5.73179423e-05,
          -2.78617372e-04, -3.88655171e-04, -3.09224677e-04,
          -7.83545256e-05, 8.50149518e-05, 1.81483498e-04,
          1.17529125e-04, 8.17565087e-05, 1.73951266e-05, 8.68669376e-05,
          9.49400201e-05, 1.37781477e-04, 1.48363601e-04, 1.43417434e-04,
          1.04457249e-04, 5.47159761e-05, 4.23917254e-06,
          -5.77118626e-05, -5.70128977e-05, -6.26331239e-05,
          -2.98407413e-05, -1.79206418e-05, -4.66040365e-05,
          -3.10118685e-06, 7.51517655e-05, 1.38472271e-04,
          1.67204475e-04, 9.64326173e-05, 6.93856191e-06,
          -1.37540104e-04, 2.11049919e-05, -1.48337465e-04,
          -2.51618534e-04, -2.48450699e-04, -3.01413675e-04,
          -2.01316463e-04, 1.03494358e-05, 1.08416549e-04,
          1.82760676e-04, 1.69322229e-04, 8.66168921e-05, 7.78228932e-05,
          9.12358737e-05, 9.92122805e-05, 9.31107279e-05, 9.59302197e-05,
          1.20042583e-04, 7.68126411e-05, 3.98609955e-05,
          -1.87863297e-05, -1.24947519e-05, -1.63458608e-05,
          -3.77719789e-06, 4.31545232e-06, -2.78854586e-05,
          5.35876643e-05, 6.84556217e-05, 1.67854974e-04, 1.50906490e-04,
          9.62873964e-05, -6.78758124e-06, -1.44905483e-04,
          -5.12834958e-05, -3.02140746e-04, -2.88787909e-04,
          -1.65181365e-04, -2.31971673e-04, -2.43626477e-04,
          -3.14315221e-05, 1.24172657e-04, 1.40807955e-04,
          2.35905842e-04, 1.15744049e-04, 3.40316437e-05, 2.74292433e-05,
          5.29058088e-05, 3.67171306e-05, 6.26415567e-05, 9.67925735e-05,
          1.05947889e-04, 1.13719521e-04, 5.48997014e-05, 5.44769464e-05,
          7.98595283e-06, -2.61171044e-05, -2.35197022e-05,
          2.69360989e-05, 5.58601751e-05, 4.78001930e-05, 1.45937462e-04,
          1.44327263e-04, 8.45500472e-05, 2.12008999e-05,
          -1.34946720e-04, -4.65019220e-05, -3.06913891e-04,
          -2.68610922e-04, -1.72077416e-04, -2.73481564e-04,
          -2.53528822e-04, -6.97038122e-05, 9.58614110e-05,
          1.18847078e-04, 1.59172210e-04, 2.11654697e-04, 7.05824932e-05,
          2.21064147e-05, -2.34845411e-05, -2.56751082e-05,
          4.39027281e-05, 5.83537912e-05, 1.11037523e-04, 8.50734432e-05,
          6.41117949e-05, 3.92804650e-05, 2.81221364e-05,
          -4.78393122e-06, -5.98939332e-05, -4.90712919e-05,
          5.76694629e-06, 9.21944375e-05, 1.33215057e-04, 1.65319885e-04,
          1.37890267e-04, -2.44981875e-05, -1.31803696e-04,
          5.01272734e-06, -3.40503146e-04, -3.55486933e-04,
          -2.12338447e-04, -2.01986535e-04, -2.66305957e-04,
          -1.01344318e-04, 9.29762318e-05, 1.33792084e-04,
          1.48463514e-04, 9.94198926e-05, 5.59494765e-05, 4.19251701e-05,
          -6.35567412e-05, -6.15227618e-05, 3.15499892e-05,
          7.20398384e-05, 1.10476845e-04, 1.21467536e-04, 9.16672943e-05,
          7.73871943e-05, 5.45183357e-05, -3.00931297e-05,
          -6.51239752e-05, -1.36140306e-05, 4.11082074e-05,
          9.58345772e-05, 1.72697197e-04, 1.69098916e-04, 8.23200608e-05,
          -5.71974415e-05, -1.74009780e-04, -2.39553301e-05,
          -3.00853542e-04, -3.51429742e-04, -2.54857208e-04,
          -2.25474374e-04, -2.83937639e-04, -2.10227838e-04,
          -1.15435168e-05, 1.22253783e-04, 1.07537584e-04,
          3.96946780e-05, -3.95519928e-05, -9.86438026e-05,
          -1.07615124e-04, -7.96317545e-05, -2.01694838e-05,
          1.02265083e-04, 1.80443953e-04, 1.44365753e-04, 8.79894505e-05,
          2.87535040e-05, -3.27635389e-05, -3.63183535e-05,
          -4.69885599e-05, -1.72856835e-05, 4.34015965e-05,
          1.12395363e-04, 1.72871427e-04, 1.49872867e-04, 5.17254521e-05,
          -5.71335950e-05, -1.30838118e-04, -2.20252514e-05,
          -2.46846059e-04, -2.93514895e-04, -2.54488725e-04,
          -2.45408097e-04, -2.55605701e-04, -2.59980297e-04,
          -1.02583472e-04, 9.49118476e-05, 6.96680290e-05,
          3.66805284e-06, -7.32295593e-05, -1.67948136e-04,
          -1.69815437e-04, -9.65776562e-05, -8.57941486e-05,
          5.17329208e-05, 6.19905477e-05, 2.92342338e-05,
          -1.14595623e-05, -2.39542369e-05, -2.41793441e-05,
          -3.22602464e-05, -3.45559311e-05, -3.94130948e-05,
          1.69508348e-05, 1.22475554e-04, 1.34484522e-04, 9.90231201e-05,
          5.95640995e-05, -7.25538848e-05, -1.10648260e-04,
          2.51244182e-05, -2.76018400e-04, -3.61978106e-04,
          -2.78543128e-04, -2.21478302e-04, -2.18448637e-04,
          -2.36220265e-04, -1.68000654e-04, -1.52377390e-06,
          1.02722901e-04, 6.04003144e-05, -8.78083156e-05,
          -2.44569412e-04, -2.53328210e-04, -1.04159393e-04,
          -1.42634472e-05, 6.56613629e-05, 1.16941810e-04,
          1.50865482e-04, 1.17232499e-04, 6.47119959e-05, 3.50753107e-05,
          -1.73795052e-05, -6.22931257e-05, -3.13897435e-05,
          3.41385457e-05, 1.21830410e-04, 1.10128094e-04, 6.80861049e-05,
          1.04429191e-05, -9.81586563e-05, -1.59217670e-04,
          1.24267053e-05, -3.15160956e-04, -3.93755676e-04,
          -2.88441341e-04, -1.85587560e-04, -1.64160083e-04,
          -1.91466854e-04, -1.58784082e-04, -8.61107910e-05,
          5.30390935e-05, 1.30273445e-04, 8.45378599e-05,
          -1.57114584e-04, -2.64408707e-04, -1.03751416e-04,
          9.23149055e-05, 1.16642703e-04, 1.49097439e-04, 1.69597624e-04,
          1.16683965e-04, 9.17106445e-05, 3.94933195e-05,
          -1.47517394e-05, -3.46115594e-05, 4.90184402e-06,
          8.08275654e-05, 1.29872526e-04, 1.29038584e-04, 7.55877481e-05,
          9.24112737e-06, -5.17688932e-05, -1.41699536e-04,
          -5.02331641e-05, -3.28987604e-04, -3.45114764e-04,
          -2.83956091e-04, -2.03156756e-04, -1.63736418e-04,
          -1.77992551e-04, -1.06711319e-04, -7.18125884e-05,
          -4.62593707e-05, 1.23987935e-04, 2.13675841e-04,
          9.31815739e-05, 8.45537045e-07, 6.10096322e-05, 2.60186673e-04,
          2.21776630e-04, 2.37338667e-04, 2.14045445e-04, 1.59653209e-04,
          1.47789615e-04, 8.66701957e-05, 4.44571742e-05, 1.58980019e-05,
          2.21862629e-05, 1.16235700e-04, 1.32562491e-04, 1.19551616e-04,
          8.02298455e-05, 5.54031831e-05, -1.71444863e-05,
          -1.13205781e-04, -4.17828742e-05, -2.86446186e-04,
          -2.86676164e-04, -2.94686120e-04, -2.07061341e-04,
          -1.64507233e-04, -1.94517634e-04, -7.63974458e-05,
          -7.24092970e-05, -7.30638421e-05, -2.04983953e-05,
          9.41800026e-05, 1.94551685e-04, 2.91947974e-04, 2.92920828e-04,
          2.93149496e-04, 3.15932237e-04, 2.82692839e-04, 2.04063355e-04,
          1.59091418e-04, 1.78624265e-04, 1.24929327e-04, 4.97901892e-05,
          1.73784647e-05, 2.07155299e-05, 1.32746733e-04, 1.45805505e-04,
          8.98421276e-05, 9.09426089e-05, 1.16618030e-04,
          -2.85909737e-05, -1.36668285e-04, -3.92257789e-05,
          -2.42515103e-04, -2.95911654e-04, -2.48031400e-04,
          -2.08853540e-04, -1.72855172e-04, -1.93940825e-04,
          -1.05187530e-04, -1.01247300e-04, -1.23823178e-04,
          -1.21141333e-04, 3.79944759e-05, 1.73871216e-04,
          2.48221535e-04, 2.71136756e-04, 3.30389186e-04, 3.16409627e-04,
          3.06259375e-04, 1.09798784e-04, -7.87953250e-05,
          2.88221077e-06, 7.90617851e-05, 5.82212670e-05,
          -1.54465106e-05, 9.23519765e-05, 1.00206555e-04,
          1.46964900e-04, 1.23529520e-04, 7.10397871e-05, 2.45989249e-05,
          -3.81917926e-05, -9.80128025e-05, 6.39428399e-05,
          -1.88125923e-04, -2.83577188e-04, -1.92197171e-04,
          -1.43447105e-04, -1.86801481e-04, -2.33938961e-04,
          -1.71598454e-04, -1.21962323e-04, -9.94315633e-05,
          -1.01659629e-04, -4.21859586e-05, -2.09830305e-05,
          5.93046425e-05, 1.05201645e-04, 1.54844674e-04, 2.07232282e-04,
          1.81422394e-04, 1.19383527e-04, 3.51746057e-05, 3.68577057e-05,
          2.65442923e-05, 1.44450530e-06, -2.60281959e-05,
          -5.44292525e-05, 2.86048762e-05, 8.31472498e-05,
          6.38350029e-05, 6.58251010e-05, 2.79229898e-05,
          -5.74540136e-05, -7.97951725e-05, 4.01727957e-05,
          -1.56731810e-04, -2.42970287e-04, -1.67397215e-04,
          -1.34465809e-04, -1.85989993e-04, -2.01719929e-04,
          -1.82121308e-04, -1.59591378e-04, -1.05273568e-04,
          -6.04077068e-05, -3.64415100e-05, -6.43621970e-05,
          -4.65927078e-05, -2.46695581e-05, -5.01701606e-06,
          1.29475147e-05, 3.32724885e-05, 3.28221686e-05, 2.11341521e-05,
          1.29422879e-05, -2.19813901e-05, -7.84261865e-05,
          -7.84570439e-05, 2.24456053e-05, 1.22949350e-04,
          1.08393891e-04, 4.48633145e-05, 1.95559951e-05,
          -3.34756514e-05, -8.07487813e-05, -6.71222442e-05,
          1.07288215e-05, -1.71987442e-04, -2.09520469e-04,
          -2.10697151e-04, -2.07514327e-04, -1.76684465e-04,
          -1.73131353e-04, -2.20685542e-04, -1.72653235e-04,
          -1.26370549e-04, -8.04174051e-05, -7.12818874e-05,
          -9.07167923e-05, -8.93026590e-05, -7.22721452e-05,
          -6.75852425e-05, -1.68650276e-05, 7.87290537e-06,
          1.42931231e-05, 7.54192843e-06, -5.15911825e-06,
          1.10859344e-06, -7.36551328e-06, 1.56046081e-05,
          6.50814036e-05, 1.14767259e-04, 1.39769181e-04, 9.15888450e-05,
          2.49010573e-05, -6.33010568e-05, -1.11859845e-04,
          -1.10217225e-04, 8.02994764e-05, -2.45648000e-04,
          -2.33860992e-04, -1.95363042e-04, -1.85577752e-04,
          -1.34734670e-04, -1.37071853e-04, -1.87608865e-04,
          -9.88836910e-05, -6.30377690e-05, -9.91658089e-06,
          -4.17972160e-06, -2.81970533e-05, -3.75559357e-05,
          -4.22737576e-05, -7.28207015e-05, -2.40196587e-05,
          1.36323142e-05, 5.84564623e-05, 2.74887498e-05, 1.56315837e-05,
          5.19805508e-05, 7.55233123e-05, 9.29040034e-05, 1.07356638e-04,
          8.08148616e-05, 6.49280992e-05, 5.12915722e-05, 1.55870057e-05,
          -3.60580088e-05, -9.51848633e-05, -1.31697205e-04,
          1.03127873e-04, -3.50804708e-04, -3.05591122e-04,
          -2.02537267e-04, -1.64763464e-04, -1.44815960e-04,
          -1.27607971e-04, -1.01852900e-04, -5.57689491e-05,
          -2.91821761e-05, -1.92048428e-05, 1.78149858e-05,
          1.58993157e-06, -1.85173085e-05, -4.34817593e-05,
          -4.21545046e-05, -1.51328650e-05, 1.36287326e-05,
          4.24305472e-05, 6.00907842e-05, 1.09821820e-04, 1.22586629e-04,
          1.08439039e-04, 1.28908257e-04, 1.44937978e-04, 6.91478417e-05,
          4.73325272e-05, 4.29514803e-05, 2.48141569e-05,
          -5.02876628e-06, -7.45926300e-05, -8.64058238e-05,
          1.21144749e-05, -3.20294581e-04, -3.28110094e-04,
          -2.56955711e-04, -2.30604972e-04, -2.52247090e-04,
          -1.98650378e-04, -1.47913335e-04, -9.07170979e-05,
          -8.58583371e-05, -1.09445675e-04, -5.98184743e-05,
          -3.14965109e-05, -2.72918714e-05, -1.21133689e-05,
          9.15583951e-06, -2.42872338e-05, 2.90852745e-06,
          1.49487087e-05, 1.52105158e-05, 3.02945864e-05, 4.90423336e-05,
          4.54578221e-05, 2.35602001e-05, -5.82327357e-06,
          -6.61922968e-05, -5.22804148e-05, -4.58175127e-05,
          -8.74987818e-05, -1.12487811e-04, -1.18641248e-04,
          -1.36512346e-04, -1.73793611e-04, -2.33112078e-04,
          -2.39976609e-04, -2.31684331e-04, -2.24832140e-04,
          -2.56536150e-04, -1.82659162e-04, -1.88060207e-04,
          -1.76720379e-04, -1.85496203e-04, -1.78968301e-04,
          -1.02738777e-04, -7.64555734e-05, -3.44978253e-05,
          6.63143555e-06, 2.34344552e-05, -6.19661150e-05,
          -5.34161118e-05, -3.26932495e-05, 2.90882654e-05,
          1.77657021e-05, -2.71466488e-05, -3.23245367e-05,
          -8.09481571e-05, -7.71037739e-05, -1.52469831e-04,
          -1.32463174e-04, -1.50202395e-04, -2.24831500e-04,
          -2.48746743e-04, -2.00409442e-04, -2.76674255e-04 ]
      - [ 3.50457471e-04, 2.45277071e-04, 4.09515415e-05, 8.08501718e-05,
          1.64952115e-04, 1.85890240e-04, 1.27266860e-04,
          -2.70094952e-05, 6.00449603e-05, 8.53342499e-05,
          8.78237988e-05, 4.96992761e-05, 1.54303139e-04, 1.73492765e-04,
          1.82025702e-04, 1.83140961e-04, 2.88108364e-04, 2.72853154e-04,
          -8.24502931e-05, -1.57990144e-04, -6.37523190e-05,
          -4.53075654e-06, -4.41299562e-05, 6.87111697e-06,
          -4.82666546e-05, -1.56519731e-04, -1.64490804e-04,
          -1.99348520e-04, -1.91997256e-04, -3.75527859e-04,
          -3.71439208e-04, -5.40963199e-04, 1.10644149e-04,
          2.60492117e-04, 3.71091795e-04, 4.44750476e-04, 5.98087965e-04,
          6.20313629e-04, 5.55542065e-04, 4.05967148e-04, 4.11663670e-04,
          4.51461558e-04, 5.01426170e-04, 4.52977838e-04, 4.79051785e-04,
          5.10697835e-04, 5.02749637e-04, 4.69573337e-04, 4.65334015e-04,
          3.83362727e-04, 2.73931364e-04, 2.68222531e-04, 1.70652056e-04,
          1.30967193e-04, 1.67139573e-04, 1.51391316e-04, 4.75250308e-05,
          2.01993262e-05, 6.29381539e-05, 4.81520583e-05,
          -1.14977038e-05, -4.92305662e-05, -1.24444705e-04,
          -4.33691050e-04, -3.93436640e-05, 7.32802800e-05,
          1.21812220e-04, 1.36742805e-04, 2.59742810e-04, 3.06461647e-04,
          2.60619941e-04, 1.80801726e-04, 1.87569312e-04, 1.73061460e-04,
          2.08213009e-04, 2.07356847e-04, 1.74498578e-04, 1.55623784e-04,
          1.49014333e-04, 2.02047464e-04, 1.89169878e-04, 8.50152719e-05,
          1.04634973e-05, -9.37159930e-05, -1.77256967e-04,
          -1.89736951e-04, -1.35768583e-04, -7.03609185e-05,
          -2.36422304e-04, -2.15573644e-04, -1.66043013e-04,
          -2.10876620e-04, -2.86333729e-04, -3.99641518e-04,
          -5.50994941e-04, -7.03169266e-04, -1.98787689e-04,
          5.86633250e-05, 1.08982145e-04, 1.42888472e-04, 2.16024797e-04,
          2.19408117e-04, 2.35556479e-04, 1.60393320e-04, 1.65999038e-04,
          1.56381881e-04, 1.91108804e-04, 1.72511660e-04, 1.71168460e-04,
          1.58138137e-04, 1.57244911e-04, 1.54440335e-04, 9.48529705e-05,
          -9.86074228e-05, -1.89652710e-04, -2.38709632e-04,
          -2.02218536e-04, -1.64425946e-04, -2.00417431e-04,
          -1.56880109e-04, -2.27960059e-04, -2.16808199e-04,
          -2.54273211e-04, -3.45090171e-04, -4.06567677e-04,
          -4.24404687e-04, -4.99212067e-04, -4.25157981e-04,
          -1.14164948e-04, 1.29597276e-04, 1.18471049e-04,
          1.62325377e-04, 2.87112722e-04, 2.38978668e-04, 2.96206708e-04,
          1.88072459e-04, 1.20783370e-04, 1.07292421e-04, 1.46027320e-04,
          1.09269684e-04, 1.72173546e-04, 1.76159199e-04, 1.53738059e-04,
          1.53433230e-05, -9.14625562e-05, -1.60055832e-04,
          -1.04450926e-04, -1.42475590e-04, -1.67236925e-04,
          -1.60018404e-04, -2.24083575e-04, -2.05840479e-04,
          -2.75819591e-04, -1.50971042e-04, -2.43953327e-04,
          -2.90891767e-04, -3.16702615e-04, -3.51557916e-04,
          -3.56260920e-04, -2.32946870e-04, -1.93058455e-04,
          1.28063883e-04, 1.30039392e-04, 1.19827790e-04, 2.72467645e-04,
          3.10565112e-04, 2.73751997e-04, 1.02626866e-04, 1.25127481e-04,
          8.06052340e-05, 1.36564777e-04, 1.17251911e-04, 1.97860427e-04,
          1.43231213e-04, 6.56189295e-05, -9.18053993e-05,
          -7.07887812e-05, -1.01323560e-04, -1.30331537e-04,
          -2.04176802e-04, -2.32564926e-04, -1.73403227e-04,
          -2.02812662e-04, -2.14886240e-04, -1.60695286e-04,
          -5.84138797e-05, -1.26420826e-04, -1.83967539e-04,
          -1.93034764e-04, -2.68604868e-04, -2.84226902e-04,
          -2.01413714e-04, -1.67727951e-04, 1.03664352e-04,
          7.54247085e-05, 2.98540726e-05, 1.49244748e-04, 2.23550436e-04,
          1.71782696e-04, 1.28302781e-04, 8.04223091e-05, 6.75488118e-05,
          1.24488943e-04, 8.16733227e-05, 1.27521314e-04, 8.19955676e-05,
          6.31719158e-05, -1.41283090e-05, -7.94039443e-05,
          -1.35647555e-04, -1.68512081e-04, -1.91145300e-04,
          -1.95807792e-04, -1.40656048e-04, -1.47314160e-04,
          -1.85432335e-04, -9.19206650e-05, -1.29776905e-04,
          -1.18483280e-04, -2.35721454e-04, -2.50572019e-04,
          -2.10433995e-04, -9.08436923e-05, -7.33250781e-05,
          -1.73468870e-04, 6.66932028e-05, 8.21356516e-05,
          4.00536519e-05, 1.80672432e-04, 1.51643515e-04, 3.80511883e-05,
          -7.15447959e-06, -7.61192769e-06, 3.26757727e-05,
          7.77843816e-05, 3.55373231e-05, 7.23758785e-05, 4.96678422e-06,
          2.37855984e-05, 5.80245542e-05, -6.00839412e-05,
          -4.35270449e-05, -1.22500278e-04, -1.99383925e-04,
          -2.39648420e-04, -1.82476433e-04, -1.52477325e-04,
          -1.59114934e-04, -7.20111484e-06, -5.78397958e-05,
          -1.18588607e-04, -1.78513772e-04, -1.79464027e-04,
          -1.91005296e-04, -5.59256405e-05, -2.01189723e-05,
          -1.37237104e-04, 9.38852099e-05, 6.62321472e-05,
          6.80707017e-05, 1.69701787e-04, 1.74995585e-04,
          -2.22495217e-07, -1.44096470e-04, -9.71475529e-05,
          1.96872024e-05, 3.49744478e-05, 7.16169279e-06, 4.84082593e-05,
          2.92101649e-05, 5.09665142e-06, 8.83942175e-06,
          -1.76925300e-06, -3.96205796e-05, -9.32684779e-05,
          -8.83916509e-05, -2.30147882e-04, -1.45466794e-04,
          -1.60917916e-04, -2.83926456e-05, -3.07465270e-05,
          -1.94757686e-05, -1.50932072e-04, -1.23893304e-04,
          -3.61784587e-05, -9.59198951e-05, -5.72013050e-05,
          1.39807810e-06, -1.43631769e-04, 1.05272615e-04,
          1.00961945e-04, 9.41958351e-05, 1.46798164e-04, 8.76458507e-05,
          -3.29146933e-05, -7.28474988e-05, -8.39442146e-05,
          1.57294508e-07, 5.76189923e-05, 3.99225864e-05, 7.57847811e-05,
          3.47976056e-05, 1.28071918e-06, -4.10325592e-05,
          -3.50337614e-05, -1.64965895e-04, -1.88369682e-04,
          -1.34195638e-04, -1.31091685e-04, -8.72896344e-05,
          -9.06349451e-05, -8.20987116e-05, 3.15881625e-05,
          -8.66526989e-06, -9.89819382e-05, -1.23763020e-04,
          -6.93166803e-05, -5.13606210e-05, 2.35320058e-05,
          1.09010070e-04, -1.25967301e-04, 6.06474896e-05,
          4.63037832e-05, 5.91340395e-05, 1.89994855e-04, 1.71371474e-04,
          3.08960966e-06, -7.32014014e-05, -4.29486099e-05,
          3.05684043e-05, 8.27812255e-05, 6.59435027e-05, 9.14085103e-05,
          5.72909048e-05, 5.18212109e-05, -3.16752921e-05,
          -1.87305792e-04, -1.69436360e-04, -1.55156638e-04,
          -1.13271897e-04, -4.76796922e-05, -1.06614440e-04,
          -1.39190670e-04, -2.58568507e-05, 2.98378236e-05,
          -3.60422564e-05, -7.81865165e-05, -1.47661442e-04,
          -7.36669463e-05, 3.68440305e-05, 1.24428421e-04,
          2.11250052e-04, -6.09672024e-05, 1.40593649e-04,
          1.09083776e-04, 9.06721398e-05, 1.29241875e-04, 1.00042227e-04,
          -6.32428191e-06, -4.63505603e-06, -8.17612545e-06,
          1.44435602e-04, 1.44629128e-04, 9.39019883e-05, 7.33302659e-05,
          1.13783362e-05, 3.03798015e-06, -2.05157907e-04,
          -4.54360037e-04, -3.87129112e-04, -2.66972056e-04,
          -9.45740976e-05, -7.20739699e-05, -8.71365191e-05,
          -9.63088678e-05, -2.00629293e-05, 5.71244527e-05,
          -1.99677652e-06, 1.01281048e-05, -8.37495318e-05,
          -4.37449125e-06, 1.17379866e-04, 1.79628085e-04,
          2.74229184e-04, -5.24750576e-05, 2.48256896e-04,
          2.01588424e-04, 1.00859339e-04, 8.31994985e-05, 5.64338297e-05,
          -9.09027858e-06, 2.07946073e-06, -3.50254777e-05,
          2.05565870e-04, 1.56986236e-04, 1.42306235e-04, 1.17976648e-04,
          5.82826215e-05, -2.66132938e-05, -4.18879034e-04,
          -5.48274606e-04, -4.59547999e-04, -2.88141600e-04,
          -7.69905382e-05, -3.86552201e-05, -3.70185699e-05,
          -1.44297628e-05, 5.87124168e-06, 6.11760188e-05,
          4.07126063e-05, 4.38880052e-05, -3.55147495e-05,
          -2.80437098e-06, 6.65618936e-05, 1.61819975e-04,
          2.68391654e-04, 2.70631754e-05, 2.49923469e-04, 8.64887916e-05,
          -1.98896814e-05, 2.25168169e-05, 8.43337693e-05,
          2.18240475e-05, -6.41727165e-05, -7.99083937e-05,
          2.13100211e-04, 1.67114486e-04, 1.98407317e-04, 1.17393734e-04,
          8.08823461e-05, -2.79727537e-05, -4.00941673e-04,
          -4.03882354e-04, -3.17401282e-04, -1.21663594e-04,
          -6.19272541e-05, 2.56759922e-05, -5.36910811e-05,
          3.96177747e-05, 6.97008290e-05, 4.21495715e-05, 3.63358449e-05,
          5.17222434e-05, 2.26021457e-05, 2.48885844e-05, 3.48623871e-05,
          1.44311969e-04, 2.17666951e-04, 8.50831857e-05, 2.30362231e-04,
          8.42615191e-05, 3.73372836e-06, 3.57903809e-06,
          -7.40160203e-06, -3.11644326e-05, -4.34987087e-05,
          -1.56961710e-06, 1.91317216e-04, 2.12572879e-04,
          2.87009607e-04, 1.20811099e-04, 6.59689977e-05, 9.77943546e-06,
          -1.89404658e-04, -1.86178499e-04, -1.27413616e-04,
          4.15646355e-05, 5.12595288e-05, 1.22584664e-04, 9.05585184e-05,
          2.41196598e-04, 1.63726188e-04, 4.26199185e-05, 6.53167226e-05,
          6.49802969e-05, 7.61143601e-05, 7.19359523e-05, 8.19084453e-05,
          1.77381138e-04, 2.45911389e-04, 1.56925780e-05, 1.46147839e-04,
          9.46812143e-05, 5.06996475e-05, -4.80921199e-06,
          -6.99304219e-05, -9.02929241e-05, -2.03751169e-05,
          2.90861362e-06, 2.97683418e-05, 9.36914512e-05, 3.23029672e-04,
          2.16742046e-04, 1.84228964e-04, 1.27899693e-04, 2.21056289e-05,
          4.90954153e-05, 2.02575451e-04, 1.81628449e-04, 1.97354428e-04,
          2.55532155e-04, 2.45956588e-04, 2.43724731e-04, 1.27454929e-04,
          -3.41455634e-05, 4.77091889e-05, 3.24333882e-06,
          -1.91754461e-05, -2.74037739e-05, 2.01866769e-05,
          1.42514211e-04, 2.84281035e-04, -4.01233156e-05,
          -7.22916820e-06, -2.01186140e-05, -5.43276547e-05,
          -9.17131110e-05, -1.36845483e-04, -8.45849281e-05,
          -4.36363807e-05, -2.39469246e-05, -2.59619701e-05,
          1.42773046e-04, 3.42670479e-04, 2.96793180e-04, 2.51102378e-04,
          2.83105182e-04, 1.66253434e-04, 1.13524031e-04, 1.84330856e-04,
          1.25440638e-04, 2.09042861e-04, 2.25824362e-04, 2.76408362e-04,
          2.70503981e-04, 4.03243357e-05, -3.06284055e-05,
          -4.43993777e-05, -2.24124506e-05, -4.35629699e-05,
          -2.01023759e-05, 8.59520151e-05, 1.37156516e-04,
          2.44464522e-04, -1.70328698e-04, -6.68230859e-05,
          -9.71401168e-05, -1.21294237e-04, -1.48983221e-04,
          -1.73185865e-04, -1.92606065e-04, -1.83812779e-04,
          -7.20233802e-05, -4.34436733e-05, 1.28237982e-04,
          4.08683816e-04, 3.06126080e-04, 2.61763373e-04, 3.03139910e-04,
          1.65773075e-04, 1.15849733e-04, 1.32353525e-04, 9.29297530e-05,
          1.79237526e-04, 2.30431251e-04, 2.36163192e-04, 2.65576848e-04,
          6.01440479e-05, 1.66747941e-05, 5.01651739e-05,
          -1.86562538e-05, -5.31489422e-05, -7.10795066e-05,
          -2.85818041e-05, 8.92930620e-05, 1.74408196e-04,
          -2.41862785e-04, -1.07237189e-04, -1.40076183e-04,
          -1.64782614e-04, -2.16994711e-04, -2.54196144e-04,
          -2.79182714e-04, -2.05556949e-04, -1.55760878e-04,
          -2.86547729e-05, 1.32144862e-06, 4.40639677e-04,
          3.24165245e-04, 3.36940051e-04, 4.24884056e-04, 2.23744617e-04,
          1.69834224e-04, 1.75730660e-04, 9.41511171e-05, 2.23479205e-04,
          2.35786822e-04, 2.46080686e-04, 2.55318562e-04, 7.57135276e-05,
          -6.87071079e-05, -3.30401926e-05, -1.22855708e-04,
          -9.43047635e-05, -9.20979292e-05, -1.52350985e-05,
          7.71452396e-05, 1.27834122e-04, -2.93012767e-04,
          -1.38560208e-04, -2.12760540e-04, -3.38021782e-04,
          -3.65614862e-04, -3.21631174e-04, -3.34520475e-04,
          -2.64219037e-04, -2.68872478e-04, -1.18081465e-04,
          -5.30020188e-05, 2.37629356e-04, 2.98406609e-04,
          3.01088410e-04, 3.63886444e-04, 2.41250687e-04, 1.54472655e-04,
          1.85935598e-04, 1.75289708e-04, 2.24374264e-04, 2.07194404e-04,
          2.18087487e-04, 1.99278074e-04, 9.07788417e-05,
          -1.39345211e-04, -1.49768573e-04, -1.68904226e-04,
          -1.20986384e-04, -1.27529391e-04, -4.66983365e-05,
          -1.82810927e-05, 9.41383187e-05, -2.65950104e-04,
          -1.50704538e-04, -2.04417462e-04, -3.14560282e-04,
          -3.24265973e-04, -3.53571988e-04, -4.07384010e-04,
          -3.67800152e-04, -3.09364375e-04, -1.92486579e-04,
          -3.74240044e-05, 1.43386802e-04, 2.40865425e-04,
          2.67242140e-04, 3.10545176e-04, 2.35799205e-04, 1.21154641e-04,
          1.05714804e-04, 1.27243620e-04, 1.11973335e-04, 1.58330557e-04,
          1.75679364e-04, 1.06833373e-04, 5.06426659e-07,
          -1.05207648e-04, -1.41376106e-04, -1.83768425e-04,
          -1.67504884e-04, -1.96979992e-04, -9.16837380e-05,
          -7.59564718e-05, 2.01131952e-05, -2.70942110e-04,
          -1.73619163e-04, -1.72628701e-04, -2.06886121e-04,
          -2.27503158e-04, -3.27096001e-04, -4.02931677e-04,
          -3.56613484e-04, -3.57969635e-04, -1.80941948e-04,
          -3.70423259e-05, 7.71713603e-05, 2.26656543e-04,
          2.32281061e-04, 2.26816555e-04, 2.02358686e-04, 1.07765423e-04,
          7.46016885e-05, 8.24278613e-05, 4.42547716e-05, 7.51631233e-05,
          1.10424218e-04, 5.82802822e-05, -5.73584202e-07,
          -2.04508469e-05, -1.22980535e-04, -2.37925458e-04,
          -1.71332809e-04, -2.09281498e-04, -2.15536667e-04,
          -1.31430585e-04, -1.91095805e-05, -3.20908875e-04,
          -2.60612054e-04, -2.61768437e-04, -2.38050736e-04,
          -2.33614584e-04, -2.98024475e-04, -3.37790698e-04,
          -2.86577590e-04, -2.67222378e-04, -1.49444095e-04,
          -6.53625757e-05, 4.02533951e-05, 7.14787966e-05,
          2.23229174e-04, 1.61915319e-04, 1.88470236e-04, 1.55204048e-04,
          8.86298585e-05, 5.32718950e-05, 4.78825677e-05, 5.12901788e-05,
          1.30424218e-04, 1.04161321e-04, 1.74853467e-05,
          -8.46878393e-05, -1.05242405e-04, -1.45529295e-04,
          -1.84218894e-04, -2.71435216e-04, -2.59039021e-04,
          -1.81432057e-04, -6.03125300e-05, -2.82580440e-04,
          -2.63424154e-04, -2.69118609e-04, -2.27131502e-04,
          -1.99538059e-04, -2.35962245e-04, -2.59900524e-04,
          -1.85185621e-04, -1.57864735e-04, -7.17531802e-05,
          -5.42724993e-05, -1.38904425e-05, -3.12600241e-05,
          1.54607565e-04, 2.65120820e-04, 2.36262902e-04, 1.69506457e-04,
          1.26150218e-04, 7.19515810e-05, 6.99740413e-05, 5.78794425e-05,
          9.18721271e-05, 1.34461065e-04, -9.35119169e-06,
          -7.65660807e-05, -1.07170512e-04, -7.04935956e-05,
          -2.12909348e-04, -2.48946453e-04, -1.58279305e-04,
          -2.01096918e-04, -1.05501385e-04, -3.68120236e-04,
          -3.05095979e-04, -2.67815252e-04, -2.27822398e-04,
          -2.47076445e-04, -2.36863998e-04, -1.92202642e-04,
          -1.39310388e-04, -1.41618671e-04, -1.89372557e-04,
          -1.65185411e-04, -2.18084861e-05, 7.44715799e-05,
          1.26684812e-04, 1.96628826e-04, 2.62290385e-04, 2.88047857e-04,
          2.19636597e-04, 1.46336693e-04, 7.20394819e-05, 6.43254898e-05,
          7.96792374e-05, 1.34901020e-05, -4.35206020e-05,
          -4.80775707e-05, -1.90421633e-05, -3.38256759e-05,
          -9.81573976e-05, -1.10551569e-04, -1.12545218e-04,
          -1.28897373e-04, -2.99661642e-05, -2.75573897e-04,
          -2.98287399e-04, -3.25022527e-04, -2.23034556e-04,
          -1.63784061e-04, -1.43792029e-04, -1.45656915e-04,
          -8.73049939e-05, -6.65605185e-05, -1.20277626e-04,
          -5.25912001e-05, 1.22687197e-04, 1.74560948e-04,
          1.63992576e-04, 1.77151771e-04, 2.12078172e-04, 2.91816599e-04,
          2.52108468e-04, 1.73912311e-04, 1.44666948e-04, 9.72894923e-05,
          -1.32021967e-06, -4.78853035e-05, 1.23665286e-05,
          -7.11180155e-06, -4.04838356e-05, -4.91873398e-05,
          -7.68129103e-05, -6.80664380e-05, -1.05439743e-04,
          -1.80372692e-04, -1.12421578e-04, -3.52783565e-04,
          -3.55405558e-04, -3.33370757e-04, -2.40424066e-04,
          -2.07554142e-04, -1.72196844e-04, -1.07058142e-04,
          -5.89363008e-05, 1.06981215e-05, 5.84997142e-05,
          1.48921652e-04, 2.25361568e-04, 2.38829889e-04, 2.45151605e-04,
          2.15105349e-04, 1.63610835e-04, 1.38612610e-04, 1.40731689e-04,
          1.23740159e-04, 1.38784017e-04, 6.52231101e-05,
          -5.66691997e-05, -7.95391388e-05, -5.20954345e-05,
          -1.10479363e-04, -3.76595308e-05, -3.59658115e-05,
          -1.43268961e-04, -1.82500255e-04, -1.61943040e-04,
          -1.59326140e-04, -1.00029087e-04, -2.95513222e-04,
          -2.76733947e-04, -2.50442943e-04, -2.32751991e-04,
          -1.86634861e-04, -9.88293177e-05, 4.42589626e-05,
          6.74994226e-05, 1.80800955e-04, 2.28693563e-04, 2.55564315e-04,
          2.57495965e-04, 2.65307142e-04, 3.35043005e-04, 3.20134510e-04,
          2.13652689e-04, 1.20428864e-04, 1.04775449e-04, 4.64465847e-05,
          -1.21639050e-05, -8.01203496e-05, -9.90475528e-05,
          -8.78476858e-05, -1.24836894e-04, -1.54501875e-04,
          -1.26131476e-04, -9.15558921e-05, -1.22939469e-04,
          -1.19036980e-04, -8.60907166e-05, -8.95880876e-05,
          -3.15111811e-06, -1.79224997e-04, -1.50997395e-04,
          -1.56136113e-04, -7.21353499e-05, -1.98822527e-05,
          6.43659369e-05, 1.41988014e-04, 1.37283772e-04, 2.21564420e-04,
          2.35716041e-04, 2.60695670e-04, 2.64026225e-04, 2.53784237e-04,
          2.68676813e-04, 2.50855461e-04, 1.95198692e-04, 1.49012616e-04,
          1.05595995e-04, 9.40846894e-06, -9.68492386e-05,
          -1.42639343e-04, -1.11058915e-04, -1.33871756e-04,
          -1.79678464e-04, -1.70751853e-04, -1.71876396e-04,
          -1.64452736e-04, -1.76597707e-04, -1.83429336e-04,
          -1.28830085e-04, -7.09313244e-05, 5.14371095e-05,
          -1.11333429e-04, -3.45392255e-05, -5.33439234e-05,
          2.94283673e-05, 2.25544445e-05, 7.58670794e-05, 1.42296965e-04,
          1.92884356e-04, 1.84848876e-04, 1.74902263e-04, 1.92370993e-04,
          2.17451554e-04, 2.17662004e-04, 2.03917618e-04, 1.86398189e-04,
          2.22259798e-04, 2.44737952e-04, 1.15741481e-04, 1.49231464e-05,
          -2.74767535e-05, -8.26518080e-05, -7.47023150e-05,
          -1.43342724e-04, -1.60941388e-04, -1.36737566e-04,
          -1.72261178e-04, -2.17682929e-04, -2.38248613e-04,
          -2.20743081e-04, -1.14102113e-04, -4.27394625e-05,
          8.77555576e-05, -1.25014863e-04, 2.63631478e-06,
          -2.46323543e-05, 6.23479864e-05, 8.23013397e-05,
          7.94273583e-05, 1.41108714e-04, 2.26939490e-04, 2.32370745e-04,
          2.45193165e-04, 2.43167131e-04, 2.34240069e-04, 2.26082993e-04,
          2.25978991e-04, 2.01156872e-04, 2.57271342e-04, 2.57113919e-04,
          1.23759528e-04, 5.47202144e-05, 2.24496580e-05, 3.59157070e-07,
          -5.18625602e-05, -1.03628532e-04, -9.64946958e-05,
          -2.44620955e-04, -2.60624423e-04, -2.40524008e-04,
          -1.85546494e-04, -2.06278593e-04, -1.69951847e-04,
          -4.24710597e-05, 1.91412706e-04, -2.20750197e-04,
          -9.27423534e-05, -1.27074090e-04, -4.52155218e-05,
          1.19697062e-04, 8.79446598e-05, 1.12561058e-04, 2.09150196e-04,
          1.25762526e-04, 8.10387864e-05, 3.63583167e-05, 6.06460308e-05,
          1.04490726e-04, 1.52688954e-04, 1.04768682e-04, 1.76516201e-04,
          1.21220168e-04, 1.19593904e-04, 7.72138592e-05,
          -4.63975484e-05, -3.80050733e-05, -1.66606376e-04,
          -2.17759676e-04, -1.83090553e-04, -2.62892310e-04,
          -3.18751641e-04, -3.07766517e-04, -3.03992303e-04,
          -2.79648084e-04, -2.15953274e-04, -4.31474800e-05,
          2.03236297e-04 ]
      - [ 2.03036907e-04, 4.28014871e-04, 2.56491243e-04, 2.73343263e-04,
          2.48009484e-04, 1.75577705e-04, 1.91397339e-04, 4.84620941e-05,
          -6.26917245e-05, -6.47082998e-05, 8.02519498e-05,
          -1.60650263e-04, -2.39177883e-04, -2.11749619e-04,
          -1.41912460e-04, -1.15782510e-04, -5.79314219e-05,
          -4.17514229e-06, 1.02028302e-04, 7.26086291e-05,
          5.28214805e-05, -1.57426577e-04, -2.24846081e-04,
          -2.01795847e-04, -2.12703831e-04, -2.10855913e-04,
          -2.02131196e-04, -2.75068945e-04, -3.39215272e-04,
          -3.76978074e-04, -3.25361703e-04, -4.01334284e-04,
          1.86571953e-04, 2.78224616e-04, 2.36182503e-04, 4.28089319e-04,
          3.82484053e-04, 2.38165769e-04, 6.45416148e-05,
          -4.41735501e-05, -2.53653325e-05, 4.33454334e-05,
          2.30404316e-04, 9.47693552e-05, 1.19658660e-04, 1.78989416e-04,
          1.57863004e-04, 1.63978330e-04, 2.04981785e-04, 2.00573995e-04,
          1.98669746e-04, 2.98541592e-04, 2.67682452e-04, 1.87654558e-04,
          1.22477621e-04, -1.52022130e-05, -9.21207538e-05,
          -1.02240308e-04, -1.13122078e-04, -7.36174334e-05,
          -1.48535168e-04, -1.05764040e-04, -1.08345877e-04,
          -2.62840069e-04, -1.35381357e-04, -4.02371043e-05,
          -1.17559946e-04, 3.47708883e-05, 5.36027874e-05,
          -9.27856599e-05, -1.52982117e-04, -5.53691825e-05,
          1.64551930e-05, 8.84766923e-05, 2.51730264e-04, 1.05069637e-04,
          -1.91524259e-06, 3.92159964e-05, -1.95060093e-05,
          -3.71240276e-05, -2.08498000e-06, 5.06400866e-05,
          6.99166048e-05, 1.57553950e-04, 1.36721908e-04, 7.34667992e-05,
          -6.32933325e-06, -9.38127869e-06, -1.42762365e-04,
          -2.16002954e-04, -2.86829716e-04, -2.51241727e-04,
          -1.18215154e-04, 4.45456899e-05, 2.43901036e-06,
          -7.69060134e-05, -2.53541766e-05, 1.27911087e-04,
          1.16345414e-04, 2.24743373e-04, 1.94527180e-04, 3.74226402e-05,
          4.12682493e-05, 2.85241222e-05, 4.99414818e-05, 1.87474972e-04,
          3.19798564e-04, 1.18919721e-04, -5.16441723e-05,
          -4.90076018e-05, -4.55062072e-05, -4.60792580e-05,
          -7.93708095e-05, -1.16842872e-04, -1.45749742e-04,
          -1.14479597e-04, -2.25645522e-06, 3.78944424e-05,
          1.28899774e-05, -6.90551587e-06, -3.54366712e-05,
          -8.29879209e-05, -1.78013797e-04, -1.21398916e-04,
          -2.82513611e-05, 8.13777006e-05, 1.07507083e-04,
          1.96572437e-04, 1.03996455e-04, 1.47220198e-04, 6.43287876e-06,
          1.96760680e-04, 1.29997788e-04, -4.70676241e-05,
          -7.62065538e-05, -1.27593099e-04, 9.77953277e-06,
          2.95235717e-04, 4.01709636e-04, 1.31441135e-04,
          -9.20602542e-05, -1.42165183e-04, -1.11552305e-04,
          -1.73567591e-04, -1.73884066e-04, -2.67037482e-04,
          -2.72109406e-04, -2.45832052e-04, -1.54816953e-04,
          7.44276840e-05, -3.48830326e-05, -1.33436304e-04,
          -1.87853439e-04, -2.08000463e-04, -2.63625989e-04,
          -2.04598211e-04, -6.84622137e-05, -1.95468838e-05,
          9.61854039e-06, 2.34659004e-04, 8.96882921e-05, 1.43240220e-04,
          -5.73017714e-05, 1.51849570e-04, 9.09755363e-06,
          -8.47472547e-05, -5.88852017e-05, -6.41425213e-05,
          1.19478442e-04, 3.26126494e-04, 3.71833652e-04, 2.00199574e-04,
          4.93247899e-05, -4.35981201e-05, -8.45764880e-05,
          -1.92571752e-04, -1.60860945e-04, -2.62954069e-04,
          -3.75244068e-04, -4.02324658e-04, -3.31007410e-04,
          -1.74505709e-04, 1.71951410e-06, -5.49936522e-05,
          -1.05537663e-04, -1.93514803e-04, -1.95961591e-04,
          -1.29949738e-04, 4.30292039e-06, -3.45517001e-05,
          7.55026485e-05, 2.77162006e-04, 2.83082336e-05, 1.04102524e-04,
          -5.51590274e-05, 1.94225373e-04, -1.32415353e-05,
          -8.15908206e-05, -3.86813517e-05, 1.42278031e-05,
          6.68351131e-05, 2.32607985e-04, 2.44094452e-04, 1.71910724e-04,
          5.53921673e-05, -2.11214683e-06, -9.52473129e-05,
          -1.72869113e-04, -2.19179026e-04, -2.13802268e-04,
          -3.24787921e-04, -4.12644236e-04, -3.32894182e-04,
          -2.96507147e-04, -1.11527530e-04, -1.10004257e-05,
          -1.20150798e-04, -2.17418332e-04, -1.86724472e-04,
          -9.22294275e-05, 5.18272136e-05, -1.80699171e-05,
          9.97222742e-05, 2.89837073e-04, 8.82416862e-05, 1.25169507e-04,
          -8.48612690e-05, 2.21235139e-04, 2.35291700e-05,
          -1.24860337e-04, -4.50579355e-05, 1.37074443e-04,
          1.41882192e-04, 2.33886836e-04, 2.55278719e-04, 2.08489175e-04,
          7.92958672e-05, 6.66932683e-05, -6.04085326e-05,
          -1.60182797e-04, -2.64282804e-04, -2.16906672e-04,
          -3.08182352e-04, -3.64886597e-04, -2.35985761e-04,
          -1.61787975e-04, -9.58757519e-05, -2.12951436e-05,
          -9.48356101e-05, -1.82048316e-04, -3.78920449e-05,
          9.48442685e-05, 1.86745572e-04, 4.41408811e-05, 1.47179177e-04,
          2.75374303e-04, 7.36662259e-05, 7.03337282e-05,
          -2.92746972e-05, 2.19520400e-04, 5.37794367e-05,
          -5.66537055e-05, 5.67266325e-05, 1.51627566e-04,
          1.92032501e-04, 2.31728191e-04, 2.42960668e-04, 2.16702159e-04,
          8.87324713e-05, 1.95019311e-04, 1.53153218e-04, 5.53760256e-05,
          -1.47251616e-04, -2.20783986e-04, -2.26962351e-04,
          -2.34452003e-04, -2.46921467e-04, -2.61361245e-04,
          -1.35754657e-04, -7.18900264e-05, 2.98706545e-05,
          -3.29709692e-05, 5.64201146e-05, 1.59456409e-04,
          1.61561344e-04, 6.14797100e-05, 1.45909798e-04, 2.45730160e-04,
          7.81540439e-05, 6.79120931e-05, -1.83195061e-05,
          2.44228024e-04, 9.56521399e-05, -6.13967131e-05,
          6.19284110e-05, 1.76721645e-04, 2.08056896e-04, 2.23757364e-04,
          2.15979540e-04, 2.11714083e-04, 1.16777279e-04, 2.24613672e-04,
          2.12132334e-04, 1.48567196e-04, 2.76757237e-05,
          -1.26201412e-04, -2.68402509e-04, -2.92314246e-04,
          -2.80127308e-04, -2.20613685e-04, -1.35066337e-04,
          3.67349166e-05, 2.53486214e-04, 2.46750336e-04, 2.23083975e-04,
          2.54041486e-04, 2.84661364e-04, 1.84472039e-04, 1.03954699e-04,
          -4.21906443e-05, 1.21517776e-04, 1.08161221e-04,
          1.29220302e-06, 2.43107541e-04, 2.04698707e-04, 2.84810467e-05,
          1.26287676e-04, 2.20920439e-04, 2.16785935e-04, 2.48606113e-04,
          2.51241843e-04, 2.53039878e-04, 8.38016931e-05, 1.83909360e-04,
          2.10343060e-04, 2.34895590e-04, 1.50592910e-04,
          -3.64230473e-05, -2.40318448e-04, -1.68977873e-04,
          -1.11515219e-04, 2.53439357e-05, 4.80241761e-05,
          1.97254121e-04, 3.04265355e-04, 3.68446286e-04, 2.99737876e-04,
          1.79833005e-04, 2.06964716e-04, 1.75848487e-04, 1.63499630e-04,
          4.45867117e-05, 4.31121152e-05, 1.12094713e-04, 3.93637602e-05,
          2.36844731e-04, 2.49909266e-04, 1.00714984e-04, 1.67293940e-04,
          2.25875730e-04, 2.24286632e-04, 2.45272124e-04, 2.40731926e-04,
          1.41154946e-04, 4.70177256e-05, 1.20564597e-04, 9.93330250e-05,
          1.56923357e-04, 1.48284569e-04, 3.07017763e-05,
          -5.85601483e-05, -4.78074180e-05, 5.54179569e-05,
          2.09684062e-04, 2.63797323e-04, 3.39598482e-04, 2.98701256e-04,
          3.44350992e-04, 3.25398578e-04, 2.42188486e-04, 2.47940916e-04,
          1.75165711e-04, 1.59221570e-04, 7.91312705e-05, 3.34845536e-05,
          1.54076683e-04, 4.93610059e-05, 2.61644745e-04, 3.53590556e-04,
          2.87464063e-04, 2.41630769e-04, 2.62604706e-04, 1.41627417e-04,
          1.84512086e-04, 8.78054780e-05, 9.66818116e-05, 6.47810084e-05,
          8.49238277e-05, 8.17397959e-05, 9.93362701e-05, 6.99943339e-05,
          3.74527826e-06, -7.29931999e-05, -1.88359427e-05,
          6.99166776e-05, 1.68852202e-04, 2.10423852e-04, 2.48153490e-04,
          3.42491141e-04, 2.97346269e-04, 2.70298449e-04, 2.36888707e-04,
          2.54053302e-04, 1.63852499e-04, 1.47952946e-04, 4.75448505e-05,
          5.31035439e-05, 1.77318754e-04, 5.19730129e-05, 2.56634085e-04,
          4.46395105e-04, 5.40440727e-04, 4.15287243e-04, 2.85082555e-04,
          1.27688880e-04, 8.98236758e-05, 4.59085495e-05, 1.95775137e-05,
          -1.40644142e-05, 3.75641066e-05, 6.28494017e-05,
          8.82738168e-05, 1.00934951e-04, -2.08692036e-05,
          -9.55622454e-05, -1.87166261e-05, 1.26941959e-04,
          2.09118632e-04, 2.04050782e-04, 2.48242926e-04, 2.46579555e-04,
          2.10497514e-04, 2.28697085e-04, 2.40674737e-04, 2.06922050e-04,
          1.41886980e-04, 1.32463232e-04, 5.10615537e-05, 4.24158752e-05,
          1.63103570e-04, 6.10967836e-05, 1.92281557e-04, 3.31997027e-04,
          5.33472106e-04, 4.60407900e-04, 3.66092019e-04, 1.68776955e-04,
          7.49017345e-05, 2.03554209e-05, -5.92875331e-05,
          -7.98639885e-05, -7.81470153e-05, -1.90706796e-05,
          6.63738047e-06, -9.06556088e-05, -2.53259204e-04,
          -5.07086042e-05, -2.96911312e-05, 4.13730813e-05,
          3.92832590e-05, 7.43022538e-05, 1.14466915e-04, 1.12336558e-04,
          9.03786276e-05, 1.59774921e-04, 2.41156915e-04, 1.91225976e-04,
          9.40730606e-05, 7.64200449e-05, 3.86147221e-05,
          -1.52175426e-05, 8.64937974e-05, 7.05199418e-05,
          1.70975458e-04, 2.40779496e-04, 4.74348897e-04, 4.99011134e-04,
          4.75034554e-04, 1.63294419e-04, 6.70621375e-05,
          -1.51316226e-05, -1.06321677e-04, -1.42388730e-04,
          -8.82670793e-05, -5.23457602e-05, -1.00914818e-04,
          -3.68229084e-04, -1.62775716e-04, -1.34003130e-04,
          -1.37870811e-04, -1.93445612e-05, -1.13835063e-06,
          -1.85109002e-05, 1.20819332e-05, 8.23295486e-05,
          1.93662636e-05, 3.96228415e-06, 1.24993952e-04, 1.56371854e-04,
          5.21817419e-05, 1.47602359e-05, -9.18929873e-05,
          -6.53740426e-05, -2.86410213e-05, 1.06082525e-05,
          2.08614787e-04, 2.42592985e-04, 3.36742640e-04, 4.62220749e-04,
          3.75443924e-04, 1.87508369e-04, 7.00223318e-05, 1.10282226e-05,
          -9.59198151e-05, -1.53424829e-04, -2.04315438e-05,
          -4.17421979e-05, -1.41285709e-04, -1.54640002e-04,
          -8.64790418e-05, -9.46586297e-05, -1.56883136e-04,
          -8.73233002e-05, -2.61913156e-05, -9.08138900e-05,
          -3.11346230e-05, 6.16772013e-05, 2.12590876e-05,
          -4.53809735e-05, 1.08218883e-05, -1.86377074e-05,
          -7.98863912e-05, -3.33765602e-05, -8.77632556e-05,
          -1.28669097e-04, -1.10213987e-04, -1.17810094e-04,
          5.48554199e-05, 1.50975538e-04, 2.79071101e-04, 3.69648129e-04,
          2.54070153e-04, 1.79278475e-04, 1.09478715e-05, 1.44037394e-05,
          -5.48367243e-05, -3.44596083e-05, 1.46599796e-05,
          -7.63333010e-05, -1.43883823e-04, -1.68062485e-04,
          -1.98697147e-04, -1.91215338e-04, -2.14058193e-04,
          -1.41878161e-04, -1.23927239e-04, -2.09515259e-04,
          -1.32579036e-04, -1.20905343e-05, 8.61112881e-07,
          7.84709482e-06, 4.37323797e-05, -6.79215518e-05,
          -9.90393892e-05, -3.06541842e-05, -8.39965360e-05,
          -1.64540354e-04, -1.52022883e-04, -1.76998525e-04,
          1.65217989e-05, 1.41333716e-04, 2.34735213e-04, 3.08749528e-04,
          2.53410661e-04, 2.01787858e-04, 5.84426853e-05, 1.82515469e-05,
          -3.74011324e-05, 4.93956577e-05, -2.84493781e-05,
          -1.01510952e-04, -1.83218683e-04, -1.45322527e-04,
          -1.52988447e-04, -1.26366198e-04, -2.26712858e-04,
          -1.78833070e-04, -2.05101722e-04, -2.64160277e-04,
          -2.30610050e-04, -1.12481204e-04, -7.37908704e-05,
          -2.57608226e-05, -8.42551344e-06, -1.24514874e-04,
          -1.18803429e-04, -7.78270187e-05, -2.34304374e-04,
          -2.35692190e-04, -2.06680561e-04, -2.23098657e-04,
          -5.76911370e-05, 8.97799473e-05, 1.71434338e-04,
          1.59513686e-04, 1.41450146e-04, 5.68756041e-05, 6.74884795e-05,
          -4.14215428e-05, -5.66641065e-05, 1.58983266e-06,
          -6.97825453e-05, -1.07708140e-04, -2.26861303e-04,
          -2.21995564e-04, -1.51426560e-04, -1.13284434e-04,
          -1.95233268e-04, -1.87067839e-04, -2.24687465e-04,
          -2.58689077e-04, -2.05665594e-04, -1.99811955e-04,
          -1.54248759e-04, -6.27319096e-05, -7.93512445e-05,
          -1.67094011e-04, -1.43056779e-04, -1.40658696e-04,
          -2.71442521e-04, -1.78138202e-04, -1.57680290e-04,
          -2.02343537e-04, -8.20580171e-05, 9.52769624e-05,
          2.03306976e-04, 1.17357748e-04, 2.61533205e-05,
          -4.77488038e-06, 5.82345383e-05, 2.31723288e-06,
          3.80151459e-06, -3.84064115e-05, -9.84035796e-05,
          -1.89874918e-04, -3.24752793e-04, -2.24012998e-04,
          -1.79019509e-04, -1.84485936e-04, -1.91172760e-04,
          -2.15982727e-04, -2.71600060e-04, -2.79540778e-04,
          -2.80887529e-04, -2.27958895e-04, -2.00282986e-04,
          -1.30224566e-04, -1.92031672e-04, -2.03055824e-04,
          -1.70317959e-04, -1.78288537e-04, -2.30247359e-04,
          -2.73583719e-04, -2.64991482e-04, -3.15077516e-04,
          -1.68636689e-04, 3.24241569e-06, 1.63029137e-04,
          9.45355059e-05, 2.25518716e-06, 1.16302799e-05,
          -1.97658505e-06, -3.51274648e-05, 4.65863086e-05,
          -1.23416481e-04, -1.55036236e-04, -2.42598966e-04,
          -3.04137706e-04, -2.01258124e-04, -2.31904312e-04,
          -2.67986063e-04, -2.23037612e-04, -1.57893446e-04,
          -2.08089448e-04, -1.81094510e-04, -2.25545882e-04,
          -1.89819140e-04, -2.17120483e-04, -2.30859427e-04,
          -2.65139039e-04, -2.60637200e-04, -2.85328832e-04,
          -2.63078342e-04, -2.73484737e-04, -3.66535416e-04,
          -3.37806501e-04, -3.76208307e-04, -1.68029015e-04,
          -3.84677587e-05, 1.17017422e-04, 1.05804051e-04,
          6.84481492e-05, -1.08661641e-06, -5.92788892e-05,
          -1.16970594e-04, -5.35712434e-06, -8.76075064e-05,
          -1.09121982e-04, -8.17279870e-05, -8.23541777e-05,
          -1.05279287e-04, -1.88207559e-04, -2.53981678e-04,
          -1.59884876e-04, -4.69910337e-05, -1.47611543e-04,
          -1.21301127e-04, -1.82307165e-04, -1.65209072e-04,
          -2.42869704e-04, -3.02925182e-04, -2.74910970e-04,
          -2.41542773e-04, -2.93449819e-04, -2.62019574e-04,
          -2.85707676e-04, -3.13427183e-04, -3.05018650e-04,
          -3.63289175e-04, -1.14117574e-04, 6.17444239e-05,
          2.11392166e-04, 2.05895078e-04, 2.17830107e-04, 1.88904669e-04,
          1.30706743e-04, 2.18267287e-05, 5.05974131e-05, 5.46683395e-06,
          -9.10582730e-06, 1.82975673e-05, -3.16767691e-05,
          -5.45028524e-05, -6.01436659e-05, -1.34693633e-04,
          -2.91006781e-05, 2.34903782e-05, -8.90584270e-05,
          -1.04234263e-04, -2.18871486e-04, -2.34276711e-04,
          -3.10176489e-04, -3.29531322e-04, -2.92918383e-04,
          -2.73159996e-04, -2.34620966e-04, -2.10207800e-04,
          -2.73147452e-04, -3.04853864e-04, -2.85761402e-04,
          -2.96706799e-04, -8.76962986e-06, 7.78296380e-05,
          1.55947157e-04, 2.28380290e-04, 2.51964579e-04, 2.13652878e-04,
          9.82062629e-05, -2.35777043e-05, 2.62815520e-05,
          4.61297459e-05, 3.93093615e-05, 2.02370466e-05, 2.87620132e-05,
          2.77143445e-05, 4.95659551e-05, -7.91325238e-06,
          -5.79287153e-05, -1.18120464e-04, -1.02256992e-04,
          -9.33507981e-05, -1.08513799e-04, -2.36363951e-04,
          -2.92354380e-04, -3.51419207e-04, -3.00727901e-04,
          -2.53851671e-04, -2.83876288e-04, -2.21394948e-04,
          -2.54269340e-04, -2.09743041e-04, -1.74628149e-04,
          -2.48290598e-04, 9.15325836e-06, 1.00656223e-04,
          2.20307542e-04, 2.85562506e-04, 2.94545491e-04, 2.49450241e-04,
          2.04463155e-04, 1.63266348e-04, 1.43762387e-04, 1.40399177e-04,
          1.38372154e-04, 6.46018816e-05, 5.60580593e-05, 8.25893731e-05,
          6.10031384e-05, 3.37800993e-05, -2.33091396e-05,
          -6.10076786e-05, -1.36480070e-04, -1.33631125e-04,
          -1.67941282e-04, -2.29414189e-04, -2.39094908e-04,
          -2.67236348e-04, -2.36130596e-04, -1.91298910e-04,
          -1.87829093e-04, -1.21174460e-04, 3.33090502e-05,
          -2.08069629e-04, -1.27586041e-04, -1.47396277e-04,
          1.27579406e-04, 1.68795144e-04, 2.21226175e-04, 2.47728574e-04,
          2.61882757e-04, 3.29571252e-04, 2.79061001e-04, 2.55365652e-04,
          1.93920161e-04, 2.00330600e-04, 1.56730894e-04, 8.92747776e-05,
          1.33125475e-04, 1.19929107e-04, 1.11600020e-04, 9.52286646e-05,
          2.85351089e-05, -1.84640994e-05, -1.08600965e-04,
          -1.24243117e-04, -1.90742081e-04, -2.34099411e-04,
          -2.24484698e-04, -2.08156111e-04, -1.73603199e-04,
          -1.26829822e-04, -1.36698218e-04, -4.63298893e-05,
          1.62517812e-04, -1.65463411e-04, -1.03524202e-04,
          -5.88423900e-05, 1.92835287e-04, 1.72943692e-04,
          2.04249940e-04, 2.15684617e-04, 2.71000055e-04, 3.14773497e-04,
          3.68462905e-04, 2.96719547e-04, 2.92641635e-04, 3.00907675e-04,
          1.89013430e-04, 1.92664374e-04, 2.43287461e-04, 7.78342219e-05,
          7.55983201e-05, 7.10122913e-05, 1.20070712e-04, 3.13289456e-05,
          -7.87535537e-05, -1.08265573e-04, -1.30985456e-04,
          -2.03119955e-04, -2.41779315e-04, -2.22805669e-04,
          -2.25601820e-04, -2.07225967e-04, -2.57994892e-04,
          -1.43853933e-04, 4.75001361e-05, -1.79252966e-04,
          -1.55995964e-04, -6.98264121e-05, 1.74977831e-04,
          2.17631488e-04, 2.75425351e-04, 3.07327398e-04, 3.30546609e-04,
          2.59897555e-04, 3.44008236e-04, 3.08308954e-04, 2.96801387e-04,
          3.51055205e-04, 2.95545586e-04, 2.96977320e-04, 2.61238194e-04,
          2.06470373e-04, 2.41395624e-04, 1.74865389e-04, 1.56447204e-04,
          4.82887444e-05, 9.12930955e-06, -3.27178896e-05,
          -1.15422881e-04, -2.14648142e-04, -2.51679361e-04,
          -2.26487522e-04, -1.89502200e-04, -1.45801721e-04,
          -2.00432434e-04, -1.02807695e-04, 5.19113783e-05,
          -1.73358167e-05, -6.81947713e-05, -1.12413159e-06,
          2.35304804e-04, 3.03420326e-04, 3.43690073e-04, 3.82640894e-04,
          3.77843098e-04, 3.45600187e-04, 4.03380574e-04, 3.93099792e-04,
          3.99790064e-04, 4.00721183e-04, 4.08149644e-04, 3.65993415e-04,
          3.54927994e-04, 4.06110135e-04, 3.72821611e-04, 2.91276985e-04,
          2.47946999e-04, 1.41087003e-04, -2.16297467e-05,
          -9.10140443e-05, -1.24477505e-04, -2.60776054e-04,
          -2.77097919e-04, -1.88929800e-04, -1.40546472e-04,
          -8.41559522e-05, -1.81475014e-04, -9.62537670e-05,
          1.19154196e-04, 2.36705149e-04, 1.10800836e-04, 1.08655186e-04,
          2.46945623e-04, 3.22730688e-04, 2.91526085e-04, 3.87721811e-04,
          3.95470444e-04, 4.54845547e-04, 4.73843887e-04, 4.23534104e-04,
          4.41696990e-04, 4.36752278e-04, 3.81658581e-04, 3.55828350e-04,
          3.62082734e-04, 3.59933620e-04, 3.74730123e-04, 2.92739744e-04,
          2.18810586e-04, 1.63140721e-04, 8.05202289e-05, 1.40726706e-05,
          -6.66197302e-05, -1.91540123e-04, -1.08275824e-04,
          7.04343547e-05, 3.64504376e-05, 2.53736634e-05,
          -5.77809515e-05, -2.56857084e-06, 2.48301600e-04,
          3.04259265e-05, -3.00108295e-05, 2.98935101e-05,
          1.11371744e-04, 2.28991034e-04, 1.86073303e-04, 2.72101490e-04,
          2.57314125e-04, 2.21622147e-04, 3.39998485e-04, 2.79445958e-04,
          2.54735845e-04, 2.10858751e-04, 1.78392627e-04, 1.41037002e-04,
          1.29849723e-04, 1.21492849e-04, 1.67049686e-04, 9.93324138e-05,
          6.16606485e-05, 2.92038840e-06, -4.86016288e-05,
          -1.39663636e-04, -2.23141426e-04, -3.03753332e-04,
          -2.27587254e-04, -1.83986864e-04, -1.98662063e-04,
          -2.10719896e-04, -2.65904586e-04, -1.86540841e-04,
          9.83640493e-05 ]
      - [ 1.34047630e-04, -1.14606039e-04, -2.98415718e-04,
          -1.53998699e-04, -5.70723350e-05, 1.13054364e-06,
          -3.21235639e-05, -1.70593514e-04, -1.23944395e-04,
          -1.07320084e-04, -1.30222979e-04, -1.82277770e-04,
          -1.60164011e-04, -3.85301864e-05, 2.67969081e-05,
          -5.05124663e-05, 2.66556803e-04, 2.73597630e-04,
          -8.68139978e-05, 1.80468924e-05, 2.17963665e-04,
          2.01984003e-04, 3.09255593e-05, 9.70187830e-05, 1.11970490e-04,
          6.99824568e-06, 5.68425385e-05, 1.36621311e-04, 2.84839945e-04,
          2.57074862e-04, 1.93972533e-04, 7.34737332e-05, 9.39481833e-05,
          2.10811428e-04, 1.59826523e-04, 1.33993526e-04, 2.18338129e-04,
          2.12971208e-04, 1.27066931e-04, -1.73783465e-05,
          3.39274920e-05, 5.73867401e-05, 1.33356043e-05, 5.23789895e-05,
          -4.41508600e-05, -5.13846753e-05, -1.12066855e-05,
          6.01621141e-05, 8.72541277e-05, 3.18182429e-05,
          -2.67735359e-05, 8.19938650e-05, 1.13291731e-04,
          1.49689353e-04, 1.63077988e-04, 2.52235361e-04, 1.28467058e-04,
          1.20974502e-04, 2.60192959e-04, 2.72330100e-04, 3.93420778e-04,
          2.92550074e-04, 1.72226879e-04, 2.00566910e-06, 1.41352342e-04,
          7.30328684e-05, 2.75996252e-04, 3.28033260e-04, 2.25756565e-04,
          1.83897311e-04, 2.13200634e-04, 1.85577999e-04, 1.75182504e-04,
          1.05927589e-04, 1.07277730e-04, 1.44123376e-04, 8.48774289e-05,
          -8.27105032e-05, -6.27651680e-05, 1.07034262e-04,
          1.57407136e-04, 1.10770932e-04, 9.84592334e-05, 8.44750684e-05,
          9.85690785e-05, 1.23962236e-04, 1.47608240e-04, 2.40957423e-04,
          9.31618415e-05, 1.40347212e-04, 1.54436377e-04, 1.14856943e-04,
          2.96741637e-04, 2.75856699e-04, 2.18756453e-04,
          -5.83405126e-05, 2.77767656e-04, -9.94598395e-06,
          2.04853248e-04, 2.01285817e-04, 1.40117918e-04, 6.08215669e-05,
          1.06406900e-04, 6.43405656e-05, 3.46593624e-05,
          -4.10684515e-05, -1.55840153e-05, -5.61225388e-05,
          5.47561683e-07, -1.27149062e-04, -1.83101190e-04,
          -1.06135980e-04, -8.89663061e-05, -8.43403759e-05,
          -6.05348687e-05, -3.33938333e-05, 3.31312403e-05,
          -1.71390493e-05, 2.77016879e-05, 5.09971615e-05,
          -3.91607427e-05, 1.56475235e-05, -5.72708359e-07,
          -1.25892955e-04, -1.90985775e-05, 5.54974795e-05,
          1.26170009e-04, -1.16716335e-04, 2.50749465e-04,
          -1.03682192e-04, 1.07414264e-04, 1.78563889e-04,
          1.87809113e-04, 1.38442687e-04, 8.45934410e-05, 4.89180275e-05,
          1.21181156e-05, -9.91167253e-05, -9.16671270e-05,
          -1.81883908e-04, -1.15137358e-04, -1.09597189e-04,
          -8.20494097e-05, -8.61164008e-05, -7.73509746e-05,
          -9.51939801e-05, -1.09850283e-04, -2.43382437e-05,
          -1.50363421e-05, -1.04691571e-04, -8.47357733e-05,
          -8.67464259e-05, -6.54983160e-05, -7.27538863e-05,
          -2.97432507e-05, -1.00897327e-04, -1.77482561e-05,
          9.04522312e-06, 1.39671902e-04, -5.83340698e-05,
          1.73517183e-04, -8.72255841e-05, 6.95364288e-05,
          1.29466280e-04, 1.28641841e-04, 1.47279949e-04, 8.64616231e-05,
          2.10331427e-06, -4.58932773e-05, -1.33215566e-04,
          -1.58139796e-04, -2.06582161e-04, -1.65653270e-04,
          -4.42637756e-05, 6.87764696e-05, -1.57833128e-05,
          6.73945106e-05, 1.19247547e-04, 4.36974660e-05,
          -3.33873395e-05, -3.85205021e-05, -6.77874850e-05,
          -1.04480336e-04, -1.29680921e-04, -1.10113157e-04,
          -1.24261496e-04, -9.86309533e-05, -1.30202141e-04,
          -3.27243433e-05, -1.77543716e-05, 1.85383178e-04,
          -4.66994825e-05, 5.07602163e-05, -1.84501609e-04,
          -8.55496255e-05, -3.20800245e-05, 5.42232046e-05,
          1.55654143e-05, 1.04543142e-04, 4.93843836e-05,
          -9.50451795e-05, -1.26081140e-04, -9.33412521e-05,
          -2.17945519e-04, -8.30944628e-05, 1.52820183e-04,
          1.74328336e-04, 7.21344186e-05, 3.62251121e-05, 1.24876387e-04,
          1.54564521e-04, 5.70162156e-05, 2.72833222e-05, 3.78226537e-06,
          -4.39889409e-05, -2.11419465e-04, -1.60691707e-04,
          -1.62700555e-04, -1.71269581e-04, -2.51299905e-04,
          -1.14890572e-04, -1.49187435e-05, 2.13312858e-04,
          -5.64968395e-05, 1.77267520e-05, -1.50455176e-04,
          -4.76450223e-05, -1.02912527e-05, 5.32599479e-05,
          4.03102567e-05, 8.23259397e-05, 9.57264277e-08,
          -5.76367856e-05, -6.38757992e-05, 3.78151926e-05,
          -6.59861962e-06, 1.58511830e-04, 2.16654837e-04,
          1.63842167e-04, 2.71109457e-05, 2.27572091e-05, 1.15231960e-04,
          1.61582444e-04, 1.95619941e-04, 1.39870637e-04, 3.76416865e-05,
          -5.32219055e-05, -2.41104048e-04, -1.59644886e-04,
          -1.51362998e-04, -1.70379848e-04, -2.31148413e-04,
          -9.15409109e-05, 2.15657328e-05, 2.75542814e-04,
          1.14442621e-04, -2.86622890e-05, -2.53026170e-04,
          -8.15024032e-05, -1.37135103e-05, 4.20539691e-05,
          1.01366466e-04, 6.77949356e-05, -2.45848623e-05,
          -1.68978204e-05, 3.63430299e-05, 1.13293572e-04,
          1.62522541e-04, 2.35572472e-04, 2.03582997e-04, 2.19605237e-04,
          1.43650381e-04, 1.35583090e-04, 8.60456421e-05, 1.42598292e-04,
          1.82415475e-04, 9.01289895e-05, 1.49077998e-04, 1.33987960e-05,
          -6.44868560e-05, -2.03137984e-04, -5.88339171e-05,
          -2.10280734e-04, -7.31332038e-05, 1.14826777e-04,
          1.73978144e-04, 3.20196297e-04, 2.11090824e-04,
          -2.24252744e-05, -2.38543449e-04, -1.29790569e-04,
          -3.51353788e-06, 8.77859691e-07, -4.89970407e-05,
          -3.45198750e-05, 1.97729576e-04, 1.35206865e-04,
          6.69141227e-05, 1.97036803e-04, 1.75248657e-04, 1.47699684e-04,
          1.26061073e-04, 1.55452959e-04, 2.07910183e-04, 2.41404268e-04,
          1.66725687e-04, 2.30628604e-04, 2.59537454e-04, 1.43986123e-04,
          1.80906485e-04, 3.25911169e-05, -6.43042367e-05,
          -7.96442255e-05, -3.69950340e-06, -9.42401166e-05,
          1.65769125e-05, 1.73059540e-04, 2.47167656e-04, 4.44899488e-04,
          3.29355011e-04, -1.90484017e-04, -2.83115747e-04,
          -2.30679245e-04, -1.29896303e-04, 5.61002307e-05,
          8.59721913e-05, 8.24947056e-05, 2.09680555e-04, 1.16802868e-04,
          1.72007320e-04, 2.18105502e-04, 1.81909578e-04, 2.00576353e-04,
          1.88793972e-04, 1.54733862e-04, 1.88503778e-04, 2.75324914e-04,
          2.90952070e-04, 3.93712573e-04, 3.54069780e-04, 2.70731660e-04,
          2.29182027e-04, 1.24898143e-04, 5.75675367e-05,
          -3.47322130e-05, -5.59633227e-05, 3.41848281e-05,
          9.17125799e-05, 2.25238444e-04, 2.79716856e-04, 4.34615853e-04,
          2.89189426e-04, -2.36998982e-04, -1.92939100e-04,
          -7.79024413e-05, -4.57110655e-05, -2.80177246e-05,
          3.63123982e-05, 8.44524257e-05, 8.35724350e-05, 8.93075776e-05,
          1.91719490e-04, 2.15479347e-04, 2.51269346e-04, 2.66265124e-04,
          2.42359034e-04, 1.99190443e-04, 2.77215324e-04, 2.84726731e-04,
          2.92421202e-04, 4.02334990e-04, 4.10752225e-04, 2.83990987e-04,
          3.01047374e-04, 2.12471728e-04, 1.62933982e-04, 1.09209177e-04,
          -1.14838491e-04, 9.24365668e-05, 1.37684649e-04,
          2.62540794e-04, 3.45670123e-04, 4.58281545e-04, 2.71032768e-04,
          -3.49051144e-04, -1.84313190e-04, -3.25653855e-05,
          -1.37991970e-04, -7.88401449e-05, 2.20250240e-05,
          7.00881646e-05, 1.66538175e-05, -1.83181419e-05,
          1.20641685e-04, 2.45481002e-04, 3.36178869e-04, 4.00386692e-04,
          4.47773986e-04, 4.46957885e-04, 4.22945712e-04, 3.83088307e-04,
          3.33535572e-04, 3.52571107e-04, 3.21088766e-04, 3.01096967e-04,
          3.39449209e-04, 2.60510278e-04, 2.47535354e-04, 2.28689853e-04,
          -4.09864469e-06, 1.06037129e-04, 1.16180818e-04,
          1.50713924e-04, 2.11572493e-04, 3.98589385e-04, 2.06312747e-04,
          -2.42029928e-05, -6.38405691e-05, -9.82465135e-05,
          -2.79132830e-04, -9.55932410e-05, 1.27261155e-04,
          4.62144963e-05, -3.50037226e-05, -1.00428151e-04,
          4.81996685e-05, 1.14755283e-04, 2.62801128e-04, 3.71673261e-04,
          4.34447778e-04, 4.77924157e-04, 5.20025031e-04, 4.83184296e-04,
          3.12113116e-04, 2.38052628e-04, 1.66039026e-04, 1.80578718e-04,
          3.01274878e-04, 2.61966255e-04, 2.06915487e-04, 1.44297417e-04,
          7.06988658e-06, -7.00859664e-06, 6.30723007e-05,
          1.18481817e-04, 1.68290208e-04, 3.20132414e-04, 1.16594725e-04,
          1.30485379e-04, -7.62753625e-05, -1.22865313e-04,
          -9.20544844e-05, -1.51498512e-06, 1.18638302e-04,
          -4.92331935e-07, -8.18788685e-05, -1.42244701e-07,
          6.35192773e-05, 6.14195378e-05, 1.72553773e-04, 1.84183591e-04,
          2.56614003e-04, 3.16786929e-04, 4.61355667e-04, 4.70996427e-04,
          2.59677327e-04, 1.97979651e-04, 1.16364521e-04, 2.24578078e-04,
          3.21782456e-04, 2.75799772e-04, 1.81374475e-04, 6.06454996e-05,
          -2.66791358e-05, -8.31139914e-05, 8.34330713e-05,
          1.53293469e-04, 2.06143697e-04, 3.14595207e-04, 1.16651623e-04,
          1.15978903e-04, -2.21640745e-04, -2.35228208e-06,
          2.05470587e-05, 1.36896357e-04, 9.49207752e-05,
          -9.99837430e-05, -6.63675746e-06, -4.74180197e-05,
          -2.68081931e-05, -1.73867011e-05, 1.26280604e-04,
          1.58059323e-04, 2.90655094e-04, 3.93979601e-04, 5.38861728e-04,
          5.78000385e-04, 3.53364245e-04, 2.56702973e-04, 1.85218232e-04,
          2.30770427e-04, 2.52063328e-04, 2.27774653e-04, 1.36339091e-04,
          -4.54043075e-05, -9.70971887e-05, -1.57997987e-04,
          6.76838827e-05, 7.96178356e-05, 7.32104818e-05, 2.44755589e-04,
          6.00675412e-05, -1.06975473e-04, -2.53422477e-04,
          -2.07677567e-05, 1.14875766e-04, 1.63431876e-04,
          1.38671268e-04, -9.35920034e-05, -3.52946481e-05,
          -8.26219184e-06, -6.27846312e-05, 3.82760618e-06,
          -1.89642251e-05, 9.19942395e-05, 1.67050253e-04,
          2.64273433e-04, 3.85575782e-04, 4.41668206e-04, 3.34665878e-04,
          9.47693406e-05, 7.02966936e-05, 1.13559552e-04, 1.33501337e-04,
          1.31985362e-04, 4.61110940e-05, -4.36986302e-05,
          -2.04420096e-04, 8.93708057e-06, 1.08752734e-04,
          3.89570268e-05, 1.12777205e-04, 1.87617828e-04, 1.45122860e-04,
          -5.65434573e-04, -3.10831063e-04, -9.09890605e-06,
          1.15900206e-04, 1.45046099e-04, 1.83045369e-04,
          -5.58843785e-05, -5.81571621e-05, 5.46721640e-06,
          -9.97802199e-05, -6.18167251e-05, -5.65531300e-05,
          -2.28158406e-05, -2.97544484e-05, 9.75643634e-05,
          2.19834299e-04, 3.25901696e-04, 1.36299917e-04,
          -5.35559302e-05, -6.42369400e-07, 8.55951876e-05,
          7.48522070e-05, 1.06554464e-04, 8.36492327e-05, 1.65961137e-05,
          -4.24987365e-06, 2.34308773e-05, 7.16846043e-05,
          -3.47230052e-05, 3.24525172e-05, 2.02949508e-04,
          4.18520103e-05, -7.30844913e-04, -3.32479802e-04,
          -1.77541642e-05, 1.02582933e-04, 1.43469704e-04,
          1.47273124e-04, -7.45596335e-05, 2.76609935e-05,
          -1.16167394e-05, -1.05574778e-04, -1.50191947e-04,
          -1.49257423e-04, -1.05523279e-04, -1.04329229e-04,
          7.25352311e-06, 9.21744795e-05, 1.30445304e-04,
          -2.06543322e-04, -2.54295679e-04, -1.42029385e-04,
          3.53986470e-05, 4.41316297e-05, 5.18824891e-05, 5.37814631e-05,
          -8.88524482e-06, -7.72426938e-06, 2.08859801e-05,
          6.67291461e-05, 2.10215785e-05, 6.34067692e-05, 1.97789457e-04,
          -2.06943114e-05, -7.00082572e-04, -2.13367399e-04,
          8.96786587e-05, 1.58389361e-04, 3.32240888e-04, 4.70023864e-04,
          2.30609992e-04, 1.51974818e-04, -4.24663176e-06,
          -4.85600758e-05, -1.11203051e-04, -6.91489258e-05,
          -8.99545776e-05, -1.22900354e-04, -1.93364922e-05,
          -3.25702713e-05, 8.92892567e-05, -1.76188085e-04,
          -8.86604321e-05, -2.46630207e-05, -3.43096253e-05,
          1.46100110e-05, 6.58881545e-05, 3.12056218e-05, 6.39168065e-05,
          -9.26922585e-05, 4.56424505e-06, 3.57091048e-05,
          5.47288873e-05, 1.32450121e-04, 1.55155882e-04, 3.58749930e-05,
          -4.91863291e-04, -2.26353717e-04, 4.80559993e-06,
          1.08846827e-04, 1.97384565e-04, 3.61159793e-04, 2.98301980e-04,
          1.21650031e-04, 6.55719923e-05, -1.91720992e-05,
          -7.34672358e-05, -5.87997165e-05, -1.77122318e-04,
          -2.30492587e-04, -1.47882718e-04, -1.17587406e-04,
          -4.98748523e-05, -7.26213257e-05, 8.61762965e-06,
          2.14746506e-05, -1.00277844e-04, 2.43413633e-05,
          3.88988192e-05, 2.13201820e-05, 2.10831451e-04,
          -6.50201328e-05, -7.49714891e-05, 1.32546938e-05,
          4.84493903e-05, 1.00517296e-04, 1.01235695e-04, 9.38372614e-06,
          -5.84180001e-04, -2.75271217e-04, 3.29723480e-05,
          1.55551475e-04, 2.66976655e-04, 2.74313788e-04, 6.00963976e-05,
          1.45294252e-04, 7.44793724e-05, -2.68853037e-05,
          -8.51188597e-05, -3.63836261e-05, -1.57484887e-04,
          -2.58580170e-04, -2.27281649e-04, -2.55368213e-04,
          -2.18321569e-04, -1.70405998e-04, -1.28380023e-04,
          -3.68332985e-05, -1.32361092e-04, -3.79204794e-05,
          4.47440143e-05, 8.05666496e-05, 2.14149695e-04, 6.11482101e-05,
          -1.42199511e-04, -6.06002686e-05, -4.15510158e-06,
          1.85820572e-05, 1.25499209e-04, -6.02343098e-05,
          -6.50175672e-04, -3.67988658e-04, -7.03103433e-05,
          6.22903608e-05, 2.09326186e-04, 1.96775858e-04,
          -1.68796265e-04, 7.22157201e-05, 8.64540416e-05,
          -7.72331441e-06, -7.55528818e-05, -9.57305092e-05,
          -1.79724084e-04, -1.91327214e-04, -2.50571058e-04,
          -2.58161104e-04, -2.17575609e-04, -2.94477941e-04,
          -2.60229659e-04, -1.50997992e-04, -6.30118084e-05,
          -1.05573699e-05, 5.10384270e-05, 1.37287338e-04,
          1.40499527e-04, 1.38010364e-04, -2.38235880e-05,
          -1.24345592e-04, -1.36057788e-04, -5.84729678e-05,
          8.61833178e-05, -1.05653860e-04, -6.03296445e-04,
          -3.55385913e-04, -1.39930620e-04, 2.28003428e-05,
          1.98992318e-04, 2.19092821e-04, -1.29995547e-04,
          3.97347321e-05, 9.60353827e-06, 2.41733505e-05,
          -2.57316751e-05, -1.43332232e-04, -2.67557887e-04,
          -2.04289652e-04, -3.01259715e-04, -2.59553140e-04,
          -3.74145486e-04, -3.89070075e-04, -3.70196853e-04,
          -2.11410297e-04, -1.31736335e-04, -3.48034046e-05,
          6.79154618e-05, 1.78634364e-04, 1.31896246e-04, 9.92816713e-05,
          1.61047879e-04, -5.51001358e-05, -1.51211701e-04,
          -7.07472209e-05, -7.87485114e-05, -2.26537304e-04,
          -7.07535364e-04, -5.49451448e-04, -2.90722470e-04,
          -1.50982814e-05, 6.24742752e-05, 1.11956608e-04,
          -1.71150401e-04, -1.35673356e-04, -1.93178683e-04,
          -2.56763422e-04, -2.72117933e-04, -1.59403906e-04,
          -1.96212743e-04, -1.81828626e-04, -3.44910863e-04,
          -2.70467513e-04, -3.40970262e-04, -3.38686776e-04,
          -3.73728079e-04, -3.18217179e-04, -6.73445029e-05,
          5.53085629e-05, 1.45037731e-04, 1.61527758e-04, 2.93833145e-04,
          1.65189602e-04, 1.04007668e-04, 5.73865982e-05,
          -3.54882795e-05, -8.26097312e-05, -4.28130043e-05,
          -1.05987237e-04, -5.30046062e-04, -4.28586762e-04,
          -3.10244795e-04, -7.36783404e-05, 4.11552028e-05,
          1.06630097e-04, -2.10353479e-04, -2.48035038e-04,
          -3.51296650e-04, -3.20924242e-04, -2.98534287e-04,
          -2.06289231e-04, -2.13080537e-04, -2.67556898e-04,
          -3.71452072e-04, -3.81012942e-04, -3.04157031e-04,
          -3.63733125e-04, -2.59831140e-04, -7.40284013e-05,
          1.44732636e-04, 1.85999597e-04, 2.02678144e-04, 2.07717123e-04,
          1.76925416e-04, 1.32341927e-04, 6.68629218e-05, 5.46562842e-05,
          4.20852411e-05, 5.76631865e-05, 7.80176488e-05,
          -9.24817596e-06, -5.08566387e-04, -3.37233418e-04,
          -1.66457423e-04, -7.12262845e-05, -1.65265374e-05,
          3.38269892e-05, -1.85134384e-04, -3.36877973e-04,
          -4.10738547e-04, -3.29199247e-04, -2.61893671e-04,
          -2.68911594e-04, -2.80791166e-04, -2.94297992e-04,
          -3.39801860e-04, -3.90922709e-04, -3.10338597e-04,
          -2.63565773e-04, -7.10725362e-06, 1.67344580e-04,
          1.01689744e-04, 1.34927759e-04, 5.61677625e-05, 4.15070826e-05,
          7.87432073e-05, 1.79420458e-04, 6.28921262e-05,
          -2.59135322e-05, -7.20574390e-05, -4.39898831e-05,
          2.96891885e-05, -7.45533325e-05, -5.95987891e-04,
          -3.23642220e-04, -1.69483726e-04, -1.77911075e-04,
          -1.80207353e-04, -7.79644615e-05, -5.01224567e-05,
          -3.69277463e-04, -4.46600636e-04, -4.11993009e-04,
          -3.71444010e-04, -4.13714908e-04, -3.59451486e-04,
          -3.72404902e-04, -3.71756440e-04, -2.43935079e-04,
          -1.48386607e-04, -1.37316718e-04, 2.27159235e-05,
          1.00378777e-04, 8.32199003e-05, 2.89355048e-05,
          -5.14195335e-06, -9.08973016e-06, -5.21935108e-05,
          1.07520144e-04, 1.14648014e-04, 5.24455027e-06,
          -6.28505441e-05, -3.62002829e-05, -4.71454878e-05,
          -2.01063158e-04, -5.41132060e-04, -3.19539919e-04,
          -6.83324906e-05, -1.93839340e-04, -2.36913518e-04,
          -1.16767929e-04, 7.43881974e-05, -1.70850588e-04,
          -3.64161853e-04, -3.76265787e-04, -4.22954850e-04,
          -4.51818574e-04, -4.69918392e-04, -5.96686441e-04,
          -5.54142462e-04, -1.66192855e-04, -1.46088219e-04,
          -1.68972052e-04, -1.12467576e-04, 5.12643528e-05,
          -4.08596970e-05, -1.00844329e-04, -9.92101850e-05,
          -8.32712540e-05, -2.85216811e-05, 4.63976939e-05,
          6.08131777e-05, -2.41633807e-05, -8.91878153e-05,
          -4.68190265e-05, -9.10081726e-05, -2.85984686e-04,
          -4.38096729e-04, -4.16580297e-04, -1.47863495e-04,
          -1.43521407e-04, -1.47796454e-04, -2.67339128e-05,
          1.19690900e-04, 1.24714701e-04, -1.10837478e-04,
          -2.03704592e-04, -2.76873034e-04, -3.31143267e-04,
          -4.05141560e-04, -4.53509303e-04, -4.74971544e-04,
          -2.57219450e-04, -1.22523852e-04, -1.79044931e-04,
          -1.93943604e-04, -4.66617603e-05, -1.22519079e-04,
          -1.86961639e-04, -1.84630044e-04, -7.21960823e-05,
          1.44255428e-05, 9.97664483e-06, 6.72360111e-05,
          -1.25388715e-05, -1.27519816e-04, -9.74371433e-05,
          -1.23950987e-04, -2.56845087e-04, -4.11498855e-04,
          -3.55628348e-04, -1.09934357e-04, -4.20598408e-05,
          -5.33484053e-05, 1.61936878e-05, 1.43278114e-04,
          1.81071227e-04, 2.06838507e-04, -9.08271686e-05,
          -2.08136582e-04, -2.01906252e-04, -2.32668957e-04,
          -2.01129253e-04, -2.78926193e-04, -1.98821799e-04,
          -1.74827976e-04, -3.54032469e-04, -2.49098637e-04,
          -2.10092985e-04, -2.82250170e-04, -2.95600243e-04,
          -2.65226146e-04, -9.03196269e-05, -1.37611380e-04,
          -8.62161251e-05, 7.89162368e-05, 7.44908830e-05,
          -3.52528368e-05, -6.15702083e-05, -5.70024531e-05,
          -1.71271240e-04, -2.30690537e-04, -1.97881920e-04,
          6.39976497e-05, 5.89025512e-05, 4.56799753e-05, 1.72923086e-04,
          1.40470336e-04, 1.04995765e-04, 6.79117002e-05,
          -1.55815196e-05, -1.45868995e-04, -1.64673547e-04,
          -3.73163057e-04, -2.97012069e-04, -5.09356440e-04,
          -4.46507183e-04, -4.79330745e-04, -4.26290586e-04,
          -4.26189014e-04, -4.37631155e-04, -5.33715938e-04,
          -6.46577042e-04, -6.01806329e-04, -3.44235712e-04,
          -2.21541879e-04, -2.26917298e-04, -7.43293203e-05,
          -6.09441850e-05, -9.89461550e-05, -7.28401938e-05,
          -1.05221397e-05, -8.52284720e-05 ]
      - [ 4.54151508e-04, 4.82374104e-04, 4.16911003e-04, 3.95880750e-04,
          2.18919624e-04, 7.73721040e-05, -8.92775279e-05,
          -1.30358521e-05, 2.29507801e-04, 2.24426767e-04,
          1.19316755e-04, 3.02076718e-04, 1.05892534e-04, 1.44860518e-04,
          3.00557382e-04, 2.92115234e-04, 2.04086798e-04, 3.29926086e-04,
          3.28223279e-04, 3.37601494e-04, 3.58197896e-04, 2.46085692e-04,
          3.62938372e-05, 1.60634823e-04, 8.51781879e-05, 3.27924099e-05,
          -2.08075639e-04, 4.24218706e-05, -5.83210976e-07,
          -1.62449869e-04, -3.40906845e-04, -7.60536001e-04,
          4.45916055e-04, 2.08694852e-04, 2.29932077e-04, 3.42416111e-04,
          2.26628166e-04, 2.60598288e-04, 1.36761722e-04,
          -1.97824429e-05, -1.42351477e-04, -8.90653610e-05,
          -2.23155177e-04, -2.20330650e-04, -1.95556131e-04,
          -1.70401137e-04, -1.51062297e-04, -1.39862736e-04,
          -1.34019210e-04, -3.92421207e-05, -1.11074070e-04,
          -1.15286013e-04, -7.64790893e-05, -1.04370534e-04,
          -2.15966807e-04, -1.15310220e-04, -3.75241478e-04,
          -2.09592428e-04, -3.14193690e-04, -3.40050523e-04,
          -2.17047927e-04, -1.30757267e-04, -3.14356148e-04,
          -8.91008938e-04, -1.66369238e-04, -2.62999587e-04,
          1.12884423e-04, 2.84632348e-04, 1.99890812e-04, 3.45429144e-04,
          2.76994950e-04, 1.78790608e-04, 1.92065025e-04, 1.63353339e-04,
          1.94639899e-04, 1.61185439e-04, 2.21259368e-04, 3.23139684e-05,
          -1.14681816e-05, 1.12462498e-04, 9.14818811e-05,
          1.73442080e-04, 1.40938209e-04, 1.07232387e-04, 5.49314609e-05,
          -4.37258132e-05, -1.75356254e-04, -2.16872591e-04,
          -5.50039578e-04, -3.17369413e-04, -6.60355799e-05,
          -1.46405451e-04, -8.73022291e-05, 2.31413469e-05,
          -2.85282986e-05, -3.72373353e-04, -3.32829368e-04,
          -3.70309717e-04, 5.15705105e-05, 1.43676050e-04,
          1.19698074e-04, 1.79287235e-04, 1.67109785e-04, 1.41401921e-04,
          1.49739673e-04, -1.16441130e-04, 6.20582650e-05,
          1.07613239e-04, 2.14795175e-04, 9.83398204e-05, 1.08906352e-04,
          1.55224814e-04, 2.04059543e-04, 1.40986929e-04, 6.18769409e-05,
          8.86163689e-05, 6.83194157e-05, -1.20345896e-04,
          -2.47353688e-04, -4.63299948e-04, -7.10040098e-04,
          -7.13597285e-04, -4.45379206e-04, -3.75759351e-04,
          -2.21798517e-04, -9.97390380e-05, -1.38916846e-04,
          -2.39502187e-04, -7.45401921e-05, -4.20083728e-04,
          -1.95211876e-04, 1.02083002e-04, 3.24346969e-04,
          2.61734560e-04, 2.21300972e-04, 1.18893782e-04, 1.24864338e-04,
          -1.10620087e-04, -9.72295675e-06, -8.38614578e-05,
          8.38023188e-05, 2.04466007e-04, 3.04269226e-04, 2.70298158e-04,
          2.67049007e-04, 1.56760434e-04, 9.38265148e-05, 1.24114900e-04,
          1.31630790e-04, -3.34770048e-05, -1.33630616e-04,
          -3.42849817e-04, -5.68662945e-04, -5.58881729e-04,
          -3.83915554e-04, -3.67564877e-04, -3.04607151e-04,
          -2.55879451e-04, -2.78205931e-04, -2.04405820e-04,
          -6.48978457e-05, -5.48422569e-04, -3.29766277e-04,
          1.87122951e-05, 3.45379172e-04, 2.46217445e-04, 2.49139208e-04,
          1.51049244e-04, 2.22174145e-04, 5.60161570e-05, 9.08746733e-06,
          -1.44491947e-04, 8.89657022e-05, 2.19352034e-04,
          2.27371085e-04, 2.59895955e-04, 2.50164274e-04, 1.41680066e-04,
          9.21463434e-05, 3.51645540e-05, 7.23224075e-05,
          -3.26009686e-05, -6.60830628e-05, -2.74677615e-04,
          -2.26395248e-04, -2.42900627e-04, -3.18817358e-04,
          -4.11232671e-04, -2.40552574e-04, -1.22490106e-04,
          -2.79324770e-04, -2.58835207e-04, -1.82709700e-04,
          -5.58322703e-04, -3.42187035e-04, -1.14658469e-04,
          1.66516023e-04, 2.06080818e-04, 2.74609512e-04, 3.59777332e-04,
          1.93239423e-04, 7.53471904e-05, 9.24462220e-05, 8.71430093e-05,
          2.69220443e-04, 3.05528549e-04, 2.77434883e-04, 2.47846881e-04,
          1.10494811e-05, -5.47808741e-05, -1.30607383e-04,
          -2.70452583e-04, -9.30962560e-05, 9.54923689e-06,
          3.27191556e-05, -1.52791399e-04, -1.47455401e-04,
          -1.25245395e-04, -1.44481121e-04, -4.61555785e-04,
          -3.66424036e-04, -1.75768480e-04, -1.81307114e-04,
          -1.32445275e-04, 2.26353295e-05, -3.76840762e-04,
          -1.80100047e-04, 6.16801071e-06, 2.46513257e-04,
          3.35890945e-04, 2.10203390e-04, 2.09668447e-04, 1.46139602e-04,
          7.23852863e-05, 2.64810078e-04, 2.79825297e-04, 2.87871051e-04,
          3.15939717e-04, 3.68869951e-04, 1.30753309e-04,
          -1.32841005e-05, 1.38843734e-05, -3.79513331e-05,
          -2.49890902e-04, -1.46520179e-04, -3.32154414e-05,
          -3.05590584e-05, -1.95814690e-04, -1.39201715e-04,
          -2.58119195e-04, -1.93542102e-04, -4.97207511e-04,
          -3.86866916e-04, -1.27821899e-04, -1.30664412e-04,
          -1.77383816e-04, 7.20334865e-05, -5.63303707e-04,
          -3.81065271e-04, 8.20802816e-05, 2.17433131e-04,
          3.01384222e-04, 2.47553398e-04, 2.09810154e-04, 2.41692833e-04,
          1.75262729e-04, 3.91821959e-04, 3.57563025e-04, 4.30201500e-04,
          5.89244883e-04, 4.60848212e-04, 2.06857178e-04, 1.83746801e-04,
          2.44423718e-05, -3.05728026e-05, -2.06730940e-04,
          -2.84768961e-04, -2.34860898e-04, -7.06768551e-05,
          -4.63021352e-05, -1.80519768e-04, 6.74656940e-06,
          -1.56973023e-04, -3.14640114e-04, -1.43821831e-04,
          -1.22697398e-04, -1.92317428e-04, -6.80014855e-05,
          6.23526721e-05, -4.42922785e-04, -2.82757770e-04,
          5.44509312e-05, 2.50085810e-04, 2.36233376e-04, 3.18725593e-04,
          2.57729145e-04, 1.73774722e-04, 1.89330924e-04, 5.04080672e-04,
          5.07791876e-04, 6.28919865e-04, 3.92235961e-04, 4.20851662e-04,
          2.48375291e-04, 1.47535742e-04, 8.35331666e-05, 8.21754147e-05,
          4.56791022e-05, -7.31771252e-06, -7.77976602e-05,
          -1.19433520e-04, -1.55427842e-04, -1.42749977e-05,
          5.25828327e-05, -1.57021292e-04, -2.65093229e-04,
          -5.32380836e-05, -5.27090051e-05, -2.39072411e-04,
          -9.08722504e-05, 3.32754498e-05, -5.00090129e-04,
          -3.54880787e-04, -5.44306204e-05, 2.96347251e-04,
          3.46721150e-04, 3.90697998e-04, 4.35501686e-04, 2.27945915e-04,
          4.11423971e-04, 3.74131574e-04, 4.55345435e-04, 4.30326501e-04,
          3.47415567e-04, 3.92713846e-04, 3.18407663e-04, 8.89433068e-05,
          3.10617215e-05, 8.86434354e-05, 1.15787625e-04, 1.08111512e-04,
          8.38864726e-05, -3.14736390e-05, -1.33416252e-05,
          -4.68640428e-05, -3.74930787e-05, -3.51691160e-05,
          -1.00619283e-04, 1.48179504e-04, 3.21061198e-05,
          -1.48155857e-04, -5.24956413e-05, -1.43400233e-04,
          -5.56576590e-04, -3.43466905e-04, -4.43633799e-05,
          1.26641244e-04, 1.20693585e-04, 1.67314633e-04, 4.17955482e-04,
          4.76505404e-04, 3.98074801e-04, 4.16008785e-04, 3.23710905e-04,
          3.12972988e-04, 3.11133423e-04, 3.45779670e-04, 1.23473539e-04,
          -7.87844838e-05, -7.06854844e-05, -9.74352952e-06,
          1.01594007e-04, -1.98276321e-05, -9.82409802e-06,
          -2.00683589e-05, 6.68370485e-05, -8.29403216e-05,
          -2.08310797e-04, 3.66350250e-05, 8.75402911e-05,
          3.24381923e-04, 2.43448012e-04, 1.75192399e-04, 6.66849082e-05,
          -1.01235993e-04, -4.01280995e-04, -1.46118837e-04,
          6.91755122e-05, 2.27916331e-04, 2.62450456e-04, 3.12094955e-04,
          4.28622996e-04, 1.43729485e-04, 4.22873971e-04, 3.99406825e-04,
          2.27920114e-04, 1.39985961e-04, 2.25033713e-04, 2.82952329e-04,
          1.00693789e-04, 3.46462584e-05, -1.57389259e-05,
          -1.34901944e-04, -5.88407856e-05, -1.50712265e-04,
          -1.34753078e-04, -1.59674164e-04, -4.05635801e-05,
          3.02057815e-05, -1.33556430e-04, 6.49602443e-05,
          2.07378427e-04, 3.77619872e-04, 4.11234505e-04, 3.35120247e-04,
          8.17516557e-05, 5.50564437e-05, -4.36850707e-04,
          -1.56057213e-04, -4.22807898e-05, 2.94977624e-04,
          4.70696104e-04, 4.41040291e-04, 2.25978714e-04, 9.08994625e-05,
          3.12030694e-04, 2.88829644e-04, 3.66183289e-04, 8.38280612e-05,
          2.76558072e-04, 1.99609014e-04, 2.16753382e-04, 2.42611073e-04,
          1.26339582e-04, -1.78528149e-04, -2.41479385e-04,
          -1.89957413e-04, -1.53435569e-04, -3.32025462e-04,
          -2.58207903e-04, -2.89524934e-04, -1.97451620e-04,
          6.98044460e-05, 2.00250783e-04, 2.47559132e-04, 2.47590215e-04,
          2.05580116e-04, 8.19956476e-05, 8.53814781e-05,
          -4.36805363e-04, -9.83301506e-05, 3.21496882e-05,
          2.17510227e-04, 3.39973805e-04, 2.73064012e-04, 1.41352284e-04,
          2.69124284e-04, 4.06625564e-04, 4.47463826e-04, 3.77126416e-04,
          2.10511382e-04, 5.90281306e-05, 2.97393376e-06,
          -7.70205443e-05, 9.13340264e-05, 5.22140726e-05,
          -1.19697848e-04, -3.98638134e-04, -2.75566883e-04,
          -2.00832437e-04, -3.26593785e-04, -1.78395247e-04,
          -2.54931860e-04, 1.44342457e-05, 2.39749439e-04,
          3.38488462e-04, 3.11546057e-04, 1.84539167e-04, 1.77953945e-04,
          1.06659470e-04, 4.52325039e-05, -4.27928142e-04,
          -1.12470880e-04, 2.89717776e-04, 2.73266662e-04,
          3.64144507e-04, 2.38318404e-04, 3.69370799e-04, 2.33753017e-04,
          1.75870126e-04, 2.90359429e-04, 3.79751378e-04, 7.62597920e-05,
          1.56775990e-04, 5.04936506e-05, -2.38733064e-05,
          8.78492065e-05, 1.09383895e-04, 1.73654611e-04,
          -7.71800260e-05, -4.50998450e-05, -1.83599434e-04,
          -4.59418225e-04, -3.21391854e-04, 2.04700100e-05,
          1.87184109e-04, 1.59742485e-04, 2.70879245e-04, 3.25671310e-04,
          1.88359962e-04, 6.96997013e-05, -9.22196195e-05,
          8.23907394e-05, -4.33751527e-04, -7.30069878e-05,
          2.35831802e-04, 3.63782980e-04, 4.84359451e-04, 3.22704960e-04,
          3.21520842e-04, 2.77343752e-05, -9.13627446e-05,
          3.74235242e-04, 2.48658413e-04, 2.62279995e-04,
          -9.85943188e-06, -6.31437433e-05, -3.66701752e-05,
          -1.58934090e-05, 3.73540679e-05, -1.38433752e-05,
          -2.77749805e-05, -1.90359988e-05, -1.73602661e-04,
          -2.54577550e-04, -2.29272613e-04, -3.61842249e-05,
          -8.85945119e-05, 1.39893426e-04, 2.64240720e-04,
          1.88598278e-04, 2.74563237e-04, 4.83832519e-05,
          -9.31633040e-05, 6.75906413e-05, -4.49722429e-04,
          -1.09889210e-04, 2.03387841e-04, 3.79123288e-04,
          5.73074154e-04, 4.32028115e-04, 3.11632117e-04,
          -2.03348493e-04, -1.29309439e-04, 1.34601607e-04,
          1.53562200e-04, 3.00983636e-04, 4.81545212e-05,
          -8.79972067e-05, -3.31289120e-05, 6.67726199e-05,
          7.92308638e-05, 2.03126001e-06, -9.38684243e-05,
          6.06155263e-05, -1.10833076e-04, -1.79624520e-04,
          -5.94155681e-05, -1.84374367e-05, -2.46395866e-05,
          8.17100590e-06, 2.31275961e-04, 1.62992044e-04, 1.58610972e-04,
          7.40177857e-05, -1.33425725e-04, 7.56676673e-05,
          -4.06550098e-04, -9.83566933e-05, 1.77582886e-04,
          3.09756870e-04, 4.67323785e-04, 4.81858413e-04, 3.27237300e-04,
          8.77895654e-05, 2.63104139e-05, -1.71730455e-04,
          7.13230766e-05, -1.82332060e-05, -1.60565014e-06,
          -1.23595222e-04, -5.76010025e-05, -2.98453670e-05,
          -8.86784910e-05, -9.23508924e-05, -2.12382074e-04,
          6.26092296e-05, -1.68904357e-04, -2.80996668e-04,
          -1.48952589e-04, -1.04243562e-04, -7.26431608e-05,
          -1.18836477e-04, 2.01655217e-04, 5.59472683e-05,
          1.28960499e-04, -1.29288064e-05, -2.63778202e-04,
          5.81750901e-05, -4.17083123e-04, -1.84950608e-04,
          1.58149720e-04, 2.50989891e-04, 3.25124623e-04, 3.70482827e-04,
          2.55941326e-04, 1.62026656e-04, -2.34892068e-04,
          -4.45102429e-04, -4.04610124e-04, -2.16591143e-04,
          -1.06823798e-04, 4.61860218e-05, -1.48915438e-04,
          -1.00143880e-04, -1.16267060e-04, -2.10373819e-05,
          -8.24639064e-05, 1.14632276e-04, -8.35413739e-05,
          -1.73624794e-04, -1.84092223e-05, -1.40013508e-04,
          -1.41620229e-04, -4.19222124e-05, 7.09654123e-05,
          9.98054238e-05, 1.57736460e-04, -1.04324849e-04,
          -3.73252435e-04, -6.00192743e-06, -4.20443335e-04,
          -1.73556095e-04, 1.58521900e-04, 3.12719814e-04,
          3.36085242e-04, 3.31878255e-04, 1.72290092e-04,
          -5.74152182e-06, 1.46502760e-04, -5.38083550e-04,
          -4.10179578e-04, -8.32615260e-05, -2.40126719e-05,
          -5.20721078e-05, -1.36458257e-04, 1.46491257e-05,
          -4.85596538e-05, 9.55043561e-06, 1.46090069e-05,
          6.71937087e-05, -2.68255899e-05, -1.05532446e-04,
          -1.05776737e-04, -1.32757632e-04, -1.42017350e-04,
          -6.25828616e-05, -1.57375995e-04, 1.03611659e-04,
          8.35989995e-05, -2.27032389e-04, -4.43557161e-04,
          -9.00997402e-05, -4.42265446e-04, -1.14683491e-04,
          1.38694057e-04, 2.95566511e-04, 2.89946998e-04, 2.04427124e-04,
          1.15799732e-04, 1.64761193e-04, 8.88635695e-05, 1.42277146e-04,
          -7.07176878e-05, -5.91295575e-05, 5.56362211e-05,
          -1.05080144e-04, -2.02615454e-04, -4.33643509e-05,
          -3.41953964e-05, 6.87106240e-06, 3.07705777e-05,
          -2.82032815e-05, -8.84512847e-05, -1.01468911e-04,
          -1.61727919e-04, -1.14364244e-04, -9.37614968e-05,
          -1.65329315e-04, -1.82082993e-04, 7.05735220e-05,
          2.18735750e-05, -3.26610461e-04, -5.94277866e-04,
          -1.03405553e-04, -4.84600809e-04, -2.13109088e-04,
          2.89807376e-05, 1.96414097e-04, 1.11085625e-04,
          -8.50912911e-05, -5.08866433e-05, 2.02206182e-04,
          1.78152768e-04, 5.22180999e-05, -4.46164668e-05,
          1.20575387e-05, 7.46896549e-05, -5.52776037e-05,
          -6.26522233e-05, 9.91817287e-05, 1.00784731e-04,
          7.56079535e-05, 4.98018053e-05, 1.08820997e-04, 9.64160063e-05,
          1.68128114e-04, -5.55931001e-05, -6.62915554e-05,
          4.74982153e-05, 3.06599250e-05, -4.97767032e-05,
          -3.72067843e-05, -2.16183962e-05, -3.86381784e-04,
          -7.05967424e-04, 2.45818228e-04, -2.87014816e-04,
          -1.80727351e-04, 5.45941039e-05, 3.28457973e-04,
          1.46493578e-04, -2.38066816e-04, -1.61580072e-04,
          1.35688373e-04, -1.24319937e-04, -1.63295681e-05,
          2.46976888e-05, 1.96983765e-05, 3.80804959e-05, 5.72021381e-05,
          1.05949912e-04, 1.78222021e-04, 2.06857614e-04, 1.10437766e-04,
          1.72563068e-05, 2.27174649e-04, 1.19407901e-04, 2.66563846e-04,
          -1.60397776e-05, -2.64890132e-05, 1.85965968e-04,
          2.12355852e-04, -3.42020485e-07, -3.58333898e-04,
          -4.42648488e-05, -5.11682360e-04, -6.39387115e-04,
          2.75901930e-05, -1.59696676e-04, -2.96864309e-05,
          2.85767834e-04, 2.54058017e-04, 2.93117337e-04,
          -3.36343335e-04, -1.22883546e-04, -7.44889432e-04,
          -1.36770905e-04, -3.94173287e-04, -1.35488677e-04,
          -4.37565213e-05, 1.23859776e-04, 9.63539860e-05,
          5.89922944e-04, 3.02563159e-04, 1.95815825e-04, 2.01496208e-04,
          1.02377155e-04, 1.10560475e-04, 2.26112825e-04, 1.29684704e-04,
          4.84906232e-05, 1.93354790e-04, 2.12450104e-04, 1.58539944e-04,
          1.26116327e-04, -1.02174956e-04, -1.77070790e-04,
          -4.84446588e-04, -3.02686851e-04, -3.59124533e-05,
          -3.34675598e-04, -2.99632702e-05, 3.18311097e-04,
          2.42442635e-04, 3.63150088e-04, -1.10530877e-04,
          -9.83157151e-05, -8.70553777e-04, -6.15729718e-04,
          -8.43313988e-04, -3.60020174e-04, -1.63215736e-04,
          -3.63931904e-05, 4.32859844e-04, 2.99688400e-04,
          3.63690720e-04, 1.86773977e-04, 2.07710924e-04, 1.56472393e-04,
          1.87340134e-04, 1.01850397e-04, 9.68812528e-05, 1.56862880e-04,
          3.29528157e-05, 3.15230427e-04, 1.90376042e-04, 4.50560256e-05,
          1.25301915e-04, -2.72822217e-05, -2.95926700e-04,
          -2.07296456e-04, -5.35416948e-05, -3.96584830e-04,
          1.43975587e-04, 4.16821946e-04, 3.48945090e-04, 3.46886198e-04,
          3.75307398e-04, -1.31468303e-04, -6.06717425e-04,
          -5.52318932e-04, -1.32515735e-04, -1.38477219e-04,
          -3.73851653e-04, -1.84408185e-04, 4.88315825e-04,
          9.52793853e-05, -3.66532622e-05, -8.85020127e-05,
          -3.15557045e-05, -3.45363005e-05, 3.33457865e-05,
          -2.51532711e-05, 8.14018222e-06, -1.32709640e-04,
          1.45698825e-04, 3.65302199e-04, 2.33511848e-04, 2.08908004e-05,
          1.10077905e-04, 6.12184158e-05, -2.49440956e-04,
          -1.44309364e-04, -3.53282318e-04, -4.64541110e-04,
          1.72845084e-05, 2.58413289e-04, 3.11158597e-04, 4.19510558e-04,
          5.00817725e-04, -3.53858122e-05, -2.23586962e-04,
          -1.88081147e-04, -1.23932041e-05, -1.58819894e-04,
          -3.81084275e-04, 2.00204842e-04, 2.35149317e-04,
          1.16472133e-04, -3.80384772e-05, -1.68797633e-04,
          -2.54671293e-04, -1.36041286e-04, -8.08328332e-05,
          -1.87758895e-04, -6.09392264e-05, -1.39933152e-04,
          -1.51436456e-04, 2.51824040e-05, 1.38344956e-04,
          1.18123571e-04, 5.02518124e-05, 1.47688779e-05,
          -2.75539322e-04, -1.76375092e-04, -2.11223669e-04,
          -5.53867430e-04, -1.29298540e-04, 3.21343599e-04,
          3.54666699e-04, 4.49580490e-04, 4.10922425e-04, 5.40870067e-04,
          -1.93943779e-04, -2.08386962e-04, -6.52513190e-05,
          -1.95200337e-04, -2.45612289e-04, 4.41964745e-04,
          2.00275070e-04, 2.54466377e-05, -2.80014247e-05,
          -1.41167402e-04, -1.20181539e-04, -1.97783957e-04,
          -1.63473887e-04, -7.84865624e-05, -1.29664213e-05,
          -7.81778363e-05, -5.94628145e-05, -1.28068408e-04,
          -3.66746681e-05, -1.30681728e-04, 9.48604247e-06,
          9.07514618e-07, -3.51581577e-04, -2.87050178e-04,
          8.69362193e-05, -6.48284797e-04, -8.99275474e-05,
          4.53383487e-04, 5.18516521e-04, 5.50998258e-04, 5.49065124e-04,
          7.33438006e-04, 6.80807163e-04, 9.15092533e-05, 1.26135608e-04,
          2.88424326e-05, 1.82463446e-05, 6.00504107e-04, 2.38656998e-04,
          4.98799818e-05, 5.14042367e-05, -4.02025820e-04,
          -1.10966830e-04, -1.83587308e-05, 3.20764389e-06,
          -6.39019927e-05, -2.38471475e-05, 7.80497721e-05,
          2.00498078e-04, 8.53433157e-05, 2.19925350e-04,
          -1.04886212e-05, 1.05101790e-04, 1.62805562e-04,
          -2.91736709e-04, -1.97388203e-04, -2.56556291e-07,
          -5.48684737e-04, -9.29755479e-05, 5.08160447e-04,
          5.91262535e-04, 5.92913129e-04, 6.84502360e-04, 9.06858069e-04,
          9.55167867e-04, 8.35771905e-04, 2.66248157e-04, 2.34407227e-04,
          2.84090289e-04, 6.40195794e-04, 3.32357566e-04, 2.71921308e-04,
          4.91665596e-05, -2.29734214e-04, 8.91876261e-05,
          1.68403727e-04, 9.63373313e-05, 1.02031045e-05, 4.55972222e-05,
          -1.52905297e-04, -4.64045268e-04, -4.41034645e-04,
          -2.75360158e-04, -5.40670771e-05, 1.19189222e-04,
          1.92340085e-04, -2.50421057e-04, -4.72741522e-04,
          -1.39766693e-04, -3.93199385e-04, -5.35710706e-06,
          6.09269657e-04, 9.33907810e-04, 1.02256786e-03, 9.58948047e-04,
