%YAML:1.0
---
opencv_ml_svm:
   format: 3
   svmType: C_SVC
   kernel:
      type: RBF
      gamma: 9.9999999999999995e-08
   C: 100.
   term_criteria: { iterations:1000 }
   var_count: 576
   class_count: 13
   class_labels: !!opencv-matrix
      rows: 13
      cols: 1
      dt: i
      data: [ 0, 1, 2, 3, 4, 5, 6, 8, 9, 10, 11, 12, 13 ]
   sv_total: 117
   support_vectors:
      - [ 76., 85., 86., 82., 89., 59., 1., 1., 0., 0., 0., 0., 0., 0.,
          0., 0., 2., 1., 0., 1., 6., 8., 0., 2., 90., 85., 90., 87.,
          88., 85., 47., 0., 0., 0., 1., 0., 0., 0., 1., 1., 0., 0., 2.,
          0., 1., 0., 4., 0., 89., 87., 84., 82., 83., 73., 47., 1., 0.,
          0., 1., 0., 0., 0., 0., 0., 3., 0., 0., 3., 0., 1., 0., 0.,
          90., 90., 83., 82., 79., 72., 50., 5., 0., 0., 0., 0., 0., 0.,
          2., 3., 0., 1., 24., 1., 0., 1., 0., 3., 85., 88., 79., 80.,
          79., 75., 44., 11., 2., 1., 0., 2., 2., 0., 0., 0., 3., 0.,
          20., 3., 0., 3., 0., 0., 92., 86., 82., 88., 75., 72., 43.,
          14., 12., 8., 4., 3., 2., 2., 5., 7., 3., 0., 17., 27., 1., 1.,
          0., 3., 84., 93., 82., 83., 84., 78., 53., 48., 51., 49., 44.,
          39., 41., 51., 62., 68., 55., 46., 38., 8., 0., 0., 3., 0.,
          89., 90., 84., 84., 59., 24., 19., 44., 48., 57., 64., 65.,
          68., 74., 77., 75., 63., 61., 47., 0., 2., 3., 0., 2., 87.,
          86., 88., 83., 16., 2., 10., 6., 1., 0., 20., 54., 78., 87.,
          81., 86., 72., 65., 58., 0., 1., 6., 2., 2., 90., 83., 82.,
          74., 2., 3., 5., 7., 0., 1., 0., 0., 2., 71., 80., 92., 80.,
          73., 68., 7., 5., 3., 0., 1., 35., 37., 41., 73., 4., 0., 1.,
          2., 2., 0., 3., 0., 0., 7., 68., 88., 86., 79., 76., 10., 8.,
          2., 5., 13., 24., 55., 11., 71., 11., 8., 0., 0., 0., 3., 0.,
          0., 3., 0., 1., 81., 82., 79., 79., 8., 8., 0., 8., 18., 35.,
          58., 22., 76., 28., 6., 0., 2., 1., 1., 0., 1., 1., 0., 4.,
          68., 72., 77., 82., 9., 8., 0., 0., 4., 42., 34., 60., 73.,
          70., 8., 0., 0., 0., 0., 0., 3., 0., 0., 0., 66., 68., 78.,
          84., 9., 10., 1., 0., 0., 77., 83., 74., 79., 72., 57., 0., 0.,
          0., 2., 2., 0., 2., 1., 0., 63., 69., 79., 80., 7., 10., 6.,
          3., 2., 82., 77., 78., 76., 70., 62., 34., 2., 0., 0., 0., 1.,
          1., 0., 14., 70., 70., 78., 77., 5., 9., 5., 1., 0., 84., 75.,
          73., 75., 73., 66., 49., 56., 2., 0., 0., 0., 0., 8., 53., 73.,
          76., 73., 76., 4., 7., 7., 10., 0., 88., 80., 84., 79., 76.,
          70., 54., 48., 49., 39., 24., 22., 33., 56., 79., 77., 83.,
          79., 77., 12., 0., 0., 0., 3., 85., 80., 75., 74., 75., 71.,
          61., 28., 12., 2., 0., 11., 9., 12., 16., 24., 29., 32., 29.,
          1., 0., 19., 0., 7., 86., 85., 85., 80., 79., 73., 66., 19.,
          5., 3., 6., 12., 5., 7., 4., 10., 5., 10., 1., 1., 4., 26.,
          30., 0., 90., 87., 86., 81., 75., 83., 68., 24., 7., 7., 9.,
          4., 4., 14., 11., 8., 11., 11., 0., 2., 7., 12., 2., 1., 84.,
          87., 88., 80., 82., 78., 71., 22., 7., 5., 9., 7., 8., 8., 6.,
          9., 11., 7., 0., 3., 3., 0., 0., 1., 85., 89., 84., 84., 80.,
          90., 62., 17., 9., 8., 9., 5., 10., 11., 11., 10., 9., 11.,
          15., 0., 0., 1., 1., 0., 16., 15., 63., 0., 2., 0., 2., 0., 0.,
          1., 4., 8., 12., 11., 9., 10., 8., 13., 14., 53., 1., 1., 0.,
          1. ]
      - [ 1., 0., 1., 86., 0., 1., 0., 0., 0., 0., 2., 0., 1., 2., 0.,
          2., 0., 0., 53., 75., 49., 3., 0., 2., 1., 1., 0., 3., 0., 1.,
          0., 3., 3., 0., 0., 1., 1., 0., 8., 0., 0., 0., 46., 82., 84.,
          79., 14., 0., 62., 8., 1., 0., 1., 0., 2., 0., 0., 0., 2., 0.,
          0., 2., 3., 0., 2., 0., 41., 82., 79., 89., 91., 61., 89., 61.,
          43., 34., 37., 0., 3., 0., 1., 0., 0., 3., 198., 0., 0., 2.,
          0., 1., 37., 86., 80., 83., 90., 84., 93., 59., 49., 43., 50.,
          37., 0., 0., 2., 0., 0., 0., 0., 5., 3., 0., 1., 1., 17., 53.,
          74., 88., 84., 83., 93., 60., 53., 44., 40., 47., 39., 14., 0.,
          0., 3., 0., 0., 0., 0., 2., 0., 1., 12., 35., 37., 41., 79.,
          94., 94., 79., 44., 43., 43., 42., 28., 46., 59., 57., 31.,
          24., 25., 51., 65., 68., 66., 35., 23., 32., 26., 23., 37.,
          69., 90., 82., 49., 37., 49., 38., 32., 36., 35., 45., 50.,
          83., 83., 82., 81., 87., 79., 41., 34., 0., 1., 0., 1., 0.,
          86., 90., 50., 43., 40., 44., 33., 32., 34., 35., 41., 62.,
          84., 85., 87., 91., 87., 56., 37., 0., 2., 2., 0., 1., 69.,
          81., 78., 40., 30., 25., 17., 22., 24., 27., 26., 32., 57.,
          85., 90., 92., 93., 79., 39., 8., 0., 0., 1., 1., 5., 0., 0.,
          0., 0., 4., 1., 0., 2., 0., 0., 0., 4., 37., 94., 90., 93.,
          92., 75., 4., 0., 5., 0., 0., 0., 2., 1., 2., 0., 0., 1., 2.,
          0., 0., 0., 1., 0., 0., 46., 97., 95., 3., 0., 0., 0., 0., 3.,
          3., 4., 0., 0., 0., 0., 1., 0., 0., 1., 0., 3., 0., 0., 0., 3.,
          79., 39., 2., 1., 3., 0., 0., 0., 0., 17., 15., 0., 0., 1., 3.,
          0., 0., 0., 4., 0., 0., 4., 0., 0., 37., 5., 1., 10., 0., 0.,
          0., 1., 1., 84., 87., 46., 4., 1., 0., 1., 0., 0., 0., 1., 0.,
          0., 4., 0., 27., 11., 2., 0., 7., 171., 0., 0., 1., 56., 56.,
          71., 58., 0., 1., 2., 0., 0., 2., 0., 0., 70., 137., 2., 30.,
          31., 0., 1., 0., 0., 1., 4., 0., 52., 55., 60., 64., 78., 53.,
          7., 0., 1., 0., 2., 0., 24., 10., 16., 40., 32., 35., 0., 1.,
          0., 0., 2., 0., 54., 53., 49., 51., 54., 69., 85., 87., 2., 2.,
          0., 2., 0., 19., 85., 48., 37., 33., 30., 1., 1., 4., 0., 1.,
          52., 50., 49., 57., 49., 52., 62., 56., 46., 31., 24., 21.,
          41., 54., 59., 54., 30., 21., 23., 19., 15., 12., 19., 1., 58.,
          49., 50., 51., 48., 55., 49., 26., 1., 6., 2., 0., 0., 0., 3.,
          0., 0., 2., 0., 36., 34., 22., 18., 5., 67., 45., 48., 48.,
          47., 52., 47., 12., 5., 0., 0., 4., 5., 2., 1., 2., 1., 1., 0.,
          0., 1., 0., 0., 0., 77., 53., 43., 41., 46., 39., 42., 13., 1.,
          6., 0., 5., 3., 2., 2., 0., 1., 2., 0., 1., 2., 0., 0., 0.,
          51., 46., 45., 38., 41., 41., 38., 10., 0., 4., 0., 0., 2., 1.,
          0., 2., 1., 1., 3., 0., 0., 1., 0., 0., 10., 7., 41., 47., 38.,
          42., 34., 11., 1., 0., 1., 4., 1., 2., 0., 0., 1., 179., 0.,
          0., 1., 1., 0., 1. ]
      - [ 0., 0., 1., 103., 146., 146., 34., 41., 40., 38., 35., 34.,
          32., 34., 36., 30., 30., 149., 160., 160., 168., 98., 160.,
          164., 0., 4., 6., 114., 153., 144., 45., 42., 43., 34., 34.,
          36., 35., 34., 33., 33., 34., 144., 160., 163., 164., 163.,
          18., 43., 2., 10., 29., 134., 156., 154., 36., 37., 36., 32.,
          35., 33., 33., 36., 34., 35., 34., 124., 142., 160., 166.,
          161., 166., 168., 1., 0., 128., 146., 156., 156., 41., 40.,
          35., 37., 37., 33., 30., 31., 32., 32., 38., 130., 155., 159.,
          165., 163., 165., 170., 0., 145., 140., 139., 156., 143., 35.,
          41., 37., 35., 30., 34., 33., 26., 30., 33., 35., 125., 151.,
          155., 161., 157., 165., 162., 140., 138., 136., 135., 152.,
          145., 43., 34., 38., 36., 30., 32., 34., 31., 32., 33., 34.,
          120., 147., 155., 160., 157., 162., 169., 122., 112., 106.,
          117., 144., 135., 30., 38., 35., 34., 36., 29., 29., 31., 26.,
          32., 35., 119., 140., 151., 160., 160., 158., 160., 29., 33.,
          25., 38., 42., 130., 77., 66., 69., 66., 79., 73., 72., 75.,
          68., 88., 97., 111., 145., 152., 153., 160., 164., 161., 0.,
          2., 2., 3., 20., 122., 146., 141., 131., 114., 101., 102.,
          110., 114., 113., 111., 116., 115., 141., 146., 154., 158.,
          157., 165., 0., 0., 0., 5., 25., 111., 147., 119., 59., 12.,
          6., 20., 87., 103., 111., 116., 120., 121., 136., 152., 153.,
          159., 161., 160., 4., 5., 0., 0., 18., 107., 132., 17., 0., 4.,
          0., 0., 0., 50., 92., 112., 116., 113., 147., 150., 152., 159.,
          157., 163., 0., 0., 3., 0., 23., 117., 71., 5., 0., 0., 1., 0.,
          1., 0., 62., 103., 121., 113., 138., 152., 152., 158., 160.,
          159., 4., 0., 0., 3., 30., 116., 0., 1., 0., 1., 1., 0., 0.,
          0., 32., 90., 113., 115., 146., 156., 158., 165., 35., 30., 0.,
          3., 0., 0., 35., 130., 2., 0., 1., 0., 0., 0., 1., 4., 4.,
          103., 120., 120., 143., 150., 157., 119., 150., 56., 0., 25.,
          0., 13., 35., 69., 13., 1., 0., 3., 0., 6., 11., 3., 6., 117.,
          128., 115., 149., 160., 159., 109., 31., 36., 15., 1., 2., 38.,
          40., 22., 16., 0., 8., 0., 6., 20., 6., 11., 76., 121., 122.,
          119., 151., 162., 162., 162., 164., 170., 7., 20., 37., 37.,
          36., 8., 55., 45., 18., 1., 29., 22., 14., 44., 119., 119.,
          125., 125., 153., 161., 163., 165., 166., 165., 38., 31., 38.,
          34., 38., 145., 39., 67., 0., 27., 27., 25., 5., 126., 119.,
          118., 120., 122., 153., 164., 163., 167., 168., 172., 31., 36.,
          34., 35., 40., 132., 172., 195., 77., 89., 16., 0., 74., 94.,
          100., 109., 114., 122., 148., 165., 164., 164., 163., 171.,
          91., 96., 80., 99., 124., 143., 148., 162., 173., 118., 90.,
          64., 60., 59., 61., 55., 77., 123., 150., 167., 168., 170.,
          170., 173., 90., 93., 90., 125., 156., 136., 37., 37., 33.,
          23., 3., 1., 0., 0., 1., 0., 20., 121., 154., 164., 166., 170.,
          173., 169., 37., 60., 65., 112., 150., 111., 37., 37., 38., 1.,
          0., 3., 0., 1., 3., 0., 5., 125., 160., 169., 174., 172., 176.,
          174., 1., 1., 60., 101., 160., 119., 36., 37., 0., 3., 0., 0.,
          0., 0., 1., 1., 10., 123., 161., 171., 178., 173., 177., 180.,
          0., 0., 21., 96., 164., 139., 36., 32., 2., 0., 2., 1., 0.,
          12., 0., 0., 14., 126., 172., 175., 178., 178., 179., 176. ]
      - [ 45., 83., 24., 0., 2., 0., 0., 1., 0., 0., 3., 0., 1., 1., 0.,
          1., 65., 87., 55., 0., 2., 0., 47., 0., 91., 82., 7., 1., 0.,
          2., 2., 0., 0., 0., 0., 3., 2., 0., 0., 3., 68., 82., 85., 24.,
          0., 0., 0., 45., 91., 89., 0., 4., 0., 2., 2., 0., 1., 3., 0.,
          0., 0., 1., 1., 0., 65., 86., 91., 81., 0., 0., 3., 2., 90.,
          92., 5., 0., 2., 0., 0., 1., 0., 4., 2., 2., 0., 0., 2., 0.,
          63., 88., 90., 91., 76., 4., 0., 0., 53., 56., 38., 0., 0., 0.,
          2., 2., 10., 0., 1., 0., 1., 0., 0., 0., 69., 93., 91., 89.,
          93., 82., 64., 58., 53., 50., 51., 19., 3., 0., 2., 0., 21.,
          3., 1., 0., 1., 2., 1., 0., 57., 79., 87., 93., 86., 89., 95.,
          88., 47., 45., 47., 50., 29., 3., 1., 0., 2., 0., 2., 3., 0.,
          0., 1., 0., 30., 46., 56., 75., 99., 86., 84., 91., 52., 41.,
          48., 41., 46., 31., 29., 1., 1., 0., 5., 31., 35., 28., 19.,
          9., 23., 44., 36., 40., 73., 81., 86., 93., 42., 40., 45., 34.,
          32., 40., 54., 67., 82., 72., 74., 78., 76., 76., 63., 36.,
          31., 4., 8., 6., 7., 16., 17., 22., 42., 38., 39., 40., 31.,
          29., 32., 35., 55., 86., 88., 92., 91., 94., 80., 39., 28., 1.,
          0., 0., 0., 0., 0., 1., 49., 43., 36., 41., 22., 34., 33., 38.,
          32., 67., 85., 97., 90., 87., 88., 45., 27., 1., 0., 1., 3.,
          0., 0., 1., 62., 37., 41., 37., 29., 30., 24., 7., 5., 11.,
          47., 87., 89., 98., 89., 76., 36., 0., 0., 0., 0., 0., 1., 0.,
          48., 45., 35., 31., 4., 4., 2., 0., 0., 0., 2., 37., 89., 88.,
          93., 86., 63., 1., 1., 2., 0., 1., 1., 0., 23., 65., 37., 14.,
          14., 2., 0., 0., 3., 0., 1., 0., 59., 92., 89., 93., 77., 0.,
          0., 0., 0., 0., 0., 0., 43., 98., 56., 15., 6., 2., 0., 3., 0.,
          3., 0., 0., 12., 70., 59., 64., 64., 1., 1., 0., 1., 0., 0.,
          0., 98., 98., 71., 19., 0., 1., 7., 0., 1., 0., 0., 3., 0.,
          34., 38., 41., 35., 0., 2., 0., 0., 0., 2., 0., 93., 99., 93.,
          44., 3., 1., 1., 0., 2., 0., 1., 0., 1., 32., 36., 39., 28.,
          1., 2., 0., 0., 0., 3., 0., 77., 101., 99., 63., 11., 0., 0.,
          3., 0., 0., 0., 0., 3., 33., 38., 40., 27., 0., 0., 8., 0., 0.,
          8., 27., 59., 74., 90., 97., 56., 1., 1., 0., 3., 1., 1., 0.,
          49., 37., 34., 37., 25., 3., 1., 0., 1., 0., 2., 15., 48., 55.,
          60., 79., 96., 79., 28., 2., 0., 0., 12., 76., 76., 46., 39.,
          28., 32., 0., 0., 0., 3., 0., 0., 0., 45., 49., 54., 56., 63.,
          20., 15., 5., 6., 3., 20., 18., 14., 15., 9., 11., 19., 27.,
          26., 25., 22., 19., 0., 3., 51., 59., 46., 40., 40., 6., 0.,
          4., 1., 0., 0., 0., 3., 0., 0., 0., 21., 30., 30., 23., 7., 0.,
          0., 6., 44., 46., 42., 44., 36., 0., 5., 0., 0., 2., 0., 1.,
          0., 0., 1., 1., 11., 32., 20., 0., 0., 0., 0., 0., 47., 42.,
          46., 46., 25., 6., 0., 1., 0., 3., 0., 0., 0., 3., 2., 0., 20.,
          26., 1., 0., 0., 0., 0., 1. ]
      - [ 0., 1., 0., 0., 0., 1., 2., 0., 0., 2., 0., 1., 0., 3., 0., 0.,
          0., 3., 0., 0., 0., 1., 0., 3., 0., 0., 1., 0., 0., 0., 0., 0.,
          0., 0., 0., 1., 4., 0., 0., 1., 1., 0., 68., 16., 0., 0., 3.,
          0., 3., 0., 1., 2., 2., 1., 3., 1., 0., 0., 2., 0., 0., 0., 3.,
          0., 0., 7., 65., 86., 62., 4., 0., 0., 1., 3., 0., 0., 0., 2.,
          0., 0., 0., 0., 0., 2., 0., 0., 1., 1., 0., 4., 68., 81., 82.,
          81., 75., 53., 0., 0., 0., 0., 5., 2., 0., 3., 4., 1., 0.,
          154., 23., 2., 0., 0., 5., 0., 67., 81., 84., 82., 85., 88.,
          29., 13., 26., 46., 0., 0., 0., 1., 0., 0., 1., 3., 1., 9.,
          17., 53., 0., 0., 42., 54., 61., 80., 90., 85., 76., 46., 45.,
          41., 40., 12., 0., 1., 0., 1., 0., 1., 2., 0., 4., 0., 2., 0.,
          24., 30., 30., 44., 85., 82., 79., 51., 44., 44., 44., 35.,
          35., 49., 56., 33., 27., 31., 44., 57., 62., 67., 53., 31.,
          25., 16., 21., 21., 29., 55., 87., 54., 41., 38., 37., 36.,
          31., 35., 40., 53., 79., 83., 86., 86., 86., 95., 69., 53.,
          26., 0., 0., 2., 2., 0., 85., 62., 40., 41., 36., 38., 34.,
          31., 37., 33., 46., 88., 85., 86., 102., 89., 90., 46., 29.,
          0., 1., 0., 0., 1., 92., 87., 43., 36., 33., 33., 27., 32.,
          29., 22., 28., 43., 83., 93., 92., 94., 91., 68., 32., 4., 0.,
          3., 0., 0., 81., 74., 19., 3., 5., 6., 0., 1., 1., 0., 0., 1.,
          6., 69., 92., 93., 88., 83., 49., 0., 0., 0., 4., 0., 0., 4.,
          0., 1., 0., 0., 0., 1., 0., 1., 0., 0., 0., 6., 84., 94., 64.,
          49., 46., 0., 2., 0., 1., 0., 1., 0., 0., 0., 2., 2., 1., 0.,
          0., 2., 1., 0., 2., 0., 18., 0., 0., 0., 0., 0., 0., 3., 0.,
          3., 0., 2., 1., 0., 2., 0., 0., 1., 1., 0., 0., 0., 0., 6., 0.,
          1., 0., 4., 0., 0., 2., 1., 0., 2., 0., 0., 0., 1., 1., 0., 2.,
          0., 0., 1., 0., 1., 13., 0., 1., 5., 5., 0., 5., 0., 0., 1.,
          0., 1., 45., 3., 0., 1., 0., 0., 0., 1., 0., 1., 1., 153.,
          194., 2., 0., 0., 0., 210., 5., 0., 0., 3., 0., 0., 50., 52.,
          30., 3., 0., 2., 0., 0., 1., 0., 2., 8., 26., 8., 6., 1., 0.,
          0., 2., 4., 0., 0., 0., 0., 51., 48., 52., 50., 60., 76., 67.,
          0., 1., 1., 0., 0., 11., 64., 73., 24., 0., 4., 0., 0., 0., 2.,
          2., 0., 45., 48., 49., 48., 56., 54., 62., 46., 32., 11., 8.,
          43., 46., 50., 48., 27., 16., 10., 26., 23., 18., 4., 0., 1.,
          45., 49., 46., 50., 46., 54., 32., 1., 1., 0., 1., 0., 0., 4.,
          0., 1., 1., 3., 19., 27., 25., 11., 4., 2., 50., 43., 42., 50.,
          43., 45., 22., 1., 0., 0., 0., 0., 1., 0., 3., 1., 0., 2., 0.,
          0., 5., 0., 0., 0., 50., 40., 41., 38., 37., 40., 27., 0., 3.,
          0., 2., 4., 0., 0., 2., 0., 1., 0., 2., 0., 0., 4., 0., 2.,
          47., 45., 42., 44., 39., 38., 21., 0., 0., 1., 0., 0., 1., 5.,
          0., 1., 1., 0., 2., 0., 1., 0., 0., 0. ]
      - [ 1., 0., 0., 7., 61., 119., 88., 12., 2., 1., 0., 4., 2., 1.,
          0., 0., 0., 1., 0., 3., 0., 0., 1., 0., 0., 10., 0., 1., 31.,
          104., 89., 10., 0., 1., 3., 0., 2., 4., 5., 4., 0., 5., 0., 0.,
          4., 2., 0., 0., 7., 0., 2., 0., 27., 114., 86., 12., 3., 0.,
          0., 0., 7., 18., 18., 20., 2., 0., 7., 0., 0., 0., 0., 1., 0.,
          0., 6., 5., 35., 119., 95., 6., 2., 0., 0., 3., 0., 18., 13.,
          13., 0., 0., 20., 3., 1., 3., 16., 9., 1., 0., 0., 0., 83.,
          116., 94., 8., 0., 1., 2., 0., 2., 40., 27., 0., 1., 5., 35.,
          28., 0., 8., 13., 19., 0., 3., 3., 10., 100., 115., 103., 6.,
          7., 0., 0., 1., 0., 2., 2., 1., 1., 0., 49., 101., 4., 0., 18.,
          13., 0., 4., 7., 76., 112., 119., 105., 12., 1., 3., 2., 0.,
          3., 2., 0., 0., 5., 17., 61., 115., 113., 33., 48., 0., 13.,
          32., 38., 74., 106., 115., 107., 101., 125., 111., 68., 41.,
          36., 33., 37., 59., 100., 127., 105., 107., 95., 60., 37., 28.,
          4., 0., 0., 0., 3., 13., 74., 111., 116., 91., 52., 43., 45.,
          45., 49., 52., 93., 116., 109., 14., 0., 0., 1., 1., 0., 0.,
          3., 1., 0., 3., 72., 115., 117., 64., 47., 44., 35., 39., 43.,
          51., 68., 107., 109., 9., 2., 1., 0., 0., 1., 0., 0., 0., 0.,
          3., 73., 114., 108., 53., 20., 7., 0., 0., 4., 22., 52., 111.,
          108., 8., 0., 1., 0., 1., 0., 0., 0., 2., 0., 1., 71., 114.,
          109., 31., 2., 0., 0., 1., 3., 0., 22., 99., 96., 11., 0., 1.,
          1., 0., 0., 0., 0., 2., 0., 3., 67., 106., 88., 3., 1., 0., 0.,
          2., 0., 2., 1., 79., 88., 7., 0., 0., 0., 0., 3., 0., 1., 0.,
          0., 8., 66., 100., 86., 0., 1., 2., 0., 2., 2., 0., 1., 75.,
          94., 4., 1., 0., 0., 2., 0., 3., 17., 2., 0., 4., 68., 107.,
          70., 2., 0., 0., 1., 0., 0., 2., 0., 85., 96., 6., 4., 2., 0.,
          0., 0., 3., 24., 0., 2., 6., 73., 111., 93., 0., 2., 3., 2.,
          2., 1., 0., 2., 106., 91., 7., 0., 0., 0., 1., 6., 0., 37., 0.,
          4., 6., 71., 117., 111., 8., 0., 11., 5., 1., 0., 0., 10.,
          114., 94., 13., 8., 1., 0., 1., 0., 8., 13., 5., 13., 6., 70.,
          115., 123., 20., 3., 2., 6., 0., 2., 0., 114., 123., 104., 14.,
          11., 2., 1., 1., 12., 47., 9., 10., 12., 18., 79., 122., 127.,
          69., 66., 28., 7., 45., 33., 48., 132., 122., 113., 30., 30.,
          30., 0., 1., 13., 97., 106., 145., 131., 161., 129., 173.,
          186., 180., 80., 53., 42., 69., 67., 160., 156., 176., 137.,
          159., 142., 155., 15., 5., 116., 122., 130., 128., 128., 134.,
          132., 128., 132., 132., 132., 124., 120., 130., 131., 138.,
          141., 137., 135., 132., 134., 142., 87., 0., 127., 127., 138.,
          130., 143., 141., 143., 143., 144., 139., 146., 144., 134.,
          149., 149., 142., 142., 142., 136., 143., 139., 147., 141.,
          73., 120., 132., 129., 140., 140., 143., 144., 137., 143.,
          137., 139., 139., 134., 137., 140., 138., 145., 149., 141.,
          151., 140., 145., 151., 140., 130., 128., 137., 135., 137.,
          139., 135., 138., 134., 141., 139., 99., 90., 109., 142., 144.,
          140., 144., 143., 136., 142., 144., 137., 148. ]
      - [ 23., 76., 88., 86., 87., 89., 82., 87., 85., 91., 87., 4., 79.,
          0., 91., 80., 84., 82., 82., 82., 85., 79., 79., 75., 2., 80.,
          81., 88., 89., 86., 80., 86., 89., 87., 82., 8., 2., 0., 80.,
          80., 80., 79., 80., 77., 81., 76., 74., 76., 81., 80., 90.,
          84., 82., 79., 87., 88., 87., 87., 90., 84., 79., 82., 81.,
          81., 78., 78., 78., 69., 73., 77., 73., 73., 81., 83., 76.,
          85., 89., 85., 82., 85., 85., 80., 80., 81., 81., 79., 76.,
          80., 77., 78., 79., 75., 76., 77., 74., 70., 78., 77., 77.,
          79., 81., 77., 85., 80., 79., 78., 81., 78., 77., 78., 80.,
          75., 75., 74., 70., 75., 70., 66., 73., 72., 62., 74., 61.,
          63., 60., 48., 58., 51., 44., 50., 44., 44., 41., 46., 40.,
          51., 47., 52., 40., 41., 39., 36., 39., 31., 7., 4., 10., 2.,
          0., 7., 48., 65., 66., 64., 61., 64., 65., 61., 62., 66., 57.,
          60., 25., 3., 0., 0., 1., 7., 24., 4., 3., 55., 3., 1., 49.,
          62., 63., 59., 62., 59., 67., 12., 22., 31., 23., 33., 11., 0.,
          3., 0., 2., 36., 1., 51., 5., 6., 3., 0., 46., 58., 59., 58.,
          57., 52., 5., 10., 17., 0., 1., 0., 24., 2., 0., 0., 14., 0.,
          74., 114., 10., 6., 5., 0., 44., 53., 60., 54., 2., 0., 2., 0.,
          2., 27., 2., 6., 17., 0., 0., 0., 0., 8., 155., 10., 0., 0.,
          2., 0., 36., 49., 43., 7., 1., 2., 0., 0., 0., 4., 4., 0., 17.,
          3., 2., 1., 0., 2., 8., 0., 2., 0., 0., 0., 29., 35., 38., 2.,
          0., 0., 0., 0., 10., 3., 7., 1., 8., 0., 0., 1., 75., 0., 1.,
          0., 4., 0., 0., 1., 15., 34., 10., 54., 1., 1., 0., 0., 0., 0.,
          2., 1., 10., 0., 0., 27., 62., 0., 0., 0., 0., 3., 2., 0., 12.,
          33., 1., 4., 2., 1., 2., 0., 7., 0., 0., 16., 4., 1., 0., 16.,
          0., 2., 4., 0., 0., 0., 0., 0., 26., 40., 15., 107., 148., 0.,
          2., 0., 0., 0., 0., 14., 15., 1., 0., 0., 0., 0., 0., 1., 1.,
          0., 1., 0., 22., 47., 38., 0., 1., 0., 0., 1., 0., 2., 12.,
          20., 17., 1., 1., 1., 0., 0., 0., 0., 0., 1., 3., 0., 34., 48.,
          47., 34., 0., 1., 0., 0., 0., 11., 31., 32., 24., 1., 2., 0.,
          0., 0., 0., 0., 0., 0., 0., 3., 47., 44., 44., 42., 42., 46.,
          25., 28., 49., 44., 45., 53., 29., 3., 1., 7., 9., 7., 37.,
          30., 34., 37., 33., 41., 34., 14., 11., 9., 6., 4., 2., 5., 0.,
          3., 1., 1., 34., 37., 44., 45., 43., 51., 66., 1., 3., 39.,
          47., 48., 61., 1., 3., 0., 0., 0., 3., 0., 3., 1., 2., 0., 32.,
          52., 46., 56., 49., 55., 0., 0., 1., 0., 9., 45., 62., 4., 0.,
          2., 1., 0., 11., 2., 0., 0., 0., 0., 28., 45., 44., 46., 59.,
          8., 40., 9., 7., 0., 0., 54., 43., 1., 1., 0., 2., 6., 72.,
          22., 15., 0., 1., 2., 32., 36., 44., 38., 0., 3., 177., 21.,
          0., 0., 0., 30., 27., 0., 1., 0., 3., 45., 133., 4., 0., 0.,
          0., 0., 27., 42., 46., 3., 0., 18., 228., 4., 0., 0., 2., 30.,
          5., 0., 5., 9., 3., 7., 3., 0., 0., 1., 4., 0., 32., 45., 27.,
          0., 18., 14. ]
      - [ 105., 101., 105., 104., 100., 105., 68., 4., 0., 0., 0., 0.,
          0., 0., 0., 0., 0., 3., 65., 105., 117., 114., 113., 118.,
          105., 104., 103., 109., 100., 99., 74., 2., 0., 0., 0., 0., 0.,
          0., 1., 0., 0., 0., 61., 111., 109., 113., 115., 114., 103.,
          102., 105., 100., 105., 103., 73., 8., 1., 0., 0., 1., 0., 0.,
          0., 0., 2., 3., 62., 111., 110., 113., 118., 120., 108., 110.,
          107., 102., 98., 108., 70., 8., 0., 1., 2., 0., 0., 2., 4., 0.,
          0., 0., 62., 112., 111., 111., 120., 116., 106., 106., 109.,
          109., 103., 101., 83., 0., 2., 0., 0., 0., 1., 0., 0., 0., 0.,
          1., 58., 107., 116., 114., 113., 117., 107., 103., 112., 113.,
          114., 101., 83., 10., 5., 1., 2., 0., 3., 0., 2., 3., 0., 2.,
          59., 106., 118., 119., 110., 114., 91., 90., 88., 95., 86.,
          85., 76., 61., 57., 63., 56., 26., 20., 24., 28., 16., 28.,
          28., 90., 99., 93., 96., 96., 81., 12., 11., 15., 17., 17.,
          13., 73., 99., 101., 99., 87., 55., 44., 42., 49., 45., 48.,
          59., 84., 18., 15., 5., 6., 6., 0., 4., 0., 0., 4., 3., 75.,
          113., 101., 102., 96., 70., 49., 41., 43., 45., 51., 61., 87.,
          16., 0., 3., 0., 0., 0., 0., 1., 2., 0., 2., 76., 102., 108.,
          103., 104., 80., 40., 39., 35., 39., 44., 74., 82., 12., 2.,
          0., 0., 1., 4., 0., 0., 0., 0., 4., 72., 102., 101., 104., 97.,
          49., 30., 29., 26., 25., 31., 68., 76., 10., 2., 0., 1., 0.,
          0., 0., 2., 1., 2., 1., 62., 99., 105., 102., 71., 34., 9., 2.,
          2., 7., 16., 36., 65., 11., 0., 2., 1., 0., 2., 0., 0., 0., 0.,
          4., 68., 98., 103., 92., 41., 4., 2., 2., 0., 2., 4., 8., 50.,
          11., 0., 2., 0., 0., 1., 0., 0., 2., 2., 0., 63., 96., 62.,
          19., 1., 0., 0., 0., 0., 0., 0., 1., 35., 10., 0., 0., 0., 2.,
          0., 2., 0., 0., 0., 1., 69., 98., 3., 0., 0., 6., 0., 3., 0.,
          0., 0., 2., 31., 10., 2., 0., 0., 1., 2., 0., 0., 1., 0., 3.,
          42., 8., 1., 2., 0., 0., 0., 0., 5., 0., 0., 0., 34., 12., 0.,
          2., 0., 0., 1., 0., 0., 0., 2., 0., 1., 0., 1., 0., 0., 0., 2.,
          0., 1., 1., 9., 5., 75., 18., 0., 0., 0., 1., 0., 1., 1., 0.,
          3., 0., 0., 0., 0., 2., 1., 1., 0., 0., 3., 20., 14., 19., 88.,
          18., 7., 3., 0., 0., 36., 34., 37., 43., 36., 5., 1., 3., 2.,
          2., 0., 0., 1., 2., 2., 24., 21., 98., 88., 49., 52., 45., 44.,
          37., 89., 93., 102., 101., 75., 3., 9., 0., 1., 0., 2., 1., 0.,
          0., 0., 19., 25., 39., 62., 93., 96., 93., 91., 66., 113.,
          105., 114., 111., 79., 77., 60., 44., 27., 15., 16., 10., 8.,
          6., 0., 0., 0., 0., 42., 106., 104., 113., 104., 66., 110.,
          103., 106., 104., 103., 103., 86., 20., 10., 6., 14., 7., 0.,
          0., 1., 0., 3., 0., 51., 104., 109., 110., 103., 77., 101.,
          104., 106., 105., 108., 103., 83., 10., 2., 0., 2., 0., 0., 0.,
          1., 0., 0., 3., 41., 102., 108., 117., 102., 82., 104., 110.,
          107., 103., 110., 106., 84., 12., 0., 2., 0., 1., 0., 1., 0.,
          2., 2., 0., 58., 103., 108., 106., 109., 83. ]
      - [ 6., 67., 73., 33., 17., 5., 0., 0., 0., 0., 2., 2., 0., 0., 2.,
          0., 7., 0., 0., 0., 1., 0., 0., 2., 77., 86., 87., 39., 27.,
          0., 1., 0., 4., 0., 0., 0., 2., 0., 4., 0., 0., 2., 0., 1., 0.,
          0., 6., 5., 94., 83., 85., 14., 1., 2., 0., 2., 0., 0., 2., 0.,
          2., 0., 0., 1., 3., 0., 1., 0., 3., 2., 1., 245., 75., 85.,
          28., 2., 0., 0., 6., 0., 0., 2., 0., 0., 1., 2., 0., 0., 1.,
          1., 2., 0., 3., 0., 0., 25., 47., 52., 2., 0., 3., 3., 0., 0.,
          1., 1., 0., 2., 0., 0., 4., 2., 0., 0., 1., 1., 0., 2., 4.,
          24., 6., 10., 4., 0., 0., 0., 0., 1., 0., 0., 2., 0., 0., 3.,
          0., 0., 0., 4., 46., 7., 0., 23., 73., 88., 0., 0., 1., 1., 3.,
          0., 1., 1., 1., 0., 0., 0., 2., 0., 148., 2., 1., 4., 47., 48.,
          86., 92., 92., 84., 0., 4., 0., 3., 0., 0., 2., 0., 0., 0., 4.,
          0., 0., 1., 10., 0., 0., 23., 17., 21., 29., 62., 63., 69., 1.,
          0., 0., 0., 3., 0., 0., 1., 1., 44., 74., 47., 5., 1., 7., 28.,
          31., 4., 0., 1., 0., 2., 0., 1., 1., 0., 0., 2., 8., 0., 0.,
          5., 34., 66., 88., 89., 78., 87., 82., 46., 32., 3., 1., 2.,
          0., 1., 0., 0., 0., 0., 2., 24., 24., 13., 23., 24., 27., 26.,
          67., 80., 82., 97., 88., 66., 39., 0., 1., 1., 0., 0., 1., 0.,
          0., 0., 3., 28., 24., 14., 21., 6., 0., 4., 2., 36., 78., 88.,
          94., 88., 60., 1., 0., 1., 0., 0., 1., 0., 0., 7., 36., 35.,
          29., 7., 4., 2., 0., 3., 0., 4., 31., 90., 88., 90., 88., 14.,
          0., 1., 2., 0., 0., 0., 67., 22., 58., 34., 22., 1., 0., 0.,
          1., 0., 0., 0., 3., 88., 86., 86., 91., 21., 0., 0., 1., 0.,
          0., 0., 53., 55., 79., 19., 4., 0., 0., 2., 0., 6., 0., 0., 1.,
          36., 37., 44., 63., 16., 0., 0., 0., 1., 0., 1., 77., 20., 3.,
          0., 0., 0., 1., 0., 0., 0., 1., 2., 2., 10., 41., 29., 35.,
          10., 1., 1., 0., 1., 0., 0., 4., 2., 0., 0., 2., 0., 1., 0.,
          2., 0., 0., 177., 1., 16., 31., 32., 31., 10., 0., 1., 0., 0.,
          1., 0., 2., 0., 0., 0., 1., 0., 0., 1., 0., 0., 0., 138., 3.,
          25., 33., 31., 31., 12., 1., 0., 0., 0., 1., 1., 0., 0., 2.,
          2., 1., 1., 0., 0., 1., 1., 1., 0., 61., 47., 43., 31., 23.,
          9., 1., 0., 0., 0., 2., 3., 2., 1., 0., 0., 0., 0., 0., 1., 1.,
          1., 0., 44., 65., 60., 28., 18., 10., 2., 0., 1., 0., 0., 1.,
          3., 1., 1., 0., 0., 1., 1., 0., 0., 0., 0., 4., 6., 3., 8., 0.,
          3., 0., 0., 0., 1., 1., 0., 1., 2., 0., 0., 1., 0., 0., 0., 0.,
          0., 1., 5., 0., 0., 3., 0., 0., 0., 0., 0., 0., 0., 1., 0., 1.,
          1., 0., 3., 32., 28., 31., 20., 3., 0., 0., 0., 2., 2., 0., 3.,
          0., 0., 0., 1., 1., 0., 1., 1., 1., 1., 1., 4., 43., 33., 33.,
          23., 0., 0., 0., 1., 0., 0., 1., 0., 0., 1., 0., 1., 0., 0.,
          1., 2., 1., 0. ]
      - [ 74., 74., 56., 42., 43., 58., 30., 0., 1., 0., 3., 0., 0., 26.,
          23., 25., 20., 20., 22., 17., 20., 19., 18., 0., 91., 87., 82.,
          45., 28., 29., 23., 1., 0., 3., 0., 0., 18., 30., 27., 19.,
          21., 18., 21., 20., 14., 16., 7., 4., 110., 105., 87., 46.,
          22., 28., 10., 1., 1., 0., 0., 1., 27., 24., 32., 37., 29.,
          29., 35., 44., 18., 17., 11., 0., 109., 142., 82., 37., 23.,
          25., 6., 0., 0., 2., 4., 0., 25., 34., 45., 41., 28., 50., 78.,
          57., 27., 21., 23., 18., 95., 92., 64., 33., 27., 23., 11., 2.,
          0., 1., 0., 2., 28., 49., 57., 28., 68., 87., 89., 97., 43.,
          24., 22., 23., 79., 92., 78., 36., 26., 20., 12., 0., 3., 0.,
          3., 0., 27., 66., 53., 54., 48., 72., 86., 56., 29., 23., 26.,
          23., 93., 90., 81., 45., 22., 28., 9., 0., 0., 0., 0., 4., 0.,
          37., 67., 53., 62., 76., 64., 27., 32., 26., 21., 23., 83.,
          92., 84., 64., 35., 30., 16., 3., 1., 3., 0., 0., 3., 26., 35.,
          57., 63., 37., 55., 42., 35., 33., 29., 26., 22., 22., 23.,
          17., 11., 15., 24., 28., 30., 18., 19., 18., 16., 31., 57.,
          60., 57., 66., 62., 59., 40., 31., 27., 30., 3., 0., 0., 0.,
          0., 31., 36., 25., 22., 26., 20., 14., 19., 19., 38., 65., 73.,
          65., 66., 69., 54., 48., 32., 28., 0., 0., 0., 5., 2., 23.,
          57., 27., 29., 18., 19., 23., 25., 23., 31., 36., 67., 70.,
          68., 63., 71., 57., 50., 42., 2., 1., 0., 1., 0., 32., 59.,
          25., 23., 22., 28., 27., 26., 24., 31., 40., 46., 71., 64.,
          72., 67., 62., 65., 48., 9., 4., 2., 0., 2., 17., 48., 28.,
          27., 25., 30., 29., 31., 29., 30., 37., 60., 47., 58., 72.,
          76., 75., 64., 11., 53., 37., 0., 2., 0., 5., 27., 28., 27.,
          32., 35., 29., 35., 36., 51., 84., 85., 87., 90., 80., 73.,
          75., 46., 58., 48., 42., 35., 0., 0., 10., 26., 32., 25., 22.,
          50., 51., 32., 40., 73., 92., 102., 92., 98., 81., 76., 73.,
          55., 34., 78., 72., 56., 0., 1., 3., 29., 27., 28., 27., 64.,
          66., 41., 54., 89., 98., 107., 117., 102., 89., 81., 73., 71.,
          13., 90., 86., 73., 0., 0., 5., 26., 24., 24., 21., 36., 71.,
          61., 61., 85., 109., 112., 117., 110., 78., 78., 79., 74., 77.,
          142., 108., 85., 3., 0., 7., 27., 25., 25., 26., 24., 47., 65.,
          66., 73., 88., 104., 121., 74., 83., 76., 85., 75., 75., 110.,
          101., 37., 0., 0., 6., 28., 21., 20., 21., 25., 42., 62., 72.,
          83., 82., 83., 80., 69., 73., 81., 78., 80., 79., 86., 86., 0.,
          3., 5., 8., 22., 27., 24., 22., 22., 19., 28., 63., 92., 82.,
          85., 83., 70., 83., 80., 80., 75., 83., 66., 70., 68., 64.,
          49., 40., 11., 8., 6., 2., 2., 6., 5., 9., 21., 30., 21., 18.,
          70., 85., 74., 75., 82., 86., 26., 58., 81., 85., 81., 55., 5.,
          0., 0., 3., 1., 0., 0., 1., 0., 0., 1., 2., 61., 79., 83., 81.,
          84., 83., 40., 33., 64., 84., 78., 79., 8., 2., 3., 0., 3.,
          13., 23., 26., 26., 18., 7., 0., 71., 83., 82., 86., 81., 80.,
          32., 62., 65., 74., 81., 81., 2., 0., 0., 0., 20., 25., 29.,
          25., 35., 38., 39., 39., 66., 87., 81., 80., 81., 75. ]
      - [ 25., 33., 51., 46., 58., 60., 61., 18., 6., 9., 7., 5., 11.,
          35., 34., 39., 37., 39., 36., 29., 30., 52., 80., 53., 29.,
          40., 43., 39., 66., 64., 60., 19., 4., 9., 7., 9., 5., 34.,
          21., 40., 29., 27., 27., 33., 32., 68., 80., 68., 32., 43.,
          41., 40., 64., 62., 60., 14., 7., 8., 4., 6., 2., 26., 32.,
          30., 38., 34., 31., 30., 42., 86., 83., 80., 30., 26., 32.,
          51., 66., 70., 65., 13., 13., 7., 5., 10., 0., 0., 25., 36.,
          29., 26., 29., 38., 53., 82., 80., 84., 27., 24., 42., 70.,
          69., 72., 61., 15., 7., 5., 4., 7., 5., 1., 0., 16., 25., 33.,
          25., 16., 80., 84., 87., 78., 38., 51., 65., 76., 68., 72.,
          58., 23., 6., 10., 8., 3., 1., 0., 0., 2., 0., 0., 8., 61.,
          83., 81., 85., 85., 34., 45., 44., 47., 50., 55., 62., 50.,
          44., 31., 26., 29., 23., 16., 25., 19., 24., 22., 31., 72.,
          81., 81., 87., 85., 2., 3., 2., 12., 10., 4., 50., 80., 81.,
          72., 65., 63., 51., 86., 117., 152., 64., 67., 74., 72., 85.,
          82., 91., 89., 4., 6., 7., 5., 11., 12., 54., 79., 82., 75.,
          68., 65., 87., 96., 104., 115., 126., 77., 82., 75., 88., 80.,
          84., 83., 7., 7., 3., 11., 7., 10., 55., 81., 71., 81., 69.,
          50., 90., 108., 109., 108., 120., 84., 82., 74., 84., 87., 91.,
          82., 81., 20., 11., 11., 3., 10., 56., 73., 77., 69., 52., 47.,
          96., 100., 93., 101., 109., 72., 79., 83., 88., 86., 86., 88.,
          98., 78., 56., 5., 15., 5., 48., 79., 75., 62., 39., 39., 55.,
          95., 101., 99., 59., 52., 78., 79., 86., 83., 80., 48., 89.,
          73., 81., 19., 6., 13., 41., 69., 70., 59., 48., 34., 45., 45.,
          44., 42., 36., 53., 80., 71., 87., 87., 92., 26., 73., 56.,
          70., 54., 6., 6., 40., 74., 64., 44., 39., 44., 27., 39., 39.,
          31., 44., 44., 76., 66., 86., 83., 87., 57., 45., 39., 57.,
          48., 6., 11., 36., 67., 66., 46., 37., 37., 32., 37., 40., 40.,
          40., 49., 81., 70., 88., 87., 81., 84., 37., 48., 53., 29.,
          10., 8., 45., 63., 60., 54., 45., 27., 36., 31., 32., 40., 33.,
          69., 77., 71., 87., 87., 86., 90., 45., 46., 34., 10., 12., 2.,
          41., 56., 57., 53., 47., 27., 26., 18., 21., 26., 59., 77.,
          80., 72., 89., 85., 86., 88., 37., 25., 10., 5., 4., 2., 41.,
          60., 56., 51., 47., 47., 34., 41., 44., 59., 73., 79., 84.,
          73., 88., 89., 92., 85., 18., 19., 24., 32., 25., 35., 58.,
          47., 38., 29., 24., 26., 29., 44., 49., 50., 55., 51., 66.,
          81., 87., 85., 82., 85., 46., 74., 80., 75., 78., 73., 52.,
          11., 4., 4., 2., 11., 86., 98., 115., 126., 107., 20., 28.,
          81., 87., 88., 89., 83., 102., 95., 87., 71., 74., 72., 59.,
          5., 5., 4., 11., 66., 92., 97., 109., 126., 135., 111., 30.,
          82., 88., 90., 84., 85., 124., 106., 91., 70., 73., 67., 55.,
          7., 6., 2., 36., 72., 72., 52., 99., 124., 108., 107., 62.,
          85., 91., 82., 85., 78., 111., 103., 93., 70., 57., 63., 55.,
          5., 7., 6., 51., 71., 49., 35., 79., 89., 69., 108., 81., 85.,
          92., 83., 82., 78., 81., 94., 78., 55., 48., 62., 44., 6., 2.,
          17., 38., 56., 39., 38., 36., 46., 59., 90., 68., 82., 82.,
          82., 85., 79. ]
      - [ 83., 84., 38., 36., 45., 53., 33., 0., 0., 24., 41., 55., 63.,
          68., 54., 56., 28., 85., 70., 62., 98., 97., 3., 82., 95., 92.,
          33., 39., 43., 49., 27., 15., 57., 67., 67., 71., 73., 91.,
          76., 58., 52., 94., 84., 77., 105., 89., 26., 9., 209., 88.,
          46., 50., 57., 59., 64., 67., 81., 73., 83., 106., 100., 107.,
          106., 104., 84., 106., 110., 92., 102., 105., 107., 102., 138.,
          92., 90., 56., 80., 101., 79., 75., 85., 114., 111., 110.,
          108., 120., 113., 120., 118., 131., 122., 105., 101., 107.,
          105., 109., 112., 112., 113., 80., 114., 99., 101., 110., 113.,
          110., 111., 106., 116., 125., 121., 125., 140., 141., 116.,
          118., 111., 100., 109., 111., 120., 116., 109., 99., 127.,
          126., 120., 54., 0., 66., 123., 130., 125., 128., 130., 133.,
          126., 82., 108., 111., 100., 103., 107., 104., 79., 80., 79.,
          69., 121., 118., 109., 43., 27., 24., 107., 97., 108., 89.,
          82., 86., 81., 93., 104., 103., 116., 111., 111., 110., 0., 2.,
          0., 0., 3., 13., 46., 39., 40., 43., 38., 38., 39., 55., 92.,
          103., 98., 110., 104., 107., 108., 112., 107., 109., 1., 0.,
          0., 2., 1., 14., 74., 37., 33., 41., 35., 32., 27., 21., 42.,
          99., 105., 103., 103., 105., 105., 112., 112., 106., 0., 2.,
          1., 0., 1., 15., 89., 34., 39., 39., 38., 36., 36., 43., 46.,
          31., 104., 109., 105., 109., 100., 101., 112., 105., 1., 0.,
          2., 1., 0., 27., 65., 44., 39., 41., 79., 97., 60., 33., 68.,
          60., 59., 108., 103., 108., 106., 101., 100., 102., 43., 10.,
          0., 8., 28., 28., 45., 42., 37., 46., 75., 99., 111., 49., 79.,
          79., 66., 116., 114., 107., 101., 108., 2., 97., 78., 53., 50.,
          46., 55., 56., 61., 63., 41., 56., 82., 96., 103., 104., 104.,
          96., 81., 106., 105., 103., 110., 118., 27., 98., 89., 86.,
          68., 42., 82., 88., 80., 76., 71., 74., 100., 107., 110., 117.,
          145., 110., 98., 116., 122., 105., 111., 102., 8., 60., 117.,
          128., 133., 86., 71., 117., 102., 87., 86., 116., 122., 136.,
          124., 141., 202., 110., 120., 114., 113., 107., 106., 109.,
          105., 72., 127., 123., 128., 127., 142., 146., 120., 105.,
          106., 128., 138., 133., 123., 121., 140., 117., 112., 117.,
          112., 118., 114., 114., 113., 107., 124., 131., 141., 141.,
          139., 154., 127., 127., 108., 125., 127., 120., 115., 112.,
          122., 111., 118., 122., 112., 122., 108., 106., 119., 113.,
          155., 148., 143., 129., 130., 126., 104., 40., 37., 59., 57.,
          50., 72., 108., 109., 110., 107., 114., 119., 110., 111., 114.,
          111., 116., 58., 98., 95., 93., 81., 48., 33., 15., 21., 18.,
          17., 16., 21., 37., 68., 68., 79., 103., 116., 100., 109.,
          106., 112., 114., 29., 69., 96., 92., 95., 79., 7., 2., 0., 0.,
          6., 0., 0., 3., 0., 1., 1., 50., 112., 103., 105., 105., 107.,
          110., 35., 38., 49., 101., 95., 99., 10., 1., 2., 1., 1., 26.,
          35., 24., 6., 1., 0., 53., 115., 108., 107., 105., 110., 109.,
          40., 55., 47., 65., 90., 92., 7., 0., 20., 35., 42., 49., 27.,
          36., 44., 9., 0., 58., 105., 108., 112., 102., 110., 102., 10.,
          71., 51., 40., 49., 47., 13., 38., 37., 37., 50., 66., 81.,
          27., 72., 60., 19., 59., 119., 114., 115., 108., 107., 104.,
          43., 44., 46., 45., 49., 57., 38., 33., 50., 44., 39., 69.,
          90., 82., 71., 77., 58., 69., 112., 114., 117., 107., 103.,
          71. ]
      - [ 8., 66., 88., 83., 96., 104., 100., 100., 96., 88., 80., 80.,
          76., 15., 84., 94., 93., 95., 93., 99., 91., 76., 71., 24.,
          14., 68., 80., 88., 96., 93., 102., 97., 98., 75., 41., 53.,
          62., 15., 85., 90., 90., 96., 94., 95., 87., 76., 71., 43.,
          89., 77., 82., 88., 93., 100., 100., 107., 92., 79., 64., 51.,
          35., 74., 87., 89., 89., 93., 93., 96., 88., 74., 70., 71.,
          117., 77., 72., 82., 90., 102., 102., 97., 96., 85., 75., 107.,
          114., 93., 83., 87., 86., 86., 85., 90., 84., 71., 77., 90.,
          122., 80., 67., 69., 87., 106., 98., 98., 93., 76., 114., 109.,
          107., 112., 95., 86., 87., 90., 90., 90., 80., 73., 92., 105.,
          138., 127., 93., 71., 83., 95., 96., 97., 86., 79., 117., 109.,
          121., 115., 118., 87., 83., 91., 94., 92., 74., 75., 104.,
          123., 130., 131., 105., 72., 76., 100., 103., 93., 71., 83.,
          118., 131., 120., 130., 122., 86., 82., 95., 92., 84., 68.,
          88., 97., 102., 113., 120., 91., 72., 27., 13., 74., 90., 74.,
          100., 122., 138., 149., 151., 126., 82., 81., 80., 38., 6.,
          14., 95., 114., 113., 102., 107., 105., 95., 36., 9., 65., 91.,
          70., 103., 128., 139., 144., 139., 136., 83., 73., 78., 34.,
          7., 37., 98., 122., 130., 91., 84., 97., 85., 32., 11., 73.,
          86., 75., 87., 127., 145., 158., 148., 120., 67., 72., 76.,
          39., 4., 56., 78., 110., 130., 89., 83., 93., 105., 6., 2.,
          79., 87., 79., 98., 107., 128., 142., 123., 87., 69., 67., 82.,
          30., 5., 72., 80., 87., 113., 77., 100., 102., 53., 0., 7.,
          76., 87., 87., 104., 104., 106., 95., 81., 83., 78., 69., 75.,
          38., 7., 78., 77., 81., 90., 51., 65., 20., 0., 2., 12., 70.,
          100., 95., 108., 115., 111., 89., 86., 87., 77., 70., 80., 42.,
          9., 76., 85., 65., 64., 0., 0., 1., 0., 1., 9., 75., 102.,
          101., 117., 121., 153., 99., 90., 79., 72., 74., 84., 46., 0.,
          57., 86., 73., 60., 2., 0., 0., 0., 4., 8., 88., 109., 111.,
          118., 132., 142., 151., 87., 75., 58., 81., 84., 45., 6., 5.,
          56., 70., 66., 2., 0., 1., 2., 2., 10., 88., 119., 117., 117.,
          110., 100., 82., 68., 67., 84., 83., 85., 43., 0., 0., 5., 16.,
          31., 2., 2., 0., 6., 1., 11., 93., 120., 118., 115., 110., 80.,
          79., 65., 73., 83., 84., 90., 45., 0., 2., 0., 3., 0., 5., 3.,
          5., 9., 2., 8., 97., 114., 116., 122., 102., 88., 75., 81.,
          87., 86., 84., 85., 52., 2., 0., 2., 0., 0., 53., 62., 61.,
          63., 126., 123., 112., 164., 151., 152., 136., 84., 70., 70.,
          64., 72., 81., 87., 94., 139., 67., 40., 44., 45., 77., 82.,
          79., 83., 95., 102., 72., 25., 31., 24., 19., 17., 8., 16.,
          17., 16., 15., 20., 67., 87., 70., 60., 58., 70., 76., 73.,
          80., 85., 94., 109., 64., 14., 7., 12., 2., 4., 22., 61., 66.,
          57., 18., 11., 65., 90., 71., 63., 81., 84., 106., 93., 82.,
          80., 91., 106., 65., 7., 6., 6., 9., 11., 73., 90., 88., 94.,
          71., 13., 61., 81., 60., 56., 103., 110., 126., 114., 86., 74.,
          83., 104., 70., 17., 8., 7., 7., 51., 101., 115., 119., 107.,
          103., 29., 52., 80., 65., 63., 105., 131., 142., 135., 100.,
          80., 79., 108., 58., 6., 8., 8., 20., 85., 113., 131., 127.,
          133., 119., 76., 51., 75., 76., 85., 103., 135. ]
      - [ 73., 79., 86., 74., 28., 37., 39., 25., 0., 1., 0., 0., 48.,
          92., 89., 81., 84., 78., 75., 73., 58., 79., 68., 12., 82.,
          97., 87., 66., 33., 34., 34., 12., 1., 0., 1., 3., 48., 82.,
          106., 117., 70., 91., 88., 107., 71., 73., 73., 24., 106.,
          101., 95., 52., 32., 34., 37., 21., 0., 0., 0., 0., 38., 67.,
          100., 91., 97., 102., 172., 115., 73., 73., 78., 74., 111.,
          101., 105., 77., 42., 31., 38., 20., 0., 0., 0., 0., 0., 59.,
          78., 106., 104., 211., 128., 95., 79., 78., 74., 79., 109.,
          102., 115., 102., 50., 37., 29., 23., 0., 2., 1., 0., 0., 26.,
          57., 92., 210., 119., 105., 93., 77., 78., 79., 74., 90., 99.,
          96., 95., 70., 37., 39., 25., 0., 1., 0., 0., 3., 0., 12., 77.,
          97., 97., 76., 61., 80., 76., 71., 77., 77., 80., 85., 77.,
          74., 40., 28., 26., 17., 13., 20., 15., 17., 22., 54., 61.,
          72., 60., 58., 76., 74., 75., 74., 76., 2., 0., 0., 1., 0., 0.,
          3., 37., 37., 35., 32., 33., 25., 27., 29., 74., 75., 72., 74.,
          70., 74., 79., 81., 76., 0., 1., 1., 0., 0., 0., 6., 62., 38.,
          37., 32., 33., 41., 41., 36., 30., 76., 75., 78., 70., 73.,
          74., 79., 81., 3., 0., 0., 1., 0., 0., 9., 69., 41., 35., 85.,
          90., 96., 100., 68., 59., 52., 77., 75., 72., 79., 79., 83.,
          74., 16., 5., 0., 0., 3., 0., 8., 64., 46., 51., 106., 111.,
          92., 101., 91., 69., 76., 63., 80., 67., 82., 75., 75., 87.,
          76., 49., 20., 6., 0., 1., 0., 43., 40., 63., 109., 101., 112.,
          107., 113., 79., 72., 75., 79., 68., 84., 75., 83., 37., 59.,
          84., 74., 6., 0., 0., 5., 40., 45., 42., 127., 115., 106.,
          134., 98., 96., 82., 83., 79., 71., 78., 86., 68., 12., 70.,
          81., 84., 62., 2., 2., 3., 35., 38., 36., 87., 109., 123.,
          125., 102., 96., 95., 82., 68., 73., 86., 80., 79., 65., 87.,
          89., 90., 75., 1., 0., 0., 33., 39., 40., 42., 78., 92., 95.,
          105., 104., 96., 90., 85., 75., 87., 77., 85., 77., 90., 97.,
          92., 63., 1., 2., 1., 28., 33., 34., 35., 41., 90., 99., 97.,
          107., 103., 83., 86., 80., 81., 83., 82., 80., 111., 109.,
          101., 57., 0., 0., 2., 30., 34., 38., 33., 35., 62., 82., 85.,
          87., 85., 92., 86., 78., 82., 82., 84., 83., 112., 105., 90.,
          7., 1., 0., 3., 34., 35., 34., 30., 39., 34., 48., 81., 84.,
          89., 86., 87., 70., 90., 79., 85., 89., 80., 80., 69., 71.,
          61., 38., 24., 31., 22., 18., 29., 14., 18., 15., 29., 57.,
          60., 66., 68., 81., 79., 87., 78., 80., 25., 39., 87., 90.,
          91., 88., 72., 19., 0., 0., 0., 0., 0., 3., 0., 1., 1., 2., 1.,
          77., 89., 83., 88., 81., 55., 45., 44., 73., 94., 80., 86.,
          28., 0., 2., 22., 43., 55., 56., 52., 39., 1., 0., 0., 73.,
          86., 86., 81., 89., 44., 66., 78., 62., 78., 92., 90., 27., 2.,
          32., 43., 56., 98., 81., 84., 66., 58., 6., 2., 70., 88., 84.,
          83., 80., 70., 58., 73., 69., 45., 54., 44., 23., 1., 40., 43.,
          43., 54., 58., 78., 98., 69., 69., 1., 69., 90., 85., 85., 81.,
          99., 90., 80., 89., 32., 33., 42., 14., 15., 47., 43., 104.,
          120., 70., 77., 105., 84., 85., 19., 73., 88., 87., 92., 86. ]
      - [ 41., 36., 53., 70., 87., 89., 87., 37., 31., 30., 26., 14., 0.,
          45., 41., 48., 47., 47., 42., 39., 42., 54., 101., 96., 46.,
          50., 54., 52., 96., 94., 88., 41., 32., 26., 23., 6., 0., 30.,
          48., 42., 48., 42., 51., 51., 49., 100., 109., 111., 56., 46.,
          48., 66., 92., 95., 89., 40., 28., 25., 19., 10., 3., 0., 37.,
          40., 36., 42., 46., 41., 81., 111., 110., 111., 42., 40., 59.,
          95., 96., 103., 92., 36., 26., 22., 21., 0., 0., 0., 3., 14.,
          30., 39., 37., 43., 114., 111., 111., 113., 49., 78., 97., 96.,
          103., 97., 88., 55., 22., 21., 12., 0., 2., 2., 0., 0., 0.,
          22., 18., 76., 114., 106., 120., 114., 63., 58., 66., 62., 65.,
          62., 74., 65., 54., 36., 40., 32., 31., 30., 29., 32., 40.,
          43., 60., 95., 111., 113., 115., 114., 25., 30., 30., 34., 36.,
          31., 46., 96., 110., 95., 89., 81., 72., 67., 74., 72., 101.,
          125., 155., 151., 151., 118., 119., 122., 29., 30., 31., 29.,
          23., 32., 49., 92., 116., 104., 103., 94., 71., 59., 59., 92.,
          102., 128., 142., 136., 141., 117., 113., 116., 26., 40., 37.,
          34., 27., 30., 48., 101., 106., 112., 103., 67., 64., 60., 60.,
          95., 115., 130., 127., 113., 135., 118., 121., 116., 99., 114.,
          123., 113., 30., 29., 43., 99., 109., 105., 71., 61., 60., 58.,
          61., 82., 87., 125., 115., 124., 125., 116., 118., 117., 104.,
          130., 170., 130., 54., 23., 49., 94., 114., 94., 59., 63., 66.,
          53., 54., 59., 45., 81., 121., 102., 82., 119., 113., 42.,
          102., 135., 122., 111., 82., 25., 38., 95., 96., 71., 48., 66.,
          60., 58., 48., 57., 61., 58., 55., 53., 115., 119., 120., 27.,
          96., 91., 96., 96., 78., 22., 30., 90., 86., 56., 56., 60.,
          63., 52., 44., 45., 56., 52., 63., 85., 118., 125., 111., 82.,
          64., 77., 82., 60., 24., 28., 22., 86., 77., 52., 45., 52.,
          55., 54., 50., 50., 46., 59., 103., 98., 115., 109., 112.,
          112., 55., 55., 50., 61., 29., 25., 25., 85., 79., 52., 43.,
          32., 39., 37., 46., 51., 51., 83., 112., 93., 117., 121., 124.,
          113., 54., 54., 65., 40., 27., 28., 17., 72., 74., 56., 53.,
          37., 32., 30., 29., 41., 77., 111., 107., 95., 121., 115.,
          111., 122., 57., 56., 43., 31., 20., 26., 24., 73., 72., 61.,
          55., 59., 55., 58., 67., 70., 96., 103., 108., 93., 115., 115.,
          110., 109., 37., 38., 13., 22., 23., 22., 42., 58., 53., 43.,
          33., 37., 38., 35., 46., 64., 75., 87., 105., 109., 117., 110.,
          101., 116., 61., 85., 119., 112., 115., 105., 76., 28., 17.,
          11., 15., 18., 23., 31., 35., 81., 128., 130., 129., 177.,
          163., 109., 106., 105., 100., 106., 114., 126., 114., 107.,
          73., 33., 18., 23., 18., 21., 44., 55., 76., 100., 126., 128.,
          90., 155., 152., 121., 102., 97., 83., 112., 128., 145., 134.,
          118., 79., 26., 23., 18., 18., 46., 48., 56., 75., 121., 96.,
          68., 68., 104., 125., 141., 100., 100., 80., 116., 137., 147.,
          126., 129., 70., 25., 13., 2., 26., 49., 45., 70., 66., 107.,
          68., 56., 54., 69., 107., 122., 95., 96., 72., 101., 121.,
          120., 123., 114., 75., 14., 2., 0., 38., 51., 57., 50., 63.,
          86., 58., 53., 54., 55., 71., 111., 99., 94., 61., 84., 106.,
          106., 107., 82., 67., 19., 0., 1., 33., 48., 48., 53., 53.,
          71., 54., 61., 64., 68., 94., 82., 91., 56. ]
      - [ 84., 88., 79., 64., 31., 40., 48., 29., 0., 1., 47., 80., 48.,
          57., 60., 73., 84., 89., 62., 70., 64., 85., 88., 40., 102.,
          97., 87., 48., 37., 34., 42., 32., 0., 54., 106., 88., 87.,
          75., 92., 87., 88., 96., 91., 90., 81., 89., 92., 72., 108.,
          111., 108., 47., 33., 40., 44., 28., 27., 101., 111., 115.,
          112., 103., 99., 112., 111., 106., 108., 104., 91., 86., 97.,
          90., 116., 134., 102., 77., 61., 46., 43., 32., 0., 74., 111.,
          114., 58., 104., 112., 113., 115., 120., 115., 105., 103., 92.,
          94., 93., 113., 111., 100., 100., 69., 43., 34., 30., 1., 2.,
          53., 86., 57., 110., 117., 117., 117., 121., 130., 115., 100.,
          96., 94., 89., 93., 102., 100., 94., 83., 46., 38., 30., 1.,
          0., 0., 2., 0., 47., 92., 106., 116., 110., 75., 87., 102.,
          93., 100., 91., 99., 84., 89., 78., 71., 45., 31., 31., 23.,
          21., 18., 21., 23., 20., 57., 66., 80., 64., 69., 86., 98.,
          97., 93., 97., 6., 9., 6., 6., 4., 0., 7., 35., 37., 38., 38.,
          36., 30., 34., 38., 81., 93., 95., 88., 89., 95., 92., 100.,
          97., 0., 3., 1., 2., 1., 0., 12., 73., 38., 41., 34., 38., 31.,
          28., 24., 38., 82., 93., 89., 90., 90., 90., 94., 96., 0., 4.,
          0., 0., 2., 2., 1., 76., 47., 26., 36., 36., 42., 74., 83.,
          32., 42., 78., 94., 85., 97., 97., 91., 92., 7., 1., 0., 0.,
          0., 4., 79., 96., 87., 41., 78., 53., 53., 65., 83., 81., 68.,
          58., 89., 89., 98., 96., 92., 92., 32., 35., 12., 0., 3., 68.,
          111., 101., 112., 118., 103., 82., 66., 72., 82., 95., 90.,
          76., 89., 83., 94., 104., 94., 44., 92., 53., 56., 7., 1.,
          116., 123., 111., 113., 135., 100., 100., 85., 85., 93., 100.,
          99., 89., 84., 95., 97., 95., 95., 24., 88., 85., 83., 34., 0.,
          117., 125., 120., 122., 143., 146., 103., 98., 117., 115.,
          109., 99., 108., 92., 86., 101., 97., 90., 73., 98., 94., 92.,
          45., 1., 5., 138., 136., 135., 135., 127., 119., 119., 120.,
          105., 111., 106., 99., 102., 90., 96., 100., 94., 102., 106.,
          101., 104., 42., 0., 0., 4., 44., 95., 106., 94., 95., 106.,
          110., 113., 114., 108., 95., 102., 97., 97., 100., 101., 90.,
          112., 171., 107., 40., 0., 1., 2., 29., 43., 36., 47., 61.,
          92., 97., 100., 101., 99., 101., 103., 89., 97., 97., 100.,
          99., 119., 110., 107., 2., 1., 1., 2., 37., 38., 35., 40., 40.,
          48., 59., 91., 99., 109., 93., 102., 84., 105., 95., 95., 97.,
          96., 79., 61., 64., 54., 51., 28., 25., 22., 22., 18., 22.,
          14., 19., 40., 60., 64., 63., 61., 88., 100., 107., 100., 100.,
          34., 41., 86., 93., 88., 85., 73., 13., 3., 0., 0., 3., 0., 2.,
          0., 2., 2., 2., 8., 88., 100., 94., 97., 98., 20., 33., 42.,
          65., 93., 92., 82., 36., 0., 2., 6., 29., 33., 38., 34., 25.,
          0., 0., 4., 97., 101., 103., 105., 98., 81., 49., 47., 44.,
          83., 91., 78., 44., 56., 61., 57., 43., 42., 34., 61., 49.,
          38., 0., 11., 87., 99., 100., 94., 103., 63., 85., 58., 55.,
          46., 49., 66., 73., 62., 111., 91., 73., 60., 69., 64., 83.,
          64., 54., 5., 96., 95., 99., 109., 100., 68., 90., 83., 33.,
          22., 44., 54., 97., 68., 67., 109., 110., 78., 68., 77., 83.,
          87., 73., 19., 95., 96., 99., 97., 95. ]
      - [ 64., 61., 43., 36., 33., 33., 37., 16., 0., 1., 0., 2., 0.,
          29., 28., 27., 31., 18., 25., 25., 23., 24., 28., 21., 64.,
          69., 49., 38., 29., 32., 33., 18., 0., 3., 1., 2., 0., 21.,
          33., 35., 30., 30., 40., 39., 32., 25., 29., 27., 53., 51.,
          39., 33., 40., 34., 33., 19., 1., 0., 0., 0., 4., 17., 31.,
          26., 34., 50., 52., 43., 37., 33., 33., 23., 40., 41., 32.,
          37., 31., 33., 29., 23., 0., 1., 1., 0., 1., 8., 23., 27., 41.,
          56., 54., 49., 42., 29., 31., 35., 34., 35., 42., 36., 36.,
          34., 34., 19., 0., 0., 3., 0., 0., 2., 12., 24., 26., 44., 37.,
          30., 29., 28., 31., 30., 41., 39., 39., 42., 33., 36., 29.,
          23., 14., 10., 9., 9., 10., 16., 12., 17., 27., 27., 19., 27.,
          33., 30., 29., 33., 4., 0., 4., 1., 2., 0., 10., 33., 30., 29.,
          27., 28., 27., 26., 21., 23., 20., 24., 25., 28., 27., 31.,
          31., 32., 0., 1., 1., 0., 1., 0., 2., 30., 30., 30., 23., 21.,
          21., 17., 21., 21., 28., 24., 26., 33., 32., 36., 34., 34., 0.,
          0., 1., 0., 0., 0., 2., 34., 27., 27., 26., 23., 25., 25., 20.,
          21., 16., 21., 31., 30., 33., 33., 39., 30., 1., 0., 0., 0.,
          2., 3., 3., 30., 31., 34., 30., 25., 24., 25., 25., 22., 28.,
          22., 27., 29., 30., 31., 33., 36., 24., 13., 3., 0., 0., 0.,
          3., 35., 32., 31., 27., 31., 29., 26., 31., 32., 29., 29., 28.,
          29., 32., 36., 35., 32., 31., 34., 26., 8., 0., 2., 5., 28.,
          41., 34., 26., 31., 32., 32., 46., 48., 50., 54., 40., 28.,
          30., 33., 36., 25., 28., 27., 24., 19., 3., 0., 2., 35., 40.,
          39., 30., 31., 33., 42., 55., 51., 47., 52., 51., 31., 37.,
          37., 38., 32., 48., 46., 36., 22., 0., 0., 3., 33., 37., 36.,
          30., 31., 36., 45., 57., 59., 59., 61., 65., 25., 30., 37.,
          36., 41., 51., 45., 36., 26., 3., 0., 0., 31., 43., 37., 30.,
          29., 33., 39., 54., 69., 62., 65., 64., 30., 37., 42., 38.,
          40., 55., 58., 48., 28., 0., 2., 3., 26., 38., 39., 36., 31.,
          29., 32., 39., 53., 60., 57., 41., 28., 41., 38., 40., 42.,
          55., 50., 34., 9., 1., 0., 5., 28., 37., 33., 32., 33., 32.,
          30., 30., 31., 32., 34., 34., 29., 37., 33., 41., 42., 42.,
          35., 20., 10., 7., 12., 13., 26., 26., 28., 20., 15., 21., 21.,
          19., 26., 25., 32., 35., 36., 39., 40., 42., 40., 21., 21.,
          29., 26., 30., 24., 21., 18., 0., 3., 2., 0., 0., 0., 0., 0.,
          2., 0., 1., 30., 42., 44., 40., 43., 17., 18., 21., 33., 33.,
          39., 26., 13., 0., 0., 0., 0., 0., 3., 4., 3., 0., 0., 2., 28.,
          39., 43., 40., 43., 25., 19., 24., 24., 32., 31., 29., 9., 1.,
          0., 0., 3., 15., 18., 15., 18., 20., 8., 2., 22., 40., 43.,
          39., 35., 24., 26., 26., 30., 23., 29., 24., 8., 0., 0., 5.,
          15., 20., 23., 28., 29., 30., 21., 16., 26., 41., 38., 41.,
          48., 32., 29., 26., 22., 26., 30., 30., 10., 2., 0., 12., 22.,
          16., 25., 40., 37., 38., 41., 31., 25., 38., 41., 40., 37.,
          43., 45., 39., 34., 27., 31., 29., 12., 0., 0., 14., 26., 28.,
          37., 44., 38., 40., 49., 40., 34., 41., 40., 39., 43. ]
      - [ 70., 47., 21., 40., 39., 51., 3., 1., 0., 0., 2., 2., 21., 23.,
          18., 13., 13., 37., 46., 45., 101., 101., 19., 78., 63., 66.,
          28., 34., 37., 48., 2., 0., 0., 6., 0., 18., 20., 22., 30.,
          24., 15., 28., 69., 60., 106., 92., 27., 7., 53., 79., 28.,
          30., 33., 40., 0., 0., 0., 0., 0., 27., 25., 27., 31., 27.,
          33., 32., 81., 69., 108., 97., 104., 101., 146., 68., 40., 33.,
          27., 40., 3., 1., 1., 0., 28., 29., 25., 30., 25., 33., 31.,
          42., 84., 88., 104., 101., 96., 97., 87., 73., 88., 35., 33.,
          30., 0., 0., 1., 0., 28., 31., 32., 27., 29., 58., 39., 51.,
          111., 97., 105., 94., 99., 95., 95., 113., 96., 44., 35., 21.,
          7., 0., 0., 20., 27., 24., 25., 32., 44., 53., 74., 76., 107.,
          102., 95., 97., 95., 98., 98., 98., 80., 52., 25., 21., 6., 5.,
          5., 31., 34., 31., 28., 39., 59., 74., 83., 92., 102., 99.,
          100., 101., 99., 87., 10., 9., 10., 5., 4., 15., 24., 28., 31.,
          33., 41., 30., 33., 53., 67., 90., 99., 99., 90., 97., 100.,
          100., 108., 86., 0., 1., 1., 0., 0., 75., 37., 22., 25., 29.,
          29., 30., 58., 64., 91., 92., 91., 107., 86., 91., 96., 104.,
          99., 96., 0., 0., 1., 0., 0., 114., 60., 24., 22., 26., 23.,
          62., 51., 83., 32., 23., 91., 102., 82., 100., 101., 101., 97.,
          99., 0., 0., 4., 0., 2., 102., 67., 29., 34., 36., 63., 62.,
          65., 51., 32., 34., 51., 105., 94., 97., 104., 92., 106., 97.,
          1., 2., 0., 0., 1., 32., 46., 35., 44., 68., 82., 68., 68.,
          22., 32., 41., 36., 99., 93., 104., 92., 102., 90., 4., 16.,
          0., 0., 2., 0., 21., 35., 63., 103., 96., 50., 90., 54., 26.,
          19., 70., 58., 106., 93., 112., 104., 100., 40., 94., 49., 26.,
          0., 1., 0., 15., 34., 41., 95., 111., 51., 50., 64., 74., 37.,
          84., 73., 109., 99., 115., 108., 99., 67., 44., 69., 53., 9.,
          0., 1., 14., 32., 31., 56., 19., 23., 46., 61., 85., 88., 86.,
          94., 100., 89., 108., 109., 97., 98., 34., 67., 70., 11., 1.,
          0., 5., 22., 38., 23., 25., 23., 36., 65., 89., 91., 86., 100.,
          110., 78., 106., 99., 103., 95., 110., 75., 74., 11., 1., 0.,
          9., 26., 45., 24., 23., 22., 35., 76., 86., 96., 118., 102.,
          109., 96., 114., 99., 102., 105., 102., 84., 69., 0., 0., 0.,
          3., 31., 32., 25., 37., 42., 45., 87., 111., 96., 113., 112.,
          99., 100., 94., 98., 96., 94., 105., 91., 59., 0., 3., 3., 7.,
          30., 32., 31., 42., 47., 71., 107., 113., 123., 99., 97., 103.,
          85., 99., 99., 100., 99., 104., 79., 70., 66., 63., 62., 35.,
          34., 33., 44., 34., 44., 56., 101., 66., 7., 11., 3., 6., 89.,
          102., 101., 97., 107., 107., 17., 72., 92., 88., 92., 35., 26.,
          31., 46., 59., 68., 69., 1., 3., 0., 0., 0., 2., 80., 106.,
          104., 102., 104., 98., 25., 18., 48., 95., 67., 31., 20., 21.,
          34., 92., 78., 83., 13., 8., 16., 0., 1., 3., 100., 112., 104.,
          106., 108., 96., 18., 40., 37., 81., 56., 43., 57., 39., 48.,
          143., 93., 73., 14., 25., 22., 12., 2., 4., 107., 105., 102.,
          101., 94., 95., 18., 57., 42., 29., 77., 90., 99., 116., 83.,
          148., 98., 13., 13., 17., 22., 33., 28., 4., 99., 114., 109.,
          104., 99., 103. ]
      - [ 2., 0., 32., 80., 105., 119., 103., 15., 0., 6., 2., 0., 0.,
          1., 0., 9., 17., 25., 63., 111., 135., 112., 4., 1., 0., 0.,
          0., 85., 106., 117., 110., 20., 2., 0., 3., 2., 6., 2., 1.,
          14., 21., 27., 65., 121., 126., 132., 92., 4., 4., 0., 1., 72.,
          85., 103., 119., 28., 1., 2., 0., 10., 19., 8., 1., 19., 24.,
          26., 66., 121., 145., 132., 121., 94., 4., 1., 0., 65., 90.,
          110., 110., 21., 0., 3., 0., 0., 21., 21., 3., 20., 24., 28.,
          61., 122., 134., 134., 118., 103., 21., 2., 34., 63., 77.,
          111., 118., 25., 7., 0., 3., 2., 31., 3., 12., 23., 28., 23.,
          61., 121., 132., 133., 117., 100., 5., 12., 58., 63., 79., 99.,
          111., 20., 6., 6., 13., 21., 10., 28., 22., 26., 23., 27., 61.,
          117., 138., 130., 110., 100., 11., 49., 53., 62., 73., 113.,
          126., 46., 15., 10., 11., 13., 7., 16., 23., 16., 22., 35.,
          68., 143., 144., 141., 119., 81., 31., 31., 37., 41., 52., 68.,
          67., 112., 111., 96., 79., 63., 61., 66., 64., 63., 65., 80.,
          87., 34., 27., 32., 25., 23., 0., 0., 0., 0., 0., 1., 38.,
          121., 129., 125., 91., 72., 71., 66., 68., 79., 89., 93., 94.,
          15., 19., 14., 13., 4., 0., 1., 0., 0., 0., 1., 39., 122.,
          136., 128., 82., 55., 47., 53., 62., 75., 86., 89., 99., 14.,
          18., 3., 0., 1., 0., 0., 0., 0., 0., 1., 37., 116., 125., 111.,
          65., 49., 37., 42., 48., 62., 78., 88., 83., 15., 14., 0., 1.,
          0., 2., 0., 0., 0., 0., 1., 32., 105., 115., 88., 34., 21., 5.,
          1., 1., 8., 48., 77., 81., 16., 1., 3., 0., 3., 1., 0., 0., 0.,
          0., 1., 32., 103., 109., 76., 17., 3., 0., 0., 1., 0., 5., 50.,
          74., 14., 6., 0., 0., 0., 0., 0., 1., 1., 0., 1., 36., 108.,
          108., 67., 4., 0., 0., 0., 1., 0., 0., 5., 78., 12., 11., 3.,
          1., 0., 0., 0., 1., 1., 0., 2., 36., 106., 114., 69., 0., 0.,
          1., 0., 0., 3., 3., 0., 65., 19., 15., 1., 4., 0., 2., 0., 0.,
          1., 0., 3., 34., 99., 103., 68., 0., 2., 0., 2., 0., 0., 0.,
          0., 34., 13., 25., 21., 0., 1., 0., 0., 2., 0., 3., 1., 41.,
          105., 105., 85., 0., 0., 3., 0., 0., 0., 0., 0., 4., 16., 23.,
          30., 6., 0., 0., 0., 0., 4., 0., 2., 48., 107., 114., 107., 5.,
          0., 0., 0., 2., 0., 0., 4., 0., 10., 29., 24., 19., 3., 6., 3.,
          9., 0., 10., 14., 58., 129., 132., 124., 52., 1., 0., 1., 1.,
          1., 0., 0., 0., 11., 38., 40., 33., 30., 27., 9., 19., 19.,
          55., 142., 99., 135., 135., 122., 66., 0., 0., 14., 0., 1., 2.,
          5., 2., 81., 111., 106., 103., 99., 22., 20., 15., 16., 119.,
          122., 130., 130., 128., 131., 124., 4., 0., 5., 6., 7., 17.,
          26., 25., 131., 140., 141., 142., 140., 18., 30., 10., 87.,
          129., 134., 127., 128., 133., 132., 125., 97., 3., 5., 10.,
          39., 51., 32., 101., 142., 146., 147., 145., 144., 128., 123.,
          116., 134., 126., 133., 128., 138., 127., 130., 133., 125.,
          106., 21., 36., 48., 33., 110., 135., 145., 142., 141., 144.,
          137., 135., 74., 73., 129., 126., 125., 124., 123., 118., 117.,
          118., 123., 86., 58., 51., 111., 132., 138., 138., 133., 137.,
          137., 135., 135. ]
      - [ 83., 80., 3., 10., 7., 30., 78., 33., 4., 0., 2., 1., 0., 3.,
          8., 8., 9., 15., 13., 62., 3., 2., 0., 0., 89., 90., 0., 10.,
          10., 9., 23., 0., 6., 2., 0., 1., 3., 0., 0., 13., 11., 9.,
          20., 56., 57., 8., 0., 4., 86., 79., 0., 15., 9., 12., 0., 1.,
          4., 3., 0., 0., 0., 1., 2., 0., 10., 10., 15., 58., 55., 64.,
          28., 5., 91., 90., 84., 0., 0., 0., 2., 1., 0., 1., 0., 0., 2.,
          0., 0., 3., 0., 10., 17., 58., 70., 69., 72., 70., 86., 92.,
          91., 90., 3., 0., 2., 0., 1., 0., 0., 1., 0., 0., 2., 0., 0.,
          6., 19., 53., 75., 79., 73., 81., 104., 88., 89., 86., 79.,
          26., 0., 0., 0., 1., 2., 0., 0., 2., 0., 0., 0., 0., 11., 60.,
          69., 73., 81., 85., 94., 93., 91., 88., 85., 79., 52., 5., 0.,
          2., 0., 0., 7., 0., 0., 45., 62., 60., 60., 53., 42., 57., 50.,
          64., 98., 97., 90., 82., 74., 23., 8., 34., 27., 0., 0., 2.,
          0., 3., 26., 65., 75., 80., 83., 17., 1., 0., 0., 1., 94., 94.,
          92., 6., 0., 2., 0., 0., 0., 2., 2., 1., 9., 30., 62., 75.,
          80., 82., 87., 25., 0., 9., 13., 92., 99., 85., 7., 1., 6., 3.,
          1., 112., 32., 2., 0., 1., 0., 44., 70., 84., 84., 80., 87.,
          21., 0., 19., 24., 3., 97., 3., 29., 25., 0., 6., 0., 0., 29.,
          2., 0., 0., 0., 0., 53., 72., 76., 79., 88., 17., 1., 0., 4.,
          3., 69., 34., 16., 2., 0., 0., 0., 1., 8., 0., 0., 2., 3., 5.,
          4., 70., 70., 79., 87., 14., 0., 4., 1., 1., 78., 44., 0., 3.,
          3., 0., 5., 0., 5., 0., 1., 0., 0., 0., 1., 46., 70., 75., 81.,
          26., 7., 0., 0., 0., 89., 74., 7., 0., 0., 0., 2., 0., 0., 0.,
          3., 0., 0., 2., 0., 62., 73., 77., 82., 16., 10., 10., 1., 1.,
          45., 32., 14., 0., 4., 0., 0., 1., 3., 0., 1., 1., 0., 0., 1.,
          69., 77., 75., 91., 21., 7., 10., 3., 6., 77., 67., 73., 30.,
          0., 0., 2., 0., 0., 2., 0., 0., 3., 0., 19., 79., 76., 83.,
          80., 20., 9., 8., 8., 9., 81., 79., 73., 66., 67., 51., 49.,
          1., 0., 2., 0., 0., 0., 13., 64., 87., 84., 81., 90., 29., 12.,
          14., 8., 14., 82., 78., 76., 65., 70., 62., 60., 46., 48., 26.,
          15., 19., 42., 63., 89., 85., 93., 93., 86., 44., 3., 7., 13.,
          9., 83., 70., 66., 70., 70., 63., 67., 34., 21., 9., 8., 11.,
          10., 20., 22., 23., 21., 22., 29., 73., 68., 63., 69., 76.,
          77., 78., 69., 71., 71., 74., 65., 23., 9., 9., 12., 4., 7.,
          7., 8., 10., 11., 4., 13., 79., 86., 84., 95., 99., 78., 78.,
          69., 72., 73., 71., 73., 33., 8., 3., 9., 9., 6., 9., 5., 10.,
          8., 11., 12., 73., 94., 89., 93., 121., 77., 72., 78., 74.,
          26., 1., 0., 2., 2., 0., 0., 0., 0., 1., 4., 1., 8., 5., 7.,
          72., 91., 101., 103., 107., 77., 79., 73., 0., 0., 3., 1., 13.,
          112., 0., 5., 0., 0., 0., 1., 0., 0., 1., 9., 73., 90., 93.,
          113., 108., 77., 76., 2., 0., 0., 0., 0., 2., 177., 84., 0.,
          2., 0., 0., 0., 1., 0., 0., 9., 65., 95., 100., 98., 0. ]
      - [ 11., 35., 38., 33., 33., 17., 0., 1., 0., 1., 0., 1., 0., 4.,
          2., 84., 1., 0., 2., 0., 0., 0., 3., 0., 9., 19., 31., 27.,
          28., 16., 1., 0., 1., 0., 1., 0., 0., 4., 0., 21., 0., 3., 0.,
          2., 0., 5., 0., 7., 37., 1., 34., 33., 29., 12., 3., 0., 0.,
          0., 1., 1., 1., 3., 1., 0., 0., 0., 1., 0., 1., 0., 0., 106.,
          31., 12., 29., 25., 31., 14., 0., 0., 0., 0., 1., 0., 1., 0.,
          0., 3., 0., 0., 2., 0., 0., 5., 0., 6., 27., 36., 30., 37.,
          28., 13., 1., 2., 0., 3., 1., 0., 0., 1., 0., 0., 1., 1., 1.,
          0., 4., 0., 0., 1., 40., 33., 37., 29., 10., 0., 0., 0., 1.,
          0., 0., 1., 0., 5., 0., 0., 0., 0., 0., 5., 0., 0., 33., 86.,
          38., 35., 31., 0., 0., 2., 0., 2., 3., 0., 0., 2., 0., 0., 0.,
          0., 1., 2., 5., 1., 2., 17., 31., 84., 39., 35., 4., 1., 0.,
          2., 0., 0., 0., 3., 0., 0., 2., 0., 0., 1., 0., 22., 6., 1.,
          12., 11., 14., 24., 37., 31., 7., 1., 0., 0., 2., 0., 1., 0.,
          1., 0., 2., 0., 0., 0., 13., 68., 0., 1., 1., 0., 6., 0., 56.,
          28., 0., 0., 3., 2., 0., 0., 0., 1., 0., 2., 4., 4., 0., 1.,
          99., 84., 3., 0., 1., 4., 0., 2., 0., 3., 3., 0., 0., 2., 0.,
          1., 0., 0., 2., 0., 1., 0., 3., 92., 101., 87., 0., 0., 0., 0.,
          1., 0., 3., 1., 0., 0., 0., 1., 0., 0., 1., 1., 2., 0., 0.,
          66., 87., 100., 98., 93., 0., 0., 5., 0., 1., 0., 0., 3., 0.,
          0., 1., 0., 3., 1., 0., 0., 0., 1., 3., 76., 106., 98., 98.,
          92., 0., 1., 0., 0., 1., 1., 0., 0., 0., 13., 18., 1., 0., 0.,
          3., 3., 0., 0., 1., 16., 117., 111., 106., 5., 1., 0., 4., 0.,
          2., 0., 0., 2., 1., 0., 3., 0., 2., 0., 0., 0., 5., 0., 0., 3.,
          115., 106., 56., 1., 0., 1., 0., 2., 0., 3., 0., 0., 2., 0.,
          1., 0., 0., 1., 1., 1., 0., 8., 2., 31., 118., 101., 11., 1.,
          1., 0., 0., 0., 14., 0., 1., 3., 0., 0., 1., 0., 0., 0., 2.,
          0., 3., 168., 4., 40., 108., 120., 25., 0., 1., 0., 2., 5.,
          13., 0., 12., 4., 0., 0., 1., 0., 0., 1., 0., 4., 17., 11., 8.,
          55., 10., 11., 0., 4., 1., 0., 0., 13., 0., 2., 3., 1., 1., 1.,
          1., 1., 0., 0., 3., 7., 0., 1., 4., 0., 0., 0., 0., 0., 0., 1.,
          0., 1., 2., 0., 0., 0., 2., 0., 0., 0., 2., 1., 1., 0., 0., 2.,
          0., 0., 2., 2., 3., 1., 14., 16., 7., 16., 12., 30., 4., 0.,
          0., 0., 0., 0., 0., 2., 0., 0., 2., 2., 1., 1., 0., 0., 0., 3.,
          32., 26., 26., 17., 26., 25., 0., 0., 2., 0., 2., 3., 0., 0.,
          0., 4., 0., 0., 1., 1., 5., 2., 3., 108., 37., 25., 23., 25.,
          23., 18., 0., 1., 1., 0., 4., 10., 2., 2., 2., 0., 5., 1., 4.,
          1., 12., 0., 1., 118., 82., 44., 21., 17., 17., 15., 1., 0.,
          0., 3., 19., 21., 2., 0., 0., 0., 0., 3., 1., 0., 3., 0., 0.,
          219., 98., 80., 24., 24., 15., 1. ]
      - [ 19., 8., 3., 5., 29., 39., 30., 0., 0., 1., 0., 0., 0., 4., 0.,
          1., 2., 0., 0., 0., 0., 2., 1., 1., 2., 0., 0., 2., 0., 0., 1.,
          1., 1., 0., 0., 0., 0., 0., 0., 1., 0., 5., 0., 0., 1., 13.,
          0., 2., 0., 0., 3., 1., 0., 2., 0., 0., 0., 0., 3., 0., 1., 0.,
          0., 0., 0., 0., 2., 40., 6., 1., 3., 0., 0., 0., 1., 0., 2.,
          0., 4., 0., 4., 0., 0., 0., 3., 0., 0., 2., 0., 0., 1., 27.,
          37., 38., 65., 39., 2., 7., 33., 0., 0., 0., 0., 1., 0., 2.,
          3., 0., 0., 1., 0., 0., 2., 4., 0., 24., 28., 33., 44., 59.,
          0., 0., 0., 0., 1., 51., 6., 0., 1., 2., 0., 0., 5., 13., 4.,
          1., 0., 0., 4., 28., 28., 30., 30., 30., 0., 2., 0., 1., 0.,
          0., 0., 1., 0., 0., 1., 9., 8., 0., 12., 51., 78., 77., 51.,
          25., 9., 14., 13., 14., 81., 51., 42., 34., 40., 30., 2., 0.,
          1., 1., 0., 0., 0., 1., 36., 88., 92., 86., 88., 12., 1., 0.,
          2., 0., 91., 63., 70., 55., 35., 38., 30., 19., 17., 1., 0.,
          0., 0., 45., 86., 91., 6., 0., 1., 0., 0., 2., 0., 0., 0., 4.,
          1., 0., 30., 29., 1., 0., 0., 1., 2., 0., 0., 35., 90., 0., 2.,
          1., 0., 1., 1., 0., 0., 0., 0., 0., 2., 2., 2., 0., 0., 2., 0.,
          0., 0., 4., 0., 0., 45., 0., 1., 20., 0., 0., 0., 2., 0., 0.,
          1., 1., 0., 0., 0., 5., 0., 0., 0., 5., 0., 1., 1., 2., 3., 0.,
          5., 0., 72., 1., 4., 0., 0., 1., 0., 0., 1., 2., 1., 0., 1.,
          2., 0., 0., 2., 0., 0., 0., 1., 22., 2., 0., 0., 0., 0., 3.,
          5., 0., 2., 0., 4., 12., 0., 1., 0., 0., 0., 1., 0., 4., 1.,
          2., 0., 54., 85., 14., 4., 1., 1., 0., 0., 0., 0., 4., 18.,
          123., 2., 0., 12., 1., 0., 3., 0., 0., 70., 30., 8., 85., 95.,
          91., 98., 18., 0., 2., 0., 2., 0., 2., 1., 0., 1., 2., 0., 0.,
          0., 0., 1., 7., 19., 2., 40., 106., 101., 106., 87., 14., 0.,
          0., 0., 1., 0., 4., 0., 2., 16., 3., 0., 1., 1., 0., 1., 0.,
          1., 14., 88., 105., 105., 103., 64., 18., 0., 0., 6., 0., 47.,
          28., 38., 42., 46., 40., 30., 11., 5., 15., 1., 22., 77., 86.,
          94., 96., 98., 98., 63., 23., 5., 3., 0., 3., 49., 45., 44.,
          43., 41., 44., 41., 16., 4., 6., 4., 9., 6., 3., 11., 9., 8.,
          8., 8., 41., 39., 31., 38., 35., 85., 66., 47., 43., 45., 41.,
          38., 10., 0., 2., 1., 4., 3., 1., 0., 2., 3., 0., 5., 57., 46.,
          44., 44., 45., 97., 96., 88., 47., 40., 40., 37., 16., 5., 0.,
          1., 2., 0., 3., 7., 5., 0., 6., 4., 99., 49., 40., 43., 39.,
          101., 96., 92., 82., 50., 43., 29., 2., 0., 0., 2., 0., 1., 0.,
          0., 0., 3., 0., 1., 91., 93., 68., 40., 37., 1., 0., 36., 96.,
          38., 2., 0., 0., 1., 1., 2., 0., 0., 0., 0., 1., 0., 2., 0.,
          89., 95., 92., 39., 0., 0., 2., 0., 0., 0., 3., 0., 2., 0., 1.,
          0., 0., 0., 1., 0., 0., 1., 0., 0., 13., 0., 0., 0., 0. ]
      - [ 1., 0., 9., 124., 135., 96., 30., 30., 28., 17., 9., 14., 14.,
          11., 1., 2., 14., 96., 142., 145., 153., 45., 11., 29., 18.,
          4., 7., 121., 141., 49., 118., 103., 43., 39., 20., 20., 19.,
          15., 0., 1., 20., 107., 131., 153., 152., 156., 152., 151.,
          21., 0., 25., 129., 145., 113., 130., 187., 222., 49., 41.,
          24., 10., 0., 0., 5., 20., 105., 141., 149., 154., 156., 159.,
          163., 4., 13., 106., 135., 151., 112., 38., 30., 161., 45., 0.,
          2., 2., 1., 2., 17., 25., 96., 147., 152., 157., 159., 159.,
          160., 31., 108., 126., 141., 144., 126., 36., 34., 33., 26.,
          19., 1., 0., 1., 18., 28., 19., 106., 146., 152., 155., 160.,
          158., 166., 99., 116., 131., 142., 155., 131., 33., 34., 31.,
          30., 24., 23., 23., 25., 20., 22., 25., 110., 136., 153., 155.,
          156., 164., 162., 85., 100., 134., 138., 153., 133., 24., 26.,
          37., 31., 19., 8., 2., 5., 6., 17., 19., 113., 137., 160.,
          160., 160., 156., 159., 28., 21., 21., 41., 44., 118., 107.,
          104., 27., 1., 0., 3., 0., 5., 45., 50., 81., 115., 138., 158.,
          159., 161., 165., 160., 2., 17., 31., 38., 36., 145., 171., 0.,
          0., 2., 2., 0., 0., 20., 0., 69., 106., 112., 147., 162., 163.,
          157., 165., 160., 0., 14., 29., 31., 40., 154., 32., 0., 11.,
          14., 18., 10., 5., 0., 1., 45., 105., 117., 157., 160., 166.,
          165., 159., 160., 3., 6., 33., 36., 36., 168., 5., 12., 2.,
          19., 33., 2., 0., 1., 28., 7., 114., 119., 154., 163., 170.,
          163., 14., 13., 0., 15., 36., 35., 37., 137., 4., 3., 38., 17.,
          39., 6., 0., 2., 13., 6., 120., 134., 164., 165., 170., 134.,
          163., 161., 5., 38., 37., 33., 40., 157., 9., 72., 98., 48.,
          21., 14., 8., 5., 35., 31., 136., 148., 162., 171., 167., 146.,
          175., 160., 36., 28., 36., 36., 40., 161., 39., 74., 9., 42.,
          20., 8., 17., 37., 8., 132., 157., 148., 172., 172., 166.,
          144., 21., 5., 35., 40., 37., 35., 35., 167., 173., 7., 129.,
          191., 110., 7., 1., 47., 114., 158., 166., 153., 167., 180.,
          174., 168., 166., 166., 33., 34., 33., 38., 35., 160., 172.,
          182., 20., 20., 49., 4., 76., 178., 160., 161., 165., 157.,
          175., 176., 175., 165., 171., 166., 38., 37., 35., 38., 33.,
          157., 176., 184., 182., 175., 175., 171., 171., 168., 158.,
          169., 167., 157., 168., 178., 176., 166., 166., 170., 33., 32.,
          39., 35., 44., 153., 170., 178., 179., 169., 169., 168., 172.,
          164., 163., 161., 162., 157., 174., 175., 168., 168., 172.,
          164., 12., 15., 15., 21., 24., 155., 171., 179., 180., 173.,
          174., 172., 173., 156., 165., 156., 166., 146., 173., 172.,
          173., 168., 165., 166., 112., 112., 110., 117., 123., 141.,
          26., 37., 40., 32., 31., 36., 50., 43., 51., 40., 45., 146.,
          166., 174., 175., 170., 168., 163., 109., 112., 118., 136.,
          137., 138., 37., 42., 41., 39., 36., 34., 38., 31., 31., 31.,
          32., 153., 167., 169., 172., 164., 169., 161., 5., 70., 104.,
          124., 136., 139., 38., 38., 39., 34., 28., 28., 36., 39., 30.,
          32., 33., 144., 165., 168., 168., 163., 164., 166., 0., 3.,
          67., 111., 136., 140., 38., 42., 38., 37., 35., 34., 32., 34.,
          30., 33., 32., 145., 166., 170., 164., 164., 122., 164., 2.,
          0., 15., 99., 137., 143., 40., 45., 41., 36., 35., 37., 33.,
          35., 35., 31., 32., 149., 167., 164., 159., 139., 141., 163. ]
      - [ 0., 0., 13., 54., 5., 7., 0., 0., 1., 0., 3., 0., 1., 1., 0.,
          4., 0., 1., 28., 0., 0., 0., 1., 0., 3., 0., 2., 4., 0., 12.,
          0., 0., 0., 0., 0., 1., 0., 1., 2., 0., 0., 11., 31., 29., 3.,
          1., 0., 0., 0., 0., 2., 0., 2., 0., 1., 2., 4., 0., 0., 1.,
          25., 1., 0., 1., 0., 5., 36., 37., 32., 6., 5., 0., 0., 4., 1.,
          0., 3., 0., 2., 0., 0., 0., 0., 1., 0., 0., 3., 0., 0., 2.,
          30., 38., 49., 37., 35., 40., 60., 12., 0., 0., 2., 3., 0., 0.,
          1., 0., 2., 3., 0., 0., 0., 3., 1., 0., 36., 43., 45., 49.,
          46., 60., 65., 65., 45., 4., 0., 0., 0., 1., 0., 0., 3., 0.,
          2., 2., 0., 0., 0., 0., 43., 41., 45., 48., 56., 60., 63., 64.,
          58., 57., 50., 21., 4., 0., 1., 5., 0., 0., 3., 0., 0., 31.,
          34., 30., 35., 30., 27., 34., 39., 40., 68., 65., 44., 26.,
          29., 43., 19., 5., 0., 0., 3., 0., 0., 4., 35., 42., 43., 45.,
          9., 0., 0., 0., 0., 0., 6., 0., 0., 1., 0., 0., 8., 7., 0., 1.,
          0., 0., 8., 25., 44., 48., 46., 20., 0., 0., 27., 8., 0., 1.,
          0., 2., 3., 0., 17., 64., 0., 1., 0., 0., 0., 3., 12., 43.,
          52., 56., 52., 3., 0., 10., 5., 3., 0., 0., 0., 0., 2., 0., 0.,
          8., 5., 0., 0., 3., 0., 4., 6., 21., 39., 45., 52., 4., 0., 2.,
          0., 0., 0., 0., 3., 0., 2., 1., 0., 0., 1., 1., 0., 0., 4., 0.,
          13., 0., 32., 51., 46., 34., 3., 1., 0., 3., 0., 1., 0., 4.,
          0., 3., 1., 2., 1., 0., 3., 0., 0., 1., 0., 1., 5., 46., 46.,
          50., 26., 0., 2., 0., 4., 0., 3., 0., 0., 0., 0., 0., 2., 1.,
          0., 0., 1., 0., 2., 1., 15., 45., 47., 52., 30., 2., 0., 1.,
          0., 1., 0., 2., 0., 1., 0., 0., 0., 2., 0., 4., 0., 1., 0., 0.,
          32., 44., 51., 46., 32., 0., 2., 2., 0., 1., 47., 12., 0., 0.,
          3., 0., 0., 0., 2., 0., 1., 0., 0., 2., 45., 50., 57., 48.,
          33., 4., 0., 3., 1., 0., 53., 54., 38., 39., 41., 28., 0., 2.,
          0., 2., 0., 0., 2., 29., 49., 56., 62., 55., 43., 0., 0., 1.,
          3., 1., 53., 49., 52., 45., 42., 34., 32., 26., 16., 6., 5.,
          23., 38., 52., 58., 60., 57., 55., 36., 7., 0., 2., 2., 0.,
          53., 47., 49., 49., 35., 46., 29., 9., 5., 1., 1., 8., 8., 9.,
          8., 8., 16., 8., 42., 33., 44., 40., 42., 56., 47., 53., 44.,
          50., 47., 47., 36., 0., 0., 1., 1., 0., 0., 2., 2., 0., 0., 6.,
          42., 61., 58., 63., 70., 71., 52., 50., 47., 42., 44., 48.,
          36., 0., 0., 0., 0., 0., 1., 0., 0., 0., 0., 1., 39., 63., 58.,
          56., 76., 78., 46., 6., 0., 4., 0., 2., 12., 0., 0., 0., 2.,
          1., 2., 0., 0., 2., 0., 0., 42., 61., 61., 74., 77., 73., 2.,
          1., 0., 0., 1., 14., 57., 2., 1., 1., 0., 0., 3., 1., 0., 0.,
          0., 0., 38., 61., 56., 16., 0., 2., 0., 1., 1., 0., 1., 57.,
          74., 20., 0., 0., 0., 0., 6., 0., 0., 1., 0., 2., 35., 55.,
          13., 0., 0., 85. ]
      - [ 11., 25., 42., 39., 38., 35., 16., 1., 0., 0., 2., 0., 1., 2.,
          0., 2., 0., 2., 0., 1., 1., 0., 0., 0., 29., 12., 30., 36.,
          34., 35., 21., 1., 2., 2., 0., 2., 0., 0., 46., 0., 3., 3., 0.,
          0., 1., 0., 5., 17., 25., 25., 18., 35., 27., 5., 0., 0., 0.,
          2., 1., 1., 1., 0., 0., 0., 0., 2., 1., 0., 3., 1., 0., 1., 0.,
          0., 5., 2., 2., 0., 0., 1., 1., 1., 0., 1., 0., 0., 2., 1., 1.,
          0., 2., 0., 0., 2., 0., 0., 0., 1., 2., 0., 2., 3., 0., 2., 0.,
          0., 2., 0., 0., 3., 0., 1., 1., 0., 20., 29., 27., 21., 21.,
          23., 1., 0., 0., 2., 0., 0., 2., 0., 2., 0., 0., 1., 0., 0.,
          0., 0., 0., 0., 24., 26., 24., 30., 44., 57., 1., 0., 5., 0.,
          0., 2., 1., 0., 0., 0., 4., 2., 15., 0., 3., 0., 0., 3., 25.,
          18., 21., 26., 26., 28., 0., 0., 0., 51., 0., 0., 0., 1., 0.,
          1., 4., 26., 25., 3., 26., 71., 70., 49., 36., 6., 9., 13., 8.,
          13., 0., 1., 0., 1., 16., 0., 0., 0., 1., 0., 3., 0., 2., 12.,
          66., 87., 83., 85., 61., 0., 1., 2., 0., 0., 32., 48., 45.,
          34., 30., 2., 1., 0., 0., 1., 0., 0., 7., 72., 95., 85., 96.,
          102., 67., 1., 0., 1., 1., 0., 90., 86., 66., 42., 37., 17.,
          4., 10., 2., 0., 2., 1., 21., 28., 3., 0., 0., 2., 2., 0., 4.,
          0., 0., 3., 17., 83., 70., 19., 2., 0., 1., 0., 1., 0., 0., 0.,
          0., 0., 0., 0., 0., 0., 0., 0., 0., 0., 0., 11., 2., 0., 1.,
          2., 0., 0., 0., 2., 0., 2., 0., 0., 0., 0., 9., 0., 1., 0., 2.,
          0., 0., 3., 0., 9., 0., 3., 0., 2., 4., 0., 0., 0., 0., 1., 2.,
          0., 1., 3., 0., 96., 27., 0., 0., 2., 1., 0., 1., 14., 0., 0.,
          4., 0., 0., 0., 0., 3., 1., 0., 0., 3., 4., 0., 5., 0., 1., 0.,
          8., 0., 0., 0., 1., 0., 3., 0., 0., 0., 1., 2., 2., 0., 0., 1.,
          0., 34., 38., 4., 16., 19., 26., 73., 64., 0., 2., 0., 0., 0.,
          151., 0., 3., 18., 4., 0., 3., 0., 0., 5., 3., 50., 25., 26.,
          91., 104., 105., 91., 49., 0., 1., 0., 0., 1., 0., 0., 0., 0.,
          0., 0., 0., 5., 0., 3., 0., 0., 1., 62., 93., 110., 107., 93.,
          31., 1., 1., 0., 2., 0., 2., 19., 25., 26., 12., 1., 0., 0.,
          3., 0., 1., 35., 78., 83., 94., 98., 101., 86., 32., 4., 1.,
          0., 6., 0., 37., 44., 34., 43., 49., 32., 21., 9., 4., 12.,
          14., 22., 22., 17., 22., 21., 23., 13., 33., 27., 30., 30.,
          32., 36., 56., 44., 42., 40., 36., 44., 14., 0., 3., 0., 1.,
          3., 0., 3., 1., 1., 1., 0., 64., 49., 35., 38., 35., 38., 91.,
          75., 51., 40., 43., 39., 20., 1., 0., 0., 0., 0., 6., 0., 0.,
          0., 2., 4., 76., 61., 34., 32., 29., 32., 102., 88., 75., 46.,
          38., 33., 17., 1., 0., 3., 0., 1., 0., 4., 0., 3., 0., 0., 83.,
          92., 73., 32., 17., 22., 88., 93., 93., 63., 9., 0., 0., 0.,
          0., 0., 2., 0., 0., 0., 3., 0., 0., 3., 89., 88., 80., 24., 3.,
          0. ]
      - [ 111., 114., 110., 111., 114., 102., 83., 19., 0., 0., 0., 0.,
          1., 0., 0., 1., 1., 1., 30., 97., 121., 115., 118., 120., 107.,
          114., 109., 109., 118., 114., 89., 19., 1., 1., 1., 0., 0., 0.,
          0., 2., 0., 0., 37., 110., 124., 120., 117., 121., 117., 113.,
          111., 116., 110., 111., 90., 19., 1., 0., 0., 0., 0., 0., 0.,
          0., 0., 1., 34., 110., 108., 120., 115., 123., 108., 118.,
          111., 105., 103., 113., 86., 16., 0., 0., 0., 1., 1., 0., 0.,
          0., 1., 0., 44., 108., 116., 114., 117., 113., 121., 113.,
          111., 118., 109., 113., 83., 17., 0., 2., 0., 0., 0., 0., 2.,
          2., 1., 1., 40., 112., 114., 119., 119., 119., 110., 113.,
          108., 107., 107., 112., 90., 56., 44., 39., 20., 11., 12., 9.,
          7., 4., 9., 12., 59., 111., 117., 115., 117., 118., 39., 34.,
          38., 46., 41., 47., 67., 87., 97., 87., 56., 44., 49., 49.,
          47., 43., 49., 52., 78., 74., 52., 55., 50., 55., 0., 0., 1.,
          1., 0., 3., 47., 104., 106., 99., 65., 47., 49., 46., 47., 49.,
          48., 56., 84., 26., 0., 1., 2., 0., 0., 2., 0., 0., 1., 0.,
          53., 108., 108., 97., 68., 43., 44., 43., 48., 46., 51., 55.,
          91., 27., 1., 0., 0., 0., 0., 0., 0., 0., 2., 1., 52., 104.,
          110., 106., 64., 43., 40., 42., 45., 46., 49., 59., 93., 26.,
          0., 0., 1., 0., 1., 1., 1., 1., 0., 0., 53., 112., 106., 104.,
          51., 45., 32., 35., 24., 28., 42., 50., 78., 23., 0., 0., 0.,
          0., 0., 0., 0., 1., 0., 0., 49., 104., 95., 74., 21., 14., 5.,
          5., 1., 9., 26., 34., 63., 19., 1., 0., 0., 1., 1., 0., 0., 0.,
          2., 4., 27., 53., 36., 14., 2., 0., 6., 0., 1., 1., 5., 22.,
          59., 17., 0., 0., 1., 0., 1., 2., 0., 0., 2., 7., 10., 10.,
          11., 0., 2., 1., 0., 0., 2., 0., 0., 9., 54., 17., 0., 0., 0.,
          0., 0., 0., 0., 0., 2., 7., 6., 4., 2., 2., 0., 3., 0., 1., 1.,
          0., 0., 0., 50., 17., 2., 0., 0., 0., 2., 0., 0., 2., 1., 0.,
          0., 1., 1., 1., 0., 0., 3., 0., 2., 0., 0., 3., 58., 17., 0.,
          0., 1., 0., 0., 2., 0., 4., 2., 2., 0., 0., 0., 2., 1., 0., 0.,
          1., 0., 1., 0., 6., 83., 15., 2., 0., 0., 0., 35., 44., 40.,
          30., 15., 12., 4., 3., 9., 2., 0., 4., 2., 3., 7., 11., 10.,
          43., 91., 40., 25., 25., 19., 30., 99., 105., 78., 50., 27.,
          40., 27., 38., 30., 6., 15., 14., 17., 11., 16., 14., 1., 56.,
          69., 91., 90., 89., 101., 98., 110., 115., 116., 75., 48., 57.,
          123., 93., 32., 10., 21., 23., 17., 7., 27., 2., 2., 6., 50.,
          107., 101., 116., 112., 109., 106., 108., 107., 101., 78., 68.,
          58., 22., 4., 3., 3., 0., 0., 3., 0., 2., 2., 7., 45., 103.,
          110., 108., 107., 114., 106., 114., 113., 114., 105., 102.,
          74., 11., 0., 0., 0., 2., 0., 0., 3., 1., 2., 6., 54., 103.,
          101., 101., 113., 110., 109., 98., 113., 107., 101., 107., 81.,
          9., 0., 0., 4., 0., 3., 0., 0., 0., 0., 4., 54., 106., 106.,
          113., 116., 115., 107., 107., 107., 110., 104., 109., 84., 7.,
          0., 3., 0., 0., 0., 1., 0., 1., 1., 3., 48., 113., 109., 115.,
          112., 116. ]
      - [ 87., 98., 106., 104., 106., 97., 102., 102., 99., 5., 98., 90.,
          0., 85., 95., 90., 94., 92., 90., 89., 91., 89., 92., 86., 92.,
          102., 102., 99., 95., 102., 96., 99., 97., 100., 2., 8., 0.,
          88., 88., 92., 86., 90., 91., 85., 91., 85., 1., 18., 100.,
          103., 101., 101., 105., 99., 96., 97., 95., 91., 94., 90., 88.,
          86., 87., 91., 88., 87., 87., 93., 88., 80., 86., 81., 103.,
          105., 105., 102., 100., 95., 97., 101., 98., 100., 81., 89.,
          95., 88., 83., 90., 92., 85., 88., 82., 85., 90., 79., 84.,
          108., 94., 102., 98., 95., 99., 93., 95., 90., 91., 91., 89.,
          89., 96., 89., 85., 82., 83., 78., 79., 84., 73., 79., 81., 0.,
          5., 91., 86., 93., 90., 89., 91., 91., 84., 92., 0., 2., 0.,
          1., 94., 78., 74., 69., 74., 71., 68., 62., 59., 0., 0., 2.,
          73., 68., 64., 92., 74., 69., 55., 10., 7., 98., 21., 22., 0.,
          75., 65., 89., 18., 14., 16., 12., 13., 2., 0., 0., 0., 7., 6.,
          105., 73., 85., 1., 45., 61., 121., 1., 0., 0., 2., 61., 93.,
          1., 2., 0., 3., 0., 1., 0., 2., 0., 5., 7., 101., 73., 60.,
          54., 96., 27., 6., 0., 17., 4., 2., 65., 99., 0., 2., 1., 1.,
          6., 0., 0., 2., 1., 7., 2., 93., 61., 21., 11., 23., 30., 0.,
          0., 0., 0., 0., 55., 90., 2., 1., 2., 1., 12., 1., 0., 0., 0.,
          6., 5., 69., 57., 0., 176., 52., 4., 2., 1., 0., 0., 1., 35.,
          80., 0., 4., 0., 2., 0., 0., 0., 3., 0., 8., 4., 17., 64., 0.,
          7., 143., 8., 0., 0., 3., 0., 0., 32., 11., 2., 4., 0., 0., 1.,
          0., 4., 0., 2., 3., 5., 26., 15., 0., 0., 4., 3., 0., 2., 0.,
          0., 19., 29., 5., 2., 0., 0., 2., 0., 0., 0., 0., 2., 6., 0.,
          20., 18., 42., 0., 0., 0., 2., 4., 0., 2., 27., 22., 13., 3.,
          0., 3., 74., 1., 1., 0., 0., 0., 4., 2., 34., 37., 23., 43.,
          2., 0., 0., 1., 2., 0., 27., 29., 13., 1., 2., 10., 154., 0.,
          0., 0., 1., 0., 3., 4., 35., 62., 16., 10., 1., 1., 1., 0., 0.,
          21., 42., 44., 21., 2., 0., 0., 1., 1., 0., 3., 0., 0., 6., 4.,
          53., 63., 69., 8., 0., 0., 3., 0., 10., 45., 49., 62., 23., 2.,
          0., 0., 0., 0., 1., 0., 0., 10., 3., 2., 57., 68., 60., 58.,
          58., 37., 33., 44., 51., 64., 69., 54., 27., 5., 0., 0., 3.,
          0., 57., 62., 54., 61., 68., 64., 77., 53., 55., 46., 37., 43.,
          38., 41., 42., 39., 34., 47., 48., 45., 38., 42., 35., 35.,
          70., 63., 65., 66., 66., 55., 66., 8., 4., 1., 3., 1., 0., 0.,
          1., 0., 10., 0., 59., 55., 56., 56., 47., 50., 2., 0., 77.,
          59., 58., 61., 71., 11., 12., 8., 9., 0., 5., 0., 1., 1., 0.,
          2., 62., 50., 54., 49., 56., 41., 13., 1., 0., 49., 57., 53.,
          85., 6., 7., 9., 0., 4., 114., 26., 15., 0., 0., 2., 47., 46.,
          44., 20., 3., 0., 38., 0., 0., 9., 40., 48., 69., 11., 9., 3.,
          14., 4., 183., 6., 0., 1., 1., 0., 30., 32., 23., 2., 4., 1.,
          0., 1., 0., 0., 42., 43., 25., 10., 8., 3., 71., 37., 126., 3.,
          4., 0., 0., 2., 29., 31., 2., 3., 11., 74. ]
      - [ 192., 192., 197., 199., 196., 194., 41., 33., 35., 35., 31.,
          33., 34., 32., 32., 33., 35., 123., 33., 38., 75., 3., 0., 0.,
          198., 204., 204., 201., 205., 204., 43., 38., 36., 37., 34.,
          34., 34., 30., 31., 36., 39., 142., 10., 159., 55., 14., 2.,
          4., 212., 209., 206., 206., 209., 202., 37., 37., 35., 33.,
          31., 31., 35., 34., 33., 39., 34., 136., 147., 3., 3., 2., 16.,
          1., 213., 205., 206., 204., 201., 202., 43., 38., 34., 34.,
          35., 35., 35., 31., 28., 35., 33., 117., 155., 139., 36., 1.,
          18., 10., 207., 206., 206., 206., 209., 204., 41., 41., 37.,
          33., 31., 30., 30., 30., 32., 35., 38., 111., 141., 123., 121.,
          0., 0., 1., 198., 202., 203., 202., 202., 206., 50., 38., 36.,
          35., 35., 34., 27., 26., 32., 31., 34., 114., 122., 108., 91.,
          88., 82., 84., 205., 209., 205., 211., 214., 202., 38., 26.,
          28., 28., 28., 34., 27., 28., 36., 24., 36., 86., 66., 17., 1.,
          1., 14., 64., 62., 40., 45., 47., 67., 201., 168., 141., 120.,
          87., 53., 56., 67., 78., 77., 41., 26., 1., 0., 1., 0., 0., 2.,
          1., 41., 39., 43., 43., 41., 207., 204., 176., 116., 101., 85.,
          71., 45., 57., 47., 13., 18., 10., 0., 0., 0., 1., 0., 0., 37.,
          44., 40., 40., 47., 204., 89., 108., 70., 106., 76., 78., 57.,
          41., 6., 40., 41., 27., 4., 9., 2., 0., 6., 0., 43., 35., 40.,
          40., 56., 158., 152., 132., 101., 64., 57., 72., 101., 50.,
          35., 47., 61., 73., 13., 0., 1., 0., 0., 0., 40., 40., 38.,
          48., 198., 203., 210., 176., 136., 100., 65., 81., 117., 72.,
          42., 63., 62., 48., 14., 20., 19., 12., 9., 6., 43., 43., 47.,
          46., 228., 237., 215., 233., 169., 147., 90., 134., 167., 145.,
          114., 44., 169., 15., 73., 7., 12., 0., 7., 0., 40., 39., 42.,
          48., 222., 255., 254., 228., 203., 181., 179., 193., 191.,
          174., 161., 188., 127., 72., 22., 44., 9., 2., 0., 3., 39.,
          46., 45., 46., 43., 247., 251., 249., 226., 199., 227., 215.,
          212., 202., 193., 207., 205., 185., 38., 39., 63., 22., 31.,
          38., 42., 40., 45., 48., 46., 211., 220., 238., 236., 248.,
          255., 244., 226., 207., 212., 207., 205., 180., 38., 44., 40.,
          40., 40., 35., 44., 43., 44., 50., 50., 209., 216., 222., 221.,
          225., 224., 224., 218., 214., 215., 208., 208., 184., 50., 46.,
          41., 37., 39., 40., 43., 47., 47., 46., 51., 208., 210., 221.,
          220., 221., 222., 221., 217., 212., 210., 206., 209., 180.,
          57., 46., 44., 41., 38., 38., 79., 77., 80., 92., 124., 211.,
          229., 240., 239., 239., 240., 239., 238., 233., 228., 229.,
          231., 197., 115., 106., 73., 34., 27., 20., 198., 193., 195.,
          203., 195., 190., 40., 42., 39., 34., 31., 25., 26., 28., 28.,
          36., 22., 190., 202., 208., 182., 151., 139., 142., 205., 203.,
          209., 206., 204., 186., 53., 49., 47., 48., 50., 47., 49., 49.,
          44., 47., 43., 185., 210., 200., 171., 141., 120., 102., 205.,
          204., 204., 199., 203., 173., 48., 45., 48., 48., 47., 43.,
          43., 45., 45., 47., 53., 174., 207., 198., 151., 10., 1., 3.,
          207., 199., 209., 212., 200., 159., 45., 46., 46., 46., 47.,
          50., 47., 45., 46., 45., 47., 180., 206., 185., 11., 0., 0.,
          0., 201., 204., 205., 205., 207., 169., 51., 48., 44., 43.,
          44., 50., 47., 42., 47., 46., 45., 170., 207., 25., 6., 2.,
          10., 1. ]
      - [ 190., 191., 196., 194., 195., 170., 16., 21., 17., 18., 17.,
          19., 20., 20., 23., 24., 12., 180., 198., 199., 202., 209.,
          202., 204., 189., 191., 194., 200., 197., 166., 18., 16., 19.,
          17., 19., 20., 22., 21., 19., 23., 16., 178., 198., 200., 202.,
          208., 205., 206., 189., 188., 197., 193., 190., 176., 23., 18.,
          20., 18., 19., 18., 22., 21., 18., 25., 18., 178., 196., 197.,
          204., 204., 202., 206., 187., 182., 199., 195., 188., 175.,
          17., 16., 20., 21., 18., 17., 20., 21., 22., 28., 9., 174.,
          196., 194., 202., 204., 205., 198., 179., 190., 191., 190.,
          187., 168., 20., 23., 15., 21., 17., 18., 20., 20., 24., 25.,
          12., 168., 192., 198., 199., 199., 206., 202., 183., 183.,
          188., 194., 186., 171., 23., 16., 17., 19., 17., 17., 18., 20.,
          25., 24., 13., 177., 192., 193., 200., 199., 199., 198., 185.,
          192., 191., 190., 189., 173., 9., 4., 6., 0., 10., 13., 13.,
          15., 9., 8., 6., 173., 189., 193., 197., 199., 202., 202., 58.,
          54., 53., 54., 68., 172., 139., 131., 119., 86., 77., 63., 63.,
          85., 98., 117., 125., 153., 77., 80., 81., 82., 88., 80., 18.,
          12., 14., 68., 39., 178., 147., 114., 98., 107., 92., 101.,
          99., 92., 94., 154., 171., 141., 30., 26., 26., 27., 29., 33.,
          0., 121., 110., 102., 106., 92., 94., 96., 93., 101., 111.,
          108., 83., 109., 103., 146., 168., 140., 13., 18., 28., 32.,
          31., 32., 159., 148., 143., 141., 100., 110., 102., 82., 88.,
          91., 120., 133., 74., 121., 115., 111., 166., 144., 5., 11.,
          21., 23., 24., 30., 191., 216., 185., 180., 164., 133., 117.,
          103., 104., 116., 134., 147., 94., 132., 134., 105., 174.,
          145., 5., 10., 25., 29., 30., 32., 240., 241., 221., 223.,
          197., 173., 159., 142., 148., 146., 166., 169., 126., 158.,
          149., 140., 176., 140., 14., 14., 24., 28., 30., 31., 205.,
          251., 251., 255., 237., 207., 176., 179., 177., 199., 180.,
          175., 154., 172., 168., 165., 184., 146., 31., 27., 27., 28.,
          28., 32., 12., 81., 255., 245., 231., 187., 200., 207., 197.,
          176., 215., 151., 196., 169., 139., 181., 188., 145., 25., 25.,
          28., 33., 28., 29., 11., 22., 18., 18., 6., 167., 174., 183.,
          189., 198., 175., 152., 143., 142., 166., 175., 188., 150.,
          25., 26., 26., 33., 29., 35., 10., 6., 14., 9., 10., 165.,
          171., 176., 174., 174., 162., 155., 154., 153., 154., 170.,
          181., 154., 26., 26., 23., 30., 26., 32., 7., 10., 8., 11., 2.,
          153., 170., 170., 167., 157., 156., 145., 144., 139., 143.,
          153., 172., 150., 22., 29., 26., 28., 32., 34., 4., 7., 4., 3.,
          4., 154., 159., 164., 159., 152., 144., 132., 128., 137., 127.,
          141., 169., 143., 6., 14., 9., 11., 8., 11., 66., 42., 67.,
          88., 93., 137., 82., 68., 72., 61., 59., 49., 50., 61., 75.,
          68., 83., 156., 128., 125., 131., 123., 128., 131., 110., 94.,
          72., 112., 141., 126., 6., 0., 3., 46., 96., 75., 80., 84.,
          47., 7., 11., 160., 179., 189., 195., 206., 204., 208., 103.,
          108., 107., 78., 152., 135., 7., 98., 89., 90., 85., 87., 89.,
          77., 85., 53., 0., 164., 182., 188., 198., 199., 205., 208.,
          96., 126., 110., 94., 101., 93., 80., 89., 90., 82., 82., 83.,
          107., 75., 104., 101., 3., 171., 186., 195., 195., 207., 208.,
          210., 127., 153., 145., 137., 118., 111., 99., 79., 88., 69.,
          82., 90., 123., 114., 127., 125., 35., 170., 189., 194., 203.,
          208., 207., 211. ]
      - [ 63., 60., 61., 57., 60., 63., 53., 19., 37., 41., 34., 35.,
          38., 35., 14., 0., 0., 1., 1., 30., 19., 36., 32., 26., 60.,
          58., 61., 60., 62., 63., 51., 11., 6., 25., 36., 36., 25., 14.,
          3., 1., 2., 0., 2., 39., 26., 33., 39., 27., 60., 60., 63.,
          63., 56., 55., 48., 10., 0., 2., 2., 2., 0., 0., 0., 0., 2.,
          0., 0., 39., 32., 29., 40., 33., 56., 57., 59., 62., 53., 53.,
          51., 18., 0., 0., 0., 1., 2., 3., 2., 0., 0., 4., 4., 39., 36.,
          27., 32., 38., 59., 56., 53., 56., 49., 46., 40., 16., 1., 0.,
          2., 0., 0., 0., 0., 1., 1., 1., 0., 33., 40., 42., 27., 23.,
          50., 47., 41., 42., 36., 33., 31., 30., 22., 23., 26., 26.,
          28., 24., 23., 20., 19., 20., 29., 43., 23., 28., 19., 18., 0.,
          2., 0., 1., 0., 2., 10., 36., 37., 40., 42., 39., 44., 41.,
          41., 42., 38., 37., 40., 32., 0., 2., 0., 0., 0., 2., 0., 0.,
          0., 0., 5., 42., 36., 37., 35., 30., 38., 37., 37., 38., 39.,
          41., 37., 21., 0., 0., 0., 0., 0., 1., 0., 0., 0., 0., 7., 41.,
          38., 35., 27., 27., 22., 27., 31., 41., 40., 39., 38., 25., 1.,
          0., 2., 0., 0., 1., 0., 0., 0., 0., 7., 41., 37., 34., 32.,
          31., 28., 25., 26., 30., 36., 36., 36., 22., 0., 0., 0., 0.,
          0., 2., 1., 0., 0., 0., 8., 41., 30., 28., 30., 39., 37., 37.,
          31., 26., 32., 35., 35., 20., 0., 0., 0., 0., 0., 2., 0., 0.,
          0., 0., 7., 39., 35., 33., 40., 53., 54., 53., 43., 32., 29.,
          35., 34., 19., 1., 1., 0., 1., 0., 1., 0., 0., 0., 1., 7., 39.,
          33., 32., 45., 56., 63., 58., 49., 34., 29., 35., 34., 19., 1.,
          0., 0., 0., 0., 1., 0., 0., 1., 0., 9., 43., 35., 36., 39.,
          60., 63., 69., 52., 39., 31., 33., 33., 20., 1., 0., 0., 0.,
          0., 0., 0., 0., 0., 0., 11., 50., 42., 42., 36., 52., 50., 58.,
          40., 33., 33., 32., 32., 22., 1., 0., 0., 0., 0., 0., 0., 1.,
          0., 0., 13., 56., 47., 46., 49., 41., 45., 36., 37., 34., 35.,
          31., 31., 22., 1., 0., 1., 0., 1., 0., 4., 1., 0., 0., 17.,
          51., 50., 45., 39., 37., 36., 36., 37., 39., 37., 35., 31.,
          20., 2., 1., 0., 0., 8., 6., 3., 2., 4., 5., 30., 51., 49.,
          51., 49., 44., 40., 41., 42., 42., 31., 36., 36., 28., 7., 6.,
          7., 8., 48., 48., 49., 50., 48., 38., 36., 24., 8., 11., 13.,
          11., 8., 5., 4., 5., 7., 1., 5., 30., 30., 29., 28., 27., 58.,
          53., 57., 52., 52., 51., 39., 18., 2., 1., 0., 0., 0., 0., 0.,
          0., 0., 0., 3., 31., 30., 28., 26., 17., 56., 56., 61., 52.,
          47., 46., 37., 13., 0., 0., 0., 0., 0., 3., 1., 0., 0., 2., 3.,
          31., 28., 27., 29., 24., 59., 63., 59., 53., 47., 42., 42.,
          15., 2., 0., 0., 1., 0., 0., 0., 2., 2., 0., 0., 31., 34., 32.,
          28., 27., 56., 62., 57., 55., 52., 44., 39., 9., 0., 7., 19.,
          25., 22., 13., 3., 0., 0., 3., 3., 32., 33., 33., 25., 25.,
          58., 60., 62., 56., 54., 49., 40., 19., 9., 30., 40., 31., 28.,
          34., 25., 5., 0., 1., 0., 34., 38., 34., 25., 34. ]
      - [ 123., 126., 117., 121., 115., 123., 92., 80., 37., 36., 57.,
          78., 54., 12., 76., 58., 32., 61., 56., 52., 66., 103., 127.,
          103., 121., 127., 121., 76., 71., 72., 7., 22., 25., 30., 54.,
          76., 86., 38., 95., 41., 61., 53., 112., 73., 97., 116., 126.,
          105., 132., 116., 83., 54., 51., 53., 18., 25., 24., 31., 45.,
          67., 90., 87., 57., 15., 20., 36., 63., 94., 106., 126., 123.,
          34., 119., 127., 59., 54., 52., 46., 41., 23., 23., 29., 30.,
          73., 94., 103., 38., 3., 35., 39., 77., 97., 106., 77., 34.,
          30., 133., 125., 65., 51., 44., 36., 38., 35., 27., 24., 37.,
          81., 96., 105., 5., 2., 51., 53., 93., 31., 32., 21., 40., 35.,
          121., 123., 95., 43., 44., 42., 29., 36., 32., 24., 56., 89.,
          121., 76., 2., 64., 99., 126., 117., 29., 18., 27., 37., 74.,
          118., 107., 103., 61., 44., 30., 31., 32., 33., 28., 57., 124.,
          84., 10., 0., 12., 115., 95., 48., 38., 26., 21., 47., 78.,
          19., 15., 18., 17., 35., 43., 59., 57., 59., 57., 47., 21.,
          32., 70., 80., 80., 35., 40., 60., 61., 47., 46., 73., 88., 0.,
          1., 0., 1., 45., 64., 75., 83., 87., 78., 56., 14., 19., 28.,
          93., 86., 43., 42., 66., 67., 73., 69., 90., 98., 1., 0., 3.,
          10., 64., 84., 102., 122., 117., 97., 44., 22., 23., 35., 68.,
          34., 29., 33., 44., 59., 71., 91., 78., 90., 0., 1., 0., 2.,
          83., 89., 119., 178., 101., 104., 18., 22., 35., 47., 43., 45.,
          34., 37., 42., 58., 78., 94., 92., 29., 1., 0., 0., 3., 66.,
          95., 122., 124., 119., 49., 26., 6., 29., 69., 48., 54., 29.,
          37., 38., 56., 73., 98., 101., 24., 0., 0., 0., 1., 5., 51.,
          93., 68., 34., 53., 58., 57., 16., 86., 68., 61., 38., 33.,
          37., 65., 88., 104., 102., 33., 2., 0., 0., 0., 0., 6., 34.,
          25., 30., 36., 51., 67., 63., 94., 93., 77., 32., 36., 46.,
          89., 110., 139., 114., 64., 1., 0., 2., 0., 5., 6., 24., 18.,
          22., 29., 52., 79., 77., 94., 100., 108., 43., 39., 81., 102.,
          114., 88., 43., 64., 0., 2., 0., 0., 0., 17., 20., 23., 21.,
          28., 55., 79., 92., 94., 105., 80., 67., 81., 100., 75., 42.,
          41., 35., 58., 0., 0., 0., 1., 0., 5., 36., 24., 20., 38., 69.,
          97., 95., 70., 64., 83., 127., 130., 112., 33., 36., 31., 31.,
          46., 1., 2., 0., 1., 0., 27., 26., 26., 25., 53., 85., 88.,
          87., 60., 43., 57., 110., 62., 73., 48., 32., 29., 37., 57.,
          0., 2., 0., 0., 25., 22., 30., 23., 28., 60., 78., 50., 31.,
          37., 45., 42., 43., 50., 42., 53., 34., 42., 35., 70., 87.,
          91., 83., 46., 28., 40., 39., 40., 37., 40., 15., 13., 9., 7.,
          11., 23., 22., 19., 44., 43., 53., 47., 55., 81., 121., 129.,
          115., 34., 58., 63., 61., 68., 55., 38., 13., 27., 30., 28.,
          19., 3., 0., 27., 47., 42., 45., 47., 52., 81., 130., 126.,
          129., 56., 78., 89., 86., 87., 72., 33., 22., 29., 34., 33.,
          26., 14., 5., 42., 41., 40., 40., 50., 59., 73., 125., 135.,
          116., 69., 94., 103., 111., 95., 79., 27., 24., 26., 18., 23.,
          37., 32., 34., 39., 39., 47., 60., 60., 66., 103., 128., 136.,
          126., 89., 107., 108., 113., 122., 39., 27., 24., 29., 22.,
          11., 23., 49., 40., 46., 36., 44., 86., 84., 85., 86. ]
      - [ 91., 94., 93., 90., 79., 78., 56., 0., 2., 35., 48., 54., 60.,
